Start	End	Midpoint	Breakpoint_bp	Non_breakpoint_bp	Feature_bp_inside	%Inside	Feature_bp_outside	%Outside	Ratio
-25000	-24500	-24750	21884	46879087	1748	7.99	3118402	6.65	1.2008	
-24950	-24450	-24700	21884	46879087	1928	8.81	3118222	6.65	1.3245	
-24900	-24400	-24650	21884	46879087	2128	9.72	3118022	6.65	1.4620	
-24850	-24350	-24600	21884	46879087	2295	10.49	3117855	6.65	1.5768	
-24800	-24300	-24550	21884	46879087	2445	11.17	3117705	6.65	1.6799	
-24750	-24250	-24500	21884	46879087	2644	12.08	3117506	6.65	1.8168	
-24700	-24200	-24450	21884	46879087	2820	12.89	3117330	6.65	1.9378	
-24650	-24150	-24400	21884	46879087	2936	13.42	3117214	6.65	2.0176	
-24600	-24100	-24350	21884	46879087	2916	13.32	3117234	6.65	2.0039	
-24550	-24050	-24300	21884	46879087	2816	12.87	3117334	6.65	1.9351	
-24500	-24000	-24250	21884	46879087	2817	12.87	3117333	6.65	1.9358	
-24450	-23950	-24200	21884	46879087	2837	12.96	3117313	6.65	1.9495	
-24400	-23900	-24150	21884	46879087	2837	12.96	3117313	6.65	1.9495	
-24350	-23850	-24100	21884	46879087	2859	13.06	3117291	6.65	1.9647	
-24300	-23800	-24050	21884	46879087	2859	13.06	3117291	6.65	1.9647	
-24250	-23750	-24000	21884	46879087	2810	12.84	3117340	6.65	1.9310	
-24200	-23700	-23950	21884	46879087	2730	12.47	3117420	6.65	1.8759	
-24150	-23650	-23900	21884	46879087	2630	12.02	3117520	6.65	1.8072	
-24100	-23600	-23850	21884	46879087	2554	11.67	3117596	6.65	1.7549	
-24050	-23550	-23800	21884	46879087	2504	11.44	3117646	6.65	1.7205	
-24000	-23500	-23750	21884	46879087	2360	10.78	3117790	6.65	1.6215	
-23950	-23450	-23700	21884	46879087	2221	10.15	3117929	6.65	1.5259	
-23900	-23400	-23650	21884	46879087	2084	9.52	3118066	6.65	1.4317	
-23850	-23350	-23600	21884	46879087	1995	9.12	3118155	6.65	1.3706	
-23800	-23300	-23550	21884	46879087	1945	8.89	3118205	6.65	1.3362	
-23750	-23250	-23500	21884	46879087	1846	8.44	3118304	6.65	1.2681	
-23700	-23200	-23450	21884	46879087	1776	8.12	3118374	6.65	1.2200	
-23650	-23150	-23400	21884	46879087	1734	7.92	3118416	6.65	1.1912	
-23600	-23100	-23350	21884	46879087	1734	7.92	3118416	6.65	1.1912	
-23550	-23050	-23300	21884	46879087	1778	8.12	3118372	6.65	1.2214	
-23500	-23000	-23250	21884	46879087	1877	8.58	3118273	6.65	1.2894	
-23450	-22950	-23200	21884	46879087	1966	8.98	3118184	6.65	1.3506	
-23400	-22900	-23150	21884	46879087	2053	9.38	3118097	6.65	1.4104	
-23350	-22850	-23100	21884	46879087	2138	9.77	3118012	6.65	1.4689	
-23300	-22800	-23050	21884	46879087	2238	10.23	3117912	6.65	1.5376	
-23250	-22750	-23000	21884	46879087	2387	10.91	3117763	6.65	1.6401	
-23200	-22700	-22950	21884	46879087	2538	11.60	3117612	6.65	1.7439	
-23150	-22650	-22900	21884	46879087	2730	12.47	3117420	6.65	1.8759	
-23100	-22600	-22850	21884	46879087	2929	13.38	3117221	6.65	2.0128	
-23050	-22550	-22800	21884	46879087	3077	14.06	3117073	6.65	2.1146	
-23000	-22500	-22750	21884	46879087	3177	14.52	3116973	6.65	2.1834	
-22950	-22450	-22700	21884	46879087	3277	14.97	3116873	6.65	2.2522	
-22900	-22400	-22650	21884	46879087	3386	15.47	3116764	6.65	2.3272	
-22850	-22350	-22600	21884	46879087	3438	15.71	3116712	6.65	2.3630	
-22800	-22300	-22550	21884	46879087	3438	15.71	3116712	6.65	2.3630	
-22750	-22250	-22500	21884	46879087	3438	15.71	3116712	6.65	2.3630	
-22700	-22200	-22450	21884	46879087	3478	15.89	3116672	6.65	2.3905	
-22650	-22150	-22400	21884	46879087	3429	15.67	3116721	6.65	2.3568	
-22600	-22100	-22350	21884	46879087	3368	15.39	3116782	6.65	2.3148	
-22550	-22050	-22300	21884	46879087	3326	15.20	3116824	6.65	2.2859	
-22500	-22000	-22250	21884	46879087	3326	15.20	3116824	6.65	2.2859	
-22450	-21950	-22200	21884	46879087	3326	15.20	3116824	6.65	2.2859	
-22400	-21900	-22150	21884	46879087	3355	15.33	3116795	6.65	2.3059	
-22350	-21850	-22100	21884	46879087	3418	15.62	3116732	6.65	2.3492	
-22300	-21800	-22050	21884	46879087	3462	15.82	3116688	6.65	2.3795	
-22250	-21750	-22000	21884	46879087	3462	15.82	3116688	6.65	2.3795	
-22200	-21700	-21950	21884	46879087	3446	15.75	3116704	6.65	2.3685	
-22150	-21650	-21900	21884	46879087	3495	15.97	3116655	6.65	2.4022	
-22100	-21600	-21850	21884	46879087	3435	15.70	3116715	6.65	2.3609	
-22050	-21550	-21800	21884	46879087	3291	15.04	3116859	6.65	2.2618	
-22000	-21500	-21750	21884	46879087	3141	14.35	3117009	6.65	2.1587	
-21950	-21450	-21700	21884	46879087	2991	13.67	3117159	6.65	2.0555	
-21900	-21400	-21650	21884	46879087	2803	12.81	3117347	6.65	1.9262	
-21850	-21350	-21600	21884	46879087	2611	11.93	3117539	6.65	1.7941	
-21800	-21300	-21550	21884	46879087	2479	11.33	3117671	6.65	1.7033	
-21750	-21250	-21500	21884	46879087	2379	10.87	3117771	6.65	1.6346	
-21700	-21200	-21450	21884	46879087	2215	10.12	3117935	6.65	1.5218	
-21650	-21150	-21400	21884	46879087	1965	8.98	3118185	6.65	1.3499	
-21600	-21100	-21350	21884	46879087	1807	8.26	3118343	6.65	1.2413	
-21550	-21050	-21300	21884	46879087	1701	7.77	3118449	6.65	1.1685	
-21500	-21000	-21250	21884	46879087	1601	7.32	3118549	6.65	1.0997	
-21450	-20950	-21200	21884	46879087	1501	6.86	3118649	6.65	1.0310	
-21400	-20900	-21150	21884	46879087	1393	6.37	3118757	6.65	0.9568	
-21350	-20850	-21100	21884	46879087	1235	5.64	3118915	6.65	0.8482	
-21300	-20800	-21050	21884	46879087	1073	4.90	3119077	6.65	0.7369	
-21250	-20750	-21000	21884	46879087	923	4.22	3119227	6.65	0.6339	
-21200	-20700	-20950	21884	46879087	812	3.71	3119338	6.65	0.5576	
-21150	-20650	-20900	21884	46879087	762	3.48	3119388	6.65	0.5233	
-21100	-20600	-20850	21884	46879087	692	3.16	3119458	6.65	0.4752	
-21050	-20550	-20800	21884	46879087	642	2.93	3119508	6.65	0.4409	
-21000	-20500	-20750	21884	46879087	592	2.71	3119558	6.65	0.4065	
-20950	-20450	-20700	21884	46879087	542	2.48	3119608	6.65	0.3722	
-20900	-20400	-20650	21884	46879087	500	2.28	3119650	6.65	0.3433	
-20850	-20350	-20600	21884	46879087	500	2.28	3119650	6.65	0.3433	
-20800	-20300	-20550	21884	46879087	556	2.54	3119594	6.65	0.3818	
-20750	-20250	-20500	21884	46879087	656	3.00	3119494	6.65	0.4505	
-20700	-20200	-20450	21884	46879087	756	3.45	3119394	6.65	0.5192	
-20650	-20150	-20400	21884	46879087	856	3.91	3119294	6.65	0.5879	
-20600	-20100	-20350	21884	46879087	956	4.37	3119194	6.65	0.6566	
-20550	-20050	-20300	21884	46879087	1056	4.83	3119094	6.65	0.7253	
-20500	-20000	-20250	21884	46879087	1156	5.28	3118994	6.65	0.7940	
-20450	-19950	-20200	21884	46879087	1256	5.74	3118894	6.65	0.8627	
-20400	-19900	-20150	21884	46879087	1356	6.20	3118794	6.65	0.9314	
-20350	-19850	-20100	21884	46879087	1456	6.65	3118694	6.65	1.0001	
-20300	-19800	-20050	21884	46879087	1500	6.85	3118650	6.65	1.0303	
-20250	-19750	-20000	21884	46879087	1549	7.08	3118601	6.65	1.0640	
-20200	-19700	-19950	21884	46879087	1599	7.31	3118551	6.65	1.0984	
-20150	-19650	-19900	21884	46879087	1695	7.75	3118455	6.65	1.1643	
-20100	-19600	-19850	21884	46879087	1845	8.43	3118305	6.65	1.2674	
-20050	-19550	-19800	21884	46879087	1951	8.92	3118199	6.65	1.3403	
-20000	-19500	-19750	21884	46879087	2082	9.51	3118068	6.65	1.4304	
-19950	-19450	-19700	21884	46879087	2232	10.20	3117918	6.65	1.5335	
-19900	-19400	-19650	21884	46879087	2382	10.88	3117768	6.65	1.6366	
-19850	-19350	-19600	21884	46879087	2596	11.86	3117554	6.65	1.7838	
-19800	-19300	-19550	21884	46879087	2846	13.00	3117304	6.65	1.9557	
-19750	-19250	-19500	21884	46879087	3047	13.92	3117103	6.65	2.0940	
-19700	-19200	-19450	21884	46879087	3247	14.84	3116903	6.65	2.2316	
-19650	-19150	-19400	21884	46879087	3352	15.32	3116798	6.65	2.3038	
-19600	-19100	-19350	21884	46879087	3402	15.55	3116748	6.65	2.3382	
-19550	-19050	-19300	21884	46879087	3473	15.87	3116677	6.65	2.3871	
-19500	-19000	-19250	21884	46879087	3536	16.16	3116614	6.65	2.4304	
-19450	-18950	-19200	21884	46879087	3586	16.39	3116564	6.65	2.4648	
-19400	-18900	-19150	21884	46879087	3636	16.61	3116514	6.65	2.4992	
-19350	-18850	-19100	21884	46879087	3577	16.35	3116573	6.65	2.4586	
-19300	-18800	-19050	21884	46879087	3477	15.89	3116673	6.65	2.3898	
-19250	-18750	-19000	21884	46879087	3366	15.38	3116784	6.65	2.3134	
-19200	-18700	-18950	21884	46879087	3216	14.70	3116934	6.65	2.2102	
-19150	-18650	-18900	21884	46879087	3115	14.23	3117035	6.65	2.1408	
-19100	-18600	-18850	21884	46879087	3015	13.78	3117135	6.65	2.0720	
-19050	-18550	-18800	21884	46879087	2962	13.54	3117188	6.65	2.0355	
-19000	-18500	-18750	21884	46879087	2942	13.44	3117208	6.65	2.0218	
-18950	-18450	-18700	21884	46879087	2942	13.44	3117208	6.65	2.0218	
-18900	-18400	-18650	21884	46879087	2942	13.44	3117208	6.65	2.0218	
-18850	-18350	-18600	21884	46879087	2987	13.65	3117163	6.65	2.0527	
-18800	-18300	-18550	21884	46879087	3037	13.88	3117113	6.65	2.0871	
-18750	-18250	-18500	21884	46879087	3098	14.16	3117052	6.65	2.1291	
-18700	-18200	-18450	21884	46879087	3198	14.61	3116952	6.65	2.1979	
-18650	-18150	-18400	21884	46879087	3226	14.74	3116924	6.65	2.2171	
-18600	-18100	-18350	21884	46879087	3226	14.74	3116924	6.65	2.2171	
-18550	-18050	-18300	21884	46879087	3202	14.63	3116948	6.65	2.2006	
-18500	-18000	-18250	21884	46879087	3093	14.13	3117057	6.65	2.1256	
-18450	-17950	-18200	21884	46879087	2919	13.34	3117231	6.65	2.0059	
-18400	-17900	-18150	21884	46879087	2719	12.42	3117431	6.65	1.8684	
-18350	-17850	-18100	21884	46879087	2549	11.65	3117601	6.65	1.7515	
-18300	-17800	-18050	21884	46879087	2355	10.76	3117795	6.65	1.6181	
-18250	-17750	-18000	21884	46879087	2119	9.68	3118031	6.65	1.4558	
-18200	-17700	-17950	21884	46879087	1819	8.31	3118331	6.65	1.2496	
-18150	-17650	-17900	21884	46879087	1591	7.27	3118559	6.65	1.0929	
-18100	-17600	-17850	21884	46879087	1391	6.36	3118759	6.65	0.9554	
-18050	-17550	-17800	21884	46879087	1191	5.44	3118959	6.65	0.8180	
-18000	-17500	-17750	21884	46879087	1026	4.69	3119124	6.65	0.7046	
-17950	-17450	-17700	21884	46879087	900	4.11	3119250	6.65	0.6181	
-17900	-17400	-17650	21884	46879087	770	3.52	3119380	6.65	0.5288	
-17850	-17350	-17600	21884	46879087	628	2.87	3119522	6.65	0.4312	
-17800	-17300	-17550	21884	46879087	543	2.48	3119607	6.65	0.3729	
-17750	-17250	-17500	21884	46879087	560	2.56	3119590	6.65	0.3845	
-17700	-17200	-17450	21884	46879087	660	3.02	3119490	6.65	0.4532	
-17650	-17150	-17400	21884	46879087	812	3.71	3119338	6.65	0.5576	
-17600	-17100	-17350	21884	46879087	1012	4.62	3119138	6.65	0.6950	
-17550	-17050	-17300	21884	46879087	1212	5.54	3118938	6.65	0.8324	
-17500	-17000	-17250	21884	46879087	1412	6.45	3118738	6.65	0.9699	
-17450	-16950	-17200	21884	46879087	1612	7.37	3118538	6.65	1.1073	
-17400	-16900	-17150	21884	46879087	1842	8.42	3118308	6.65	1.2654	
-17350	-16850	-17100	21884	46879087	2054	9.39	3118096	6.65	1.4111	
-17300	-16800	-17050	21884	46879087	2233	10.20	3117917	6.65	1.5342	
-17250	-16750	-17000	21884	46879087	2397	10.95	3117753	6.65	1.6469	
-17200	-16700	-16950	21884	46879087	2527	11.55	3117623	6.65	1.7363	
-17150	-16650	-16900	21884	46879087	2625	12.00	3117525	6.65	1.8037	
-17100	-16600	-16850	21884	46879087	2675	12.22	3117475	6.65	1.8381	
-17050	-16550	-16800	21884	46879087	2717	12.42	3117433	6.65	1.8670	
-17000	-16500	-16750	21884	46879087	2717	12.42	3117433	6.65	1.8670	
-16950	-16450	-16700	21884	46879087	2756	12.59	3117394	6.65	1.8938	
-16900	-16400	-16650	21884	46879087	2762	12.62	3117388	6.65	1.8980	
-16850	-16350	-16600	21884	46879087	2762	12.62	3117388	6.65	1.8980	
-16800	-16300	-16550	21884	46879087	2762	12.62	3117388	6.65	1.8980	
-16750	-16250	-16500	21884	46879087	2717	12.42	3117433	6.65	1.8670	
-16700	-16200	-16450	21884	46879087	2687	12.28	3117463	6.65	1.8464	
-16650	-16150	-16400	21884	46879087	2661	12.16	3117489	6.65	1.8285	
-16600	-16100	-16350	21884	46879087	2661	12.16	3117489	6.65	1.8285	
-16550	-16050	-16300	21884	46879087	2669	12.20	3117481	6.65	1.8340	
-16500	-16000	-16250	21884	46879087	2681	12.25	3117469	6.65	1.8422	
-16450	-15950	-16200	21884	46879087	2642	12.07	3117508	6.65	1.8154	
-16400	-15900	-16150	21884	46879087	2636	12.05	3117514	6.65	1.8113	
-16350	-15850	-16100	21884	46879087	2636	12.05	3117514	6.65	1.8113	
-16300	-15800	-16050	21884	46879087	2635	12.04	3117515	6.65	1.8106	
-16250	-15750	-16000	21884	46879087	2585	11.81	3117565	6.65	1.7762	
-16200	-15700	-15950	21884	46879087	2535	11.58	3117615	6.65	1.7418	
-16150	-15650	-15900	21884	46879087	2461	11.25	3117689	6.65	1.6910	
-16100	-15600	-15850	21884	46879087	2330	10.65	3117820	6.65	1.6009	
-16050	-15550	-15800	21884	46879087	2141	9.78	3118009	6.65	1.4709	
-16000	-15500	-15750	21884	46879087	1979	9.04	3118171	6.65	1.3596	
-15950	-15450	-15700	21884	46879087	1846	8.44	3118304	6.65	1.2681	
-15900	-15400	-15650	21884	46879087	1784	8.15	3118366	6.65	1.2255	
-15850	-15350	-15600	21884	46879087	1758	8.03	3118392	6.65	1.2076	
-15800	-15300	-15550	21884	46879087	1742	7.96	3118408	6.65	1.1967	
-15750	-15250	-15500	21884	46879087	1659	7.58	3118491	6.65	1.1396	
-15700	-15200	-15450	21884	46879087	1559	7.12	3118591	6.65	1.0709	
-15650	-15150	-15400	21884	46879087	1459	6.67	3118691	6.65	1.0022	
-15600	-15100	-15350	21884	46879087	1384	6.32	3118766	6.65	0.9506	
-15550	-15050	-15300	21884	46879087	1349	6.16	3118801	6.65	0.9266	
-15500	-15000	-15250	21884	46879087	1299	5.94	3118851	6.65	0.8922	
-15450	-14950	-15200	21884	46879087	1276	5.83	3118874	6.65	0.8764	
-15400	-14900	-15150	21884	46879087	1188	5.43	3118962	6.65	0.8159	
-15350	-14850	-15100	21884	46879087	1064	4.86	3119086	6.65	0.7307	
-15300	-14800	-15050	21884	46879087	931	4.25	3119219	6.65	0.6394	
-15250	-14750	-15000	21884	46879087	914	4.18	3119236	6.65	0.6277	
-15200	-14700	-14950	21884	46879087	914	4.18	3119236	6.65	0.6277	
-15150	-14650	-14900	21884	46879087	963	4.40	3119187	6.65	0.6614	
-15100	-14600	-14850	21884	46879087	1019	4.66	3119131	6.65	0.6998	
-15050	-14550	-14800	21884	46879087	1093	4.99	3119057	6.65	0.7507	
-15000	-14500	-14750	21884	46879087	1149	5.25	3119001	6.65	0.7891	
-14950	-14450	-14700	21884	46879087	1155	5.28	3118995	6.65	0.7933	
-14900	-14400	-14650	21884	46879087	1190	5.44	3118960	6.65	0.8173	
-14850	-14350	-14600	21884	46879087	1240	5.67	3118910	6.65	0.8517	
-14800	-14300	-14550	21884	46879087	1311	5.99	3118839	6.65	0.9005	
-14750	-14250	-14500	21884	46879087	1441	6.58	3118709	6.65	0.9898	
-14700	-14200	-14450	21884	46879087	1524	6.96	3118626	6.65	1.0468	
-14650	-14150	-14400	21884	46879087	1525	6.97	3118625	6.65	1.0475	
-14600	-14100	-14350	21884	46879087	1525	6.97	3118625	6.65	1.0475	
-14550	-14050	-14300	21884	46879087	1525	6.97	3118625	6.65	1.0475	
-14500	-14000	-14250	21884	46879087	1569	7.17	3118581	6.65	1.0778	
-14450	-13950	-14200	21884	46879087	1619	7.40	3118531	6.65	1.1121	
-14400	-13900	-14150	21884	46879087	1634	7.47	3118516	6.65	1.1224	
-14350	-13850	-14100	21884	46879087	1634	7.47	3118516	6.65	1.1224	
-14300	-13800	-14050	21884	46879087	1613	7.37	3118537	6.65	1.1080	
-14250	-13750	-14000	21884	46879087	1571	7.18	3118579	6.65	1.0791	
-14200	-13700	-13950	21884	46879087	1588	7.26	3118562	6.65	1.0908	
-14150	-13650	-13900	21884	46879087	1608	7.35	3118542	6.65	1.1046	
-14100	-13600	-13850	21884	46879087	1608	7.35	3118542	6.65	1.1046	
-14050	-13550	-13800	21884	46879087	1608	7.35	3118542	6.65	1.1046	
-14000	-13500	-13750	21884	46879087	1608	7.35	3118542	6.65	1.1046	
-13950	-13450	-13700	21884	46879087	1608	7.35	3118542	6.65	1.1046	
-13900	-13400	-13650	21884	46879087	1611	7.36	3118539	6.65	1.1066	
-13850	-13350	-13600	21884	46879087	1661	7.59	3118489	6.65	1.1410	
-13800	-13300	-13550	21884	46879087	1711	7.82	3118439	6.65	1.1753	
-13750	-13250	-13500	21884	46879087	1748	7.99	3118402	6.65	1.2008	
-13700	-13200	-13450	21884	46879087	1798	8.22	3118352	6.65	1.2351	
-13650	-13150	-13400	21884	46879087	1840	8.41	3118310	6.65	1.2640	
-13600	-13100	-13350	21884	46879087	1869	8.54	3118281	6.65	1.2839	
-13550	-13050	-13300	21884	46879087	1869	8.54	3118281	6.65	1.2839	
-13500	-13000	-13250	21884	46879087	1869	8.54	3118281	6.65	1.2839	
-13450	-12950	-13200	21884	46879087	1869	8.54	3118281	6.65	1.2839	
-13400	-12900	-13150	21884	46879087	1831	8.37	3118319	6.65	1.2578	
-13350	-12850	-13100	21884	46879087	1731	7.91	3118419	6.65	1.1891	
-13300	-12800	-13050	21884	46879087	1638	7.48	3118512	6.65	1.1252	
-13250	-12750	-13000	21884	46879087	1513	6.91	3118637	6.65	1.0393	
-13200	-12700	-12950	21884	46879087	1363	6.23	3118787	6.65	0.9362	
-13150	-12650	-12900	21884	46879087	1284	5.87	3118866	6.65	0.8819	
-13100	-12600	-12850	21884	46879087	1255	5.73	3118895	6.65	0.8620	
-13050	-12550	-12800	21884	46879087	1255	5.73	3118895	6.65	0.8620	
-13000	-12500	-12750	21884	46879087	1255	5.73	3118895	6.65	0.8620	
-12950	-12450	-12700	21884	46879087	1255	5.73	3118895	6.65	0.8620	
-12900	-12400	-12650	21884	46879087	1290	5.89	3118860	6.65	0.8860	
-12850	-12350	-12600	21884	46879087	1357	6.20	3118793	6.65	0.9321	
-12800	-12300	-12550	21884	46879087	1400	6.40	3118750	6.65	0.9616	
-12750	-12250	-12500	21884	46879087	1450	6.63	3118700	6.65	0.9960	
-12700	-12200	-12450	21884	46879087	1475	6.74	3118675	6.65	1.0132	
-12650	-12150	-12400	21884	46879087	1442	6.59	3118708	6.65	0.9905	
-12600	-12100	-12350	21884	46879087	1392	6.36	3118758	6.65	0.9561	
-12550	-12050	-12300	21884	46879087	1342	6.13	3118808	6.65	0.9218	
-12500	-12000	-12250	21884	46879087	1303	5.95	3118847	6.65	0.8950	
-12450	-11950	-12200	21884	46879087	1327	6.06	3118823	6.65	0.9114	
-12400	-11900	-12150	21884	46879087	1377	6.29	3118773	6.65	0.9458	
-12350	-11850	-12100	21884	46879087	1410	6.44	3118740	6.65	0.9685	
-12300	-11800	-12050	21884	46879087	1505	6.88	3118645	6.65	1.0338	
-12250	-11750	-12000	21884	46879087	1605	7.33	3118545	6.65	1.1025	
-12200	-11700	-11950	21884	46879087	1730	7.91	3118420	6.65	1.1884	
-12150	-11650	-11900	21884	46879087	1880	8.59	3118270	6.65	1.2915	
-12100	-11600	-11850	21884	46879087	2030	9.28	3118120	6.65	1.3946	
-12050	-11550	-11800	21884	46879087	2180	9.96	3117970	6.65	1.4977	
-12000	-11500	-11750	21884	46879087	2319	10.60	3117831	6.65	1.5933	
-11950	-11450	-11700	21884	46879087	2363	10.80	3117787	6.65	1.6236	
-11900	-11400	-11650	21884	46879087	2413	11.03	3117737	6.65	1.6579	
-11850	-11350	-11600	21884	46879087	2439	11.15	3117711	6.65	1.6758	
-11800	-11300	-11550	21884	46879087	2394	10.94	3117756	6.65	1.6449	
-11750	-11250	-11500	21884	46879087	2375	10.85	3117775	6.65	1.6318	
-11700	-11200	-11450	21884	46879087	2375	10.85	3117775	6.65	1.6318	
-11650	-11150	-11400	21884	46879087	2375	10.85	3117775	6.65	1.6318	
-11600	-11100	-11350	21884	46879087	2364	10.80	3117786	6.65	1.6243	
-11550	-11050	-11300	21884	46879087	2314	10.57	3117836	6.65	1.5899	
-11500	-11000	-11250	21884	46879087	2272	10.38	3117878	6.65	1.5610	
-11450	-10950	-11200	21884	46879087	2304	10.53	3117846	6.65	1.5830	
-11400	-10900	-11150	21884	46879087	2353	10.75	3117797	6.65	1.6167	
-11350	-10850	-11100	21884	46879087	2454	11.21	3117696	6.65	1.6861	
-11300	-10800	-11050	21884	46879087	2604	11.90	3117546	6.65	1.7893	
-11250	-10750	-11000	21884	46879087	2723	12.44	3117427	6.65	1.8711	
-11200	-10700	-10950	21884	46879087	2823	12.90	3117327	6.65	1.9399	
-11150	-10650	-10900	21884	46879087	2923	13.36	3117227	6.65	2.0087	
-11100	-10600	-10850	21884	46879087	3034	13.86	3117116	6.65	2.0850	
-11050	-10550	-10800	21884	46879087	3184	14.55	3116966	6.65	2.1882	
-11000	-10500	-10750	21884	46879087	3295	15.06	3116855	6.65	2.2646	
-10950	-10450	-10700	21884	46879087	3386	15.47	3116764	6.65	2.3272	
-10900	-10400	-10650	21884	46879087	3436	15.70	3116714	6.65	2.3616	
-10850	-10350	-10600	21884	46879087	3409	15.58	3116741	6.65	2.3430	
-10800	-10300	-10550	21884	46879087	3273	14.96	3116877	6.65	2.2495	
-10750	-10250	-10500	21884	46879087	3096	14.15	3117054	6.65	2.1277	
-10700	-10200	-10450	21884	46879087	2896	13.23	3117254	6.65	1.9901	
-10650	-10150	-10400	21884	46879087	2696	12.32	3117454	6.65	1.8526	
-10600	-10100	-10350	21884	46879087	2469	11.28	3117681	6.65	1.6965	
-10550	-10050	-10300	21884	46879087	2219	10.14	3117931	6.65	1.5246	
-10500	-10000	-10250	21884	46879087	2000	9.14	3118150	6.65	1.3740	
-10450	-9950	-10200	21884	46879087	1751	8.00	3118399	6.65	1.2028	
-10400	-9900	-10150	21884	46879087	1501	6.86	3118649	6.65	1.0310	
-10350	-9850	-10100	21884	46879087	1339	6.12	3118811	6.65	0.9197	
-10300	-9800	-10050	21884	46879087	1275	5.83	3118875	6.65	0.8757	
-10250	-9750	-10000	21884	46879087	1252	5.72	3118898	6.65	0.8599	
-10200	-9700	-9950	21884	46879087	1209	5.52	3118941	6.65	0.8304	
-10150	-9650	-9900	21884	46879087	1209	5.52	3118941	6.65	0.8304	
-10100	-9600	-9850	21884	46879087	1236	5.65	3118914	6.65	0.8489	
-10050	-9550	-9800	21884	46879087	1286	5.88	3118864	6.65	0.8833	
-10000	-9500	-9750	21884	46879087	1337	6.11	3118813	6.65	0.9183	
-9950	-9450	-9700	21884	46879087	1445	6.60	3118705	6.65	0.9925	
-9900	-9400	-9650	21884	46879087	1546	7.06	3118604	6.65	1.0619	
-9850	-9350	-9600	21884	46879087	1608	7.35	3118542	6.65	1.1046	
-9800	-9300	-9550	21884	46879087	1658	7.58	3118492	6.65	1.1389	
-9750	-9250	-9500	21884	46879087	1708	7.80	3118442	6.65	1.1733	
-9700	-9200	-9450	21884	46879087	1801	8.23	3118349	6.65	1.2372	
-9650	-9150	-9400	21884	46879087	1851	8.46	3118299	6.65	1.2716	
-9600	-9100	-9350	21884	46879087	1901	8.69	3118249	6.65	1.3059	
-9550	-9050	-9300	21884	46879087	1951	8.92	3118199	6.65	1.3403	
-9500	-9000	-9250	21884	46879087	2000	9.14	3118150	6.65	1.3740	
-9450	-8950	-9200	21884	46879087	1994	9.11	3118156	6.65	1.3699	
-9400	-8900	-9150	21884	46879087	1970	9.00	3118180	6.65	1.3534	
-9350	-8850	-9100	21884	46879087	1920	8.77	3118230	6.65	1.3190	
-9300	-8800	-9050	21884	46879087	1876	8.57	3118274	6.65	1.2888	
-9250	-8750	-9000	21884	46879087	1851	8.46	3118299	6.65	1.2716	
-9200	-8700	-8950	21884	46879087	1851	8.46	3118299	6.65	1.2716	
-9150	-8650	-8900	21884	46879087	1890	8.64	3118260	6.65	1.2984	
-9100	-8600	-8850	21884	46879087	1940	8.86	3118210	6.65	1.3328	
-9050	-8550	-8800	21884	46879087	1990	9.09	3118160	6.65	1.3671	
-9000	-8500	-8750	21884	46879087	2040	9.32	3118110	6.65	1.4015	
-8950	-8450	-8700	21884	46879087	2096	9.58	3118054	6.65	1.4400	
-8900	-8400	-8650	21884	46879087	2170	9.92	3117980	6.65	1.4909	
-8850	-8350	-8600	21884	46879087	2295	10.49	3117855	6.65	1.5768	
-8800	-8300	-8550	21884	46879087	2439	11.15	3117711	6.65	1.6758	
-8750	-8250	-8500	21884	46879087	2605	11.90	3117545	6.65	1.7900	
-8700	-8200	-8450	21884	46879087	2716	12.41	3117434	6.65	1.8663	
-8650	-8150	-8400	21884	46879087	2750	12.57	3117400	6.65	1.8897	
-8600	-8100	-8350	21884	46879087	2701	12.34	3117449	6.65	1.8560	
-8550	-8050	-8300	21884	46879087	2689	12.29	3117461	6.65	1.8477	
-8500	-8000	-8250	21884	46879087	2708	12.37	3117442	6.65	1.8608	
-8450	-7950	-8200	21884	46879087	2734	12.49	3117416	6.65	1.8787	
-8400	-7900	-8150	21884	46879087	2784	12.72	3117366	6.65	1.9131	
-8350	-7850	-8100	21884	46879087	2809	12.84	3117341	6.65	1.9303	
-8300	-7800	-8050	21884	46879087	2809	12.84	3117341	6.65	1.9303	
-8250	-7750	-8000	21884	46879087	2724	12.45	3117426	6.65	1.8718	
-8200	-7700	-7950	21884	46879087	2666	12.18	3117484	6.65	1.8319	
-8150	-7650	-7900	21884	46879087	2626	12.00	3117524	6.65	1.8044	
-8100	-7600	-7850	21884	46879087	2625	12.00	3117525	6.65	1.8037	
-8050	-7550	-7800	21884	46879087	2587	11.82	3117563	6.65	1.7776	
-8000	-7500	-7750	21884	46879087	2518	11.51	3117632	6.65	1.7301	
-7950	-7450	-7700	21884	46879087	2442	11.16	3117708	6.65	1.6779	
-7900	-7400	-7650	21884	46879087	2342	10.70	3117808	6.65	1.6091	
-7850	-7350	-7600	21884	46879087	2242	10.24	3117908	6.65	1.5404	
-7800	-7300	-7550	21884	46879087	2142	9.79	3118008	6.65	1.4716	
-7750	-7250	-7500	21884	46879087	2086	9.53	3118064	6.65	1.4331	
-7700	-7200	-7450	21884	46879087	2033	9.29	3118117	6.65	1.3967	
-7650	-7150	-7400	21884	46879087	2000	9.14	3118150	6.65	1.3740	
-7600	-7100	-7350	21884	46879087	2005	9.16	3118145	6.65	1.3774	
-7550	-7050	-7300	21884	46879087	2055	9.39	3118095	6.65	1.4118	
-7500	-7000	-7250	21884	46879087	2080	9.50	3118070	6.65	1.4290	
-7450	-6950	-7200	21884	46879087	2036	9.30	3118114	6.65	1.3987	
-7400	-6900	-7150	21884	46879087	2024	9.25	3118126	6.65	1.3905	
-7350	-6850	-7100	21884	46879087	2048	9.36	3118102	6.65	1.4070	
-7300	-6800	-7050	21884	46879087	2096	9.58	3118054	6.65	1.4400	
-7250	-6750	-7000	21884	46879087	2146	9.81	3118004	6.65	1.4744	
-7200	-6700	-6950	21884	46879087	2214	10.12	3117936	6.65	1.5211	
-7150	-6650	-6900	21884	46879087	2314	10.57	3117836	6.65	1.5899	
-7100	-6600	-6850	21884	46879087	2409	11.01	3117741	6.65	1.6552	
-7050	-6550	-6800	21884	46879087	2459	11.24	3117691	6.65	1.6896	
-7000	-6500	-6750	21884	46879087	2534	11.58	3117616	6.65	1.7412	
-6950	-6450	-6700	21884	46879087	2727	12.46	3117423	6.65	1.8739	
-6900	-6400	-6650	21884	46879087	2851	13.03	3117299	6.65	1.9592	
-6850	-6350	-6600	21884	46879087	2927	13.38	3117223	6.65	2.0114	
-6800	-6300	-6550	21884	46879087	3002	13.72	3117148	6.65	2.0630	
-6750	-6250	-6500	21884	46879087	3152	14.40	3116998	6.65	2.1662	
-6700	-6200	-6450	21884	46879087	3333	15.23	3116817	6.65	2.2907	
-6650	-6150	-6400	21884	46879087	3544	16.19	3116606	6.65	2.4359	
-6600	-6100	-6350	21884	46879087	3720	17.00	3116430	6.65	2.5570	
-6550	-6050	-6300	21884	46879087	3865	17.66	3116285	6.65	2.6568	
-6500	-6000	-6250	21884	46879087	3942	18.01	3116208	6.65	2.7098	
-6450	-5950	-6200	21884	46879087	3893	17.79	3116257	6.65	2.6761	
-6400	-5900	-6150	21884	46879087	3881	17.73	3116269	6.65	2.6678	
-6350	-5850	-6100	21884	46879087	3892	17.78	3116258	6.65	2.6754	
-6300	-5800	-6050	21884	46879087	3919	17.91	3116231	6.65	2.6940	
-6250	-5750	-6000	21884	46879087	3869	17.68	3116281	6.65	2.6596	
-6200	-5700	-5950	21884	46879087	3770	17.23	3116380	6.65	2.5915	
-6150	-5650	-5900	21884	46879087	3658	16.72	3116492	6.65	2.5144	
-6100	-5600	-5850	21884	46879087	3589	16.40	3116561	6.65	2.4669	
-6050	-5550	-5800	21884	46879087	3495	15.97	3116655	6.65	2.4022	
-6000	-5500	-5750	21884	46879087	3450	15.76	3116700	6.65	2.3712	
-5950	-5450	-5700	21884	46879087	3450	15.76	3116700	6.65	2.3712	
-5900	-5400	-5650	21884	46879087	3485	15.92	3116665	6.65	2.3953	
-5850	-5350	-5600	21884	46879087	3524	16.10	3116626	6.65	2.4222	
-5800	-5300	-5550	21884	46879087	3509	16.03	3116641	6.65	2.4118	
-5750	-5250	-5500	21884	46879087	3448	15.76	3116702	6.65	2.3699	
-5700	-5200	-5450	21884	46879087	3348	15.30	3116802	6.65	2.3011	
-5650	-5150	-5400	21884	46879087	3248	14.84	3116902	6.65	2.2323	
-5600	-5100	-5350	21884	46879087	3092	14.13	3117058	6.65	2.1249	
-5550	-5050	-5300	21884	46879087	2991	13.67	3117159	6.65	2.0555	
-5500	-5000	-5250	21871	46879100	2884	13.19	3117266	6.65	1.9830	
-5450	-4950	-5200	21771	46879200	2784	12.79	3117366	6.65	1.9230	
-5400	-4900	-5150	21671	46879300	2649	12.22	3117501	6.65	1.8381	
-5350	-4850	-5100	21571	46879400	2475	11.47	3117675	6.65	1.7253	
-5300	-4800	-5050	21471	46879500	2275	10.60	3117875	6.65	1.5931	
-5250	-4750	-5000	21397	46879574	2086	9.75	3118064	6.65	1.4658	
-5200	-4700	-4950	21497	46879474	1949	9.07	3118201	6.65	1.3631	
-5150	-4650	-4900	21597	46879374	1899	8.79	3118251	6.65	1.3219	
-5100	-4600	-4850	21697	46879274	1887	8.70	3118263	6.65	1.3075	
-5050	-4550	-4800	21797	46879174	1887	8.66	3118263	6.65	1.3015	
-5000	-4500	-4750	21884	46879087	1912	8.74	3118238	6.65	1.3135	
-4950	-4450	-4700	21884	46879087	2007	9.17	3118143	6.65	1.3788	
-4900	-4400	-4650	21884	46879087	2109	9.64	3118041	6.65	1.4489	
-4850	-4350	-4600	21884	46879087	2233	10.20	3117917	6.65	1.5342	
-4800	-4300	-4550	21884	46879087	2408	11.00	3117742	6.65	1.6545	
-4750	-4250	-4500	21884	46879087	2623	11.99	3117527	6.65	1.8024	
-4700	-4200	-4450	21884	46879087	2825	12.91	3117325	6.65	1.9413	
-4650	-4150	-4400	21884	46879087	2925	13.37	3117225	6.65	2.0101	
-4600	-4100	-4350	21884	46879087	2987	13.65	3117163	6.65	2.0527	
-4550	-4050	-4300	21884	46879087	3048	13.93	3117102	6.65	2.0947	
-4500	-4000	-4250	21884	46879087	3148	14.38	3117002	6.65	2.1635	
-4450	-3950	-4200	21884	46879087	3191	14.58	3116959	6.65	2.1930	
-4400	-3900	-4150	21884	46879087	3189	14.57	3116961	6.65	2.1917	
-4350	-3850	-4100	21884	46879087	3189	14.57	3116961	6.65	2.1917	
-4300	-3800	-4050	21884	46879087	3161	14.44	3116989	6.65	2.1724	
-4250	-3750	-4000	21884	46879087	3061	13.99	3117089	6.65	2.1036	
-4200	-3700	-3950	21884	46879087	2971	13.58	3117179	6.65	2.0417	
-4150	-3650	-3900	21884	46879087	2871	13.12	3117279	6.65	1.9729	
-4100	-3600	-3850	21884	46879087	2771	12.66	3117379	6.65	1.9041	
-4050	-3550	-3800	21884	46879087	2660	12.15	3117490	6.65	1.8278	
-4000	-3500	-3750	21884	46879087	2535	11.58	3117615	6.65	1.7418	
-3950	-3450	-3700	21884	46879087	2447	11.18	3117703	6.65	1.6813	
-3900	-3400	-3650	21884	46879087	2397	10.95	3117753	6.65	1.6469	
-3850	-3350	-3600	21884	46879087	2347	10.72	3117803	6.65	1.6126	
-3800	-3300	-3550	21884	46879087	2289	10.46	3117861	6.65	1.5727	
-3750	-3250	-3500	21884	46879087	2194	10.03	3117956	6.65	1.5074	
-3700	-3200	-3450	21884	46879087	2119	9.68	3118031	6.65	1.4558	
-3650	-3150	-3400	21884	46879087	2069	9.45	3118081	6.65	1.4214	
-3600	-3100	-3350	21884	46879087	2019	9.23	3118131	6.65	1.3871	
-3550	-3050	-3300	21884	46879087	1996	9.12	3118154	6.65	1.3712	
-3500	-3000	-3250	21884	46879087	1971	9.01	3118179	6.65	1.3541	
-3450	-2950	-3200	21884	46879087	1883	8.60	3118267	6.65	1.2936	
-3400	-2900	-3150	21884	46879087	1783	8.15	3118367	6.65	1.2248	
-3350	-2850	-3100	21884	46879087	1683	7.69	3118467	6.65	1.1561	
-3300	-2800	-3050	21884	46879087	1643	7.51	3118507	6.65	1.1286	
-3250	-2750	-3000	21884	46879087	1729	7.90	3118421	6.65	1.1877	
-3200	-2700	-2950	21884	46879087	1879	8.59	3118271	6.65	1.2908	
-3150	-2650	-2900	21884	46879087	2029	9.27	3118121	6.65	1.3939	
-3100	-2600	-2850	21884	46879087	2179	9.96	3117971	6.65	1.4971	
-3050	-2550	-2800	21884	46879087	2302	10.52	3117848	6.65	1.5816	
-3000	-2500	-2750	21884	46879087	2402	10.98	3117748	6.65	1.6504	
-2950	-2450	-2700	21884	46879087	2515	11.49	3117635	6.65	1.7281	
-2900	-2400	-2650	21884	46879087	2615	11.95	3117535	6.65	1.7969	
-2850	-2350	-2600	21884	46879087	2715	12.41	3117435	6.65	1.8656	
-2800	-2300	-2550	21884	46879087	2739	12.52	3117411	6.65	1.8821	
-2750	-2250	-2500	21884	46879087	2698	12.33	3117452	6.65	1.8539	
-2700	-2200	-2450	21817	46879154	2602	11.93	3117548	6.65	1.7934	
-2650	-2150	-2400	21617	46879354	2549	11.79	3117601	6.65	1.7731	
-2600	-2100	-2350	21417	46879554	2460	11.49	3117690	6.65	1.7271	
-2550	-2050	-2300	21217	46879754	2449	11.54	3117701	6.65	1.7356	
-2500	-2000	-2250	21017	46879954	2485	11.82	3117665	6.65	1.7779	
-2450	-1950	-2200	20951	46880020	2510	11.98	3117640	6.65	1.8015	
-2400	-1900	-2150	21151	46879820	2560	12.10	3117590	6.65	1.8200	
-2350	-1850	-2100	21351	46879620	2610	12.22	3117540	6.65	1.8382	
-2300	-1800	-2050	21511	46879460	2687	12.49	3117463	6.65	1.8784	
-2250	-1750	-2000	21611	46879360	2826	13.08	3117324	6.65	1.9665	
-2200	-1700	-1950	21644	46879327	2972	13.73	3117178	6.65	2.0651	
-2150	-1650	-1900	21544	46879427	3075	14.27	3117075	6.65	2.1466	
-2100	-1600	-1850	21444	46879527	3214	14.99	3116936	6.65	2.2542	
-2050	-1550	-1800	21384	46879587	3237	15.14	3116913	6.65	2.2767	
-2000	-1500	-1750	21384	46879587	3201	14.97	3116949	6.65	2.2514	
-1950	-1450	-1700	21384	46879587	3163	14.79	3116987	6.65	2.2246	
-1900	-1400	-1650	21384	46879587	3072	14.37	3117078	6.65	2.1606	
-1850	-1350	-1600	21440	46879531	3060	14.27	3117090	6.65	2.1465	
-1800	-1300	-1550	21540	46879431	3080	14.30	3117070	6.65	2.1505	
-1750	-1250	-1500	21640	46879331	3041	14.05	3117109	6.65	2.1134	
-1700	-1200	-1450	21740	46879231	2991	13.76	3117159	6.65	2.0691	
-1650	-1150	-1400	21761	46879210	2891	13.29	3117259	6.65	1.9979	
-1600	-1100	-1350	21705	46879266	2799	12.90	3117351	6.65	1.9393	
-1550	-1050	-1300	21536	46879435	2718	12.62	3117432	6.65	1.8979	
-1500	-1000	-1250	21336	46879635	2579	12.09	3117571	6.65	1.8176	
-1450	-950	-1200	21136	46879835	2467	11.67	3117683	6.65	1.7551	
-1400	-900	-1150	21094	46879877	2408	11.42	3117742	6.65	1.7165	
-1350	-850	-1100	21094	46879877	2270	10.76	3117880	6.65	1.6181	
-1300	-800	-1050	21232	46879739	2179	10.26	3117971	6.65	1.5430	
-1250	-750	-1000	21432	46879539	2220	10.36	3117930	6.65	1.5574	
-1200	-700	-950	21632	46879339	2270	10.49	3117880	6.65	1.5778	
-1150	-650	-900	21753	46879218	2367	10.88	3117783	6.65	1.6361	
-1100	-600	-850	21853	46879118	2417	11.06	3117733	6.65	1.6631	
-1050	-550	-800	21884	46879087	2409	11.01	3117741	6.65	1.6552	
-1000	-500	-750	21866	46879105	2448	11.20	3117702	6.65	1.6834	
-950	-450	-700	21766	46879205	2491	11.44	3117659	6.65	1.7209	
-900	-400	-650	21666	46879305	2541	11.73	3117609	6.65	1.7635	
-850	-350	-600	21566	46879405	2591	12.01	3117559	6.65	1.8066	
-800	-300	-550	21466	46879505	2631	12.26	3117519	6.65	1.8431	
-750	-250	-500	21402	46879569	2590	12.10	3117560	6.65	1.8198	
-700	-200	-450	21502	46879469	2554	11.88	3117596	6.65	1.7861	
-650	-150	-400	21602	46879369	2518	11.66	3117632	6.65	1.7527	
-600	-100	-350	21702	46879269	2568	11.83	3117582	6.65	1.7793	
-550	-50	-300	21802	46879169	2610	11.97	3117540	6.65	1.8002	
-500	0	-250	22884	46878587	3133	13.69	3117017	6.65	2.0590	
-450	50	-200	21884	46879087	2739	12.52	3117411	6.65	1.8821	
-400	100	-150	21884	46879087	2839	12.97	3117311	6.65	1.9509	
-350	150	-100	21884	46879087	2939	13.43	3117211	6.65	2.0197	
-300	200	-50	21884	46879087	3039	13.89	3117111	6.65	2.0885	
-250	250	0	21884	46879087	3139	14.34	3117011	6.65	2.1573	
-200	300	50	21884	46879087	3171	14.49	3116979	6.65	2.1793	
-150	350	100	21884	46879087	3154	14.41	3116996	6.65	2.1676	
-100	400	150	21884	46879087	3104	14.18	3117046	6.65	2.1332	
-50	450	200	21884	46879087	3021	13.80	3117129	6.65	2.0761	
0	500	250	22884	46878087	2948	12.88	3117202	6.65	1.9373	
50	550	300	21884	46879087	2848	13.01	3117302	6.65	1.9571	
100	600	350	21884	46879087	2748	12.56	3117402	6.65	1.8883	
150	650	400	21884	46879087	2648	12.10	3117502	6.65	1.8195	
200	700	450	21884	46879087	2592	11.84	3117558	6.65	1.7810	
250	750	500	21884	46879087	2542	11.62	3117608	6.65	1.7467	
300	800	550	21884	46879087	2585	11.81	3117565	6.65	1.7762	
350	850	600	21884	46879087	2691	12.30	3117459	6.65	1.8491	
400	900	650	21884	46879087	2791	12.75	3117359	6.65	1.9179	
450	950	700	21884	46879087	2932	13.40	3117218	6.65	2.0149	
500	1000	750	21884	46879087	3082	14.08	3117068	6.65	2.1181	
550	1050	800	21884	46879087	3183	14.54	3116967	6.65	2.1875	
600	1100	850	21884	46879087	3234	14.78	3116916	6.65	2.2226	
650	1150	900	21884	46879087	3292	15.04	3116858	6.65	2.2625	
700	1200	950	21884	46879087	3371	15.40	3116779	6.65	2.3169	
750	1250	1000	21884	46879087	3471	15.86	3116679	6.65	2.3857	
800	1300	1050	21884	46879087	3488	15.94	3116662	6.65	2.3974	
850	1350	1100	21884	46879087	3523	16.10	3116627	6.65	2.4215	
900	1400	1150	21884	46879087	3573	16.33	3116577	6.65	2.4559	
950	1450	1200	21884	46879087	3623	16.56	3116527	6.65	2.4903	
1000	1500	1250	21884	46879087	3716	16.98	3116434	6.65	2.5543	
1050	1550	1300	21884	46879087	3857	17.62	3116293	6.65	2.6513	
1100	1600	1350	21884	46879087	4057	18.54	3116093	6.65	2.7890	
1150	1650	1400	21884	46879087	4299	19.64	3115851	6.65	2.9556	
1200	1700	1450	21884	46879087	4476	20.45	3115674	6.65	3.0774	
1250	1750	1500	21884	46879087	4626	21.14	3115524	6.65	3.1807	
1300	1800	1550	21884	46879087	4785	21.87	3115365	6.65	3.2902	
1350	1850	1600	21884	46879087	4882	22.31	3115268	6.65	3.3570	
1400	1900	1650	21884	46879087	4874	22.27	3115276	6.65	3.3515	
1450	1950	1700	21884	46879087	4774	21.82	3115376	6.65	3.2826	
1500	2000	1750	21884	46879087	4592	20.98	3115558	6.65	3.1573	
1550	2050	1800	21884	46879087	4351	19.88	3115799	6.65	2.9914	
1600	2100	1850	21884	46879087	4100	18.74	3116050	6.65	2.8186	
1650	2150	1900	21884	46879087	3800	17.36	3116350	6.65	2.6121	
1700	2200	1950	21884	46879087	3544	16.19	3116606	6.65	2.4359	
1750	2250	2000	21884	46879087	3294	15.05	3116856	6.65	2.2639	
1800	2300	2050	21884	46879087	3079	14.07	3117071	6.65	2.1160	
1850	2350	2100	21884	46879087	2897	13.24	3117253	6.65	1.9908	
1900	2400	2150	21884	46879087	2782	12.71	3117368	6.65	1.9117	
1950	2450	2200	21884	46879087	2756	12.59	3117394	6.65	1.8938	
2000	2500	2250	21884	46879087	2771	12.66	3117379	6.65	1.9041	
2050	2550	2300	21884	46879087	2728	12.47	3117422	6.65	1.8746	
2100	2600	2350	21884	46879087	2637	12.05	3117513	6.65	1.8120	
2150	2650	2400	21884	46879087	2542	11.62	3117608	6.65	1.7467	
2200	2700	2450	21884	46879087	2448	11.19	3117702	6.65	1.6820	
2250	2750	2500	21884	46879087	2348	10.73	3117802	6.65	1.6133	
2300	2800	2550	21884	46879087	2204	10.07	3117946	6.65	1.5142	
2350	2850	2600	21884	46879087	2054	9.39	3118096	6.65	1.4111	
2400	2900	2650	21884	46879087	1976	9.03	3118174	6.65	1.3575	
2450	2950	2700	21884	46879087	1902	8.69	3118248	6.65	1.3066	
2500	3000	2750	21884	46879087	1826	8.34	3118324	6.65	1.2544	
2550	3050	2800	21884	46879087	1819	8.31	3118331	6.65	1.2496	
2600	3100	2850	21884	46879087	1901	8.69	3118249	6.65	1.3059	
2650	3150	2900	21884	46879087	2046	9.35	3118104	6.65	1.4056	
2700	3200	2950	21884	46879087	2171	9.92	3117979	6.65	1.4916	
2750	3250	3000	21884	46879087	2321	10.61	3117829	6.65	1.5947	
2800	3300	3050	21884	46879087	2515	11.49	3117635	6.65	1.7281	
2850	3350	3100	21884	46879087	2753	12.58	3117397	6.65	1.8918	
2900	3400	3150	21884	46879087	3028	13.84	3117122	6.65	2.0809	
2950	3450	3200	21884	46879087	3267	14.93	3116883	6.65	2.2453	
3000	3500	3250	21884	46879087	3418	15.62	3116732	6.65	2.3492	
3050	3550	3300	21884	46879087	3568	16.30	3116582	6.65	2.4524	
3100	3600	3350	21884	46879087	3677	16.80	3116473	6.65	2.5275	
3150	3650	3400	21884	46879087	3727	17.03	3116423	6.65	2.5619	
3200	3700	3450	21884	46879087	3744	17.11	3116406	6.65	2.5736	
3250	3750	3500	21884	46879087	3732	17.05	3116418	6.65	2.5653	
3300	3800	3550	21884	46879087	3707	16.94	3116443	6.65	2.5481	
3350	3850	3600	21884	46879087	3619	16.54	3116531	6.65	2.4875	
3400	3900	3650	21884	46879087	3445	15.74	3116705	6.65	2.3678	
3450	3950	3700	21884	46879087	3306	15.11	3116844	6.65	2.2722	
3500	4000	3750	21884	46879087	3211	14.67	3116939	6.65	2.2068	
3550	4050	3800	21884	46879087	3154	14.41	3116996	6.65	2.1676	
3600	4100	3850	21884	46879087	3066	14.01	3117084	6.65	2.1071	
3650	4150	3900	21884	46879087	2966	13.55	3117184	6.65	2.0383	
3700	4200	3950	21884	46879087	2874	13.13	3117276	6.65	1.9750	
3750	4250	4000	21884	46879087	2831	12.94	3117319	6.65	1.9454	
3800	4300	4050	21884	46879087	2771	12.66	3117379	6.65	1.9041	
3850	4350	4100	21884	46879087	2721	12.43	3117429	6.65	1.8698	
3900	4400	4150	21884	46879087	2671	12.21	3117479	6.65	1.8354	
3950	4450	4200	21884	46879087	2621	11.98	3117529	6.65	1.8010	
4000	4500	4250	21884	46879087	2638	12.05	3117512	6.65	1.8127	
4050	4550	4300	21884	46879087	2645	12.09	3117505	6.65	1.8175	
4100	4600	4350	21884	46879087	2683	12.26	3117467	6.65	1.8436	
4150	4650	4400	21884	46879087	2733	12.49	3117417	6.65	1.8780	
4200	4700	4450	21884	46879087	2783	12.72	3117367	6.65	1.9124	
4250	4750	4500	21884	46879087	2788	12.74	3117362	6.65	1.9158	
4300	4800	4550	21884	46879087	2814	12.86	3117336	6.65	1.9337	
4350	4850	4600	21884	46879087	2903	13.27	3117247	6.65	1.9949	
4400	4900	4650	21884	46879087	3024	13.82	3117126	6.65	2.0782	
4450	4950	4700	21884	46879087	3174	14.50	3116976	6.65	2.1814	
4500	5000	4750	21884	46879087	3301	15.08	3116849	6.65	2.2687	
4550	5050	4800	21884	46879087	3401	15.54	3116749	6.65	2.3375	
4600	5100	4850	21884	46879087	3478	15.89	3116672	6.65	2.3905	
4650	5150	4900	21884	46879087	3483	15.92	3116667	6.65	2.3940	
4700	5200	4950	21884	46879087	3483	15.92	3116667	6.65	2.3940	
4750	5250	5000	21884	46879087	3440	15.72	3116710	6.65	2.3644	
4800	5300	5050	21884	46879087	3417	15.61	3116733	6.65	2.3485	
4850	5350	5100	21884	46879087	3416	15.61	3116734	6.65	2.3479	
4900	5400	5150	21884	46879087	3395	15.51	3116755	6.65	2.3334	
4950	5450	5200	21884	46879087	3345	15.29	3116805	6.65	2.2990	
5000	5500	5250	21884	46879087	3323	15.18	3116827	6.65	2.2839	
5050	5550	5300	21884	46879087	3273	14.96	3116877	6.65	2.2495	
5100	5600	5350	21884	46879087	3246	14.83	3116904	6.65	2.2309	
5150	5650	5400	21884	46879087	3258	14.89	3116892	6.65	2.2391	
5200	5700	5450	21884	46879087	3229	14.76	3116921	6.65	2.2192	
5250	5750	5500	21884	46879087	3159	14.44	3116991	6.65	2.1710	
5300	5800	5550	21884	46879087	3041	13.90	3117109	6.65	2.0899	
5350	5850	5600	21884	46879087	2853	13.04	3117297	6.65	1.9605	
5400	5900	5650	21884	46879087	2653	12.12	3117497	6.65	1.8230	
5450	5950	5700	21884	46879087	2415	11.04	3117735	6.65	1.6593	
5500	6000	5750	21884	46879087	2160	9.87	3117990	6.65	1.4840	
5550	6050	5800	21884	46879087	1960	8.96	3118190	6.65	1.3465	
5600	6100	5850	21884	46879087	1772	8.10	3118378	6.65	1.2173	
5650	6150	5900	21884	46879087	1655	7.56	3118495	6.65	1.1369	
5700	6200	5950	21884	46879087	1584	7.24	3118566	6.65	1.0881	
5750	6250	6000	21884	46879087	1548	7.07	3118602	6.65	1.0633	
5800	6300	6050	21884	46879087	1548	7.07	3118602	6.65	1.0633	
5850	6350	6100	21884	46879087	1548	7.07	3118602	6.65	1.0633	
5900	6400	6150	21884	46879087	1548	7.07	3118602	6.65	1.0633	
5950	6450	6200	21884	46879087	1586	7.25	3118564	6.65	1.0894	
6000	6500	6250	21884	46879087	1663	7.60	3118487	6.65	1.1424	
6050	6550	6300	21884	46879087	1713	7.83	3118437	6.65	1.1767	
6100	6600	6350	21884	46879087	1751	8.00	3118399	6.65	1.2028	
6150	6650	6400	21884	46879087	1751	8.00	3118399	6.65	1.2028	
6200	6700	6450	21884	46879087	1751	8.00	3118399	6.65	1.2028	
6250	6750	6500	21884	46879087	1849	8.45	3118301	6.65	1.2702	
6300	6800	6550	21884	46879087	1931	8.82	3118219	6.65	1.3266	
6350	6850	6600	21884	46879087	1969	9.00	3118181	6.65	1.3527	
6400	6900	6650	21884	46879087	1920	8.77	3118230	6.65	1.3190	
6450	6950	6700	21884	46879087	1820	8.32	3118330	6.65	1.2503	
6500	7000	6750	21884	46879087	1670	7.63	3118480	6.65	1.1472	
6550	7050	6800	21884	46879087	1540	7.04	3118610	6.65	1.0578	
6600	7100	6850	21884	46879087	1390	6.35	3118760	6.65	0.9547	
6650	7150	6900	21884	46879087	1240	5.67	3118910	6.65	0.8517	
6700	7200	6950	21884	46879087	1090	4.98	3119060	6.65	0.7486	
6750	7250	7000	21884	46879087	940	4.30	3119210	6.65	0.6456	
6800	7300	7050	21884	46879087	841	3.84	3119309	6.65	0.5776	
6850	7350	7100	21884	46879087	803	3.67	3119347	6.65	0.5514	
6900	7400	7150	21884	46879087	842	3.85	3119308	6.65	0.5782	
6950	7450	7200	21884	46879087	942	4.30	3119208	6.65	0.6469	
7000	7500	7250	21884	46879087	1042	4.76	3119108	6.65	0.7156	
7050	7550	7300	21884	46879087	1122	5.13	3119028	6.65	0.7706	
7100	7600	7350	21884	46879087	1207	5.52	3118943	6.65	0.8290	
7150	7650	7400	21884	46879087	1257	5.74	3118893	6.65	0.8634	
7200	7700	7450	21884	46879087	1268	5.79	3118882	6.65	0.8709	
7250	7750	7500	21884	46879087	1283	5.86	3118867	6.65	0.8812	
7300	7800	7550	21884	46879087	1268	5.79	3118882	6.65	0.8709	
7350	7850	7600	21884	46879087	1268	5.79	3118882	6.65	0.8709	
7400	7900	7650	21884	46879087	1278	5.84	3118872	6.65	0.8778	
7450	7950	7700	21884	46879087	1278	5.84	3118872	6.65	0.8778	
7500	8000	7750	21884	46879087	1278	5.84	3118872	6.65	0.8778	
7550	8050	7800	21884	46879087	1278	5.84	3118872	6.65	0.8778	
7600	8100	7850	21884	46879087	1278	5.84	3118872	6.65	0.8778	
7650	8150	7900	21884	46879087	1278	5.84	3118872	6.65	0.8778	
7700	8200	7950	21884	46879087	1284	5.87	3118866	6.65	0.8819	
7750	8250	8000	21884	46879087	1284	5.87	3118866	6.65	0.8819	
7800	8300	8050	21884	46879087	1316	6.01	3118834	6.65	0.9039	
7850	8350	8100	21884	46879087	1316	6.01	3118834	6.65	0.9039	
7900	8400	8150	21884	46879087	1267	5.79	3118883	6.65	0.8702	
7950	8450	8200	21884	46879087	1217	5.56	3118933	6.65	0.8359	
8000	8500	8250	21884	46879087	1167	5.33	3118983	6.65	0.8015	
8050	8550	8300	21884	46879087	1117	5.10	3119033	6.65	0.7672	
8100	8600	8350	21884	46879087	1106	5.05	3119044	6.65	0.7596	
8150	8650	8400	21884	46879087	1150	5.25	3119000	6.65	0.7898	
8200	8700	8450	21884	46879087	1233	5.63	3118917	6.65	0.8469	
8250	8750	8500	21884	46879087	1333	6.09	3118817	6.65	0.9156	
8300	8800	8550	21884	46879087	1384	6.32	3118766	6.65	0.9506	
8350	8850	8600	21884	46879087	1453	6.64	3118697	6.65	0.9980	
8400	8900	8650	21884	46879087	1521	6.95	3118629	6.65	1.0448	
8450	8950	8700	21884	46879087	1629	7.44	3118521	6.65	1.1190	
8500	9000	8750	21884	46879087	1779	8.13	3118371	6.65	1.2221	
8550	9050	8800	21884	46879087	1929	8.81	3118221	6.65	1.3252	
8600	9100	8850	21884	46879087	2040	9.32	3118110	6.65	1.4015	
8650	9150	8900	21884	46879087	2096	9.58	3118054	6.65	1.4400	
8700	9200	8950	21884	46879087	2146	9.81	3118004	6.65	1.4744	
8750	9250	9000	21884	46879087	2223	10.16	3117927	6.65	1.5273	
8800	9300	9050	21884	46879087	2372	10.84	3117778	6.65	1.6298	
8850	9350	9100	21884	46879087	2464	11.26	3117686	6.65	1.6930	
8900	9400	9150	21884	46879087	2546	11.63	3117604	6.65	1.7494	
8950	9450	9200	21884	46879087	2588	11.83	3117562	6.65	1.7783	
9000	9500	9250	21884	46879087	2588	11.83	3117562	6.65	1.7783	
9050	9550	9300	21884	46879087	2588	11.83	3117562	6.65	1.7783	
9100	9600	9350	21884	46879087	2603	11.89	3117547	6.65	1.7886	
9150	9650	9400	21884	46879087	2603	11.89	3117547	6.65	1.7886	
9200	9700	9450	21884	46879087	2603	11.89	3117547	6.65	1.7886	
9250	9750	9500	21884	46879087	2576	11.77	3117574	6.65	1.7700	
9300	9800	9550	21884	46879087	2526	11.54	3117624	6.65	1.7356	
9350	9850	9600	21884	46879087	2463	11.25	3117687	6.65	1.6923	
9400	9900	9650	21884	46879087	2363	10.80	3117787	6.65	1.6236	
9450	9950	9700	21884	46879087	2263	10.34	3117887	6.65	1.5548	
9500	10000	9750	21884	46879087	2163	9.88	3117987	6.65	1.4861	
9550	10050	9800	21884	46879087	2063	9.43	3118087	6.65	1.4173	
9600	10100	9850	21884	46879087	1948	8.90	3118202	6.65	1.3382	
9650	10150	9900	21884	46879087	1848	8.44	3118302	6.65	1.2695	
9700	10200	9950	21884	46879087	1748	7.99	3118402	6.65	1.2008	
9750	10250	10000	21884	46879087	1648	7.53	3118502	6.65	1.1320	
9800	10300	10050	21884	46879087	1548	7.07	3118602	6.65	1.0633	
9850	10350	10100	21884	46879087	1500	6.85	3118650	6.65	1.0303	
9900	10400	10150	21884	46879087	1500	6.85	3118650	6.65	1.0303	
9950	10450	10200	21884	46879087	1500	6.85	3118650	6.65	1.0303	
10000	10500	10250	21884	46879087	1500	6.85	3118650	6.65	1.0303	
10050	10550	10300	21884	46879087	1500	6.85	3118650	6.65	1.0303	
10100	10600	10350	21884	46879087	1500	6.85	3118650	6.65	1.0303	
10150	10650	10400	21884	46879087	1500	6.85	3118650	6.65	1.0303	
10200	10700	10450	21884	46879087	1500	6.85	3118650	6.65	1.0303	
10250	10750	10500	21884	46879087	1473	6.73	3118677	6.65	1.0118	
10300	10800	10550	21884	46879087	1472	6.73	3118678	6.65	1.0111	
10350	10850	10600	21884	46879087	1472	6.73	3118678	6.65	1.0111	
10400	10900	10650	21884	46879087	1472	6.73	3118678	6.65	1.0111	
10450	10950	10700	21884	46879087	1427	6.52	3118723	6.65	0.9802	
10500	11000	10750	21884	46879087	1377	6.29	3118773	6.65	0.9458	
10550	11050	10800	21884	46879087	1327	6.06	3118823	6.65	0.9114	
10600	11100	10850	21884	46879087	1277	5.84	3118873	6.65	0.8771	
10650	11150	10900	21884	46879087	1209	5.52	3118941	6.65	0.8304	
10700	11200	10950	21884	46879087	1121	5.12	3119029	6.65	0.7699	
10750	11250	11000	21884	46879087	1141	5.21	3119009	6.65	0.7836	
10800	11300	11050	21884	46879087	1142	5.22	3119008	6.65	0.7843	
10850	11350	11100	21884	46879087	1207	5.52	3118943	6.65	0.8290	
10900	11400	11150	21884	46879087	1330	6.08	3118820	6.65	0.9135	
10950	11450	11200	21884	46879087	1569	7.17	3118581	6.65	1.0778	
11000	11500	11250	21884	46879087	1819	8.31	3118331	6.65	1.2496	
11050	11550	11300	21884	46879087	2020	9.23	3118130	6.65	1.3877	
11100	11600	11350	21884	46879087	2220	10.14	3117930	6.65	1.5252	
11150	11650	11400	21884	46879087	2438	11.14	3117712	6.65	1.6751	
11200	11700	11450	21884	46879087	2714	12.40	3117436	6.65	1.8649	
11250	11750	11500	21884	46879087	2921	13.35	3117229	6.65	2.0073	
11300	11800	11550	21884	46879087	3121	14.26	3117029	6.65	2.1449	
11350	11850	11600	21884	46879087	3291	15.04	3116859	6.65	2.2618	
11400	11900	11650	21884	46879087	3418	15.62	3116732	6.65	2.3492	
11450	11950	11700	21884	46879087	3474	15.87	3116676	6.65	2.3878	
11500	12000	11750	21884	46879087	3524	16.10	3116626	6.65	2.4222	
11550	12050	11800	21884	46879087	3623	16.56	3116527	6.65	2.4903	
11600	12100	11850	21884	46879087	3702	16.92	3116448	6.65	2.5447	
11650	12150	11900	21884	46879087	3752	17.14	3116398	6.65	2.5791	
11700	12200	11950	21884	46879087	3764	17.20	3116386	6.65	2.5873	
11750	12250	12000	21884	46879087	3720	17.00	3116430	6.65	2.5570	
11800	12300	12050	21884	46879087	3604	16.47	3116546	6.65	2.4772	
11850	12350	12100	21884	46879087	3419	15.62	3116731	6.65	2.3499	
11900	12400	12150	21884	46879087	3219	14.71	3116931	6.65	2.2123	
11950	12450	12200	21884	46879087	3068	14.02	3117082	6.65	2.1084	
12000	12500	12250	21884	46879087	2918	13.33	3117232	6.65	2.0053	
12050	12550	12300	21884	46879087	2803	12.81	3117347	6.65	1.9262	
12100	12600	12350	21884	46879087	2686	12.27	3117464	6.65	1.8457	
12150	12650	12400	21884	46879087	2542	11.62	3117608	6.65	1.7467	
12200	12700	12450	21884	46879087	2392	10.93	3117758	6.65	1.6435	
12250	12750	12500	21884	46879087	2286	10.45	3117864	6.65	1.5706	
12300	12800	12550	21884	46879087	2252	10.29	3117898	6.65	1.5472	
12350	12850	12600	21884	46879087	2240	10.24	3117910	6.65	1.5390	
12400	12900	12650	21884	46879087	2155	9.85	3117995	6.65	1.4806	
12450	12950	12700	21884	46879087	2006	9.17	3118144	6.65	1.3781	
12500	13000	12750	21884	46879087	1856	8.48	3118294	6.65	1.2750	
12550	13050	12800	21884	46879087	1671	7.64	3118479	6.65	1.1479	
12600	13100	12850	21884	46879087	1559	7.12	3118591	6.65	1.0709	
12650	13150	12900	21884	46879087	1503	6.87	3118647	6.65	1.0324	
12700	13200	12950	21809	46879162	1453	6.66	3118697	6.65	1.0015	
12750	13250	13000	21709	46879262	1403	6.46	3118747	6.65	0.9714	
12800	13300	13050	21609	46879362	1318	6.10	3118832	6.65	0.9168	
12850	13350	13100	21509	46879462	1261	5.86	3118889	6.65	0.8812	
12900	13400	13150	21409	46879562	1296	6.05	3118854	6.65	0.9099	
12950	13450	13200	21384	46879587	1346	6.29	3118804	6.65	0.9461	
13000	13500	13250	21384	46879587	1396	6.53	3118754	6.65	0.9813	
13050	13550	13300	21384	46879587	1471	6.88	3118679	6.65	1.0340	
13100	13600	13350	21384	46879587	1521	7.11	3118629	6.65	1.0692	
13150	13650	13400	21475	46879496	1571	7.32	3118579	6.65	1.0997	
13200	13700	13450	21575	46879396	1621	7.51	3118529	6.65	1.1294	
13250	13750	13500	21675	46879296	1683	7.76	3118467	6.65	1.1673	
13300	13800	13550	21775	46879196	1818	8.35	3118332	6.65	1.2551	
13350	13850	13600	21875	46879096	1937	8.85	3118213	6.65	1.3312	
13400	13900	13650	21884	46879087	2064	9.43	3118086	6.65	1.4180	
13450	13950	13700	21884	46879087	2214	10.12	3117936	6.65	1.5211	
13500	14000	13750	21884	46879087	2364	10.80	3117786	6.65	1.6243	
13550	14050	13800	21884	46879087	2489	11.37	3117661	6.65	1.7102	
13600	14100	13850	21884	46879087	2540	11.61	3117610	6.65	1.7453	
13650	14150	13900	21884	46879087	2590	11.84	3117560	6.65	1.7797	
13700	14200	13950	21884	46879087	2640	12.06	3117510	6.65	1.8140	
13750	14250	14000	21884	46879087	2678	12.24	3117472	6.65	1.8402	
13800	14300	14050	21884	46879087	2672	12.21	3117478	6.65	1.8361	
13850	14350	14100	21884	46879087	2672	12.21	3117478	6.65	1.8361	
13900	14400	14150	21884	46879087	2656	12.14	3117494	6.65	1.8251	
13950	14450	14200	21884	46879087	2631	12.02	3117519	6.65	1.8079	
14000	14500	14250	21884	46879087	2581	11.79	3117569	6.65	1.7735	
14050	14550	14300	21884	46879087	2531	11.57	3117619	6.65	1.7391	
14100	14600	14350	21884	46879087	2530	11.56	3117620	6.65	1.7384	
14150	14650	14400	21884	46879087	2531	11.57	3117619	6.65	1.7391	
14200	14700	14450	21884	46879087	2581	11.79	3117569	6.65	1.7735	
14250	14750	14500	21884	46879087	2631	12.02	3117519	6.65	1.8079	
14300	14800	14550	21884	46879087	2687	12.28	3117463	6.65	1.8464	
14350	14850	14600	21884	46879087	2737	12.51	3117413	6.65	1.8808	
14400	14900	14650	21884	46879087	2776	12.69	3117374	6.65	1.9076	
14450	14950	14700	21884	46879087	2800	12.79	3117350	6.65	1.9241	
14500	15000	14750	21884	46879087	2789	12.74	3117361	6.65	1.9165	
14550	15050	14800	21884	46879087	2695	12.31	3117455	6.65	1.8519	
14600	15100	14850	21884	46879087	2556	11.68	3117594	6.65	1.7563	
14650	15150	14900	21884	46879087	2355	10.76	3117795	6.65	1.6181	
14700	15200	14950	21884	46879087	2105	9.62	3118045	6.65	1.4462	
14750	15250	15000	21884	46879087	1855	8.48	3118295	6.65	1.2743	
14800	15300	15050	21884	46879087	1605	7.33	3118545	6.65	1.1025	
14850	15350	15100	21884	46879087	1355	6.19	3118795	6.65	0.9307	
14900	15400	15150	21884	46879087	1105	5.05	3119045	6.65	0.7589	
14950	15450	15200	21884	46879087	856	3.91	3119294	6.65	0.5879	
15000	15500	15250	21884	46879087	667	3.05	3119483	6.65	0.4580	
15050	15550	15300	21884	46879087	561	2.56	3119589	6.65	0.3852	
15100	15600	15350	21884	46879087	500	2.28	3119650	6.65	0.3433	
15150	15650	15400	21884	46879087	500	2.28	3119650	6.65	0.3433	
15200	15700	15450	21884	46879087	500	2.28	3119650	6.65	0.3433	
15250	15750	15500	21884	46879087	500	2.28	3119650	6.65	0.3433	
15300	15800	15550	21884	46879087	500	2.28	3119650	6.65	0.3433	
15350	15850	15600	21884	46879087	538	2.46	3119612	6.65	0.3694	
15400	15900	15650	21884	46879087	557	2.55	3119593	6.65	0.3825	
15450	15950	15700	21884	46879087	557	2.55	3119593	6.65	0.3825	
15500	16000	15750	21884	46879087	560	2.56	3119590	6.65	0.3845	
15550	16050	15800	21884	46879087	648	2.96	3119502	6.65	0.4450	
15600	16100	15850	21884	46879087	748	3.42	3119402	6.65	0.5137	
15650	16150	15900	21884	46879087	897	4.10	3119253	6.65	0.6160	
15700	16200	15950	21884	46879087	1047	4.78	3119103	6.65	0.7191	
15750	16250	16000	21884	46879087	1197	5.47	3118953	6.65	0.8221	
15800	16300	16050	21884	46879087	1347	6.16	3118803	6.65	0.9252	
15850	16350	16100	21884	46879087	1504	6.87	3118646	6.65	1.0331	
15900	16400	16150	21884	46879087	1689	7.72	3118461	6.65	1.1602	
15950	16450	16200	21884	46879087	1890	8.64	3118260	6.65	1.2984	
16000	16500	16250	21884	46879087	2087	9.54	3118063	6.65	1.4338	
16050	16550	16300	21884	46879087	2205	10.08	3117945	6.65	1.5149	
16100	16600	16350	21884	46879087	2363	10.80	3117787	6.65	1.6236	
16150	16650	16400	21884	46879087	2476	11.31	3117674	6.65	1.7013	
16200	16700	16450	21884	46879087	2576	11.77	3117574	6.65	1.7700	
16250	16750	16500	21884	46879087	2676	12.23	3117474	6.65	1.8388	
16300	16800	16550	21884	46879087	2799	12.79	3117351	6.65	1.9234	
16350	16850	16600	21884	46879087	2904	13.27	3117246	6.65	1.9956	
16400	16900	16650	21884	46879087	3032	13.85	3117118	6.65	2.0837	
16450	16950	16700	21884	46879087	3086	14.10	3117064	6.65	2.1208	
16500	17000	16750	21884	46879087	3225	14.74	3116925	6.65	2.2164	
16550	17050	16800	21884	46879087	3331	15.22	3116819	6.65	2.2894	
16600	17100	16850	21884	46879087	3386	15.47	3116764	6.65	2.3272	
16650	17150	16900	21884	46879087	3464	15.83	3116686	6.65	2.3809	
16700	17200	16950	21884	46879087	3541	16.18	3116609	6.65	2.4339	
16750	17250	17000	21884	46879087	3691	16.87	3116459	6.65	2.5371	
16800	17300	17050	21884	46879087	3818	17.45	3116332	6.65	2.6245	
16850	17350	17100	21884	46879087	3918	17.90	3116232	6.65	2.6933	
16900	17400	17150	21884	46879087	3986	18.21	3116164	6.65	2.7401	
16950	17450	17200	21884	46879087	4149	18.96	3116001	6.65	2.8523	
17000	17500	17250	21884	46879087	4252	19.43	3115898	6.65	2.9232	
17050	17550	17300	21884	46879087	4340	19.83	3115810	6.65	2.9838	
17100	17600	17350	21884	46879087	4427	20.23	3115723	6.65	3.0437	
17150	17650	17400	21884	46879087	4487	20.50	3115663	6.65	3.0850	
17200	17700	17450	21884	46879087	4547	20.78	3115603	6.65	3.1263	
17250	17750	17500	21884	46879087	4497	20.55	3115653	6.65	3.0919	
17300	17800	17550	21884	46879087	4382	20.02	3115768	6.65	3.0127	
17350	17850	17600	21884	46879087	4232	19.34	3115918	6.65	2.9095	
17400	17900	17650	21840	46879131	4032	18.46	3116118	6.65	2.7774	
17450	17950	17700	21740	46879231	3814	17.54	3116336	6.65	2.6391	
17500	18000	17750	21640	46879331	3603	16.65	3116547	6.65	2.5045	
17550	18050	17800	21540	46879431	3453	16.03	3116697	6.65	2.4112	
17600	18100	17850	21440	46879531	3303	15.41	3116847	6.65	2.3171	
17650	18150	17900	21428	46879543	3153	14.71	3116997	6.65	2.2130	
17700	18200	17950	21528	46879443	2998	13.93	3117152	6.65	2.0944	
17750	18250	18000	21628	46879343	2813	13.01	3117337	6.65	1.9559	
17800	18300	18050	21728	46879243	2655	12.22	3117495	6.65	1.8375	
17850	18350	18100	21828	46879143	2466	11.30	3117684	6.65	1.6987	
17900	18400	18150	21884	46879087	2316	10.58	3117834	6.65	1.5912	
17950	18450	18200	21884	46879087	2166	9.90	3117984	6.65	1.4881	
18000	18500	18250	21884	46879087	1985	9.07	3118165	6.65	1.3637	
18050	18550	18300	21884	46879087	1785	8.16	3118365	6.65	1.2262	
18100	18600	18350	21884	46879087	1585	7.24	3118565	6.65	1.0887	
18150	18650	18400	21884	46879087	1385	6.33	3118765	6.65	0.9513	
18200	18700	18450	21884	46879087	1203	5.50	3118947	6.65	0.8262	
18250	18750	18500	21884	46879087	1099	5.02	3119051	6.65	0.7548	
18300	18800	18550	21884	46879087	1072	4.90	3119078	6.65	0.7362	
18350	18850	18600	21884	46879087	1111	5.08	3119039	6.65	0.7630	
18400	18900	18650	21884	46879087	1202	5.49	3118948	6.65	0.8256	
18450	18950	18700	21884	46879087	1302	5.95	3118848	6.65	0.8943	
18500	19000	18750	21884	46879087	1451	6.63	3118699	6.65	0.9967	
18550	19050	18800	21884	46879087	1593	7.28	3118557	6.65	1.0942	
18600	19100	18850	21884	46879087	1743	7.96	3118407	6.65	1.1973	
18650	19150	18900	21884	46879087	1893	8.65	3118257	6.65	1.3004	
18700	19200	18950	21884	46879087	2032	9.29	3118118	6.65	1.3960	
18750	19250	19000	21884	46879087	2121	9.69	3118029	6.65	1.4572	
18800	19300	19050	21884	46879087	2209	10.09	3117941	6.65	1.5177	
18850	19350	19100	21884	46879087	2309	10.55	3117841	6.65	1.5864	
18900	19400	19150	21884	46879087	2368	10.82	3117782	6.65	1.6270	
18950	19450	19200	21884	46879087	2418	11.05	3117732	6.65	1.6614	
19000	19500	19250	21884	46879087	2445	11.17	3117705	6.65	1.6799	
19050	19550	19300	21884	46879087	2503	11.44	3117647	6.65	1.7198	
19100	19600	19350	21884	46879087	2541	11.61	3117609	6.65	1.7460	
19150	19650	19400	21884	46879087	2515	11.49	3117635	6.65	1.7281	
19200	19700	19450	21884	46879087	2476	11.31	3117674	6.65	1.7013	
19250	19750	19500	21884	46879087	2476	11.31	3117674	6.65	1.7013	
19300	19800	19550	21884	46879087	2397	10.95	3117753	6.65	1.6469	
19350	19850	19600	21884	46879087	2297	10.50	3117853	6.65	1.5782	
19400	19900	19650	21884	46879087	2159	9.87	3117991	6.65	1.4833	
19450	19950	19700	21884	46879087	2009	9.18	3118141	6.65	1.3802	
19500	20000	19750	21884	46879087	1833	8.38	3118317	6.65	1.2592	
19550	20050	19800	21884	46879087	1584	7.24	3118566	6.65	1.0881	
19600	20100	19850	21884	46879087	1377	6.29	3118773	6.65	0.9458	
19650	20150	19900	21884	46879087	1253	5.73	3118897	6.65	0.8606	
19700	20200	19950	21884	46879087	1153	5.27	3118997	6.65	0.7919	
19750	20250	20000	21884	46879087	1030	4.71	3119120	6.65	0.7074	
19800	20300	20050	21884	46879087	921	4.21	3119229	6.65	0.6325	
19850	20350	20100	21884	46879087	856	3.91	3119294	6.65	0.5879	
19900	20400	20150	21884	46879087	855	3.91	3119295	6.65	0.5872	
19950	20450	20200	21884	46879087	905	4.14	3119245	6.65	0.6215	
20000	20500	20250	21884	46879087	955	4.36	3119195	6.65	0.6559	
20050	20550	20300	21884	46879087	1054	4.82	3119096	6.65	0.7239	
20100	20600	20350	21884	46879087	1123	5.13	3119027	6.65	0.7713	
20150	20650	20400	21884	46879087	1173	5.36	3118977	6.65	0.8056	
20200	20700	20450	21884	46879087	1227	5.61	3118923	6.65	0.8427	
20250	20750	20500	21884	46879087	1300	5.94	3118850	6.65	0.8929	
20300	20800	20550	21884	46879087	1433	6.55	3118717	6.65	0.9843	
20350	20850	20600	21884	46879087	1548	7.07	3118602	6.65	1.0633	
20400	20900	20650	21884	46879087	1637	7.48	3118513	6.65	1.1245	
20450	20950	20700	21884	46879087	1652	7.55	3118498	6.65	1.1348	
20500	21000	20750	21884	46879087	1641	7.50	3118509	6.65	1.1272	
20550	21050	20800	21884	46879087	1591	7.27	3118559	6.65	1.0929	
20600	21100	20850	21884	46879087	1541	7.04	3118609	6.65	1.0585	
20650	21150	20900	21884	46879087	1514	6.92	3118636	6.65	1.0400	
20700	21200	20950	21884	46879087	1510	6.90	3118640	6.65	1.0372	
20750	21250	21000	21884	46879087	1510	6.90	3118640	6.65	1.0372	
20800	21300	21050	21884	46879087	1477	6.75	3118673	6.65	1.0145	
20850	21350	21100	21884	46879087	1427	6.52	3118723	6.65	0.9802	
20900	21400	21150	21884	46879087	1377	6.29	3118773	6.65	0.9458	
20950	21450	21200	21884	46879087	1362	6.22	3118788	6.65	0.9355	
21000	21500	21250	21884	46879087	1373	6.27	3118777	6.65	0.9431	
21050	21550	21300	21884	46879087	1423	6.50	3118727	6.65	0.9774	
21100	21600	21350	21884	46879087	1511	6.90	3118639	6.65	1.0379	
21150	21650	21400	21884	46879087	1588	7.26	3118562	6.65	1.0908	
21200	21700	21450	21884	46879087	1646	7.52	3118504	6.65	1.1307	
21250	21750	21500	21884	46879087	1723	7.87	3118427	6.65	1.1836	
21300	21800	21550	21884	46879087	1773	8.10	3118377	6.65	1.2180	
21350	21850	21600	21884	46879087	1834	8.38	3118316	6.65	1.2599	
21400	21900	21650	21884	46879087	1849	8.45	3118301	6.65	1.2702	
21450	21950	21700	21884	46879087	1849	8.45	3118301	6.65	1.2702	
21500	22000	21750	21884	46879087	1849	8.45	3118301	6.65	1.2702	
21550	22050	21800	21884	46879087	1849	8.45	3118301	6.65	1.2702	
21600	22100	21850	21884	46879087	1811	8.28	3118339	6.65	1.2441	
21650	22150	21900	21884	46879087	1761	8.05	3118389	6.65	1.2097	
21700	22200	21950	21884	46879087	1752	8.01	3118398	6.65	1.2035	
21750	22250	22000	21884	46879087	1725	7.88	3118425	6.65	1.1850	
21800	22300	22050	21884	46879087	1725	7.88	3118425	6.65	1.1850	
21850	22350	22100	21884	46879087	1714	7.83	3118436	6.65	1.1774	
21900	22400	22150	21884	46879087	1749	7.99	3118401	6.65	1.2015	
21950	22450	22200	21884	46879087	1801	8.23	3118349	6.65	1.2372	
22000	22500	22250	21884	46879087	1851	8.46	3118299	6.65	1.2716	
22050	22550	22300	21884	46879087	1901	8.69	3118249	6.65	1.3059	
22100	22600	22350	21884	46879087	1907	8.71	3118243	6.65	1.3101	
22150	22650	22400	21884	46879087	1858	8.49	3118292	6.65	1.2764	
22200	22700	22450	21884	46879087	1759	8.04	3118391	6.65	1.2083	
22250	22750	22500	21884	46879087	1680	7.68	3118470	6.65	1.1540	
22300	22800	22550	21884	46879087	1630	7.45	3118520	6.65	1.1197	
22350	22850	22600	21884	46879087	1580	7.22	3118570	6.65	1.0853	
22400	22900	22650	21884	46879087	1530	6.99	3118620	6.65	1.0509	
22450	22950	22700	21884	46879087	1478	6.75	3118672	6.65	1.0152	
22500	23000	22750	21884	46879087	1428	6.53	3118722	6.65	0.9809	
22550	23050	22800	21884	46879087	1378	6.30	3118772	6.65	0.9465	
22600	23100	22850	21884	46879087	1372	6.27	3118778	6.65	0.9424	
22650	23150	22900	21884	46879087	1421	6.49	3118729	6.65	0.9760	
22700	23200	22950	21884	46879087	1509	6.90	3118641	6.65	1.0365	
22750	23250	23000	21884	46879087	1588	7.26	3118562	6.65	1.0908	
22800	23300	23050	21884	46879087	1638	7.48	3118512	6.65	1.1252	
22850	23350	23100	21884	46879087	1688	7.71	3118462	6.65	1.1595	
22900	23400	23150	21884	46879087	1738	7.94	3118412	6.65	1.1939	
22950	23450	23200	21884	46879087	1788	8.17	3118362	6.65	1.2283	
23000	23500	23250	21884	46879087	1817	8.30	3118333	6.65	1.2482	
23050	23550	23300	21884	46879087	1779	8.13	3118371	6.65	1.2221	
23100	23600	23350	21884	46879087	1729	7.90	3118421	6.65	1.1877	
23150	23650	23400	21884	46879087	1669	7.63	3118481	6.65	1.1465	
23200	23700	23450	21884	46879087	1531	7.00	3118619	6.65	1.0516	
23250	23750	23500	21884	46879087	1430	6.53	3118720	6.65	0.9822	
23300	23800	23550	21884	46879087	1330	6.08	3118820	6.65	0.9135	
23350	23850	23600	21884	46879087	1230	5.62	3118920	6.65	0.8448	
23400	23900	23650	21884	46879087	1180	5.39	3118970	6.65	0.8104	
23450	23950	23700	21884	46879087	1180	5.39	3118970	6.65	0.8104	
23500	24000	23750	21884	46879087	1201	5.49	3118949	6.65	0.8249	
23550	24050	23800	21884	46879087	1289	5.89	3118861	6.65	0.8853	
23600	24100	23850	21884	46879087	1389	6.35	3118761	6.65	0.9541	
23650	24150	23900	21884	46879087	1528	6.98	3118622	6.65	1.0496	
23700	24200	23950	21884	46879087	1728	7.90	3118422	6.65	1.1870	
23750	24250	24000	21884	46879087	1879	8.59	3118271	6.65	1.2908	
23800	24300	24050	21884	46879087	2029	9.27	3118121	6.65	1.3939	
23850	24350	24100	21884	46879087	2179	9.96	3117971	6.65	1.4971	
23900	24400	24150	21884	46879087	2241	10.24	3117909	6.65	1.5397	
23950	24450	24200	21884	46879087	2272	10.38	3117878	6.65	1.5610	
24000	24500	24250	21884	46879087	2267	10.36	3117883	6.65	1.5576	
24050	24550	24300	21884	46879087	2217	10.13	3117933	6.65	1.5232	
24100	24600	24350	21884	46879087	2138	9.77	3118012	6.65	1.4689	
24150	24650	24400	21884	46879087	1965	8.98	3118185	6.65	1.3499	
24200	24700	24450	21884	46879087	1765	8.07	3118385	6.65	1.2125	
24250	24750	24500	21884	46879087	1565	7.15	3118585	6.65	1.0750	
24300	24800	24550	21884	46879087	1365	6.24	3118785	6.65	0.9376	
24350	24850	24600	21884	46879087	1165	5.32	3118985	6.65	0.8001	
24400	24900	24650	21884	46879087	1003	4.58	3119147	6.65	0.6888	
24450	24950	24700	21884	46879087	822	3.76	3119328	6.65	0.5645	
24500	25000	24750	21884	46879087	677	3.09	3119473	6.65	0.4649	
