Start	End	Midpoint	Breakpoint_bp	Non_breakpoint_bp	Feature_bp_inside	%Inside	Feature_bp_outside	%Outside	Ratio
-25000	-24500	-24750	21000	46879027	1748	8.32	3121102	6.66	1.2502	
-24950	-24450	-24700	21000	46879027	1928	9.18	3120922	6.66	1.3791	
-24900	-24400	-24650	21000	46879027	2128	10.13	3120722	6.66	1.5222	
-24850	-24350	-24600	21000	46879027	2295	10.93	3120555	6.66	1.6418	
-24800	-24300	-24550	21000	46879027	2445	11.64	3120405	6.66	1.7492	
-24750	-24250	-24500	21000	46879027	2644	12.59	3120206	6.66	1.8916	
-24700	-24200	-24450	21000	46879027	2820	13.43	3120030	6.66	2.0177	
-24650	-24150	-24400	21000	46879027	2936	13.98	3119914	6.66	2.1007	
-24600	-24100	-24350	21000	46879027	2916	13.89	3119934	6.66	2.0864	
-24550	-24050	-24300	21000	46879027	2816	13.41	3120034	6.66	2.0148	
-24500	-24000	-24250	21000	46879027	2817	13.41	3120033	6.66	2.0155	
-24450	-23950	-24200	21000	46879027	2837	13.51	3120013	6.66	2.0298	
-24400	-23900	-24150	21000	46879027	2837	13.51	3120013	6.66	2.0298	
-24350	-23850	-24100	21000	46879027	2859	13.61	3119991	6.66	2.0456	
-24300	-23800	-24050	21000	46879027	2859	13.61	3119991	6.66	2.0456	
-24250	-23750	-24000	21000	46879027	2810	13.38	3120040	6.66	2.0105	
-24200	-23700	-23950	21000	46879027	2730	13.00	3120120	6.66	1.9532	
-24150	-23650	-23900	21000	46879027	2630	12.52	3120220	6.66	1.8816	
-24100	-23600	-23850	21000	46879027	2554	12.16	3120296	6.66	1.8272	
-24050	-23550	-23800	21000	46879027	2504	11.92	3120346	6.66	1.7914	
-24000	-23500	-23750	21000	46879027	2360	11.24	3120490	6.66	1.6883	
-23950	-23450	-23700	21000	46879027	2221	10.58	3120629	6.66	1.5888	
-23900	-23400	-23650	21000	46879027	2084	9.92	3120766	6.66	1.4907	
-23850	-23350	-23600	21000	46879027	1995	9.50	3120855	6.66	1.4270	
-23800	-23300	-23550	21000	46879027	1945	9.26	3120905	6.66	1.3912	
-23750	-23250	-23500	21000	46879027	1846	8.79	3121004	6.66	1.3204	
-23700	-23200	-23450	21000	46879027	1776	8.46	3121074	6.66	1.2703	
-23650	-23150	-23400	21000	46879027	1734	8.26	3121116	6.66	1.2402	
-23600	-23100	-23350	21000	46879027	1734	8.26	3121116	6.66	1.2402	
-23550	-23050	-23300	21000	46879027	1778	8.47	3121072	6.66	1.2717	
-23500	-23000	-23250	21000	46879027	1877	8.94	3120973	6.66	1.3426	
-23450	-22950	-23200	21000	46879027	1966	9.36	3120884	6.66	1.4063	
-23400	-22900	-23150	21000	46879027	2053	9.78	3120797	6.66	1.4685	
-23350	-22850	-23100	21000	46879027	2138	10.18	3120712	6.66	1.5294	
-23300	-22800	-23050	21000	46879027	2238	10.66	3120612	6.66	1.6010	
-23250	-22750	-23000	21000	46879027	2387	11.37	3120463	6.66	1.7076	
-23200	-22700	-22950	21000	46879027	2538	12.09	3120312	6.66	1.8157	
-23150	-22650	-22900	21000	46879027	2730	13.00	3120120	6.66	1.9532	
-23100	-22600	-22850	21000	46879027	2929	13.95	3119921	6.66	2.0957	
-23050	-22550	-22800	21000	46879027	3077	14.65	3119773	6.65	2.2017	
-23000	-22500	-22750	21000	46879027	3177	15.13	3119673	6.65	2.2734	
-22950	-22450	-22700	21000	46879027	3277	15.60	3119573	6.65	2.3450	
-22900	-22400	-22650	21000	46879027	3386	16.12	3119464	6.65	2.4231	
-22850	-22350	-22600	21000	46879027	3438	16.37	3119412	6.65	2.4603	
-22800	-22300	-22550	21000	46879027	3438	16.37	3119412	6.65	2.4603	
-22750	-22250	-22500	21000	46879027	3438	16.37	3119412	6.65	2.4603	
-22700	-22200	-22450	21000	46879027	3478	16.56	3119372	6.65	2.4890	
-22650	-22150	-22400	21000	46879027	3429	16.33	3119421	6.65	2.4539	
-22600	-22100	-22350	21000	46879027	3368	16.04	3119482	6.65	2.4102	
-22550	-22050	-22300	21000	46879027	3326	15.84	3119524	6.65	2.3801	
-22500	-22000	-22250	21000	46879027	3326	15.84	3119524	6.65	2.3801	
-22450	-21950	-22200	21000	46879027	3326	15.84	3119524	6.65	2.3801	
-22400	-21900	-22150	21000	46879027	3355	15.98	3119495	6.65	2.4009	
-22350	-21850	-22100	21000	46879027	3418	16.28	3119432	6.65	2.4460	
-22300	-21800	-22050	21000	46879027	3462	16.49	3119388	6.65	2.4775	
-22250	-21750	-22000	21000	46879027	3462	16.49	3119388	6.65	2.4775	
-22200	-21700	-21950	21000	46879027	3446	16.41	3119404	6.65	2.4661	
-22150	-21650	-21900	21000	46879027	3495	16.64	3119355	6.65	2.5012	
-22100	-21600	-21850	21000	46879027	3435	16.36	3119415	6.65	2.4582	
-22050	-21550	-21800	21000	46879027	3291	15.67	3119559	6.65	2.3550	
-22000	-21500	-21750	21000	46879027	3141	14.96	3119709	6.65	2.2476	
-21950	-21450	-21700	21000	46879027	2991	14.24	3119859	6.66	2.1401	
-21900	-21400	-21650	21000	46879027	2803	13.35	3120047	6.66	2.0055	
-21850	-21350	-21600	21000	46879027	2611	12.43	3120239	6.66	1.8680	
-21800	-21300	-21550	21000	46879027	2479	11.80	3120371	6.66	1.7735	
-21750	-21250	-21500	21000	46879027	2379	11.33	3120471	6.66	1.7019	
-21700	-21200	-21450	21000	46879027	2215	10.55	3120635	6.66	1.5845	
-21650	-21150	-21400	21000	46879027	1965	9.36	3120885	6.66	1.4055	
-21600	-21100	-21350	21000	46879027	1807	8.60	3121043	6.66	1.2925	
-21550	-21050	-21300	21000	46879027	1701	8.10	3121149	6.66	1.2166	
-21500	-21000	-21250	21000	46879027	1601	7.62	3121249	6.66	1.1450	
-21450	-20950	-21200	21000	46879027	1501	7.15	3121349	6.66	1.0735	
-21400	-20900	-21150	21000	46879027	1393	6.63	3121457	6.66	0.9962	
-21350	-20850	-21100	21000	46879027	1235	5.88	3121615	6.66	0.8832	
-21300	-20800	-21050	21000	46879027	1073	5.11	3121777	6.66	0.7673	
-21250	-20750	-21000	21000	46879027	923	4.40	3121927	6.66	0.6600	
-21200	-20700	-20950	21000	46879027	812	3.87	3122038	6.66	0.5806	
-21150	-20650	-20900	21000	46879027	762	3.63	3122088	6.66	0.5448	
-21100	-20600	-20850	21000	46879027	692	3.30	3122158	6.66	0.4948	
-21050	-20550	-20800	21000	46879027	642	3.06	3122208	6.66	0.4590	
-21000	-20500	-20750	21000	46879027	592	2.82	3122258	6.66	0.4233	
-20950	-20450	-20700	21000	46879027	542	2.58	3122308	6.66	0.3875	
-20900	-20400	-20650	21000	46879027	500	2.38	3122350	6.66	0.3575	
-20850	-20350	-20600	21000	46879027	500	2.38	3122350	6.66	0.3575	
-20800	-20300	-20550	21000	46879027	556	2.65	3122294	6.66	0.3975	
-20750	-20250	-20500	21000	46879027	656	3.12	3122194	6.66	0.4690	
-20700	-20200	-20450	21000	46879027	756	3.60	3122094	6.66	0.5405	
-20650	-20150	-20400	21000	46879027	856	4.08	3121994	6.66	0.6121	
-20600	-20100	-20350	21000	46879027	956	4.55	3121894	6.66	0.6836	
-20550	-20050	-20300	21000	46879027	1056	5.03	3121794	6.66	0.7551	
-20500	-20000	-20250	21000	46879027	1156	5.50	3121694	6.66	0.8267	
-20450	-19950	-20200	21000	46879027	1256	5.98	3121594	6.66	0.8982	
-20400	-19900	-20150	21000	46879027	1356	6.46	3121494	6.66	0.9697	
-20350	-19850	-20100	21000	46879027	1456	6.93	3121394	6.66	1.0413	
-20300	-19800	-20050	21000	46879027	1500	7.14	3121350	6.66	1.0728	
-20250	-19750	-20000	21000	46879027	1549	7.38	3121301	6.66	1.1078	
-20200	-19700	-19950	21000	46879027	1599	7.61	3121251	6.66	1.1436	
-20150	-19650	-19900	21000	46879027	1695	8.07	3121155	6.66	1.2123	
-20100	-19600	-19850	21000	46879027	1845	8.79	3121005	6.66	1.3197	
-20050	-19550	-19800	21000	46879027	1951	9.29	3120899	6.66	1.3955	
-20000	-19500	-19750	21000	46879027	2082	9.91	3120768	6.66	1.4893	
-19950	-19450	-19700	21000	46879027	2232	10.63	3120618	6.66	1.5967	
-19900	-19400	-19650	21000	46879027	2382	11.34	3120468	6.66	1.7040	
-19850	-19350	-19600	21000	46879027	2596	12.36	3120254	6.66	1.8573	
-19800	-19300	-19550	21000	46879027	2846	13.55	3120004	6.66	2.0363	
-19750	-19250	-19500	21000	46879027	3047	14.51	3119803	6.66	2.1802	
-19700	-19200	-19450	21000	46879027	3247	15.46	3119603	6.65	2.3235	
-19650	-19150	-19400	21000	46879027	3352	15.96	3119498	6.65	2.3987	
-19600	-19100	-19350	21000	46879027	3402	16.20	3119448	6.65	2.4345	
-19550	-19050	-19300	21000	46879027	3473	16.54	3119377	6.65	2.4854	
-19500	-19000	-19250	21000	46879027	3536	16.84	3119314	6.65	2.5305	
-19450	-18950	-19200	21000	46879027	3586	17.08	3119264	6.65	2.5664	
-19400	-18900	-19150	21000	46879027	3636	17.31	3119214	6.65	2.6022	
-19350	-18850	-19100	21000	46879027	3577	17.03	3119273	6.65	2.5599	
-19300	-18800	-19050	21000	46879027	3477	16.56	3119373	6.65	2.4883	
-19250	-18750	-19000	21000	46879027	3366	16.03	3119484	6.65	2.4087	
-19200	-18700	-18950	21000	46879027	3216	15.31	3119634	6.65	2.3013	
-19150	-18650	-18900	21000	46879027	3115	14.83	3119735	6.65	2.2289	
-19100	-18600	-18850	21000	46879027	3015	14.36	3119835	6.66	2.1573	
-19050	-18550	-18800	21000	46879027	2962	14.10	3119888	6.66	2.1194	
-19000	-18500	-18750	21000	46879027	2942	14.01	3119908	6.66	2.1050	
-18950	-18450	-18700	21000	46879027	2942	14.01	3119908	6.66	2.1050	
-18900	-18400	-18650	21000	46879027	2942	14.01	3119908	6.66	2.1050	
-18850	-18350	-18600	21000	46879027	2987	14.22	3119863	6.66	2.1373	
-18800	-18300	-18550	21000	46879027	3037	14.46	3119813	6.66	2.1731	
-18750	-18250	-18500	21000	46879027	3098	14.75	3119752	6.65	2.2168	
-18700	-18200	-18450	21000	46879027	3198	15.23	3119652	6.65	2.2884	
-18650	-18150	-18400	21000	46879027	3226	15.36	3119624	6.65	2.3085	
-18600	-18100	-18350	21000	46879027	3226	15.36	3119624	6.65	2.3085	
-18550	-18050	-18300	21000	46879027	3202	15.25	3119648	6.65	2.2913	
-18500	-18000	-18250	21000	46879027	3093	14.73	3119757	6.65	2.2132	
-18450	-17950	-18200	21000	46879027	2919	13.90	3119931	6.66	2.0886	
-18400	-17900	-18150	21000	46879027	2719	12.95	3120131	6.66	1.9453	
-18350	-17850	-18100	21000	46879027	2549	12.14	3120301	6.66	1.8236	
-18300	-17800	-18050	21000	46879027	2355	11.21	3120495	6.66	1.6847	
-18250	-17750	-18000	21000	46879027	2119	10.09	3120731	6.66	1.5158	
-18200	-17700	-17950	21000	46879027	1819	8.66	3121031	6.66	1.3010	
-18150	-17650	-17900	21000	46879027	1591	7.58	3121259	6.66	1.1379	
-18100	-17600	-17850	21000	46879027	1391	6.62	3121459	6.66	0.9948	
-18050	-17550	-17800	21000	46879027	1191	5.67	3121659	6.66	0.8517	
-18000	-17500	-17750	21000	46879027	1026	4.89	3121824	6.66	0.7337	
-17950	-17450	-17700	21000	46879027	900	4.29	3121950	6.66	0.6435	
-17900	-17400	-17650	21000	46879027	770	3.67	3122080	6.66	0.5506	
-17850	-17350	-17600	21000	46879027	628	2.99	3122222	6.66	0.4490	
-17800	-17300	-17550	21000	46879027	543	2.59	3122307	6.66	0.3882	
-17750	-17250	-17500	21000	46879027	560	2.67	3122290	6.66	0.4004	
-17700	-17200	-17450	21000	46879027	660	3.14	3122190	6.66	0.4719	
-17650	-17150	-17400	21000	46879027	812	3.87	3122038	6.66	0.5806	
-17600	-17100	-17350	21000	46879027	1012	4.82	3121838	6.66	0.7237	
-17550	-17050	-17300	21000	46879027	1212	5.77	3121638	6.66	0.8667	
-17500	-17000	-17250	21000	46879027	1412	6.72	3121438	6.66	1.0098	
-17450	-16950	-17200	21000	46879027	1612	7.68	3121238	6.66	1.1529	
-17400	-16900	-17150	21000	46879027	1842	8.77	3121008	6.66	1.3175	
-17350	-16850	-17100	21000	46879027	2054	9.78	3120796	6.66	1.4692	
-17300	-16800	-17050	21000	46879027	2233	10.63	3120617	6.66	1.5974	
-17250	-16750	-17000	21000	46879027	2397	11.41	3120453	6.66	1.7148	
-17200	-16700	-16950	21000	46879027	2527	12.03	3120323	6.66	1.8079	
-17150	-16650	-16900	21000	46879027	2625	12.50	3120225	6.66	1.8780	
-17100	-16600	-16850	21000	46879027	2675	12.74	3120175	6.66	1.9138	
-17050	-16550	-16800	21000	46879027	2717	12.94	3120133	6.66	1.9439	
-17000	-16500	-16750	21000	46879027	2717	12.94	3120133	6.66	1.9439	
-16950	-16450	-16700	21000	46879027	2756	13.12	3120094	6.66	1.9718	
-16900	-16400	-16650	21000	46879027	2762	13.15	3120088	6.66	1.9761	
-16850	-16350	-16600	21000	46879027	2762	13.15	3120088	6.66	1.9761	
-16800	-16300	-16550	21000	46879027	2762	13.15	3120088	6.66	1.9761	
-16750	-16250	-16500	21000	46879027	2717	12.94	3120133	6.66	1.9439	
-16700	-16200	-16450	21000	46879027	2687	12.80	3120163	6.66	1.9224	
-16650	-16150	-16400	21000	46879027	2661	12.67	3120189	6.66	1.9038	
-16600	-16100	-16350	21000	46879027	2661	12.67	3120189	6.66	1.9038	
-16550	-16050	-16300	21000	46879027	2669	12.71	3120181	6.66	1.9095	
-16500	-16000	-16250	21000	46879027	2681	12.77	3120169	6.66	1.9181	
-16450	-15950	-16200	21000	46879027	2642	12.58	3120208	6.66	1.8902	
-16400	-15900	-16150	21000	46879027	2636	12.55	3120214	6.66	1.8859	
-16350	-15850	-16100	21000	46879027	2636	12.55	3120214	6.66	1.8859	
-16300	-15800	-16050	21000	46879027	2635	12.55	3120215	6.66	1.8852	
-16250	-15750	-16000	21000	46879027	2585	12.31	3120265	6.66	1.8494	
-16200	-15700	-15950	21000	46879027	2535	12.07	3120315	6.66	1.8136	
-16150	-15650	-15900	21000	46879027	2461	11.72	3120389	6.66	1.7606	
-16100	-15600	-15850	21000	46879027	2330	11.10	3120520	6.66	1.6668	
-16050	-15550	-15800	21000	46879027	2141	10.20	3120709	6.66	1.5315	
-16000	-15500	-15750	21000	46879027	1979	9.42	3120871	6.66	1.4156	
-15950	-15450	-15700	21000	46879027	1846	8.79	3121004	6.66	1.3204	
-15900	-15400	-15650	21000	46879027	1784	8.50	3121066	6.66	1.2760	
-15850	-15350	-15600	21000	46879027	1758	8.37	3121092	6.66	1.2574	
-15800	-15300	-15550	21000	46879027	1742	8.30	3121108	6.66	1.2459	
-15750	-15250	-15500	21000	46879027	1659	7.90	3121191	6.66	1.1865	
-15700	-15200	-15450	21000	46879027	1559	7.42	3121291	6.66	1.1150	
-15650	-15150	-15400	21000	46879027	1459	6.95	3121391	6.66	1.0434	
-15600	-15100	-15350	21000	46879027	1384	6.59	3121466	6.66	0.9898	
-15550	-15050	-15300	21000	46879027	1349	6.42	3121501	6.66	0.9647	
-15500	-15000	-15250	21000	46879027	1299	6.19	3121551	6.66	0.9290	
-15450	-14950	-15200	21000	46879027	1276	6.08	3121574	6.66	0.9125	
-15400	-14900	-15150	21000	46879027	1188	5.66	3121662	6.66	0.8496	
-15350	-14850	-15100	21000	46879027	1064	5.07	3121786	6.66	0.7608	
-15300	-14800	-15050	21000	46879027	931	4.43	3121919	6.66	0.6657	
-15250	-14750	-15000	21000	46879027	914	4.35	3121936	6.66	0.6536	
-15200	-14700	-14950	21000	46879027	914	4.35	3121936	6.66	0.6536	
-15150	-14650	-14900	21000	46879027	963	4.59	3121887	6.66	0.6886	
-15100	-14600	-14850	21000	46879027	1019	4.85	3121831	6.66	0.7287	
-15050	-14550	-14800	21000	46879027	1093	5.20	3121757	6.66	0.7816	
-15000	-14500	-14750	21000	46879027	1149	5.47	3121701	6.66	0.8217	
-14950	-14450	-14700	21000	46879027	1155	5.50	3121695	6.66	0.8259	
-14900	-14400	-14650	21000	46879027	1190	5.67	3121660	6.66	0.8510	
-14850	-14350	-14600	21000	46879027	1240	5.90	3121610	6.66	0.8868	
-14800	-14300	-14550	21000	46879027	1311	6.24	3121539	6.66	0.9375	
-14750	-14250	-14500	21000	46879027	1441	6.86	3121409	6.66	1.0306	
-14700	-14200	-14450	21000	46879027	1524	7.26	3121326	6.66	1.0899	
-14650	-14150	-14400	21000	46879027	1525	7.26	3121325	6.66	1.0907	
-14600	-14100	-14350	21000	46879027	1525	7.26	3121325	6.66	1.0907	
-14550	-14050	-14300	21000	46879027	1525	7.26	3121325	6.66	1.0907	
-14500	-14000	-14250	21000	46879027	1569	7.47	3121281	6.66	1.1221	
-14450	-13950	-14200	21000	46879027	1619	7.71	3121231	6.66	1.1579	
-14400	-13900	-14150	21000	46879027	1634	7.78	3121216	6.66	1.1687	
-14350	-13850	-14100	21000	46879027	1634	7.78	3121216	6.66	1.1687	
-14300	-13800	-14050	21000	46879027	1613	7.68	3121237	6.66	1.1536	
-14250	-13750	-14000	21000	46879027	1571	7.48	3121279	6.66	1.1236	
-14200	-13700	-13950	21000	46879027	1588	7.56	3121262	6.66	1.1357	
-14150	-13650	-13900	21000	46879027	1608	7.66	3121242	6.66	1.1501	
-14100	-13600	-13850	21000	46879027	1608	7.66	3121242	6.66	1.1501	
-14050	-13550	-13800	21000	46879027	1608	7.66	3121242	6.66	1.1501	
-14000	-13500	-13750	21000	46879027	1608	7.66	3121242	6.66	1.1501	
-13950	-13450	-13700	21000	46879027	1608	7.66	3121242	6.66	1.1501	
-13900	-13400	-13650	21000	46879027	1611	7.67	3121239	6.66	1.1522	
-13850	-13350	-13600	21000	46879027	1661	7.91	3121189	6.66	1.1880	
-13800	-13300	-13550	21000	46879027	1711	8.15	3121139	6.66	1.2238	
-13750	-13250	-13500	21000	46879027	1748	8.32	3121102	6.66	1.2502	
-13700	-13200	-13450	21000	46879027	1798	8.56	3121052	6.66	1.2860	
-13650	-13150	-13400	21000	46879027	1840	8.76	3121010	6.66	1.3161	
-13600	-13100	-13350	21000	46879027	1869	8.90	3120981	6.66	1.3368	
-13550	-13050	-13300	21000	46879027	1869	8.90	3120981	6.66	1.3368	
-13500	-13000	-13250	21000	46879027	1869	8.90	3120981	6.66	1.3368	
-13450	-12950	-13200	21000	46879027	1869	8.90	3120981	6.66	1.3368	
-13400	-12900	-13150	21000	46879027	1831	8.72	3121019	6.66	1.3096	
-13350	-12850	-13100	21000	46879027	1731	8.24	3121119	6.66	1.2381	
-13300	-12800	-13050	21000	46879027	1638	7.80	3121212	6.66	1.1715	
-13250	-12750	-13000	21000	46879027	1513	7.20	3121337	6.66	1.0821	
-13200	-12700	-12950	21000	46879027	1363	6.49	3121487	6.66	0.9748	
-13150	-12650	-12900	21000	46879027	1284	6.11	3121566	6.66	0.9182	
-13100	-12600	-12850	21000	46879027	1255	5.98	3121595	6.66	0.8975	
-13050	-12550	-12800	21000	46879027	1255	5.98	3121595	6.66	0.8975	
-13000	-12500	-12750	21000	46879027	1255	5.98	3121595	6.66	0.8975	
-12950	-12450	-12700	21000	46879027	1255	5.98	3121595	6.66	0.8975	
-12900	-12400	-12650	21000	46879027	1290	6.14	3121560	6.66	0.9225	
-12850	-12350	-12600	21000	46879027	1357	6.46	3121493	6.66	0.9705	
-12800	-12300	-12550	21000	46879027	1400	6.67	3121450	6.66	1.0012	
-12750	-12250	-12500	21000	46879027	1450	6.90	3121400	6.66	1.0370	
-12700	-12200	-12450	21000	46879027	1475	7.02	3121375	6.66	1.0549	
-12650	-12150	-12400	21000	46879027	1442	6.87	3121408	6.66	1.0313	
-12600	-12100	-12350	21000	46879027	1392	6.63	3121458	6.66	0.9955	
-12550	-12050	-12300	21000	46879027	1342	6.39	3121508	6.66	0.9597	
-12500	-12000	-12250	21000	46879027	1303	6.20	3121547	6.66	0.9318	
-12450	-11950	-12200	21000	46879027	1327	6.32	3121523	6.66	0.9490	
-12400	-11900	-12150	21000	46879027	1377	6.56	3121473	6.66	0.9848	
-12350	-11850	-12100	21000	46879027	1410	6.71	3121440	6.66	1.0084	
-12300	-11800	-12050	21000	46879027	1505	7.17	3121345	6.66	1.0764	
-12250	-11750	-12000	21000	46879027	1605	7.64	3121245	6.66	1.1479	
-12200	-11700	-11950	21000	46879027	1730	8.24	3121120	6.66	1.2374	
-12150	-11650	-11900	21000	46879027	1880	8.95	3120970	6.66	1.3447	
-12100	-11600	-11850	21000	46879027	2030	9.67	3120820	6.66	1.4521	
-12050	-11550	-11800	21000	46879027	2180	10.38	3120670	6.66	1.5594	
-12000	-11500	-11750	21000	46879027	2319	11.04	3120531	6.66	1.6589	
-11950	-11450	-11700	21000	46879027	2363	11.25	3120487	6.66	1.6904	
-11900	-11400	-11650	21000	46879027	2413	11.49	3120437	6.66	1.7262	
-11850	-11350	-11600	21000	46879027	2439	11.61	3120411	6.66	1.7449	
-11800	-11300	-11550	21000	46879027	2394	11.40	3120456	6.66	1.7126	
-11750	-11250	-11500	21000	46879027	2375	11.31	3120475	6.66	1.6990	
-11700	-11200	-11450	21000	46879027	2375	11.31	3120475	6.66	1.6990	
-11650	-11150	-11400	21000	46879027	2375	11.31	3120475	6.66	1.6990	
-11600	-11100	-11350	21000	46879027	2364	11.26	3120486	6.66	1.6912	
-11550	-11050	-11300	21000	46879027	2314	11.02	3120536	6.66	1.6554	
-11500	-11000	-11250	21000	46879027	2272	10.82	3120578	6.66	1.6253	
-11450	-10950	-11200	21000	46879027	2304	10.97	3120546	6.66	1.6482	
-11400	-10900	-11150	21000	46879027	2353	11.20	3120497	6.66	1.6833	
-11350	-10850	-11100	21000	46879027	2454	11.69	3120396	6.66	1.7556	
-11300	-10800	-11050	21000	46879027	2604	12.40	3120246	6.66	1.8630	
-11250	-10750	-11000	21000	46879027	2723	12.97	3120127	6.66	1.9482	
-11200	-10700	-10950	21000	46879027	2823	13.44	3120027	6.66	2.0198	
-11150	-10650	-10900	21000	46879027	2923	13.92	3119927	6.66	2.0914	
-11100	-10600	-10850	21000	46879027	3034	14.45	3119816	6.66	2.1709	
-11050	-10550	-10800	21000	46879027	3184	15.16	3119666	6.65	2.2784	
-11000	-10500	-10750	21000	46879027	3295	15.69	3119555	6.65	2.3579	
-10950	-10450	-10700	21000	46879027	3386	16.12	3119464	6.65	2.4231	
-10900	-10400	-10650	21000	46879027	3436	16.36	3119414	6.65	2.4589	
-10850	-10350	-10600	21000	46879027	3409	16.23	3119441	6.65	2.4395	
-10800	-10300	-10550	21000	46879027	3273	15.59	3119577	6.65	2.3421	
-10750	-10250	-10500	21000	46879027	3096	14.74	3119754	6.65	2.2153	
-10700	-10200	-10450	21000	46879027	2896	13.79	3119954	6.66	2.0721	
-10650	-10150	-10400	21000	46879027	2696	12.84	3120154	6.66	1.9289	
-10600	-10100	-10350	21000	46879027	2469	11.76	3120381	6.66	1.7663	
-10550	-10050	-10300	21000	46879027	2219	10.57	3120631	6.66	1.5874	
-10500	-10000	-10250	21000	46879027	2000	9.52	3120850	6.66	1.4306	
-10450	-9950	-10200	21000	46879027	1800	8.57	3121050	6.66	1.2875	
-10400	-9900	-10150	21000	46879027	1600	7.62	3121250	6.66	1.1443	
-10350	-9850	-10100	21000	46879027	1488	7.09	3121362	6.66	1.0642	
-10300	-9800	-10050	21000	46879027	1474	7.02	3121376	6.66	1.0542	
-10250	-9750	-10000	21000	46879027	1501	7.15	3121349	6.66	1.0735	
-10200	-9700	-9950	21000	46879027	1508	7.18	3121342	6.66	1.0785	
-10150	-9650	-9900	21000	46879027	1558	7.42	3121292	6.66	1.1143	
-10100	-9600	-9850	21000	46879027	1635	7.79	3121215	6.66	1.1694	
-10050	-9550	-9800	21000	46879027	1735	8.26	3121115	6.66	1.2409	
-10000	-9500	-9750	21000	46879027	1787	8.51	3121063	6.66	1.2781	
-9950	-9450	-9700	21000	46879027	1846	8.79	3121004	6.66	1.3204	
-9900	-9400	-9650	21000	46879027	1897	9.03	3120953	6.66	1.3569	
-9850	-9350	-9600	21000	46879027	1909	9.09	3120941	6.66	1.3655	
-9800	-9300	-9550	21000	46879027	1909	9.09	3120941	6.66	1.3655	
-9750	-9250	-9500	21000	46879027	1909	9.09	3120941	6.66	1.3655	
-9700	-9200	-9450	21000	46879027	1952	9.30	3120898	6.66	1.3962	
-9650	-9150	-9400	21000	46879027	1952	9.30	3120898	6.66	1.3962	
-9600	-9100	-9350	21000	46879027	1952	9.30	3120898	6.66	1.3962	
-9550	-9050	-9300	21000	46879027	1952	9.30	3120898	6.66	1.3962	
-9500	-9000	-9250	21000	46879027	2000	9.52	3120850	6.66	1.4306	
-9450	-8950	-9200	21000	46879027	1994	9.50	3120856	6.66	1.4263	
-9400	-8900	-9150	21000	46879027	1970	9.38	3120880	6.66	1.4091	
-9350	-8850	-9100	21000	46879027	1920	9.14	3120930	6.66	1.3733	
-9300	-8800	-9050	21000	46879027	1876	8.93	3120974	6.66	1.3418	
-9250	-8750	-9000	21000	46879027	1851	8.81	3120999	6.66	1.3240	
-9200	-8700	-8950	21000	46879027	1851	8.81	3120999	6.66	1.3240	
-9150	-8650	-8900	21000	46879027	1890	9.00	3120960	6.66	1.3519	
-9100	-8600	-8850	21000	46879027	1940	9.24	3120910	6.66	1.3876	
-9050	-8550	-8800	21000	46879027	1990	9.48	3120860	6.66	1.4234	
-9000	-8500	-8750	21000	46879027	2040	9.71	3120810	6.66	1.4592	
-8950	-8450	-8700	21000	46879027	2096	9.98	3120754	6.66	1.4993	
-8900	-8400	-8650	21000	46879027	2170	10.33	3120680	6.66	1.5523	
-8850	-8350	-8600	21000	46879027	2295	10.93	3120555	6.66	1.6418	
-8800	-8300	-8550	21000	46879027	2439	11.61	3120411	6.66	1.7449	
-8750	-8250	-8500	21000	46879027	2605	12.40	3120245	6.66	1.8637	
-8700	-8200	-8450	21000	46879027	2716	12.93	3120134	6.66	1.9432	
-8650	-8150	-8400	21000	46879027	2750	13.10	3120100	6.66	1.9675	
-8600	-8100	-8350	21000	46879027	2701	12.86	3120149	6.66	1.9325	
-8550	-8050	-8300	21000	46879027	2689	12.80	3120161	6.66	1.9239	
-8500	-8000	-8250	21000	46879027	2708	12.90	3120142	6.66	1.9375	
-8450	-7950	-8200	21000	46879027	2708	12.90	3120142	6.66	1.9375	
-8400	-7900	-8150	21000	46879027	2708	12.90	3120142	6.66	1.9375	
-8350	-7850	-8100	21000	46879027	2683	12.78	3120167	6.66	1.9196	
-8300	-7800	-8050	21000	46879027	2633	12.54	3120217	6.66	1.8838	
-8250	-7750	-8000	21000	46879027	2498	11.90	3120352	6.66	1.7871	
-8200	-7700	-7950	21000	46879027	2390	11.38	3120460	6.66	1.7098	
-8150	-7650	-7900	21000	46879027	2326	11.08	3120524	6.66	1.6640	
-8100	-7600	-7850	21000	46879027	2325	11.07	3120525	6.66	1.6632	
-8050	-7550	-7800	21000	46879027	2287	10.89	3120563	6.66	1.6360	
-8000	-7500	-7750	21000	46879027	2218	10.56	3120632	6.66	1.5866	
-7950	-7450	-7700	21000	46879027	2168	10.32	3120682	6.66	1.5508	
-7900	-7400	-7650	21000	46879027	2118	10.09	3120732	6.66	1.5151	
-7850	-7350	-7600	21000	46879027	2068	9.85	3120782	6.66	1.4793	
-7800	-7300	-7550	21000	46879027	2018	9.61	3120832	6.66	1.4435	
-7750	-7250	-7500	21000	46879027	2012	9.58	3120838	6.66	1.4392	
-7700	-7200	-7450	21000	46879027	2009	9.57	3120841	6.66	1.4370	
-7650	-7150	-7400	21000	46879027	2000	9.52	3120850	6.66	1.4306	
-7600	-7100	-7350	21000	46879027	2005	9.55	3120845	6.66	1.4342	
-7550	-7050	-7300	21000	46879027	2055	9.79	3120795	6.66	1.4700	
-7500	-7000	-7250	21000	46879027	2080	9.90	3120770	6.66	1.4879	
-7450	-6950	-7200	21000	46879027	2036	9.70	3120814	6.66	1.4564	
-7400	-6900	-7150	21000	46879027	2024	9.64	3120826	6.66	1.4478	
-7350	-6850	-7100	21000	46879027	2048	9.75	3120802	6.66	1.4650	
-7300	-6800	-7050	21000	46879027	2096	9.98	3120754	6.66	1.4993	
-7250	-6750	-7000	21000	46879027	2146	10.22	3120704	6.66	1.5351	
-7200	-6700	-6950	21000	46879027	2214	10.54	3120636	6.66	1.5838	
-7150	-6650	-6900	21000	46879027	2314	11.02	3120536	6.66	1.6554	
-7100	-6600	-6850	21000	46879027	2409	11.47	3120441	6.66	1.7234	
-7050	-6550	-6800	21000	46879027	2459	11.71	3120391	6.66	1.7592	
-7000	-6500	-6750	21000	46879027	2534	12.07	3120316	6.66	1.8129	
-6950	-6450	-6700	21000	46879027	2727	12.99	3120123	6.66	1.9511	
-6900	-6400	-6650	21000	46879027	2851	13.58	3119999	6.66	2.0399	
-6850	-6350	-6600	21000	46879027	2927	13.94	3119923	6.66	2.0943	
-6800	-6300	-6550	21000	46879027	3002	14.30	3119848	6.66	2.1480	
-6750	-6250	-6500	21000	46879027	3152	15.01	3119698	6.65	2.2554	
-6700	-6200	-6450	21000	46879027	3333	15.87	3119517	6.65	2.3851	
-6650	-6150	-6400	21000	46879027	3495	16.64	3119355	6.65	2.5012	
-6600	-6100	-6350	21000	46879027	3621	17.24	3119229	6.65	2.5914	
-6550	-6050	-6300	21000	46879027	3716	17.70	3119134	6.65	2.6595	
-6500	-6000	-6250	21000	46879027	3743	17.82	3119107	6.65	2.6789	
-6450	-5950	-6200	21000	46879027	3644	17.35	3119206	6.65	2.6079	
-6400	-5900	-6150	21000	46879027	3582	17.06	3119268	6.65	2.5635	
-6350	-5850	-6100	21000	46879027	3543	16.87	3119307	6.65	2.5356	
-6300	-5800	-6050	21000	46879027	3535	16.83	3119315	6.65	2.5298	
-6250	-5750	-6000	21000	46879027	3485	16.60	3119365	6.65	2.4940	
-6200	-5700	-5950	21000	46879027	3386	16.12	3119464	6.65	2.4231	
-6150	-5650	-5900	21000	46879027	3274	15.59	3119576	6.65	2.3428	
-6100	-5600	-5850	21000	46879027	3205	15.26	3119645	6.65	2.2934	
-6050	-5550	-5800	21000	46879027	3111	14.81	3119739	6.65	2.2261	
-6000	-5500	-5750	21000	46879027	3066	14.60	3119784	6.65	2.1938	
-5950	-5450	-5700	21000	46879027	3066	14.60	3119784	6.65	2.1938	
-5900	-5400	-5650	21000	46879027	3101	14.77	3119749	6.65	2.2189	
-5850	-5350	-5600	21000	46879027	3140	14.95	3119710	6.65	2.2469	
-5800	-5300	-5550	21000	46879027	3125	14.88	3119725	6.65	2.2361	
-5750	-5250	-5500	21000	46879027	3064	14.59	3119786	6.65	2.1924	
-5700	-5200	-5450	21000	46879027	2964	14.11	3119886	6.66	2.1208	
-5650	-5150	-5400	21000	46879027	2864	13.64	3119986	6.66	2.0492	
-5600	-5100	-5350	21000	46879027	2757	13.13	3120093	6.66	1.9726	
-5550	-5050	-5300	21000	46879027	2706	12.89	3120144	6.66	1.9360	
-5500	-5000	-5250	20987	46879040	2649	12.62	3120201	6.66	1.8964	
-5450	-4950	-5200	20887	46879140	2599	12.44	3120251	6.66	1.8695	
-5400	-4900	-5150	20787	46879240	2514	12.09	3120336	6.66	1.8170	
-5350	-4850	-5100	20687	46879340	2390	11.55	3120460	6.66	1.7357	
-5300	-4800	-5050	20587	46879440	2240	10.88	3120610	6.66	1.6345	
-5250	-4750	-5000	20513	46879514	2086	10.17	3120764	6.66	1.5276	
-5200	-4700	-4950	20613	46879414	1949	9.46	3120901	6.66	1.4203	
-5150	-4650	-4900	20713	46879314	1899	9.17	3120951	6.66	1.3771	
-5100	-4600	-4850	20813	46879214	1887	9.07	3120963	6.66	1.3618	
-5050	-4550	-4800	20913	46879114	1887	9.02	3120963	6.66	1.3553	
-5000	-4500	-4750	21000	46879027	1912	9.10	3120938	6.66	1.3676	
-4950	-4450	-4700	21000	46879027	2007	9.56	3120843	6.66	1.4356	
-4900	-4400	-4650	21000	46879027	2109	10.04	3120741	6.66	1.5086	
-4850	-4350	-4600	21000	46879027	2233	10.63	3120617	6.66	1.5974	
-4800	-4300	-4550	21000	46879027	2408	11.47	3120442	6.66	1.7227	
-4750	-4250	-4500	21000	46879027	2623	12.49	3120227	6.66	1.8766	
-4700	-4200	-4450	21000	46879027	2825	13.45	3120025	6.66	2.0212	
-4650	-4150	-4400	21000	46879027	2925	13.93	3119925	6.66	2.0929	
-4600	-4100	-4350	21000	46879027	2987	14.22	3119863	6.66	2.1373	
-4550	-4050	-4300	21000	46879027	3048	14.51	3119802	6.66	2.1810	
-4500	-4000	-4250	21000	46879027	3148	14.99	3119702	6.65	2.2526	
-4450	-3950	-4200	21000	46879027	3191	15.20	3119659	6.65	2.2834	
-4400	-3900	-4150	21000	46879027	3189	15.19	3119661	6.65	2.2820	
-4350	-3850	-4100	21000	46879027	3189	15.19	3119661	6.65	2.2820	
-4300	-3800	-4050	21000	46879027	3161	15.05	3119689	6.65	2.2619	
-4250	-3750	-4000	21000	46879027	3061	14.58	3119789	6.65	2.1903	
-4200	-3700	-3950	21000	46879027	2971	14.15	3119879	6.66	2.1258	
-4150	-3650	-3900	21000	46879027	2871	13.67	3119979	6.66	2.0542	
-4100	-3600	-3850	21000	46879027	2771	13.20	3120079	6.66	1.9826	
-4050	-3550	-3800	21000	46879027	2660	12.67	3120190	6.66	1.9031	
-4000	-3500	-3750	21000	46879027	2535	12.07	3120315	6.66	1.8136	
-3950	-3450	-3700	21000	46879027	2447	11.65	3120403	6.66	1.7506	
-3900	-3400	-3650	21000	46879027	2397	11.41	3120453	6.66	1.7148	
-3850	-3350	-3600	21000	46879027	2347	11.18	3120503	6.66	1.6790	
-3800	-3300	-3550	21000	46879027	2289	10.90	3120561	6.66	1.6375	
-3750	-3250	-3500	21000	46879027	2194	10.45	3120656	6.66	1.5695	
-3700	-3200	-3450	21000	46879027	2119	10.09	3120731	6.66	1.5158	
-3650	-3150	-3400	21000	46879027	2069	9.85	3120781	6.66	1.4800	
-3600	-3100	-3350	21000	46879027	2019	9.61	3120831	6.66	1.4442	
-3550	-3050	-3300	21000	46879027	1996	9.50	3120854	6.66	1.4277	
-3500	-3000	-3250	21000	46879027	1971	9.39	3120879	6.66	1.4098	
-3450	-2950	-3200	21000	46879027	1883	8.97	3120967	6.66	1.3469	
-3400	-2900	-3150	21000	46879027	1783	8.49	3121067	6.66	1.2753	
-3350	-2850	-3100	21000	46879027	1683	8.01	3121167	6.66	1.2037	
-3300	-2800	-3050	21000	46879027	1643	7.82	3121207	6.66	1.1751	
-3250	-2750	-3000	21000	46879027	1729	8.23	3121121	6.66	1.2366	
-3200	-2700	-2950	21000	46879027	1879	8.95	3120971	6.66	1.3440	
-3150	-2650	-2900	21000	46879027	2029	9.66	3120821	6.66	1.4514	
-3100	-2600	-2850	21000	46879027	2179	10.38	3120671	6.66	1.5587	
-3050	-2550	-2800	21000	46879027	2302	10.96	3120548	6.66	1.6468	
-3000	-2500	-2750	21000	46879027	2402	11.44	3120448	6.66	1.7184	
-2950	-2450	-2700	21000	46879027	2515	11.98	3120335	6.66	1.7993	
-2900	-2400	-2650	21000	46879027	2615	12.45	3120235	6.66	1.8709	
-2850	-2350	-2600	21000	46879027	2715	12.93	3120135	6.66	1.9425	
-2800	-2300	-2550	21000	46879027	2739	13.04	3120111	6.66	1.9597	
-2750	-2250	-2500	21000	46879027	2698	12.85	3120152	6.66	1.9303	
-2700	-2200	-2450	20933	46879094	2602	12.43	3120248	6.66	1.8675	
-2650	-2150	-2400	20733	46879294	2598	12.53	3120252	6.66	1.8826	
-2600	-2100	-2350	20533	46879494	2559	12.46	3120291	6.66	1.8724	
-2550	-2050	-2300	20333	46879694	2598	12.78	3120252	6.66	1.9197	
-2500	-2000	-2250	20133	46879894	2684	13.33	3120166	6.66	2.0030	
-2450	-1950	-2200	20067	46879960	2759	13.75	3120091	6.66	2.0658	
-2400	-1900	-2150	20267	46879760	2859	14.11	3119991	6.66	2.1196	
-2350	-1850	-2100	20467	46879560	2959	14.46	3119891	6.66	2.1724	
-2300	-1800	-2050	20667	46879360	3086	14.93	3119764	6.65	2.2438	
-2250	-1750	-2000	20867	46879160	3275	15.69	3119575	6.65	2.3585	
-2200	-1700	-1950	21000	46879027	3471	16.53	3119379	6.65	2.4840	
-2150	-1650	-1900	21000	46879027	3575	17.02	3119275	6.65	2.5585	
-2100	-1600	-1850	20944	46879083	3714	17.73	3119136	6.65	2.6652	
-2050	-1550	-1800	20844	46879183	3688	17.69	3119162	6.65	2.6592	
-2000	-1500	-1750	20744	46879283	3602	17.36	3119248	6.65	2.6096	
-1950	-1450	-1700	20644	46879383	3514	17.02	3119336	6.65	2.5582	
-1900	-1400	-1650	20544	46879483	3373	16.42	3119477	6.65	2.4674	
-1850	-1350	-1600	20556	46879471	3311	16.11	3119539	6.65	2.4205	
-1800	-1300	-1550	20656	46879371	3281	15.88	3119569	6.65	2.3870	
-1750	-1250	-1500	20756	46879271	3192	15.38	3119658	6.65	2.3110	
-1700	-1200	-1450	20856	46879171	3092	14.83	3119758	6.65	2.2278	
-1650	-1150	-1400	20877	46879150	2942	14.09	3119908	6.66	2.1174	
-1600	-1100	-1350	20821	46879206	2800	13.45	3120050	6.66	2.0206	
-1550	-1050	-1300	20652	46879375	2718	13.16	3120132	6.66	1.9774	
-1500	-1000	-1250	20452	46879575	2579	12.61	3120271	6.66	1.8946	
-1450	-950	-1200	20252	46879775	2467	12.18	3120383	6.66	1.8301	
-1400	-900	-1150	20210	46879817	2408	11.91	3120442	6.66	1.7900	
-1350	-850	-1100	20210	46879817	2270	11.23	3120580	6.66	1.6874	
-1300	-800	-1050	20348	46879679	2179	10.71	3120671	6.66	1.6087	
-1250	-750	-1000	20548	46879479	2220	10.80	3120630	6.66	1.6230	
-1200	-700	-950	20748	46879279	2270	10.94	3120580	6.66	1.6436	
-1150	-650	-900	20869	46879158	2367	11.34	3120483	6.66	1.7039	
-1100	-600	-850	20969	46879058	2417	11.53	3120433	6.66	1.7317	
-1050	-550	-800	21000	46879027	2409	11.47	3120441	6.66	1.7234	
-1000	-500	-750	20982	46879045	2448	11.67	3120402	6.66	1.7528	
-950	-450	-700	20882	46879145	2491	11.93	3120359	6.66	1.7922	
-900	-400	-650	20782	46879245	2541	12.23	3120309	6.66	1.8370	
-850	-350	-600	20682	46879345	2591	12.53	3120259	6.66	1.8822	
-800	-300	-550	20582	46879445	2631	12.78	3120219	6.66	1.9206	
-750	-250	-500	20518	46879509	2590	12.62	3120260	6.66	1.8965	
-700	-200	-450	20618	46879409	2554	12.39	3120296	6.66	1.8611	
-650	-150	-400	20718	46879309	2518	12.15	3120332	6.66	1.8259	
-600	-100	-350	20818	46879209	2568	12.34	3120282	6.66	1.8533	
-550	-50	-300	20918	46879109	2610	12.48	3120240	6.66	1.8746	
-500	0	-250	22000	46878527	3133	14.24	3119717	6.65	2.1399	
-450	50	-200	21000	46879027	2739	13.04	3120111	6.66	1.9597	
-400	100	-150	21000	46879027	2839	13.52	3120011	6.66	2.0313	
-350	150	-100	21000	46879027	2939	14.00	3119911	6.66	2.1029	
-300	200	-50	21000	46879027	3039	14.47	3119811	6.66	2.1745	
-250	250	0	21000	46879027	3139	14.95	3119711	6.65	2.2461	
-200	300	50	21000	46879027	3171	15.10	3119679	6.65	2.2691	
-150	350	100	21000	46879027	3154	15.02	3119696	6.65	2.2569	
-100	400	150	21000	46879027	3104	14.78	3119746	6.65	2.2211	
-50	450	200	21000	46879027	3021	14.39	3119829	6.66	2.1616	
0	500	250	22000	46878027	2948	13.40	3119902	6.66	2.0134	
50	550	300	21000	46879027	2848	13.56	3120002	6.66	2.0377	
100	600	350	21000	46879027	2748	13.09	3120102	6.66	1.9661	
150	650	400	21000	46879027	2648	12.61	3120202	6.66	1.8945	
200	700	450	21000	46879027	2592	12.34	3120258	6.66	1.8544	
250	750	500	21000	46879027	2542	12.10	3120308	6.66	1.8186	
300	800	550	21000	46879027	2585	12.31	3120265	6.66	1.8494	
350	850	600	21000	46879027	2691	12.81	3120159	6.66	1.9253	
400	900	650	21000	46879027	2791	13.29	3120059	6.66	1.9969	
450	950	700	21000	46879027	2932	13.96	3119918	6.66	2.0979	
500	1000	750	21000	46879027	3082	14.68	3119768	6.65	2.2053	
550	1050	800	21000	46879027	3183	15.16	3119667	6.65	2.2777	
600	1100	850	21000	46879027	3234	15.40	3119616	6.65	2.3142	
650	1150	900	21000	46879027	3292	15.68	3119558	6.65	2.3557	
700	1200	950	21000	46879027	3371	16.05	3119479	6.65	2.4123	
750	1250	1000	21000	46879027	3471	16.53	3119379	6.65	2.4840	
800	1300	1050	21000	46879027	3488	16.61	3119362	6.65	2.4961	
850	1350	1100	21000	46879027	3523	16.78	3119327	6.65	2.5212	
900	1400	1150	21000	46879027	3573	17.01	3119277	6.65	2.5570	
950	1450	1200	21000	46879027	3623	17.25	3119227	6.65	2.5929	
1000	1500	1250	21000	46879027	3716	17.70	3119134	6.65	2.6595	
1050	1550	1300	21000	46879027	3857	18.37	3118993	6.65	2.7605	
1100	1600	1350	21000	46879027	4057	19.32	3118793	6.65	2.9039	
1150	1650	1400	21000	46879027	4299	20.47	3118551	6.65	3.0773	
1200	1700	1450	21000	46879027	4476	21.31	3118374	6.65	3.2042	
1250	1750	1500	21000	46879027	4626	22.03	3118224	6.65	3.3118	
1300	1800	1550	21000	46879027	4785	22.79	3118065	6.65	3.4258	
1350	1850	1600	21000	46879027	4882	23.25	3117968	6.65	3.4953	
1400	1900	1650	21000	46879027	4874	23.21	3117976	6.65	3.4896	
1450	1950	1700	21000	46879027	4774	22.73	3118076	6.65	3.4179	
1500	2000	1750	21000	46879027	4592	21.87	3118258	6.65	3.2874	
1550	2050	1800	21000	46879027	4351	20.72	3118499	6.65	3.1146	
1600	2100	1850	21000	46879027	4100	19.52	3118750	6.65	2.9347	
1650	2150	1900	21000	46879027	3800	18.10	3119050	6.65	2.7197	
1700	2200	1950	21000	46879027	3544	16.88	3119306	6.65	2.5363	
1750	2250	2000	21000	46879027	3294	15.69	3119556	6.65	2.3572	
1800	2300	2050	21000	46879027	3079	14.66	3119771	6.65	2.2032	
1850	2350	2100	21000	46879027	2897	13.80	3119953	6.66	2.0728	
1900	2400	2150	21000	46879027	2782	13.25	3120068	6.66	1.9905	
1950	2450	2200	21000	46879027	2756	13.12	3120094	6.66	1.9718	
2000	2500	2250	21000	46879027	2771	13.20	3120079	6.66	1.9826	
2050	2550	2300	21000	46879027	2728	12.99	3120122	6.66	1.9518	
2100	2600	2350	21000	46879027	2637	12.56	3120213	6.66	1.8866	
2150	2650	2400	21000	46879027	2542	12.10	3120308	6.66	1.8186	
2200	2700	2450	21000	46879027	2448	11.66	3120402	6.66	1.7513	
2250	2750	2500	21000	46879027	2348	11.18	3120502	6.66	1.6797	
2300	2800	2550	21000	46879027	2204	10.50	3120646	6.66	1.5766	
2350	2850	2600	21000	46879027	2054	9.78	3120796	6.66	1.4692	
2400	2900	2650	21000	46879027	1976	9.41	3120874	6.66	1.4134	
2450	2950	2700	21000	46879027	1902	9.06	3120948	6.66	1.3605	
2500	3000	2750	21000	46879027	1826	8.70	3121024	6.66	1.3061	
2550	3050	2800	21000	46879027	1819	8.66	3121031	6.66	1.3010	
2600	3100	2850	21000	46879027	1901	9.05	3120949	6.66	1.3597	
2650	3150	2900	21000	46879027	2046	9.74	3120804	6.66	1.4635	
2700	3200	2950	21000	46879027	2171	10.34	3120679	6.66	1.5530	
2750	3250	3000	21000	46879027	2321	11.05	3120529	6.66	1.6604	
2800	3300	3050	21000	46879027	2515	11.98	3120335	6.66	1.7993	
2850	3350	3100	21000	46879027	2753	13.11	3120097	6.66	1.9697	
2900	3400	3150	21000	46879027	3028	14.42	3119822	6.66	2.1666	
2950	3450	3200	21000	46879027	3267	15.56	3119583	6.65	2.3378	
3000	3500	3250	21000	46879027	3418	16.28	3119432	6.65	2.4460	
3050	3550	3300	21000	46879027	3568	16.99	3119282	6.65	2.5535	
3100	3600	3350	21000	46879027	3677	17.51	3119173	6.65	2.6316	
3150	3650	3400	21000	46879027	3727	17.75	3119123	6.65	2.6674	
3200	3700	3450	21000	46879027	3744	17.83	3119106	6.65	2.6796	
3250	3750	3500	21000	46879027	3732	17.77	3119118	6.65	2.6710	
3300	3800	3550	21000	46879027	3707	17.65	3119143	6.65	2.6531	
3350	3850	3600	21000	46879027	3619	17.23	3119231	6.65	2.5900	
3400	3900	3650	21000	46879027	3445	16.40	3119405	6.65	2.4653	
3450	3950	3700	21000	46879027	3306	15.74	3119544	6.65	2.3658	
3500	4000	3750	21000	46879027	3211	15.29	3119639	6.65	2.2977	
3550	4050	3800	21000	46879027	3154	15.02	3119696	6.65	2.2569	
3600	4100	3850	21000	46879027	3066	14.60	3119784	6.65	2.1938	
3650	4150	3900	21000	46879027	2966	14.12	3119884	6.66	2.1222	
3700	4200	3950	21000	46879027	2874	13.69	3119976	6.66	2.0563	
3750	4250	4000	21000	46879027	2831	13.48	3120019	6.66	2.0255	
3800	4300	4050	21000	46879027	2771	13.20	3120079	6.66	1.9826	
3850	4350	4100	21000	46879027	2721	12.96	3120129	6.66	1.9468	
3900	4400	4150	21000	46879027	2671	12.72	3120179	6.66	1.9110	
3950	4450	4200	21000	46879027	2621	12.48	3120229	6.66	1.8752	
4000	4500	4250	21000	46879027	2638	12.56	3120212	6.66	1.8873	
4050	4550	4300	21000	46879027	2645	12.60	3120205	6.66	1.8924	
4100	4600	4350	21000	46879027	2683	12.78	3120167	6.66	1.9196	
4150	4650	4400	21000	46879027	2733	13.01	3120117	6.66	1.9554	
4200	4700	4450	21000	46879027	2783	13.25	3120067	6.66	1.9912	
4250	4750	4500	21000	46879027	2788	13.28	3120062	6.66	1.9948	
4300	4800	4550	21000	46879027	2814	13.40	3120036	6.66	2.0134	
4350	4850	4600	21000	46879027	2903	13.82	3119947	6.66	2.0771	
4400	4900	4650	21000	46879027	3024	14.40	3119826	6.66	2.1638	
4450	4950	4700	21000	46879027	3174	15.11	3119676	6.65	2.2712	
4500	5000	4750	21000	46879027	3301	15.72	3119549	6.65	2.3622	
4550	5050	4800	21000	46879027	3401	16.20	3119449	6.65	2.4338	
4600	5100	4850	21000	46879027	3478	16.56	3119372	6.65	2.4890	
4650	5150	4900	21000	46879027	3483	16.59	3119367	6.65	2.4926	
4700	5200	4950	21000	46879027	3483	16.59	3119367	6.65	2.4926	
4750	5250	5000	21000	46879027	3440	16.38	3119410	6.65	2.4618	
4800	5300	5050	21000	46879027	3417	16.27	3119433	6.65	2.4453	
4850	5350	5100	21000	46879027	3416	16.27	3119434	6.65	2.4446	
4900	5400	5150	21000	46879027	3395	16.17	3119455	6.65	2.4295	
4950	5450	5200	21000	46879027	3345	15.93	3119505	6.65	2.3937	
5000	5500	5250	21000	46879027	3323	15.82	3119527	6.65	2.3779	
5050	5550	5300	21000	46879027	3273	15.59	3119577	6.65	2.3421	
5100	5600	5350	21000	46879027	3246	15.46	3119604	6.65	2.3228	
5150	5650	5400	21000	46879027	3258	15.51	3119592	6.65	2.3314	
5200	5700	5450	21000	46879027	3229	15.38	3119621	6.65	2.3106	
5250	5750	5500	21000	46879027	3159	15.04	3119691	6.65	2.2605	
5300	5800	5550	21000	46879027	3041	14.48	3119809	6.66	2.1759	
5350	5850	5600	21000	46879027	2853	13.59	3119997	6.66	2.0413	
5400	5900	5650	21000	46879027	2653	12.63	3120197	6.66	1.8981	
5450	5950	5700	21000	46879027	2415	11.50	3120435	6.66	1.7277	
5500	6000	5750	21000	46879027	2160	10.29	3120690	6.66	1.5451	
5550	6050	5800	21000	46879027	1960	9.33	3120890	6.66	1.4020	
5600	6100	5850	21000	46879027	1772	8.44	3121078	6.66	1.2674	
5650	6150	5900	21000	46879027	1655	7.88	3121195	6.66	1.1837	
5700	6200	5950	21000	46879027	1584	7.54	3121266	6.66	1.1329	
5750	6250	6000	21000	46879027	1548	7.37	3121302	6.66	1.1071	
5800	6300	6050	21000	46879027	1548	7.37	3121302	6.66	1.1071	
5850	6350	6100	21000	46879027	1548	7.37	3121302	6.66	1.1071	
5900	6400	6150	21000	46879027	1548	7.37	3121302	6.66	1.1071	
5950	6450	6200	21000	46879027	1586	7.55	3121264	6.66	1.1343	
6000	6500	6250	21000	46879027	1663	7.92	3121187	6.66	1.1894	
6050	6550	6300	21000	46879027	1713	8.16	3121137	6.66	1.2252	
6100	6600	6350	21000	46879027	1751	8.34	3121099	6.66	1.2524	
6150	6650	6400	21000	46879027	1751	8.34	3121099	6.66	1.2524	
6200	6700	6450	21000	46879027	1751	8.34	3121099	6.66	1.2524	
6250	6750	6500	21000	46879027	1800	8.57	3121050	6.66	1.2875	
6300	6800	6550	21000	46879027	1832	8.72	3121018	6.66	1.3104	
6350	6850	6600	21000	46879027	1820	8.67	3121030	6.66	1.3018	
6400	6900	6650	21000	46879027	1770	8.43	3121080	6.66	1.2660	
6450	6950	6700	21000	46879027	1670	7.95	3121180	6.66	1.1944	
6500	7000	6750	21000	46879027	1520	7.24	3121330	6.66	1.0871	
6550	7050	6800	21000	46879027	1390	6.62	3121460	6.66	0.9941	
6600	7100	6850	21000	46879027	1255	5.98	3121595	6.66	0.8975	
6650	7150	6900	21000	46879027	1155	5.50	3121695	6.66	0.8259	
6700	7200	6950	21000	46879027	1055	5.02	3121795	6.66	0.7544	
6750	7250	7000	21000	46879027	940	4.48	3121910	6.66	0.6722	
6800	7300	7050	21000	46879027	841	4.00	3122009	6.66	0.6013	
6850	7350	7100	21000	46879027	803	3.82	3122047	6.66	0.5742	
6900	7400	7150	21000	46879027	842	4.01	3122008	6.66	0.6021	
6950	7450	7200	21000	46879027	942	4.49	3121908	6.66	0.6736	
7000	7500	7250	21000	46879027	1042	4.96	3121808	6.66	0.7451	
7050	7550	7300	21000	46879027	1122	5.34	3121728	6.66	0.8023	
7100	7600	7350	21000	46879027	1207	5.75	3121643	6.66	0.8631	
7150	7650	7400	21000	46879027	1257	5.99	3121593	6.66	0.8989	
7200	7700	7450	21000	46879027	1268	6.04	3121582	6.66	0.9068	
7250	7750	7500	21000	46879027	1283	6.11	3121567	6.66	0.9175	
7300	7800	7550	21000	46879027	1268	6.04	3121582	6.66	0.9068	
7350	7850	7600	21000	46879027	1268	6.04	3121582	6.66	0.9068	
7400	7900	7650	21000	46879027	1278	6.09	3121572	6.66	0.9139	
7450	7950	7700	21000	46879027	1278	6.09	3121572	6.66	0.9139	
7500	8000	7750	21000	46879027	1278	6.09	3121572	6.66	0.9139	
7550	8050	7800	21000	46879027	1278	6.09	3121572	6.66	0.9139	
7600	8100	7850	21000	46879027	1278	6.09	3121572	6.66	0.9139	
7650	8150	7900	21000	46879027	1278	6.09	3121572	6.66	0.9139	
7700	8200	7950	21000	46879027	1284	6.11	3121566	6.66	0.9182	
7750	8250	8000	21000	46879027	1284	6.11	3121566	6.66	0.9182	
7800	8300	8050	21000	46879027	1316	6.27	3121534	6.66	0.9411	
7850	8350	8100	21000	46879027	1316	6.27	3121534	6.66	0.9411	
7900	8400	8150	21000	46879027	1267	6.03	3121583	6.66	0.9061	
7950	8450	8200	21000	46879027	1217	5.80	3121633	6.66	0.8703	
8000	8500	8250	21000	46879027	1167	5.56	3121683	6.66	0.8345	
8050	8550	8300	21000	46879027	1117	5.32	3121733	6.66	0.7988	
8100	8600	8350	21000	46879027	1106	5.27	3121744	6.66	0.7909	
8150	8650	8400	21000	46879027	1150	5.48	3121700	6.66	0.8224	
8200	8700	8450	21000	46879027	1233	5.87	3121617	6.66	0.8817	
8250	8750	8500	21000	46879027	1333	6.35	3121517	6.66	0.9533	
8300	8800	8550	21000	46879027	1384	6.59	3121466	6.66	0.9898	
8350	8850	8600	21000	46879027	1453	6.92	3121397	6.66	1.0391	
8400	8900	8650	21000	46879027	1521	7.24	3121329	6.66	1.0878	
8450	8950	8700	21000	46879027	1629	7.76	3121221	6.66	1.1651	
8500	9000	8750	21000	46879027	1779	8.47	3121071	6.66	1.2724	
8550	9050	8800	21000	46879027	1929	9.19	3120921	6.66	1.3798	
8600	9100	8850	21000	46879027	2040	9.71	3120810	6.66	1.4592	
8650	9150	8900	21000	46879027	2096	9.98	3120754	6.66	1.4993	
8700	9200	8950	21000	46879027	2146	10.22	3120704	6.66	1.5351	
8750	9250	9000	21000	46879027	2223	10.59	3120627	6.66	1.5902	
8800	9300	9050	21000	46879027	2372	11.30	3120478	6.66	1.6969	
8850	9350	9100	21000	46879027	2464	11.73	3120386	6.66	1.7628	
8900	9400	9150	21000	46879027	2546	12.12	3120304	6.66	1.8215	
8950	9450	9200	21000	46879027	2588	12.32	3120262	6.66	1.8515	
9000	9500	9250	21000	46879027	2588	12.32	3120262	6.66	1.8515	
9050	9550	9300	21000	46879027	2588	12.32	3120262	6.66	1.8515	
9100	9600	9350	21000	46879027	2603	12.40	3120247	6.66	1.8623	
9150	9650	9400	21000	46879027	2603	12.40	3120247	6.66	1.8623	
9200	9700	9450	21000	46879027	2603	12.40	3120247	6.66	1.8623	
9250	9750	9500	21000	46879027	2576	12.27	3120274	6.66	1.8429	
9300	9800	9550	21000	46879027	2526	12.03	3120324	6.66	1.8071	
9350	9850	9600	21000	46879027	2463	11.73	3120387	6.66	1.7620	
9400	9900	9650	21000	46879027	2363	11.25	3120487	6.66	1.6904	
9450	9950	9700	21000	46879027	2263	10.78	3120587	6.66	1.6189	
9500	10000	9750	21000	46879027	2163	10.30	3120687	6.66	1.5473	
9550	10050	9800	21000	46879027	2063	9.82	3120787	6.66	1.4757	
9600	10100	9850	21000	46879027	1948	9.28	3120902	6.66	1.3934	
9650	10150	9900	21000	46879027	1848	8.80	3121002	6.66	1.3218	
9700	10200	9950	21000	46879027	1748	8.32	3121102	6.66	1.2502	
9750	10250	10000	21000	46879027	1648	7.85	3121202	6.66	1.1787	
9800	10300	10050	21000	46879027	1548	7.37	3121302	6.66	1.1071	
9850	10350	10100	21000	46879027	1500	7.14	3121350	6.66	1.0728	
9900	10400	10150	21000	46879027	1500	7.14	3121350	6.66	1.0728	
9950	10450	10200	21000	46879027	1500	7.14	3121350	6.66	1.0728	
10000	10500	10250	21000	46879027	1500	7.14	3121350	6.66	1.0728	
10050	10550	10300	21000	46879027	1500	7.14	3121350	6.66	1.0728	
10100	10600	10350	21000	46879027	1500	7.14	3121350	6.66	1.0728	
10150	10650	10400	21000	46879027	1500	7.14	3121350	6.66	1.0728	
10200	10700	10450	21000	46879027	1500	7.14	3121350	6.66	1.0728	
10250	10750	10500	21000	46879027	1473	7.01	3121377	6.66	1.0535	
10300	10800	10550	21000	46879027	1472	7.01	3121378	6.66	1.0527	
10350	10850	10600	21000	46879027	1472	7.01	3121378	6.66	1.0527	
10400	10900	10650	21000	46879027	1472	7.01	3121378	6.66	1.0527	
10450	10950	10700	21000	46879027	1427	6.80	3121423	6.66	1.0205	
10500	11000	10750	21000	46879027	1377	6.56	3121473	6.66	0.9848	
10550	11050	10800	21000	46879027	1327	6.32	3121523	6.66	0.9490	
10600	11100	10850	21000	46879027	1277	6.08	3121573	6.66	0.9132	
10650	11150	10900	21000	46879027	1209	5.76	3121641	6.66	0.8646	
10700	11200	10950	21000	46879027	1121	5.34	3121729	6.66	0.8016	
10750	11250	11000	21000	46879027	1141	5.43	3121709	6.66	0.8159	
10800	11300	11050	21000	46879027	1142	5.44	3121708	6.66	0.8166	
10850	11350	11100	21000	46879027	1207	5.75	3121643	6.66	0.8631	
10900	11400	11150	21000	46879027	1330	6.33	3121520	6.66	0.9511	
10950	11450	11200	21000	46879027	1569	7.47	3121281	6.66	1.1221	
11000	11500	11250	21000	46879027	1819	8.66	3121031	6.66	1.3010	
11050	11550	11300	21000	46879027	2020	9.62	3120830	6.66	1.4449	
11100	11600	11350	21000	46879027	2220	10.57	3120630	6.66	1.5881	
11150	11650	11400	21000	46879027	2438	11.61	3120412	6.66	1.7441	
11200	11700	11450	21000	46879027	2714	12.92	3120136	6.66	1.9418	
11250	11750	11500	21000	46879027	2921	13.91	3119929	6.66	2.0900	
11300	11800	11550	21000	46879027	3121	14.86	3119729	6.65	2.2332	
11350	11850	11600	21000	46879027	3291	15.67	3119559	6.65	2.3550	
11400	11900	11650	21000	46879027	3418	16.28	3119432	6.65	2.4460	
11450	11950	11700	21000	46879027	3474	16.54	3119376	6.65	2.4861	
11500	12000	11750	21000	46879027	3524	16.78	3119326	6.65	2.5219	
11550	12050	11800	21000	46879027	3623	17.25	3119227	6.65	2.5929	
11600	12100	11850	21000	46879027	3702	17.63	3119148	6.65	2.6495	
11650	12150	11900	21000	46879027	3752	17.87	3119098	6.65	2.6853	
11700	12200	11950	21000	46879027	3764	17.92	3119086	6.65	2.6939	
11750	12250	12000	21000	46879027	3720	17.71	3119130	6.65	2.6624	
11800	12300	12050	21000	46879027	3604	17.16	3119246	6.65	2.5793	
11850	12350	12100	21000	46879027	3419	16.28	3119431	6.65	2.4467	
11900	12400	12150	21000	46879027	3219	15.33	3119631	6.65	2.3034	
11950	12450	12200	21000	46879027	3068	14.61	3119782	6.65	2.1953	
12000	12500	12250	21000	46879027	2918	13.90	3119932	6.66	2.0879	
12050	12550	12300	21000	46879027	2803	13.35	3120047	6.66	2.0055	
12100	12600	12350	21000	46879027	2686	12.79	3120164	6.66	1.9217	
12150	12650	12400	21000	46879027	2542	12.10	3120308	6.66	1.8186	
12200	12700	12450	21000	46879027	2392	11.39	3120458	6.66	1.7112	
12250	12750	12500	21000	46879027	2286	10.89	3120564	6.66	1.6353	
12300	12800	12550	21000	46879027	2252	10.72	3120598	6.66	1.6110	
12350	12850	12600	21000	46879027	2240	10.67	3120610	6.66	1.6024	
12400	12900	12650	21000	46879027	2155	10.26	3120695	6.66	1.5415	
12450	12950	12700	21000	46879027	2006	9.55	3120844	6.66	1.4349	
12500	13000	12750	21000	46879027	1856	8.84	3120994	6.66	1.3275	
12550	13050	12800	21000	46879027	1671	7.96	3121179	6.66	1.1951	
12600	13100	12850	21000	46879027	1559	7.42	3121291	6.66	1.1150	
12650	13150	12900	21000	46879027	1503	7.16	3121347	6.66	1.0749	
12700	13200	12950	21000	46879027	1453	6.92	3121397	6.66	1.0391	
12750	13250	13000	21000	46879027	1403	6.68	3121447	6.66	1.0034	
12800	13300	13050	21000	46879027	1318	6.28	3121532	6.66	0.9426	
12850	13350	13100	21000	46879027	1261	6.00	3121589	6.66	0.9018	
12900	13400	13150	21000	46879027	1296	6.17	3121554	6.66	0.9268	
12950	13450	13200	21000	46879027	1346	6.41	3121504	6.66	0.9626	
13000	13500	13250	21000	46879027	1396	6.65	3121454	6.66	0.9984	
13050	13550	13300	21000	46879027	1471	7.00	3121379	6.66	1.0520	
13100	13600	13350	21000	46879027	1521	7.24	3121329	6.66	1.0878	
13150	13650	13400	21000	46879027	1571	7.48	3121279	6.66	1.1236	
13200	13700	13450	21000	46879027	1621	7.72	3121229	6.66	1.1594	
13250	13750	13500	21000	46879027	1683	8.01	3121167	6.66	1.2037	
13300	13800	13550	21000	46879027	1818	8.66	3121032	6.66	1.3003	
13350	13850	13600	21000	46879027	1937	9.22	3120913	6.66	1.3855	
13400	13900	13650	21000	46879027	2064	9.83	3120786	6.66	1.4764	
13450	13950	13700	21000	46879027	2214	10.54	3120636	6.66	1.5838	
13500	14000	13750	21000	46879027	2364	11.26	3120486	6.66	1.6912	
13550	14050	13800	21000	46879027	2489	11.85	3120361	6.66	1.7807	
13600	14100	13850	21000	46879027	2540	12.10	3120310	6.66	1.8172	
13650	14150	13900	21000	46879027	2590	12.33	3120260	6.66	1.8530	
13700	14200	13950	21000	46879027	2640	12.57	3120210	6.66	1.8888	
13750	14250	14000	21000	46879027	2678	12.75	3120172	6.66	1.9160	
13800	14300	14050	21000	46879027	2672	12.72	3120178	6.66	1.9117	
13850	14350	14100	21000	46879027	2672	12.72	3120178	6.66	1.9117	
13900	14400	14150	21000	46879027	2656	12.65	3120194	6.66	1.9002	
13950	14450	14200	21000	46879027	2631	12.53	3120219	6.66	1.8823	
14000	14500	14250	21000	46879027	2581	12.29	3120269	6.66	1.8465	
14050	14550	14300	21000	46879027	2531	12.05	3120319	6.66	1.8107	
14100	14600	14350	21000	46879027	2530	12.05	3120320	6.66	1.8100	
14150	14650	14400	21000	46879027	2531	12.05	3120319	6.66	1.8107	
14200	14700	14450	21000	46879027	2581	12.29	3120269	6.66	1.8465	
14250	14750	14500	21000	46879027	2631	12.53	3120219	6.66	1.8823	
14300	14800	14550	21000	46879027	2687	12.80	3120163	6.66	1.9224	
14350	14850	14600	21000	46879027	2737	13.03	3120113	6.66	1.9582	
14400	14900	14650	21000	46879027	2776	13.22	3120074	6.66	1.9862	
14450	14950	14700	21000	46879027	2800	13.33	3120050	6.66	2.0033	
14500	15000	14750	21000	46879027	2789	13.28	3120061	6.66	1.9955	
14550	15050	14800	21000	46879027	2695	12.83	3120155	6.66	1.9282	
14600	15100	14850	21000	46879027	2556	12.17	3120294	6.66	1.8286	
14650	15150	14900	21000	46879027	2355	11.21	3120495	6.66	1.6847	
14700	15200	14950	21000	46879027	2105	10.02	3120745	6.66	1.5058	
14750	15250	15000	21000	46879027	1855	8.83	3120995	6.66	1.3268	
14800	15300	15050	21000	46879027	1605	7.64	3121245	6.66	1.1479	
14850	15350	15100	21000	46879027	1355	6.45	3121495	6.66	0.9690	
14900	15400	15150	21000	46879027	1105	5.26	3121745	6.66	0.7902	
14950	15450	15200	21000	46879027	856	4.08	3121994	6.66	0.6121	
15000	15500	15250	21000	46879027	667	3.18	3122183	6.66	0.4769	
15050	15550	15300	21000	46879027	561	2.67	3122289	6.66	0.4011	
15100	15600	15350	21000	46879027	500	2.38	3122350	6.66	0.3575	
15150	15650	15400	21000	46879027	500	2.38	3122350	6.66	0.3575	
15200	15700	15450	21000	46879027	500	2.38	3122350	6.66	0.3575	
15250	15750	15500	21000	46879027	500	2.38	3122350	6.66	0.3575	
15300	15800	15550	21000	46879027	500	2.38	3122350	6.66	0.3575	
15350	15850	15600	21000	46879027	538	2.56	3122312	6.66	0.3846	
15400	15900	15650	21000	46879027	557	2.65	3122293	6.66	0.3982	
15450	15950	15700	21000	46879027	557	2.65	3122293	6.66	0.3982	
15500	16000	15750	21000	46879027	560	2.67	3122290	6.66	0.4004	
15550	16050	15800	21000	46879027	648	3.09	3122202	6.66	0.4633	
15600	16100	15850	21000	46879027	748	3.56	3122102	6.66	0.5348	
15650	16150	15900	21000	46879027	897	4.27	3121953	6.66	0.6414	
15700	16200	15950	21000	46879027	1047	4.99	3121803	6.66	0.7487	
15750	16250	16000	21000	46879027	1197	5.70	3121653	6.66	0.8560	
15800	16300	16050	21000	46879027	1347	6.41	3121503	6.66	0.9633	
15850	16350	16100	21000	46879027	1504	7.16	3121346	6.66	1.0756	
15900	16400	16150	21000	46879027	1689	8.04	3121161	6.66	1.2080	
15950	16450	16200	21000	46879027	1890	9.00	3120960	6.66	1.3519	
16000	16500	16250	21000	46879027	2087	9.94	3120763	6.66	1.4929	
16050	16550	16300	21000	46879027	2205	10.50	3120645	6.66	1.5773	
16100	16600	16350	21000	46879027	2363	11.25	3120487	6.66	1.6904	
16150	16650	16400	21000	46879027	2476	11.79	3120374	6.66	1.7713	
16200	16700	16450	21000	46879027	2576	12.27	3120274	6.66	1.8429	
16250	16750	16500	21000	46879027	2676	12.74	3120174	6.66	1.9145	
16300	16800	16550	21000	46879027	2799	13.33	3120051	6.66	2.0026	
16350	16850	16600	21000	46879027	2904	13.83	3119946	6.66	2.0778	
16400	16900	16650	21000	46879027	3032	14.44	3119818	6.66	2.1695	
16450	16950	16700	21000	46879027	3086	14.70	3119764	6.65	2.2082	
16500	17000	16750	21000	46879027	3225	15.36	3119625	6.65	2.3077	
16550	17050	16800	21000	46879027	3331	15.86	3119519	6.65	2.3837	
16600	17100	16850	21000	46879027	3386	16.12	3119464	6.65	2.4231	
16650	17150	16900	21000	46879027	3464	16.50	3119386	6.65	2.4790	
16700	17200	16950	21000	46879027	3541	16.86	3119309	6.65	2.5341	
16750	17250	17000	21000	46879027	3691	17.58	3119159	6.65	2.6416	
16800	17300	17050	21000	46879027	3818	18.18	3119032	6.65	2.7326	
16850	17350	17100	21000	46879027	3918	18.66	3118932	6.65	2.8043	
16900	17400	17150	21000	46879027	3986	18.98	3118864	6.65	2.8530	
16950	17450	17200	21000	46879027	4149	19.76	3118701	6.65	2.9698	
17000	17500	17250	21000	46879027	4252	20.25	3118598	6.65	3.0436	
17050	17550	17300	21000	46879027	4340	20.67	3118510	6.65	3.1067	
17100	17600	17350	21000	46879027	4427	21.08	3118423	6.65	3.1691	
17150	17650	17400	21000	46879027	4487	21.37	3118363	6.65	3.2121	
17200	17700	17450	21000	46879027	4547	21.65	3118303	6.65	3.2551	
17250	17750	17500	21000	46879027	4497	21.41	3118353	6.65	3.2193	
17300	17800	17550	21000	46879027	4382	20.87	3118468	6.65	3.1368	
17350	17850	17600	21000	46879027	4232	20.15	3118618	6.65	3.0293	
17400	17900	17650	20956	46879071	4032	19.24	3118818	6.65	2.8920	
17450	17950	17700	20856	46879171	3814	18.29	3119036	6.65	2.7486	
17500	18000	17750	20756	46879271	3603	17.36	3119247	6.65	2.6089	
17550	18050	17800	20656	46879371	3453	16.72	3119397	6.65	2.5122	
17600	18100	17850	20556	46879471	3303	16.07	3119547	6.65	2.4147	
17650	18150	17900	20544	46879483	3153	15.35	3119697	6.65	2.3063	
17700	18200	17950	20644	46879383	2998	14.52	3119852	6.66	2.1822	
17750	18250	18000	20744	46879283	2813	13.56	3120037	6.66	2.0375	
17800	18300	18050	20844	46879183	2655	12.74	3120195	6.66	1.9137	
17850	18350	18100	20944	46879083	2466	11.77	3120384	6.66	1.7689	
17900	18400	18150	21000	46879027	2316	11.03	3120534	6.66	1.6568	
17950	18450	18200	21000	46879027	2166	10.31	3120684	6.66	1.5494	
18000	18500	18250	21000	46879027	1985	9.45	3120865	6.66	1.4199	
18050	18550	18300	21000	46879027	1785	8.50	3121065	6.66	1.2767	
18100	18600	18350	21000	46879027	1585	7.55	3121265	6.66	1.1336	
18150	18650	18400	21000	46879027	1385	6.60	3121465	6.66	0.9905	
18200	18700	18450	21000	46879027	1203	5.73	3121647	6.66	0.8603	
18250	18750	18500	21000	46879027	1099	5.23	3121751	6.66	0.7859	
18300	18800	18550	21000	46879027	1072	5.10	3121778	6.66	0.7666	
18350	18850	18600	21000	46879027	1111	5.29	3121739	6.66	0.7945	
18400	18900	18650	21000	46879027	1202	5.72	3121648	6.66	0.8596	
18450	18950	18700	21000	46879027	1302	6.20	3121548	6.66	0.9311	
18500	19000	18750	21000	46879027	1451	6.91	3121399	6.66	1.0377	
18550	19050	18800	21000	46879027	1593	7.59	3121257	6.66	1.1393	
18600	19100	18850	21000	46879027	1743	8.30	3121107	6.66	1.2467	
18650	19150	18900	21000	46879027	1893	9.01	3120957	6.66	1.3540	
18700	19200	18950	21000	46879027	2032	9.68	3120818	6.66	1.4535	
18750	19250	19000	21000	46879027	2121	10.10	3120729	6.66	1.5172	
18800	19300	19050	21000	46879027	2209	10.52	3120641	6.66	1.5802	
18850	19350	19100	21000	46879027	2309	11.00	3120541	6.66	1.6518	
18900	19400	19150	21000	46879027	2368	11.28	3120482	6.66	1.6940	
18950	19450	19200	21000	46879027	2418	11.51	3120432	6.66	1.7298	
19000	19500	19250	21000	46879027	2419	11.52	3120431	6.66	1.7305	
19050	19550	19300	21000	46879027	2427	11.56	3120423	6.66	1.7363	
19100	19600	19350	21000	46879027	2415	11.50	3120435	6.66	1.7277	
19150	19650	19400	21000	46879027	2365	11.26	3120485	6.66	1.6919	
19200	19700	19450	21000	46879027	2326	11.08	3120524	6.66	1.6640	
19250	19750	19500	21000	46879027	2326	11.08	3120524	6.66	1.6640	
19300	19800	19550	21000	46879027	2247	10.70	3120603	6.66	1.6074	
19350	19850	19600	21000	46879027	2147	10.22	3120703	6.66	1.5358	
19400	19900	19650	21000	46879027	2009	9.57	3120841	6.66	1.4370	
19450	19950	19700	21000	46879027	1859	8.85	3120991	6.66	1.3297	
19500	20000	19750	21000	46879027	1709	8.14	3121141	6.66	1.2223	
19550	20050	19800	21000	46879027	1510	7.19	3121340	6.66	1.0799	
19600	20100	19850	21000	46879027	1353	6.44	3121497	6.66	0.9676	
19650	20150	19900	21000	46879027	1253	5.97	3121597	6.66	0.8961	
19700	20200	19950	21000	46879027	1153	5.49	3121697	6.66	0.8245	
19750	20250	20000	21000	46879027	1030	4.90	3121820	6.66	0.7365	
19800	20300	20050	21000	46879027	921	4.39	3121929	6.66	0.6586	
19850	20350	20100	21000	46879027	856	4.08	3121994	6.66	0.6121	
19900	20400	20150	21000	46879027	855	4.07	3121995	6.66	0.6114	
19950	20450	20200	21000	46879027	905	4.31	3121945	6.66	0.6471	
20000	20500	20250	21000	46879027	955	4.55	3121895	6.66	0.6829	
20050	20550	20300	21000	46879027	1054	5.02	3121796	6.66	0.7537	
20100	20600	20350	21000	46879027	1123	5.35	3121727	6.66	0.8031	
20150	20650	20400	21000	46879027	1173	5.59	3121677	6.66	0.8388	
20200	20700	20450	21000	46879027	1227	5.84	3121623	6.66	0.8775	
20250	20750	20500	21000	46879027	1300	6.19	3121550	6.66	0.9297	
20300	20800	20550	21000	46879027	1433	6.82	3121417	6.66	1.0248	
20350	20850	20600	21000	46879027	1548	7.37	3121302	6.66	1.1071	
20400	20900	20650	21000	46879027	1637	7.80	3121213	6.66	1.1708	
20450	20950	20700	21000	46879027	1652	7.87	3121198	6.66	1.1815	
20500	21000	20750	21000	46879027	1641	7.81	3121209	6.66	1.1737	
20550	21050	20800	21000	46879027	1591	7.58	3121259	6.66	1.1379	
20600	21100	20850	21000	46879027	1541	7.34	3121309	6.66	1.1021	
20650	21150	20900	21000	46879027	1514	7.21	3121336	6.66	1.0828	
20700	21200	20950	21000	46879027	1510	7.19	3121340	6.66	1.0799	
20750	21250	21000	21000	46879027	1510	7.19	3121340	6.66	1.0799	
20800	21300	21050	21000	46879027	1477	7.03	3121373	6.66	1.0563	
20850	21350	21100	21000	46879027	1427	6.80	3121423	6.66	1.0205	
20900	21400	21150	21000	46879027	1377	6.56	3121473	6.66	0.9848	
20950	21450	21200	21000	46879027	1362	6.49	3121488	6.66	0.9740	
21000	21500	21250	21000	46879027	1373	6.54	3121477	6.66	0.9819	
21050	21550	21300	21000	46879027	1423	6.78	3121427	6.66	1.0177	
21100	21600	21350	21000	46879027	1511	7.20	3121339	6.66	1.0806	
21150	21650	21400	21000	46879027	1588	7.56	3121262	6.66	1.1357	
21200	21700	21450	21000	46879027	1646	7.84	3121204	6.66	1.1772	
21250	21750	21500	21000	46879027	1723	8.20	3121127	6.66	1.2323	
21300	21800	21550	21000	46879027	1773	8.44	3121077	6.66	1.2681	
21350	21850	21600	21000	46879027	1834	8.73	3121016	6.66	1.3118	
21400	21900	21650	21000	46879027	1849	8.80	3121001	6.66	1.3225	
21450	21950	21700	21000	46879027	1849	8.80	3121001	6.66	1.3225	
21500	22000	21750	21000	46879027	1849	8.80	3121001	6.66	1.3225	
21550	22050	21800	21000	46879027	1849	8.80	3121001	6.66	1.3225	
21600	22100	21850	21000	46879027	1811	8.62	3121039	6.66	1.2953	
21650	22150	21900	21000	46879027	1761	8.39	3121089	6.66	1.2595	
21700	22200	21950	21000	46879027	1752	8.34	3121098	6.66	1.2531	
21750	22250	22000	21000	46879027	1725	8.21	3121125	6.66	1.2338	
21800	22300	22050	21000	46879027	1725	8.21	3121125	6.66	1.2338	
21850	22350	22100	21000	46879027	1714	8.16	3121136	6.66	1.2259	
21900	22400	22150	21000	46879027	1749	8.33	3121101	6.66	1.2510	
21950	22450	22200	21000	46879027	1801	8.58	3121049	6.66	1.2882	
22000	22500	22250	21000	46879027	1851	8.81	3120999	6.66	1.3240	
22050	22550	22300	21000	46879027	1901	9.05	3120949	6.66	1.3597	
22100	22600	22350	21000	46879027	1907	9.08	3120943	6.66	1.3640	
22150	22650	22400	21000	46879027	1858	8.85	3120992	6.66	1.3290	
22200	22700	22450	21000	46879027	1759	8.38	3121091	6.66	1.2581	
22250	22750	22500	21000	46879027	1680	8.00	3121170	6.66	1.2016	
22300	22800	22550	21000	46879027	1630	7.76	3121220	6.66	1.1658	
22350	22850	22600	21000	46879027	1580	7.52	3121270	6.66	1.1300	
22400	22900	22650	21000	46879027	1530	7.29	3121320	6.66	1.0942	
22450	22950	22700	21000	46879027	1478	7.04	3121372	6.66	1.0570	
22500	23000	22750	21000	46879027	1428	6.80	3121422	6.66	1.0213	
22550	23050	22800	21000	46879027	1378	6.56	3121472	6.66	0.9855	
22600	23100	22850	21000	46879027	1372	6.53	3121478	6.66	0.9812	
22650	23150	22900	21000	46879027	1421	6.77	3121429	6.66	1.0162	
22700	23200	22950	21000	46879027	1509	7.19	3121341	6.66	1.0792	
22750	23250	23000	21000	46879027	1588	7.56	3121262	6.66	1.1357	
22800	23300	23050	21000	46879027	1638	7.80	3121212	6.66	1.1715	
22850	23350	23100	21000	46879027	1688	8.04	3121162	6.66	1.2073	
22900	23400	23150	21000	46879027	1738	8.28	3121112	6.66	1.2431	
22950	23450	23200	21000	46879027	1788	8.51	3121062	6.66	1.2789	
23000	23500	23250	21000	46879027	1817	8.65	3121033	6.66	1.2996	
23050	23550	23300	21000	46879027	1779	8.47	3121071	6.66	1.2724	
23100	23600	23350	21000	46879027	1729	8.23	3121121	6.66	1.2366	
23150	23650	23400	21000	46879027	1669	7.95	3121181	6.66	1.1937	
23200	23700	23450	21000	46879027	1531	7.29	3121319	6.66	1.0950	
23250	23750	23500	21000	46879027	1430	6.81	3121420	6.66	1.0227	
23300	23800	23550	21000	46879027	1330	6.33	3121520	6.66	0.9511	
23350	23850	23600	21000	46879027	1230	5.86	3121620	6.66	0.8796	
23400	23900	23650	21000	46879027	1180	5.62	3121670	6.66	0.8438	
23450	23950	23700	21000	46879027	1180	5.62	3121670	6.66	0.8438	
23500	24000	23750	21000	46879027	1201	5.72	3121649	6.66	0.8589	
23550	24050	23800	21000	46879027	1289	6.14	3121561	6.66	0.9218	
23600	24100	23850	21000	46879027	1389	6.61	3121461	6.66	0.9934	
23650	24150	23900	21000	46879027	1528	7.28	3121322	6.66	1.0928	
23700	24200	23950	21000	46879027	1728	8.23	3121122	6.66	1.2359	
23750	24250	24000	21000	46879027	1879	8.95	3120971	6.66	1.3440	
23800	24300	24050	21000	46879027	2029	9.66	3120821	6.66	1.4514	
23850	24350	24100	21000	46879027	2179	10.38	3120671	6.66	1.5587	
23900	24400	24150	21000	46879027	2241	10.67	3120609	6.66	1.6031	
23950	24450	24200	21000	46879027	2272	10.82	3120578	6.66	1.6253	
24000	24500	24250	21000	46879027	2267	10.80	3120583	6.66	1.6217	
24050	24550	24300	21000	46879027	2217	10.56	3120633	6.66	1.5859	
24100	24600	24350	21000	46879027	2138	10.18	3120712	6.66	1.5294	
24150	24650	24400	21000	46879027	1965	9.36	3120885	6.66	1.4055	
24200	24700	24450	21000	46879027	1765	8.40	3121085	6.66	1.2624	
24250	24750	24500	21000	46879027	1565	7.45	3121285	6.66	1.1193	
24300	24800	24550	21000	46879027	1365	6.50	3121485	6.66	0.9762	
24350	24850	24600	21000	46879027	1165	5.55	3121685	6.66	0.8331	
24400	24900	24650	21000	46879027	1003	4.78	3121847	6.66	0.7172	
24450	24950	24700	21000	46879027	822	3.91	3122028	6.66	0.5878	
24500	25000	24750	21000	46879027	677	3.22	3122173	6.66	0.4841	
