Start	End	Midpoint	Breakpoint_bp	Non_breakpoint_bp	Feature_bp_inside	%Inside	Feature_bp_outside	%Outside	Ratio
-25000	-24500	-24750	23000	46877027	665	2.89	2676535	5.71	0.5064	
-24950	-24450	-24700	23000	46877027	715	3.11	2676485	5.71	0.5445	
-24900	-24400	-24650	23000	46877027	765	3.33	2676435	5.71	0.5826	
-24850	-24350	-24600	23000	46877027	815	3.54	2676385	5.71	0.6206	
-24800	-24300	-24550	23000	46877027	865	3.76	2676335	5.71	0.6587	
-24750	-24250	-24500	23000	46877027	915	3.98	2676285	5.71	0.6968	
-24700	-24200	-24450	23000	46877027	965	4.20	2676235	5.71	0.7349	
-24650	-24150	-24400	23000	46877027	1000	4.35	2676200	5.71	0.7616	
-24600	-24100	-24350	23000	46877027	1000	4.35	2676200	5.71	0.7616	
-24550	-24050	-24300	23000	46877027	1000	4.35	2676200	5.71	0.7616	
-24500	-24000	-24250	23000	46877027	1000	4.35	2676200	5.71	0.7616	
-24450	-23950	-24200	23000	46877027	1000	4.35	2676200	5.71	0.7616	
-24400	-23900	-24150	23000	46877027	1000	4.35	2676200	5.71	0.7616	
-24350	-23850	-24100	23000	46877027	1000	4.35	2676200	5.71	0.7616	
-24300	-23800	-24050	23000	46877027	1000	4.35	2676200	5.71	0.7616	
-24250	-23750	-24000	23000	46877027	1000	4.35	2676200	5.71	0.7616	
-24200	-23700	-23950	23000	46877027	1000	4.35	2676200	5.71	0.7616	
-24150	-23650	-23900	23000	46877027	1000	4.35	2676200	5.71	0.7616	
-24100	-23600	-23850	23000	46877027	1000	4.35	2676200	5.71	0.7616	
-24050	-23550	-23800	23000	46877027	1000	4.35	2676200	5.71	0.7616	
-24000	-23500	-23750	23000	46877027	1000	4.35	2676200	5.71	0.7616	
-23950	-23450	-23700	23000	46877027	1000	4.35	2676200	5.71	0.7616	
-23900	-23400	-23650	23000	46877027	1000	4.35	2676200	5.71	0.7616	
-23850	-23350	-23600	23000	46877027	1000	4.35	2676200	5.71	0.7616	
-23800	-23300	-23550	23000	46877027	1000	4.35	2676200	5.71	0.7616	
-23750	-23250	-23500	23000	46877027	1000	4.35	2676200	5.71	0.7616	
-23700	-23200	-23450	23000	46877027	1000	4.35	2676200	5.71	0.7616	
-23650	-23150	-23400	23000	46877027	1000	4.35	2676200	5.71	0.7616	
-23600	-23100	-23350	23000	46877027	1000	4.35	2676200	5.71	0.7616	
-23550	-23050	-23300	23000	46877027	1000	4.35	2676200	5.71	0.7616	
-23500	-23000	-23250	23000	46877027	1000	4.35	2676200	5.71	0.7616	
-23450	-22950	-23200	23000	46877027	1000	4.35	2676200	5.71	0.7616	
-23400	-22900	-23150	23000	46877027	1000	4.35	2676200	5.71	0.7616	
-23350	-22850	-23100	23000	46877027	1000	4.35	2676200	5.71	0.7616	
-23300	-22800	-23050	23000	46877027	1000	4.35	2676200	5.71	0.7616	
-23250	-22750	-23000	23000	46877027	1000	4.35	2676200	5.71	0.7616	
-23200	-22700	-22950	23000	46877027	1000	4.35	2676200	5.71	0.7616	
-23150	-22650	-22900	23000	46877027	1000	4.35	2676200	5.71	0.7616	
-23100	-22600	-22850	23000	46877027	1000	4.35	2676200	5.71	0.7616	
-23050	-22550	-22800	23000	46877027	1000	4.35	2676200	5.71	0.7616	
-23000	-22500	-22750	23000	46877027	1000	4.35	2676200	5.71	0.7616	
-22950	-22450	-22700	23000	46877027	1000	4.35	2676200	5.71	0.7616	
-22900	-22400	-22650	23000	46877027	1000	4.35	2676200	5.71	0.7616	
-22850	-22350	-22600	23000	46877027	1000	4.35	2676200	5.71	0.7616	
-22800	-22300	-22550	23000	46877027	1000	4.35	2676200	5.71	0.7616	
-22750	-22250	-22500	23000	46877027	1000	4.35	2676200	5.71	0.7616	
-22700	-22200	-22450	23000	46877027	1000	4.35	2676200	5.71	0.7616	
-22650	-22150	-22400	23000	46877027	1000	4.35	2676200	5.71	0.7616	
-22600	-22100	-22350	23000	46877027	1000	4.35	2676200	5.71	0.7616	
-22550	-22050	-22300	23000	46877027	1000	4.35	2676200	5.71	0.7616	
-22500	-22000	-22250	23000	46877027	1000	4.35	2676200	5.71	0.7616	
-22450	-21950	-22200	23000	46877027	1000	4.35	2676200	5.71	0.7616	
-22400	-21900	-22150	23000	46877027	1000	4.35	2676200	5.71	0.7616	
-22350	-21850	-22100	23000	46877027	1000	4.35	2676200	5.71	0.7616	
-22300	-21800	-22050	23000	46877027	1000	4.35	2676200	5.71	0.7616	
-22250	-21750	-22000	23000	46877027	1000	4.35	2676200	5.71	0.7616	
-22200	-21700	-21950	23000	46877027	1000	4.35	2676200	5.71	0.7616	
-22150	-21650	-21900	23000	46877027	1000	4.35	2676200	5.71	0.7616	
-22100	-21600	-21850	23000	46877027	951	4.13	2676249	5.71	0.7242	
-22050	-21550	-21800	23000	46877027	901	3.92	2676299	5.71	0.6862	
-22000	-21500	-21750	23000	46877027	851	3.70	2676349	5.71	0.6481	
-21950	-21450	-21700	23000	46877027	801	3.48	2676399	5.71	0.6100	
-21900	-21400	-21650	23000	46877027	751	3.27	2676449	5.71	0.5719	
-21850	-21350	-21600	23000	46877027	701	3.05	2676499	5.71	0.5338	
-21800	-21300	-21550	23000	46877027	651	2.83	2676549	5.71	0.4957	
-21750	-21250	-21500	23000	46877027	601	2.61	2676599	5.71	0.4576	
-21700	-21200	-21450	23000	46877027	551	2.40	2676649	5.71	0.4196	
-21650	-21150	-21400	23000	46877027	501	2.18	2676699	5.71	0.3815	
-21600	-21100	-21350	23000	46877027	500	2.17	2676700	5.71	0.3807	
-21550	-21050	-21300	23000	46877027	500	2.17	2676700	5.71	0.3807	
-21500	-21000	-21250	23000	46877027	500	2.17	2676700	5.71	0.3807	
-21450	-20950	-21200	23000	46877027	500	2.17	2676700	5.71	0.3807	
-21400	-20900	-21150	23000	46877027	500	2.17	2676700	5.71	0.3807	
-21350	-20850	-21100	23000	46877027	500	2.17	2676700	5.71	0.3807	
-21300	-20800	-21050	23000	46877027	500	2.17	2676700	5.71	0.3807	
-21250	-20750	-21000	23000	46877027	500	2.17	2676700	5.71	0.3807	
-21200	-20700	-20950	23000	46877027	500	2.17	2676700	5.71	0.3807	
-21150	-20650	-20900	23000	46877027	500	2.17	2676700	5.71	0.3807	
-21100	-20600	-20850	23000	46877027	500	2.17	2676700	5.71	0.3807	
-21050	-20550	-20800	23000	46877027	500	2.17	2676700	5.71	0.3807	
-21000	-20500	-20750	23000	46877027	500	2.17	2676700	5.71	0.3807	
-20950	-20450	-20700	23000	46877027	485	2.11	2676715	5.71	0.3693	
-20900	-20400	-20650	23000	46877027	435	1.89	2676765	5.71	0.3312	
-20850	-20350	-20600	23000	46877027	385	1.67	2676815	5.71	0.2931	
-20800	-20300	-20550	23000	46877027	335	1.46	2676865	5.71	0.2551	
-20750	-20250	-20500	23000	46877027	285	1.24	2676915	5.71	0.2170	
-20700	-20200	-20450	23000	46877027	235	1.02	2676965	5.71	0.1789	
-20650	-20150	-20400	23000	46877027	185	0.80	2677015	5.71	0.1408	
-20600	-20100	-20350	23000	46877027	135	0.59	2677065	5.71	0.1028	
-20550	-20050	-20300	23000	46877027	85	0.37	2677115	5.71	0.0647	
-20500	-20000	-20250	22932	46877095	35	0.15	2677165	5.71	0.0267	
-20450	-19950	-20200	22832	46877195	0	0.00	2677200	5.71	0.0000	
-20400	-19900	-20150	22732	46877295	0	0.00	2677200	5.71	0.0000	
-20350	-19850	-20100	22632	46877395	0	0.00	2677200	5.71	0.0000	
-20300	-19800	-20050	22532	46877495	0	0.00	2677200	5.71	0.0000	
-20250	-19750	-20000	22568	46877459	0	0.00	2677200	5.71	0.0000	
-20200	-19700	-19950	22668	46877359	0	0.00	2677200	5.71	0.0000	
-20150	-19650	-19900	22768	46877259	0	0.00	2677200	5.71	0.0000	
-20100	-19600	-19850	22868	46877159	0	0.00	2677200	5.71	0.0000	
-20050	-19550	-19800	22968	46877059	0	0.00	2677200	5.71	0.0000	
-20000	-19500	-19750	23000	46877027	0	0.00	2677200	5.71	0.0000	
-19950	-19450	-19700	23000	46877027	0	0.00	2677200	5.71	0.0000	
-19900	-19400	-19650	23000	46877027	0	0.00	2677200	5.71	0.0000	
-19850	-19350	-19600	23000	46877027	0	0.00	2677200	5.71	0.0000	
-19800	-19300	-19550	23000	46877027	0	0.00	2677200	5.71	0.0000	
-19750	-19250	-19500	23000	46877027	0	0.00	2677200	5.71	0.0000	
-19700	-19200	-19450	23000	46877027	0	0.00	2677200	5.71	0.0000	
-19650	-19150	-19400	23000	46877027	0	0.00	2677200	5.71	0.0000	
-19600	-19100	-19350	23000	46877027	0	0.00	2677200	5.71	0.0000	
-19550	-19050	-19300	23000	46877027	0	0.00	2677200	5.71	0.0000	
-19500	-19000	-19250	23000	46877027	0	0.00	2677200	5.71	0.0000	
-19450	-18950	-19200	23000	46877027	0	0.00	2677200	5.71	0.0000	
-19400	-18900	-19150	23000	46877027	0	0.00	2677200	5.71	0.0000	
-19350	-18850	-19100	23000	46877027	0	0.00	2677200	5.71	0.0000	
-19300	-18800	-19050	23000	46877027	0	0.00	2677200	5.71	0.0000	
-19250	-18750	-19000	23000	46877027	0	0.00	2677200	5.71	0.0000	
-19200	-18700	-18950	23000	46877027	0	0.00	2677200	5.71	0.0000	
-19150	-18650	-18900	23000	46877027	0	0.00	2677200	5.71	0.0000	
-19100	-18600	-18850	23000	46877027	0	0.00	2677200	5.71	0.0000	
-19050	-18550	-18800	23000	46877027	0	0.00	2677200	5.71	0.0000	
-19000	-18500	-18750	23000	46877027	0	0.00	2677200	5.71	0.0000	
-18950	-18450	-18700	23000	46877027	0	0.00	2677200	5.71	0.0000	
-18900	-18400	-18650	23000	46877027	0	0.00	2677200	5.71	0.0000	
-18850	-18350	-18600	23000	46877027	0	0.00	2677200	5.71	0.0000	
-18800	-18300	-18550	23000	46877027	0	0.00	2677200	5.71	0.0000	
-18750	-18250	-18500	23000	46877027	0	0.00	2677200	5.71	0.0000	
-18700	-18200	-18450	23000	46877027	0	0.00	2677200	5.71	0.0000	
-18650	-18150	-18400	23000	46877027	0	0.00	2677200	5.71	0.0000	
-18600	-18100	-18350	23000	46877027	0	0.00	2677200	5.71	0.0000	
-18550	-18050	-18300	23000	46877027	0	0.00	2677200	5.71	0.0000	
-18500	-18000	-18250	23000	46877027	0	0.00	2677200	5.71	0.0000	
-18450	-17950	-18200	23000	46877027	0	0.00	2677200	5.71	0.0000	
-18400	-17900	-18150	23000	46877027	0	0.00	2677200	5.71	0.0000	
-18350	-17850	-18100	23000	46877027	0	0.00	2677200	5.71	0.0000	
-18300	-17800	-18050	23000	46877027	0	0.00	2677200	5.71	0.0000	
-18250	-17750	-18000	23000	46877027	0	0.00	2677200	5.71	0.0000	
-18200	-17700	-17950	23000	46877027	0	0.00	2677200	5.71	0.0000	
-18150	-17650	-17900	23000	46877027	0	0.00	2677200	5.71	0.0000	
-18100	-17600	-17850	23000	46877027	0	0.00	2677200	5.71	0.0000	
-18050	-17550	-17800	23000	46877027	0	0.00	2677200	5.71	0.0000	
-18000	-17500	-17750	23000	46877027	0	0.00	2677200	5.71	0.0000	
-17950	-17450	-17700	23000	46877027	0	0.00	2677200	5.71	0.0000	
-17900	-17400	-17650	23000	46877027	0	0.00	2677200	5.71	0.0000	
-17850	-17350	-17600	23000	46877027	0	0.00	2677200	5.71	0.0000	
-17800	-17300	-17550	23000	46877027	0	0.00	2677200	5.71	0.0000	
-17750	-17250	-17500	23000	46877027	0	0.00	2677200	5.71	0.0000	
-17700	-17200	-17450	23000	46877027	0	0.00	2677200	5.71	0.0000	
-17650	-17150	-17400	23000	46877027	0	0.00	2677200	5.71	0.0000	
-17600	-17100	-17350	23000	46877027	0	0.00	2677200	5.71	0.0000	
-17550	-17050	-17300	23000	46877027	0	0.00	2677200	5.71	0.0000	
-17500	-17000	-17250	23000	46877027	0	0.00	2677200	5.71	0.0000	
-17450	-16950	-17200	23000	46877027	0	0.00	2677200	5.71	0.0000	
-17400	-16900	-17150	23000	46877027	0	0.00	2677200	5.71	0.0000	
-17350	-16850	-17100	23000	46877027	0	0.00	2677200	5.71	0.0000	
-17300	-16800	-17050	23000	46877027	0	0.00	2677200	5.71	0.0000	
-17250	-16750	-17000	23000	46877027	0	0.00	2677200	5.71	0.0000	
-17200	-16700	-16950	23000	46877027	0	0.00	2677200	5.71	0.0000	
-17150	-16650	-16900	23000	46877027	0	0.00	2677200	5.71	0.0000	
-17100	-16600	-16850	23000	46877027	0	0.00	2677200	5.71	0.0000	
-17050	-16550	-16800	23000	46877027	0	0.00	2677200	5.71	0.0000	
-17000	-16500	-16750	23000	46877027	0	0.00	2677200	5.71	0.0000	
-16950	-16450	-16700	23000	46877027	0	0.00	2677200	5.71	0.0000	
-16900	-16400	-16650	23000	46877027	0	0.00	2677200	5.71	0.0000	
-16850	-16350	-16600	23000	46877027	0	0.00	2677200	5.71	0.0000	
-16800	-16300	-16550	23000	46877027	0	0.00	2677200	5.71	0.0000	
-16750	-16250	-16500	23000	46877027	0	0.00	2677200	5.71	0.0000	
-16700	-16200	-16450	23000	46877027	0	0.00	2677200	5.71	0.0000	
-16650	-16150	-16400	23000	46877027	0	0.00	2677200	5.71	0.0000	
-16600	-16100	-16350	23000	46877027	0	0.00	2677200	5.71	0.0000	
-16550	-16050	-16300	23000	46877027	0	0.00	2677200	5.71	0.0000	
-16500	-16000	-16250	23000	46877027	0	0.00	2677200	5.71	0.0000	
-16450	-15950	-16200	23000	46877027	0	0.00	2677200	5.71	0.0000	
-16400	-15900	-16150	23000	46877027	0	0.00	2677200	5.71	0.0000	
-16350	-15850	-16100	23000	46877027	0	0.00	2677200	5.71	0.0000	
-16300	-15800	-16050	23000	46877027	0	0.00	2677200	5.71	0.0000	
-16250	-15750	-16000	23000	46877027	0	0.00	2677200	5.71	0.0000	
-16200	-15700	-15950	23000	46877027	0	0.00	2677200	5.71	0.0000	
-16150	-15650	-15900	23000	46877027	0	0.00	2677200	5.71	0.0000	
-16100	-15600	-15850	23000	46877027	0	0.00	2677200	5.71	0.0000	
-16050	-15550	-15800	23000	46877027	0	0.00	2677200	5.71	0.0000	
-16000	-15500	-15750	23000	46877027	0	0.00	2677200	5.71	0.0000	
-15950	-15450	-15700	23000	46877027	0	0.00	2677200	5.71	0.0000	
-15900	-15400	-15650	23000	46877027	0	0.00	2677200	5.71	0.0000	
-15850	-15350	-15600	23000	46877027	0	0.00	2677200	5.71	0.0000	
-15800	-15300	-15550	23000	46877027	0	0.00	2677200	5.71	0.0000	
-15750	-15250	-15500	23000	46877027	0	0.00	2677200	5.71	0.0000	
-15700	-15200	-15450	23000	46877027	0	0.00	2677200	5.71	0.0000	
-15650	-15150	-15400	23000	46877027	0	0.00	2677200	5.71	0.0000	
-15600	-15100	-15350	23000	46877027	0	0.00	2677200	5.71	0.0000	
-15550	-15050	-15300	23000	46877027	0	0.00	2677200	5.71	0.0000	
-15500	-15000	-15250	23000	46877027	0	0.00	2677200	5.71	0.0000	
-15450	-14950	-15200	23000	46877027	0	0.00	2677200	5.71	0.0000	
-15400	-14900	-15150	23000	46877027	0	0.00	2677200	5.71	0.0000	
-15350	-14850	-15100	23000	46877027	0	0.00	2677200	5.71	0.0000	
-15300	-14800	-15050	23000	46877027	0	0.00	2677200	5.71	0.0000	
-15250	-14750	-15000	23000	46877027	0	0.00	2677200	5.71	0.0000	
-15200	-14700	-14950	23000	46877027	0	0.00	2677200	5.71	0.0000	
-15150	-14650	-14900	23000	46877027	0	0.00	2677200	5.71	0.0000	
-15100	-14600	-14850	23000	46877027	0	0.00	2677200	5.71	0.0000	
-15050	-14550	-14800	23000	46877027	0	0.00	2677200	5.71	0.0000	
-15000	-14500	-14750	23000	46877027	0	0.00	2677200	5.71	0.0000	
-14950	-14450	-14700	23000	46877027	0	0.00	2677200	5.71	0.0000	
-14900	-14400	-14650	23000	46877027	25	0.11	2677175	5.71	0.0190	
-14850	-14350	-14600	23000	46877027	75	0.33	2677125	5.71	0.0571	
-14800	-14300	-14550	23000	46877027	125	0.54	2677075	5.71	0.0952	
-14750	-14250	-14500	23000	46877027	224	0.97	2676976	5.71	0.1705	
-14700	-14200	-14450	23000	46877027	324	1.41	2676876	5.71	0.2467	
-14650	-14150	-14400	23000	46877027	424	1.84	2676776	5.71	0.3228	
-14600	-14100	-14350	23000	46877027	524	2.28	2676676	5.71	0.3990	
-14550	-14050	-14300	23000	46877027	624	2.71	2676576	5.71	0.4752	
-14500	-14000	-14250	23000	46877027	724	3.15	2676476	5.71	0.5513	
-14450	-13950	-14200	23000	46877027	824	3.58	2676376	5.71	0.6275	
-14400	-13900	-14150	23000	46877027	899	3.91	2676301	5.71	0.6846	
-14350	-13850	-14100	23000	46877027	949	4.13	2676251	5.71	0.7227	
-14300	-13800	-14050	23000	46877027	999	4.34	2676201	5.71	0.7608	
-14250	-13750	-14000	23000	46877027	1000	4.35	2676200	5.71	0.7616	
-14200	-13700	-13950	23000	46877027	1000	4.35	2676200	5.71	0.7616	
-14150	-13650	-13900	23000	46877027	1000	4.35	2676200	5.71	0.7616	
-14100	-13600	-13850	23000	46877027	1000	4.35	2676200	5.71	0.7616	
-14050	-13550	-13800	23000	46877027	1000	4.35	2676200	5.71	0.7616	
-14000	-13500	-13750	23000	46877027	1000	4.35	2676200	5.71	0.7616	
-13950	-13450	-13700	23000	46877027	1000	4.35	2676200	5.71	0.7616	
-13900	-13400	-13650	23000	46877027	1000	4.35	2676200	5.71	0.7616	
-13850	-13350	-13600	23000	46877027	1000	4.35	2676200	5.71	0.7616	
-13800	-13300	-13550	23000	46877027	1000	4.35	2676200	5.71	0.7616	
-13750	-13250	-13500	23000	46877027	1000	4.35	2676200	5.71	0.7616	
-13700	-13200	-13450	23000	46877027	1000	4.35	2676200	5.71	0.7616	
-13650	-13150	-13400	23000	46877027	1000	4.35	2676200	5.71	0.7616	
-13600	-13100	-13350	23000	46877027	1000	4.35	2676200	5.71	0.7616	
-13550	-13050	-13300	23000	46877027	1000	4.35	2676200	5.71	0.7616	
-13500	-13000	-13250	23000	46877027	1000	4.35	2676200	5.71	0.7616	
-13450	-12950	-13200	23000	46877027	1000	4.35	2676200	5.71	0.7616	
-13400	-12900	-13150	23000	46877027	1000	4.35	2676200	5.71	0.7616	
-13350	-12850	-13100	23000	46877027	1000	4.35	2676200	5.71	0.7616	
-13300	-12800	-13050	23000	46877027	1049	4.56	2676151	5.71	0.7989	
-13250	-12750	-13000	23000	46877027	1099	4.78	2676101	5.71	0.8370	
-13200	-12700	-12950	23000	46877027	1149	5.00	2676051	5.71	0.8751	
-13150	-12650	-12900	23000	46877027	1199	5.21	2676001	5.71	0.9132	
-13100	-12600	-12850	23000	46877027	1249	5.43	2675951	5.71	0.9513	
-13050	-12550	-12800	23000	46877027	1299	5.65	2675901	5.71	0.9894	
-13000	-12500	-12750	23000	46877027	1349	5.87	2675851	5.71	1.0275	
-12950	-12450	-12700	23000	46877027	1399	6.08	2675801	5.71	1.0656	
-12900	-12400	-12650	23000	46877027	1449	6.30	2675751	5.71	1.1037	
-12850	-12350	-12600	23000	46877027	1499	6.52	2675701	5.71	1.1418	
-12800	-12300	-12550	23000	46877027	1500	6.52	2675700	5.71	1.1426	
-12750	-12250	-12500	23000	46877027	1500	6.52	2675700	5.71	1.1426	
-12700	-12200	-12450	23000	46877027	1500	6.52	2675700	5.71	1.1426	
-12650	-12150	-12400	23000	46877027	1500	6.52	2675700	5.71	1.1426	
-12600	-12100	-12350	23000	46877027	1500	6.52	2675700	5.71	1.1426	
-12550	-12050	-12300	23000	46877027	1500	6.52	2675700	5.71	1.1426	
-12500	-12000	-12250	23000	46877027	1500	6.52	2675700	5.71	1.1426	
-12450	-11950	-12200	23000	46877027	1500	6.52	2675700	5.71	1.1426	
-12400	-11900	-12150	23000	46877027	1500	6.52	2675700	5.71	1.1426	
-12350	-11850	-12100	23000	46877027	1500	6.52	2675700	5.71	1.1426	
-12300	-11800	-12050	23000	46877027	1500	6.52	2675700	5.71	1.1426	
-12250	-11750	-12000	23000	46877027	1500	6.52	2675700	5.71	1.1426	
-12200	-11700	-11950	23000	46877027	1500	6.52	2675700	5.71	1.1426	
-12150	-11650	-11900	23000	46877027	1500	6.52	2675700	5.71	1.1426	
-12100	-11600	-11850	23000	46877027	1500	6.52	2675700	5.71	1.1426	
-12050	-11550	-11800	23000	46877027	1500	6.52	2675700	5.71	1.1426	
-12000	-11500	-11750	23000	46877027	1500	6.52	2675700	5.71	1.1426	
-11950	-11450	-11700	23000	46877027	1500	6.52	2675700	5.71	1.1426	
-11900	-11400	-11650	23000	46877027	1500	6.52	2675700	5.71	1.1426	
-11850	-11350	-11600	23000	46877027	1500	6.52	2675700	5.71	1.1426	
-11800	-11300	-11550	23000	46877027	1500	6.52	2675700	5.71	1.1426	
-11750	-11250	-11500	23000	46877027	1500	6.52	2675700	5.71	1.1426	
-11700	-11200	-11450	23000	46877027	1500	6.52	2675700	5.71	1.1426	
-11650	-11150	-11400	23000	46877027	1500	6.52	2675700	5.71	1.1426	
-11600	-11100	-11350	23000	46877027	1500	6.52	2675700	5.71	1.1426	
-11550	-11050	-11300	23000	46877027	1500	6.52	2675700	5.71	1.1426	
-11500	-11000	-11250	22931	46877096	1500	6.54	2675700	5.71	1.1460	
-11450	-10950	-11200	22831	46877196	1500	6.57	2675700	5.71	1.1510	
-11400	-10900	-11150	22731	46877296	1500	6.60	2675700	5.71	1.1561	
-11350	-10850	-11100	22631	46877396	1500	6.63	2675700	5.71	1.1612	
-11300	-10800	-11050	22531	46877496	1500	6.66	2675700	5.71	1.1664	
-11250	-10750	-11000	22569	46877458	1500	6.65	2675700	5.71	1.1644	
-11200	-10700	-10950	22669	46877358	1500	6.62	2675700	5.71	1.1593	
-11150	-10650	-10900	22769	46877258	1500	6.59	2675700	5.71	1.1542	
-11100	-10600	-10850	22869	46877158	1500	6.56	2675700	5.71	1.1491	
-11050	-10550	-10800	22969	46877058	1500	6.53	2675700	5.71	1.1441	
-11000	-10500	-10750	23000	46877027	1500	6.52	2675700	5.71	1.1426	
-10950	-10450	-10700	23000	46877027	1500	6.52	2675700	5.71	1.1426	
-10900	-10400	-10650	23000	46877027	1500	6.52	2675700	5.71	1.1426	
-10850	-10350	-10600	23000	46877027	1500	6.52	2675700	5.71	1.1426	
-10800	-10300	-10550	23000	46877027	1500	6.52	2675700	5.71	1.1426	
-10750	-10250	-10500	23000	46877027	1500	6.52	2675700	5.71	1.1426	
-10700	-10200	-10450	23000	46877027	1500	6.52	2675700	5.71	1.1426	
-10650	-10150	-10400	23000	46877027	1500	6.52	2675700	5.71	1.1426	
-10600	-10100	-10350	23000	46877027	1500	6.52	2675700	5.71	1.1426	
-10550	-10050	-10300	23000	46877027	1500	6.52	2675700	5.71	1.1426	
-10500	-10000	-10250	23000	46877027	1500	6.52	2675700	5.71	1.1426	
-10450	-9950	-10200	23000	46877027	1500	6.52	2675700	5.71	1.1426	
-10400	-9900	-10150	23000	46877027	1500	6.52	2675700	5.71	1.1426	
-10350	-9850	-10100	23000	46877027	1500	6.52	2675700	5.71	1.1426	
-10300	-9800	-10050	23000	46877027	1500	6.52	2675700	5.71	1.1426	
-10250	-9750	-10000	23000	46877027	1500	6.52	2675700	5.71	1.1426	
-10200	-9700	-9950	23000	46877027	1500	6.52	2675700	5.71	1.1426	
-10150	-9650	-9900	23000	46877027	1500	6.52	2675700	5.71	1.1426	
-10100	-9600	-9850	23000	46877027	1500	6.52	2675700	5.71	1.1426	
-10050	-9550	-9800	23000	46877027	1500	6.52	2675700	5.71	1.1426	
-10000	-9500	-9750	23000	46877027	1500	6.52	2675700	5.71	1.1426	
-9950	-9450	-9700	23000	46877027	1500	6.52	2675700	5.71	1.1426	
-9900	-9400	-9650	23000	46877027	1500	6.52	2675700	5.71	1.1426	
-9850	-9350	-9600	23000	46877027	1500	6.52	2675700	5.71	1.1426	
-9800	-9300	-9550	23000	46877027	1500	6.52	2675700	5.71	1.1426	
-9750	-9250	-9500	23000	46877027	1500	6.52	2675700	5.71	1.1426	
-9700	-9200	-9450	23000	46877027	1500	6.52	2675700	5.71	1.1426	
-9650	-9150	-9400	23000	46877027	1500	6.52	2675700	5.71	1.1426	
-9600	-9100	-9350	23000	46877027	1500	6.52	2675700	5.71	1.1426	
-9550	-9050	-9300	23000	46877027	1500	6.52	2675700	5.71	1.1426	
-9500	-9000	-9250	23000	46877027	1500	6.52	2675700	5.71	1.1426	
-9450	-8950	-9200	23000	46877027	1500	6.52	2675700	5.71	1.1426	
-9400	-8900	-9150	23000	46877027	1500	6.52	2675700	5.71	1.1426	
-9350	-8850	-9100	23000	46877027	1500	6.52	2675700	5.71	1.1426	
-9300	-8800	-9050	23000	46877027	1500	6.52	2675700	5.71	1.1426	
-9250	-8750	-9000	23000	46877027	1500	6.52	2675700	5.71	1.1426	
-9200	-8700	-8950	23000	46877027	1500	6.52	2675700	5.71	1.1426	
-9150	-8650	-8900	23000	46877027	1500	6.52	2675700	5.71	1.1426	
-9100	-8600	-8850	23000	46877027	1500	6.52	2675700	5.71	1.1426	
-9050	-8550	-8800	23000	46877027	1500	6.52	2675700	5.71	1.1426	
-9000	-8500	-8750	23000	46877027	1500	6.52	2675700	5.71	1.1426	
-8950	-8450	-8700	23000	46877027	1500	6.52	2675700	5.71	1.1426	
-8900	-8400	-8650	23000	46877027	1500	6.52	2675700	5.71	1.1426	
-8850	-8350	-8600	23000	46877027	1500	6.52	2675700	5.71	1.1426	
-8800	-8300	-8550	23000	46877027	1500	6.52	2675700	5.71	1.1426	
-8750	-8250	-8500	23000	46877027	1500	6.52	2675700	5.71	1.1426	
-8700	-8200	-8450	23000	46877027	1500	6.52	2675700	5.71	1.1426	
-8650	-8150	-8400	23000	46877027	1500	6.52	2675700	5.71	1.1426	
-8600	-8100	-8350	23000	46877027	1500	6.52	2675700	5.71	1.1426	
-8550	-8050	-8300	23000	46877027	1500	6.52	2675700	5.71	1.1426	
-8500	-8000	-8250	23000	46877027	1500	6.52	2675700	5.71	1.1426	
-8450	-7950	-8200	23000	46877027	1500	6.52	2675700	5.71	1.1426	
-8400	-7900	-8150	23000	46877027	1500	6.52	2675700	5.71	1.1426	
-8350	-7850	-8100	23000	46877027	1500	6.52	2675700	5.71	1.1426	
-8300	-7800	-8050	23000	46877027	1500	6.52	2675700	5.71	1.1426	
-8250	-7750	-8000	23000	46877027	1500	6.52	2675700	5.71	1.1426	
-8200	-7700	-7950	23000	46877027	1500	6.52	2675700	5.71	1.1426	
-8150	-7650	-7900	23000	46877027	1500	6.52	2675700	5.71	1.1426	
-8100	-7600	-7850	23000	46877027	1500	6.52	2675700	5.71	1.1426	
-8050	-7550	-7800	23000	46877027	1500	6.52	2675700	5.71	1.1426	
-8000	-7500	-7750	23000	46877027	1500	6.52	2675700	5.71	1.1426	
-7950	-7450	-7700	23000	46877027	1500	6.52	2675700	5.71	1.1426	
-7900	-7400	-7650	23000	46877027	1500	6.52	2675700	5.71	1.1426	
-7850	-7350	-7600	23000	46877027	1500	6.52	2675700	5.71	1.1426	
-7800	-7300	-7550	23000	46877027	1500	6.52	2675700	5.71	1.1426	
-7750	-7250	-7500	23000	46877027	1500	6.52	2675700	5.71	1.1426	
-7700	-7200	-7450	23000	46877027	1500	6.52	2675700	5.71	1.1426	
-7650	-7150	-7400	23000	46877027	1500	6.52	2675700	5.71	1.1426	
-7600	-7100	-7350	23000	46877027	1500	6.52	2675700	5.71	1.1426	
-7550	-7050	-7300	23000	46877027	1451	6.31	2675749	5.71	1.1052	
-7500	-7000	-7250	23000	46877027	1401	6.09	2675799	5.71	1.0671	
-7450	-6950	-7200	23000	46877027	1351	5.87	2675849	5.71	1.0290	
-7400	-6900	-7150	23000	46877027	1301	5.66	2675899	5.71	0.9909	
-7350	-6850	-7100	23000	46877027	1251	5.44	2675949	5.71	0.9528	
-7300	-6800	-7050	23000	46877027	1201	5.22	2675999	5.71	0.9147	
-7250	-6750	-7000	23000	46877027	1151	5.00	2676049	5.71	0.8766	
-7200	-6700	-6950	23000	46877027	1101	4.79	2676099	5.71	0.8385	
-7150	-6650	-6900	23000	46877027	1051	4.57	2676149	5.71	0.8004	
-7100	-6600	-6850	23000	46877027	1001	4.35	2676199	5.71	0.7623	
-7050	-6550	-6800	23000	46877027	1000	4.35	2676200	5.71	0.7616	
-7000	-6500	-6750	22976	46877051	976	4.25	2676224	5.71	0.7441	
-6950	-6450	-6700	22876	46877151	876	3.83	2676324	5.71	0.6707	
-6900	-6400	-6650	22776	46877251	776	3.41	2676424	5.71	0.5967	
-6850	-6350	-6600	22676	46877351	676	2.98	2676524	5.71	0.5221	
-6800	-6300	-6550	22576	46877451	576	2.55	2676624	5.71	0.4468	
-6750	-6250	-6500	22524	46877503	524	2.33	2676676	5.71	0.4074	
-6700	-6200	-6450	22624	46877403	624	2.76	2676576	5.71	0.4831	
-6650	-6150	-6400	22724	46877303	724	3.19	2676476	5.71	0.5580	
-6600	-6100	-6350	22824	46877203	824	3.61	2676376	5.71	0.6323	
-6550	-6050	-6300	22924	46877103	924	4.03	2676276	5.71	0.7060	
-6500	-6000	-6250	23000	46877027	1000	4.35	2676200	5.71	0.7616	
-6450	-5950	-6200	23000	46877027	1000	4.35	2676200	5.71	0.7616	
-6400	-5900	-6150	23000	46877027	1000	4.35	2676200	5.71	0.7616	
-6350	-5850	-6100	23000	46877027	1000	4.35	2676200	5.71	0.7616	
-6300	-5800	-6050	23000	46877027	1000	4.35	2676200	5.71	0.7616	
-6250	-5750	-6000	23000	46877027	1000	4.35	2676200	5.71	0.7616	
-6200	-5700	-5950	23000	46877027	1000	4.35	2676200	5.71	0.7616	
-6150	-5650	-5900	23000	46877027	1000	4.35	2676200	5.71	0.7616	
-6100	-5600	-5850	23000	46877027	1000	4.35	2676200	5.71	0.7616	
-6050	-5550	-5800	23000	46877027	1000	4.35	2676200	5.71	0.7616	
-6000	-5500	-5750	23000	46877027	1000	4.35	2676200	5.71	0.7616	
-5950	-5450	-5700	23000	46877027	1000	4.35	2676200	5.71	0.7616	
-5900	-5400	-5650	23000	46877027	1000	4.35	2676200	5.71	0.7616	
-5850	-5350	-5600	23000	46877027	1000	4.35	2676200	5.71	0.7616	
-5800	-5300	-5550	23000	46877027	1000	4.35	2676200	5.71	0.7616	
-5750	-5250	-5500	23000	46877027	1000	4.35	2676200	5.71	0.7616	
-5700	-5200	-5450	23000	46877027	1000	4.35	2676200	5.71	0.7616	
-5650	-5150	-5400	23000	46877027	1000	4.35	2676200	5.71	0.7616	
-5600	-5100	-5350	23000	46877027	1000	4.35	2676200	5.71	0.7616	
-5550	-5050	-5300	23000	46877027	1000	4.35	2676200	5.71	0.7616	
-5500	-5000	-5250	23000	46877027	1000	4.35	2676200	5.71	0.7616	
-5450	-4950	-5200	23000	46877027	1000	4.35	2676200	5.71	0.7616	
-5400	-4900	-5150	23000	46877027	1000	4.35	2676200	5.71	0.7616	
-5350	-4850	-5100	23000	46877027	1000	4.35	2676200	5.71	0.7616	
-5300	-4800	-5050	23000	46877027	1000	4.35	2676200	5.71	0.7616	
-5250	-4750	-5000	23000	46877027	1000	4.35	2676200	5.71	0.7616	
-5200	-4700	-4950	23000	46877027	1000	4.35	2676200	5.71	0.7616	
-5150	-4650	-4900	23000	46877027	1000	4.35	2676200	5.71	0.7616	
-5100	-4600	-4850	23000	46877027	1000	4.35	2676200	5.71	0.7616	
-5050	-4550	-4800	23000	46877027	1000	4.35	2676200	5.71	0.7616	
-5000	-4500	-4750	23000	46877027	1000	4.35	2676200	5.71	0.7616	
-4950	-4450	-4700	23000	46877027	1000	4.35	2676200	5.71	0.7616	
-4900	-4400	-4650	23000	46877027	1000	4.35	2676200	5.71	0.7616	
-4850	-4350	-4600	23000	46877027	1000	4.35	2676200	5.71	0.7616	
-4800	-4300	-4550	23000	46877027	1000	4.35	2676200	5.71	0.7616	
-4750	-4250	-4500	23000	46877027	1000	4.35	2676200	5.71	0.7616	
-4700	-4200	-4450	23000	46877027	1000	4.35	2676200	5.71	0.7616	
-4650	-4150	-4400	23000	46877027	1000	4.35	2676200	5.71	0.7616	
-4600	-4100	-4350	23000	46877027	1000	4.35	2676200	5.71	0.7616	
-4550	-4050	-4300	23000	46877027	1000	4.35	2676200	5.71	0.7616	
-4500	-4000	-4250	23000	46877027	1000	4.35	2676200	5.71	0.7616	
-4450	-3950	-4200	23000	46877027	1000	4.35	2676200	5.71	0.7616	
-4400	-3900	-4150	23000	46877027	1000	4.35	2676200	5.71	0.7616	
-4350	-3850	-4100	23000	46877027	1000	4.35	2676200	5.71	0.7616	
-4300	-3800	-4050	23000	46877027	1000	4.35	2676200	5.71	0.7616	
-4250	-3750	-4000	23000	46877027	1000	4.35	2676200	5.71	0.7616	
-4200	-3700	-3950	23000	46877027	1000	4.35	2676200	5.71	0.7616	
-4150	-3650	-3900	23000	46877027	1000	4.35	2676200	5.71	0.7616	
-4100	-3600	-3850	23000	46877027	1000	4.35	2676200	5.71	0.7616	
-4050	-3550	-3800	23000	46877027	1000	4.35	2676200	5.71	0.7616	
-4000	-3500	-3750	23000	46877027	1000	4.35	2676200	5.71	0.7616	
-3950	-3450	-3700	23000	46877027	1000	4.35	2676200	5.71	0.7616	
-3900	-3400	-3650	23000	46877027	1000	4.35	2676200	5.71	0.7616	
-3850	-3350	-3600	23000	46877027	1000	4.35	2676200	5.71	0.7616	
-3800	-3300	-3550	23000	46877027	1000	4.35	2676200	5.71	0.7616	
-3750	-3250	-3500	23000	46877027	1000	4.35	2676200	5.71	0.7616	
-3700	-3200	-3450	23000	46877027	1000	4.35	2676200	5.71	0.7616	
-3650	-3150	-3400	23000	46877027	1000	4.35	2676200	5.71	0.7616	
-3600	-3100	-3350	23000	46877027	1000	4.35	2676200	5.71	0.7616	
-3550	-3050	-3300	23000	46877027	1000	4.35	2676200	5.71	0.7616	
-3500	-3000	-3250	22986	46877041	1000	4.35	2676200	5.71	0.7620	
-3450	-2950	-3200	22886	46877141	1000	4.37	2676200	5.71	0.7654	
-3400	-2900	-3150	22786	46877241	1000	4.39	2676200	5.71	0.7687	
-3350	-2850	-3100	22686	46877341	1000	4.41	2676200	5.71	0.7721	
-3300	-2800	-3050	22586	46877441	1000	4.43	2676200	5.71	0.7755	
-3250	-2750	-3000	22514	46877513	1000	4.44	2676200	5.71	0.7780	
-3200	-2700	-2950	22614	46877413	1000	4.42	2676200	5.71	0.7746	
-3150	-2650	-2900	22714	46877313	1000	4.40	2676200	5.71	0.7712	
-3100	-2600	-2850	22814	46877213	1000	4.38	2676200	5.71	0.7678	
-3050	-2550	-2800	22914	46877113	1000	4.36	2676200	5.71	0.7644	
-3000	-2500	-2750	23000	46877027	1000	4.35	2676200	5.71	0.7616	
-2950	-2450	-2700	23000	46877027	1000	4.35	2676200	5.71	0.7616	
-2900	-2400	-2650	23000	46877027	1000	4.35	2676200	5.71	0.7616	
-2850	-2350	-2600	23000	46877027	1000	4.35	2676200	5.71	0.7616	
-2800	-2300	-2550	23000	46877027	1000	4.35	2676200	5.71	0.7616	
-2750	-2250	-2500	23000	46877027	1000	4.35	2676200	5.71	0.7616	
-2700	-2200	-2450	23000	46877027	1000	4.35	2676200	5.71	0.7616	
-2650	-2150	-2400	23000	46877027	1000	4.35	2676200	5.71	0.7616	
-2600	-2100	-2350	23000	46877027	1000	4.35	2676200	5.71	0.7616	
-2550	-2050	-2300	23000	46877027	1000	4.35	2676200	5.71	0.7616	
-2500	-2000	-2250	23000	46877027	1000	4.35	2676200	5.71	0.7616	
-2450	-1950	-2200	23000	46877027	1000	4.35	2676200	5.71	0.7616	
-2400	-1900	-2150	23000	46877027	1000	4.35	2676200	5.71	0.7616	
-2350	-1850	-2100	23000	46877027	1000	4.35	2676200	5.71	0.7616	
-2300	-1800	-2050	23000	46877027	1000	4.35	2676200	5.71	0.7616	
-2250	-1750	-2000	23000	46877027	1000	4.35	2676200	5.71	0.7616	
-2200	-1700	-1950	23000	46877027	1000	4.35	2676200	5.71	0.7616	
-2150	-1650	-1900	23000	46877027	1000	4.35	2676200	5.71	0.7616	
-2100	-1600	-1850	23000	46877027	1000	4.35	2676200	5.71	0.7616	
-2050	-1550	-1800	22951	46877076	1000	4.36	2676200	5.71	0.7632	
-2000	-1500	-1750	22851	46877176	1000	4.38	2676200	5.71	0.7665	
-1950	-1450	-1700	22751	46877276	1000	4.40	2676200	5.71	0.7699	
-1900	-1400	-1650	22651	46877376	1000	4.41	2676200	5.71	0.7733	
-1850	-1350	-1600	22551	46877476	1000	4.43	2676200	5.71	0.7767	
-1800	-1300	-1550	22549	46877478	1000	4.43	2676200	5.71	0.7768	
-1750	-1250	-1500	22649	46877378	1000	4.42	2676200	5.71	0.7734	
-1700	-1200	-1450	22749	46877278	1000	4.40	2676200	5.71	0.7700	
-1650	-1150	-1400	22849	46877178	1000	4.38	2676200	5.71	0.7666	
-1600	-1100	-1350	22949	46877078	1000	4.36	2676200	5.71	0.7633	
-1550	-1050	-1300	23000	46877027	1000	4.35	2676200	5.71	0.7616	
-1500	-1000	-1250	23000	46877027	1000	4.35	2676200	5.71	0.7616	
-1450	-950	-1200	23000	46877027	1000	4.35	2676200	5.71	0.7616	
-1400	-900	-1150	23000	46877027	1000	4.35	2676200	5.71	0.7616	
-1350	-850	-1100	23000	46877027	1000	4.35	2676200	5.71	0.7616	
-1300	-800	-1050	23000	46877027	1000	4.35	2676200	5.71	0.7616	
-1250	-750	-1000	23000	46877027	1000	4.35	2676200	5.71	0.7616	
-1200	-700	-950	23000	46877027	1000	4.35	2676200	5.71	0.7616	
-1150	-650	-900	23000	46877027	1000	4.35	2676200	5.71	0.7616	
-1100	-600	-850	23000	46877027	1000	4.35	2676200	5.71	0.7616	
-1050	-550	-800	23000	46877027	1000	4.35	2676200	5.71	0.7616	
-1000	-500	-750	23000	46877027	1000	4.35	2676200	5.71	0.7616	
-950	-450	-700	23000	46877027	1000	4.35	2676200	5.71	0.7616	
-900	-400	-650	23000	46877027	1000	4.35	2676200	5.71	0.7616	
-850	-350	-600	23000	46877027	1000	4.35	2676200	5.71	0.7616	
-800	-300	-550	23000	46877027	1000	4.35	2676200	5.71	0.7616	
-750	-250	-500	23000	46877027	1000	4.35	2676200	5.71	0.7616	
-700	-200	-450	23000	46877027	1000	4.35	2676200	5.71	0.7616	
-650	-150	-400	23000	46877027	975	4.24	2676225	5.71	0.7425	
-600	-100	-350	23000	46877027	925	4.02	2676275	5.71	0.7044	
-550	-50	-300	23000	46877027	875	3.80	2676325	5.71	0.6663	
-500	0	-250	23000	46877027	825	3.59	2676375	5.71	0.6283	
-450	50	-200	23000	46877027	775	3.37	2676425	5.71	0.5902	
-400	100	-150	23000	46877027	725	3.15	2676475	5.71	0.5521	
-350	150	-100	23000	46877027	675	2.93	2676525	5.71	0.5140	
-300	200	-50	23000	46877027	625	2.72	2676575	5.71	0.4759	
-250	250	0	23000	46877027	575	2.50	2676625	5.71	0.4378	
-200	300	50	22958	46877069	525	2.29	2676675	5.71	0.4005	
-150	350	100	22766	46877261	500	2.20	2676700	5.71	0.3846	
-100	400	150	22466	46877561	543	2.42	2676657	5.71	0.4233	
-50	450	200	22166	46877861	593	2.68	2676607	5.71	0.4685	
0	500	250	21866	46878161	643	2.94	2676557	5.71	0.5150	
50	550	300	21650	46878377	693	3.20	2676507	5.71	0.5606	
100	600	350	21734	46878293	743	3.42	2676457	5.71	0.5988	
150	650	400	22034	46877993	793	3.60	2676407	5.71	0.6304	
200	700	450	22334	46877693	843	3.77	2676357	5.71	0.6611	
250	750	500	22634	46877393	893	3.95	2676307	5.71	0.6911	
300	800	550	22892	46877135	943	4.12	2676257	5.71	0.7215	
350	850	600	23000	46877027	993	4.32	2676207	5.71	0.7562	
400	900	650	22958	46877069	958	4.17	2676242	5.71	0.7309	
450	950	700	22858	46877169	858	3.75	2676342	5.71	0.6575	
500	1000	750	22758	46877269	758	3.33	2676442	5.71	0.5834	
550	1050	800	22658	46877369	658	2.90	2676542	5.71	0.5086	
600	1100	850	22558	46877469	558	2.47	2676642	5.71	0.4332	
650	1150	900	22542	46877485	542	2.40	2676658	5.71	0.4211	
700	1200	950	22642	46877385	642	2.84	2676558	5.71	0.4966	
750	1250	1000	22742	46877285	742	3.26	2676458	5.71	0.5714	
800	1300	1050	22842	46877185	842	3.69	2676358	5.71	0.6456	
850	1350	1100	22942	46877085	942	4.11	2676258	5.71	0.7192	
900	1400	1150	23000	46877027	1000	4.35	2676200	5.71	0.7616	
950	1450	1200	23000	46877027	951	4.13	2676249	5.71	0.7242	
1000	1500	1250	23000	46877027	901	3.92	2676299	5.71	0.6862	
1050	1550	1300	22900	46877127	851	3.72	2676349	5.71	0.6509	
1100	1600	1350	22700	46877327	801	3.53	2676399	5.71	0.6180	
1150	1650	1400	22500	46877527	751	3.34	2676449	5.71	0.5846	
1200	1700	1450	22300	46877727	701	3.14	2676499	5.71	0.5506	
1250	1750	1500	22100	46877927	651	2.95	2676549	5.71	0.5159	
1300	1800	1550	22033	46877994	601	2.73	2676599	5.71	0.4777	
1350	1850	1600	22133	46877894	551	2.49	2676649	5.71	0.4360	
1400	1900	1650	22233	46877794	501	2.25	2676699	5.71	0.3946	
1450	1950	1700	22333	46877694	500	2.24	2676700	5.71	0.3921	
1500	2000	1750	22433	46877594	500	2.23	2676700	5.71	0.3903	
1550	2050	1800	22567	46877460	500	2.22	2676700	5.71	0.3880	
1600	2100	1850	22667	46877360	500	2.21	2676700	5.71	0.3863	
1650	2150	1900	22767	46877260	500	2.20	2676700	5.71	0.3846	
1700	2200	1950	22867	46877160	500	2.19	2676700	5.71	0.3829	
1750	2250	2000	22967	46877060	500	2.18	2676700	5.71	0.3813	
1800	2300	2050	23000	46877027	500	2.17	2676700	5.71	0.3807	
1850	2350	2100	23000	46877027	500	2.17	2676700	5.71	0.3807	
1900	2400	2150	23000	46877027	500	2.17	2676700	5.71	0.3807	
1950	2450	2200	23000	46877027	500	2.17	2676700	5.71	0.3807	
2000	2500	2250	23000	46877027	500	2.17	2676700	5.71	0.3807	
2050	2550	2300	23000	46877027	500	2.17	2676700	5.71	0.3807	
2100	2600	2350	23000	46877027	500	2.17	2676700	5.71	0.3807	
2150	2650	2400	23000	46877027	500	2.17	2676700	5.71	0.3807	
2200	2700	2450	23000	46877027	500	2.17	2676700	5.71	0.3807	
2250	2750	2500	23000	46877027	500	2.17	2676700	5.71	0.3807	
2300	2800	2550	23000	46877027	500	2.17	2676700	5.71	0.3807	
2350	2850	2600	23000	46877027	500	2.17	2676700	5.71	0.3807	
2400	2900	2650	23000	46877027	500	2.17	2676700	5.71	0.3807	
2450	2950	2700	23000	46877027	515	2.24	2676685	5.71	0.3921	
2500	3000	2750	23000	46877027	565	2.46	2676635	5.71	0.4302	
2550	3050	2800	23000	46877027	615	2.67	2676585	5.71	0.4683	
2600	3100	2850	23000	46877027	665	2.89	2676535	5.71	0.5064	
2650	3150	2900	23000	46877027	715	3.11	2676485	5.71	0.5445	
2700	3200	2950	23000	46877027	765	3.33	2676435	5.71	0.5826	
2750	3250	3000	23000	46877027	815	3.54	2676385	5.71	0.6206	
2800	3300	3050	23000	46877027	865	3.76	2676335	5.71	0.6587	
2850	3350	3100	23000	46877027	915	3.98	2676285	5.71	0.6968	
2900	3400	3150	23000	46877027	965	4.20	2676235	5.71	0.7349	
2950	3450	3200	23000	46877027	1000	4.35	2676200	5.71	0.7616	
3000	3500	3250	22904	46877123	1000	4.37	2676200	5.71	0.7648	
3050	3550	3300	22804	46877223	1000	4.39	2676200	5.71	0.7681	
3100	3600	3350	22704	46877323	1000	4.40	2676200	5.71	0.7715	
3150	3650	3400	22604	46877423	1000	4.42	2676200	5.71	0.7749	
3200	3700	3450	22504	46877523	1000	4.44	2676200	5.71	0.7784	
3250	3750	3500	22596	46877431	1000	4.43	2676200	5.71	0.7752	
3300	3800	3550	22696	46877331	1000	4.41	2676200	5.71	0.7718	
3350	3850	3600	22796	46877231	1000	4.39	2676200	5.71	0.7684	
3400	3900	3650	22896	46877131	1000	4.37	2676200	5.71	0.7650	
3450	3950	3700	22996	46877031	1000	4.35	2676200	5.71	0.7617	
3500	4000	3750	23000	46877027	1000	4.35	2676200	5.71	0.7616	
3550	4050	3800	23000	46877027	1000	4.35	2676200	5.71	0.7616	
3600	4100	3850	23000	46877027	1000	4.35	2676200	5.71	0.7616	
3650	4150	3900	23000	46877027	1000	4.35	2676200	5.71	0.7616	
3700	4200	3950	23000	46877027	1000	4.35	2676200	5.71	0.7616	
3750	4250	4000	23000	46877027	1000	4.35	2676200	5.71	0.7616	
3800	4300	4050	23000	46877027	1000	4.35	2676200	5.71	0.7616	
3850	4350	4100	23000	46877027	1000	4.35	2676200	5.71	0.7616	
3900	4400	4150	23000	46877027	1000	4.35	2676200	5.71	0.7616	
3950	4450	4200	23000	46877027	1000	4.35	2676200	5.71	0.7616	
4000	4500	4250	23000	46877027	1000	4.35	2676200	5.71	0.7616	
4050	4550	4300	23000	46877027	1000	4.35	2676200	5.71	0.7616	
4100	4600	4350	23000	46877027	1000	4.35	2676200	5.71	0.7616	
4150	4650	4400	23000	46877027	1000	4.35	2676200	5.71	0.7616	
4200	4700	4450	23000	46877027	1000	4.35	2676200	5.71	0.7616	
4250	4750	4500	23000	46877027	1000	4.35	2676200	5.71	0.7616	
4300	4800	4550	23000	46877027	1000	4.35	2676200	5.71	0.7616	
4350	4850	4600	23000	46877027	1000	4.35	2676200	5.71	0.7616	
4400	4900	4650	23000	46877027	1000	4.35	2676200	5.71	0.7616	
4450	4950	4700	23000	46877027	1000	4.35	2676200	5.71	0.7616	
4500	5000	4750	23000	46877027	1000	4.35	2676200	5.71	0.7616	
4550	5050	4800	23000	46877027	1000	4.35	2676200	5.71	0.7616	
4600	5100	4850	23000	46877027	1000	4.35	2676200	5.71	0.7616	
4650	5150	4900	23000	46877027	1000	4.35	2676200	5.71	0.7616	
4700	5200	4950	23000	46877027	1000	4.35	2676200	5.71	0.7616	
4750	5250	5000	23000	46877027	1000	4.35	2676200	5.71	0.7616	
4800	5300	5050	23000	46877027	1000	4.35	2676200	5.71	0.7616	
4850	5350	5100	23000	46877027	1000	4.35	2676200	5.71	0.7616	
4900	5400	5150	23000	46877027	1000	4.35	2676200	5.71	0.7616	
4950	5450	5200	23000	46877027	1000	4.35	2676200	5.71	0.7616	
5000	5500	5250	23000	46877027	1000	4.35	2676200	5.71	0.7616	
5050	5550	5300	23000	46877027	1000	4.35	2676200	5.71	0.7616	
5100	5600	5350	23000	46877027	1000	4.35	2676200	5.71	0.7616	
5150	5650	5400	23000	46877027	1000	4.35	2676200	5.71	0.7616	
5200	5700	5450	23000	46877027	1000	4.35	2676200	5.71	0.7616	
5250	5750	5500	23000	46877027	1000	4.35	2676200	5.71	0.7616	
5300	5800	5550	23000	46877027	1000	4.35	2676200	5.71	0.7616	
5350	5850	5600	23000	46877027	1000	4.35	2676200	5.71	0.7616	
5400	5900	5650	23000	46877027	1000	4.35	2676200	5.71	0.7616	
5450	5950	5700	23000	46877027	1000	4.35	2676200	5.71	0.7616	
5500	6000	5750	23000	46877027	1000	4.35	2676200	5.71	0.7616	
5550	6050	5800	23000	46877027	1000	4.35	2676200	5.71	0.7616	
5600	6100	5850	23000	46877027	1000	4.35	2676200	5.71	0.7616	
5650	6150	5900	23000	46877027	1000	4.35	2676200	5.71	0.7616	
5700	6200	5950	23000	46877027	1000	4.35	2676200	5.71	0.7616	
5750	6250	6000	23000	46877027	1000	4.35	2676200	5.71	0.7616	
5800	6300	6050	23000	46877027	1000	4.35	2676200	5.71	0.7616	
5850	6350	6100	23000	46877027	1000	4.35	2676200	5.71	0.7616	
5900	6400	6150	23000	46877027	1000	4.35	2676200	5.71	0.7616	
5950	6450	6200	23000	46877027	1000	4.35	2676200	5.71	0.7616	
6000	6500	6250	23000	46877027	1000	4.35	2676200	5.71	0.7616	
6050	6550	6300	23000	46877027	1000	4.35	2676200	5.71	0.7616	
6100	6600	6350	23000	46877027	1000	4.35	2676200	5.71	0.7616	
6150	6650	6400	23000	46877027	1000	4.35	2676200	5.71	0.7616	
6200	6700	6450	23000	46877027	1000	4.35	2676200	5.71	0.7616	
6250	6750	6500	23000	46877027	1000	4.35	2676200	5.71	0.7616	
6300	6800	6550	23000	46877027	1000	4.35	2676200	5.71	0.7616	
6350	6850	6600	23000	46877027	1000	4.35	2676200	5.71	0.7616	
6400	6900	6650	23000	46877027	1000	4.35	2676200	5.71	0.7616	
6450	6950	6700	23000	46877027	1000	4.35	2676200	5.71	0.7616	
6500	7000	6750	23000	46877027	1000	4.35	2676200	5.71	0.7616	
6550	7050	6800	23000	46877027	1000	4.35	2676200	5.71	0.7616	
6600	7100	6850	23000	46877027	1000	4.35	2676200	5.71	0.7616	
6650	7150	6900	23000	46877027	1000	4.35	2676200	5.71	0.7616	
6700	7200	6950	23000	46877027	1000	4.35	2676200	5.71	0.7616	
6750	7250	7000	23000	46877027	1000	4.35	2676200	5.71	0.7616	
6800	7300	7050	23000	46877027	1000	4.35	2676200	5.71	0.7616	
6850	7350	7100	23000	46877027	1000	4.35	2676200	5.71	0.7616	
6900	7400	7150	23000	46877027	1000	4.35	2676200	5.71	0.7616	
6950	7450	7200	23000	46877027	1000	4.35	2676200	5.71	0.7616	
7000	7500	7250	23000	46877027	1049	4.56	2676151	5.71	0.7989	
7050	7550	7300	23000	46877027	1099	4.78	2676101	5.71	0.8370	
7100	7600	7350	23000	46877027	1149	5.00	2676051	5.71	0.8751	
7150	7650	7400	23000	46877027	1199	5.21	2676001	5.71	0.9132	
7200	7700	7450	23000	46877027	1249	5.43	2675951	5.71	0.9513	
7250	7750	7500	23000	46877027	1299	5.65	2675901	5.71	0.9894	
7300	7800	7550	23000	46877027	1349	5.87	2675851	5.71	1.0275	
7350	7850	7600	23000	46877027	1399	6.08	2675801	5.71	1.0656	
7400	7900	7650	23000	46877027	1449	6.30	2675751	5.71	1.1037	
7450	7950	7700	23000	46877027	1499	6.52	2675701	5.71	1.1418	
7500	8000	7750	23000	46877027	1500	6.52	2675700	5.71	1.1426	
7550	8050	7800	23000	46877027	1500	6.52	2675700	5.71	1.1426	
7600	8100	7850	23000	46877027	1500	6.52	2675700	5.71	1.1426	
7650	8150	7900	23000	46877027	1500	6.52	2675700	5.71	1.1426	
7700	8200	7950	23000	46877027	1500	6.52	2675700	5.71	1.1426	
7750	8250	8000	23000	46877027	1500	6.52	2675700	5.71	1.1426	
7800	8300	8050	23000	46877027	1500	6.52	2675700	5.71	1.1426	
7850	8350	8100	23000	46877027	1500	6.52	2675700	5.71	1.1426	
7900	8400	8150	23000	46877027	1500	6.52	2675700	5.71	1.1426	
7950	8450	8200	23000	46877027	1500	6.52	2675700	5.71	1.1426	
8000	8500	8250	23000	46877027	1500	6.52	2675700	5.71	1.1426	
8050	8550	8300	23000	46877027	1500	6.52	2675700	5.71	1.1426	
8100	8600	8350	23000	46877027	1500	6.52	2675700	5.71	1.1426	
8150	8650	8400	23000	46877027	1500	6.52	2675700	5.71	1.1426	
8200	8700	8450	23000	46877027	1500	6.52	2675700	5.71	1.1426	
8250	8750	8500	23000	46877027	1500	6.52	2675700	5.71	1.1426	
8300	8800	8550	23000	46877027	1500	6.52	2675700	5.71	1.1426	
8350	8850	8600	23000	46877027	1451	6.31	2675749	5.71	1.1052	
8400	8900	8650	23000	46877027	1401	6.09	2675799	5.71	1.0671	
8450	8950	8700	23000	46877027	1351	5.87	2675849	5.71	1.0290	
8500	9000	8750	23000	46877027	1301	5.66	2675899	5.71	0.9909	
8550	9050	8800	23000	46877027	1251	5.44	2675949	5.71	0.9528	
8600	9100	8850	23000	46877027	1201	5.22	2675999	5.71	0.9147	
8650	9150	8900	23000	46877027	1151	5.00	2676049	5.71	0.8766	
8700	9200	8950	23000	46877027	1101	4.79	2676099	5.71	0.8385	
8750	9250	9000	23000	46877027	1051	4.57	2676149	5.71	0.8004	
8800	9300	9050	23000	46877027	1001	4.35	2676199	5.71	0.7623	
8850	9350	9100	23000	46877027	1000	4.35	2676200	5.71	0.7616	
8900	9400	9150	23000	46877027	1000	4.35	2676200	5.71	0.7616	
8950	9450	9200	23000	46877027	1000	4.35	2676200	5.71	0.7616	
9000	9500	9250	23000	46877027	1000	4.35	2676200	5.71	0.7616	
9050	9550	9300	23000	46877027	1000	4.35	2676200	5.71	0.7616	
9100	9600	9350	23000	46877027	1000	4.35	2676200	5.71	0.7616	
9150	9650	9400	22975	46877052	1000	4.35	2676200	5.71	0.7624	
9200	9700	9450	22875	46877152	1000	4.37	2676200	5.71	0.7657	
9250	9750	9500	22775	46877252	1000	4.39	2676200	5.71	0.7691	
9300	9800	9550	22675	46877352	1000	4.41	2676200	5.71	0.7725	
9350	9850	9600	22575	46877452	1000	4.43	2676200	5.71	0.7759	
9400	9900	9650	22525	46877502	1000	4.44	2676200	5.71	0.7776	
9450	9950	9700	22625	46877402	1000	4.42	2676200	5.71	0.7742	
9500	10000	9750	22725	46877302	1000	4.40	2676200	5.71	0.7708	
9550	10050	9800	22825	46877202	1000	4.38	2676200	5.71	0.7674	
9600	10100	9850	22925	46877102	1000	4.36	2676200	5.71	0.7641	
9650	10150	9900	23000	46877027	1000	4.35	2676200	5.71	0.7616	
9700	10200	9950	23000	46877027	1000	4.35	2676200	5.71	0.7616	
9750	10250	10000	23000	46877027	1000	4.35	2676200	5.71	0.7616	
9800	10300	10050	23000	46877027	1000	4.35	2676200	5.71	0.7616	
9850	10350	10100	23000	46877027	1049	4.56	2676151	5.71	0.7989	
9900	10400	10150	23000	46877027	1099	4.78	2676101	5.71	0.8370	
9950	10450	10200	23000	46877027	1149	5.00	2676051	5.71	0.8751	
10000	10500	10250	23000	46877027	1199	5.21	2676001	5.71	0.9132	
10050	10550	10300	23000	46877027	1249	5.43	2675951	5.71	0.9513	
10100	10600	10350	23000	46877027	1299	5.65	2675901	5.71	0.9894	
10150	10650	10400	23000	46877027	1349	5.87	2675851	5.71	1.0275	
10200	10700	10450	23000	46877027	1399	6.08	2675801	5.71	1.0656	
10250	10750	10500	23000	46877027	1449	6.30	2675751	5.71	1.1037	
10300	10800	10550	23000	46877027	1499	6.52	2675701	5.71	1.1418	
10350	10850	10600	23000	46877027	1500	6.52	2675700	5.71	1.1426	
10400	10900	10650	23000	46877027	1500	6.52	2675700	5.71	1.1426	
10450	10950	10700	23000	46877027	1500	6.52	2675700	5.71	1.1426	
10500	11000	10750	23000	46877027	1500	6.52	2675700	5.71	1.1426	
10550	11050	10800	23000	46877027	1500	6.52	2675700	5.71	1.1426	
10600	11100	10850	23000	46877027	1500	6.52	2675700	5.71	1.1426	
10650	11150	10900	23000	46877027	1500	6.52	2675700	5.71	1.1426	
10700	11200	10950	23000	46877027	1500	6.52	2675700	5.71	1.1426	
10750	11250	11000	23000	46877027	1500	6.52	2675700	5.71	1.1426	
10800	11300	11050	23000	46877027	1500	6.52	2675700	5.71	1.1426	
10850	11350	11100	23000	46877027	1500	6.52	2675700	5.71	1.1426	
10900	11400	11150	23000	46877027	1500	6.52	2675700	5.71	1.1426	
10950	11450	11200	23000	46877027	1500	6.52	2675700	5.71	1.1426	
11000	11500	11250	23000	46877027	1500	6.52	2675700	5.71	1.1426	
11050	11550	11300	23000	46877027	1500	6.52	2675700	5.71	1.1426	
11100	11600	11350	23000	46877027	1500	6.52	2675700	5.71	1.1426	
11150	11650	11400	23000	46877027	1500	6.52	2675700	5.71	1.1426	
11200	11700	11450	23000	46877027	1500	6.52	2675700	5.71	1.1426	
11250	11750	11500	23000	46877027	1500	6.52	2675700	5.71	1.1426	
11300	11800	11550	23000	46877027	1500	6.52	2675700	5.71	1.1426	
11350	11850	11600	23000	46877027	1500	6.52	2675700	5.71	1.1426	
11400	11900	11650	23000	46877027	1500	6.52	2675700	5.71	1.1426	
11450	11950	11700	23000	46877027	1500	6.52	2675700	5.71	1.1426	
11500	12000	11750	23000	46877027	1500	6.52	2675700	5.71	1.1426	
11550	12050	11800	23000	46877027	1500	6.52	2675700	5.71	1.1426	
11600	12100	11850	23000	46877027	1500	6.52	2675700	5.71	1.1426	
11650	12150	11900	23000	46877027	1500	6.52	2675700	5.71	1.1426	
11700	12200	11950	23000	46877027	1500	6.52	2675700	5.71	1.1426	
11750	12250	12000	23000	46877027	1500	6.52	2675700	5.71	1.1426	
11800	12300	12050	23000	46877027	1500	6.52	2675700	5.71	1.1426	
11850	12350	12100	23000	46877027	1500	6.52	2675700	5.71	1.1426	
11900	12400	12150	23000	46877027	1500	6.52	2675700	5.71	1.1426	
11950	12450	12200	23000	46877027	1500	6.52	2675700	5.71	1.1426	
12000	12500	12250	23000	46877027	1500	6.52	2675700	5.71	1.1426	
12050	12550	12300	23000	46877027	1500	6.52	2675700	5.71	1.1426	
12100	12600	12350	23000	46877027	1500	6.52	2675700	5.71	1.1426	
12150	12650	12400	23000	46877027	1500	6.52	2675700	5.71	1.1426	
12200	12700	12450	23000	46877027	1500	6.52	2675700	5.71	1.1426	
12250	12750	12500	23000	46877027	1500	6.52	2675700	5.71	1.1426	
12300	12800	12550	23000	46877027	1500	6.52	2675700	5.71	1.1426	
12350	12850	12600	23000	46877027	1500	6.52	2675700	5.71	1.1426	
12400	12900	12650	23000	46877027	1500	6.52	2675700	5.71	1.1426	
12450	12950	12700	23000	46877027	1500	6.52	2675700	5.71	1.1426	
12500	13000	12750	23000	46877027	1500	6.52	2675700	5.71	1.1426	
12550	13050	12800	23000	46877027	1500	6.52	2675700	5.71	1.1426	
12600	13100	12850	23000	46877027	1500	6.52	2675700	5.71	1.1426	
12650	13150	12900	23000	46877027	1500	6.52	2675700	5.71	1.1426	
12700	13200	12950	22925	46877102	1500	6.54	2675700	5.71	1.1463	
12750	13250	13000	22825	46877202	1500	6.57	2675700	5.71	1.1513	
12800	13300	13050	22725	46877302	1500	6.60	2675700	5.71	1.1564	
12850	13350	13100	22625	46877402	1500	6.63	2675700	5.71	1.1615	
12900	13400	13150	22525	46877502	1500	6.66	2675700	5.71	1.1667	
12950	13450	13200	22575	46877452	1500	6.64	2675700	5.71	1.1641	
13000	13500	13250	22675	46877352	1500	6.62	2675700	5.71	1.1590	
13050	13550	13300	22775	46877252	1500	6.59	2675700	5.71	1.1539	
13100	13600	13350	22875	46877152	1485	6.49	2675715	5.71	1.1373	
13150	13650	13400	22975	46877052	1435	6.25	2675765	5.71	1.0942	
13200	13700	13450	23000	46877027	1385	6.02	2675815	5.71	1.0549	
13250	13750	13500	23000	46877027	1335	5.80	2675865	5.71	1.0168	
13300	13800	13550	23000	46877027	1285	5.59	2675915	5.71	0.9787	
13350	13850	13600	23000	46877027	1235	5.37	2675965	5.71	0.9406	
13400	13900	13650	23000	46877027	1185	5.15	2676015	5.71	0.9025	
13450	13950	13700	23000	46877027	1135	4.93	2676065	5.71	0.8644	
13500	14000	13750	23000	46877027	1085	4.72	2676115	5.71	0.8263	
13550	14050	13800	23000	46877027	1035	4.50	2676165	5.71	0.7882	
13600	14100	13850	23000	46877027	1000	4.35	2676200	5.71	0.7616	
13650	14150	13900	23000	46877027	1000	4.35	2676200	5.71	0.7616	
13700	14200	13950	23000	46877027	1000	4.35	2676200	5.71	0.7616	
13750	14250	14000	23000	46877027	1000	4.35	2676200	5.71	0.7616	
13800	14300	14050	23000	46877027	1000	4.35	2676200	5.71	0.7616	
13850	14350	14100	23000	46877027	1000	4.35	2676200	5.71	0.7616	
13900	14400	14150	23000	46877027	1000	4.35	2676200	5.71	0.7616	
13950	14450	14200	23000	46877027	1000	4.35	2676200	5.71	0.7616	
14000	14500	14250	23000	46877027	1000	4.35	2676200	5.71	0.7616	
14050	14550	14300	23000	46877027	1000	4.35	2676200	5.71	0.7616	
14100	14600	14350	23000	46877027	1000	4.35	2676200	5.71	0.7616	
14150	14650	14400	23000	46877027	957	4.16	2676243	5.71	0.7288	
14200	14700	14450	23000	46877027	858	3.73	2676342	5.71	0.6534	
14250	14750	14500	23000	46877027	758	3.30	2676442	5.71	0.5772	
14300	14800	14550	23000	46877027	658	2.86	2676542	5.71	0.5011	
14350	14850	14600	23000	46877027	558	2.43	2676642	5.71	0.4249	
14400	14900	14650	23000	46877027	458	1.99	2676742	5.71	0.3487	
14450	14950	14700	23000	46877027	358	1.56	2676842	5.71	0.2726	
14500	15000	14750	23000	46877027	258	1.12	2676942	5.71	0.1964	
14550	15050	14800	23000	46877027	158	0.69	2677042	5.71	0.1203	
14600	15100	14850	23000	46877027	58	0.25	2677142	5.71	0.0442	
14650	15150	14900	23000	46877027	1	0.00	2677199	5.71	0.0008	
14700	15200	14950	23000	46877027	0	0.00	2677200	5.71	0.0000	
14750	15250	15000	23000	46877027	0	0.00	2677200	5.71	0.0000	
14800	15300	15050	23000	46877027	0	0.00	2677200	5.71	0.0000	
14850	15350	15100	23000	46877027	0	0.00	2677200	5.71	0.0000	
14900	15400	15150	23000	46877027	0	0.00	2677200	5.71	0.0000	
14950	15450	15200	23000	46877027	0	0.00	2677200	5.71	0.0000	
15000	15500	15250	23000	46877027	0	0.00	2677200	5.71	0.0000	
15050	15550	15300	23000	46877027	0	0.00	2677200	5.71	0.0000	
15100	15600	15350	23000	46877027	0	0.00	2677200	5.71	0.0000	
15150	15650	15400	23000	46877027	0	0.00	2677200	5.71	0.0000	
15200	15700	15450	23000	46877027	0	0.00	2677200	5.71	0.0000	
15250	15750	15500	23000	46877027	0	0.00	2677200	5.71	0.0000	
15300	15800	15550	23000	46877027	0	0.00	2677200	5.71	0.0000	
15350	15850	15600	23000	46877027	0	0.00	2677200	5.71	0.0000	
15400	15900	15650	23000	46877027	0	0.00	2677200	5.71	0.0000	
15450	15950	15700	23000	46877027	0	0.00	2677200	5.71	0.0000	
15500	16000	15750	23000	46877027	0	0.00	2677200	5.71	0.0000	
15550	16050	15800	23000	46877027	0	0.00	2677200	5.71	0.0000	
15600	16100	15850	23000	46877027	0	0.00	2677200	5.71	0.0000	
15650	16150	15900	23000	46877027	0	0.00	2677200	5.71	0.0000	
15700	16200	15950	23000	46877027	0	0.00	2677200	5.71	0.0000	
15750	16250	16000	23000	46877027	0	0.00	2677200	5.71	0.0000	
15800	16300	16050	23000	46877027	0	0.00	2677200	5.71	0.0000	
15850	16350	16100	23000	46877027	0	0.00	2677200	5.71	0.0000	
15900	16400	16150	23000	46877027	0	0.00	2677200	5.71	0.0000	
15950	16450	16200	23000	46877027	0	0.00	2677200	5.71	0.0000	
16000	16500	16250	23000	46877027	0	0.00	2677200	5.71	0.0000	
16050	16550	16300	23000	46877027	0	0.00	2677200	5.71	0.0000	
16100	16600	16350	23000	46877027	0	0.00	2677200	5.71	0.0000	
16150	16650	16400	23000	46877027	0	0.00	2677200	5.71	0.0000	
16200	16700	16450	23000	46877027	0	0.00	2677200	5.71	0.0000	
16250	16750	16500	23000	46877027	0	0.00	2677200	5.71	0.0000	
16300	16800	16550	23000	46877027	0	0.00	2677200	5.71	0.0000	
16350	16850	16600	23000	46877027	0	0.00	2677200	5.71	0.0000	
16400	16900	16650	23000	46877027	0	0.00	2677200	5.71	0.0000	
16450	16950	16700	23000	46877027	0	0.00	2677200	5.71	0.0000	
16500	17000	16750	23000	46877027	0	0.00	2677200	5.71	0.0000	
16550	17050	16800	23000	46877027	0	0.00	2677200	5.71	0.0000	
16600	17100	16850	23000	46877027	0	0.00	2677200	5.71	0.0000	
16650	17150	16900	23000	46877027	0	0.00	2677200	5.71	0.0000	
16700	17200	16950	23000	46877027	0	0.00	2677200	5.71	0.0000	
16750	17250	17000	23000	46877027	0	0.00	2677200	5.71	0.0000	
16800	17300	17050	22940	46877087	0	0.00	2677200	5.71	0.0000	
16850	17350	17100	22840	46877187	0	0.00	2677200	5.71	0.0000	
16900	17400	17150	22740	46877287	0	0.00	2677200	5.71	0.0000	
16950	17450	17200	22640	46877387	0	0.00	2677200	5.71	0.0000	
17000	17500	17250	22540	46877487	0	0.00	2677200	5.71	0.0000	
17050	17550	17300	22560	46877467	0	0.00	2677200	5.71	0.0000	
17100	17600	17350	22660	46877367	0	0.00	2677200	5.71	0.0000	
17150	17650	17400	22760	46877267	0	0.00	2677200	5.71	0.0000	
17200	17700	17450	22860	46877167	0	0.00	2677200	5.71	0.0000	
17250	17750	17500	22960	46877067	0	0.00	2677200	5.71	0.0000	
17300	17800	17550	23000	46877027	0	0.00	2677200	5.71	0.0000	
17350	17850	17600	23000	46877027	0	0.00	2677200	5.71	0.0000	
17400	17900	17650	23000	46877027	0	0.00	2677200	5.71	0.0000	
17450	17950	17700	23000	46877027	0	0.00	2677200	5.71	0.0000	
17500	18000	17750	23000	46877027	0	0.00	2677200	5.71	0.0000	
17550	18050	17800	23000	46877027	0	0.00	2677200	5.71	0.0000	
17600	18100	17850	23000	46877027	0	0.00	2677200	5.71	0.0000	
17650	18150	17900	23000	46877027	0	0.00	2677200	5.71	0.0000	
17700	18200	17950	23000	46877027	0	0.00	2677200	5.71	0.0000	
17750	18250	18000	23000	46877027	0	0.00	2677200	5.71	0.0000	
17800	18300	18050	23000	46877027	0	0.00	2677200	5.71	0.0000	
17850	18350	18100	23000	46877027	0	0.00	2677200	5.71	0.0000	
17900	18400	18150	23000	46877027	0	0.00	2677200	5.71	0.0000	
17950	18450	18200	23000	46877027	0	0.00	2677200	5.71	0.0000	
18000	18500	18250	23000	46877027	0	0.00	2677200	5.71	0.0000	
18050	18550	18300	23000	46877027	0	0.00	2677200	5.71	0.0000	
18100	18600	18350	23000	46877027	0	0.00	2677200	5.71	0.0000	
18150	18650	18400	23000	46877027	0	0.00	2677200	5.71	0.0000	
18200	18700	18450	23000	46877027	0	0.00	2677200	5.71	0.0000	
18250	18750	18500	23000	46877027	0	0.00	2677200	5.71	0.0000	
18300	18800	18550	23000	46877027	0	0.00	2677200	5.71	0.0000	
18350	18850	18600	23000	46877027	0	0.00	2677200	5.71	0.0000	
18400	18900	18650	23000	46877027	0	0.00	2677200	5.71	0.0000	
18450	18950	18700	23000	46877027	0	0.00	2677200	5.71	0.0000	
18500	19000	18750	23000	46877027	0	0.00	2677200	5.71	0.0000	
18550	19050	18800	23000	46877027	0	0.00	2677200	5.71	0.0000	
18600	19100	18850	23000	46877027	0	0.00	2677200	5.71	0.0000	
18650	19150	18900	23000	46877027	0	0.00	2677200	5.71	0.0000	
18700	19200	18950	23000	46877027	0	0.00	2677200	5.71	0.0000	
18750	19250	19000	23000	46877027	0	0.00	2677200	5.71	0.0000	
18800	19300	19050	23000	46877027	0	0.00	2677200	5.71	0.0000	
18850	19350	19100	23000	46877027	0	0.00	2677200	5.71	0.0000	
18900	19400	19150	23000	46877027	0	0.00	2677200	5.71	0.0000	
18950	19450	19200	23000	46877027	0	0.00	2677200	5.71	0.0000	
19000	19500	19250	23000	46877027	0	0.00	2677200	5.71	0.0000	
19050	19550	19300	22955	46877072	0	0.00	2677200	5.71	0.0000	
19100	19600	19350	22855	46877172	0	0.00	2677200	5.71	0.0000	
19150	19650	19400	22755	46877272	0	0.00	2677200	5.71	0.0000	
19200	19700	19450	22655	46877372	0	0.00	2677200	5.71	0.0000	
19250	19750	19500	22555	46877472	0	0.00	2677200	5.71	0.0000	
19300	19800	19550	22545	46877482	0	0.00	2677200	5.71	0.0000	
19350	19850	19600	22645	46877382	0	0.00	2677200	5.71	0.0000	
19400	19900	19650	22745	46877282	0	0.00	2677200	5.71	0.0000	
19450	19950	19700	22845	46877182	0	0.00	2677200	5.71	0.0000	
19500	20000	19750	22945	46877082	0	0.00	2677200	5.71	0.0000	
19550	20050	19800	23000	46877027	0	0.00	2677200	5.71	0.0000	
19600	20100	19850	23000	46877027	0	0.00	2677200	5.71	0.0000	
19650	20150	19900	23000	46877027	0	0.00	2677200	5.71	0.0000	
19700	20200	19950	23000	46877027	0	0.00	2677200	5.71	0.0000	
19750	20250	20000	23000	46877027	0	0.00	2677200	5.71	0.0000	
19800	20300	20050	23000	46877027	0	0.00	2677200	5.71	0.0000	
19850	20350	20100	23000	46877027	0	0.00	2677200	5.71	0.0000	
19900	20400	20150	23000	46877027	0	0.00	2677200	5.71	0.0000	
19950	20450	20200	23000	46877027	0	0.00	2677200	5.71	0.0000	
20000	20500	20250	23000	46877027	0	0.00	2677200	5.71	0.0000	
20050	20550	20300	23000	46877027	0	0.00	2677200	5.71	0.0000	
20100	20600	20350	23000	46877027	0	0.00	2677200	5.71	0.0000	
20150	20650	20400	23000	46877027	0	0.00	2677200	5.71	0.0000	
20200	20700	20450	23000	46877027	0	0.00	2677200	5.71	0.0000	
20250	20750	20500	23000	46877027	0	0.00	2677200	5.71	0.0000	
20300	20800	20550	23000	46877027	0	0.00	2677200	5.71	0.0000	
20350	20850	20600	23000	46877027	0	0.00	2677200	5.71	0.0000	
20400	20900	20650	23000	46877027	0	0.00	2677200	5.71	0.0000	
20450	20950	20700	23000	46877027	0	0.00	2677200	5.71	0.0000	
20500	21000	20750	23000	46877027	0	0.00	2677200	5.71	0.0000	
20550	21050	20800	23000	46877027	0	0.00	2677200	5.71	0.0000	
20600	21100	20850	23000	46877027	0	0.00	2677200	5.71	0.0000	
20650	21150	20900	23000	46877027	0	0.00	2677200	5.71	0.0000	
20700	21200	20950	23000	46877027	0	0.00	2677200	5.71	0.0000	
20750	21250	21000	23000	46877027	0	0.00	2677200	5.71	0.0000	
20800	21300	21050	23000	46877027	0	0.00	2677200	5.71	0.0000	
20850	21350	21100	23000	46877027	0	0.00	2677200	5.71	0.0000	
20900	21400	21150	23000	46877027	0	0.00	2677200	5.71	0.0000	
20950	21450	21200	23000	46877027	0	0.00	2677200	5.71	0.0000	
21000	21500	21250	23000	46877027	0	0.00	2677200	5.71	0.0000	
21050	21550	21300	22986	46877041	0	0.00	2677200	5.71	0.0000	
21100	21600	21350	22886	46877141	0	0.00	2677200	5.71	0.0000	
21150	21650	21400	22786	46877241	0	0.00	2677200	5.71	0.0000	
21200	21700	21450	22686	46877341	0	0.00	2677200	5.71	0.0000	
21250	21750	21500	22586	46877441	0	0.00	2677200	5.71	0.0000	
21300	21800	21550	22514	46877513	0	0.00	2677200	5.71	0.0000	
21350	21850	21600	22614	46877413	0	0.00	2677200	5.71	0.0000	
21400	21900	21650	22714	46877313	0	0.00	2677200	5.71	0.0000	
21450	21950	21700	22814	46877213	0	0.00	2677200	5.71	0.0000	
21500	22000	21750	22875	46877152	0	0.00	2677200	5.71	0.0000	
21550	22050	21800	22861	46877166	0	0.00	2677200	5.71	0.0000	
21600	22100	21850	22761	46877266	0	0.00	2677200	5.71	0.0000	
21650	22150	21900	22661	46877366	0	0.00	2677200	5.71	0.0000	
21700	22200	21950	22561	46877466	0	0.00	2677200	5.71	0.0000	
21750	22250	22000	22539	46877488	0	0.00	2677200	5.71	0.0000	
21800	22300	22050	22639	46877388	0	0.00	2677200	5.71	0.0000	
21850	22350	22100	22739	46877288	0	0.00	2677200	5.71	0.0000	
21900	22400	22150	22839	46877188	0	0.00	2677200	5.71	0.0000	
21950	22450	22200	22939	46877088	0	0.00	2677200	5.71	0.0000	
22000	22500	22250	23000	46877027	0	0.00	2677200	5.71	0.0000	
22050	22550	22300	23000	46877027	0	0.00	2677200	5.71	0.0000	
22100	22600	22350	23000	46877027	0	0.00	2677200	5.71	0.0000	
22150	22650	22400	22924	46877103	0	0.00	2677200	5.71	0.0000	
22200	22700	22450	22824	46877203	0	0.00	2677200	5.71	0.0000	
22250	22750	22500	22724	46877303	0	0.00	2677200	5.71	0.0000	
22300	22800	22550	22624	46877403	0	0.00	2677200	5.71	0.0000	
22350	22850	22600	22524	46877503	0	0.00	2677200	5.71	0.0000	
22400	22900	22650	22576	46877451	0	0.00	2677200	5.71	0.0000	
22450	22950	22700	22676	46877351	0	0.00	2677200	5.71	0.0000	
22500	23000	22750	22776	46877251	0	0.00	2677200	5.71	0.0000	
22550	23050	22800	22876	46877151	0	0.00	2677200	5.71	0.0000	
22600	23100	22850	22976	46877051	0	0.00	2677200	5.71	0.0000	
22650	23150	22900	23000	46877027	0	0.00	2677200	5.71	0.0000	
22700	23200	22950	23000	46877027	0	0.00	2677200	5.71	0.0000	
22750	23250	23000	23000	46877027	0	0.00	2677200	5.71	0.0000	
22800	23300	23050	23000	46877027	0	0.00	2677200	5.71	0.0000	
22850	23350	23100	23000	46877027	0	0.00	2677200	5.71	0.0000	
22900	23400	23150	23000	46877027	0	0.00	2677200	5.71	0.0000	
22950	23450	23200	23000	46877027	0	0.00	2677200	5.71	0.0000	
23000	23500	23250	23000	46877027	0	0.00	2677200	5.71	0.0000	
23050	23550	23300	23000	46877027	0	0.00	2677200	5.71	0.0000	
23100	23600	23350	23000	46877027	0	0.00	2677200	5.71	0.0000	
23150	23650	23400	23000	46877027	0	0.00	2677200	5.71	0.0000	
23200	23700	23450	23000	46877027	0	0.00	2677200	5.71	0.0000	
23250	23750	23500	23000	46877027	0	0.00	2677200	5.71	0.0000	
23300	23800	23550	23000	46877027	0	0.00	2677200	5.71	0.0000	
23350	23850	23600	23000	46877027	0	0.00	2677200	5.71	0.0000	
23400	23900	23650	23000	46877027	0	0.00	2677200	5.71	0.0000	
23450	23950	23700	22901	46877126	0	0.00	2677200	5.71	0.0000	
23500	24000	23750	22801	46877226	0	0.00	2677200	5.71	0.0000	
23550	24050	23800	22701	46877326	0	0.00	2677200	5.71	0.0000	
23600	24100	23850	22601	46877426	0	0.00	2677200	5.71	0.0000	
23650	24150	23900	22501	46877526	0	0.00	2677200	5.71	0.0000	
23700	24200	23950	22599	46877428	0	0.00	2677200	5.71	0.0000	
23750	24250	24000	22699	46877328	0	0.00	2677200	5.71	0.0000	
23800	24300	24050	22799	46877228	0	0.00	2677200	5.71	0.0000	
23850	24350	24100	22899	46877128	0	0.00	2677200	5.71	0.0000	
23900	24400	24150	22999	46877028	0	0.00	2677200	5.71	0.0000	
23950	24450	24200	23000	46877027	0	0.00	2677200	5.71	0.0000	
24000	24500	24250	23000	46877027	0	0.00	2677200	5.71	0.0000	
24050	24550	24300	23000	46877027	0	0.00	2677200	5.71	0.0000	
24100	24600	24350	23000	46877027	0	0.00	2677200	5.71	0.0000	
24150	24650	24400	23000	46877027	0	0.00	2677200	5.71	0.0000	
24200	24700	24450	23000	46877027	0	0.00	2677200	5.71	0.0000	
24250	24750	24500	23000	46877027	0	0.00	2677200	5.71	0.0000	
24300	24800	24550	23000	46877027	0	0.00	2677200	5.71	0.0000	
24350	24850	24600	23000	46877027	0	0.00	2677200	5.71	0.0000	
24400	24900	24650	23000	46877027	0	0.00	2677200	5.71	0.0000	
24450	24950	24700	23000	46877027	0	0.00	2677200	5.71	0.0000	
24500	25000	24750	23000	46877027	0	0.00	2677200	5.71	0.0000	
