Start	End	Midpoint	Breakpoint_bp	Non_breakpoint_bp	Feature_bp_inside	%Inside	Feature_bp_outside	%Outside	Ratio
-25000	-24500	-24750	22000	46878971	3069	13.95	3974307	8.48	1.6455	
-24950	-24450	-24700	22000	46878971	2962	13.46	3974414	8.48	1.5881	
-24900	-24400	-24650	22000	46878971	2875	13.07	3974501	8.48	1.5414	
-24850	-24350	-24600	22000	46878971	2870	13.05	3974506	8.48	1.5387	
-24800	-24300	-24550	22000	46878971	2915	13.25	3974461	8.48	1.5628	
-24750	-24250	-24500	22000	46878971	3005	13.66	3974371	8.48	1.6111	
-24700	-24200	-24450	22000	46878971	3020	13.73	3974356	8.48	1.6192	
-24650	-24150	-24400	22000	46878971	3086	14.03	3974290	8.48	1.6546	
-24600	-24100	-24350	22000	46878971	3190	14.50	3974186	8.48	1.7104	
-24550	-24050	-24300	22000	46878971	3440	15.64	3973936	8.48	1.8446	
-24500	-24000	-24250	22000	46878971	3693	16.79	3973683	8.48	1.9803	
-24450	-23950	-24200	22000	46878971	3850	17.50	3973526	8.48	2.0646	
-24400	-23900	-24150	22000	46878971	4008	18.22	3973368	8.48	2.1494	
-24350	-23850	-24100	22000	46878971	4047	18.40	3973329	8.48	2.1704	
-24300	-23800	-24050	22000	46878971	4016	18.25	3973360	8.48	2.1537	
-24250	-23750	-24000	22000	46878971	3966	18.03	3973410	8.48	2.1269	
-24200	-23700	-23950	22000	46878971	3948	17.95	3973428	8.48	2.1172	
-24150	-23650	-23900	22000	46878971	3962	18.01	3973414	8.48	2.1247	
-24100	-23600	-23850	22000	46878971	3949	17.95	3973427	8.48	2.1178	
-24050	-23550	-23800	22000	46878971	3814	17.34	3973562	8.48	2.0453	
-24000	-23500	-23750	22000	46878971	3631	16.50	3973745	8.48	1.9471	
-23950	-23450	-23700	22000	46878971	3541	16.10	3973835	8.48	1.8988	
-23900	-23400	-23650	22000	46878971	3491	15.87	3973885	8.48	1.8719	
-23850	-23350	-23600	22000	46878971	3356	15.25	3974020	8.48	1.7995	
-23800	-23300	-23550	22000	46878971	3251	14.78	3974125	8.48	1.7431	
-23750	-23250	-23500	22000	46878971	3209	14.59	3974167	8.48	1.7206	
-23700	-23200	-23450	22000	46878971	3265	14.84	3974111	8.48	1.7506	
-23650	-23150	-23400	22000	46878971	3352	15.24	3974024	8.48	1.7973	
-23600	-23100	-23350	22000	46878971	3413	15.51	3973963	8.48	1.8301	
-23550	-23050	-23300	22000	46878971	3425	15.57	3973951	8.48	1.8365	
-23500	-23000	-23250	22000	46878971	3553	16.15	3973823	8.48	1.9052	
-23450	-22950	-23200	22000	46878971	3690	16.77	3973686	8.48	1.9787	
-23400	-22900	-23150	22000	46878971	3798	17.26	3973578	8.48	2.0367	
-23350	-22850	-23100	22000	46878971	4036	18.35	3973340	8.48	2.1645	
-23300	-22800	-23050	22000	46878971	4204	19.11	3973172	8.48	2.2547	
-23250	-22750	-23000	22000	46878971	4248	19.31	3973128	8.48	2.2783	
-23200	-22700	-22950	22000	46878971	4284	19.47	3973092	8.48	2.2976	
-23150	-22650	-22900	22000	46878971	4131	18.78	3973245	8.48	2.2155	
-23100	-22600	-22850	22000	46878971	3967	18.03	3973409	8.48	2.1274	
-23050	-22550	-22800	22000	46878971	3840	17.45	3973536	8.48	2.0593	
-23000	-22500	-22750	22000	46878971	3645	16.57	3973731	8.48	1.9546	
-22950	-22450	-22700	22000	46878971	3358	15.26	3974018	8.48	1.8006	
-22900	-22400	-22650	22000	46878971	3067	13.94	3974309	8.48	1.6444	
-22850	-22350	-22600	22000	46878971	2779	12.63	3974597	8.48	1.4899	
-22800	-22300	-22550	22000	46878971	2516	11.44	3974860	8.48	1.3488	
-22750	-22250	-22500	22000	46878971	2377	10.80	3974999	8.48	1.2742	
-22700	-22200	-22450	22000	46878971	2298	10.45	3975078	8.48	1.2319	
-22650	-22150	-22400	22000	46878971	2362	10.74	3975014	8.48	1.2662	
-22600	-22100	-22350	22000	46878971	2509	11.40	3974867	8.48	1.3450	
-22550	-22050	-22300	22000	46878971	2659	12.09	3974717	8.48	1.4255	
-22500	-22000	-22250	22000	46878971	2885	13.11	3974491	8.48	1.5467	
-22450	-21950	-22200	22000	46878971	3195	14.52	3974181	8.48	1.7131	
-22400	-21900	-22150	22000	46878971	3377	15.35	3973999	8.48	1.8108	
-22350	-21850	-22100	22000	46878971	3535	16.07	3973841	8.48	1.8955	
-22300	-21800	-22050	22000	46878971	3686	16.75	3973690	8.48	1.9766	
-22250	-21750	-22000	22000	46878971	3839	17.45	3973537	8.48	2.0587	
-22200	-21700	-21950	22000	46878971	3989	18.13	3973387	8.48	2.1392	
-22150	-21650	-21900	22000	46878971	4117	18.71	3973259	8.48	2.2080	
-22100	-21600	-21850	22000	46878971	4182	19.01	3973194	8.48	2.2428	
-22050	-21550	-21800	22000	46878971	4161	18.91	3973215	8.48	2.2316	
-22000	-21500	-21750	22000	46878971	4158	18.90	3973218	8.48	2.2300	
-21950	-21450	-21700	22000	46878971	4138	18.81	3973238	8.48	2.2192	
-21900	-21400	-21650	22000	46878971	4221	19.19	3973155	8.48	2.2638	
-21850	-21350	-21600	22000	46878971	4157	18.90	3973219	8.48	2.2294	
-21800	-21300	-21550	22000	46878971	4090	18.59	3973286	8.48	2.1935	
-21750	-21250	-21500	22000	46878971	3915	17.80	3973461	8.48	2.0995	
-21700	-21200	-21450	22000	46878971	3653	16.60	3973723	8.48	1.9589	
-21650	-21150	-21400	22000	46878971	3427	15.58	3973949	8.48	1.8376	
-21600	-21100	-21350	22000	46878971	3210	14.59	3974166	8.48	1.7211	
-21550	-21050	-21300	22000	46878971	3097	14.08	3974279	8.48	1.6605	
-21500	-21000	-21250	22000	46878971	2946	13.39	3974430	8.48	1.5795	
-21450	-20950	-21200	22000	46878971	2748	12.49	3974628	8.48	1.4732	
-21400	-20900	-21150	22000	46878971	2595	11.80	3974781	8.48	1.3912	
-21350	-20850	-21100	22000	46878971	2551	11.60	3974825	8.48	1.3676	
-21300	-20800	-21050	22000	46878971	2517	11.44	3974859	8.48	1.3493	
-21250	-20750	-21000	22000	46878971	2544	11.56	3974832	8.48	1.3638	
-21200	-20700	-20950	22000	46878971	2571	11.69	3974805	8.48	1.3783	
-21150	-20650	-20900	22000	46878971	2532	11.51	3974844	8.48	1.3574	
-21100	-20600	-20850	22000	46878971	2537	11.53	3974839	8.48	1.3601	
-21050	-20550	-20800	22000	46878971	2491	11.32	3974885	8.48	1.3354	
-21000	-20500	-20750	22000	46878971	2497	11.35	3974879	8.48	1.3386	
-20950	-20450	-20700	22000	46878971	2550	11.59	3974826	8.48	1.3670	
-20900	-20400	-20650	22000	46878971	2629	11.95	3974747	8.48	1.4094	
-20850	-20350	-20600	22000	46878971	2851	12.96	3974525	8.48	1.5285	
-20800	-20300	-20550	22000	46878971	3109	14.13	3974267	8.48	1.6669	
-20750	-20250	-20500	22000	46878971	3384	15.38	3973992	8.48	1.8145	
-20700	-20200	-20450	22000	46878971	3602	16.37	3973774	8.48	1.9315	
-20650	-20150	-20400	22000	46878971	3803	17.29	3973573	8.48	2.0394	
-20600	-20100	-20350	22000	46878971	3953	17.97	3973423	8.48	2.1199	
-20550	-20050	-20300	22000	46878971	4099	18.63	3973277	8.48	2.1983	
-20500	-20000	-20250	21932	46879039	4170	19.01	3973206	8.48	2.2433	
-20450	-19950	-20200	21832	46879139	4134	18.94	3973242	8.48	2.2341	
-20400	-19900	-20150	21732	46879239	4008	18.44	3973368	8.48	2.1760	
-20350	-19850	-20100	21632	46879339	3817	17.65	3973559	8.48	2.0817	
-20300	-19800	-20050	21532	46879439	3611	16.77	3973765	8.48	1.9784	
-20250	-19750	-20000	21568	46879403	3508	16.26	3973868	8.48	1.9187	
-20200	-19700	-19950	21668	46879303	3374	15.57	3974002	8.48	1.8369	
-20150	-19650	-19900	21768	46879203	3269	15.02	3974107	8.48	1.7715	
-20100	-19600	-19850	21868	46879103	3177	14.53	3974199	8.48	1.7137	
-20050	-19550	-19800	21968	46879003	3161	14.39	3974215	8.48	1.6973	
-20000	-19500	-19750	22000	46878971	3329	15.13	3974047	8.48	1.7850	
-19950	-19450	-19700	22000	46878971	3690	16.77	3973686	8.48	1.9787	
-19900	-19400	-19650	22000	46878971	4087	18.58	3973289	8.48	2.1918	
-19850	-19350	-19600	22000	46878971	4378	19.90	3972998	8.48	2.3481	
-19800	-19300	-19550	22000	46878971	4716	21.44	3972660	8.47	2.5296	
-19750	-19250	-19500	22000	46878971	4920	22.36	3972456	8.47	2.6391	
-19700	-19200	-19450	22000	46878971	5189	23.59	3972187	8.47	2.7836	
-19650	-19150	-19400	22000	46878971	5328	24.22	3972048	8.47	2.8583	
-19600	-19100	-19350	22000	46878971	5420	24.64	3971956	8.47	2.9077	
-19550	-19050	-19300	22000	46878971	5452	24.78	3971924	8.47	2.9249	
-19500	-19000	-19250	22000	46878971	5315	24.16	3972061	8.47	2.8513	
-19450	-18950	-19200	22000	46878971	5017	22.80	3972359	8.47	2.6912	
-19400	-18900	-19150	22000	46878971	4730	21.50	3972646	8.47	2.5371	
-19350	-18850	-19100	22000	46878971	4466	20.30	3972910	8.47	2.3953	
-19300	-18800	-19050	22000	46878971	4133	18.79	3973243	8.48	2.2165	
-19250	-18750	-19000	22000	46878971	3807	17.30	3973569	8.48	2.0415	
-19200	-18700	-18950	22000	46878971	3489	15.86	3973887	8.48	1.8709	
-19150	-18650	-18900	22000	46878971	3211	14.60	3974165	8.48	1.7217	
-19100	-18600	-18850	22000	46878971	3038	13.81	3974338	8.48	1.6288	
-19050	-18550	-18800	22000	46878971	2961	13.46	3974415	8.48	1.5875	
-19000	-18500	-18750	22000	46878971	2829	12.86	3974547	8.48	1.5167	
-18950	-18450	-18700	22000	46878971	2789	12.68	3974587	8.48	1.4952	
-18900	-18400	-18650	22000	46878971	2709	12.31	3974667	8.48	1.4523	
-18850	-18350	-18600	22000	46878971	2649	12.04	3974727	8.48	1.4201	
-18800	-18300	-18550	22000	46878971	2550	11.59	3974826	8.48	1.3670	
-18750	-18250	-18500	22000	46878971	2497	11.35	3974879	8.48	1.3386	
-18700	-18200	-18450	22000	46878971	2447	11.12	3974929	8.48	1.3118	
-18650	-18150	-18400	22000	46878971	2441	11.10	3974935	8.48	1.3086	
-18600	-18100	-18350	22000	46878971	2474	11.25	3974902	8.48	1.3263	
-18550	-18050	-18300	22000	46878971	2419	11.00	3974957	8.48	1.2968	
-18500	-18000	-18250	22000	46878971	2397	10.90	3974979	8.48	1.2850	
-18450	-17950	-18200	22000	46878971	2381	10.82	3974995	8.48	1.2764	
-18400	-17900	-18150	22000	46878971	2491	11.32	3974885	8.48	1.3354	
-18350	-17850	-18100	22000	46878971	2619	11.90	3974757	8.48	1.4040	
-18300	-17800	-18050	22000	46878971	2753	12.51	3974623	8.48	1.4759	
-18250	-17750	-18000	22000	46878971	2871	13.05	3974505	8.48	1.5392	
-18200	-17700	-17950	22000	46878971	3004	13.65	3974372	8.48	1.6106	
-18150	-17650	-17900	22000	46878971	3155	14.34	3974221	8.48	1.6916	
-18100	-17600	-17850	22000	46878971	3169	14.40	3974207	8.48	1.6991	
-18050	-17550	-17800	22000	46878971	3200	14.55	3974176	8.48	1.7158	
-18000	-17500	-17750	22000	46878971	3339	15.18	3974037	8.48	1.7904	
-17950	-17450	-17700	22000	46878971	3406	15.48	3973970	8.48	1.8263	
-17900	-17400	-17650	22000	46878971	3313	15.06	3974063	8.48	1.7764	
-17850	-17350	-17600	22000	46878971	3185	14.48	3974191	8.48	1.7077	
-17800	-17300	-17550	22000	46878971	3092	14.05	3974284	8.48	1.6578	
-17750	-17250	-17500	22000	46878971	3039	13.81	3974337	8.48	1.6294	
-17700	-17200	-17450	22000	46878971	2989	13.59	3974387	8.48	1.6025	
-17650	-17150	-17400	22000	46878971	2871	13.05	3974505	8.48	1.5392	
-17600	-17100	-17350	22000	46878971	2775	12.61	3974601	8.48	1.4877	
-17550	-17050	-17300	22000	46878971	2676	12.16	3974700	8.48	1.4346	
-17500	-17000	-17250	22000	46878971	2510	11.41	3974866	8.48	1.3456	
-17450	-16950	-17200	22000	46878971	2413	10.97	3974963	8.48	1.2935	
-17400	-16900	-17150	22000	46878971	2371	10.78	3975005	8.48	1.2710	
-17350	-16850	-17100	22000	46878971	2371	10.78	3975005	8.48	1.2710	
-17300	-16800	-17050	22000	46878971	2411	10.96	3974965	8.48	1.2925	
-17250	-16750	-17000	22000	46878971	2447	11.12	3974929	8.48	1.3118	
-17200	-16700	-16950	22000	46878971	2441	11.10	3974935	8.48	1.3086	
-17150	-16650	-16900	22000	46878971	2577	11.71	3974799	8.48	1.3815	
-17100	-16600	-16850	22000	46878971	2721	12.37	3974655	8.48	1.4588	
-17050	-16550	-16800	22000	46878971	2802	12.74	3974574	8.48	1.5022	
-17000	-16500	-16750	22000	46878971	2887	13.12	3974489	8.48	1.5478	
-16950	-16450	-16700	22000	46878971	2955	13.43	3974421	8.48	1.5843	
-16900	-16400	-16650	22000	46878971	2997	13.62	3974379	8.48	1.6068	
-16850	-16350	-16600	22000	46878971	3031	13.78	3974345	8.48	1.6251	
-16800	-16300	-16550	22000	46878971	3138	14.26	3974238	8.48	1.6825	
-16750	-16250	-16500	22000	46878971	3190	14.50	3974186	8.48	1.7104	
-16700	-16200	-16450	22000	46878971	3313	15.06	3974063	8.48	1.7764	
-16650	-16150	-16400	22000	46878971	3385	15.39	3973991	8.48	1.8150	
-16600	-16100	-16350	22000	46878971	3422	15.55	3973954	8.48	1.8349	
-16550	-16050	-16300	22000	46878971	3498	15.90	3973878	8.48	1.8757	
-16500	-16000	-16250	22000	46878971	3563	16.20	3973813	8.48	1.9106	
-16450	-15950	-16200	22000	46878971	3544	16.11	3973832	8.48	1.9004	
-16400	-15900	-16150	22000	46878971	3488	15.85	3973888	8.48	1.8703	
-16350	-15850	-16100	22000	46878971	3357	15.26	3974019	8.48	1.8000	
-16300	-15800	-16050	22000	46878971	3190	14.50	3974186	8.48	1.7104	
-16250	-15750	-16000	22000	46878971	3232	14.69	3974144	8.48	1.7329	
-16200	-15700	-15950	22000	46878971	3315	15.07	3974061	8.48	1.7775	
-16150	-15650	-15900	22000	46878971	3295	14.98	3974081	8.48	1.7667	
-16100	-15600	-15850	22000	46878971	3200	14.55	3974176	8.48	1.7158	
-16050	-15550	-15800	22000	46878971	3224	14.65	3974152	8.48	1.7286	
-16000	-15500	-15750	22000	46878971	3250	14.77	3974126	8.48	1.7426	
-15950	-15450	-15700	22000	46878971	3330	15.14	3974046	8.48	1.7855	
-15900	-15400	-15650	22000	46878971	3429	15.59	3973947	8.48	1.8387	
-15850	-15350	-15600	22000	46878971	3600	16.36	3973776	8.48	1.9304	
-15800	-15300	-15550	22000	46878971	3653	16.60	3973723	8.48	1.9589	
-15750	-15250	-15500	22000	46878971	3592	16.33	3973784	8.48	1.9261	
-15700	-15200	-15450	22000	46878971	3546	16.12	3973830	8.48	1.9014	
-15650	-15150	-15400	22000	46878971	3595	16.34	3973781	8.48	1.9277	
-15600	-15100	-15350	22000	46878971	3709	16.86	3973667	8.48	1.9889	
-15550	-15050	-15300	22000	46878971	3665	16.66	3973711	8.48	1.9653	
-15500	-15000	-15250	22000	46878971	3715	16.89	3973661	8.48	1.9922	
-15450	-14950	-15200	22000	46878971	3788	17.22	3973588	8.48	2.0313	
-15400	-14900	-15150	22000	46878971	3888	17.67	3973488	8.48	2.0850	
-15350	-14850	-15100	22000	46878971	3866	17.57	3973510	8.48	2.0732	
-15300	-14800	-15050	22000	46878971	3859	17.54	3973517	8.48	2.0695	
-15250	-14750	-15000	22000	46878971	3853	17.51	3973523	8.48	2.0662	
-15200	-14700	-14950	22000	46878971	3799	17.27	3973577	8.48	2.0372	
-15150	-14650	-14900	22000	46878971	3719	16.90	3973657	8.48	1.9943	
-15100	-14600	-14850	22000	46878971	3560	16.18	3973816	8.48	1.9090	
-15050	-14550	-14800	22000	46878971	3433	15.60	3973943	8.48	1.8408	
-15000	-14500	-14750	22000	46878971	3207	14.58	3974169	8.48	1.7195	
-14950	-14450	-14700	22000	46878971	2975	13.52	3974401	8.48	1.5950	
-14900	-14400	-14650	22000	46878971	2786	12.66	3974590	8.48	1.4936	
-14850	-14350	-14600	22000	46878971	2635	11.98	3974741	8.48	1.4126	
-14800	-14300	-14550	22000	46878971	2510	11.41	3974866	8.48	1.3456	
-14750	-14250	-14500	22000	46878971	2386	10.85	3974990	8.48	1.2791	
-14700	-14200	-14450	22000	46878971	2313	10.51	3975063	8.48	1.2399	
-14650	-14150	-14400	22000	46878971	2296	10.44	3975080	8.48	1.2308	
-14600	-14100	-14350	22000	46878971	2546	11.57	3974830	8.48	1.3649	
-14550	-14050	-14300	22000	46878971	2864	13.02	3974512	8.48	1.5355	
-14500	-14000	-14250	22000	46878971	3165	14.39	3974211	8.48	1.6970	
-14450	-13950	-14200	22000	46878971	3382	15.37	3973994	8.48	1.8134	
-14400	-13900	-14150	22000	46878971	3514	15.97	3973862	8.48	1.8843	
-14350	-13850	-14100	22000	46878971	3715	16.89	3973661	8.48	1.9922	
-14300	-13800	-14050	22000	46878971	3895	17.70	3973481	8.48	2.0888	
-14250	-13750	-14000	22000	46878971	3994	18.15	3973382	8.48	2.1419	
-14200	-13700	-13950	22000	46878971	3967	18.03	3973409	8.48	2.1274	
-14150	-13650	-13900	22000	46878971	3898	17.72	3973478	8.48	2.0904	
-14100	-13600	-13850	22000	46878971	3759	17.09	3973617	8.48	2.0158	
-14050	-13550	-13800	22000	46878971	3605	16.39	3973771	8.48	1.9331	
-14000	-13500	-13750	22000	46878971	3444	15.65	3973932	8.48	1.8467	
-13950	-13450	-13700	22000	46878971	3366	15.30	3974010	8.48	1.8048	
-13900	-13400	-13650	22000	46878971	3430	15.59	3973946	8.48	1.8392	
-13850	-13350	-13600	22000	46878971	3530	16.05	3973846	8.48	1.8929	
-13800	-13300	-13550	22000	46878971	3609	16.40	3973767	8.48	1.9353	
-13750	-13250	-13500	22000	46878971	3668	16.67	3973708	8.48	1.9669	
-13700	-13200	-13450	22000	46878971	3849	17.50	3973527	8.48	2.0641	
-13650	-13150	-13400	22000	46878971	4030	18.32	3973346	8.48	2.1612	
-13600	-13100	-13350	22000	46878971	4154	18.88	3973222	8.48	2.2278	
-13550	-13050	-13300	22000	46878971	4254	19.34	3973122	8.48	2.2815	
-13500	-13000	-13250	22000	46878971	4276	19.44	3973100	8.48	2.2933	
-13450	-12950	-13200	22000	46878971	4277	19.44	3973099	8.48	2.2939	
-13400	-12900	-13150	22000	46878971	4177	18.99	3973199	8.48	2.2402	
-13350	-12850	-13100	22000	46878971	4042	18.37	3973334	8.48	2.1677	
-13300	-12800	-13050	22000	46878971	3982	18.10	3973394	8.48	2.1355	
-13250	-12750	-13000	22000	46878971	4041	18.37	3973335	8.48	2.1672	
-13200	-12700	-12950	22000	46878971	3996	18.16	3973380	8.48	2.1430	
-13150	-12650	-12900	22000	46878971	3962	18.01	3973414	8.48	2.1247	
-13100	-12600	-12850	22000	46878971	3929	17.86	3973447	8.48	2.1070	
-13050	-12550	-12800	22000	46878971	3881	17.64	3973495	8.48	2.0813	
-13000	-12500	-12750	22000	46878971	3890	17.68	3973486	8.48	2.0861	
-12950	-12450	-12700	22000	46878971	4007	18.21	3973369	8.48	2.1489	
-12900	-12400	-12650	22000	46878971	4136	18.80	3973240	8.48	2.2182	
-12850	-12350	-12600	22000	46878971	4240	19.27	3973136	8.48	2.2740	
-12800	-12300	-12550	22000	46878971	4346	19.75	3973030	8.48	2.3309	
-12750	-12250	-12500	22000	46878971	4360	19.82	3973016	8.48	2.3384	
-12700	-12200	-12450	22000	46878971	4363	19.83	3973013	8.48	2.3400	
-12650	-12150	-12400	22000	46878971	4286	19.48	3973090	8.48	2.2987	
-12600	-12100	-12350	22000	46878971	4145	18.84	3973231	8.48	2.2230	
-12550	-12050	-12300	22000	46878971	4037	18.35	3973339	8.48	2.1650	
-12500	-12000	-12250	22000	46878971	3966	18.03	3973410	8.48	2.1269	
-12450	-11950	-12200	22000	46878971	3821	17.37	3973555	8.48	2.0491	
-12400	-11900	-12150	22000	46878971	3774	17.15	3973602	8.48	2.0238	
-12350	-11850	-12100	22000	46878971	3817	17.35	3973559	8.48	2.0469	
-12300	-11800	-12050	22000	46878971	3828	17.40	3973548	8.48	2.0528	
-12250	-11750	-12000	22000	46878971	3879	17.63	3973497	8.48	2.0802	
-12200	-11700	-11950	22000	46878971	3944	17.93	3973432	8.48	2.1151	
-12150	-11650	-11900	22000	46878971	3923	17.83	3973453	8.48	2.1038	
-12100	-11600	-11850	22000	46878971	4000	18.18	3973376	8.48	2.1451	
-12050	-11550	-11800	22000	46878971	4050	18.41	3973326	8.48	2.1720	
-12000	-11500	-11750	22000	46878971	4111	18.69	3973265	8.48	2.2047	
-11950	-11450	-11700	22000	46878971	4130	18.77	3973246	8.48	2.2149	
-11900	-11400	-11650	22000	46878971	4046	18.39	3973330	8.48	2.1698	
-11850	-11350	-11600	22000	46878971	3950	17.95	3973426	8.48	2.1183	
-11800	-11300	-11550	22000	46878971	3782	17.19	3973594	8.48	2.0281	
-11750	-11250	-11500	22000	46878971	3497	15.90	3973879	8.48	1.8752	
-11700	-11200	-11450	22000	46878971	3285	14.93	3974091	8.48	1.7614	
-11650	-11150	-11400	22000	46878971	3284	14.93	3974092	8.48	1.7608	
-11600	-11100	-11350	22000	46878971	3274	14.88	3974102	8.48	1.7555	
-11550	-11050	-11300	22000	46878971	3355	15.25	3974021	8.48	1.7989	
-11500	-11000	-11250	21931	46879040	3368	15.36	3974008	8.48	1.8116	
-11450	-10950	-11200	21831	46879140	3321	15.21	3974055	8.48	1.7945	
-11400	-10900	-11150	21731	46879240	3361	15.47	3974015	8.48	1.8245	
-11350	-10850	-11100	21631	46879340	3409	15.76	3973967	8.48	1.8591	
-11300	-10800	-11050	21531	46879440	3541	16.45	3973835	8.48	1.9401	
-11250	-10750	-11000	21569	46879402	3770	17.48	3973606	8.48	2.0621	
-11200	-10700	-10950	21669	46879302	3916	18.07	3973460	8.48	2.1321	
-11150	-10650	-10900	21769	46879202	4080	18.74	3973296	8.48	2.2113	
-11100	-10600	-10850	21869	46879102	4243	19.40	3973133	8.48	2.2892	
-11050	-10550	-10800	21969	46879002	4368	19.88	3973008	8.48	2.3460	
-11000	-10500	-10750	22000	46878971	4358	19.81	3973018	8.48	2.3373	
-10950	-10450	-10700	22000	46878971	4320	19.64	3973056	8.48	2.3169	
-10900	-10400	-10650	22000	46878971	4236	19.25	3973140	8.48	2.2718	
-10850	-10350	-10600	22000	46878971	4163	18.92	3973213	8.48	2.2326	
-10800	-10300	-10550	22000	46878971	4138	18.81	3973238	8.48	2.2192	
-10750	-10250	-10500	22000	46878971	4131	18.78	3973245	8.48	2.2155	
-10700	-10200	-10450	22000	46878971	4119	18.72	3973257	8.48	2.2090	
-10650	-10150	-10400	22000	46878971	4135	18.80	3973241	8.48	2.2176	
-10600	-10100	-10350	22000	46878971	4125	18.75	3973251	8.48	2.2122	
-10550	-10050	-10300	22000	46878971	4088	18.58	3973288	8.48	2.1924	
-10500	-10000	-10250	22000	46878971	4186	19.03	3973190	8.48	2.2450	
-10450	-9950	-10200	22000	46878971	4319	19.63	3973057	8.48	2.3164	
-10400	-9900	-10150	22000	46878971	4447	20.21	3972929	8.47	2.3851	
-10350	-9850	-10100	22000	46878971	4549	20.68	3972827	8.47	2.4399	
-10300	-9800	-10050	22000	46878971	4554	20.70	3972822	8.47	2.4426	
-10250	-9750	-10000	22000	46878971	4542	20.65	3972834	8.47	2.4361	
-10200	-9700	-9950	22000	46878971	4566	20.75	3972810	8.47	2.4490	
-10150	-9650	-9900	22000	46878971	4502	20.46	3972874	8.47	2.4147	
-10100	-9600	-9850	22000	46878971	4278	19.45	3973098	8.48	2.2944	
-10050	-9550	-9800	22000	46878971	3994	18.15	3973382	8.48	2.1419	
-10000	-9500	-9750	22000	46878971	3595	16.34	3973781	8.48	1.9277	
-9950	-9450	-9700	22000	46878971	3293	14.97	3974083	8.48	1.7657	
-9900	-9400	-9650	22000	46878971	2981	13.55	3974395	8.48	1.5983	
-9850	-9350	-9600	22000	46878971	2694	12.25	3974682	8.48	1.4443	
-9800	-9300	-9550	22000	46878971	2538	11.54	3974838	8.48	1.3606	
-9750	-9250	-9500	22000	46878971	2466	11.21	3974910	8.48	1.3220	
-9700	-9200	-9450	22000	46878971	2425	11.02	3974951	8.48	1.3000	
-9650	-9150	-9400	22000	46878971	2403	10.92	3974973	8.48	1.2882	
-9600	-9100	-9350	22000	46878971	2521	11.46	3974855	8.48	1.3515	
-9550	-9050	-9300	22000	46878971	2622	11.92	3974754	8.48	1.4057	
-9500	-9000	-9250	22000	46878971	2741	12.46	3974635	8.48	1.4695	
-9450	-8950	-9200	22000	46878971	2798	12.72	3974578	8.48	1.5001	
-9400	-8900	-9150	22000	46878971	2847	12.94	3974529	8.48	1.5264	
-9350	-8850	-9100	22000	46878971	2923	13.29	3974453	8.48	1.5671	
-9300	-8800	-9050	22000	46878971	2927	13.30	3974449	8.48	1.5693	
-9250	-8750	-9000	22000	46878971	2847	12.94	3974529	8.48	1.5264	
-9200	-8700	-8950	22000	46878971	2749	12.50	3974627	8.48	1.4738	
-9150	-8650	-8900	22000	46878971	2698	12.26	3974678	8.48	1.4464	
-9100	-8600	-8850	22000	46878971	2653	12.06	3974723	8.48	1.4223	
-9050	-8550	-8800	22000	46878971	2736	12.44	3974640	8.48	1.4668	
-9000	-8500	-8750	22000	46878971	2892	13.15	3974484	8.48	1.5505	
-8950	-8450	-8700	22000	46878971	3082	14.01	3974294	8.48	1.6524	
-8900	-8400	-8650	22000	46878971	3171	14.41	3974205	8.48	1.7002	
-8850	-8350	-8600	22000	46878971	3144	14.29	3974232	8.48	1.6857	
-8800	-8300	-8550	22000	46878971	3128	14.22	3974248	8.48	1.6771	
-8750	-8250	-8500	22000	46878971	3177	14.44	3974199	8.48	1.7034	
-8700	-8200	-8450	22000	46878971	3240	14.73	3974136	8.48	1.7372	
-8650	-8150	-8400	22000	46878971	3251	14.78	3974125	8.48	1.7431	
-8600	-8100	-8350	22000	46878971	3310	15.05	3974066	8.48	1.7748	
-8550	-8050	-8300	22000	46878971	3341	15.19	3974035	8.48	1.7914	
-8500	-8000	-8250	22000	46878971	3290	14.95	3974086	8.48	1.7641	
-8450	-7950	-8200	22000	46878971	3183	14.47	3974193	8.48	1.7066	
-8400	-7900	-8150	22000	46878971	3052	13.87	3974324	8.48	1.6364	
-8350	-7850	-8100	22000	46878971	2963	13.47	3974413	8.48	1.5886	
-8300	-7800	-8050	22000	46878971	2935	13.34	3974441	8.48	1.5736	
-8250	-7750	-8000	22000	46878971	2916	13.25	3974460	8.48	1.5634	
-8200	-7700	-7950	22000	46878971	2937	13.35	3974439	8.48	1.5746	
-8150	-7650	-7900	22000	46878971	2910	13.23	3974466	8.48	1.5602	
-8100	-7600	-7850	22000	46878971	2802	12.74	3974574	8.48	1.5022	
-8050	-7550	-7800	22000	46878971	2650	12.05	3974726	8.48	1.4207	
-8000	-7500	-7750	22000	46878971	2511	11.41	3974865	8.48	1.3461	
-7950	-7450	-7700	22000	46878971	2358	10.72	3975018	8.48	1.2640	
-7900	-7400	-7650	22000	46878971	2307	10.49	3975069	8.48	1.2367	
-7850	-7350	-7600	22000	46878971	2246	10.21	3975130	8.48	1.2040	
-7800	-7300	-7550	22000	46878971	2171	9.87	3975205	8.48	1.1637	
-7750	-7250	-7500	22000	46878971	2080	9.45	3975296	8.48	1.1149	
-7700	-7200	-7450	22000	46878971	1964	8.93	3975412	8.48	1.0527	
-7650	-7150	-7400	22000	46878971	1917	8.71	3975459	8.48	1.0275	
-7600	-7100	-7350	22000	46878971	1954	8.88	3975422	8.48	1.0474	
-7550	-7050	-7300	22000	46878971	2024	9.20	3975352	8.48	1.0849	
-7500	-7000	-7250	22000	46878971	2067	9.40	3975309	8.48	1.1080	
-7450	-6950	-7200	22000	46878971	2102	9.55	3975274	8.48	1.1267	
-7400	-6900	-7150	22000	46878971	2126	9.66	3975250	8.48	1.1396	
-7350	-6850	-7100	22000	46878971	2176	9.89	3975200	8.48	1.1664	
-7300	-6800	-7050	22000	46878971	2187	9.94	3975189	8.48	1.1723	
-7250	-6750	-7000	22000	46878971	2185	9.93	3975191	8.48	1.1712	
-7200	-6700	-6950	22000	46878971	2260	10.27	3975116	8.48	1.2115	
-7150	-6650	-6900	22000	46878971	2396	10.89	3974980	8.48	1.2844	
-7100	-6600	-6850	22000	46878971	2479	11.27	3974897	8.48	1.3289	
-7050	-6550	-6800	22000	46878971	2505	11.39	3974871	8.48	1.3429	
-7000	-6500	-6750	21976	46878995	2542	11.57	3974834	8.48	1.3642	
-6950	-6450	-6700	21876	46879095	2639	12.06	3974737	8.48	1.4228	
-6900	-6400	-6650	21776	46879195	2896	13.30	3974480	8.48	1.5686	
-6850	-6350	-6600	21676	46879295	3202	14.77	3974174	8.48	1.7425	
-6800	-6300	-6550	21576	46879395	3575	16.57	3973801	8.48	1.9547	
-6750	-6250	-6500	21524	46879447	3818	17.74	3973558	8.48	2.0927	
-6700	-6200	-6450	21624	46879347	3948	18.26	3973428	8.48	2.1541	
-6650	-6150	-6400	21724	46879247	4002	18.42	3973374	8.48	2.1735	
-6600	-6100	-6350	21824	46879147	4050	18.56	3973326	8.48	2.1895	
-6550	-6050	-6300	21924	46879047	4206	19.18	3973170	8.48	2.2636	
-6500	-6000	-6250	22000	46878971	4411	20.05	3972965	8.47	2.3658	
-6450	-5950	-6200	22000	46878971	4640	21.09	3972736	8.47	2.4888	
-6400	-5900	-6150	22000	46878971	4680	21.27	3972696	8.47	2.5102	
-6350	-5850	-6100	22000	46878971	4598	20.90	3972778	8.47	2.4662	
-6300	-5800	-6050	22000	46878971	4355	19.80	3973021	8.48	2.3357	
-6250	-5750	-6000	22000	46878971	4210	19.14	3973166	8.48	2.2579	
-6200	-5700	-5950	22000	46878971	4026	18.30	3973350	8.48	2.1591	
-6150	-5650	-5900	22000	46878971	3973	18.06	3973403	8.48	2.1306	
-6100	-5600	-5850	22000	46878971	4055	18.43	3973321	8.48	2.1747	
-6050	-5550	-5800	22000	46878971	4036	18.35	3973340	8.48	2.1645	
-6000	-5500	-5750	22000	46878971	3940	17.91	3973436	8.48	2.1129	
-5950	-5450	-5700	22000	46878971	3782	17.19	3973594	8.48	2.0281	
-5900	-5400	-5650	22000	46878971	3712	16.87	3973664	8.48	1.9905	
-5850	-5350	-5600	22000	46878971	3702	16.83	3973674	8.48	1.9852	
-5800	-5300	-5550	22000	46878971	3797	17.26	3973579	8.48	2.0362	
-5750	-5250	-5500	22000	46878971	3876	17.62	3973500	8.48	2.0786	
-5700	-5200	-5450	22000	46878971	4026	18.30	3973350	8.48	2.1591	
-5650	-5150	-5400	22000	46878971	3964	18.02	3973412	8.48	2.1258	
-5600	-5100	-5350	22000	46878971	3788	17.22	3973588	8.48	2.0313	
-5550	-5050	-5300	22000	46878971	3607	16.40	3973769	8.48	1.9342	
-5500	-5000	-5250	22000	46878971	3561	16.19	3973815	8.48	1.9095	
-5450	-4950	-5200	22000	46878971	3567	16.21	3973809	8.48	1.9127	
-5400	-4900	-5150	22000	46878971	3481	15.82	3973895	8.48	1.8666	
-5350	-4850	-5100	22000	46878971	3409	15.50	3973967	8.48	1.8279	
-5300	-4800	-5050	22000	46878971	3373	15.33	3974003	8.48	1.8086	
-5250	-4750	-5000	22000	46878971	3341	15.19	3974035	8.48	1.7914	
-5200	-4700	-4950	22000	46878971	3308	15.04	3974068	8.48	1.7737	
-5150	-4650	-4900	22000	46878971	3333	15.15	3974043	8.48	1.7871	
-5100	-4600	-4850	22000	46878971	3340	15.18	3974036	8.48	1.7909	
-5050	-4550	-4800	22000	46878971	3398	15.45	3973978	8.48	1.8220	
-5000	-4500	-4750	22000	46878971	3444	15.65	3973932	8.48	1.8467	
-4950	-4450	-4700	22000	46878971	3405	15.48	3973971	8.48	1.8258	
-4900	-4400	-4650	22000	46878971	3470	15.77	3973906	8.48	1.8607	
-4850	-4350	-4600	22000	46878971	3500	15.91	3973876	8.48	1.8768	
-4800	-4300	-4550	22000	46878971	3518	15.99	3973858	8.48	1.8864	
-4750	-4250	-4500	22000	46878971	3603	16.38	3973773	8.48	1.9320	
-4700	-4200	-4450	22000	46878971	3671	16.69	3973705	8.48	1.9685	
-4650	-4150	-4400	22000	46878971	3698	16.81	3973678	8.48	1.9830	
-4600	-4100	-4350	22000	46878971	3819	17.36	3973557	8.48	2.0480	
-4550	-4050	-4300	22000	46878971	3888	17.67	3973488	8.48	2.0850	
-4500	-4000	-4250	22000	46878971	3828	17.40	3973548	8.48	2.0528	
-4450	-3950	-4200	22000	46878971	3778	17.17	3973598	8.48	2.0260	
-4400	-3900	-4150	22000	46878971	3630	16.50	3973746	8.48	1.9465	
-4350	-3850	-4100	22000	46878971	3498	15.90	3973878	8.48	1.8757	
-4300	-3800	-4050	22000	46878971	3373	15.33	3974003	8.48	1.8086	
-4250	-3750	-4000	22000	46878971	3173	14.42	3974203	8.48	1.7013	
-4200	-3700	-3950	22000	46878971	2974	13.52	3974402	8.48	1.5945	
-4150	-3650	-3900	22000	46878971	2847	12.94	3974529	8.48	1.5264	
-4100	-3600	-3850	22000	46878971	2638	11.99	3974738	8.48	1.4142	
-4050	-3550	-3800	22000	46878971	2474	11.25	3974902	8.48	1.3263	
-4000	-3500	-3750	22000	46878971	2425	11.02	3974951	8.48	1.3000	
-3950	-3450	-3700	22000	46878971	2347	10.67	3975029	8.48	1.2581	
-3900	-3400	-3650	22000	46878971	2289	10.40	3975087	8.48	1.2270	
-3850	-3350	-3600	22000	46878971	2269	10.31	3975107	8.48	1.2163	
-3800	-3300	-3550	22000	46878971	2229	10.13	3975147	8.48	1.1948	
-3750	-3250	-3500	22000	46878971	2242	10.19	3975134	8.48	1.2018	
-3700	-3200	-3450	22000	46878971	2334	10.61	3975042	8.48	1.2512	
-3650	-3150	-3400	22000	46878971	2511	11.41	3974865	8.48	1.3461	
-3600	-3100	-3350	22000	46878971	2721	12.37	3974655	8.48	1.4588	
-3550	-3050	-3300	22000	46878971	2935	13.34	3974441	8.48	1.5736	
-3500	-3000	-3250	22000	46878971	2980	13.55	3974396	8.48	1.5977	
-3450	-2950	-3200	22000	46878971	3048	13.85	3974328	8.48	1.6342	
-3400	-2900	-3150	22000	46878971	3094	14.06	3974282	8.48	1.6589	
-3350	-2850	-3100	22000	46878971	3128	14.22	3974248	8.48	1.6771	
-3300	-2800	-3050	22000	46878971	3205	14.57	3974171	8.48	1.7184	
-3250	-2750	-3000	22000	46878971	3273	14.88	3974103	8.48	1.7549	
-3200	-2700	-2950	22000	46878971	3191	14.50	3974185	8.48	1.7109	
-3150	-2650	-2900	22000	46878971	3019	13.72	3974357	8.48	1.6186	
-3100	-2600	-2850	22000	46878971	2874	13.06	3974502	8.48	1.5408	
-3050	-2550	-2800	22000	46878971	2793	12.70	3974583	8.48	1.4974	
-3000	-2500	-2750	22000	46878971	2832	12.87	3974544	8.48	1.5183	
-2950	-2450	-2700	22000	46878971	2851	12.96	3974525	8.48	1.5285	
-2900	-2400	-2650	22000	46878971	2819	12.81	3974557	8.48	1.5113	
-2850	-2350	-2600	22000	46878971	2771	12.60	3974605	8.48	1.4856	
-2800	-2300	-2550	22000	46878971	2712	12.33	3974664	8.48	1.4539	
-2750	-2250	-2500	22000	46878971	2598	11.81	3974778	8.48	1.3928	
-2700	-2200	-2450	22000	46878971	2543	11.56	3974833	8.48	1.3633	
-2650	-2150	-2400	22000	46878971	2488	11.31	3974888	8.48	1.3338	
-2600	-2100	-2350	22000	46878971	2395	10.89	3974981	8.48	1.2839	
-2550	-2050	-2300	22000	46878971	2189	9.95	3975187	8.48	1.1734	
-2500	-2000	-2250	22000	46878971	1930	8.77	3975446	8.48	1.0345	
-2450	-1950	-2200	22000	46878971	1810	8.23	3975566	8.48	0.9701	
-2400	-1900	-2150	22000	46878971	1746	7.94	3975630	8.48	0.9358	
-2350	-1850	-2100	22000	46878971	1690	7.68	3975686	8.48	0.9058	
-2300	-1800	-2050	22000	46878971	1614	7.34	3975762	8.48	0.8650	
-2250	-1750	-2000	22000	46878971	1560	7.09	3975816	8.48	0.8361	
-2200	-1700	-1950	22000	46878971	1519	6.90	3975857	8.48	0.8141	
-2150	-1650	-1900	22000	46878971	1569	7.13	3975807	8.48	0.8409	
-2100	-1600	-1850	22000	46878971	1605	7.30	3975771	8.48	0.8602	
-2050	-1550	-1800	21951	46879020	1767	8.05	3975609	8.48	0.9492	
-2000	-1500	-1750	21851	46879120	2111	9.66	3975265	8.48	1.1393	
-1950	-1450	-1700	21751	46879220	2324	10.68	3975052	8.48	1.2601	
-1900	-1400	-1650	21651	46879320	2576	11.90	3974800	8.48	1.4032	
-1850	-1350	-1600	21551	46879420	2857	13.26	3974519	8.48	1.5637	
-1800	-1300	-1550	21549	46879422	3012	13.98	3974364	8.48	1.6487	
-1750	-1250	-1500	21649	46879322	3162	14.61	3974214	8.48	1.7229	
-1700	-1200	-1450	21749	46879222	3312	15.23	3974064	8.48	1.7964	
-1650	-1150	-1400	21849	46879122	3413	15.62	3973963	8.48	1.8427	
-1600	-1100	-1350	21949	46879022	3453	15.73	3973923	8.48	1.8558	
-1550	-1050	-1300	22000	46878971	3401	15.46	3973975	8.48	1.8236	
-1500	-1000	-1250	22000	46878971	3174	14.43	3974202	8.48	1.7018	
-1450	-950	-1200	22000	46878971	2902	13.19	3974474	8.48	1.5559	
-1400	-900	-1150	22000	46878971	2624	11.93	3974752	8.48	1.4067	
-1350	-850	-1100	22000	46878971	2350	10.68	3975026	8.48	1.2597	
-1300	-800	-1050	22000	46878971	2161	9.82	3975215	8.48	1.1584	
-1250	-750	-1000	22000	46878971	2021	9.19	3975355	8.48	1.0833	
-1200	-700	-950	22000	46878971	1928	8.76	3975448	8.48	1.0334	
-1150	-650	-900	22000	46878971	1827	8.30	3975549	8.48	0.9793	
-1100	-600	-850	22000	46878971	1776	8.07	3975600	8.48	0.9519	
-1050	-550	-800	22000	46878971	1714	7.79	3975662	8.48	0.9187	
-1000	-500	-750	22000	46878971	1664	7.56	3975712	8.48	0.8919	
-950	-450	-700	22000	46878971	1726	7.85	3975650	8.48	0.9251	
-900	-400	-650	22000	46878971	1853	8.42	3975523	8.48	0.9932	
-850	-350	-600	22000	46878971	2012	9.15	3975364	8.48	1.0785	
-800	-300	-550	22000	46878971	2162	9.83	3975214	8.48	1.1589	
-750	-250	-500	22000	46878971	2319	10.54	3975057	8.48	1.2431	
-700	-200	-450	22000	46878971	2512	11.42	3974864	8.48	1.3466	
-650	-150	-400	22000	46878971	2675	12.16	3974701	8.48	1.4341	
-600	-100	-350	22000	46878971	2846	12.94	3974530	8.48	1.5258	
-550	-50	-300	22000	46878971	3144	14.29	3974232	8.48	1.6857	
-500	0	-250	22000	46878971	3532	16.05	3973844	8.48	1.8939	
-450	50	-200	22000	46878971	3929	17.86	3973447	8.48	2.1070	
-400	100	-150	22000	46878971	4277	19.44	3973099	8.48	2.2939	
-350	150	-100	22000	46878971	4502	20.46	3972874	8.47	2.4147	
-300	200	-50	22000	46878971	4714	21.43	3972662	8.47	2.5285	
-250	250	0	22000	46878971	4955	22.52	3972421	8.47	2.6579	
-200	300	50	21958	46879013	5073	23.10	3972303	8.47	2.7265	
-150	350	100	21766	46879205	5177	23.78	3972199	8.47	2.8070	
-100	400	150	21466	46879505	5238	24.40	3972138	8.47	2.8799	
-50	450	200	21166	46879805	5123	24.20	3972253	8.47	2.8565	
0	500	250	20866	46880105	4977	23.85	3972399	8.47	2.8149	
50	550	300	20650	46880321	4744	22.97	3972632	8.47	2.7110	
100	600	350	20734	46880237	4644	22.40	3972732	8.47	2.6431	
150	650	400	21034	46879937	4652	22.12	3972724	8.47	2.6099	
200	700	450	21334	46879637	4739	22.21	3972637	8.47	2.6213	
250	750	500	21634	46879337	4789	22.14	3972587	8.47	2.6123	
300	800	550	21892	46879079	4853	22.17	3972523	8.47	2.6160	
350	850	600	22000	46878971	4675	21.25	3972701	8.47	2.5076	
400	900	650	21958	46879013	4453	20.28	3972923	8.47	2.3929	
450	950	700	21858	46879113	4328	19.80	3973048	8.48	2.3363	
500	1000	750	21758	46879213	4192	19.27	3973184	8.48	2.2732	
550	1050	800	21658	46879313	4111	18.98	3973265	8.48	2.2396	
600	1100	850	21558	46879413	3913	18.15	3973463	8.48	2.1415	
650	1150	900	21542	46879429	3710	17.22	3973666	8.48	2.0318	
700	1200	950	21642	46879329	3461	15.99	3973915	8.48	1.8865	
750	1250	1000	21742	46879229	3203	14.73	3974173	8.48	1.7378	
800	1300	1050	21842	46879129	2864	13.11	3974512	8.48	1.5466	
850	1350	1100	21942	46879029	2570	11.71	3974806	8.48	1.3814	
900	1400	1150	22000	46878971	2398	10.90	3974978	8.48	1.2855	
950	1450	1200	22000	46878971	2259	10.27	3975117	8.48	1.2109	
1000	1500	1250	22000	46878971	2124	9.65	3975252	8.48	1.1385	
1050	1550	1300	21900	46879071	2057	9.39	3975319	8.48	1.1076	
1100	1600	1350	21700	46879271	2064	9.51	3975312	8.48	1.1217	
1150	1650	1400	21500	46879471	2117	9.85	3975259	8.48	1.1612	
1200	1700	1450	21300	46879671	2206	10.36	3975170	8.48	1.2214	
1250	1750	1500	21100	46879871	2320	11.00	3975056	8.48	1.2967	
1300	1800	1550	21033	46879938	2451	11.65	3974925	8.48	1.3744	
1350	1850	1600	21133	46879838	2672	12.64	3974704	8.48	1.4913	
1400	1900	1650	21233	46879738	2844	13.39	3974532	8.48	1.5799	
1450	1950	1700	21333	46879638	3011	14.11	3974365	8.48	1.6649	
1500	2000	1750	21433	46879538	3232	15.08	3974144	8.48	1.7788	
1550	2050	1800	21567	46879404	3438	15.94	3973938	8.48	1.8805	
1600	2100	1850	21667	46879304	3680	16.98	3973696	8.48	2.0037	
1650	2150	1900	21767	46879204	3791	17.42	3973585	8.48	2.0547	
1700	2200	1950	21867	46879104	3907	17.87	3973469	8.48	2.1080	
1750	2250	2000	21967	46879004	4023	18.31	3973353	8.48	2.1607	
1800	2300	2050	22000	46878971	4047	18.40	3973329	8.48	2.1704	
1850	2350	2100	22000	46878971	4089	18.59	3973287	8.48	2.1929	
1900	2400	2150	22000	46878971	4083	18.56	3973293	8.48	2.1897	
1950	2450	2200	22000	46878971	4046	18.39	3973330	8.48	2.1698	
2000	2500	2250	22000	46878971	3896	17.71	3973480	8.48	2.0893	
2050	2550	2300	22000	46878971	3789	17.22	3973587	8.48	2.0319	
2100	2600	2350	22000	46878971	3707	16.85	3973669	8.48	1.9879	
2150	2650	2400	22000	46878971	3693	16.79	3973683	8.48	1.9803	
2200	2700	2450	22000	46878971	3645	16.57	3973731	8.48	1.9546	
2250	2750	2500	22000	46878971	3698	16.81	3973678	8.48	1.9830	
2300	2800	2550	22000	46878971	3744	17.02	3973632	8.48	2.0077	
2350	2850	2600	22000	46878971	3632	16.51	3973744	8.48	1.9476	
2400	2900	2650	22000	46878971	3581	16.28	3973795	8.48	1.9202	
2450	2950	2700	22000	46878971	3600	16.36	3973776	8.48	1.9304	
2500	3000	2750	22000	46878971	3650	16.59	3973726	8.48	1.9573	
2550	3050	2800	22000	46878971	3715	16.89	3973661	8.48	1.9922	
2600	3100	2850	22000	46878971	3807	17.30	3973569	8.48	2.0415	
2650	3150	2900	22000	46878971	3845	17.48	3973531	8.48	2.0619	
2700	3200	2950	22000	46878971	3858	17.54	3973518	8.48	2.0689	
2750	3250	3000	22000	46878971	3755	17.07	3973621	8.48	2.0136	
2800	3300	3050	22000	46878971	3592	16.33	3973784	8.48	1.9261	
2850	3350	3100	22000	46878971	3530	16.05	3973846	8.48	1.8929	
2900	3400	3150	22000	46878971	3457	15.71	3973919	8.48	1.8537	
2950	3450	3200	22000	46878971	3297	14.99	3974079	8.48	1.7678	
3000	3500	3250	21904	46879067	3051	13.93	3974325	8.48	1.6430	
3050	3550	3300	21804	46879167	2717	12.46	3974659	8.48	1.4697	
3100	3600	3350	21704	46879267	2371	10.92	3975005	8.48	1.2884	
3150	3650	3400	21604	46879367	2037	9.43	3975339	8.48	1.1119	
3200	3700	3450	21504	46879467	1756	8.17	3975620	8.48	0.9629	
3250	3750	3500	21596	46879375	1609	7.45	3975767	8.48	0.8785	
3300	3800	3550	21696	46879275	1585	7.31	3975791	8.48	0.8614	
3350	3850	3600	21796	46879175	1684	7.73	3975692	8.48	0.9110	
3400	3900	3650	21896	46879075	1798	8.21	3975578	8.48	0.9683	
3450	3950	3700	21996	46878975	1948	8.86	3975428	8.48	1.0443	
3500	4000	3750	22000	46878971	2002	9.10	3975374	8.48	1.0731	
3550	4050	3800	22000	46878971	2089	9.50	3975287	8.48	1.1198	
3600	4100	3850	22000	46878971	2176	9.89	3975200	8.48	1.1664	
3650	4150	3900	22000	46878971	2263	10.29	3975113	8.48	1.2131	
3700	4200	3950	22000	46878971	2348	10.67	3975028	8.48	1.2587	
3750	4250	4000	22000	46878971	2448	11.13	3974928	8.48	1.3123	
3800	4300	4050	22000	46878971	2515	11.43	3974861	8.48	1.3483	
3850	4350	4100	22000	46878971	2450	11.14	3974926	8.48	1.3134	
3900	4400	4150	22000	46878971	2477	11.26	3974899	8.48	1.3279	
3950	4450	4200	22000	46878971	2528	11.49	3974848	8.48	1.3552	
4000	4500	4250	22000	46878971	2616	11.89	3974760	8.48	1.4024	
4050	4550	4300	22000	46878971	2716	12.35	3974660	8.48	1.4561	
4100	4600	4350	22000	46878971	2831	12.87	3974545	8.48	1.5178	
4150	4650	4400	22000	46878971	2905	13.20	3974471	8.48	1.5575	
4200	4700	4450	22000	46878971	2982	13.55	3974394	8.48	1.5988	
4250	4750	4500	22000	46878971	3001	13.64	3974375	8.48	1.6090	
4300	4800	4550	22000	46878971	3025	13.75	3974351	8.48	1.6219	
4350	4850	4600	22000	46878971	3178	14.45	3974198	8.48	1.7040	
4400	4900	4650	22000	46878971	3405	15.48	3973971	8.48	1.8258	
4450	4950	4700	22000	46878971	3728	16.95	3973648	8.48	1.9991	
4500	5000	4750	22000	46878971	4140	18.82	3973236	8.48	2.2203	
4550	5050	4800	22000	46878971	4540	20.64	3972836	8.47	2.4351	
4600	5100	4850	22000	46878971	4763	21.65	3972613	8.47	2.5548	
4650	5150	4900	22000	46878971	4962	22.55	3972414	8.47	2.6617	
4700	5200	4950	22000	46878971	5267	23.94	3972109	8.47	2.8255	
4750	5250	5000	22000	46878971	5598	25.45	3971778	8.47	3.0033	
4800	5300	5050	22000	46878971	5908	26.85	3971468	8.47	3.1699	
4850	5350	5100	22000	46878971	6137	27.90	3971239	8.47	3.2930	
4900	5400	5150	22000	46878971	6123	27.83	3971253	8.47	3.2854	
4950	5450	5200	22000	46878971	5972	27.15	3971404	8.47	3.2043	
5000	5500	5250	22000	46878971	5721	26.00	3971655	8.47	3.0694	
5050	5550	5300	22000	46878971	5524	25.11	3971852	8.47	2.9636	
5100	5600	5350	22000	46878971	5451	24.78	3971925	8.47	2.9244	
5150	5650	5400	22000	46878971	5482	24.92	3971894	8.47	2.9410	
5200	5700	5450	22000	46878971	5442	24.74	3971934	8.47	2.9195	
5250	5750	5500	22000	46878971	5343	24.29	3972033	8.47	2.8663	
5300	5800	5550	22000	46878971	5124	23.29	3972252	8.47	2.7487	
5350	5850	5600	22000	46878971	4820	21.91	3972556	8.47	2.5854	
5400	5900	5650	22000	46878971	4693	21.33	3972683	8.47	2.5172	
5450	5950	5700	22000	46878971	4654	21.15	3972722	8.47	2.4963	
5500	6000	5750	22000	46878971	4567	20.76	3972809	8.47	2.4496	
5550	6050	5800	22000	46878971	4336	19.71	3973040	8.48	2.3255	
5600	6100	5850	22000	46878971	4090	18.59	3973286	8.48	2.1935	
5650	6150	5900	22000	46878971	3900	17.73	3973476	8.48	2.0915	
5700	6200	5950	22000	46878971	3688	16.76	3973688	8.48	1.9777	
5750	6250	6000	22000	46878971	3511	15.96	3973865	8.48	1.8827	
5800	6300	6050	22000	46878971	3445	15.66	3973931	8.48	1.8472	
5850	6350	6100	22000	46878971	3464	15.75	3973912	8.48	1.8574	
5900	6400	6150	22000	46878971	3357	15.26	3974019	8.48	1.8000	
5950	6450	6200	22000	46878971	3213	14.60	3974163	8.48	1.7227	
6000	6500	6250	22000	46878971	3114	14.15	3974262	8.48	1.6696	
6050	6550	6300	22000	46878971	3215	14.61	3974161	8.48	1.7238	
6100	6600	6350	22000	46878971	3461	15.73	3973915	8.48	1.8558	
6150	6650	6400	22000	46878971	3541	16.10	3973835	8.48	1.8988	
6200	6700	6450	22000	46878971	3576	16.25	3973800	8.48	1.9176	
6250	6750	6500	22000	46878971	3646	16.57	3973730	8.48	1.9551	
6300	6800	6550	22000	46878971	3758	17.08	3973618	8.48	2.0152	
6350	6850	6600	22000	46878971	3837	17.44	3973539	8.48	2.0576	
6400	6900	6650	22000	46878971	3969	18.04	3973407	8.48	2.1285	
6450	6950	6700	22000	46878971	4048	18.40	3973328	8.48	2.1709	
6500	7000	6750	22000	46878971	4085	18.57	3973291	8.48	2.1908	
6550	7050	6800	22000	46878971	3998	18.17	3973378	8.48	2.1441	
6600	7100	6850	22000	46878971	3846	17.48	3973530	8.48	2.0625	
6650	7150	6900	22000	46878971	3716	16.89	3973660	8.48	1.9927	
6700	7200	6950	22000	46878971	3572	16.24	3973804	8.48	1.9154	
6750	7250	7000	22000	46878971	3490	15.86	3973886	8.48	1.8714	
6800	7300	7050	22000	46878971	3408	15.49	3973968	8.48	1.8274	
6850	7350	7100	22000	46878971	3266	14.85	3974110	8.48	1.7512	
6900	7400	7150	22000	46878971	3071	13.96	3974305	8.48	1.6465	
6950	7450	7200	22000	46878971	2876	13.07	3974500	8.48	1.5419	
7000	7500	7250	22000	46878971	2705	12.30	3974671	8.48	1.4502	
7050	7550	7300	22000	46878971	2572	11.69	3974804	8.48	1.3788	
7100	7600	7350	22000	46878971	2424	11.02	3974952	8.48	1.2994	
7150	7650	7400	22000	46878971	2334	10.61	3975042	8.48	1.2512	
7200	7700	7450	22000	46878971	2292	10.42	3975084	8.48	1.2286	
7250	7750	7500	22000	46878971	2180	9.91	3975196	8.48	1.1686	
7300	7800	7550	22000	46878971	2096	9.53	3975280	8.48	1.1235	
7350	7850	7600	22000	46878971	2078	9.45	3975298	8.48	1.1139	
7400	7900	7650	22000	46878971	2125	9.66	3975251	8.48	1.1391	
7450	7950	7700	22000	46878971	2177	9.90	3975199	8.48	1.1670	
7500	8000	7750	22000	46878971	2258	10.26	3975118	8.48	1.2104	
7550	8050	7800	22000	46878971	2377	10.80	3974999	8.48	1.2742	
7600	8100	7850	22000	46878971	2551	11.60	3974825	8.48	1.3676	
7650	8150	7900	22000	46878971	2607	11.85	3974769	8.48	1.3976	
7700	8200	7950	22000	46878971	2633	11.97	3974743	8.48	1.4116	
7750	8250	8000	22000	46878971	2683	12.20	3974693	8.48	1.4384	
7800	8300	8050	22000	46878971	2696	12.25	3974680	8.48	1.4454	
7850	8350	8100	22000	46878971	2794	12.70	3974582	8.48	1.4979	
7900	8400	8150	22000	46878971	2970	13.50	3974406	8.48	1.5924	
7950	8450	8200	22000	46878971	3334	15.15	3974042	8.48	1.7877	
8000	8500	8250	22000	46878971	3777	17.17	3973599	8.48	2.0254	
8050	8550	8300	22000	46878971	4153	18.88	3973223	8.48	2.2273	
8100	8600	8350	22000	46878971	4411	20.05	3972965	8.47	2.3658	
8150	8650	8400	22000	46878971	4745	21.57	3972631	8.47	2.5451	
8200	8700	8450	22000	46878971	5075	23.07	3972301	8.47	2.7224	
8250	8750	8500	22000	46878971	5392	24.51	3971984	8.47	2.8927	
8300	8800	8550	22000	46878971	5614	25.52	3971762	8.47	3.0119	
8350	8850	8600	22000	46878971	5683	25.83	3971693	8.47	3.0490	
8400	8900	8650	22000	46878971	5711	25.96	3971665	8.47	3.0640	
8450	8950	8700	22000	46878971	5469	24.86	3971907	8.47	2.9340	
8500	9000	8750	22000	46878971	4990	22.68	3972386	8.47	2.6767	
8550	9050	8800	22000	46878971	4442	20.19	3972934	8.47	2.3824	
8600	9100	8850	22000	46878971	4039	18.36	3973337	8.48	2.1661	
8650	9150	8900	22000	46878971	3631	16.50	3973745	8.48	1.9471	
8700	9200	8950	22000	46878971	3308	15.04	3974068	8.48	1.7737	
8750	9250	9000	22000	46878971	2946	13.39	3974430	8.48	1.5795	
8800	9300	9050	22000	46878971	2683	12.20	3974693	8.48	1.4384	
8850	9350	9100	22000	46878971	2516	11.44	3974860	8.48	1.3488	
8900	9400	9150	22000	46878971	2313	10.51	3975063	8.48	1.2399	
8950	9450	9200	22000	46878971	2222	10.10	3975154	8.48	1.1911	
9000	9500	9250	22000	46878971	2219	10.09	3975157	8.48	1.1895	
9050	9550	9300	22000	46878971	2319	10.54	3975057	8.48	1.2431	
9100	9600	9350	22000	46878971	2296	10.44	3975080	8.48	1.2308	
9150	9650	9400	21975	46878996	2304	10.48	3975072	8.48	1.2365	
9200	9700	9450	21875	46879096	2257	10.32	3975119	8.48	1.2168	
9250	9750	9500	21775	46879196	2250	10.33	3975126	8.48	1.2186	
9300	9800	9550	21675	46879296	2283	10.53	3975093	8.48	1.2422	
9350	9850	9600	21575	46879396	2324	10.77	3975052	8.48	1.2704	
9400	9900	9650	21525	46879446	2463	11.44	3974913	8.48	1.3495	
9450	9950	9700	21625	46879346	2591	11.98	3974785	8.48	1.4131	
9500	10000	9750	21725	46879246	2581	11.88	3974795	8.48	1.4012	
9550	10050	9800	21825	46879146	2531	11.60	3974845	8.48	1.3677	
9600	10100	9850	21925	46879046	2565	11.70	3974811	8.48	1.3798	
9650	10150	9900	22000	46878971	2637	11.99	3974739	8.48	1.4137	
9700	10200	9950	22000	46878971	2809	12.77	3974567	8.48	1.5060	
9750	10250	10000	22000	46878971	2971	13.50	3974405	8.48	1.5929	
9800	10300	10050	22000	46878971	3092	14.05	3974284	8.48	1.6578	
9850	10350	10100	22000	46878971	3116	14.16	3974260	8.48	1.6707	
9900	10400	10150	22000	46878971	3096	14.07	3974280	8.48	1.6600	
9950	10450	10200	22000	46878971	3109	14.13	3974267	8.48	1.6669	
10000	10500	10250	22000	46878971	3314	15.06	3974062	8.48	1.7769	
10050	10550	10300	22000	46878971	3537	16.08	3973839	8.48	1.8966	
10100	10600	10350	22000	46878971	3793	17.24	3973583	8.48	2.0340	
10150	10650	10400	22000	46878971	4059	18.45	3973317	8.48	2.1768	
10200	10700	10450	22000	46878971	4229	19.22	3973147	8.48	2.2681	
10250	10750	10500	22000	46878971	4320	19.64	3973056	8.48	2.3169	
10300	10800	10550	22000	46878971	4349	19.77	3973027	8.48	2.3325	
10350	10850	10600	22000	46878971	4451	20.23	3972925	8.47	2.3873	
10400	10900	10650	22000	46878971	4452	20.24	3972924	8.47	2.3878	
10450	10950	10700	22000	46878971	4354	19.79	3973022	8.48	2.3352	
10500	11000	10750	22000	46878971	4219	19.18	3973157	8.48	2.2627	
10550	11050	10800	22000	46878971	4123	18.74	3973253	8.48	2.2112	
10600	11100	10850	22000	46878971	3939	17.90	3973437	8.48	2.1124	
10650	11150	10900	22000	46878971	3672	16.69	3973704	8.48	1.9691	
10700	11200	10950	22000	46878971	3480	15.82	3973896	8.48	1.8660	
10750	11250	11000	22000	46878971	3419	15.54	3973957	8.48	1.8333	
10800	11300	11050	22000	46878971	3431	15.60	3973945	8.48	1.8397	
10850	11350	11100	22000	46878971	3375	15.34	3974001	8.48	1.8097	
10900	11400	11150	22000	46878971	3360	15.27	3974016	8.48	1.8016	
10950	11450	11200	22000	46878971	3437	15.62	3973939	8.48	1.8430	
11000	11500	11250	22000	46878971	3599	16.36	3973777	8.48	1.9299	
11050	11550	11300	22000	46878971	3735	16.98	3973641	8.48	2.0029	
11100	11600	11350	22000	46878971	3962	18.01	3973414	8.48	2.1247	
11150	11650	11400	22000	46878971	4226	19.21	3973150	8.48	2.2665	
11200	11700	11450	22000	46878971	4394	19.97	3972982	8.47	2.3567	
11250	11750	11500	22000	46878971	4469	20.31	3972907	8.47	2.3969	
11300	11800	11550	22000	46878971	4472	20.33	3972904	8.47	2.3986	
11350	11850	11600	22000	46878971	4473	20.33	3972903	8.47	2.3991	
11400	11900	11650	22000	46878971	4557	20.71	3972819	8.47	2.4442	
11450	11950	11700	22000	46878971	4652	21.15	3972724	8.47	2.4952	
11500	12000	11750	22000	46878971	4677	21.26	3972699	8.47	2.5086	
11550	12050	11800	22000	46878971	4773	21.70	3972603	8.47	2.5602	
11600	12100	11850	22000	46878971	4765	21.66	3972611	8.47	2.5559	
11650	12150	11900	22000	46878971	4830	21.95	3972546	8.47	2.5908	
11700	12200	11950	22000	46878971	4859	22.09	3972517	8.47	2.6064	
11750	12250	12000	22000	46878971	4839	22.00	3972537	8.47	2.5956	
11800	12300	12050	22000	46878971	4824	21.93	3972552	8.47	2.5876	
11850	12350	12100	22000	46878971	4862	22.10	3972514	8.47	2.6080	
11900	12400	12150	22000	46878971	4840	22.00	3972536	8.47	2.5962	
11950	12450	12200	22000	46878971	4787	21.76	3972589	8.47	2.5677	
12000	12500	12250	22000	46878971	4605	20.93	3972771	8.47	2.4700	
12050	12550	12300	22000	46878971	4313	19.60	3973063	8.48	2.3132	
12100	12600	12350	22000	46878971	4095	18.61	3973281	8.48	2.1961	
12150	12650	12400	22000	46878971	3839	17.45	3973537	8.48	2.0587	
12200	12700	12450	22000	46878971	3627	16.49	3973749	8.48	1.9449	
12250	12750	12500	22000	46878971	3553	16.15	3973823	8.48	1.9052	
12300	12800	12550	22000	46878971	3592	16.33	3973784	8.48	1.9261	
12350	12850	12600	22000	46878971	3666	16.66	3973710	8.48	1.9659	
12400	12900	12650	22000	46878971	3662	16.65	3973714	8.48	1.9637	
12450	12950	12700	22000	46878971	3649	16.59	3973727	8.48	1.9567	
12500	13000	12750	22000	46878971	3813	17.33	3973563	8.48	2.0448	
12550	13050	12800	22000	46878971	4008	18.22	3973368	8.48	2.1494	
12600	13100	12850	22000	46878971	4152	18.87	3973224	8.48	2.2267	
12650	13150	12900	22000	46878971	4305	19.57	3973071	8.48	2.3089	
12700	13200	12950	22000	46878971	4482	20.37	3972894	8.47	2.4039	
12750	13250	13000	22000	46878971	4618	20.99	3972758	8.47	2.4769	
12800	13300	13050	22000	46878971	4687	21.30	3972689	8.47	2.5140	
12850	13350	13100	22000	46878971	4836	21.98	3972540	8.47	2.5940	
12900	13400	13150	22000	46878971	5072	23.05	3972304	8.47	2.7208	
12950	13450	13200	22000	46878971	5276	23.98	3972100	8.47	2.8303	
13000	13500	13250	22000	46878971	5416	24.62	3971960	8.47	2.9056	
13050	13550	13300	22000	46878971	5504	25.02	3971872	8.47	2.9528	
13100	13600	13350	22000	46878971	5495	24.98	3971881	8.47	2.9480	
13150	13650	13400	22000	46878971	5377	24.44	3971999	8.47	2.8846	
13200	13700	13450	22000	46878971	5264	23.93	3972112	8.47	2.8239	
13250	13750	13500	22000	46878971	4984	22.65	3972392	8.47	2.6735	
13300	13800	13550	22000	46878971	4550	20.68	3972826	8.47	2.4404	
13350	13850	13600	22000	46878971	4077	18.53	3973299	8.48	2.1865	
13400	13900	13650	22000	46878971	3639	16.54	3973737	8.48	1.9514	
13450	13950	13700	22000	46878971	3274	14.88	3974102	8.48	1.7555	
13500	14000	13750	22000	46878971	2917	13.26	3974459	8.48	1.5639	
13550	14050	13800	22000	46878971	2630	11.95	3974746	8.48	1.4099	
13600	14100	13850	22000	46878971	2505	11.39	3974871	8.48	1.3429	
13650	14150	13900	22000	46878971	2467	11.21	3974909	8.48	1.3225	
13700	14200	13950	22000	46878971	2391	10.87	3974985	8.48	1.2817	
13750	14250	14000	22000	46878971	2473	11.24	3974903	8.48	1.3257	
13800	14300	14050	22000	46878971	2747	12.49	3974629	8.48	1.4727	
13850	14350	14100	22000	46878971	2947	13.40	3974429	8.48	1.5800	
13900	14400	14150	22000	46878971	3128	14.22	3974248	8.48	1.6771	
13950	14450	14200	22000	46878971	3299	15.00	3974077	8.48	1.7689	
14000	14500	14250	22000	46878971	3460	15.73	3973916	8.48	1.8553	
14050	14550	14300	22000	46878971	3678	16.72	3973698	8.48	1.9723	
14100	14600	14350	22000	46878971	3855	17.52	3973521	8.48	2.0673	
14150	14650	14400	22000	46878971	4122	18.74	3973254	8.48	2.2106	
14200	14700	14450	22000	46878971	4453	20.24	3972923	8.47	2.3883	
14250	14750	14500	22000	46878971	4895	22.25	3972481	8.47	2.6257	
14300	14800	14550	22000	46878971	5217	23.71	3972159	8.47	2.7987	
14350	14850	14600	22000	46878971	5445	24.75	3971931	8.47	2.9211	
14400	14900	14650	22000	46878971	5576	25.35	3971800	8.47	2.9915	
14450	14950	14700	22000	46878971	5590	25.41	3971786	8.47	2.9990	
14500	15000	14750	22000	46878971	5563	25.29	3971813	8.47	2.9845	
14550	15050	14800	22000	46878971	5465	24.84	3971911	8.47	2.9319	
14600	15100	14850	22000	46878971	5420	24.64	3971956	8.47	2.9077	
14650	15150	14900	22000	46878971	5324	24.20	3972052	8.47	2.8561	
14700	15200	14950	22000	46878971	5268	23.95	3972108	8.47	2.8261	
14750	15250	15000	22000	46878971	5094	23.15	3972282	8.47	2.7326	
14800	15300	15050	22000	46878971	5013	22.79	3972363	8.47	2.6891	
14850	15350	15100	22000	46878971	4958	22.54	3972418	8.47	2.6595	
14900	15400	15150	22000	46878971	4888	22.22	3972488	8.47	2.6219	
14950	15450	15200	22000	46878971	4859	22.09	3972517	8.47	2.6064	
15000	15500	15250	22000	46878971	4817	21.90	3972559	8.47	2.5838	
15050	15550	15300	22000	46878971	4684	21.29	3972692	8.47	2.5124	
15100	15600	15350	22000	46878971	4495	20.43	3972881	8.47	2.4109	
15150	15650	15400	22000	46878971	4327	19.67	3973049	8.48	2.3207	
15200	15700	15450	22000	46878971	4115	18.70	3973261	8.48	2.2069	
15250	15750	15500	22000	46878971	3938	17.90	3973438	8.48	2.1119	
15300	15800	15550	22000	46878971	3749	17.04	3973627	8.48	2.0104	
15350	15850	15600	22000	46878971	3662	16.65	3973714	8.48	1.9637	
15400	15900	15650	22000	46878971	3628	16.49	3973748	8.48	1.9455	
15450	15950	15700	22000	46878971	3612	16.42	3973764	8.48	1.9369	
15500	16000	15750	22000	46878971	3547	16.12	3973829	8.48	1.9020	
15550	16050	15800	22000	46878971	3589	16.31	3973787	8.48	1.9245	
15600	16100	15850	22000	46878971	3602	16.37	3973774	8.48	1.9315	
15650	16150	15900	22000	46878971	3508	15.95	3973868	8.48	1.8811	
15700	16200	15950	22000	46878971	3343	15.20	3974033	8.48	1.7925	
15750	16250	16000	22000	46878971	3210	14.59	3974166	8.48	1.7211	
15800	16300	16050	22000	46878971	3136	14.25	3974240	8.48	1.6814	
15850	16350	16100	22000	46878971	3002	13.65	3974374	8.48	1.6095	
15900	16400	16150	22000	46878971	2823	12.83	3974553	8.48	1.5135	
15950	16450	16200	22000	46878971	2684	12.20	3974692	8.48	1.4389	
16000	16500	16250	22000	46878971	2748	12.49	3974628	8.48	1.4732	
16050	16550	16300	22000	46878971	2852	12.96	3974524	8.48	1.5290	
16100	16600	16350	22000	46878971	3061	13.91	3974315	8.48	1.6412	
16150	16650	16400	22000	46878971	3262	14.83	3974114	8.48	1.7490	
16200	16700	16450	22000	46878971	3469	15.77	3973907	8.48	1.8601	
16250	16750	16500	22000	46878971	3618	16.45	3973758	8.48	1.9401	
16300	16800	16550	22000	46878971	3635	16.52	3973741	8.48	1.9492	
16350	16850	16600	22000	46878971	3601	16.37	3973775	8.48	1.9310	
16400	16900	16650	22000	46878971	3616	16.44	3973760	8.48	1.9390	
16450	16950	16700	22000	46878971	3643	16.56	3973733	8.48	1.9535	
16500	17000	16750	22000	46878971	3561	16.19	3973815	8.48	1.9095	
16550	17050	16800	22000	46878971	3458	15.72	3973918	8.48	1.8542	
16600	17100	16850	22000	46878971	3270	14.86	3974106	8.48	1.7533	
16650	17150	16900	22000	46878971	3158	14.35	3974218	8.48	1.6932	
16700	17200	16950	22000	46878971	3130	14.23	3974246	8.48	1.6782	
16750	17250	17000	22000	46878971	3088	14.04	3974288	8.48	1.6557	
16800	17300	17050	21940	46879031	3045	13.88	3974331	8.48	1.6371	
16850	17350	17100	21840	46879131	3022	13.84	3974354	8.48	1.6321	
16900	17400	17150	21740	46879231	2946	13.55	3974430	8.48	1.5984	
16950	17450	17200	21640	46879331	2797	12.93	3974579	8.48	1.5245	
17000	17500	17250	21540	46879431	2746	12.75	3974630	8.48	1.5036	
17050	17550	17300	21560	46879411	2769	12.84	3974607	8.48	1.5148	
17100	17600	17350	21660	46879311	2861	13.21	3974515	8.48	1.5580	
17150	17650	17400	21760	46879211	2922	13.43	3974454	8.48	1.5839	
17200	17700	17450	21860	46879111	2936	13.43	3974440	8.48	1.5842	
17250	17750	17500	21960	46879011	3018	13.74	3974358	8.48	1.6211	
17300	17800	17550	22000	46878971	3035	13.80	3974341	8.48	1.6272	
17350	17850	17600	22000	46878971	3002	13.65	3974374	8.48	1.6095	
17400	17900	17650	22000	46878971	3059	13.90	3974317	8.48	1.6401	
17450	17950	17700	22000	46878971	3126	14.21	3974250	8.48	1.6761	
17500	18000	17750	22000	46878971	3086	14.03	3974290	8.48	1.6546	
17550	18050	17800	22000	46878971	3040	13.82	3974336	8.48	1.6299	
17600	18100	17850	22000	46878971	3037	13.80	3974339	8.48	1.6283	
17650	18150	17900	22000	46878971	2975	13.52	3974401	8.48	1.5950	
17700	18200	17950	22000	46878971	2960	13.45	3974416	8.48	1.5870	
17750	18250	18000	22000	46878971	2927	13.30	3974449	8.48	1.5693	
17800	18300	18050	22000	46878971	2871	13.05	3974505	8.48	1.5392	
17850	18350	18100	22000	46878971	2861	13.00	3974515	8.48	1.5339	
17900	18400	18150	22000	46878971	2874	13.06	3974502	8.48	1.5408	
17950	18450	18200	22000	46878971	2968	13.49	3974408	8.48	1.5913	
18000	18500	18250	22000	46878971	3027	13.76	3974349	8.48	1.6229	
18050	18550	18300	22000	46878971	2970	13.50	3974406	8.48	1.5924	
18100	18600	18350	22000	46878971	2831	12.87	3974545	8.48	1.5178	
18150	18650	18400	22000	46878971	2741	12.46	3974635	8.48	1.4695	
18200	18700	18450	22000	46878971	2552	11.60	3974824	8.48	1.3681	
18250	18750	18500	22000	46878971	2282	10.37	3975094	8.48	1.2233	
18300	18800	18550	22000	46878971	2106	9.57	3975270	8.48	1.1289	
18350	18850	18600	22000	46878971	1954	8.88	3975422	8.48	1.0474	
18400	18900	18650	22000	46878971	1764	8.02	3975612	8.48	0.9455	
18450	18950	18700	22000	46878971	1629	7.40	3975747	8.48	0.8731	
18500	19000	18750	22000	46878971	1681	7.64	3975695	8.48	0.9010	
18550	19050	18800	22000	46878971	1888	8.58	3975488	8.48	1.0120	
18600	19100	18850	22000	46878971	2059	9.36	3975317	8.48	1.1037	
18650	19150	18900	22000	46878971	2363	10.74	3975013	8.48	1.2667	
18700	19200	18950	22000	46878971	2753	12.51	3974623	8.48	1.4759	
18750	19250	19000	22000	46878971	3180	14.45	3974196	8.48	1.7050	
18800	19300	19050	22000	46878971	3542	16.10	3973834	8.48	1.8993	
18850	19350	19100	22000	46878971	3854	17.52	3973522	8.48	2.0668	
18900	19400	19150	22000	46878971	4109	18.68	3973267	8.48	2.2037	
18950	19450	19200	22000	46878971	4367	19.85	3973009	8.48	2.3422	
19000	19500	19250	22000	46878971	4590	20.86	3972786	8.47	2.4619	
19050	19550	19300	21955	46879016	4652	21.19	3972724	8.47	2.5003	
19100	19600	19350	21855	46879116	4803	21.98	3972573	8.47	2.5934	
19150	19650	19400	21755	46879216	4878	22.42	3972498	8.47	2.6461	
19200	19700	19450	21655	46879316	4859	22.44	3972517	8.47	2.6479	
19250	19750	19500	21555	46879416	4818	22.35	3972558	8.47	2.6377	
19300	19800	19550	21545	46879426	4820	22.37	3972556	8.47	2.6401	
19350	19850	19600	21645	46879326	4992	23.06	3972384	8.47	2.7217	
19400	19900	19650	21745	46879226	5093	23.42	3972283	8.47	2.7641	
19450	19950	19700	21845	46879126	4984	22.82	3972392	8.47	2.6925	
19500	20000	19750	21945	46879026	4777	21.77	3972599	8.47	2.5688	
19550	20050	19800	22000	46878971	4714	21.43	3972662	8.47	2.5285	
19600	20100	19850	22000	46878971	4793	21.79	3972583	8.47	2.5709	
19650	20150	19900	22000	46878971	4871	22.14	3972505	8.47	2.6128	
19700	20200	19950	22000	46878971	4989	22.68	3972387	8.47	2.6762	
19750	20250	20000	22000	46878971	5013	22.79	3972363	8.47	2.6891	
19800	20300	20050	22000	46878971	5048	22.95	3972328	8.47	2.7079	
19850	20350	20100	22000	46878971	5031	22.87	3972345	8.47	2.6988	
19900	20400	20150	22000	46878971	5088	23.13	3972288	8.47	2.7294	
19950	20450	20200	22000	46878971	5103	23.20	3972273	8.47	2.7374	
20000	20500	20250	22000	46878971	5179	23.54	3972197	8.47	2.7782	
20050	20550	20300	22000	46878971	5264	23.93	3972112	8.47	2.8239	
20100	20600	20350	22000	46878971	5185	23.57	3972191	8.47	2.7815	
20150	20650	20400	22000	46878971	5025	22.84	3972351	8.47	2.6955	
20200	20700	20450	22000	46878971	4822	21.92	3972554	8.47	2.5865	
20250	20750	20500	22000	46878971	4710	21.41	3972666	8.47	2.5264	
20300	20800	20550	22000	46878971	4629	21.04	3972747	8.47	2.4829	
20350	20850	20600	22000	46878971	4450	20.23	3972926	8.47	2.3867	
20400	20900	20650	22000	46878971	4281	19.46	3973095	8.48	2.2960	
20450	20950	20700	22000	46878971	4267	19.40	3973109	8.48	2.2885	
20500	21000	20750	22000	46878971	4184	19.02	3973192	8.48	2.2439	
20550	21050	20800	22000	46878971	4000	18.18	3973376	8.48	2.1451	
20600	21100	20850	22000	46878971	3797	17.26	3973579	8.48	2.0362	
20650	21150	20900	22000	46878971	3577	16.26	3973799	8.48	1.9181	
20700	21200	20950	22000	46878971	3366	15.30	3974010	8.48	1.8048	
20750	21250	21000	22000	46878971	3118	14.17	3974258	8.48	1.6718	
20800	21300	21050	22000	46878971	2907	13.21	3974469	8.48	1.5586	
20850	21350	21100	22000	46878971	2851	12.96	3974525	8.48	1.5285	
20900	21400	21150	22000	46878971	2801	12.73	3974575	8.48	1.5017	
20950	21450	21200	22000	46878971	2747	12.49	3974629	8.48	1.4727	
21000	21500	21250	22000	46878971	2676	12.16	3974700	8.48	1.4346	
21050	21550	21300	21986	46878985	2717	12.36	3974659	8.48	1.4575	
21100	21600	21350	21886	46879085	2798	12.78	3974578	8.48	1.5079	
21150	21650	21400	21786	46879185	2824	12.96	3974552	8.48	1.5289	
21200	21700	21450	21686	46879285	2826	13.03	3974550	8.48	1.5370	
21250	21750	21500	21586	46879385	2874	13.31	3974502	8.48	1.5704	
21300	21800	21550	21514	46879457	2815	13.08	3974561	8.48	1.5433	
21350	21850	21600	21614	46879357	2659	12.30	3974717	8.48	1.4510	
21400	21900	21650	21714	46879257	2509	11.55	3974867	8.48	1.3628	
21450	21950	21700	21814	46879157	2363	10.83	3975013	8.48	1.2775	
21500	22000	21750	21875	46879096	2247	10.27	3975129	8.48	1.2114	
21550	22050	21800	21861	46879110	2123	9.71	3975253	8.48	1.1452	
21600	22100	21850	21761	46879210	2023	9.30	3975353	8.48	1.0963	
21650	22150	21900	21661	46879310	1955	9.03	3975421	8.48	1.0643	
21700	22200	21950	21561	46879410	1918	8.90	3975458	8.48	1.0490	
21750	22250	22000	21539	46879432	1903	8.84	3975473	8.48	1.0419	
21800	22300	22050	21639	46879332	2003	9.26	3975373	8.48	1.0916	
21850	22350	22100	21739	46879232	2166	9.96	3975210	8.48	1.1750	
21900	22400	22150	21839	46879132	2248	10.29	3975128	8.48	1.2139	
21950	22450	22200	21939	46879032	2287	10.42	3975089	8.48	1.2294	
22000	22500	22250	22000	46878971	2305	10.48	3975071	8.48	1.2356	
22050	22550	22300	22000	46878971	2314	10.52	3975062	8.48	1.2404	
22100	22600	22350	22000	46878971	2313	10.51	3975063	8.48	1.2399	
22150	22650	22400	21924	46879047	2398	10.94	3974978	8.48	1.2900	
22200	22700	22450	21824	46879147	2598	11.90	3974778	8.48	1.4040	
22250	22750	22500	21724	46879247	2752	12.67	3974624	8.48	1.4941	
22300	22800	22550	21624	46879347	2752	12.73	3974624	8.48	1.5011	
22350	22850	22600	21524	46879447	2717	12.62	3974659	8.48	1.4888	
22400	22900	22650	21576	46879395	2785	12.91	3974591	8.48	1.5225	
22450	22950	22700	21676	46879295	2895	13.36	3974481	8.48	1.5753	
22500	23000	22750	21776	46879195	2902	13.33	3974474	8.48	1.5719	
22550	23050	22800	21876	46879095	2826	12.92	3974550	8.48	1.5237	
22600	23100	22850	21976	46878995	2749	12.51	3974627	8.48	1.4754	
22650	23150	22900	22000	46878971	2699	12.27	3974677	8.48	1.4470	
22700	23200	22950	22000	46878971	2699	12.27	3974677	8.48	1.4470	
22750	23250	23000	22000	46878971	2810	12.77	3974566	8.48	1.5065	
22800	23300	23050	22000	46878971	2968	13.49	3974408	8.48	1.5913	
22850	23350	23100	22000	46878971	3027	13.76	3974349	8.48	1.6229	
22900	23400	23150	22000	46878971	3060	13.91	3974316	8.48	1.6406	
22950	23450	23200	22000	46878971	3039	13.81	3974337	8.48	1.6294	
23000	23500	23250	22000	46878971	3174	14.43	3974202	8.48	1.7018	
23050	23550	23300	22000	46878971	3423	15.56	3973953	8.48	1.8354	
23100	23600	23350	22000	46878971	3631	16.50	3973745	8.48	1.9471	
23150	23650	23400	22000	46878971	3767	17.12	3973609	8.48	2.0201	
23200	23700	23450	22000	46878971	3767	17.12	3973609	8.48	2.0201	
23250	23750	23500	22000	46878971	3680	16.73	3973696	8.48	1.9734	
23300	23800	23550	22000	46878971	3615	16.43	3973761	8.48	1.9385	
23350	23850	23600	22000	46878971	3585	16.30	3973791	8.48	1.9224	
23400	23900	23650	22000	46878971	3596	16.35	3973780	8.48	1.9283	
23450	23950	23700	21901	46879070	3583	16.36	3973793	8.48	1.9300	
23500	24000	23750	21801	46879170	3667	16.82	3973709	8.48	1.9844	
23550	24050	23800	21701	46879270	3733	17.20	3973643	8.48	2.0294	
23600	24100	23850	21601	46879370	3791	17.55	3973585	8.48	2.0705	
23650	24150	23900	21501	46879470	3779	17.58	3973597	8.48	2.0736	
23700	24200	23950	21599	46879372	3878	17.95	3973498	8.48	2.1183	
23750	24250	24000	21699	46879272	3927	18.10	3973449	8.48	2.1352	
23800	24300	24050	21799	46879172	3988	18.29	3973388	8.48	2.1584	
23850	24350	24100	21899	46879072	4044	18.47	3973332	8.48	2.1788	
23900	24400	24150	21999	46878972	4055	18.43	3973321	8.48	2.1748	
23950	24450	24200	22000	46878971	4043	18.38	3973333	8.48	2.1682	
24000	24500	24250	22000	46878971	3941	17.91	3973435	8.48	2.1135	
24050	24550	24300	22000	46878971	3781	17.19	3973595	8.48	2.0276	
24100	24600	24350	22000	46878971	3549	16.13	3973827	8.48	1.9031	
24150	24650	24400	22000	46878971	3371	15.32	3974005	8.48	1.8075	
24200	24700	24450	22000	46878971	3221	14.64	3974155	8.48	1.7270	
24250	24750	24500	22000	46878971	3147	14.30	3974229	8.48	1.6873	
24300	24800	24550	22000	46878971	3140	14.27	3974236	8.48	1.6836	
24350	24850	24600	22000	46878971	3309	15.04	3974067	8.48	1.7743	
24400	24900	24650	22000	46878971	3532	16.05	3973844	8.48	1.8939	
24450	24950	24700	22000	46878971	3671	16.69	3973705	8.48	1.9685	
24500	25000	24750	22000	46878971	3791	17.23	3973585	8.48	2.0329	
