Start	End	Midpoint	Breakpoint_bp	Non_breakpoint_bp	Feature_bp_inside	%Inside	Feature_bp_outside	%Outside	Ratio
-25000	-24500	-24750	21884	46879087	4018	18.36	4414382	9.42	1.9498	
-24950	-24450	-24700	21884	46879087	4018	18.36	4414382	9.42	1.9498	
-24900	-24400	-24650	21884	46879087	4018	18.36	4414382	9.42	1.9498	
-24850	-24350	-24600	21884	46879087	4018	18.36	4414382	9.42	1.9498	
-24800	-24300	-24550	21884	46879087	4028	18.41	4414372	9.42	1.9547	
-24750	-24250	-24500	21884	46879087	4128	18.86	4414272	9.42	2.0032	
-24700	-24200	-24450	21884	46879087	4228	19.32	4414172	9.42	2.0518	
-24650	-24150	-24400	21884	46879087	4305	19.67	4414095	9.42	2.0892	
-24600	-24100	-24350	21884	46879087	4332	19.80	4414068	9.42	2.1023	
-24550	-24050	-24300	21884	46879087	4349	19.87	4414051	9.42	2.1106	
-24500	-24000	-24250	21884	46879087	4349	19.87	4414051	9.42	2.1106	
-24450	-23950	-24200	21884	46879087	4349	19.87	4414051	9.42	2.1106	
-24400	-23900	-24150	21884	46879087	4334	19.80	4414066	9.42	2.1033	
-24350	-23850	-24100	21884	46879087	4284	19.58	4414116	9.42	2.0790	
-24300	-23800	-24050	21884	46879087	4234	19.35	4414166	9.42	2.0547	
-24250	-23750	-24000	21884	46879087	4134	18.89	4414266	9.42	2.0062	
-24200	-23700	-23950	21884	46879087	4060	18.55	4414340	9.42	1.9702	
-24150	-23650	-23900	21884	46879087	4015	18.35	4414385	9.42	1.9484	
-24100	-23600	-23850	21884	46879087	3965	18.12	4414435	9.42	1.9241	
-24050	-23550	-23800	21884	46879087	3971	18.15	4414429	9.42	1.9270	
-24000	-23500	-23750	21884	46879087	4021	18.37	4414379	9.42	1.9513	
-23950	-23450	-23700	21884	46879087	4071	18.60	4414329	9.42	1.9756	
-23900	-23400	-23650	21884	46879087	4121	18.83	4414279	9.42	1.9998	
-23850	-23350	-23600	21884	46879087	4146	18.95	4414254	9.42	2.0120	
-23800	-23300	-23550	21884	46879087	4146	18.95	4414254	9.42	2.0120	
-23750	-23250	-23500	21884	46879087	4189	19.14	4414211	9.42	2.0329	
-23700	-23200	-23450	21884	46879087	4207	19.22	4414193	9.42	2.0416	
-23650	-23150	-23400	21884	46879087	4175	19.08	4414225	9.42	2.0261	
-23600	-23100	-23350	21884	46879087	4175	19.08	4414225	9.42	2.0261	
-23550	-23050	-23300	21884	46879087	4146	18.95	4414254	9.42	2.0120	
-23500	-23000	-23250	21884	46879087	4096	18.72	4414304	9.42	1.9877	
-23450	-22950	-23200	21884	46879087	4081	18.65	4414319	9.42	1.9804	
-23400	-22900	-23150	21884	46879087	4040	18.46	4414360	9.42	1.9605	
-23350	-22850	-23100	21884	46879087	4015	18.35	4414385	9.42	1.9484	
-23300	-22800	-23050	21884	46879087	3954	18.07	4414446	9.42	1.9187	
-23250	-22750	-23000	21884	46879087	3811	17.41	4414589	9.42	1.8493	
-23200	-22700	-22950	21884	46879087	3642	16.64	4414758	9.42	1.7672	
-23150	-22650	-22900	21884	46879087	3515	16.06	4414885	9.42	1.7055	
-23100	-22600	-22850	21884	46879087	3415	15.61	4414985	9.42	1.6570	
-23050	-22550	-22800	21884	46879087	3315	15.15	4415085	9.42	1.6084	
-23000	-22500	-22750	21884	46879087	3215	14.69	4415185	9.42	1.5599	
-22950	-22450	-22700	21884	46879087	3098	14.16	4415302	9.42	1.5031	
-22900	-22400	-22650	21884	46879087	3039	13.89	4415361	9.42	1.4744	
-22850	-22350	-22600	21884	46879087	2989	13.66	4415411	9.42	1.4501	
-22800	-22300	-22550	21884	46879087	3041	13.90	4415359	9.42	1.4754	
-22750	-22250	-22500	21884	46879087	3141	14.35	4415259	9.42	1.5239	
-22700	-22200	-22450	21884	46879087	3292	15.04	4415108	9.42	1.5972	
-22650	-22150	-22400	21884	46879087	3469	15.85	4414931	9.42	1.6832	
-22600	-22100	-22350	21884	46879087	3619	16.54	4414781	9.42	1.7560	
-22550	-22050	-22300	21884	46879087	3769	17.22	4414631	9.42	1.8289	
-22500	-22000	-22250	21884	46879087	3919	17.91	4414481	9.42	1.9017	
-22450	-21950	-22200	21884	46879087	4051	18.51	4414349	9.42	1.9658	
-22400	-21900	-22150	21884	46879087	4102	18.74	4414298	9.42	1.9906	
-22350	-21850	-22100	21884	46879087	4152	18.97	4414248	9.42	2.0149	
-22300	-21800	-22050	21884	46879087	4161	19.01	4414239	9.42	2.0193	
-22250	-21750	-22000	21884	46879087	4138	18.91	4414262	9.42	2.0081	
-22200	-21700	-21950	21884	46879087	4062	18.56	4414338	9.42	1.9712	
-22150	-21650	-21900	21884	46879087	4006	18.31	4414394	9.42	1.9440	
-22100	-21600	-21850	21884	46879087	3956	18.08	4414444	9.42	1.9197	
-22050	-21550	-21800	21884	46879087	3906	17.85	4414494	9.42	1.8954	
-22000	-21500	-21750	21884	46879087	3881	17.73	4414519	9.42	1.8833	
-21950	-21450	-21700	21884	46879087	3881	17.73	4414519	9.42	1.8833	
-21900	-21400	-21650	21884	46879087	3881	17.73	4414519	9.42	1.8833	
-21850	-21350	-21600	21884	46879087	3881	17.73	4414519	9.42	1.8833	
-21800	-21300	-21550	21884	46879087	3881	17.73	4414519	9.42	1.8833	
-21750	-21250	-21500	21884	46879087	3904	17.84	4414496	9.42	1.8944	
-21700	-21200	-21450	21884	46879087	3954	18.07	4414446	9.42	1.9187	
-21650	-21150	-21400	21884	46879087	3960	18.10	4414440	9.42	1.9216	
-21600	-21100	-21350	21884	46879087	3960	18.10	4414440	9.42	1.9216	
-21550	-21050	-21300	21884	46879087	3975	18.16	4414425	9.42	1.9289	
-21500	-21000	-21250	21884	46879087	4049	18.50	4414351	9.42	1.9649	
-21450	-20950	-21200	21884	46879087	4099	18.73	4414301	9.42	1.9892	
-21400	-20900	-21150	21884	46879087	4176	19.08	4414224	9.42	2.0266	
-21350	-20850	-21100	21884	46879087	4250	19.42	4414150	9.42	2.0625	
-21300	-20800	-21050	21884	46879087	4300	19.65	4414100	9.42	2.0868	
-21250	-20750	-21000	21884	46879087	4281	19.56	4414119	9.42	2.0776	
-21200	-20700	-20950	21884	46879087	4231	19.33	4414169	9.42	2.0533	
-21150	-20650	-20900	21884	46879087	4181	19.11	4414219	9.42	2.0290	
-21100	-20600	-20850	21884	46879087	4131	18.88	4414269	9.42	2.0047	
-21050	-20550	-20800	21884	46879087	4081	18.65	4414319	9.42	1.9804	
-21000	-20500	-20750	21884	46879087	4031	18.42	4414369	9.42	1.9561	
-20950	-20450	-20700	21884	46879087	3954	18.07	4414446	9.42	1.9187	
-20900	-20400	-20650	21884	46879087	3827	17.49	4414573	9.42	1.8570	
-20850	-20350	-20600	21884	46879087	3703	16.92	4414697	9.42	1.7968	
-20800	-20300	-20550	21884	46879087	3603	16.46	4414797	9.42	1.7483	
-20750	-20250	-20500	21884	46879087	3621	16.55	4414779	9.42	1.7570	
-20700	-20200	-20450	21884	46879087	3671	16.77	4414729	9.42	1.7813	
-20650	-20150	-20400	21884	46879087	3706	16.93	4414694	9.42	1.7983	
-20600	-20100	-20350	21884	46879087	3706	16.93	4414694	9.42	1.7983	
-20550	-20050	-20300	21884	46879087	3712	16.96	4414688	9.42	1.8012	
-20500	-20000	-20250	21884	46879087	3762	17.19	4414638	9.42	1.8255	
-20450	-19950	-20200	21884	46879087	3839	17.54	4414561	9.42	1.8629	
-20400	-19900	-20150	21884	46879087	3939	18.00	4414461	9.42	1.9114	
-20350	-19850	-20100	21884	46879087	4049	18.50	4414351	9.42	1.9649	
-20300	-19800	-20050	21884	46879087	4199	19.19	4414201	9.42	2.0377	
-20250	-19750	-20000	21884	46879087	4300	19.65	4414100	9.42	2.0868	
-20200	-19700	-19950	21884	46879087	4400	20.11	4414000	9.42	2.1354	
-20150	-19650	-19900	21884	46879087	4516	20.64	4413884	9.42	2.1917	
-20100	-19600	-19850	21884	46879087	4616	21.09	4413784	9.42	2.2403	
-20050	-19550	-19800	21884	46879087	4710	21.52	4413690	9.42	2.2860	
-20000	-19500	-19750	21884	46879087	4760	21.75	4413640	9.41	2.3103	
-19950	-19450	-19700	21884	46879087	4810	21.98	4413590	9.41	2.3346	
-19900	-19400	-19650	21884	46879087	4860	22.21	4413540	9.41	2.3589	
-19850	-19350	-19600	21884	46879087	4900	22.39	4413500	9.41	2.3783	
-19800	-19300	-19550	21884	46879087	4900	22.39	4413500	9.41	2.3783	
-19750	-19250	-19500	21884	46879087	4900	22.39	4413500	9.41	2.3783	
-19700	-19200	-19450	21884	46879087	4900	22.39	4413500	9.41	2.3783	
-19650	-19150	-19400	21884	46879087	4884	22.32	4413516	9.41	2.3705	
-19600	-19100	-19350	21884	46879087	4884	22.32	4413516	9.41	2.3705	
-19550	-19050	-19300	21884	46879087	4884	22.32	4413516	9.41	2.3705	
-19500	-19000	-19250	21884	46879087	4884	22.32	4413516	9.41	2.3705	
-19450	-18950	-19200	21884	46879087	4884	22.32	4413516	9.41	2.3705	
-19400	-18900	-19150	21884	46879087	4852	22.17	4413548	9.41	2.3550	
-19350	-18850	-19100	21884	46879087	4852	22.17	4413548	9.41	2.3550	
-19300	-18800	-19050	21884	46879087	4852	22.17	4413548	9.41	2.3550	
-19250	-18750	-19000	21884	46879087	4852	22.17	4413548	9.41	2.3550	
-19200	-18700	-18950	21884	46879087	4802	21.94	4413598	9.41	2.3307	
-19150	-18650	-18900	21884	46879087	4752	21.71	4413648	9.41	2.3064	
-19100	-18600	-18850	21884	46879087	4702	21.49	4413698	9.42	2.2821	
-19050	-18550	-18800	21884	46879087	4646	21.23	4413754	9.42	2.2549	
-19000	-18500	-18750	21884	46879087	4546	20.77	4413854	9.42	2.2063	
-18950	-18450	-18700	21884	46879087	4397	20.09	4414003	9.42	2.1339	
-18900	-18400	-18650	21884	46879087	4279	19.55	4414121	9.42	2.0766	
-18850	-18350	-18600	21884	46879087	4129	18.87	4414271	9.42	2.0037	
-18800	-18300	-18550	21884	46879087	3930	17.96	4414470	9.42	1.9071	
-18750	-18250	-18500	21884	46879087	3780	17.27	4414620	9.42	1.8342	
-18700	-18200	-18450	21884	46879087	3680	16.82	4414720	9.42	1.7857	
-18650	-18150	-18400	21884	46879087	3580	16.36	4414820	9.42	1.7371	
-18600	-18100	-18350	21884	46879087	3480	15.90	4414920	9.42	1.6885	
-18550	-18050	-18300	21884	46879087	3386	15.47	4415014	9.42	1.6429	
-18500	-18000	-18250	21884	46879087	3359	15.35	4415041	9.42	1.6298	
-18450	-17950	-18200	21884	46879087	3359	15.35	4415041	9.42	1.6298	
-18400	-17900	-18150	21884	46879087	3359	15.35	4415041	9.42	1.6298	
-18350	-17850	-18100	21884	46879087	3359	15.35	4415041	9.42	1.6298	
-18300	-17800	-18050	21884	46879087	3408	15.57	4414992	9.42	1.6536	
-18250	-17750	-18000	21884	46879087	3398	15.53	4415002	9.42	1.6487	
-18200	-17700	-17950	21884	46879087	3348	15.30	4415052	9.42	1.6244	
-18150	-17650	-17900	21884	46879087	3298	15.07	4415102	9.42	1.6002	
-18100	-17600	-17850	21884	46879087	3298	15.07	4415102	9.42	1.6002	
-18050	-17550	-17800	21884	46879087	3348	15.30	4415052	9.42	1.6244	
-18000	-17500	-17750	21884	46879087	3375	15.42	4415025	9.42	1.6375	
-17950	-17450	-17700	21884	46879087	3375	15.42	4415025	9.42	1.6375	
-17900	-17400	-17650	21884	46879087	3362	15.36	4415038	9.42	1.6312	
-17850	-17350	-17600	21884	46879087	3312	15.13	4415088	9.42	1.6070	
-17800	-17300	-17550	21884	46879087	3262	14.91	4415138	9.42	1.5827	
-17750	-17250	-17500	21884	46879087	3222	14.72	4415178	9.42	1.5633	
-17700	-17200	-17450	21884	46879087	3222	14.72	4415178	9.42	1.5633	
-17650	-17150	-17400	21884	46879087	3232	14.77	4415168	9.42	1.5681	
-17600	-17100	-17350	21884	46879087	3247	14.84	4415153	9.42	1.5754	
-17550	-17050	-17300	21884	46879087	3247	14.84	4415153	9.42	1.5754	
-17500	-17000	-17250	21884	46879087	3247	14.84	4415153	9.42	1.5754	
-17450	-16950	-17200	21884	46879087	3247	14.84	4415153	9.42	1.5754	
-17400	-16900	-17150	21884	46879087	3210	14.67	4415190	9.42	1.5574	
-17350	-16850	-17100	21884	46879087	3200	14.62	4415200	9.42	1.5526	
-17300	-16800	-17050	21884	46879087	3150	14.39	4415250	9.42	1.5283	
-17250	-16750	-17000	21884	46879087	3100	14.17	4415300	9.42	1.5040	
-17200	-16700	-16950	21884	46879087	3050	13.94	4415350	9.42	1.4797	
-17150	-16650	-16900	21884	46879087	2990	13.66	4415410	9.42	1.4506	
-17100	-16600	-16850	21884	46879087	2872	13.12	4415528	9.42	1.3933	
-17050	-16550	-16800	21884	46879087	2687	12.28	4415713	9.42	1.3035	
-17000	-16500	-16750	21884	46879087	2536	11.59	4415864	9.42	1.2302	
-16950	-16450	-16700	21884	46879087	2386	10.90	4416014	9.42	1.1574	
-16900	-16400	-16650	21884	46879087	2313	10.57	4416087	9.42	1.1220	
-16850	-16350	-16600	21884	46879087	2302	10.52	4416098	9.42	1.1167	
-16800	-16300	-16550	21884	46879087	2352	10.75	4416048	9.42	1.1409	
-16750	-16250	-16500	21884	46879087	2402	10.98	4415998	9.42	1.1652	
-16700	-16200	-16450	21884	46879087	2409	11.01	4415991	9.42	1.1686	
-16650	-16150	-16400	21884	46879087	2409	11.01	4415991	9.42	1.1686	
-16600	-16100	-16350	21884	46879087	2427	11.09	4415973	9.42	1.1773	
-16550	-16050	-16300	21884	46879087	2512	11.48	4415888	9.42	1.2186	
-16500	-16000	-16250	21884	46879087	2662	12.16	4415738	9.42	1.2914	
-16450	-15950	-16200	21884	46879087	2845	13.00	4415555	9.42	1.3802	
-16400	-15900	-16150	21884	46879087	3031	13.85	4415369	9.42	1.4705	
-16350	-15850	-16100	21884	46879087	3202	14.63	4415198	9.42	1.5535	
-16300	-15800	-16050	21884	46879087	3352	15.32	4415048	9.42	1.6264	
-16250	-15750	-16000	21884	46879087	3453	15.78	4414947	9.42	1.6754	
-16200	-15700	-15950	21884	46879087	3596	16.43	4414804	9.42	1.7449	
-16150	-15650	-15900	21884	46879087	3731	17.05	4414669	9.42	1.8104	
-16100	-15600	-15850	21884	46879087	3818	17.45	4414582	9.42	1.8527	
-16050	-15550	-15800	21884	46879087	3868	17.68	4414532	9.42	1.8770	
-16000	-15500	-15750	21884	46879087	3868	17.68	4414532	9.42	1.8770	
-15950	-15450	-15700	21884	46879087	3835	17.52	4414565	9.42	1.8609	
-15900	-15400	-15650	21884	46879087	3772	17.24	4414628	9.42	1.8303	
-15850	-15350	-15600	21884	46879087	3645	16.66	4414755	9.42	1.7687	
-15800	-15300	-15550	21884	46879087	3495	15.97	4414905	9.42	1.6958	
-15750	-15250	-15500	21884	46879087	3345	15.29	4415055	9.42	1.6230	
-15700	-15200	-15450	21884	46879087	3195	14.60	4415205	9.42	1.5501	
-15650	-15150	-15400	21884	46879087	3016	13.78	4415384	9.42	1.4632	
-15600	-15100	-15350	21884	46879087	2829	12.93	4415571	9.42	1.3725	
-15550	-15050	-15300	21884	46879087	2679	12.24	4415721	9.42	1.2996	
-15500	-15000	-15250	21884	46879087	2555	11.68	4415845	9.42	1.2395	
-15450	-14950	-15200	21884	46879087	2455	11.22	4415945	9.42	1.1909	
-15400	-14900	-15150	21884	46879087	2370	10.83	4416030	9.42	1.1497	
-15350	-14850	-15100	21884	46879087	2347	10.72	4416053	9.42	1.1385	
-15300	-14800	-15050	21884	46879087	2347	10.72	4416053	9.42	1.1385	
-15250	-14750	-15000	21884	46879087	2347	10.72	4416053	9.42	1.1385	
-15200	-14700	-14950	21884	46879087	2376	10.86	4416024	9.42	1.1526	
-15150	-14650	-14900	21884	46879087	2455	11.22	4415945	9.42	1.1909	
-15100	-14600	-14850	21884	46879087	2555	11.68	4415845	9.42	1.2395	
-15050	-14550	-14800	21884	46879087	2655	12.13	4415745	9.42	1.2880	
-15000	-14500	-14750	21884	46879087	2729	12.47	4415671	9.42	1.3239	
-14950	-14450	-14700	21884	46879087	2746	12.55	4415654	9.42	1.3322	
-14900	-14400	-14650	21884	46879087	2746	12.55	4415654	9.42	1.3322	
-14850	-14350	-14600	21884	46879087	2721	12.43	4415679	9.42	1.3200	
-14800	-14300	-14550	21884	46879087	2721	12.43	4415679	9.42	1.3200	
-14750	-14250	-14500	21884	46879087	2721	12.43	4415679	9.42	1.3200	
-14700	-14200	-14450	21884	46879087	2692	12.30	4415708	9.42	1.3060	
-14650	-14150	-14400	21884	46879087	2642	12.07	4415758	9.42	1.2817	
-14600	-14100	-14350	21884	46879087	2592	11.84	4415808	9.42	1.2574	
-14550	-14050	-14300	21884	46879087	2542	11.62	4415858	9.42	1.2331	
-14500	-14000	-14250	21884	46879087	2492	11.39	4415908	9.42	1.2089	
-14450	-13950	-14200	21884	46879087	2475	11.31	4415925	9.42	1.2006	
-14400	-13900	-14150	21884	46879087	2475	11.31	4415925	9.42	1.2006	
-14350	-13850	-14100	21884	46879087	2500	11.42	4415900	9.42	1.2128	
-14300	-13800	-14050	21884	46879087	2500	11.42	4415900	9.42	1.2128	
-14250	-13750	-14000	21884	46879087	2475	11.31	4415925	9.42	1.2006	
-14200	-13700	-13950	21884	46879087	2425	11.08	4415975	9.42	1.1764	
-14150	-13650	-13900	21884	46879087	2375	10.85	4416025	9.42	1.1521	
-14100	-13600	-13850	21884	46879087	2325	10.62	4416075	9.42	1.1278	
-14050	-13550	-13800	21884	46879087	2313	10.57	4416087	9.42	1.1220	
-14000	-13500	-13750	21884	46879087	2313	10.57	4416087	9.42	1.1220	
-13950	-13450	-13700	21884	46879087	2313	10.57	4416087	9.42	1.1220	
-13900	-13400	-13650	21884	46879087	2313	10.57	4416087	9.42	1.1220	
-13850	-13350	-13600	21884	46879087	2358	10.77	4416042	9.42	1.1438	
-13800	-13300	-13550	21884	46879087	2408	11.00	4415992	9.42	1.1681	
-13750	-13250	-13500	21884	46879087	2483	11.35	4415917	9.42	1.2045	
-13700	-13200	-13450	21884	46879087	2583	11.80	4415817	9.42	1.2530	
-13650	-13150	-13400	21884	46879087	2683	12.26	4415717	9.42	1.3016	
-13600	-13100	-13350	21884	46879087	2783	12.72	4415617	9.42	1.3501	
-13550	-13050	-13300	21884	46879087	2858	13.06	4415542	9.42	1.3865	
-13500	-13000	-13250	21884	46879087	2958	13.52	4415442	9.42	1.4351	
-13450	-12950	-13200	21884	46879087	3058	13.97	4415342	9.42	1.4836	
-13400	-12900	-13150	21884	46879087	3132	14.31	4415268	9.42	1.5196	
-13350	-12850	-13100	21884	46879087	3137	14.33	4415263	9.42	1.5220	
-13300	-12800	-13050	21884	46879087	3137	14.33	4415263	9.42	1.5220	
-13250	-12750	-13000	21884	46879087	3137	14.33	4415263	9.42	1.5220	
-13200	-12700	-12950	21884	46879087	3137	14.33	4415263	9.42	1.5220	
-13150	-12650	-12900	21884	46879087	3099	14.16	4415301	9.42	1.5035	
-13100	-12600	-12850	21884	46879087	3049	13.93	4415351	9.42	1.4793	
-13050	-12550	-12800	21884	46879087	2986	13.64	4415414	9.42	1.4487	
-13000	-12500	-12750	21884	46879087	2886	13.19	4415514	9.42	1.4001	
-12950	-12450	-12700	21884	46879087	2741	12.53	4415659	9.42	1.3297	
-12900	-12400	-12650	21884	46879087	2576	11.77	4415824	9.42	1.2496	
-12850	-12350	-12600	21884	46879087	2482	11.34	4415918	9.42	1.2040	
-12800	-12300	-12550	21884	46879087	2403	10.98	4415997	9.42	1.1657	
-12750	-12250	-12500	21884	46879087	2303	10.52	4416097	9.42	1.1171	
-12700	-12200	-12450	21884	46879087	2203	10.07	4416197	9.42	1.0686	
-12650	-12150	-12400	21884	46879087	2141	9.78	4416259	9.42	1.0385	
-12600	-12100	-12350	21884	46879087	2091	9.55	4416309	9.42	1.0143	
-12550	-12050	-12300	21884	46879087	2041	9.33	4416359	9.42	0.9900	
-12500	-12000	-12250	21884	46879087	1991	9.10	4416409	9.42	0.9657	
-12450	-11950	-12200	21884	46879087	1986	9.08	4416414	9.42	0.9633	
-12400	-11900	-12150	21884	46879087	2006	9.17	4416394	9.42	0.9730	
-12350	-11850	-12100	21884	46879087	1950	8.91	4416450	9.42	0.9458	
-12300	-11800	-12050	21884	46879087	1879	8.59	4416521	9.42	0.9114	
-12250	-11750	-12000	21884	46879087	1829	8.36	4416571	9.42	0.8871	
-12200	-11700	-11950	21884	46879087	1779	8.13	4416621	9.42	0.8629	
-12150	-11650	-11900	21884	46879087	1729	7.90	4416671	9.42	0.8386	
-12100	-11600	-11850	21884	46879087	1679	7.67	4416721	9.42	0.8143	
-12050	-11550	-11800	21884	46879087	1629	7.44	4416771	9.42	0.7901	
-12000	-11500	-11750	21884	46879087	1579	7.22	4416821	9.42	0.7658	
-11950	-11450	-11700	21884	46879087	1529	6.99	4416871	9.42	0.7416	
-11900	-11400	-11650	21884	46879087	1500	6.85	4416900	9.42	0.7275	
-11850	-11350	-11600	21884	46879087	1500	6.85	4416900	9.42	0.7275	
-11800	-11300	-11550	21884	46879087	1465	6.69	4416935	9.42	0.7105	
-11750	-11250	-11500	21884	46879087	1415	6.47	4416985	9.42	0.6863	
-11700	-11200	-11450	21884	46879087	1365	6.24	4417035	9.42	0.6620	
-11650	-11150	-11400	21884	46879087	1315	6.01	4417085	9.42	0.6377	
-11600	-11100	-11350	21884	46879087	1265	5.78	4417135	9.42	0.6135	
-11550	-11050	-11300	21884	46879087	1215	5.55	4417185	9.42	0.5892	
-11500	-11000	-11250	21884	46879087	1186	5.42	4417214	9.42	0.5752	
-11450	-10950	-11200	21884	46879087	1231	5.63	4417169	9.42	0.5970	
-11400	-10900	-11150	21884	46879087	1281	5.85	4417119	9.42	0.6212	
-11350	-10850	-11100	21884	46879087	1331	6.08	4417069	9.42	0.6455	
-11300	-10800	-11050	21884	46879087	1416	6.47	4416984	9.42	0.6867	
-11250	-10750	-11000	21884	46879087	1516	6.93	4416884	9.42	0.7353	
-11200	-10700	-10950	21884	46879087	1616	7.38	4416784	9.42	0.7838	
-11150	-10650	-10900	21884	46879087	1716	7.84	4416684	9.42	0.8323	
-11100	-10600	-10850	21884	46879087	1816	8.30	4416584	9.42	0.8808	
-11050	-10550	-10800	21884	46879087	1916	8.76	4416484	9.42	0.9293	
-11000	-10500	-10750	21884	46879087	1995	9.12	4416405	9.42	0.9677	
-10950	-10450	-10700	21884	46879087	2000	9.14	4416400	9.42	0.9701	
-10900	-10400	-10650	21884	46879087	2000	9.14	4416400	9.42	0.9701	
-10850	-10350	-10600	21884	46879087	2041	9.33	4416359	9.42	0.9900	
-10800	-10300	-10550	21884	46879087	2091	9.55	4416309	9.42	1.0143	
-10750	-10250	-10500	21884	46879087	2141	9.78	4416259	9.42	1.0385	
-10700	-10200	-10450	21884	46879087	2191	10.01	4416209	9.42	1.0628	
-10650	-10150	-10400	21884	46879087	2241	10.24	4416159	9.42	1.0871	
-10600	-10100	-10350	21884	46879087	2270	10.37	4416130	9.42	1.1011	
-10550	-10050	-10300	21884	46879087	2270	10.37	4416130	9.42	1.1011	
-10500	-10000	-10250	21884	46879087	2270	10.37	4416130	9.42	1.1011	
-10450	-9950	-10200	21884	46879087	2270	10.37	4416130	9.42	1.1011	
-10400	-9900	-10150	21884	46879087	2270	10.37	4416130	9.42	1.1011	
-10350	-9850	-10100	21884	46879087	2229	10.19	4416171	9.42	1.0812	
-10300	-9800	-10050	21884	46879087	2179	9.96	4416221	9.42	1.0570	
-10250	-9750	-10000	21884	46879087	2129	9.73	4416271	9.42	1.0327	
-10200	-9700	-9950	21884	46879087	2079	9.50	4416321	9.42	1.0084	
-10150	-9650	-9900	21884	46879087	2029	9.27	4416371	9.42	0.9842	
-10100	-9600	-9850	21884	46879087	2000	9.14	4416400	9.42	0.9701	
-10050	-9550	-9800	21884	46879087	2000	9.14	4416400	9.42	0.9701	
-10000	-9500	-9750	21884	46879087	2000	9.14	4416400	9.42	0.9701	
-9950	-9450	-9700	21884	46879087	2000	9.14	4416400	9.42	0.9701	
-9900	-9400	-9650	21884	46879087	2000	9.14	4416400	9.42	0.9701	
-9850	-9350	-9600	21884	46879087	2021	9.24	4416379	9.42	0.9803	
-9800	-9300	-9550	21884	46879087	2055	9.39	4416345	9.42	0.9968	
-9750	-9250	-9500	21884	46879087	2105	9.62	4416295	9.42	1.0210	
-9700	-9200	-9450	21884	46879087	2155	9.85	4416245	9.42	1.0453	
-9650	-9150	-9400	21884	46879087	2141	9.78	4416259	9.42	1.0385	
-9600	-9100	-9350	21884	46879087	2091	9.55	4416309	9.42	1.0143	
-9550	-9050	-9300	21884	46879087	2041	9.33	4416359	9.42	0.9900	
-9500	-9000	-9250	21884	46879087	1991	9.10	4416409	9.42	0.9657	
-9450	-8950	-9200	21884	46879087	1941	8.87	4416459	9.42	0.9415	
-9400	-8900	-9150	21884	46879087	1915	8.75	4416485	9.42	0.9288	
-9350	-8850	-9100	21884	46879087	1894	8.65	4416506	9.42	0.9187	
-9300	-8800	-9050	21884	46879087	1860	8.50	4416540	9.42	0.9022	
-9250	-8750	-9000	21884	46879087	1810	8.27	4416590	9.42	0.8779	
-9200	-8700	-8950	21884	46879087	1760	8.04	4416640	9.42	0.8536	
-9150	-8650	-8900	21884	46879087	1774	8.11	4416626	9.42	0.8604	
-9100	-8600	-8850	21884	46879087	1824	8.33	4416576	9.42	0.8847	
-9050	-8550	-8800	21884	46879087	1884	8.61	4416516	9.42	0.9138	
-9000	-8500	-8750	21884	46879087	1934	8.84	4416466	9.42	0.9381	
-8950	-8450	-8700	21884	46879087	1984	9.07	4416416	9.42	0.9623	
-8900	-8400	-8650	21884	46879087	1981	9.05	4416419	9.42	0.9609	
-8850	-8350	-8600	21884	46879087	1931	8.82	4416469	9.42	0.9366	
-8800	-8300	-8550	21884	46879087	1857	8.49	4416543	9.42	0.9007	
-8750	-8250	-8500	21884	46879087	1757	8.03	4416643	9.42	0.8522	
-8700	-8200	-8450	21884	46879087	1657	7.57	4416743	9.42	0.8037	
-8650	-8150	-8400	21884	46879087	1557	7.11	4416843	9.42	0.7551	
-8600	-8100	-8350	21884	46879087	1470	6.72	4416930	9.42	0.7129	
-8550	-8050	-8300	21884	46879087	1410	6.44	4416990	9.42	0.6838	
-8500	-8000	-8250	21884	46879087	1360	6.21	4417040	9.42	0.6596	
-8450	-7950	-8200	21884	46879087	1310	5.99	4417090	9.42	0.6353	
-8400	-7900	-8150	21884	46879087	1289	5.89	4417111	9.42	0.6251	
-8350	-7850	-8100	21884	46879087	1289	5.89	4417111	9.42	0.6251	
-8300	-7800	-8050	21884	46879087	1313	6.00	4417087	9.42	0.6368	
-8250	-7750	-8000	21884	46879087	1363	6.23	4417037	9.42	0.6610	
-8200	-7700	-7950	21884	46879087	1413	6.46	4416987	9.42	0.6853	
-8150	-7650	-7900	21884	46879087	1527	6.98	4416873	9.42	0.7406	
-8100	-7600	-7850	21884	46879087	1664	7.60	4416736	9.42	0.8071	
-8050	-7550	-7800	21884	46879087	1764	8.06	4416636	9.42	0.8556	
-8000	-7500	-7750	21884	46879087	1841	8.41	4416559	9.42	0.8929	
-7950	-7450	-7700	21884	46879087	1891	8.64	4416509	9.42	0.9172	
-7900	-7400	-7650	21884	46879087	1941	8.87	4416459	9.42	0.9415	
-7850	-7350	-7600	21884	46879087	1986	9.08	4416414	9.42	0.9633	
-7800	-7300	-7550	21884	46879087	2036	9.30	4416364	9.42	0.9876	
-7750	-7250	-7500	21884	46879087	2086	9.53	4416314	9.42	1.0118	
-7700	-7200	-7450	21884	46879087	2136	9.76	4416264	9.42	1.0361	
-7650	-7150	-7400	21884	46879087	2122	9.70	4416278	9.42	1.0293	
-7600	-7100	-7350	21884	46879087	2072	9.47	4416328	9.42	1.0050	
-7550	-7050	-7300	21884	46879087	2067	9.45	4416333	9.42	1.0026	
-7500	-7000	-7250	21884	46879087	2090	9.55	4416310	9.42	1.0138	
-7450	-6950	-7200	21884	46879087	2140	9.78	4416260	9.42	1.0380	
-7400	-6900	-7150	21884	46879087	2190	10.01	4416210	9.42	1.0623	
-7350	-6850	-7100	21884	46879087	2245	10.26	4416155	9.42	1.0890	
-7300	-6800	-7050	21884	46879087	2328	10.64	4416072	9.42	1.1293	
-7250	-6750	-7000	21884	46879087	2428	11.09	4415972	9.42	1.1778	
-7200	-6700	-6950	21884	46879087	2528	11.55	4415872	9.42	1.2263	
-7150	-6650	-6900	21884	46879087	2628	12.01	4415772	9.42	1.2749	
-7100	-6600	-6850	21884	46879087	2728	12.47	4415672	9.42	1.3234	
-7050	-6550	-6800	21884	46879087	2827	12.92	4415573	9.42	1.3715	
-7000	-6500	-6750	21884	46879087	2954	13.50	4415446	9.42	1.4331	
-6950	-6450	-6700	21884	46879087	3104	14.18	4415296	9.42	1.5060	
-6900	-6400	-6650	21884	46879087	3254	14.87	4415146	9.42	1.5788	
-6850	-6350	-6600	21884	46879087	3404	15.55	4414996	9.42	1.6516	
-6800	-6300	-6550	21884	46879087	3521	16.09	4414879	9.42	1.7084	
-6750	-6250	-6500	21884	46879087	3621	16.55	4414779	9.42	1.7570	
-6700	-6200	-6450	21884	46879087	3759	17.18	4414641	9.42	1.8240	
-6650	-6150	-6400	21884	46879087	3909	17.86	4414491	9.42	1.8969	
-6600	-6100	-6350	21884	46879087	4059	18.55	4414341	9.42	1.9697	
-6550	-6050	-6300	21884	46879087	4127	18.86	4414273	9.42	2.0028	
-6500	-6000	-6250	21884	46879087	4105	18.76	4414295	9.42	1.9921	
-6450	-5950	-6200	21884	46879087	4055	18.53	4414345	9.42	1.9678	
-6400	-5900	-6150	21884	46879087	4005	18.30	4414395	9.42	1.9435	
-6350	-5850	-6100	21884	46879087	3942	18.01	4414458	9.42	1.9129	
-6300	-5800	-6050	21884	46879087	3842	17.56	4414558	9.42	1.8643	
-6250	-5750	-6000	21884	46879087	3742	17.10	4414658	9.42	1.8158	
-6200	-5700	-5950	21884	46879087	3604	16.47	4414796	9.42	1.7487	
-6150	-5650	-5900	21884	46879087	3454	15.78	4414946	9.42	1.6759	
-6100	-5600	-5850	21884	46879087	3304	15.10	4415096	9.42	1.6031	
-6050	-5550	-5800	21884	46879087	3192	14.59	4415208	9.42	1.5487	
-6000	-5500	-5750	21884	46879087	3137	14.33	4415263	9.42	1.5220	
-5950	-5450	-5700	21884	46879087	3066	14.01	4415334	9.42	1.4875	
-5900	-5400	-5650	21884	46879087	2966	13.55	4415434	9.42	1.4390	
-5850	-5350	-5600	21884	46879087	2879	13.16	4415521	9.42	1.3967	
-5800	-5300	-5550	21884	46879087	2829	12.93	4415571	9.42	1.3725	
-5750	-5250	-5500	21884	46879087	2792	12.76	4415608	9.42	1.3545	
-5700	-5200	-5450	21884	46879087	2792	12.76	4415608	9.42	1.3545	
-5650	-5150	-5400	21884	46879087	2800	12.79	4415600	9.42	1.3584	
-5600	-5100	-5350	21884	46879087	2800	12.79	4415600	9.42	1.3584	
-5550	-5050	-5300	21884	46879087	2800	12.79	4415600	9.42	1.3584	
-5500	-5000	-5250	21871	46879100	2800	12.80	4415600	9.42	1.3592	
-5450	-4950	-5200	21771	46879200	2821	12.96	4415579	9.42	1.3757	
-5400	-4900	-5150	21671	46879300	2871	13.25	4415529	9.42	1.4065	
-5350	-4850	-5100	21571	46879400	2921	13.54	4415479	9.42	1.4377	
-5300	-4800	-5050	21471	46879500	2942	13.70	4415458	9.42	1.4548	
-5250	-4750	-5000	21397	46879574	2929	13.69	4415471	9.42	1.4534	
-5200	-4700	-4950	21497	46879474	2879	13.39	4415521	9.42	1.4219	
-5150	-4650	-4900	21597	46879374	2821	13.06	4415579	9.42	1.3868	
-5100	-4600	-4850	21697	46879274	2771	12.77	4415629	9.42	1.3559	
-5050	-4550	-4800	21797	46879174	2721	12.48	4415679	9.42	1.3253	
-5000	-4500	-4750	21884	46879087	2671	12.21	4415729	9.42	1.2958	
-4950	-4450	-4700	21884	46879087	2621	11.98	4415779	9.42	1.2715	
-4900	-4400	-4650	21884	46879087	2571	11.75	4415829	9.42	1.2472	
-4850	-4350	-4600	21884	46879087	2521	11.52	4415879	9.42	1.2229	
-4800	-4300	-4550	21884	46879087	2500	11.42	4415900	9.42	1.2128	
-4750	-4250	-4500	21884	46879087	2500	11.42	4415900	9.42	1.2128	
-4700	-4200	-4450	21884	46879087	2500	11.42	4415900	9.42	1.2128	
-4650	-4150	-4400	21884	46879087	2500	11.42	4415900	9.42	1.2128	
-4600	-4100	-4350	21884	46879087	2432	11.11	4415968	9.42	1.1798	
-4550	-4050	-4300	21884	46879087	2377	10.86	4416023	9.42	1.1531	
-4500	-4000	-4250	21884	46879087	2327	10.63	4416073	9.42	1.1288	
-4450	-3950	-4200	21884	46879087	2277	10.40	4416123	9.42	1.1045	
-4400	-3900	-4150	21884	46879087	2227	10.18	4416173	9.42	1.0803	
-4350	-3850	-4100	21884	46879087	2177	9.95	4416223	9.42	1.0560	
-4300	-3800	-4050	21884	46879087	2160	9.87	4416240	9.42	1.0477	
-4250	-3750	-4000	21884	46879087	2160	9.87	4416240	9.42	1.0477	
-4200	-3700	-3950	21884	46879087	2160	9.87	4416240	9.42	1.0477	
-4150	-3650	-3900	21884	46879087	2160	9.87	4416240	9.42	1.0477	
-4100	-3600	-3850	21884	46879087	2228	10.18	4416172	9.42	1.0807	
-4050	-3550	-3800	21884	46879087	2283	10.43	4416117	9.42	1.1074	
-4000	-3500	-3750	21884	46879087	2333	10.66	4416067	9.42	1.1317	
-3950	-3450	-3700	21884	46879087	2383	10.89	4416017	9.42	1.1560	
-3900	-3400	-3650	21884	46879087	2433	11.12	4415967	9.42	1.1802	
-3850	-3350	-3600	21884	46879087	2518	11.51	4415882	9.42	1.2215	
-3800	-3300	-3550	21884	46879087	2585	11.81	4415815	9.42	1.2540	
-3750	-3250	-3500	21884	46879087	2635	12.04	4415765	9.42	1.2783	
-3700	-3200	-3450	21884	46879087	2685	12.27	4415715	9.42	1.3026	
-3650	-3150	-3400	21884	46879087	2690	12.29	4415710	9.42	1.3050	
-3600	-3100	-3350	21884	46879087	2690	12.29	4415710	9.42	1.3050	
-3550	-3050	-3300	21884	46879087	2690	12.29	4415710	9.42	1.3050	
-3500	-3000	-3250	21884	46879087	2690	12.29	4415710	9.42	1.3050	
-3450	-2950	-3200	21884	46879087	2690	12.29	4415710	9.42	1.3050	
-3400	-2900	-3150	21884	46879087	2690	12.29	4415710	9.42	1.3050	
-3350	-2850	-3100	21884	46879087	2655	12.13	4415745	9.42	1.2880	
-3300	-2800	-3050	21884	46879087	2605	11.90	4415795	9.42	1.2637	
-3250	-2750	-3000	21884	46879087	2555	11.68	4415845	9.42	1.2395	
-3200	-2700	-2950	21884	46879087	2505	11.45	4415895	9.42	1.2152	
-3150	-2650	-2900	21884	46879087	2456	11.22	4415944	9.42	1.1914	
-3100	-2600	-2850	21884	46879087	2371	10.83	4416029	9.42	1.1501	
-3050	-2550	-2800	21884	46879087	2258	10.32	4416142	9.42	1.0953	
-3000	-2500	-2750	21884	46879087	2108	9.63	4416292	9.42	1.0225	
-2950	-2450	-2700	21884	46879087	1958	8.95	4416442	9.42	0.9497	
-2900	-2400	-2650	21884	46879087	1808	8.26	4416592	9.42	0.8769	
-2850	-2350	-2600	21884	46879087	1658	7.58	4416742	9.42	0.8041	
-2800	-2300	-2550	21884	46879087	1508	6.89	4416892	9.42	0.7314	
-2750	-2250	-2500	21884	46879087	1358	6.21	4417042	9.42	0.6586	
-2700	-2200	-2450	21817	46879154	1208	5.54	4417192	9.42	0.5876	
-2650	-2150	-2400	21617	46879354	1102	5.10	4417298	9.42	0.5410	
-2600	-2100	-2350	21417	46879554	1037	4.84	4417363	9.42	0.5139	
-2550	-2050	-2300	21217	46879754	1000	4.71	4417400	9.42	0.5002	
-2500	-2000	-2250	21017	46879954	1000	4.76	4417400	9.42	0.5050	
-2450	-1950	-2200	20951	46880020	1000	4.77	4417400	9.42	0.5065	
-2400	-1900	-2150	21151	46879820	1000	4.73	4417400	9.42	0.5018	
-2350	-1850	-2100	21351	46879620	1027	4.81	4417373	9.42	0.5105	
-2300	-1800	-2050	21511	46879460	1090	5.07	4417310	9.42	0.5378	
-2250	-1750	-2000	21611	46879360	1190	5.51	4417210	9.42	0.5844	
-2200	-1700	-1950	21644	46879327	1290	5.96	4417110	9.42	0.6326	
-2150	-1650	-1900	21544	46879427	1390	6.45	4417010	9.42	0.6848	
-2100	-1600	-1850	21444	46879527	1490	6.95	4416910	9.42	0.7375	
-2050	-1550	-1800	21384	46879587	1590	7.44	4416810	9.42	0.7892	
-2000	-1500	-1750	21384	46879587	1690	7.90	4416710	9.42	0.8388	
-1950	-1450	-1700	21384	46879587	1790	8.37	4416610	9.42	0.8885	
-1900	-1400	-1650	21384	46879587	1890	8.84	4416510	9.42	0.9382	
-1850	-1350	-1600	21440	46879531	1963	9.16	4416437	9.42	0.9719	
-1800	-1300	-1550	21540	46879431	2000	9.29	4416400	9.42	0.9856	
-1750	-1250	-1500	21640	46879331	2000	9.24	4416400	9.42	0.9810	
-1700	-1200	-1450	21740	46879231	2000	9.20	4416400	9.42	0.9765	
-1650	-1150	-1400	21761	46879210	2000	9.19	4416400	9.42	0.9756	
-1600	-1100	-1350	21705	46879266	2000	9.21	4416400	9.42	0.9781	
-1550	-1050	-1300	21536	46879435	2000	9.29	4416400	9.42	0.9858	
-1500	-1000	-1250	21336	46879635	2000	9.37	4416400	9.42	0.9950	
-1450	-950	-1200	21136	46879835	2000	9.46	4416400	9.42	1.0044	
-1400	-900	-1150	21094	46879877	2000	9.48	4416400	9.42	1.0064	
-1350	-850	-1100	21094	46879877	2000	9.48	4416400	9.42	1.0064	
-1300	-800	-1050	21232	46879739	2000	9.42	4416400	9.42	0.9999	
-1250	-750	-1000	21432	46879539	1987	9.27	4416413	9.42	0.9841	
-1200	-700	-950	21632	46879339	1937	8.95	4416463	9.42	0.9505	
-1150	-650	-900	21753	46879218	1914	8.80	4416486	9.42	0.9340	
-1100	-600	-850	21853	46879118	1949	8.92	4416451	9.42	0.9467	
-1050	-550	-800	21884	46879087	1999	9.13	4416401	9.42	0.9696	
-1000	-500	-750	21866	46879105	2049	9.37	4416351	9.42	0.9947	
-950	-450	-700	21766	46879205	2099	9.64	4416301	9.42	1.0237	
-900	-400	-650	21666	46879305	2149	9.92	4416251	9.42	1.0529	
-850	-350	-600	21566	46879405	2166	10.04	4416234	9.42	1.0662	
-800	-300	-550	21466	46879505	2131	9.93	4416269	9.42	1.0538	
-750	-250	-500	21402	46879569	2094	9.78	4416306	9.42	1.0386	
-700	-200	-450	21502	46879469	2094	9.74	4416306	9.42	1.0338	
-650	-150	-400	21602	46879369	2067	9.57	4416333	9.42	1.0157	
-600	-100	-350	21702	46879269	1982	9.13	4416418	9.42	0.9694	
-550	-50	-300	21802	46879169	1882	8.63	4416518	9.42	0.9163	
-500	0	-250	22884	46878587	1782	7.79	4416618	9.42	0.8265	
-450	50	-200	21884	46879087	1682	7.69	4416718	9.42	0.8158	
-400	100	-150	21884	46879087	1582	7.23	4416818	9.42	0.7673	
-350	150	-100	21884	46879087	1528	6.98	4416872	9.42	0.7411	
-300	200	-50	21884	46879087	1563	7.14	4416837	9.42	0.7581	
-250	250	0	21884	46879087	1613	7.37	4416787	9.42	0.7823	
-200	300	50	21884	46879087	1663	7.60	4416737	9.42	0.8066	
-150	350	100	21884	46879087	1713	7.83	4416687	9.42	0.8308	
-100	400	150	21884	46879087	1763	8.06	4416637	9.42	0.8551	
-50	450	200	21884	46879087	1813	8.28	4416587	9.42	0.8794	
0	500	250	22884	46878087	1863	8.14	4416537	9.42	0.8641	
50	550	300	21884	46879087	1913	8.74	4416487	9.42	0.9279	
100	600	350	21884	46879087	1989	9.09	4416411	9.42	0.9648	
150	650	400	21884	46879087	2076	9.49	4416324	9.42	1.0070	
200	700	450	21884	46879087	2132	9.74	4416268	9.42	1.0342	
250	750	500	21884	46879087	2152	9.83	4416248	9.42	1.0439	
300	800	550	21884	46879087	2196	10.03	4416204	9.42	1.0652	
350	850	600	21884	46879087	2246	10.26	4416154	9.42	1.0895	
400	900	650	21884	46879087	2296	10.49	4416104	9.42	1.1137	
450	950	700	21884	46879087	2396	10.95	4416004	9.42	1.1623	
500	1000	750	21884	46879087	2496	11.41	4415904	9.42	1.2108	
550	1050	800	21884	46879087	2596	11.86	4415804	9.42	1.2594	
600	1100	850	21884	46879087	2670	12.20	4415730	9.42	1.2953	
650	1150	900	21884	46879087	2720	12.43	4415680	9.42	1.3195	
700	1200	950	21884	46879087	2764	12.63	4415636	9.42	1.3409	
750	1250	1000	21884	46879087	2844	13.00	4415556	9.42	1.3797	
800	1300	1050	21884	46879087	2900	13.25	4415500	9.42	1.4069	
850	1350	1100	21884	46879087	2924	13.36	4415476	9.42	1.4186	
900	1400	1150	21884	46879087	2924	13.36	4415476	9.42	1.4186	
950	1450	1200	21884	46879087	2874	13.13	4415526	9.42	1.3943	
1000	1500	1250	21884	46879087	2824	12.90	4415576	9.42	1.3700	
1050	1550	1300	21884	46879087	2724	12.45	4415676	9.42	1.3215	
1100	1600	1350	21884	46879087	2624	11.99	4415776	9.42	1.2729	
1150	1650	1400	21884	46879087	2524	11.53	4415876	9.42	1.2244	
1200	1700	1450	21884	46879087	2462	11.25	4415938	9.42	1.1943	
1250	1750	1500	21884	46879087	2412	11.02	4415988	9.42	1.1700	
1300	1800	1550	21884	46879087	2362	10.79	4416038	9.42	1.1458	
1350	1850	1600	21884	46879087	2338	10.68	4416062	9.42	1.1341	
1400	1900	1650	21884	46879087	2315	10.58	4416085	9.42	1.1230	
1450	1950	1700	21884	46879087	2315	10.58	4416085	9.42	1.1230	
1500	2000	1750	21884	46879087	2315	10.58	4416085	9.42	1.1230	
1550	2050	1800	21884	46879087	2365	10.81	4416035	9.42	1.1472	
1600	2100	1850	21884	46879087	2415	11.04	4415985	9.42	1.1715	
1650	2150	1900	21884	46879087	2471	11.29	4415929	9.42	1.1987	
1700	2200	1950	21884	46879087	2533	11.57	4415867	9.42	1.2288	
1750	2250	2000	21884	46879087	2609	11.92	4415791	9.42	1.2657	
1800	2300	2050	21884	46879087	2671	12.21	4415729	9.42	1.2958	
1850	2350	2100	21884	46879087	2721	12.43	4415679	9.42	1.3200	
1900	2400	2150	21884	46879087	2794	12.77	4415606	9.42	1.3555	
1950	2450	2200	21884	46879087	2844	13.00	4415556	9.42	1.3797	
2000	2500	2250	21884	46879087	2894	13.22	4415506	9.42	1.4040	
2050	2550	2300	21884	46879087	2944	13.45	4415456	9.42	1.4283	
2100	2600	2350	21884	46879087	2994	13.68	4415406	9.42	1.4526	
2150	2650	2400	21884	46879087	3038	13.88	4415362	9.42	1.4739	
2200	2700	2450	21884	46879087	3083	14.09	4415317	9.42	1.4958	
2250	2750	2500	21884	46879087	3107	14.20	4415293	9.42	1.5074	
2300	2800	2550	21884	46879087	3145	14.37	4415255	9.42	1.5259	
2350	2850	2600	21884	46879087	3195	14.60	4415205	9.42	1.5501	
2400	2900	2650	21884	46879087	3239	14.80	4415161	9.42	1.5715	
2450	2950	2700	21884	46879087	3239	14.80	4415161	9.42	1.5715	
2500	3000	2750	21884	46879087	3239	14.80	4415161	9.42	1.5715	
2550	3050	2800	21884	46879087	3239	14.80	4415161	9.42	1.5715	
2600	3100	2850	21884	46879087	3243	14.82	4415157	9.42	1.5735	
2650	3150	2900	21884	46879087	3343	15.28	4415057	9.42	1.6220	
2700	3200	2950	21884	46879087	3398	15.53	4415002	9.42	1.6487	
2750	3250	3000	21884	46879087	3448	15.76	4414952	9.42	1.6730	
2800	3300	3050	21884	46879087	3498	15.98	4414902	9.42	1.6973	
2850	3350	3100	21884	46879087	3548	16.21	4414852	9.42	1.7216	
2900	3400	3150	21884	46879087	3604	16.47	4414796	9.42	1.7487	
2950	3450	3200	21884	46879087	3704	16.93	4414696	9.42	1.7973	
3000	3500	3250	21884	46879087	3804	17.38	4414596	9.42	1.8459	
3050	3550	3300	21884	46879087	3904	17.84	4414496	9.42	1.8944	
3100	3600	3350	21884	46879087	4000	18.28	4414400	9.42	1.9411	
3150	3650	3400	21884	46879087	4000	18.28	4414400	9.42	1.9411	
3200	3700	3450	21884	46879087	3997	18.26	4414403	9.42	1.9396	
3250	3750	3500	21884	46879087	3943	18.02	4414457	9.42	1.9134	
3300	3800	3550	21884	46879087	3893	17.79	4414507	9.42	1.8891	
3350	3850	3600	21884	46879087	3843	17.56	4414557	9.42	1.8648	
3400	3900	3650	21884	46879087	3752	17.14	4414648	9.42	1.8206	
3450	3950	3700	21884	46879087	3608	16.49	4414792	9.42	1.7507	
3500	4000	3750	21884	46879087	3458	15.80	4414942	9.42	1.6778	
3550	4050	3800	21884	46879087	3308	15.12	4415092	9.42	1.6050	
3600	4100	3850	21884	46879087	3158	14.43	4415242	9.42	1.5322	
3650	4150	3900	21884	46879087	3007	13.74	4415393	9.42	1.4589	
3700	4200	3950	21884	46879087	2810	12.84	4415590	9.42	1.3632	
3750	4250	4000	21884	46879087	2664	12.17	4415736	9.42	1.2924	
3800	4300	4050	21884	46879087	2514	11.49	4415886	9.42	1.2196	
3850	4350	4100	21884	46879087	2364	10.80	4416036	9.42	1.1467	
3900	4400	4150	21884	46879087	2299	10.51	4416101	9.42	1.1152	
3950	4450	4200	21884	46879087	2296	10.49	4416104	9.42	1.1137	
4000	4500	4250	21884	46879087	2346	10.72	4416054	9.42	1.1380	
4050	4550	4300	21884	46879087	2396	10.95	4416004	9.42	1.1623	
4100	4600	4350	21884	46879087	2451	11.20	4415949	9.42	1.1890	
4150	4650	4400	21884	46879087	2552	11.66	4415848	9.42	1.2380	
4200	4700	4450	21884	46879087	2702	12.35	4415698	9.42	1.3108	
4250	4750	4500	21884	46879087	2853	13.04	4415547	9.42	1.3841	
4300	4800	4550	21884	46879087	3053	13.95	4415347	9.42	1.4812	
4350	4850	4600	21884	46879087	3209	14.66	4415191	9.42	1.5569	
4400	4900	4650	21884	46879087	3315	15.15	4415085	9.42	1.6084	
4450	4950	4700	21884	46879087	3412	15.59	4414988	9.42	1.6555	
4500	5000	4750	21884	46879087	3462	15.82	4414938	9.42	1.6798	
4550	5050	4800	21884	46879087	3512	16.05	4414888	9.42	1.7041	
4600	5100	4850	21884	46879087	3587	16.39	4414813	9.42	1.7405	
4650	5150	4900	21884	46879087	3637	16.62	4414763	9.42	1.7648	
4700	5200	4950	21884	46879087	3687	16.85	4414713	9.42	1.7891	
4750	5250	5000	21884	46879087	3736	17.07	4414664	9.42	1.8128	
4800	5300	5050	21884	46879087	3736	17.07	4414664	9.42	1.8128	
4850	5350	5100	21884	46879087	3780	17.27	4414620	9.42	1.8342	
4900	5400	5150	21884	46879087	3830	17.50	4414570	9.42	1.8585	
4950	5450	5200	21884	46879087	3880	17.73	4414520	9.42	1.8828	
5000	5500	5250	21884	46879087	3930	17.96	4414470	9.42	1.9071	
5050	5550	5300	21884	46879087	3980	18.19	4414420	9.42	1.9314	
5100	5600	5350	21884	46879087	4000	18.28	4414400	9.42	1.9411	
5150	5650	5400	21884	46879087	4000	18.28	4414400	9.42	1.9411	
5200	5700	5450	21884	46879087	4000	18.28	4414400	9.42	1.9411	
5250	5750	5500	21884	46879087	4000	18.28	4414400	9.42	1.9411	
5300	5800	5550	21884	46879087	4000	18.28	4414400	9.42	1.9411	
5350	5850	5600	21884	46879087	4000	18.28	4414400	9.42	1.9411	
5400	5900	5650	21884	46879087	4000	18.28	4414400	9.42	1.9411	
5450	5950	5700	21884	46879087	4000	18.28	4414400	9.42	1.9411	
5500	6000	5750	21884	46879087	3970	18.14	4414430	9.42	1.9265	
5550	6050	5800	21884	46879087	3920	17.91	4414480	9.42	1.9022	
5600	6100	5850	21884	46879087	3870	17.68	4414530	9.42	1.8779	
5650	6150	5900	21884	46879087	3820	17.46	4414580	9.42	1.8536	
5700	6200	5950	21884	46879087	3808	17.40	4414592	9.42	1.8478	
5750	6250	6000	21884	46879087	3808	17.40	4414592	9.42	1.8478	
5800	6300	6050	21884	46879087	3808	17.40	4414592	9.42	1.8478	
5850	6350	6100	21884	46879087	3808	17.40	4414592	9.42	1.8478	
5900	6400	6150	21884	46879087	3835	17.52	4414565	9.42	1.8609	
5950	6450	6200	21884	46879087	3885	17.75	4414515	9.42	1.8852	
6000	6500	6250	21884	46879087	3965	18.12	4414435	9.42	1.9241	
6050	6550	6300	21884	46879087	4065	18.58	4414335	9.42	1.9726	
6100	6600	6350	21884	46879087	4165	19.03	4414235	9.42	2.0212	
6150	6650	6400	21884	46879087	4310	19.69	4414090	9.42	2.0916	
6200	6700	6450	21884	46879087	4422	20.21	4413978	9.42	2.1461	
6250	6750	6500	21884	46879087	4522	20.66	4413878	9.42	2.1946	
6300	6800	6550	21884	46879087	4622	21.12	4413778	9.42	2.2432	
6350	6850	6600	21884	46879087	4760	21.75	4413640	9.41	2.3103	
6400	6900	6650	21884	46879087	4883	22.31	4413517	9.41	2.3700	
6450	6950	6700	21884	46879087	5007	22.88	4413393	9.41	2.4303	
6500	7000	6750	21884	46879087	5157	23.57	4413243	9.41	2.5032	
6550	7050	6800	21884	46879087	5268	24.07	4413132	9.41	2.5571	
6600	7100	6850	21884	46879087	5318	24.30	4413082	9.41	2.5814	
6650	7150	6900	21884	46879087	5323	24.32	4413077	9.41	2.5839	
6700	7200	6950	21884	46879087	5323	24.32	4413077	9.41	2.5839	
6750	7250	7000	21884	46879087	5323	24.32	4413077	9.41	2.5839	
6800	7300	7050	21884	46879087	5344	24.42	4413056	9.41	2.5941	
6850	7350	7100	21884	46879087	5356	24.47	4413044	9.41	2.5999	
6900	7400	7150	21884	46879087	5360	24.49	4413040	9.41	2.6018	
6950	7450	7200	21884	46879087	5386	24.61	4413014	9.41	2.6145	
7000	7500	7250	21884	46879087	5386	24.61	4413014	9.41	2.6145	
7050	7550	7300	21884	46879087	5387	24.62	4413013	9.41	2.6150	
7100	7600	7350	21884	46879087	5383	24.60	4413017	9.41	2.6130	
7150	7650	7400	21884	46879087	5359	24.49	4413041	9.41	2.6013	
7200	7700	7450	21884	46879087	5408	24.71	4412992	9.41	2.6252	
7250	7750	7500	21884	46879087	5458	24.94	4412942	9.41	2.6495	
7300	7800	7550	21884	46879087	5487	25.07	4412913	9.41	2.6636	
7350	7850	7600	21884	46879087	5487	25.07	4412913	9.41	2.6636	
7400	7900	7650	21884	46879087	5483	25.05	4412917	9.41	2.6616	
7450	7950	7700	21884	46879087	5433	24.83	4412967	9.41	2.6373	
7500	8000	7750	21884	46879087	5383	24.60	4413017	9.41	2.6130	
7550	8050	7800	21884	46879087	5333	24.37	4413067	9.41	2.5887	
7600	8100	7850	21884	46879087	5350	24.45	4413050	9.41	2.5970	
7650	8150	7900	21884	46879087	5424	24.79	4412976	9.41	2.6329	
7700	8200	7950	21884	46879087	5425	24.79	4412975	9.41	2.6334	
7750	8250	8000	21884	46879087	5425	24.79	4412975	9.41	2.6334	
7800	8300	8050	21884	46879087	5401	24.68	4412999	9.41	2.6218	
7850	8350	8100	21884	46879087	5351	24.45	4413049	9.41	2.5975	
7900	8400	8150	21884	46879087	5301	24.22	4413099	9.41	2.5732	
7950	8450	8200	21884	46879087	5202	23.77	4413198	9.41	2.5250	
8000	8500	8250	21884	46879087	5102	23.31	4413298	9.41	2.4765	
8050	8550	8300	21884	46879087	5040	23.03	4413360	9.41	2.4463	
8100	8600	8350	21884	46879087	4977	22.74	4413423	9.41	2.4157	
8150	8650	8400	21884	46879087	4904	22.41	4413496	9.41	2.3802	
8200	8700	8450	21884	46879087	4854	22.18	4413546	9.41	2.3559	
8250	8750	8500	21884	46879087	4804	21.95	4413596	9.41	2.3316	
8300	8800	8550	21884	46879087	4778	21.83	4413622	9.41	2.3190	
8350	8850	8600	21884	46879087	4827	22.06	4413573	9.41	2.3428	
8400	8900	8650	21884	46879087	4877	22.29	4413523	9.41	2.3671	
8450	8950	8700	21884	46879087	4955	22.64	4413445	9.41	2.4050	
8500	9000	8750	21884	46879087	5005	22.87	4413395	9.41	2.4293	
8550	9050	8800	21884	46879087	5055	23.10	4413345	9.41	2.4536	
8600	9100	8850	21884	46879087	5105	23.33	4413295	9.41	2.4779	
8650	9150	8900	21884	46879087	5128	23.43	4413272	9.41	2.4891	
8700	9200	8950	21884	46879087	5128	23.43	4413272	9.41	2.4891	
8750	9250	9000	21884	46879087	5123	23.41	4413277	9.41	2.4867	
8800	9300	9050	21884	46879087	5060	23.12	4413340	9.41	2.4560	
8850	9350	9100	21884	46879087	4960	22.66	4413440	9.41	2.4074	
8900	9400	9150	21884	46879087	4860	22.21	4413540	9.41	2.3589	
8950	9450	9200	21884	46879087	4781	21.85	4413619	9.41	2.3205	
9000	9500	9250	21884	46879087	4776	21.82	4413624	9.41	2.3180	
9050	9550	9300	21884	46879087	4726	21.60	4413674	9.42	2.2937	
9100	9600	9350	21884	46879087	4676	21.37	4413724	9.42	2.2695	
9150	9650	9400	21884	46879087	4626	21.14	4413774	9.42	2.2452	
9200	9700	9450	21884	46879087	4561	20.84	4413839	9.42	2.2136	
9250	9750	9500	21884	46879087	4466	20.41	4413934	9.42	2.1674	
9300	9800	9550	21884	46879087	4429	20.24	4413971	9.42	2.1495	
9350	9850	9600	21884	46879087	4419	20.19	4413981	9.42	2.1446	
9400	9900	9650	21884	46879087	4382	20.02	4414018	9.42	2.1266	
9450	9950	9700	21884	46879087	4382	20.02	4414018	9.42	2.1266	
9500	10000	9750	21884	46879087	4361	19.93	4414039	9.42	2.1164	
9550	10050	9800	21884	46879087	4440	20.29	4413960	9.42	2.1548	
9600	10100	9850	21884	46879087	4540	20.75	4413860	9.42	2.2034	
9650	10150	9900	21884	46879087	4640	21.20	4413760	9.42	2.2520	
9700	10200	9950	21884	46879087	4740	21.66	4413660	9.41	2.3006	
9750	10250	10000	21884	46879087	4840	22.12	4413560	9.41	2.3491	
9800	10300	10050	21884	46879087	4913	22.45	4413487	9.41	2.3846	
9850	10350	10100	21884	46879087	5014	22.91	4413386	9.41	2.4337	
9900	10400	10150	21884	46879087	5151	23.54	4413249	9.41	2.5003	
9950	10450	10200	21884	46879087	5251	23.99	4413149	9.41	2.5489	
10000	10500	10250	21884	46879087	5327	24.34	4413073	9.41	2.5858	
10050	10550	10300	21884	46879087	5348	24.44	4413052	9.41	2.5960	
10100	10600	10350	21884	46879087	5324	24.33	4413076	9.41	2.5843	
10150	10650	10400	21884	46879087	5274	24.10	4413126	9.41	2.5600	
10200	10700	10450	21884	46879087	5224	23.87	4413176	9.41	2.5357	
10250	10750	10500	21884	46879087	5171	23.63	4413229	9.41	2.5100	
10300	10800	10550	21884	46879087	5098	23.30	4413302	9.41	2.4745	
10350	10850	10600	21884	46879087	5007	22.88	4413393	9.41	2.4303	
10400	10900	10650	21884	46879087	4907	22.42	4413493	9.41	2.3817	
10450	10950	10700	21884	46879087	4807	21.97	4413593	9.41	2.3331	
10500	11000	10750	21884	46879087	4707	21.51	4413693	9.42	2.2845	
10550	11050	10800	21884	46879087	4607	21.05	4413793	9.42	2.2359	
10600	11100	10850	21884	46879087	4531	20.70	4413869	9.42	2.1990	
10650	11150	10900	21884	46879087	4481	20.48	4413919	9.42	2.1747	
10700	11200	10950	21884	46879087	4431	20.25	4413969	9.42	2.1504	
10750	11250	11000	21884	46879087	4343	19.85	4414057	9.42	2.1077	
10800	11300	11050	21884	46879087	4293	19.62	4414107	9.42	2.0834	
10850	11350	11100	21884	46879087	4243	19.39	4414157	9.42	2.0591	
10900	11400	11150	21884	46879087	4193	19.16	4414207	9.42	2.0348	
10950	11450	11200	21884	46879087	4143	18.93	4414257	9.42	2.0105	
11000	11500	11250	21884	46879087	4120	18.83	4414280	9.42	1.9994	
11050	11550	11300	21884	46879087	4120	18.83	4414280	9.42	1.9994	
11100	11600	11350	21884	46879087	4120	18.83	4414280	9.42	1.9994	
11150	11650	11400	21884	46879087	4120	18.83	4414280	9.42	1.9994	
11200	11700	11450	21884	46879087	4120	18.83	4414280	9.42	1.9994	
11250	11750	11500	21884	46879087	4161	19.01	4414239	9.42	2.0193	
11300	11800	11550	21884	46879087	4211	19.24	4414189	9.42	2.0436	
11350	11850	11600	21884	46879087	4261	19.47	4414139	9.42	2.0678	
11400	11900	11650	21884	46879087	4311	19.70	4414089	9.42	2.0921	
11450	11950	11700	21884	46879087	4361	19.93	4414039	9.42	2.1164	
11500	12000	11750	21884	46879087	4401	20.11	4413999	9.42	2.1359	
11550	12050	11800	21884	46879087	4451	20.34	4413949	9.42	2.1601	
11600	12100	11850	21884	46879087	4501	20.57	4413899	9.42	2.1844	
11650	12150	11900	21884	46879087	4551	20.80	4413849	9.42	2.2087	
11700	12200	11950	21884	46879087	4666	21.32	4413734	9.42	2.2646	
11750	12250	12000	21884	46879087	4816	22.01	4413584	9.41	2.3375	
11800	12300	12050	21884	46879087	4966	22.69	4413434	9.41	2.4104	
11850	12350	12100	21884	46879087	5116	23.38	4413284	9.41	2.4833	
11900	12400	12150	21884	46879087	5239	23.94	4413161	9.41	2.5430	
11950	12450	12200	21884	46879087	5339	24.40	4413061	9.41	2.5916	
12000	12500	12250	21884	46879087	5377	24.57	4413023	9.41	2.6101	
12050	12550	12300	21884	46879087	5377	24.57	4413023	9.41	2.6101	
12100	12600	12350	21884	46879087	5377	24.57	4413023	9.41	2.6101	
12150	12650	12400	21884	46879087	5377	24.57	4413023	9.41	2.6101	
12200	12700	12450	21884	46879087	5312	24.27	4413088	9.41	2.5785	
12250	12750	12500	21884	46879087	5212	23.82	4413188	9.41	2.5299	
12300	12800	12550	21884	46879087	5112	23.36	4413288	9.41	2.4813	
12350	12850	12600	21884	46879087	5039	23.03	4413361	9.41	2.4458	
12400	12900	12650	21884	46879087	5003	22.86	4413397	9.41	2.4283	
12450	12950	12700	21884	46879087	4912	22.45	4413488	9.41	2.3841	
12500	13000	12750	21884	46879087	4857	22.19	4413543	9.41	2.3574	
12550	13050	12800	21884	46879087	4807	21.97	4413593	9.41	2.3331	
12600	13100	12850	21884	46879087	4757	21.74	4413643	9.41	2.3088	
12650	13150	12900	21884	46879087	4707	21.51	4413693	9.42	2.2845	
12700	13200	12950	21809	46879162	4582	21.01	4413818	9.42	2.2314	
12750	13250	13000	21709	46879262	4432	20.42	4413968	9.42	2.1683	
12800	13300	13050	21609	46879362	4282	19.82	4414118	9.42	2.1045	
12850	13350	13100	21509	46879462	4105	19.09	4414295	9.42	2.0268	
12900	13400	13150	21409	46879562	3918	18.30	4414482	9.42	1.9434	
12950	13450	13200	21384	46879587	3857	18.04	4414543	9.42	1.9154	
13000	13500	13250	21384	46879587	3807	17.80	4414593	9.42	1.8905	
13050	13550	13300	21384	46879587	3757	17.57	4414643	9.42	1.8657	
13100	13600	13350	21384	46879587	3706	17.33	4414694	9.42	1.8403	
13150	13650	13400	21475	46879496	3697	17.22	4414703	9.42	1.8281	
13200	13700	13450	21575	46879396	3742	17.34	4414658	9.42	1.8418	
13250	13750	13500	21675	46879296	3797	17.52	4414603	9.42	1.8602	
13300	13800	13550	21775	46879196	3897	17.90	4414503	9.42	1.9005	
13350	13850	13600	21875	46879096	3997	18.27	4414403	9.42	1.9404	
13400	13900	13650	21884	46879087	4006	18.31	4414394	9.42	1.9440	
13450	13950	13700	21884	46879087	4033	18.43	4414367	9.42	1.9571	
13500	14000	13750	21884	46879087	4083	18.66	4414317	9.42	1.9814	
13550	14050	13800	21884	46879087	4133	18.89	4414267	9.42	2.0057	
13600	14100	13850	21884	46879087	4184	19.12	4414216	9.42	2.0304	
13650	14150	13900	21884	46879087	4284	19.58	4414116	9.42	2.0790	
13700	14200	13950	21884	46879087	4339	19.83	4414061	9.42	2.1057	
13750	14250	14000	21884	46879087	4384	20.03	4414016	9.42	2.1276	
13800	14300	14050	21884	46879087	4384	20.03	4414016	9.42	2.1276	
13850	14350	14100	21884	46879087	4384	20.03	4414016	9.42	2.1276	
13900	14400	14150	21884	46879087	4384	20.03	4414016	9.42	2.1276	
13950	14450	14200	21884	46879087	4422	20.21	4413978	9.42	2.1461	
14000	14500	14250	21884	46879087	4472	20.44	4413928	9.42	2.1703	
14050	14550	14300	21884	46879087	4522	20.66	4413878	9.42	2.1946	
14100	14600	14350	21884	46879087	4572	20.89	4413828	9.42	2.2189	
14150	14650	14400	21884	46879087	4622	21.12	4413778	9.42	2.2432	
14200	14700	14450	21884	46879087	4655	21.27	4413745	9.42	2.2593	
14250	14750	14500	21884	46879087	4655	21.27	4413745	9.42	2.2593	
14300	14800	14550	21884	46879087	4655	21.27	4413745	9.42	2.2593	
14350	14850	14600	21884	46879087	4655	21.27	4413745	9.42	2.2593	
14400	14900	14650	21884	46879087	4658	21.28	4413742	9.42	2.2607	
14450	14950	14700	21884	46879087	4620	21.11	4413780	9.42	2.2422	
14500	15000	14750	21884	46879087	4570	20.88	4413830	9.42	2.2180	
14550	15050	14800	21884	46879087	4520	20.65	4413880	9.42	2.1937	
14600	15100	14850	21884	46879087	4470	20.43	4413930	9.42	2.1694	
14650	15150	14900	21884	46879087	4420	20.20	4413980	9.42	2.1451	
14700	15200	14950	21884	46879087	4338	19.82	4414062	9.42	2.1052	
14750	15250	15000	21884	46879087	4313	19.71	4414087	9.42	2.0931	
14800	15300	15050	21884	46879087	4313	19.71	4414087	9.42	2.0931	
14850	15350	15100	21884	46879087	4313	19.71	4414087	9.42	2.0931	
14900	15400	15150	21884	46879087	4310	19.69	4414090	9.42	2.0916	
14950	15450	15200	21884	46879087	4310	19.69	4414090	9.42	2.0916	
15000	15500	15250	21884	46879087	4286	19.59	4414114	9.42	2.0800	
15050	15550	15300	21884	46879087	4236	19.36	4414164	9.42	2.0557	
15100	15600	15350	21884	46879087	4186	19.13	4414214	9.42	2.0314	
15150	15650	15400	21884	46879087	4136	18.90	4414264	9.42	2.0071	
15200	15700	15450	21884	46879087	4135	18.90	4414265	9.42	2.0066	
15250	15750	15500	21884	46879087	4110	18.78	4414290	9.42	1.9945	
15300	15800	15550	21884	46879087	4060	18.55	4414340	9.42	1.9702	
15350	15850	15600	21884	46879087	4005	18.30	4414395	9.42	1.9435	
15400	15900	15650	21884	46879087	3905	17.84	4414495	9.42	1.8949	
15450	15950	15700	21884	46879087	3829	17.50	4414571	9.42	1.8580	
15500	16000	15750	21884	46879087	3803	17.38	4414597	9.42	1.8454	
15550	16050	15800	21884	46879087	3803	17.38	4414597	9.42	1.8454	
15600	16100	15850	21884	46879087	3877	17.72	4414523	9.42	1.8813	
15650	16150	15900	21884	46879087	3977	18.17	4414423	9.42	1.9299	
15700	16200	15950	21884	46879087	4077	18.63	4414323	9.42	1.9785	
15750	16250	16000	21884	46879087	4177	19.09	4414223	9.42	2.0270	
15800	16300	16050	21884	46879087	4310	19.69	4414090	9.42	2.0916	
15850	16350	16100	21884	46879087	4465	20.40	4413935	9.42	2.1669	
15900	16400	16150	21884	46879087	4665	21.32	4413735	9.42	2.2641	
15950	16450	16200	21884	46879087	4851	22.17	4413549	9.41	2.3545	
16000	16500	16250	21884	46879087	5051	23.08	4413349	9.41	2.4517	
16050	16550	16300	21884	46879087	5206	23.79	4413194	9.41	2.5270	
16100	16600	16350	21884	46879087	5282	24.14	4413118	9.41	2.5639	
16150	16650	16400	21884	46879087	5332	24.36	4413068	9.41	2.5882	
16200	16700	16450	21884	46879087	5333	24.37	4413067	9.41	2.5887	
16250	16750	16500	21884	46879087	5333	24.37	4413067	9.41	2.5887	
16300	16800	16550	21884	46879087	5300	24.22	4413100	9.41	2.5727	
16350	16850	16600	21884	46879087	5250	23.99	4413150	9.41	2.5484	
16400	16900	16650	21884	46879087	5190	23.72	4413210	9.41	2.5192	
16450	16950	16700	21884	46879087	5097	23.29	4413303	9.41	2.4740	
16500	17000	16750	21884	46879087	4997	22.83	4413403	9.41	2.4254	
16550	17050	16800	21884	46879087	4909	22.43	4413491	9.41	2.3827	
16600	17100	16850	21884	46879087	4809	21.97	4413591	9.41	2.3341	
16650	17150	16900	21884	46879087	4709	21.52	4413691	9.42	2.2855	
16700	17200	16950	21884	46879087	4658	21.28	4413742	9.42	2.2607	
16750	17250	17000	21884	46879087	4608	21.06	4413792	9.42	2.2364	
16800	17300	17050	21884	46879087	4558	20.83	4413842	9.42	2.2121	
16850	17350	17100	21884	46879087	4509	20.60	4413891	9.42	2.1883	
16900	17400	17150	21884	46879087	4519	20.65	4413881	9.42	2.1932	
16950	17450	17200	21884	46879087	4511	20.61	4413889	9.42	2.1893	
17000	17500	17250	21884	46879087	4461	20.38	4413939	9.42	2.1650	
17050	17550	17300	21884	46879087	4418	20.19	4413982	9.42	2.1441	
17100	17600	17350	21884	46879087	4368	19.96	4414032	9.42	2.1198	
17150	17650	17400	21884	46879087	4318	19.73	4414082	9.42	2.0955	
17200	17700	17450	21884	46879087	4268	19.50	4414132	9.42	2.0712	
17250	17750	17500	21884	46879087	4218	19.27	4414182	9.42	2.0470	
17300	17800	17550	21884	46879087	4168	19.05	4414232	9.42	2.0227	
17350	17850	17600	21884	46879087	4100	18.74	4414300	9.42	1.9896	
17400	17900	17650	21840	46879131	3950	18.09	4414450	9.42	1.9206	
17450	17950	17700	21740	46879231	3841	17.67	4414559	9.42	1.8762	
17500	18000	17750	21640	46879331	3712	17.15	4414688	9.42	1.8215	
17550	18050	17800	21540	46879431	3588	16.66	4414812	9.42	1.7688	
17600	18100	17850	21440	46879531	3488	16.27	4414912	9.42	1.7275	
17650	18150	17900	21428	46879543	3388	15.81	4415012	9.42	1.6789	
17700	18200	17950	21528	46879443	3288	15.27	4415112	9.42	1.6217	
17750	18250	18000	21628	46879343	3187	14.74	4415213	9.42	1.5646	
17800	18300	18050	21728	46879243	3075	14.15	4415325	9.42	1.5026	
17850	18350	18100	21828	46879143	3033	13.89	4415367	9.42	1.4753	
17900	18400	18150	21884	46879087	3060	13.98	4415340	9.42	1.4846	
17950	18450	18200	21884	46879087	3139	14.34	4415261	9.42	1.5230	
18000	18500	18250	21884	46879087	3268	14.93	4415132	9.42	1.5856	
18050	18550	18300	21884	46879087	3418	15.62	4414982	9.42	1.6584	
18100	18600	18350	21884	46879087	3568	16.30	4414832	9.42	1.7313	
18150	18650	18400	21884	46879087	3718	16.99	4414682	9.42	1.8041	
18200	18700	18450	21884	46879087	3868	17.68	4414532	9.42	1.8770	
18250	18750	18500	21884	46879087	3970	18.14	4414430	9.42	1.9265	
18300	18800	18550	21884	46879087	4127	18.86	4414273	9.42	2.0028	
18350	18850	18600	21884	46879087	4236	19.36	4414164	9.42	2.0557	
18400	18900	18650	21884	46879087	4309	19.69	4414091	9.42	2.0912	
18450	18950	18700	21884	46879087	4330	19.79	4414070	9.42	2.1014	
18500	19000	18750	21884	46879087	4330	19.79	4414070	9.42	2.1014	
18550	19050	18800	21884	46879087	4330	19.79	4414070	9.42	2.1014	
18600	19100	18850	21884	46879087	4330	19.79	4414070	9.42	2.1014	
18650	19150	18900	21884	46879087	4330	19.79	4414070	9.42	2.1014	
18700	19200	18950	21884	46879087	4330	19.79	4414070	9.42	2.1014	
18750	19250	19000	21884	46879087	4330	19.79	4414070	9.42	2.1014	
18800	19300	19050	21884	46879087	4285	19.58	4414115	9.42	2.0795	
18850	19350	19100	21884	46879087	4284	19.58	4414116	9.42	2.0790	
18900	19400	19150	21884	46879087	4284	19.58	4414116	9.42	2.0790	
18950	19450	19200	21884	46879087	4284	19.58	4414116	9.42	2.0790	
19000	19500	19250	21884	46879087	4284	19.58	4414116	9.42	2.0790	
19050	19550	19300	21884	46879087	4284	19.58	4414116	9.42	2.0790	
19100	19600	19350	21884	46879087	4299	19.64	4414101	9.42	2.0863	
19150	19650	19400	21884	46879087	4349	19.87	4414051	9.42	2.1106	
19200	19700	19450	21884	46879087	4438	20.28	4413962	9.42	2.1538	
19250	19750	19500	21884	46879087	4539	20.74	4413861	9.42	2.2029	
19300	19800	19550	21884	46879087	4732	21.62	4413668	9.42	2.2967	
19350	19850	19600	21884	46879087	4932	22.54	4413468	9.41	2.3938	
19400	19900	19650	21884	46879087	5137	23.47	4413263	9.41	2.4935	
19450	19950	19700	21884	46879087	5387	24.62	4413013	9.41	2.6150	
19500	20000	19750	21884	46879087	5637	25.76	4412763	9.41	2.7365	
19550	20050	19800	21884	46879087	5887	26.90	4412513	9.41	2.8580	
19600	20100	19850	21884	46879087	6137	28.04	4412263	9.41	2.9795	
19650	20150	19900	21884	46879087	6387	29.19	4412013	9.41	3.1011	
19700	20200	19950	21884	46879087	6582	30.08	4411818	9.41	3.1959	
19750	20250	20000	21884	46879087	6681	30.53	4411719	9.41	3.2440	
19800	20300	20050	21884	46879087	6643	30.36	4411757	9.41	3.2256	
19850	20350	20100	21884	46879087	6566	30.00	4411834	9.41	3.1881	
19900	20400	20150	21884	46879087	6461	29.52	4411939	9.41	3.1371	
19950	20450	20200	21884	46879087	6324	28.90	4412076	9.41	3.0704	
20000	20500	20250	21884	46879087	6169	28.19	4412231	9.41	2.9951	
20050	20550	20300	21884	46879087	5859	26.77	4412541	9.41	2.8444	
20100	20600	20350	21884	46879087	5509	25.17	4412891	9.41	2.6743	
20150	20650	20400	21884	46879087	5159	23.57	4413241	9.41	2.5041	
20200	20700	20450	21884	46879087	4810	21.98	4413590	9.41	2.3346	
20250	20750	20500	21884	46879087	4516	20.64	4413884	9.42	2.1917	
20300	20800	20550	21884	46879087	4311	19.70	4414089	9.42	2.0921	
20350	20850	20600	21884	46879087	4138	18.91	4414262	9.42	2.0081	
20400	20900	20650	21884	46879087	3988	18.22	4414412	9.42	1.9352	
20450	20950	20700	21884	46879087	3825	17.48	4414575	9.42	1.8561	
20500	21000	20750	21884	46879087	3680	16.82	4414720	9.42	1.7857	
20550	21050	20800	21884	46879087	3690	16.86	4414710	9.42	1.7905	
20600	21100	20850	21884	46879087	3740	17.09	4414660	9.42	1.8148	
20650	21150	20900	21884	46879087	3790	17.32	4414610	9.42	1.8391	
20700	21200	20950	21884	46879087	3799	17.36	4414601	9.42	1.8434	
20750	21250	21000	21884	46879087	3793	17.33	4414607	9.42	1.8405	
20800	21300	21050	21884	46879087	3743	17.10	4414657	9.42	1.8162	
20850	21350	21100	21884	46879087	3693	16.88	4414707	9.42	1.7920	
20900	21400	21150	21884	46879087	3664	16.74	4414736	9.42	1.7779	
20950	21450	21200	21884	46879087	3664	16.74	4414736	9.42	1.7779	
21000	21500	21250	21884	46879087	3664	16.74	4414736	9.42	1.7779	
21050	21550	21300	21884	46879087	3688	16.85	4414712	9.42	1.7895	
21100	21600	21350	21884	46879087	3738	17.08	4414662	9.42	1.8138	
21150	21650	21400	21884	46879087	3764	17.20	4414636	9.42	1.8264	
21200	21700	21450	21884	46879087	3805	17.39	4414595	9.42	1.8464	
21250	21750	21500	21884	46879087	3898	17.81	4414502	9.42	1.8915	
21300	21800	21550	21884	46879087	4043	18.47	4414357	9.42	1.9620	
21350	21850	21600	21884	46879087	4194	19.16	4414206	9.42	2.0353	
21400	21900	21650	21884	46879087	4373	19.98	4414027	9.42	2.1223	
21450	21950	21700	21884	46879087	4523	20.67	4413877	9.42	2.1951	
21500	22000	21750	21884	46879087	4673	21.35	4413727	9.42	2.2680	
21550	22050	21800	21884	46879087	4799	21.93	4413601	9.41	2.3292	
21600	22100	21850	21884	46879087	4899	22.39	4413501	9.41	2.3778	
21650	22150	21900	21884	46879087	5002	22.86	4413398	9.41	2.4279	
21700	22200	21950	21884	46879087	5102	23.31	4413298	9.41	2.4765	
21750	22250	22000	21884	46879087	5159	23.57	4413241	9.41	2.5041	
21800	22300	22050	21884	46879087	5188	23.71	4413212	9.41	2.5182	
21850	22350	22100	21884	46879087	5187	23.70	4413213	9.41	2.5178	
21900	22400	22150	21884	46879087	5117	23.38	4413283	9.41	2.4837	
21950	22450	22200	21884	46879087	5017	22.93	4413383	9.41	2.4351	
22000	22500	22250	21884	46879087	4917	22.47	4413483	9.41	2.3866	
22050	22550	22300	21884	46879087	4817	22.01	4413583	9.41	2.3380	
22100	22600	22350	21884	46879087	4717	21.55	4413683	9.42	2.2894	
22150	22650	22400	21884	46879087	4638	21.19	4413762	9.42	2.2510	
22200	22700	22450	21884	46879087	4592	20.98	4413808	9.42	2.2286	
22250	22750	22500	21884	46879087	4592	20.98	4413808	9.42	2.2286	
22300	22800	22550	21884	46879087	4613	21.08	4413787	9.42	2.2388	
22350	22850	22600	21884	46879087	4663	21.31	4413737	9.42	2.2631	
22400	22900	22650	21884	46879087	4733	21.63	4413667	9.42	2.2972	
22450	22950	22700	21884	46879087	4833	22.08	4413567	9.41	2.3457	
22500	23000	22750	21884	46879087	4972	22.72	4413428	9.41	2.4133	
22550	23050	22800	21884	46879087	5122	23.41	4413278	9.41	2.4862	
22600	23100	22850	21884	46879087	5272	24.09	4413128	9.41	2.5591	
22650	23150	22900	21884	46879087	5422	24.78	4412978	9.41	2.6320	
22700	23200	22950	21884	46879087	5568	25.44	4412832	9.41	2.7029	
22750	23250	23000	21884	46879087	5668	25.90	4412732	9.41	2.7515	
22800	23300	23050	21884	46879087	5653	25.83	4412747	9.41	2.7442	
22850	23350	23100	21884	46879087	5602	25.60	4412798	9.41	2.7195	
22900	23400	23150	21884	46879087	5502	25.14	4412898	9.41	2.6708	
22950	23450	23200	21884	46879087	5402	24.68	4412998	9.41	2.6222	
23000	23500	23250	21884	46879087	5263	24.05	4413137	9.41	2.5547	
23050	23550	23300	21884	46879087	5113	23.36	4413287	9.41	2.4818	
23100	23600	23350	21884	46879087	4963	22.68	4413437	9.41	2.4089	
23150	23650	23400	21884	46879087	4813	21.99	4413587	9.41	2.3360	
23200	23700	23450	21884	46879087	4663	21.31	4413737	9.42	2.2631	
23250	23750	23500	21884	46879087	4513	20.62	4413887	9.42	2.1903	
23300	23800	23550	21884	46879087	4433	20.26	4413967	9.42	2.1514	
23350	23850	23600	21884	46879087	4384	20.03	4414016	9.42	2.1276	
23400	23900	23650	21884	46879087	4384	20.03	4414016	9.42	2.1276	
23450	23950	23700	21884	46879087	4360	19.92	4414040	9.42	2.1159	
23500	24000	23750	21884	46879087	4265	19.49	4414135	9.42	2.0698	
23550	24050	23800	21884	46879087	4165	19.03	4414235	9.42	2.0212	
23600	24100	23850	21884	46879087	4098	18.73	4414302	9.42	1.9887	
23650	24150	23900	21884	46879087	3999	18.27	4414401	9.42	1.9406	
23700	24200	23950	21884	46879087	3940	18.00	4414460	9.42	1.9119	
23750	24250	24000	21884	46879087	3890	17.78	4414510	9.42	1.8876	
23800	24300	24050	21884	46879087	3842	17.56	4414558	9.42	1.8643	
23850	24350	24100	21884	46879087	3792	17.33	4414608	9.42	1.8400	
23900	24400	24150	21884	46879087	3742	17.10	4414658	9.42	1.8158	
23950	24450	24200	21884	46879087	3716	16.98	4414684	9.42	1.8031	
24000	24500	24250	21884	46879087	3761	17.19	4414639	9.42	1.8250	
24050	24550	24300	21884	46879087	3814	17.43	4414586	9.42	1.8507	
24100	24600	24350	21884	46879087	3881	17.73	4414519	9.42	1.8833	
24150	24650	24400	21884	46879087	3931	17.96	4414469	9.42	1.9076	
24200	24700	24450	21884	46879087	3940	18.00	4414460	9.42	1.9119	
24250	24750	24500	21884	46879087	3940	18.00	4414460	9.42	1.9119	
24300	24800	24550	21884	46879087	3900	17.82	4414500	9.42	1.8925	
24350	24850	24600	21884	46879087	3850	17.59	4414550	9.42	1.8682	
24400	24900	24650	21884	46879087	3849	17.59	4414551	9.42	1.8677	
24450	24950	24700	21884	46879087	3810	17.41	4414590	9.42	1.8488	
24500	25000	24750	21884	46879087	3693	16.88	4414707	9.42	1.7920	
