Start	End	Midpoint	Breakpoint_bp	Non_breakpoint_bp	Feature_bp_inside	%Inside	Feature_bp_outside	%Outside	Ratio
-25000	-24500	-24750	23000	46877027	3080	13.39	3979774	8.49	1.5773	
-24950	-24450	-24700	23000	46877027	3023	13.14	3979831	8.49	1.5481	
-24900	-24400	-24650	23000	46877027	2986	12.98	3979868	8.49	1.5292	
-24850	-24350	-24600	23000	46877027	3031	13.18	3979823	8.49	1.5522	
-24800	-24300	-24550	23000	46877027	3126	13.59	3979728	8.49	1.6009	
-24750	-24250	-24500	23000	46877027	3266	14.20	3979588	8.49	1.6727	
-24700	-24200	-24450	23000	46877027	3298	14.34	3979556	8.49	1.6891	
-24650	-24150	-24400	23000	46877027	3364	14.63	3979490	8.49	1.7229	
-24600	-24100	-24350	23000	46877027	3468	15.08	3979386	8.49	1.7762	
-24550	-24050	-24300	23000	46877027	3718	16.17	3979136	8.49	1.9044	
-24500	-24000	-24250	23000	46877027	3960	17.22	3978894	8.49	2.0285	
-24450	-23950	-24200	23000	46877027	4067	17.68	3978787	8.49	2.0833	
-24400	-23900	-24150	23000	46877027	4175	18.15	3978679	8.49	2.1387	
-24350	-23850	-24100	23000	46877027	4164	18.10	3978690	8.49	2.1331	
-24300	-23800	-24050	23000	46877027	4083	17.75	3978771	8.49	2.0915	
-24250	-23750	-24000	23000	46877027	3983	17.32	3978871	8.49	2.0402	
-24200	-23700	-23950	23000	46877027	3948	17.17	3978906	8.49	2.0223	
-24150	-23650	-23900	23000	46877027	3962	17.23	3978892	8.49	2.0295	
-24100	-23600	-23850	23000	46877027	3949	17.17	3978905	8.49	2.0228	
-24050	-23550	-23800	23000	46877027	3814	16.58	3979040	8.49	1.9536	
-24000	-23500	-23750	23000	46877027	3631	15.79	3979223	8.49	1.8598	
-23950	-23450	-23700	23000	46877027	3541	15.40	3979313	8.49	1.8136	
-23900	-23400	-23650	23000	46877027	3491	15.18	3979363	8.49	1.7880	
-23850	-23350	-23600	23000	46877027	3356	14.59	3979498	8.49	1.7188	
-23800	-23300	-23550	23000	46877027	3251	14.13	3979603	8.49	1.6650	
-23750	-23250	-23500	23000	46877027	3209	13.95	3979645	8.49	1.6435	
-23700	-23200	-23450	23000	46877027	3265	14.20	3979589	8.49	1.6722	
-23650	-23150	-23400	23000	46877027	3352	14.57	3979502	8.49	1.7168	
-23600	-23100	-23350	23000	46877027	3413	14.84	3979441	8.49	1.7480	
-23550	-23050	-23300	23000	46877027	3425	14.89	3979429	8.49	1.7542	
-23500	-23000	-23250	23000	46877027	3553	15.45	3979301	8.49	1.8198	
-23450	-22950	-23200	23000	46877027	3690	16.04	3979164	8.49	1.8900	
-23400	-22900	-23150	23000	46877027	3798	16.51	3979056	8.49	1.9454	
-23350	-22850	-23100	23000	46877027	4036	17.55	3978818	8.49	2.0674	
-23300	-22800	-23050	23000	46877027	4204	18.28	3978650	8.49	2.1536	
-23250	-22750	-23000	23000	46877027	4248	18.47	3978606	8.49	2.1761	
-23200	-22700	-22950	23000	46877027	4284	18.63	3978570	8.49	2.1946	
-23150	-22650	-22900	23000	46877027	4131	17.96	3978723	8.49	2.1161	
-23100	-22600	-22850	23000	46877027	3967	17.25	3978887	8.49	2.0320	
-23050	-22550	-22800	23000	46877027	3840	16.70	3979014	8.49	1.9669	
-23000	-22500	-22750	23000	46877027	3645	15.85	3979209	8.49	1.8670	
-22950	-22450	-22700	23000	46877027	3358	14.60	3979496	8.49	1.7198	
-22900	-22400	-22650	23000	46877027	3067	13.33	3979787	8.49	1.5707	
-22850	-22350	-22600	23000	46877027	2779	12.08	3980075	8.49	1.4231	
-22800	-22300	-22550	23000	46877027	2516	10.94	3980338	8.49	1.2883	
-22750	-22250	-22500	23000	46877027	2377	10.33	3980477	8.49	1.2171	
-22700	-22200	-22450	23000	46877027	2298	9.99	3980556	8.49	1.1766	
-22650	-22150	-22400	23000	46877027	2362	10.27	3980492	8.49	1.2094	
-22600	-22100	-22350	23000	46877027	2509	10.91	3980345	8.49	1.2847	
-22550	-22050	-22300	23000	46877027	2659	11.56	3980195	8.49	1.3616	
-22500	-22000	-22250	23000	46877027	2885	12.54	3979969	8.49	1.4774	
-22450	-21950	-22200	23000	46877027	3195	13.89	3979659	8.49	1.6363	
-22400	-21900	-22150	23000	46877027	3377	14.68	3979477	8.49	1.7296	
-22350	-21850	-22100	23000	46877027	3535	15.37	3979319	8.49	1.8106	
-22300	-21800	-22050	23000	46877027	3686	16.03	3979168	8.49	1.8880	
-22250	-21750	-22000	23000	46877027	3839	16.69	3979015	8.49	1.9664	
-22200	-21700	-21950	23000	46877027	3989	17.34	3978865	8.49	2.0433	
-22150	-21650	-21900	23000	46877027	4117	17.90	3978737	8.49	2.1090	
-22100	-21600	-21850	23000	46877027	4182	18.18	3978672	8.49	2.1423	
-22050	-21550	-21800	23000	46877027	4161	18.09	3978693	8.49	2.1315	
-22000	-21500	-21750	23000	46877027	4158	18.08	3978696	8.49	2.1300	
-21950	-21450	-21700	23000	46877027	4138	17.99	3978716	8.49	2.1197	
-21900	-21400	-21650	23000	46877027	4221	18.35	3978633	8.49	2.1623	
-21850	-21350	-21600	23000	46877027	4157	18.07	3978697	8.49	2.1295	
-21800	-21300	-21550	23000	46877027	4090	17.78	3978764	8.49	2.0951	
-21750	-21250	-21500	23000	46877027	3915	17.02	3978939	8.49	2.0054	
-21700	-21200	-21450	23000	46877027	3653	15.88	3979201	8.49	1.8711	
-21650	-21150	-21400	23000	46877027	3427	14.90	3979427	8.49	1.7552	
-21600	-21100	-21350	23000	46877027	3210	13.96	3979644	8.49	1.6440	
-21550	-21050	-21300	23000	46877027	3097	13.47	3979757	8.49	1.5861	
-21500	-21000	-21250	23000	46877027	2946	12.81	3979908	8.49	1.5087	
-21450	-20950	-21200	23000	46877027	2748	11.95	3980106	8.49	1.4072	
-21400	-20900	-21150	23000	46877027	2595	11.28	3980259	8.49	1.3288	
-21350	-20850	-21100	23000	46877027	2551	11.09	3980303	8.49	1.3063	
-21300	-20800	-21050	23000	46877027	2517	10.94	3980337	8.49	1.2888	
-21250	-20750	-21000	23000	46877027	2544	11.06	3980310	8.49	1.3027	
-21200	-20700	-20950	23000	46877027	2571	11.18	3980283	8.49	1.3165	
-21150	-20650	-20900	23000	46877027	2532	11.01	3980322	8.49	1.2965	
-21100	-20600	-20850	23000	46877027	2537	11.03	3980317	8.49	1.2991	
-21050	-20550	-20800	23000	46877027	2491	10.83	3980363	8.49	1.2755	
-21000	-20500	-20750	23000	46877027	2497	10.86	3980357	8.49	1.2786	
-20950	-20450	-20700	23000	46877027	2550	11.09	3980304	8.49	1.3057	
-20900	-20400	-20650	23000	46877027	2629	11.43	3980225	8.49	1.3462	
-20850	-20350	-20600	23000	46877027	2851	12.40	3980003	8.49	1.4600	
-20800	-20300	-20550	23000	46877027	3109	13.52	3979745	8.49	1.5922	
-20750	-20250	-20500	23000	46877027	3384	14.71	3979470	8.49	1.7332	
-20700	-20200	-20450	23000	46877027	3602	15.66	3979252	8.49	1.8449	
-20650	-20150	-20400	23000	46877027	3803	16.53	3979051	8.49	1.9480	
-20600	-20100	-20350	23000	46877027	3953	17.19	3978901	8.49	2.0249	
-20550	-20050	-20300	23000	46877027	4099	17.82	3978755	8.49	2.0997	
-20500	-20000	-20250	22932	46877095	4170	18.18	3978684	8.49	2.1425	
-20450	-19950	-20200	22832	46877195	4134	18.11	3978720	8.49	2.1333	
-20400	-19900	-20150	22732	46877295	4008	17.63	3978846	8.49	2.0773	
-20350	-19850	-20100	22632	46877395	3817	16.87	3979037	8.49	1.9869	
-20300	-19800	-20050	22532	46877495	3611	16.03	3979243	8.49	1.8880	
-20250	-19750	-20000	22568	46877459	3508	15.54	3979346	8.49	1.8311	
-20200	-19700	-19950	22668	46877359	3374	14.88	3979480	8.49	1.7534	
-20150	-19650	-19900	22768	46877259	3269	14.36	3979585	8.49	1.6913	
-20100	-19600	-19850	22868	46877159	3177	13.89	3979677	8.49	1.6364	
-20050	-19550	-19800	22968	46877059	3161	13.76	3979693	8.49	1.6211	
-20000	-19500	-19750	23000	46877027	3329	14.47	3979525	8.49	1.7050	
-19950	-19450	-19700	23000	46877027	3690	16.04	3979164	8.49	1.8900	
-19900	-19400	-19650	23000	46877027	4087	17.77	3978767	8.49	2.0936	
-19850	-19350	-19600	23000	46877027	4378	19.03	3978476	8.49	2.2428	
-19800	-19300	-19550	23000	46877027	4716	20.50	3978138	8.49	2.4162	
-19750	-19250	-19500	23000	46877027	4920	21.39	3977934	8.49	2.5208	
-19700	-19200	-19450	23000	46877027	5189	22.56	3977665	8.49	2.6588	
-19650	-19150	-19400	23000	46877027	5328	23.17	3977526	8.49	2.7301	
-19600	-19100	-19350	23000	46877027	5420	23.57	3977434	8.48	2.7773	
-19550	-19050	-19300	23000	46877027	5452	23.70	3977402	8.48	2.7938	
-19500	-19000	-19250	23000	46877027	5315	23.11	3977539	8.49	2.7235	
-19450	-18950	-19200	23000	46877027	5017	21.81	3977837	8.49	2.5706	
-19400	-18900	-19150	23000	46877027	4730	20.57	3978124	8.49	2.4233	
-19350	-18850	-19100	23000	46877027	4466	19.42	3978388	8.49	2.2879	
-19300	-18800	-19050	23000	46877027	4133	17.97	3978721	8.49	2.1172	
-19250	-18750	-19000	23000	46877027	3807	16.55	3979047	8.49	1.9500	
-19200	-18700	-18950	23000	46877027	3489	15.17	3979365	8.49	1.7870	
-19150	-18650	-18900	23000	46877027	3211	13.96	3979643	8.49	1.6445	
-19100	-18600	-18850	23000	46877027	3078	13.38	3979776	8.49	1.5763	
-19050	-18550	-18800	23000	46877027	3051	13.27	3979803	8.49	1.5625	
-19000	-18500	-18750	23000	46877027	2969	12.91	3979885	8.49	1.5204	
-18950	-18450	-18700	23000	46877027	2979	12.95	3979875	8.49	1.5256	
-18900	-18400	-18650	23000	46877027	2945	12.80	3979909	8.49	1.5081	
-18850	-18350	-18600	23000	46877027	2885	12.54	3979969	8.49	1.4774	
-18800	-18300	-18550	23000	46877027	2786	12.11	3980068	8.49	1.4267	
-18750	-18250	-18500	23000	46877027	2733	11.88	3980121	8.49	1.3995	
-18700	-18200	-18450	23000	46877027	2683	11.67	3980171	8.49	1.3739	
-18650	-18150	-18400	23000	46877027	2682	11.66	3980172	8.49	1.3734	
-18600	-18100	-18350	23000	46877027	2725	11.85	3980129	8.49	1.3954	
-18550	-18050	-18300	23000	46877027	2670	11.61	3980184	8.49	1.3672	
-18500	-18000	-18250	23000	46877027	2648	11.51	3980206	8.49	1.3560	
-18450	-17950	-18200	23000	46877027	2632	11.44	3980222	8.49	1.3478	
-18400	-17900	-18150	23000	46877027	2746	11.94	3980108	8.49	1.4062	
-18350	-17850	-18100	23000	46877027	2924	12.71	3979930	8.49	1.4974	
-18300	-17800	-18050	23000	46877027	3108	13.51	3979746	8.49	1.5917	
-18250	-17750	-18000	23000	46877027	3276	14.24	3979578	8.49	1.6778	
-18200	-17700	-17950	23000	46877027	3459	15.04	3979395	8.49	1.7716	
-18150	-17650	-17900	23000	46877027	3655	15.89	3979199	8.49	1.8721	
-18100	-17600	-17850	23000	46877027	3664	15.93	3979190	8.49	1.8767	
-18050	-17550	-17800	23000	46877027	3645	15.85	3979209	8.49	1.8670	
-18000	-17500	-17750	23000	46877027	3734	16.23	3979120	8.49	1.9126	
-17950	-17450	-17700	23000	46877027	3751	16.31	3979103	8.49	1.9213	
-17900	-17400	-17650	23000	46877027	3608	15.69	3979246	8.49	1.8480	
-17850	-17350	-17600	23000	46877027	3430	14.91	3979424	8.49	1.7567	
-17800	-17300	-17550	23000	46877027	3287	14.29	3979567	8.49	1.6834	
-17750	-17250	-17500	23000	46877027	3184	13.84	3979670	8.49	1.6306	
-17700	-17200	-17450	23000	46877027	3084	13.41	3979770	8.49	1.5794	
-17650	-17150	-17400	23000	46877027	2916	12.68	3979938	8.49	1.4933	
-17600	-17100	-17350	23000	46877027	2775	12.07	3980079	8.49	1.4210	
-17550	-17050	-17300	23000	46877027	2676	11.63	3980178	8.49	1.3703	
-17500	-17000	-17250	23000	46877027	2510	10.91	3980344	8.49	1.2852	
-17450	-16950	-17200	23000	46877027	2413	10.49	3980441	8.49	1.2355	
-17400	-16900	-17150	23000	46877027	2371	10.31	3980483	8.49	1.2140	
-17350	-16850	-17100	23000	46877027	2371	10.31	3980483	8.49	1.2140	
-17300	-16800	-17050	23000	46877027	2411	10.48	3980443	8.49	1.2345	
-17250	-16750	-17000	23000	46877027	2447	10.64	3980407	8.49	1.2530	
-17200	-16700	-16950	23000	46877027	2441	10.61	3980413	8.49	1.2499	
-17150	-16650	-16900	23000	46877027	2577	11.20	3980277	8.49	1.3196	
-17100	-16600	-16850	23000	46877027	2721	11.83	3980133	8.49	1.3934	
-17050	-16550	-16800	23000	46877027	2827	12.29	3980027	8.49	1.4477	
-17000	-16500	-16750	23000	46877027	2962	12.88	3979892	8.49	1.5169	
-16950	-16450	-16700	23000	46877027	3080	13.39	3979774	8.49	1.5773	
-16900	-16400	-16650	23000	46877027	3172	13.79	3979682	8.49	1.6245	
-16850	-16350	-16600	23000	46877027	3207	13.94	3979647	8.49	1.6424	
-16800	-16300	-16550	23000	46877027	3314	14.41	3979540	8.49	1.6973	
-16750	-16250	-16500	23000	46877027	3366	14.63	3979488	8.49	1.7239	
-16700	-16200	-16450	23000	46877027	3489	15.17	3979365	8.49	1.7870	
-16650	-16150	-16400	23000	46877027	3561	15.48	3979293	8.49	1.8239	
-16600	-16100	-16350	23000	46877027	3598	15.64	3979256	8.49	1.8429	
-16550	-16050	-16300	23000	46877027	3649	15.87	3979205	8.49	1.8690	
-16500	-16000	-16250	23000	46877027	3664	15.93	3979190	8.49	1.8767	
-16450	-15950	-16200	23000	46877027	3595	15.63	3979259	8.49	1.8413	
-16400	-15900	-16150	23000	46877027	3489	15.17	3979365	8.49	1.7870	
-16350	-15850	-16100	23000	46877027	3357	14.60	3979497	8.49	1.7193	
-16300	-15800	-16050	23000	46877027	3190	13.87	3979664	8.49	1.6337	
-16250	-15750	-16000	23000	46877027	3232	14.05	3979622	8.49	1.6552	
-16200	-15700	-15950	23000	46877027	3315	14.41	3979539	8.49	1.6978	
-16150	-15650	-15900	23000	46877027	3295	14.33	3979559	8.49	1.6875	
-16100	-15600	-15850	23000	46877027	3200	13.91	3979654	8.49	1.6388	
-16050	-15550	-15800	23000	46877027	3224	14.02	3979630	8.49	1.6511	
-16000	-15500	-15750	23000	46877027	3250	14.13	3979604	8.49	1.6645	
-15950	-15450	-15700	23000	46877027	3330	14.48	3979524	8.49	1.7055	
-15900	-15400	-15650	23000	46877027	3429	14.91	3979425	8.49	1.7562	
-15850	-15350	-15600	23000	46877027	3600	15.65	3979254	8.49	1.8439	
-15800	-15300	-15550	23000	46877027	3653	15.88	3979201	8.49	1.8711	
-15750	-15250	-15500	23000	46877027	3592	15.62	3979262	8.49	1.8398	
-15700	-15200	-15450	23000	46877027	3546	15.42	3979308	8.49	1.8162	
-15650	-15150	-15400	23000	46877027	3595	15.63	3979259	8.49	1.8413	
-15600	-15100	-15350	23000	46877027	3709	16.13	3979145	8.49	1.8998	
-15550	-15050	-15300	23000	46877027	3665	15.93	3979189	8.49	1.8772	
-15500	-15000	-15250	23000	46877027	3715	16.15	3979139	8.49	1.9028	
-15450	-14950	-15200	23000	46877027	3788	16.47	3979066	8.49	1.9403	
-15400	-14900	-15150	23000	46877027	3927	17.07	3978927	8.49	2.0115	
-15350	-14850	-15100	23000	46877027	3955	17.20	3978899	8.49	2.0259	
-15300	-14800	-15050	23000	46877027	3998	17.38	3978856	8.49	2.0479	
-15250	-14750	-15000	23000	46877027	4007	17.42	3978847	8.49	2.0526	
-15200	-14700	-14950	23000	46877027	3953	17.19	3978901	8.49	2.0249	
-15150	-14650	-14900	23000	46877027	3873	16.84	3978981	8.49	1.9838	
-15100	-14600	-14850	23000	46877027	3714	16.15	3979140	8.49	1.9023	
-15050	-14550	-14800	23000	46877027	3587	15.60	3979267	8.49	1.8372	
-15000	-14500	-14750	23000	46877027	3361	14.61	3979493	8.49	1.7214	
-14950	-14450	-14700	23000	46877027	3129	13.60	3979725	8.49	1.6025	
-14900	-14400	-14650	23000	46877027	2901	12.61	3979953	8.49	1.4856	
-14850	-14350	-14600	23000	46877027	2713	11.80	3980141	8.49	1.3893	
-14800	-14300	-14550	23000	46877027	2588	11.25	3980266	8.49	1.3252	
-14750	-14250	-14500	23000	46877027	2475	10.76	3980379	8.49	1.2673	
-14700	-14200	-14450	23000	46877027	2452	10.66	3980402	8.49	1.2555	
-14650	-14150	-14400	23000	46877027	2485	10.80	3980369	8.49	1.2724	
-14600	-14100	-14350	23000	46877027	2785	12.11	3980069	8.49	1.4262	
-14550	-14050	-14300	23000	46877027	3153	13.71	3979701	8.49	1.6148	
-14500	-14000	-14250	23000	46877027	3504	15.23	3979350	8.49	1.7947	
-14450	-13950	-14200	23000	46877027	3771	16.40	3979083	8.49	1.9315	
-14400	-13900	-14150	23000	46877027	3953	17.19	3978901	8.49	2.0249	
-14350	-13850	-14100	23000	46877027	4191	18.22	3978663	8.49	2.1469	
-14300	-13800	-14050	23000	46877027	4371	19.00	3978483	8.49	2.2392	
-14250	-13750	-14000	23000	46877027	4494	19.54	3978360	8.49	2.3023	
-14200	-13700	-13950	23000	46877027	4467	19.42	3978387	8.49	2.2884	
-14150	-13650	-13900	23000	46877027	4381	19.05	3978473	8.49	2.2443	
-14100	-13600	-13850	23000	46877027	4192	18.23	3978662	8.49	2.1474	
-14050	-13550	-13800	23000	46877027	3988	17.34	3978866	8.49	2.0428	
-14000	-13500	-13750	23000	46877027	3777	16.42	3979077	8.49	1.9346	
-13950	-13450	-13700	23000	46877027	3649	15.87	3979205	8.49	1.8690	
-13900	-13400	-13650	23000	46877027	3663	15.93	3979191	8.49	1.8762	
-13850	-13350	-13600	23000	46877027	3713	16.14	3979141	8.49	1.9018	
-13800	-13300	-13550	23000	46877027	3742	16.27	3979112	8.49	1.9167	
-13750	-13250	-13500	23000	46877027	3751	16.31	3979103	8.49	1.9213	
-13700	-13200	-13450	23000	46877027	3882	16.88	3978972	8.49	1.9885	
-13650	-13150	-13400	23000	46877027	4030	17.52	3978824	8.49	2.0643	
-13600	-13100	-13350	23000	46877027	4154	18.06	3978700	8.49	2.1279	
-13550	-13050	-13300	23000	46877027	4254	18.50	3978600	8.49	2.1792	
-13500	-13000	-13250	23000	46877027	4276	18.59	3978578	8.49	2.1905	
-13450	-12950	-13200	23000	46877027	4277	18.60	3978577	8.49	2.1910	
-13400	-12900	-13150	23000	46877027	4177	18.16	3978677	8.49	2.1397	
-13350	-12850	-13100	23000	46877027	4042	17.57	3978812	8.49	2.0705	
-13300	-12800	-13050	23000	46877027	3982	17.31	3978872	8.49	2.0397	
-13250	-12750	-13000	23000	46877027	4041	17.57	3978813	8.49	2.0700	
-13200	-12700	-12950	23000	46877027	3996	17.37	3978858	8.49	2.0469	
-13150	-12650	-12900	23000	46877027	3962	17.23	3978892	8.49	2.0295	
-13100	-12600	-12850	23000	46877027	3929	17.08	3978925	8.49	2.0126	
-13050	-12550	-12800	23000	46877027	3881	16.87	3978973	8.49	1.9879	
-13000	-12500	-12750	23000	46877027	3890	16.91	3978964	8.49	1.9926	
-12950	-12450	-12700	23000	46877027	4007	17.42	3978847	8.49	2.0526	
-12900	-12400	-12650	23000	46877027	4136	17.98	3978718	8.49	2.1187	
-12850	-12350	-12600	23000	46877027	4240	18.43	3978614	8.49	2.1720	
-12800	-12300	-12550	23000	46877027	4346	18.90	3978508	8.49	2.2264	
-12750	-12250	-12500	23000	46877027	4360	18.96	3978494	8.49	2.2336	
-12700	-12200	-12450	23000	46877027	4363	18.97	3978491	8.49	2.2351	
-12650	-12150	-12400	23000	46877027	4286	18.63	3978568	8.49	2.1956	
-12600	-12100	-12350	23000	46877027	4145	18.02	3978709	8.49	2.1233	
-12550	-12050	-12300	23000	46877027	4037	17.55	3978817	8.49	2.0679	
-12500	-12000	-12250	23000	46877027	3966	17.24	3978888	8.49	2.0315	
-12450	-11950	-12200	23000	46877027	3821	16.61	3979033	8.49	1.9572	
-12400	-11900	-12150	23000	46877027	3774	16.41	3979080	8.49	1.9331	
-12350	-11850	-12100	23000	46877027	3817	16.60	3979037	8.49	1.9551	
-12300	-11800	-12050	23000	46877027	3828	16.64	3979026	8.49	1.9608	
-12250	-11750	-12000	23000	46877027	3879	16.87	3978975	8.49	1.9869	
-12200	-11700	-11950	23000	46877027	3944	17.15	3978910	8.49	2.0202	
-12150	-11650	-11900	23000	46877027	3923	17.06	3978931	8.49	2.0095	
-12100	-11600	-11850	23000	46877027	4000	17.39	3978854	8.49	2.0490	
-12050	-11550	-11800	23000	46877027	4050	17.61	3978804	8.49	2.0746	
-12000	-11500	-11750	23000	46877027	4111	17.87	3978743	8.49	2.1059	
-11950	-11450	-11700	23000	46877027	4130	17.96	3978724	8.49	2.1156	
-11900	-11400	-11650	23000	46877027	4046	17.59	3978808	8.49	2.0726	
-11850	-11350	-11600	23000	46877027	3950	17.17	3978904	8.49	2.0233	
-11800	-11300	-11550	23000	46877027	3782	16.44	3979072	8.49	1.9372	
-11750	-11250	-11500	23000	46877027	3497	15.20	3979357	8.49	1.7911	
-11700	-11200	-11450	23000	46877027	3285	14.28	3979569	8.49	1.6824	
-11650	-11150	-11400	23000	46877027	3316	14.42	3979538	8.49	1.6983	
-11600	-11100	-11350	23000	46877027	3356	14.59	3979498	8.49	1.7188	
-11550	-11050	-11300	23000	46877027	3487	15.16	3979367	8.49	1.7860	
-11500	-11000	-11250	22931	46877096	3550	15.48	3979304	8.49	1.8237	
-11450	-10950	-11200	22831	46877196	3553	15.56	3979301	8.49	1.8333	
-11400	-10900	-11150	22731	46877296	3643	16.03	3979211	8.49	1.8880	
-11350	-10850	-11100	22631	46877396	3741	16.53	3979113	8.49	1.9474	
-11300	-10800	-11050	22531	46877496	3923	17.41	3978931	8.49	2.0513	
-11250	-10750	-11000	22569	46877458	4202	18.62	3978652	8.49	2.1937	
-11200	-10700	-10950	22669	46877358	4398	19.40	3978456	8.49	2.2860	
-11150	-10650	-10900	22769	46877258	4580	20.12	3978274	8.49	2.3702	
-11100	-10600	-10850	22869	46877158	4743	20.74	3978111	8.49	2.4439	
-11050	-10550	-10800	22969	46877058	4868	21.19	3977986	8.49	2.4975	
-11000	-10500	-10750	23000	46877027	4858	21.12	3977996	8.49	2.4890	
-10950	-10450	-10700	23000	46877027	4820	20.96	3978034	8.49	2.4695	
-10900	-10400	-10650	23000	46877027	4696	20.42	3978158	8.49	2.4059	
-10850	-10350	-10600	23000	46877027	4573	19.88	3978281	8.49	2.3428	
-10800	-10300	-10550	23000	46877027	4498	19.56	3978356	8.49	2.3043	
-10750	-10250	-10500	23000	46877027	4441	19.31	3978413	8.49	2.2751	
-10700	-10200	-10450	23000	46877027	4379	19.04	3978475	8.49	2.2433	
-10650	-10150	-10400	23000	46877027	4345	18.89	3978509	8.49	2.2259	
-10600	-10100	-10350	23000	46877027	4285	18.63	3978569	8.49	2.1951	
-10550	-10050	-10300	23000	46877027	4198	18.25	3978656	8.49	2.1505	
-10500	-10000	-10250	23000	46877027	4246	18.46	3978608	8.49	2.1751	
-10450	-9950	-10200	23000	46877027	4329	18.82	3978525	8.49	2.2177	
-10400	-9900	-10150	23000	46877027	4447	19.33	3978407	8.49	2.2782	
-10350	-9850	-10100	23000	46877027	4573	19.88	3978281	8.49	2.3428	
-10300	-9800	-10050	23000	46877027	4628	20.12	3978226	8.49	2.3710	
-10250	-9750	-10000	23000	46877027	4666	20.29	3978188	8.49	2.3905	
-10200	-9700	-9950	23000	46877027	4740	20.61	3978114	8.49	2.4285	
-10150	-9650	-9900	23000	46877027	4726	20.55	3978128	8.49	2.4213	
-10100	-9600	-9850	23000	46877027	4552	19.79	3978302	8.49	2.3320	
-10050	-9550	-9800	23000	46877027	4318	18.77	3978536	8.49	2.2120	
-10000	-9500	-9750	23000	46877027	3969	17.26	3978885	8.49	2.0331	
-9950	-9450	-9700	23000	46877027	3717	16.16	3979137	8.49	1.9039	
-9900	-9400	-9650	23000	46877027	3455	15.02	3979399	8.49	1.7695	
-9850	-9350	-9600	23000	46877027	3194	13.89	3979660	8.49	1.6358	
-9800	-9300	-9550	23000	46877027	3038	13.21	3979816	8.49	1.5558	
-9750	-9250	-9500	23000	46877027	2968	12.90	3979886	8.49	1.5199	
-9700	-9200	-9450	23000	46877027	2977	12.94	3979877	8.49	1.5245	
-9650	-9150	-9400	23000	46877027	3005	13.07	3979849	8.49	1.5389	
-9600	-9100	-9350	23000	46877027	3173	13.80	3979681	8.49	1.6250	
-9550	-9050	-9300	23000	46877027	3324	14.45	3979530	8.49	1.7024	
-9500	-9000	-9250	23000	46877027	3493	15.19	3979361	8.49	1.7890	
-9450	-8950	-9200	23000	46877027	3592	15.62	3979262	8.49	1.8398	
-9400	-8900	-9150	23000	46877027	3641	15.83	3979213	8.49	1.8649	
-9350	-8850	-9100	23000	46877027	3685	16.02	3979169	8.49	1.8875	
-9300	-8800	-9050	23000	46877027	3639	15.82	3979215	8.49	1.8639	
-9250	-8750	-9000	23000	46877027	3507	15.25	3979347	8.49	1.7962	
-9200	-8700	-8950	23000	46877027	3309	14.39	3979545	8.49	1.6947	
-9150	-8650	-8900	23000	46877027	3158	13.73	3979696	8.49	1.6173	
-9100	-8600	-8850	23000	46877027	3057	13.29	3979797	8.49	1.5655	
-9050	-8550	-8800	23000	46877027	3090	13.43	3979764	8.49	1.5825	
-9000	-8500	-8750	23000	46877027	3196	13.90	3979658	8.49	1.6368	
-8950	-8450	-8700	23000	46877027	3344	14.54	3979510	8.49	1.7127	
-8900	-8400	-8650	23000	46877027	3433	14.93	3979421	8.49	1.7583	
-8850	-8350	-8600	23000	46877027	3424	14.89	3979430	8.49	1.7537	
-8800	-8300	-8550	23000	46877027	3408	14.82	3979446	8.49	1.7455	
-8750	-8250	-8500	23000	46877027	3457	15.03	3979397	8.49	1.7706	
-8700	-8200	-8450	23000	46877027	3520	15.30	3979334	8.49	1.8029	
-8650	-8150	-8400	23000	46877027	3531	15.35	3979323	8.49	1.8085	
-8600	-8100	-8350	23000	46877027	3595	15.63	3979259	8.49	1.8413	
-8550	-8050	-8300	23000	46877027	3626	15.77	3979228	8.49	1.8572	
-8500	-8000	-8250	23000	46877027	3575	15.54	3979279	8.49	1.8311	
-8450	-7950	-8200	23000	46877027	3468	15.08	3979386	8.49	1.7762	
-8400	-7900	-8150	23000	46877027	3337	14.51	3979517	8.49	1.7091	
-8350	-7850	-8100	23000	46877027	3215	13.98	3979639	8.49	1.6465	
-8300	-7800	-8050	23000	46877027	3187	13.86	3979667	8.49	1.6322	
-8250	-7750	-8000	23000	46877027	3168	13.77	3979686	8.49	1.6224	
-8200	-7700	-7950	23000	46877027	3189	13.87	3979665	8.49	1.6332	
-8150	-7650	-7900	23000	46877027	3162	13.75	3979692	8.49	1.6194	
-8100	-7600	-7850	23000	46877027	3005	13.07	3979849	8.49	1.5389	
-8050	-7550	-7800	23000	46877027	2803	12.19	3980051	8.49	1.4354	
-8000	-7500	-7750	23000	46877027	2614	11.37	3980240	8.49	1.3385	
-7950	-7450	-7700	23000	46877027	2411	10.48	3980443	8.49	1.2345	
-7900	-7400	-7650	23000	46877027	2310	10.04	3980544	8.49	1.1828	
-7850	-7350	-7600	23000	46877027	2246	9.77	3980608	8.49	1.1500	
-7800	-7300	-7550	23000	46877027	2175	9.46	3980679	8.49	1.1136	
-7750	-7250	-7500	23000	46877027	2134	9.28	3980720	8.49	1.0926	
-7700	-7200	-7450	23000	46877027	2068	8.99	3980786	8.49	1.0588	
-7650	-7150	-7400	23000	46877027	2071	9.00	3980783	8.49	1.0603	
-7600	-7100	-7350	23000	46877027	2158	9.38	3980696	8.49	1.1049	
-7550	-7050	-7300	23000	46877027	2261	9.83	3980593	8.49	1.1577	
-7500	-7000	-7250	23000	46877027	2304	10.02	3980550	8.49	1.1797	
-7450	-6950	-7200	23000	46877027	2339	10.17	3980515	8.49	1.1976	
-7400	-6900	-7150	23000	46877027	2363	10.27	3980491	8.49	1.2099	
-7350	-6850	-7100	23000	46877027	2413	10.49	3980441	8.49	1.2355	
-7300	-6800	-7050	23000	46877027	2420	10.52	3980434	8.49	1.2391	
-7250	-6750	-7000	23000	46877027	2368	10.30	3980486	8.49	1.2125	
-7200	-6700	-6950	23000	46877027	2393	10.40	3980461	8.49	1.2253	
-7150	-6650	-6900	23000	46877027	2479	10.78	3980375	8.49	1.2694	
-7100	-6600	-6850	23000	46877027	2512	10.92	3980342	8.49	1.2863	
-7050	-6550	-6800	23000	46877027	2505	10.89	3980349	8.49	1.2827	
-7000	-6500	-6750	22976	46877051	2542	11.06	3980312	8.49	1.3030	
-6950	-6450	-6700	22876	46877151	2639	11.54	3980215	8.49	1.3587	
-6900	-6400	-6650	22776	46877251	2896	12.72	3979958	8.49	1.4976	
-6850	-6350	-6600	22676	46877351	3202	14.12	3979652	8.49	1.6633	
-6800	-6300	-6550	22576	46877451	3575	15.84	3979279	8.49	1.8655	
-6750	-6250	-6500	22524	46877503	3818	16.95	3979036	8.49	1.9970	
-6700	-6200	-6450	22624	46877403	3948	17.45	3978906	8.49	2.0559	
-6650	-6150	-6400	22724	46877303	4002	17.61	3978852	8.49	2.0749	
-6600	-6100	-6350	22824	46877203	4050	17.74	3978804	8.49	2.0906	
-6550	-6050	-6300	22924	46877103	4206	18.35	3978648	8.49	2.1617	
-6500	-6000	-6250	23000	46877027	4411	19.18	3978443	8.49	2.2597	
-6450	-5950	-6200	23000	46877027	4640	20.17	3978214	8.49	2.3772	
-6400	-5900	-6150	23000	46877027	4680	20.35	3978174	8.49	2.3977	
-6350	-5850	-6100	23000	46877027	4598	19.99	3978256	8.49	2.3556	
-6300	-5800	-6050	23000	46877027	4355	18.93	3978499	8.49	2.2310	
-6250	-5750	-6000	23000	46877027	4210	18.30	3978644	8.49	2.1566	
-6200	-5700	-5950	23000	46877027	4026	17.50	3978828	8.49	2.0623	
-6150	-5650	-5900	23000	46877027	3973	17.27	3978881	8.49	2.0351	
-6100	-5600	-5850	23000	46877027	4055	17.63	3978799	8.49	2.0772	
-6050	-5550	-5800	23000	46877027	4036	17.55	3978818	8.49	2.0674	
-6000	-5500	-5750	23000	46877027	3940	17.13	3978914	8.49	2.0182	
-5950	-5450	-5700	23000	46877027	3782	16.44	3979072	8.49	1.9372	
-5900	-5400	-5650	23000	46877027	3712	16.14	3979142	8.49	1.9013	
-5850	-5350	-5600	23000	46877027	3702	16.10	3979152	8.49	1.8962	
-5800	-5300	-5550	23000	46877027	3797	16.51	3979057	8.49	1.9449	
-5750	-5250	-5500	23000	46877027	3876	16.85	3978978	8.49	1.9854	
-5700	-5200	-5450	23000	46877027	4026	17.50	3978828	8.49	2.0623	
-5650	-5150	-5400	23000	46877027	3964	17.23	3978890	8.49	2.0305	
-5600	-5100	-5350	23000	46877027	3788	16.47	3979066	8.49	1.9403	
-5550	-5050	-5300	23000	46877027	3607	15.68	3979247	8.49	1.8475	
-5500	-5000	-5250	23000	46877027	3561	15.48	3979293	8.49	1.8239	
-5450	-4950	-5200	23000	46877027	3567	15.51	3979287	8.49	1.8270	
-5400	-4900	-5150	23000	46877027	3481	15.13	3979373	8.49	1.7829	
-5350	-4850	-5100	23000	46877027	3409	14.82	3979445	8.49	1.7460	
-5300	-4800	-5050	23000	46877027	3373	14.67	3979481	8.49	1.7275	
-5250	-4750	-5000	23000	46877027	3341	14.53	3979513	8.49	1.7111	
-5200	-4700	-4950	23000	46877027	3308	14.38	3979546	8.49	1.6942	
-5150	-4650	-4900	23000	46877027	3367	14.64	3979487	8.49	1.7244	
-5100	-4600	-4850	23000	46877027	3412	14.83	3979442	8.49	1.7475	
-5050	-4550	-4800	23000	46877027	3470	15.09	3979384	8.49	1.7772	
-5000	-4500	-4750	23000	46877027	3516	15.29	3979338	8.49	1.8008	
-4950	-4450	-4700	23000	46877027	3477	15.12	3979377	8.49	1.7808	
-4900	-4400	-4650	23000	46877027	3542	15.40	3979312	8.49	1.8141	
-4850	-4350	-4600	23000	46877027	3572	15.53	3979282	8.49	1.8295	
-4800	-4300	-4550	23000	46877027	3590	15.61	3979264	8.49	1.8388	
-4750	-4250	-4500	23000	46877027	3675	15.98	3979179	8.49	1.8823	
-4700	-4200	-4450	23000	46877027	3743	16.27	3979111	8.49	1.9172	
-4650	-4150	-4400	23000	46877027	3736	16.24	3979118	8.49	1.9136	
-4600	-4100	-4350	23000	46877027	3819	16.60	3979035	8.49	1.9562	
-4550	-4050	-4300	23000	46877027	3888	16.90	3978966	8.49	1.9915	
-4500	-4000	-4250	23000	46877027	3854	16.76	3979000	8.49	1.9741	
-4450	-3950	-4200	23000	46877027	3854	16.76	3979000	8.49	1.9741	
-4400	-3900	-4150	23000	46877027	3756	16.33	3979098	8.49	1.9239	
-4350	-3850	-4100	23000	46877027	3674	15.97	3979180	8.49	1.8818	
-4300	-3800	-4050	23000	46877027	3599	15.65	3979255	8.49	1.8434	
-4250	-3750	-4000	23000	46877027	3449	15.00	3979405	8.49	1.7665	
-4200	-3700	-3950	23000	46877027	3300	14.35	3979554	8.49	1.6901	
-4150	-3650	-3900	23000	46877027	3223	14.01	3979631	8.49	1.6506	
-4100	-3600	-3850	23000	46877027	3064	13.32	3979790	8.49	1.5691	
-4050	-3550	-3800	23000	46877027	2950	12.83	3979904	8.49	1.5107	
-4000	-3500	-3750	23000	46877027	2925	12.72	3979929	8.49	1.4979	
-3950	-3450	-3700	23000	46877027	2847	12.38	3980007	8.49	1.4579	
-3900	-3400	-3650	23000	46877027	2789	12.13	3980065	8.49	1.4282	
-3850	-3350	-3600	23000	46877027	2769	12.04	3980085	8.49	1.4180	
-3800	-3300	-3550	23000	46877027	2729	11.87	3980125	8.49	1.3975	
-3750	-3250	-3500	23000	46877027	2742	11.92	3980112	8.49	1.4041	
-3700	-3200	-3450	23000	46877027	2834	12.32	3980020	8.49	1.4513	
-3650	-3150	-3400	23000	46877027	3001	13.05	3979853	8.49	1.5368	
-3600	-3100	-3350	23000	46877027	3161	13.74	3979693	8.49	1.6189	
-3550	-3050	-3300	23000	46877027	3325	14.46	3979529	8.49	1.7029	
-3500	-3000	-3250	22986	46877041	3320	14.44	3979534	8.49	1.7014	
-3450	-2950	-3200	22886	46877141	3338	14.59	3979516	8.49	1.7181	
-3400	-2900	-3150	22786	46877241	3334	14.63	3979520	8.49	1.7236	
-3350	-2850	-3100	22686	46877341	3314	14.61	3979540	8.49	1.7208	
-3300	-2800	-3050	22586	46877441	3291	14.57	3979563	8.49	1.7164	
-3250	-2750	-3000	22514	46877513	3287	14.60	3979567	8.49	1.7198	
-3200	-2700	-2950	22614	46877413	3305	14.61	3979549	8.49	1.7216	
-3150	-2650	-2900	22714	46877313	3185	14.02	3979669	8.49	1.6517	
-3100	-2600	-2850	22814	46877213	3090	13.54	3979764	8.49	1.5954	
-3050	-2550	-2800	22914	46877113	3059	13.35	3979795	8.49	1.5725	
-3000	-2500	-2750	23000	46877027	3150	13.70	3979704	8.49	1.6132	
-2950	-2450	-2700	23000	46877027	3173	13.80	3979681	8.49	1.6250	
-2900	-2400	-2650	23000	46877027	3141	13.66	3979713	8.49	1.6086	
-2850	-2350	-2600	23000	46877027	3046	13.24	3979808	8.49	1.5599	
-2800	-2300	-2550	23000	46877027	2937	12.77	3979917	8.49	1.5040	
-2750	-2250	-2500	23000	46877027	2773	12.06	3980081	8.49	1.4200	
-2700	-2200	-2450	23000	46877027	2668	11.60	3980186	8.49	1.3662	
-2650	-2150	-2400	23000	46877027	2611	11.35	3980243	8.49	1.3370	
-2600	-2100	-2350	23000	46877027	2518	10.95	3980336	8.49	1.2893	
-2550	-2050	-2300	23000	46877027	2312	10.05	3980542	8.49	1.1838	
-2500	-2000	-2250	23000	46877027	2033	8.84	3980821	8.49	1.0409	
-2450	-1950	-2200	23000	46877027	1863	8.10	3980991	8.49	0.9538	
-2400	-1900	-2150	23000	46877027	1749	7.60	3981105	8.49	0.8954	
-2350	-1850	-2100	23000	46877027	1690	7.35	3981164	8.49	0.8652	
-2300	-1800	-2050	23000	46877027	1614	7.02	3981240	8.49	0.8263	
-2250	-1750	-2000	23000	46877027	1560	6.78	3981294	8.49	0.7986	
-2200	-1700	-1950	23000	46877027	1519	6.60	3981335	8.49	0.7776	
-2150	-1650	-1900	23000	46877027	1569	6.82	3981285	8.49	0.8032	
-2100	-1600	-1850	23000	46877027	1605	6.98	3981249	8.49	0.8217	
-2050	-1550	-1800	22951	46877076	1767	7.70	3981087	8.49	0.9066	
-2000	-1500	-1750	22851	46877176	2111	9.24	3980743	8.49	1.0879	
-1950	-1450	-1700	22751	46877276	2324	10.21	3980530	8.49	1.2030	
-1900	-1400	-1650	22651	46877376	2576	11.37	3980278	8.49	1.3394	
-1850	-1350	-1600	22551	46877476	2857	12.67	3979997	8.49	1.4922	
-1800	-1300	-1550	22549	46877478	3012	13.36	3979842	8.49	1.5734	
-1750	-1250	-1500	22649	46877378	3162	13.96	3979692	8.49	1.6445	
-1700	-1200	-1450	22749	46877278	3312	14.56	3979542	8.49	1.7150	
-1650	-1150	-1400	22849	46877178	3413	14.94	3979441	8.49	1.7596	
-1600	-1100	-1350	22949	46877078	3453	15.05	3979401	8.49	1.7725	
-1550	-1050	-1300	23000	46877027	3401	14.79	3979453	8.49	1.7419	
-1500	-1000	-1250	23000	46877027	3174	13.80	3979680	8.49	1.6255	
-1450	-950	-1200	23000	46877027	2902	12.62	3979952	8.49	1.4861	
-1400	-900	-1150	23000	46877027	2624	11.41	3980230	8.49	1.3437	
-1350	-850	-1100	23000	46877027	2350	10.22	3980504	8.49	1.2033	
-1300	-800	-1050	23000	46877027	2161	9.40	3980693	8.49	1.1064	
-1250	-750	-1000	23000	46877027	2021	8.79	3980833	8.49	1.0347	
-1200	-700	-950	23000	46877027	1928	8.38	3980926	8.49	0.9871	
-1150	-650	-900	23000	46877027	1827	7.94	3981027	8.49	0.9354	
-1100	-600	-850	23000	46877027	1776	7.72	3981078	8.49	0.9092	
-1050	-550	-800	23000	46877027	1714	7.45	3981140	8.49	0.8775	
-1000	-500	-750	23000	46877027	1664	7.23	3981190	8.49	0.8519	
-950	-450	-700	23000	46877027	1726	7.50	3981128	8.49	0.8836	
-900	-400	-650	23000	46877027	1853	8.06	3981001	8.49	0.9487	
-850	-350	-600	23000	46877027	2012	8.75	3980842	8.49	1.0301	
-800	-300	-550	23000	46877027	2162	9.40	3980692	8.49	1.1070	
-750	-250	-500	23000	46877027	2319	10.08	3980535	8.49	1.1874	
-700	-200	-450	23000	46877027	2512	10.92	3980342	8.49	1.2863	
-650	-150	-400	23000	46877027	2675	11.63	3980179	8.49	1.3698	
-600	-100	-350	23000	46877027	2846	12.37	3980008	8.49	1.4574	
-550	-50	-300	23000	46877027	3144	13.67	3979710	8.49	1.6101	
-500	0	-250	23000	46877027	3532	15.36	3979322	8.49	1.8090	
-450	50	-200	23000	46877027	3929	17.08	3978925	8.49	2.0126	
-400	100	-150	23000	46877027	4277	18.60	3978577	8.49	2.1910	
-350	150	-100	23000	46877027	4502	19.57	3978352	8.49	2.3064	
-300	200	-50	23000	46877027	4714	20.50	3978140	8.49	2.4151	
-250	250	0	23000	46877027	4955	21.54	3977899	8.49	2.5388	
-200	300	50	22958	46877069	5073	22.10	3977781	8.49	2.6041	
-150	350	100	22766	46877261	5177	22.74	3977677	8.49	2.6799	
-100	400	150	22466	46877561	5238	23.32	3977616	8.49	2.7478	
-50	450	200	22166	46877861	5123	23.11	3977731	8.49	2.7238	
0	500	250	21866	46878161	4977	22.76	3977877	8.49	2.6824	
50	550	300	21650	46878377	4744	21.91	3978110	8.49	2.5822	
100	600	350	21734	46878293	4644	21.37	3978210	8.49	2.5179	
150	650	400	22034	46877993	4652	21.11	3978202	8.49	2.4879	
200	700	450	22334	46877693	4739	21.22	3978115	8.49	2.5004	
250	750	500	22634	46877393	4789	21.16	3978065	8.49	2.4933	
300	800	550	22892	46877135	4853	21.20	3978001	8.49	2.4982	
350	850	600	23000	46877027	4675	20.33	3978179	8.49	2.3951	
400	900	650	22958	46877069	4453	19.40	3978401	8.49	2.2854	
450	950	700	22858	46877169	4347	19.02	3978507	8.49	2.2407	
500	1000	750	22758	46877269	4261	18.72	3978593	8.49	2.2060	
550	1050	800	22658	46877369	4230	18.67	3978624	8.49	2.1996	
600	1100	850	22558	46877469	4082	18.10	3978772	8.49	2.1320	
650	1150	900	22542	46877485	3899	17.30	3978955	8.49	2.0378	
700	1200	950	22642	46877385	3650	16.12	3979204	8.49	1.8991	
750	1250	1000	22742	46877285	3392	14.92	3979462	8.49	1.7570	
800	1300	1050	22842	46877185	3053	13.37	3979801	8.49	1.5743	
850	1350	1100	22942	46877085	2759	12.03	3980095	8.49	1.4164	
900	1400	1150	23000	46877027	2587	11.25	3980267	8.49	1.3247	
950	1450	1200	23000	46877027	2429	10.56	3980425	8.49	1.2437	
1000	1500	1250	23000	46877027	2244	9.76	3980610	8.49	1.1490	
1050	1550	1300	22900	46877127	2127	9.29	3980727	8.49	1.0938	
1100	1600	1350	22700	46877327	2084	9.18	3980770	8.49	1.0811	
1150	1650	1400	22500	46877527	2117	9.41	3980737	8.49	1.1080	
1200	1700	1450	22300	46877727	2206	9.89	3980648	8.49	1.1650	
1250	1750	1500	22100	46877927	2320	10.50	3980534	8.49	1.2363	
1300	1800	1550	22033	46877994	2451	11.12	3980403	8.49	1.3101	
1350	1850	1600	22133	46877894	2672	12.07	3980182	8.49	1.4219	
1400	1900	1650	22233	46877794	2844	12.79	3980010	8.49	1.5067	
1450	1950	1700	22333	46877694	3011	13.48	3979843	8.49	1.5880	
1500	2000	1750	22433	46877594	3232	14.41	3979622	8.49	1.6971	
1550	2050	1800	22567	46877460	3438	15.23	3979416	8.49	1.7946	
1600	2100	1850	22667	46877360	3680	16.24	3979174	8.49	1.9126	
1650	2150	1900	22767	46877260	3791	16.65	3979063	8.49	1.9617	
1700	2200	1950	22867	46877160	3947	17.26	3978907	8.49	2.0336	
1750	2250	2000	22967	46877060	4113	17.91	3978741	8.49	2.1099	
1800	2300	2050	23000	46877027	4187	18.20	3978667	8.49	2.1449	
1850	2350	2100	23000	46877027	4279	18.60	3978575	8.49	2.1920	
1900	2400	2150	23000	46877027	4288	18.64	3978566	8.49	2.1966	
1950	2450	2200	23000	46877027	4251	18.48	3978603	8.49	2.1777	
2000	2500	2250	23000	46877027	4101	17.83	3978753	8.49	2.1008	
2050	2550	2300	23000	46877027	3994	17.37	3978860	8.49	2.0459	
2100	2600	2350	23000	46877027	3937	17.12	3978917	8.49	2.0167	
2150	2650	2400	23000	46877027	3973	17.27	3978881	8.49	2.0351	
2200	2700	2450	23000	46877027	3935	17.11	3978919	8.49	2.0156	
2250	2750	2500	23000	46877027	3988	17.34	3978866	8.49	2.0428	
2300	2800	2550	23000	46877027	4030	17.52	3978824	8.49	2.0643	
2350	2850	2600	23000	46877027	3868	16.82	3978986	8.49	1.9813	
2400	2900	2650	23000	46877027	3802	16.53	3979052	8.49	1.9474	
2450	2950	2700	23000	46877027	3821	16.61	3979033	8.49	1.9572	
2500	3000	2750	23000	46877027	3871	16.83	3978983	8.49	1.9828	
2550	3050	2800	23000	46877027	3936	17.11	3978918	8.49	2.0161	
2600	3100	2850	23000	46877027	4003	17.40	3978851	8.49	2.0505	
2650	3150	2900	23000	46877027	3991	17.35	3978863	8.49	2.0443	
2700	3200	2950	23000	46877027	3954	17.19	3978900	8.49	2.0254	
2750	3250	3000	23000	46877027	3801	16.53	3979053	8.49	1.9469	
2800	3300	3050	23000	46877027	3592	15.62	3979262	8.49	1.8398	
2850	3350	3100	23000	46877027	3530	15.35	3979324	8.49	1.8080	
2900	3400	3150	23000	46877027	3457	15.03	3979397	8.49	1.7706	
2950	3450	3200	23000	46877027	3297	14.33	3979557	8.49	1.6886	
3000	3500	3250	22904	46877123	3051	13.32	3979803	8.49	1.5690	
3050	3550	3300	22804	46877223	2717	11.91	3980137	8.49	1.4033	
3100	3600	3350	22704	46877323	2371	10.44	3980483	8.49	1.2299	
3150	3650	3400	22604	46877423	2037	9.01	3980817	8.49	1.0612	
3200	3700	3450	22504	46877523	1756	7.80	3981098	8.49	0.9188	
3250	3750	3500	22596	46877431	1609	7.12	3981245	8.49	0.8384	
3300	3800	3550	22696	46877331	1585	6.98	3981269	8.49	0.8223	
3350	3850	3600	22796	46877231	1684	7.39	3981170	8.49	0.8698	
3400	3900	3650	22896	46877131	1798	7.85	3981056	8.49	0.9247	
3450	3950	3700	22996	46877031	1948	8.47	3980906	8.49	0.9975	
3500	4000	3750	23000	46877027	2002	8.70	3980852	8.49	1.0250	
3550	4050	3800	23000	46877027	2089	9.08	3980765	8.49	1.0696	
3600	4100	3850	23000	46877027	2176	9.46	3980678	8.49	1.1141	
3650	4150	3900	23000	46877027	2263	9.84	3980591	8.49	1.1587	
3700	4200	3950	23000	46877027	2348	10.21	3980506	8.49	1.2022	
3750	4250	4000	23000	46877027	2448	10.64	3980406	8.49	1.2535	
3800	4300	4050	23000	46877027	2515	10.93	3980339	8.49	1.2878	
3850	4350	4100	23000	46877027	2450	10.65	3980404	8.49	1.2545	
3900	4400	4150	23000	46877027	2477	10.77	3980377	8.49	1.2683	
3950	4450	4200	23000	46877027	2528	10.99	3980326	8.49	1.2945	
4000	4500	4250	23000	46877027	2616	11.37	3980238	8.49	1.3396	
4050	4550	4300	23000	46877027	2716	11.81	3980138	8.49	1.3908	
4100	4600	4350	23000	46877027	2831	12.31	3980023	8.49	1.4497	
4150	4650	4400	23000	46877027	2905	12.63	3979949	8.49	1.4877	
4200	4700	4450	23000	46877027	2982	12.97	3979872	8.49	1.5271	
4250	4750	4500	23000	46877027	3001	13.05	3979853	8.49	1.5368	
4300	4800	4550	23000	46877027	3025	13.15	3979829	8.49	1.5491	
4350	4850	4600	23000	46877027	3178	13.82	3979676	8.49	1.6276	
4400	4900	4650	23000	46877027	3405	14.80	3979449	8.49	1.7439	
4450	4950	4700	23000	46877027	3728	16.21	3979126	8.49	1.9095	
4500	5000	4750	23000	46877027	4140	18.00	3978714	8.49	2.1208	
4550	5050	4800	23000	46877027	4540	19.74	3978314	8.49	2.3259	
4600	5100	4850	23000	46877027	4763	20.71	3978091	8.49	2.4403	
4650	5150	4900	23000	46877027	4962	21.57	3977892	8.49	2.5424	
4700	5200	4950	23000	46877027	5267	22.90	3977587	8.49	2.6988	
4750	5250	5000	23000	46877027	5598	24.34	3977256	8.48	2.8687	
4800	5300	5050	23000	46877027	5908	25.69	3976946	8.48	3.0278	
4850	5350	5100	23000	46877027	6137	26.68	3976717	8.48	3.1453	
4900	5400	5150	23000	46877027	6123	26.62	3976731	8.48	3.1381	
4950	5450	5200	23000	46877027	5972	25.97	3976882	8.48	3.0606	
5000	5500	5250	23000	46877027	5721	24.87	3977133	8.48	2.9318	
5050	5550	5300	23000	46877027	5524	24.02	3977330	8.48	2.8307	
5100	5600	5350	23000	46877027	5451	23.70	3977403	8.48	2.7932	
5150	5650	5400	23000	46877027	5482	23.83	3977372	8.48	2.8092	
5200	5700	5450	23000	46877027	5442	23.66	3977412	8.48	2.7886	
5250	5750	5500	23000	46877027	5343	23.23	3977511	8.48	2.7378	
5300	5800	5550	23000	46877027	5124	22.28	3977730	8.49	2.6255	
5350	5850	5600	23000	46877027	4820	20.96	3978034	8.49	2.4695	
5400	5900	5650	23000	46877027	4693	20.40	3978161	8.49	2.4044	
5450	5950	5700	23000	46877027	4654	20.23	3978200	8.49	2.3844	
5500	6000	5750	23000	46877027	4567	19.86	3978287	8.49	2.3397	
5550	6050	5800	23000	46877027	4336	18.85	3978518	8.49	2.2213	
5600	6100	5850	23000	46877027	4090	17.78	3978764	8.49	2.0951	
5650	6150	5900	23000	46877027	3900	16.96	3978954	8.49	1.9977	
5700	6200	5950	23000	46877027	3688	16.03	3979166	8.49	1.8890	
5750	6250	6000	23000	46877027	3511	15.27	3979343	8.49	1.7983	
5800	6300	6050	23000	46877027	3445	14.98	3979409	8.49	1.7644	
5850	6350	6100	23000	46877027	3464	15.06	3979390	8.49	1.7742	
5900	6400	6150	23000	46877027	3357	14.60	3979497	8.49	1.7193	
5950	6450	6200	23000	46877027	3213	13.97	3979641	8.49	1.6455	
6000	6500	6250	23000	46877027	3114	13.54	3979740	8.49	1.5948	
6050	6550	6300	23000	46877027	3215	13.98	3979639	8.49	1.6465	
6100	6600	6350	23000	46877027	3461	15.05	3979393	8.49	1.7726	
6150	6650	6400	23000	46877027	3541	15.40	3979313	8.49	1.8136	
6200	6700	6450	23000	46877027	3576	15.55	3979278	8.49	1.8316	
6250	6750	6500	23000	46877027	3646	15.85	3979208	8.49	1.8675	
6300	6800	6550	23000	46877027	3758	16.34	3979096	8.49	1.9249	
6350	6850	6600	23000	46877027	3837	16.68	3979017	8.49	1.9654	
6400	6900	6650	23000	46877027	3969	17.26	3978885	8.49	2.0331	
6450	6950	6700	23000	46877027	4048	17.60	3978806	8.49	2.0736	
6500	7000	6750	23000	46877027	4085	17.76	3978769	8.49	2.0925	
6550	7050	6800	23000	46877027	3998	17.38	3978856	8.49	2.0479	
6600	7100	6850	23000	46877027	3846	16.72	3979008	8.49	1.9700	
6650	7150	6900	23000	46877027	3716	16.16	3979138	8.49	1.9034	
6700	7200	6950	23000	46877027	3572	15.53	3979282	8.49	1.8295	
6750	7250	7000	23000	46877027	3490	15.17	3979364	8.49	1.7875	
6800	7300	7050	23000	46877027	3408	14.82	3979446	8.49	1.7455	
6850	7350	7100	23000	46877027	3266	14.20	3979588	8.49	1.6727	
6900	7400	7150	23000	46877027	3071	13.35	3979783	8.49	1.5727	
6950	7450	7200	23000	46877027	2876	12.50	3979978	8.49	1.4728	
7000	7500	7250	23000	46877027	2705	11.76	3980149	8.49	1.3852	
7050	7550	7300	23000	46877027	2572	11.18	3980282	8.49	1.3170	
7100	7600	7350	23000	46877027	2424	10.54	3980430	8.49	1.2412	
7150	7650	7400	23000	46877027	2334	10.15	3980520	8.49	1.1951	
7200	7700	7450	23000	46877027	2292	9.97	3980562	8.49	1.1736	
7250	7750	7500	23000	46877027	2180	9.48	3980674	8.49	1.1162	
7300	7800	7550	23000	46877027	2096	9.11	3980758	8.49	1.0731	
7350	7850	7600	23000	46877027	2078	9.03	3980776	8.49	1.0639	
7400	7900	7650	23000	46877027	2125	9.24	3980729	8.49	1.0880	
7450	7950	7700	23000	46877027	2177	9.47	3980677	8.49	1.1146	
7500	8000	7750	23000	46877027	2258	9.82	3980596	8.49	1.1561	
7550	8050	7800	23000	46877027	2377	10.33	3980477	8.49	1.2171	
7600	8100	7850	23000	46877027	2551	11.09	3980303	8.49	1.3063	
7650	8150	7900	23000	46877027	2607	11.33	3980247	8.49	1.3349	
7700	8200	7950	23000	46877027	2682	11.66	3980172	8.49	1.3734	
7750	8250	8000	23000	46877027	2782	12.10	3980072	8.49	1.4246	
7800	8300	8050	23000	46877027	2845	12.37	3980009	8.49	1.4569	
7850	8350	8100	23000	46877027	2993	13.01	3979861	8.49	1.5327	
7900	8400	8150	23000	46877027	3219	14.00	3979635	8.49	1.6486	
7950	8450	8200	23000	46877027	3633	15.80	3979221	8.49	1.8608	
8000	8500	8250	23000	46877027	4126	17.94	3978728	8.49	2.1136	
8050	8550	8300	23000	46877027	4552	19.79	3978302	8.49	2.3320	
8100	8600	8350	23000	46877027	4860	21.13	3977994	8.49	2.4900	
8150	8650	8400	23000	46877027	5244	22.80	3977610	8.49	2.6870	
8200	8700	8450	23000	46877027	5575	24.24	3977279	8.48	2.8569	
8250	8750	8500	23000	46877027	5892	25.62	3976962	8.48	3.0196	
8300	8800	8550	23000	46877027	6114	26.58	3976740	8.48	3.1335	
8350	8850	8600	23000	46877027	6183	26.88	3976671	8.48	3.1689	
8400	8900	8650	23000	46877027	6211	27.00	3976643	8.48	3.1833	
8450	8950	8700	23000	46877027	5961	25.92	3976893	8.48	3.0550	
8500	9000	8750	23000	46877027	5432	23.62	3977422	8.48	2.7835	
8550	9050	8800	23000	46877027	4834	21.02	3978020	8.49	2.4767	
8600	9100	8850	23000	46877027	4381	19.05	3978473	8.49	2.2443	
8650	9150	8900	23000	46877027	3923	17.06	3978931	8.49	2.0095	
8700	9200	8950	23000	46877027	3550	15.43	3979304	8.49	1.8182	
8750	9250	9000	23000	46877027	3138	13.64	3979716	8.49	1.6071	
8800	9300	9050	23000	46877027	2825	12.28	3980029	8.49	1.4467	
8850	9350	9100	23000	46877027	2608	11.34	3980246	8.49	1.3355	
8900	9400	9150	23000	46877027	2355	10.24	3980499	8.49	1.2058	
8950	9450	9200	23000	46877027	2222	9.66	3980632	8.49	1.1377	
9000	9500	9250	23000	46877027	2237	9.73	3980617	8.49	1.1454	
9050	9550	9300	23000	46877027	2387	10.38	3980467	8.49	1.2222	
9100	9600	9350	23000	46877027	2414	10.50	3980440	8.49	1.2361	
9150	9650	9400	22975	46877052	2472	10.76	3980382	8.49	1.2672	
9200	9700	9450	22875	46877152	2475	10.82	3980379	8.49	1.2742	
9250	9750	9500	22775	46877252	2518	11.06	3980336	8.49	1.3021	
9300	9800	9550	22675	46877352	2601	11.47	3980253	8.49	1.3510	
9350	9850	9600	22575	46877452	2692	11.92	3980162	8.49	1.4045	
9400	9900	9650	22525	46877502	2878	12.78	3979976	8.49	1.5049	
9450	9950	9700	22625	46877402	3006	13.29	3979848	8.49	1.5649	
9500	10000	9750	22725	46877302	2978	13.10	3979876	8.49	1.5435	
9550	10050	9800	22825	46877202	2878	12.61	3979976	8.49	1.4851	
9600	10100	9850	22925	46877102	2862	12.48	3979992	8.49	1.4704	
9650	10150	9900	23000	46877027	2884	12.54	3979970	8.49	1.4769	
9700	10200	9950	23000	46877027	3006	13.07	3979848	8.49	1.5394	
9750	10250	10000	23000	46877027	3118	13.56	3979736	8.49	1.5968	
9800	10300	10050	23000	46877027	3189	13.87	3979665	8.49	1.6332	
9850	10350	10100	23000	46877027	3163	13.75	3979691	8.49	1.6199	
9900	10400	10150	23000	46877027	3096	13.46	3979758	8.49	1.5855	
9950	10450	10200	23000	46877027	3109	13.52	3979745	8.49	1.5922	
10000	10500	10250	23000	46877027	3314	14.41	3979540	8.49	1.6973	
10050	10550	10300	23000	46877027	3537	15.38	3979317	8.49	1.8116	
10100	10600	10350	23000	46877027	3793	16.49	3979061	8.49	1.9428	
10150	10650	10400	23000	46877027	4059	17.65	3978795	8.49	2.0792	
10200	10700	10450	23000	46877027	4229	18.39	3978625	8.49	2.1664	
10250	10750	10500	23000	46877027	4320	18.78	3978534	8.49	2.2131	
10300	10800	10550	23000	46877027	4349	18.91	3978505	8.49	2.2279	
10350	10850	10600	23000	46877027	4451	19.35	3978403	8.49	2.2802	
10400	10900	10650	23000	46877027	4452	19.36	3978402	8.49	2.2808	
10450	10950	10700	23000	46877027	4354	18.93	3978500	8.49	2.2305	
10500	11000	10750	23000	46877027	4219	18.34	3978635	8.49	2.1613	
10550	11050	10800	23000	46877027	4123	17.93	3978731	8.49	2.1120	
10600	11100	10850	23000	46877027	3939	17.13	3978915	8.49	2.0177	
10650	11150	10900	23000	46877027	3672	15.97	3979182	8.49	1.8808	
10700	11200	10950	23000	46877027	3480	15.13	3979374	8.49	1.7824	
10750	11250	11000	23000	46877027	3419	14.87	3979435	8.49	1.7511	
10800	11300	11050	23000	46877027	3431	14.92	3979423	8.49	1.7572	
10850	11350	11100	23000	46877027	3375	14.67	3979479	8.49	1.7285	
10900	11400	11150	23000	46877027	3360	14.61	3979494	8.49	1.7209	
10950	11450	11200	23000	46877027	3437	14.94	3979417	8.49	1.7603	
11000	11500	11250	23000	46877027	3599	15.65	3979255	8.49	1.8434	
11050	11550	11300	23000	46877027	3735	16.24	3979119	8.49	1.9131	
11100	11600	11350	23000	46877027	3962	17.23	3978892	8.49	2.0295	
11150	11650	11400	23000	46877027	4226	18.37	3978628	8.49	2.1649	
11200	11700	11450	23000	46877027	4394	19.10	3978460	8.49	2.2510	
11250	11750	11500	23000	46877027	4469	19.43	3978385	8.49	2.2895	
11300	11800	11550	23000	46877027	4472	19.44	3978382	8.49	2.2910	
11350	11850	11600	23000	46877027	4473	19.45	3978381	8.49	2.2915	
11400	11900	11650	23000	46877027	4557	19.81	3978297	8.49	2.3346	
11450	11950	11700	23000	46877027	4652	20.23	3978202	8.49	2.3833	
11500	12000	11750	23000	46877027	4677	20.33	3978177	8.49	2.3962	
11550	12050	11800	23000	46877027	4773	20.75	3978081	8.49	2.4454	
11600	12100	11850	23000	46877027	4765	20.72	3978089	8.49	2.4413	
11650	12150	11900	23000	46877027	4830	21.00	3978024	8.49	2.4746	
11700	12200	11950	23000	46877027	4859	21.13	3977995	8.49	2.4895	
11750	12250	12000	23000	46877027	4839	21.04	3978015	8.49	2.4793	
11800	12300	12050	23000	46877027	4824	20.97	3978030	8.49	2.4716	
11850	12350	12100	23000	46877027	4862	21.14	3977992	8.49	2.4911	
11900	12400	12150	23000	46877027	4840	21.04	3978014	8.49	2.4798	
11950	12450	12200	23000	46877027	4787	20.81	3978067	8.49	2.4526	
12000	12500	12250	23000	46877027	4605	20.02	3978249	8.49	2.3592	
12050	12550	12300	23000	46877027	4313	18.75	3978541	8.49	2.2095	
12100	12600	12350	23000	46877027	4095	17.80	3978759	8.49	2.0977	
12150	12650	12400	23000	46877027	3839	16.69	3979015	8.49	1.9664	
12200	12700	12450	23000	46877027	3627	15.77	3979227	8.49	1.8577	
12250	12750	12500	23000	46877027	3553	15.45	3979301	8.49	1.8198	
12300	12800	12550	23000	46877027	3592	15.62	3979262	8.49	1.8398	
12350	12850	12600	23000	46877027	3666	15.94	3979188	8.49	1.8777	
12400	12900	12650	23000	46877027	3662	15.92	3979192	8.49	1.8757	
12450	12950	12700	23000	46877027	3649	15.87	3979205	8.49	1.8690	
12500	13000	12750	23000	46877027	3813	16.58	3979041	8.49	1.9531	
12550	13050	12800	23000	46877027	4008	17.43	3978846	8.49	2.0531	
12600	13100	12850	23000	46877027	4152	18.05	3978702	8.49	2.1269	
12650	13150	12900	23000	46877027	4305	18.72	3978549	8.49	2.2054	
12700	13200	12950	22925	46877102	4482	19.55	3978372	8.49	2.3037	
12750	13250	13000	22825	46877202	4618	20.23	3978236	8.49	2.3840	
12800	13300	13050	22725	46877302	4687	20.62	3978167	8.49	2.4304	
12850	13350	13100	22625	46877402	4836	21.37	3978018	8.49	2.5188	
12900	13400	13150	22525	46877502	5072	22.52	3977782	8.49	2.6536	
12950	13450	13200	22575	46877452	5276	23.37	3977578	8.49	2.7544	
13000	13500	13250	22675	46877352	5416	23.89	3977438	8.48	2.8151	
13050	13550	13300	22775	46877252	5504	24.17	3977350	8.48	2.8483	
13100	13600	13350	22875	46877152	5495	24.02	3977359	8.48	2.8312	
13150	13650	13400	22975	46877052	5377	23.40	3977477	8.48	2.7583	
13200	13700	13450	23000	46877027	5264	22.89	3977590	8.49	2.6973	
13250	13750	13500	23000	46877027	4984	21.67	3977870	8.49	2.5536	
13300	13800	13550	23000	46877027	4550	19.78	3978304	8.49	2.3310	
13350	13850	13600	23000	46877027	4077	17.73	3978777	8.49	2.0884	
13400	13900	13650	23000	46877027	3639	15.82	3979215	8.49	1.8639	
13450	13950	13700	23000	46877027	3274	14.23	3979580	8.49	1.6768	
13500	14000	13750	23000	46877027	2917	12.68	3979937	8.49	1.4938	
13550	14050	13800	23000	46877027	2630	11.43	3980224	8.49	1.3467	
13600	14100	13850	23000	46877027	2505	10.89	3980349	8.49	1.2827	
13650	14150	13900	23000	46877027	2467	10.73	3980387	8.49	1.2632	
13700	14200	13950	23000	46877027	2391	10.40	3980463	8.49	1.2243	
13750	14250	14000	23000	46877027	2473	10.75	3980381	8.49	1.2663	
13800	14300	14050	23000	46877027	2747	11.94	3980107	8.49	1.4067	
13850	14350	14100	23000	46877027	2947	12.81	3979907	8.49	1.5092	
13900	14400	14150	23000	46877027	3128	13.60	3979726	8.49	1.6019	
13950	14450	14200	23000	46877027	3299	14.34	3979555	8.49	1.6896	
14000	14500	14250	23000	46877027	3460	15.04	3979394	8.49	1.7721	
14050	14550	14300	23000	46877027	3678	15.99	3979176	8.49	1.8839	
14100	14600	14350	23000	46877027	3855	16.76	3978999	8.49	1.9746	
14150	14650	14400	23000	46877027	4122	17.92	3978732	8.49	2.1115	
14200	14700	14450	23000	46877027	4453	19.36	3978401	8.49	2.2813	
14250	14750	14500	23000	46877027	4895	21.28	3977959	8.49	2.5080	
14300	14800	14550	23000	46877027	5217	22.68	3977637	8.49	2.6732	
14350	14850	14600	23000	46877027	5445	23.67	3977409	8.48	2.7902	
14400	14900	14650	23000	46877027	5576	24.24	3977278	8.48	2.8574	
14450	14950	14700	23000	46877027	5590	24.30	3977264	8.48	2.8646	
14500	15000	14750	23000	46877027	5563	24.19	3977291	8.48	2.8507	
14550	15050	14800	23000	46877027	5465	23.76	3977389	8.48	2.8004	
14600	15100	14850	23000	46877027	5420	23.57	3977434	8.48	2.7773	
14650	15150	14900	23000	46877027	5324	23.15	3977530	8.49	2.7281	
14700	15200	14950	23000	46877027	5268	22.90	3977586	8.49	2.6993	
14750	15250	15000	23000	46877027	5094	22.15	3977760	8.49	2.6101	
14800	15300	15050	23000	46877027	5013	21.80	3977841	8.49	2.5685	
14850	15350	15100	23000	46877027	4958	21.56	3977896	8.49	2.5403	
14900	15400	15150	23000	46877027	4888	21.25	3977966	8.49	2.5044	
14950	15450	15200	23000	46877027	4859	21.13	3977995	8.49	2.4895	
15000	15500	15250	23000	46877027	4817	20.94	3978037	8.49	2.4680	
15050	15550	15300	23000	46877027	4684	20.37	3978170	8.49	2.3997	
15100	15600	15350	23000	46877027	4495	19.54	3978359	8.49	2.3028	
15150	15650	15400	23000	46877027	4327	18.81	3978527	8.49	2.2166	
15200	15700	15450	23000	46877027	4115	17.89	3978739	8.49	2.1079	
15250	15750	15500	23000	46877027	3938	17.12	3978916	8.49	2.0172	
15300	15800	15550	23000	46877027	3749	16.30	3979105	8.49	1.9203	
15350	15850	15600	23000	46877027	3662	15.92	3979192	8.49	1.8757	
15400	15900	15650	23000	46877027	3628	15.77	3979226	8.49	1.8582	
15450	15950	15700	23000	46877027	3612	15.70	3979242	8.49	1.8500	
15500	16000	15750	23000	46877027	3547	15.42	3979307	8.49	1.8167	
15550	16050	15800	23000	46877027	3589	15.60	3979265	8.49	1.8382	
15600	16100	15850	23000	46877027	3602	15.66	3979252	8.49	1.8449	
15650	16150	15900	23000	46877027	3508	15.25	3979346	8.49	1.7967	
15700	16200	15950	23000	46877027	3343	14.53	3979511	8.49	1.7121	
15750	16250	16000	23000	46877027	3210	13.96	3979644	8.49	1.6440	
15800	16300	16050	23000	46877027	3136	13.63	3979718	8.49	1.6060	
15850	16350	16100	23000	46877027	3002	13.05	3979852	8.49	1.5374	
15900	16400	16150	23000	46877027	2823	12.27	3980031	8.49	1.4456	
15950	16450	16200	23000	46877027	2706	11.77	3980148	8.49	1.3857	
16000	16500	16250	23000	46877027	2820	12.26	3980034	8.49	1.4441	
16050	16550	16300	23000	46877027	2974	12.93	3979880	8.49	1.5230	
16100	16600	16350	23000	46877027	3233	14.06	3979621	8.49	1.6558	
16150	16650	16400	23000	46877027	3484	15.15	3979370	8.49	1.7844	
16200	16700	16450	23000	46877027	3741	16.27	3979113	8.49	1.9162	
16250	16750	16500	23000	46877027	3940	17.13	3978914	8.49	2.0182	
16300	16800	16550	23000	46877027	4007	17.42	3978847	8.49	2.0526	
16350	16850	16600	23000	46877027	4016	17.46	3978838	8.49	2.0572	
16400	16900	16650	23000	46877027	4031	17.53	3978823	8.49	2.0649	
16450	16950	16700	23000	46877027	4036	17.55	3978818	8.49	2.0674	
16500	17000	16750	23000	46877027	3904	16.97	3978950	8.49	1.9997	
16550	17050	16800	23000	46877027	3751	16.31	3979103	8.49	1.9213	
16600	17100	16850	23000	46877027	3513	15.27	3979341	8.49	1.7993	
16650	17150	16900	23000	46877027	3351	14.57	3979503	8.49	1.7162	
16700	17200	16950	23000	46877027	3273	14.23	3979581	8.49	1.6763	
16750	17250	17000	23000	46877027	3181	13.83	3979673	8.49	1.6291	
16800	17300	17050	22940	46877087	3088	13.46	3979766	8.49	1.5856	
16850	17350	17100	22840	46877187	3022	13.23	3979832	8.49	1.5585	
16900	17400	17150	22740	46877287	2963	13.03	3979891	8.49	1.5347	
16950	17450	17200	22640	46877387	2864	12.65	3979990	8.49	1.4900	
17000	17500	17250	22540	46877487	2863	12.70	3979991	8.49	1.4961	
17050	17550	17300	22560	46877467	2936	13.01	3979918	8.49	1.5329	
17100	17600	17350	22660	46877367	3078	13.58	3979776	8.49	1.6000	
17150	17650	17400	22760	46877267	3189	14.01	3979665	8.49	1.6504	
17200	17700	17450	22860	46877167	3253	14.23	3979601	8.49	1.6762	
17250	17750	17500	22960	46877067	3385	14.74	3979469	8.49	1.7367	
17300	17800	17550	23000	46877027	3452	15.01	3979402	8.49	1.7680	
17350	17850	17600	23000	46877027	3469	15.08	3979385	8.49	1.7767	
17400	17900	17650	23000	46877027	3559	15.47	3979295	8.49	1.8229	
17450	17950	17700	23000	46877027	3626	15.77	3979228	8.49	1.8572	
17500	18000	17750	23000	46877027	3586	15.59	3979268	8.49	1.8367	
17550	18050	17800	23000	46877027	3540	15.39	3979314	8.49	1.8131	
17600	18100	17850	23000	46877027	3537	15.38	3979317	8.49	1.8116	
17650	18150	17900	23000	46877027	3475	15.11	3979379	8.49	1.7798	
17700	18200	17950	23000	46877027	3434	14.93	3979420	8.49	1.7588	
17750	18250	18000	23000	46877027	3351	14.57	3979503	8.49	1.7162	
17800	18300	18050	23000	46877027	3245	14.11	3979609	8.49	1.6619	
17850	18350	18100	23000	46877027	3185	13.85	3979669	8.49	1.6312	
17900	18400	18150	23000	46877027	3148	13.69	3979706	8.49	1.6122	
17950	18450	18200	23000	46877027	3192	13.88	3979662	8.49	1.6347	
18000	18500	18250	23000	46877027	3201	13.92	3979653	8.49	1.6394	
18050	18550	18300	23000	46877027	3094	13.45	3979760	8.49	1.5845	
18100	18600	18350	23000	46877027	2905	12.63	3979949	8.49	1.4877	
18150	18650	18400	23000	46877027	2765	12.02	3980089	8.49	1.4159	
18200	18700	18450	23000	46877027	2552	11.10	3980302	8.49	1.3068	
18250	18750	18500	23000	46877027	2282	9.92	3980572	8.49	1.1684	
18300	18800	18550	23000	46877027	2106	9.16	3980748	8.49	1.0783	
18350	18850	18600	23000	46877027	1954	8.50	3980900	8.49	1.0004	
18400	18900	18650	23000	46877027	1764	7.67	3981090	8.49	0.9031	
18450	18950	18700	23000	46877027	1629	7.08	3981225	8.49	0.8339	
18500	19000	18750	23000	46877027	1681	7.31	3981173	8.49	0.8606	
18550	19050	18800	23000	46877027	1888	8.21	3980966	8.49	0.9666	
18600	19100	18850	23000	46877027	2059	8.95	3980795	8.49	1.0542	
18650	19150	18900	23000	46877027	2363	10.27	3980491	8.49	1.2099	
18700	19200	18950	23000	46877027	2753	11.97	3980101	8.49	1.4098	
18750	19250	19000	23000	46877027	3180	13.83	3979674	8.49	1.6286	
18800	19300	19050	23000	46877027	3542	15.40	3979312	8.49	1.8141	
18850	19350	19100	23000	46877027	3854	16.76	3979000	8.49	1.9741	
18900	19400	19150	23000	46877027	4109	17.87	3978745	8.49	2.1049	
18950	19450	19200	23000	46877027	4367	18.99	3978487	8.49	2.2372	
19000	19500	19250	23000	46877027	4590	19.96	3978264	8.49	2.3515	
19050	19550	19300	22955	46877072	4652	20.27	3978202	8.49	2.3880	
19100	19600	19350	22855	46877172	4803	21.02	3978051	8.49	2.4764	
19150	19650	19400	22755	46877272	4878	21.44	3977976	8.49	2.5262	
19200	19700	19450	22655	46877372	4859	21.45	3977995	8.49	2.5274	
19250	19750	19500	22555	46877472	4818	21.36	3978036	8.49	2.5172	
19300	19800	19550	22545	46877482	4820	21.38	3978034	8.49	2.5194	
19350	19850	19600	22645	46877382	4992	22.04	3977862	8.49	2.5979	
19400	19900	19650	22745	46877282	5093	22.39	3977761	8.49	2.6388	
19450	19950	19700	22845	46877182	4984	21.82	3977870	8.49	2.5710	
19500	20000	19750	22945	46877082	4777	20.82	3978077	8.49	2.4533	
19550	20050	19800	23000	46877027	4714	20.50	3978140	8.49	2.4151	
19600	20100	19850	23000	46877027	4793	20.84	3978061	8.49	2.4557	
19650	20150	19900	23000	46877027	4871	21.18	3977983	8.49	2.4957	
19700	20200	19950	23000	46877027	4989	21.69	3977865	8.49	2.5562	
19750	20250	20000	23000	46877027	5013	21.80	3977841	8.49	2.5685	
19800	20300	20050	23000	46877027	5048	21.95	3977806	8.49	2.5865	
19850	20350	20100	23000	46877027	5031	21.87	3977823	8.49	2.5778	
19900	20400	20150	23000	46877027	5088	22.12	3977766	8.49	2.6070	
19950	20450	20200	23000	46877027	5103	22.19	3977751	8.49	2.6147	
20000	20500	20250	23000	46877027	5179	22.52	3977675	8.49	2.6537	
20050	20550	20300	23000	46877027	5264	22.89	3977590	8.49	2.6973	
20100	20600	20350	23000	46877027	5185	22.54	3977669	8.49	2.6568	
20150	20650	20400	23000	46877027	5025	21.85	3977829	8.49	2.5747	
20200	20700	20450	23000	46877027	4822	20.97	3978032	8.49	2.4705	
20250	20750	20500	23000	46877027	4710	20.48	3978144	8.49	2.4131	
20300	20800	20550	23000	46877027	4629	20.13	3978225	8.49	2.3715	
20350	20850	20600	23000	46877027	4450	19.35	3978404	8.49	2.2797	
20400	20900	20650	23000	46877027	4281	18.61	3978573	8.49	2.1931	
20450	20950	20700	23000	46877027	4267	18.55	3978587	8.49	2.1859	
20500	21000	20750	23000	46877027	4184	18.19	3978670	8.49	2.1433	
20550	21050	20800	23000	46877027	4000	17.39	3978854	8.49	2.0490	
20600	21100	20850	23000	46877027	3797	16.51	3979057	8.49	1.9449	
20650	21150	20900	23000	46877027	3577	15.55	3979277	8.49	1.8321	
20700	21200	20950	23000	46877027	3366	14.63	3979488	8.49	1.7239	
20750	21250	21000	23000	46877027	3118	13.56	3979736	8.49	1.5968	
20800	21300	21050	23000	46877027	2907	12.64	3979947	8.49	1.4887	
20850	21350	21100	23000	46877027	2851	12.40	3980003	8.49	1.4600	
20900	21400	21150	23000	46877027	2801	12.18	3980053	8.49	1.4344	
20950	21450	21200	23000	46877027	2747	11.94	3980107	8.49	1.4067	
21000	21500	21250	23000	46877027	2676	11.63	3980178	8.49	1.3703	
21050	21550	21300	22986	46877041	2717	11.82	3980137	8.49	1.3922	
21100	21600	21350	22886	46877141	2798	12.23	3980056	8.49	1.4400	
21150	21650	21400	22786	46877241	2824	12.39	3980030	8.49	1.4597	
21200	21700	21450	22686	46877341	2826	12.46	3980028	8.49	1.4672	
21250	21750	21500	22586	46877441	2874	12.72	3979980	8.49	1.4988	
21300	21800	21550	22514	46877513	2815	12.50	3980039	8.49	1.4727	
21350	21850	21600	22614	46877413	2659	11.76	3980195	8.49	1.3848	
21400	21900	21650	22714	46877313	2509	11.05	3980345	8.49	1.3009	
21450	21950	21700	22814	46877213	2363	10.36	3980491	8.49	1.2198	
21500	22000	21750	22875	46877152	2247	9.82	3980607	8.49	1.1568	
21550	22050	21800	22861	46877166	2123	9.29	3980731	8.49	1.0936	
21600	22100	21850	22761	46877266	2023	8.89	3980831	8.49	1.0466	
21650	22150	21900	22661	46877366	1955	8.63	3980899	8.49	1.0159	
21700	22200	21950	22561	46877466	1918	8.50	3980936	8.49	1.0011	
21750	22250	22000	22539	46877488	1903	8.44	3980951	8.49	0.9942	
21800	22300	22050	22639	46877388	2003	8.85	3980851	8.49	1.0419	
21850	22350	22100	22739	46877288	2166	9.53	3980688	8.49	1.1217	
21900	22400	22150	22839	46877188	2248	9.84	3980606	8.49	1.1591	
21950	22450	22200	22939	46877088	2287	9.97	3980567	8.49	1.1741	
22000	22500	22250	23000	46877027	2305	10.02	3980549	8.49	1.1802	
22050	22550	22300	23000	46877027	2314	10.06	3980540	8.49	1.1848	
22100	22600	22350	23000	46877027	2313	10.06	3980541	8.49	1.1843	
22150	22650	22400	22924	46877103	2398	10.46	3980456	8.49	1.2319	
22200	22700	22450	22824	46877203	2598	11.38	3980256	8.49	1.3406	
22250	22750	22500	22724	46877303	2752	12.11	3980102	8.49	1.4264	
22300	22800	22550	22624	46877403	2752	12.16	3980102	8.49	1.4327	
22350	22850	22600	22524	46877503	2717	12.06	3980137	8.49	1.4207	
22400	22900	22650	22576	46877451	2785	12.34	3980069	8.49	1.4530	
22450	22950	22700	22676	46877351	2895	12.77	3979959	8.49	1.5037	
22500	23000	22750	22776	46877251	2902	12.74	3979952	8.49	1.5007	
22550	23050	22800	22876	46877151	2826	12.35	3980028	8.49	1.4550	
22600	23100	22850	22976	46877051	2749	11.96	3980105	8.49	1.4092	
22650	23150	22900	23000	46877027	2699	11.73	3980155	8.49	1.3821	
22700	23200	22950	23000	46877027	2699	11.73	3980155	8.49	1.3821	
22750	23250	23000	23000	46877027	2810	12.22	3980044	8.49	1.4390	
22800	23300	23050	23000	46877027	2968	12.90	3979886	8.49	1.5199	
22850	23350	23100	23000	46877027	3027	13.16	3979827	8.49	1.5502	
22900	23400	23150	23000	46877027	3060	13.30	3979794	8.49	1.5671	
22950	23450	23200	23000	46877027	3039	13.21	3979815	8.49	1.5563	
23000	23500	23250	23000	46877027	3174	13.80	3979680	8.49	1.6255	
23050	23550	23300	23000	46877027	3444	14.97	3979410	8.49	1.7639	
23100	23600	23350	23000	46877027	3702	16.10	3979152	8.49	1.8962	
23150	23650	23400	23000	46877027	3888	16.90	3978966	8.49	1.9915	
23200	23700	23450	23000	46877027	3938	17.12	3978916	8.49	2.0172	
23250	23750	23500	23000	46877027	3901	16.96	3978953	8.49	1.9982	
23300	23800	23550	23000	46877027	3836	16.68	3979018	8.49	1.9649	
23350	23850	23600	23000	46877027	3806	16.55	3979048	8.49	1.9495	
23400	23900	23650	23000	46877027	3817	16.60	3979037	8.49	1.9551	
23450	23950	23700	22901	46877126	3804	16.61	3979050	8.49	1.9569	
23500	24000	23750	22801	46877226	3928	17.23	3978926	8.49	2.0296	
23550	24050	23800	22701	46877326	4023	17.72	3978831	8.49	2.0879	
23600	24100	23850	22601	46877426	4081	18.06	3978773	8.49	2.1274	
23650	24150	23900	22501	46877526	4069	18.08	3978785	8.49	2.1306	
23700	24200	23950	22599	46877428	4133	18.29	3978721	8.49	2.1547	
23750	24250	24000	22699	46877328	4132	18.20	3978722	8.49	2.1447	
23800	24300	24050	22799	46877228	4193	18.39	3978661	8.49	2.1669	
23850	24350	24100	22899	46877128	4249	18.56	3978605	8.49	2.1863	
23900	24400	24150	22999	46877028	4260	18.52	3978594	8.49	2.1824	
23950	24450	24200	23000	46877027	4248	18.47	3978606	8.49	2.1761	
24000	24500	24250	23000	46877027	4106	17.85	3978748	8.49	2.1033	
24050	24550	24300	23000	46877027	3896	16.94	3978958	8.49	1.9956	
24100	24600	24350	23000	46877027	3614	15.71	3979240	8.49	1.8511	
24150	24650	24400	23000	46877027	3386	14.72	3979468	8.49	1.7342	
24200	24700	24450	23000	46877027	3221	14.00	3979633	8.49	1.6496	
24250	24750	24500	23000	46877027	3147	13.68	3979707	8.49	1.6117	
24300	24800	24550	23000	46877027	3140	13.65	3979714	8.49	1.6081	
24350	24850	24600	23000	46877027	3309	14.39	3979545	8.49	1.6947	
24400	24900	24650	23000	46877027	3532	15.36	3979322	8.49	1.8090	
24450	24950	24700	23000	46877027	3671	15.96	3979183	8.49	1.8803	
24500	25000	24750	23000	46877027	3791	16.48	3979063	8.49	1.9418	
