Start	End	Midpoint	Breakpoint_bp	Non_breakpoint_bp	Feature_bp_inside	%Inside	Feature_bp_outside	%Outside	Ratio
-25000	-24500	-24750	22000	46878971	500	2.27	225003	0.48	4.7352	
-24950	-24450	-24700	22000	46878971	500	2.27	225003	0.48	4.7352	
-24900	-24400	-24650	22000	46878971	500	2.27	225003	0.48	4.7352	
-24850	-24350	-24600	22000	46878971	500	2.27	225003	0.48	4.7352	
-24800	-24300	-24550	22000	46878971	500	2.27	225003	0.48	4.7352	
-24750	-24250	-24500	22000	46878971	500	2.27	225003	0.48	4.7352	
-24700	-24200	-24450	22000	46878971	500	2.27	225003	0.48	4.7352	
-24650	-24150	-24400	22000	46878971	500	2.27	225003	0.48	4.7352	
-24600	-24100	-24350	22000	46878971	500	2.27	225003	0.48	4.7352	
-24550	-24050	-24300	22000	46878971	500	2.27	225003	0.48	4.7352	
-24500	-24000	-24250	22000	46878971	500	2.27	225003	0.48	4.7352	
-24450	-23950	-24200	22000	46878971	500	2.27	225003	0.48	4.7352	
-24400	-23900	-24150	22000	46878971	500	2.27	225003	0.48	4.7352	
-24350	-23850	-24100	22000	46878971	500	2.27	225003	0.48	4.7352	
-24300	-23800	-24050	22000	46878971	500	2.27	225003	0.48	4.7352	
-24250	-23750	-24000	22000	46878971	500	2.27	225003	0.48	4.7352	
-24200	-23700	-23950	22000	46878971	500	2.27	225003	0.48	4.7352	
-24150	-23650	-23900	22000	46878971	500	2.27	225003	0.48	4.7352	
-24100	-23600	-23850	22000	46878971	500	2.27	225003	0.48	4.7352	
-24050	-23550	-23800	22000	46878971	500	2.27	225003	0.48	4.7352	
-24000	-23500	-23750	22000	46878971	500	2.27	225003	0.48	4.7352	
-23950	-23450	-23700	22000	46878971	500	2.27	225003	0.48	4.7352	
-23900	-23400	-23650	22000	46878971	500	2.27	225003	0.48	4.7352	
-23850	-23350	-23600	22000	46878971	500	2.27	225003	0.48	4.7352	
-23800	-23300	-23550	22000	46878971	500	2.27	225003	0.48	4.7352	
-23750	-23250	-23500	22000	46878971	500	2.27	225003	0.48	4.7352	
-23700	-23200	-23450	22000	46878971	500	2.27	225003	0.48	4.7352	
-23650	-23150	-23400	22000	46878971	500	2.27	225003	0.48	4.7352	
-23600	-23100	-23350	22000	46878971	500	2.27	225003	0.48	4.7352	
-23550	-23050	-23300	22000	46878971	500	2.27	225003	0.48	4.7352	
-23500	-23000	-23250	22000	46878971	500	2.27	225003	0.48	4.7352	
-23450	-22950	-23200	22000	46878971	500	2.27	225003	0.48	4.7352	
-23400	-22900	-23150	22000	46878971	500	2.27	225003	0.48	4.7352	
-23350	-22850	-23100	22000	46878971	500	2.27	225003	0.48	4.7352	
-23300	-22800	-23050	22000	46878971	500	2.27	225003	0.48	4.7352	
-23250	-22750	-23000	22000	46878971	500	2.27	225003	0.48	4.7352	
-23200	-22700	-22950	22000	46878971	500	2.27	225003	0.48	4.7352	
-23150	-22650	-22900	22000	46878971	500	2.27	225003	0.48	4.7352	
-23100	-22600	-22850	22000	46878971	500	2.27	225003	0.48	4.7352	
-23050	-22550	-22800	22000	46878971	500	2.27	225003	0.48	4.7352	
-23000	-22500	-22750	22000	46878971	500	2.27	225003	0.48	4.7352	
-22950	-22450	-22700	22000	46878971	500	2.27	225003	0.48	4.7352	
-22900	-22400	-22650	22000	46878971	500	2.27	225003	0.48	4.7352	
-22850	-22350	-22600	22000	46878971	500	2.27	225003	0.48	4.7352	
-22800	-22300	-22550	22000	46878971	500	2.27	225003	0.48	4.7352	
-22750	-22250	-22500	22000	46878971	500	2.27	225003	0.48	4.7352	
-22700	-22200	-22450	22000	46878971	500	2.27	225003	0.48	4.7352	
-22650	-22150	-22400	22000	46878971	500	2.27	225003	0.48	4.7352	
-22600	-22100	-22350	22000	46878971	500	2.27	225003	0.48	4.7352	
-22550	-22050	-22300	22000	46878971	500	2.27	225003	0.48	4.7352	
-22500	-22000	-22250	22000	46878971	500	2.27	225003	0.48	4.7352	
-22450	-21950	-22200	22000	46878971	500	2.27	225003	0.48	4.7352	
-22400	-21900	-22150	22000	46878971	500	2.27	225003	0.48	4.7352	
-22350	-21850	-22100	22000	46878971	500	2.27	225003	0.48	4.7352	
-22300	-21800	-22050	22000	46878971	500	2.27	225003	0.48	4.7352	
-22250	-21750	-22000	22000	46878971	500	2.27	225003	0.48	4.7352	
-22200	-21700	-21950	22000	46878971	500	2.27	225003	0.48	4.7352	
-22150	-21650	-21900	22000	46878971	500	2.27	225003	0.48	4.7352	
-22100	-21600	-21850	22000	46878971	500	2.27	225003	0.48	4.7352	
-22050	-21550	-21800	22000	46878971	500	2.27	225003	0.48	4.7352	
-22000	-21500	-21750	22000	46878971	500	2.27	225003	0.48	4.7352	
-21950	-21450	-21700	22000	46878971	500	2.27	225003	0.48	4.7352	
-21900	-21400	-21650	22000	46878971	500	2.27	225003	0.48	4.7352	
-21850	-21350	-21600	22000	46878971	500	2.27	225003	0.48	4.7352	
-21800	-21300	-21550	22000	46878971	500	2.27	225003	0.48	4.7352	
-21750	-21250	-21500	22000	46878971	500	2.27	225003	0.48	4.7352	
-21700	-21200	-21450	22000	46878971	500	2.27	225003	0.48	4.7352	
-21650	-21150	-21400	22000	46878971	500	2.27	225003	0.48	4.7352	
-21600	-21100	-21350	22000	46878971	500	2.27	225003	0.48	4.7352	
-21550	-21050	-21300	22000	46878971	500	2.27	225003	0.48	4.7352	
-21500	-21000	-21250	22000	46878971	487	2.21	225016	0.48	4.6118	
-21450	-20950	-21200	22000	46878971	437	1.99	225066	0.48	4.1374	
-21400	-20900	-21150	22000	46878971	387	1.76	225116	0.48	3.6632	
-21350	-20850	-21100	22000	46878971	337	1.53	225166	0.48	3.1892	
-21300	-20800	-21050	22000	46878971	287	1.30	225216	0.48	2.7154	
-21250	-20750	-21000	22000	46878971	246	1.12	225257	0.48	2.3271	
-21200	-20700	-20950	22000	46878971	246	1.12	225257	0.48	2.3271	
-21150	-20650	-20900	22000	46878971	246	1.12	225257	0.48	2.3271	
-21100	-20600	-20850	22000	46878971	246	1.12	225257	0.48	2.3271	
-21050	-20550	-20800	22000	46878971	246	1.12	225257	0.48	2.3271	
-21000	-20500	-20750	22000	46878971	259	1.18	225244	0.48	2.4502	
-20950	-20450	-20700	22000	46878971	309	1.40	225194	0.48	2.9239	
-20900	-20400	-20650	22000	46878971	359	1.63	225144	0.48	3.3977	
-20850	-20350	-20600	22000	46878971	409	1.86	225094	0.48	3.8718	
-20800	-20300	-20550	22000	46878971	459	2.09	225044	0.48	4.3461	
-20750	-20250	-20500	22000	46878971	500	2.27	225003	0.48	4.7352	
-20700	-20200	-20450	22000	46878971	500	2.27	225003	0.48	4.7352	
-20650	-20150	-20400	22000	46878971	500	2.27	225003	0.48	4.7352	
-20600	-20100	-20350	22000	46878971	500	2.27	225003	0.48	4.7352	
-20550	-20050	-20300	22000	46878971	500	2.27	225003	0.48	4.7352	
-20500	-20000	-20250	21932	46879039	500	2.28	225003	0.48	4.7499	
-20450	-19950	-20200	21832	46879139	500	2.29	225003	0.48	4.7716	
-20400	-19900	-20150	21732	46879239	500	2.30	225003	0.48	4.7936	
-20350	-19850	-20100	21632	46879339	500	2.31	225003	0.48	4.8158	
-20300	-19800	-20050	21532	46879439	485	2.25	225018	0.48	4.6927	
-20250	-19750	-20000	21568	46879403	458	2.12	225045	0.48	4.4235	
-20200	-19700	-19950	21668	46879303	458	2.11	225045	0.48	4.4031	
-20150	-19650	-19900	21768	46879203	458	2.10	225045	0.48	4.3829	
-20100	-19600	-19850	21868	46879103	458	2.09	225045	0.48	4.3628	
-20050	-19550	-19800	21968	46879003	458	2.08	225045	0.48	4.3429	
-20000	-19500	-19750	22000	46878971	458	2.08	225045	0.48	4.3366	
-19950	-19450	-19700	22000	46878971	458	2.08	225045	0.48	4.3366	
-19900	-19400	-19650	22000	46878971	458	2.08	225045	0.48	4.3366	
-19850	-19350	-19600	22000	46878971	458	2.08	225045	0.48	4.3366	
-19800	-19300	-19550	22000	46878971	473	2.15	225030	0.48	4.4789	
-19750	-19250	-19500	22000	46878971	500	2.27	225003	0.48	4.7352	
-19700	-19200	-19450	22000	46878971	500	2.27	225003	0.48	4.7352	
-19650	-19150	-19400	22000	46878971	500	2.27	225003	0.48	4.7352	
-19600	-19100	-19350	22000	46878971	500	2.27	225003	0.48	4.7352	
-19550	-19050	-19300	22000	46878971	500	2.27	225003	0.48	4.7352	
-19500	-19000	-19250	22000	46878971	500	2.27	225003	0.48	4.7352	
-19450	-18950	-19200	22000	46878971	500	2.27	225003	0.48	4.7352	
-19400	-18900	-19150	22000	46878971	500	2.27	225003	0.48	4.7352	
-19350	-18850	-19100	22000	46878971	500	2.27	225003	0.48	4.7352	
-19300	-18800	-19050	22000	46878971	500	2.27	225003	0.48	4.7352	
-19250	-18750	-19000	22000	46878971	500	2.27	225003	0.48	4.7352	
-19200	-18700	-18950	22000	46878971	500	2.27	225003	0.48	4.7352	
-19150	-18650	-18900	22000	46878971	500	2.27	225003	0.48	4.7352	
-19100	-18600	-18850	22000	46878971	500	2.27	225003	0.48	4.7352	
-19050	-18550	-18800	22000	46878971	500	2.27	225003	0.48	4.7352	
-19000	-18500	-18750	22000	46878971	500	2.27	225003	0.48	4.7352	
-18950	-18450	-18700	22000	46878971	500	2.27	225003	0.48	4.7352	
-18900	-18400	-18650	22000	46878971	500	2.27	225003	0.48	4.7352	
-18850	-18350	-18600	22000	46878971	500	2.27	225003	0.48	4.7352	
-18800	-18300	-18550	22000	46878971	500	2.27	225003	0.48	4.7352	
-18750	-18250	-18500	22000	46878971	500	2.27	225003	0.48	4.7352	
-18700	-18200	-18450	22000	46878971	500	2.27	225003	0.48	4.7352	
-18650	-18150	-18400	22000	46878971	500	2.27	225003	0.48	4.7352	
-18600	-18100	-18350	22000	46878971	500	2.27	225003	0.48	4.7352	
-18550	-18050	-18300	22000	46878971	500	2.27	225003	0.48	4.7352	
-18500	-18000	-18250	22000	46878971	500	2.27	225003	0.48	4.7352	
-18450	-17950	-18200	22000	46878971	500	2.27	225003	0.48	4.7352	
-18400	-17900	-18150	22000	46878971	500	2.27	225003	0.48	4.7352	
-18350	-17850	-18100	22000	46878971	500	2.27	225003	0.48	4.7352	
-18300	-17800	-18050	22000	46878971	500	2.27	225003	0.48	4.7352	
-18250	-17750	-18000	22000	46878971	500	2.27	225003	0.48	4.7352	
-18200	-17700	-17950	22000	46878971	500	2.27	225003	0.48	4.7352	
-18150	-17650	-17900	22000	46878971	500	2.27	225003	0.48	4.7352	
-18100	-17600	-17850	22000	46878971	500	2.27	225003	0.48	4.7352	
-18050	-17550	-17800	22000	46878971	500	2.27	225003	0.48	4.7352	
-18000	-17500	-17750	22000	46878971	500	2.27	225003	0.48	4.7352	
-17950	-17450	-17700	22000	46878971	500	2.27	225003	0.48	4.7352	
-17900	-17400	-17650	22000	46878971	500	2.27	225003	0.48	4.7352	
-17850	-17350	-17600	22000	46878971	538	2.45	224965	0.48	5.0959	
-17800	-17300	-17550	22000	46878971	588	2.67	224915	0.48	5.5708	
-17750	-17250	-17500	22000	46878971	638	2.90	224865	0.48	6.0458	
-17700	-17200	-17450	22000	46878971	688	3.13	224815	0.48	6.5211	
-17650	-17150	-17400	22000	46878971	738	3.35	224765	0.48	6.9965	
-17600	-17100	-17350	22000	46878971	788	3.58	224715	0.48	7.4722	
-17550	-17050	-17300	22000	46878971	838	3.81	224665	0.48	7.9481	
-17500	-17000	-17250	22000	46878971	888	4.04	224615	0.48	8.4242	
-17450	-16950	-17200	22000	46878971	938	4.26	224565	0.48	8.9005	
-17400	-16900	-17150	22000	46878971	988	4.49	224515	0.48	9.3771	
-17350	-16850	-17100	22000	46878971	1000	4.55	224503	0.48	9.4915	
-17300	-16800	-17050	22000	46878971	1000	4.55	224503	0.48	9.4915	
-17250	-16750	-17000	22000	46878971	981	4.46	224522	0.48	9.3103	
-17200	-16700	-16950	22000	46878971	931	4.23	224572	0.48	8.8338	
-17150	-16650	-16900	22000	46878971	881	4.00	224622	0.48	8.3576	
-17100	-16600	-16850	22000	46878971	831	3.78	224672	0.48	7.8815	
-17050	-16550	-16800	22000	46878971	781	3.55	224722	0.48	7.4056	
-17000	-16500	-16750	22000	46878971	731	3.32	224772	0.48	6.9300	
-16950	-16450	-16700	22000	46878971	681	3.10	224822	0.48	6.4545	
-16900	-16400	-16650	22000	46878971	587	2.67	224916	0.48	5.5613	
-16850	-16350	-16600	22000	46878971	487	2.21	225016	0.48	4.6118	
-16800	-16300	-16550	22000	46878971	387	1.76	225116	0.48	3.6632	
-16750	-16250	-16500	22000	46878971	306	1.39	225197	0.48	2.8954	
-16700	-16200	-16450	22000	46878971	256	1.16	225247	0.48	2.4218	
-16650	-16150	-16400	22000	46878971	206	0.94	225297	0.48	1.9484	
-16600	-16100	-16350	22000	46878971	156	0.71	225347	0.48	1.4751	
-16550	-16050	-16300	22000	46878971	106	0.48	225397	0.48	1.0021	
-16500	-16000	-16250	22000	46878971	56	0.25	225447	0.48	0.5293	
-16450	-15950	-16200	22000	46878971	6	0.03	225497	0.48	0.0567	
-16400	-15900	-16150	22000	46878971	0	0.00	225503	0.48	0.0000	
-16350	-15850	-16100	22000	46878971	0	0.00	225503	0.48	0.0000	
-16300	-15800	-16050	22000	46878971	0	0.00	225503	0.48	0.0000	
-16250	-15750	-16000	22000	46878971	0	0.00	225503	0.48	0.0000	
-16200	-15700	-15950	22000	46878971	0	0.00	225503	0.48	0.0000	
-16150	-15650	-15900	22000	46878971	0	0.00	225503	0.48	0.0000	
-16100	-15600	-15850	22000	46878971	0	0.00	225503	0.48	0.0000	
-16050	-15550	-15800	22000	46878971	0	0.00	225503	0.48	0.0000	
-16000	-15500	-15750	22000	46878971	0	0.00	225503	0.48	0.0000	
-15950	-15450	-15700	22000	46878971	0	0.00	225503	0.48	0.0000	
-15900	-15400	-15650	22000	46878971	0	0.00	225503	0.48	0.0000	
-15850	-15350	-15600	22000	46878971	0	0.00	225503	0.48	0.0000	
-15800	-15300	-15550	22000	46878971	0	0.00	225503	0.48	0.0000	
-15750	-15250	-15500	22000	46878971	0	0.00	225503	0.48	0.0000	
-15700	-15200	-15450	22000	46878971	0	0.00	225503	0.48	0.0000	
-15650	-15150	-15400	22000	46878971	0	0.00	225503	0.48	0.0000	
-15600	-15100	-15350	22000	46878971	0	0.00	225503	0.48	0.0000	
-15550	-15050	-15300	22000	46878971	0	0.00	225503	0.48	0.0000	
-15500	-15000	-15250	22000	46878971	0	0.00	225503	0.48	0.0000	
-15450	-14950	-15200	22000	46878971	0	0.00	225503	0.48	0.0000	
-15400	-14900	-15150	22000	46878971	0	0.00	225503	0.48	0.0000	
-15350	-14850	-15100	22000	46878971	0	0.00	225503	0.48	0.0000	
-15300	-14800	-15050	22000	46878971	0	0.00	225503	0.48	0.0000	
-15250	-14750	-15000	22000	46878971	0	0.00	225503	0.48	0.0000	
-15200	-14700	-14950	22000	46878971	0	0.00	225503	0.48	0.0000	
-15150	-14650	-14900	22000	46878971	0	0.00	225503	0.48	0.0000	
-15100	-14600	-14850	22000	46878971	0	0.00	225503	0.48	0.0000	
-15050	-14550	-14800	22000	46878971	0	0.00	225503	0.48	0.0000	
-15000	-14500	-14750	22000	46878971	0	0.00	225503	0.48	0.0000	
-14950	-14450	-14700	22000	46878971	0	0.00	225503	0.48	0.0000	
-14900	-14400	-14650	22000	46878971	0	0.00	225503	0.48	0.0000	
-14850	-14350	-14600	22000	46878971	0	0.00	225503	0.48	0.0000	
-14800	-14300	-14550	22000	46878971	0	0.00	225503	0.48	0.0000	
-14750	-14250	-14500	22000	46878971	0	0.00	225503	0.48	0.0000	
-14700	-14200	-14450	22000	46878971	0	0.00	225503	0.48	0.0000	
-14650	-14150	-14400	22000	46878971	0	0.00	225503	0.48	0.0000	
-14600	-14100	-14350	22000	46878971	0	0.00	225503	0.48	0.0000	
-14550	-14050	-14300	22000	46878971	0	0.00	225503	0.48	0.0000	
-14500	-14000	-14250	22000	46878971	0	0.00	225503	0.48	0.0000	
-14450	-13950	-14200	22000	46878971	0	0.00	225503	0.48	0.0000	
-14400	-13900	-14150	22000	46878971	0	0.00	225503	0.48	0.0000	
-14350	-13850	-14100	22000	46878971	0	0.00	225503	0.48	0.0000	
-14300	-13800	-14050	22000	46878971	0	0.00	225503	0.48	0.0000	
-14250	-13750	-14000	22000	46878971	0	0.00	225503	0.48	0.0000	
-14200	-13700	-13950	22000	46878971	0	0.00	225503	0.48	0.0000	
-14150	-13650	-13900	22000	46878971	0	0.00	225503	0.48	0.0000	
-14100	-13600	-13850	22000	46878971	0	0.00	225503	0.48	0.0000	
-14050	-13550	-13800	22000	46878971	0	0.00	225503	0.48	0.0000	
-14000	-13500	-13750	22000	46878971	0	0.00	225503	0.48	0.0000	
-13950	-13450	-13700	22000	46878971	0	0.00	225503	0.48	0.0000	
-13900	-13400	-13650	22000	46878971	0	0.00	225503	0.48	0.0000	
-13850	-13350	-13600	22000	46878971	0	0.00	225503	0.48	0.0000	
-13800	-13300	-13550	22000	46878971	0	0.00	225503	0.48	0.0000	
-13750	-13250	-13500	22000	46878971	0	0.00	225503	0.48	0.0000	
-13700	-13200	-13450	22000	46878971	0	0.00	225503	0.48	0.0000	
-13650	-13150	-13400	22000	46878971	0	0.00	225503	0.48	0.0000	
-13600	-13100	-13350	22000	46878971	0	0.00	225503	0.48	0.0000	
-13550	-13050	-13300	22000	46878971	0	0.00	225503	0.48	0.0000	
-13500	-13000	-13250	22000	46878971	0	0.00	225503	0.48	0.0000	
-13450	-12950	-13200	22000	46878971	0	0.00	225503	0.48	0.0000	
-13400	-12900	-13150	22000	46878971	0	0.00	225503	0.48	0.0000	
-13350	-12850	-13100	22000	46878971	0	0.00	225503	0.48	0.0000	
-13300	-12800	-13050	22000	46878971	0	0.00	225503	0.48	0.0000	
-13250	-12750	-13000	22000	46878971	0	0.00	225503	0.48	0.0000	
-13200	-12700	-12950	22000	46878971	0	0.00	225503	0.48	0.0000	
-13150	-12650	-12900	22000	46878971	0	0.00	225503	0.48	0.0000	
-13100	-12600	-12850	22000	46878971	0	0.00	225503	0.48	0.0000	
-13050	-12550	-12800	22000	46878971	0	0.00	225503	0.48	0.0000	
-13000	-12500	-12750	22000	46878971	23	0.10	225480	0.48	0.2174	
-12950	-12450	-12700	22000	46878971	73	0.33	225430	0.48	0.6900	
-12900	-12400	-12650	22000	46878971	123	0.56	225380	0.48	1.1629	
-12850	-12350	-12600	22000	46878971	173	0.79	225330	0.48	1.6360	
-12800	-12300	-12550	22000	46878971	223	1.01	225280	0.48	2.1093	
-12750	-12250	-12500	22000	46878971	258	1.17	225245	0.48	2.4407	
-12700	-12200	-12450	22000	46878971	258	1.17	225245	0.48	2.4407	
-12650	-12150	-12400	22000	46878971	258	1.17	225245	0.48	2.4407	
-12600	-12100	-12350	22000	46878971	258	1.17	225245	0.48	2.4407	
-12550	-12050	-12300	22000	46878971	258	1.17	225245	0.48	2.4407	
-12500	-12000	-12250	22000	46878971	235	1.07	225268	0.48	2.2229	
-12450	-11950	-12200	22000	46878971	185	0.84	225318	0.48	1.7496	
-12400	-11900	-12150	22000	46878971	135	0.61	225368	0.48	1.2764	
-12350	-11850	-12100	22000	46878971	85	0.39	225418	0.48	0.8035	
-12300	-11800	-12050	22000	46878971	35	0.16	225468	0.48	0.3308	
-12250	-11750	-12000	22000	46878971	0	0.00	225503	0.48	0.0000	
-12200	-11700	-11950	22000	46878971	0	0.00	225503	0.48	0.0000	
-12150	-11650	-11900	22000	46878971	0	0.00	225503	0.48	0.0000	
-12100	-11600	-11850	22000	46878971	0	0.00	225503	0.48	0.0000	
-12050	-11550	-11800	22000	46878971	0	0.00	225503	0.48	0.0000	
-12000	-11500	-11750	22000	46878971	0	0.00	225503	0.48	0.0000	
-11950	-11450	-11700	22000	46878971	0	0.00	225503	0.48	0.0000	
-11900	-11400	-11650	22000	46878971	0	0.00	225503	0.48	0.0000	
-11850	-11350	-11600	22000	46878971	0	0.00	225503	0.48	0.0000	
-11800	-11300	-11550	22000	46878971	0	0.00	225503	0.48	0.0000	
-11750	-11250	-11500	22000	46878971	0	0.00	225503	0.48	0.0000	
-11700	-11200	-11450	22000	46878971	0	0.00	225503	0.48	0.0000	
-11650	-11150	-11400	22000	46878971	0	0.00	225503	0.48	0.0000	
-11600	-11100	-11350	22000	46878971	0	0.00	225503	0.48	0.0000	
-11550	-11050	-11300	22000	46878971	0	0.00	225503	0.48	0.0000	
-11500	-11000	-11250	21931	46879040	0	0.00	225503	0.48	0.0000	
-11450	-10950	-11200	21831	46879140	0	0.00	225503	0.48	0.0000	
-11400	-10900	-11150	21731	46879240	0	0.00	225503	0.48	0.0000	
-11350	-10850	-11100	21631	46879340	0	0.00	225503	0.48	0.0000	
-11300	-10800	-11050	21531	46879440	0	0.00	225503	0.48	0.0000	
-11250	-10750	-11000	21569	46879402	0	0.00	225503	0.48	0.0000	
-11200	-10700	-10950	21669	46879302	0	0.00	225503	0.48	0.0000	
-11150	-10650	-10900	21769	46879202	0	0.00	225503	0.48	0.0000	
-11100	-10600	-10850	21869	46879102	0	0.00	225503	0.48	0.0000	
-11050	-10550	-10800	21969	46879002	0	0.00	225503	0.48	0.0000	
-11000	-10500	-10750	22000	46878971	6	0.03	225497	0.48	0.0567	
-10950	-10450	-10700	22000	46878971	56	0.25	225447	0.48	0.5293	
-10900	-10400	-10650	22000	46878971	106	0.48	225397	0.48	1.0021	
-10850	-10350	-10600	22000	46878971	156	0.71	225347	0.48	1.4751	
-10800	-10300	-10550	22000	46878971	206	0.94	225297	0.48	1.9484	
-10750	-10250	-10500	22000	46878971	256	1.16	225247	0.48	2.4218	
-10700	-10200	-10450	22000	46878971	306	1.39	225197	0.48	2.8954	
-10650	-10150	-10400	22000	46878971	356	1.62	225147	0.48	3.3693	
-10600	-10100	-10350	22000	46878971	406	1.85	225097	0.48	3.8434	
-10550	-10050	-10300	22000	46878971	464	2.11	225039	0.48	4.3936	
-10500	-10000	-10250	22000	46878971	558	2.54	224945	0.48	5.2858	
-10450	-9950	-10200	22000	46878971	562	2.55	224941	0.48	5.3238	
-10400	-9900	-10150	22000	46878971	562	2.55	224941	0.48	5.3238	
-10350	-9850	-10100	22000	46878971	562	2.55	224941	0.48	5.3238	
-10300	-9800	-10050	22000	46878971	562	2.55	224941	0.48	5.3238	
-10250	-9750	-10000	22000	46878971	562	2.55	224941	0.48	5.3238	
-10200	-9700	-9950	22000	46878971	562	2.55	224941	0.48	5.3238	
-10150	-9650	-9900	22000	46878971	562	2.55	224941	0.48	5.3238	
-10100	-9600	-9850	22000	46878971	562	2.55	224941	0.48	5.3238	
-10050	-9550	-9800	22000	46878971	554	2.52	224949	0.48	5.2478	
-10000	-9500	-9750	22000	46878971	504	2.29	224999	0.48	4.7732	
-9950	-9450	-9700	22000	46878971	500	2.27	225003	0.48	4.7352	
-9900	-9400	-9650	22000	46878971	500	2.27	225003	0.48	4.7352	
-9850	-9350	-9600	22000	46878971	500	2.27	225003	0.48	4.7352	
-9800	-9300	-9550	22000	46878971	500	2.27	225003	0.48	4.7352	
-9750	-9250	-9500	22000	46878971	500	2.27	225003	0.48	4.7352	
-9700	-9200	-9450	22000	46878971	500	2.27	225003	0.48	4.7352	
-9650	-9150	-9400	22000	46878971	500	2.27	225003	0.48	4.7352	
-9600	-9100	-9350	22000	46878971	500	2.27	225003	0.48	4.7352	
-9550	-9050	-9300	22000	46878971	500	2.27	225003	0.48	4.7352	
-9500	-9000	-9250	22000	46878971	500	2.27	225003	0.48	4.7352	
-9450	-8950	-9200	22000	46878971	469	2.13	225034	0.48	4.4410	
-9400	-8900	-9150	22000	46878971	419	1.90	225084	0.48	3.9667	
-9350	-8850	-9100	22000	46878971	369	1.68	225134	0.48	3.4925	
-9300	-8800	-9050	22000	46878971	319	1.45	225184	0.48	3.0186	
-9250	-8750	-9000	22000	46878971	269	1.22	225234	0.48	2.5449	
-9200	-8700	-8950	22000	46878971	219	1.00	225284	0.48	2.0714	
-9150	-8650	-8900	22000	46878971	169	0.77	225334	0.48	1.5981	
-9100	-8600	-8850	22000	46878971	119	0.54	225384	0.48	1.1251	
-9050	-8550	-8800	22000	46878971	69	0.31	225434	0.48	0.6522	
-9000	-8500	-8750	22000	46878971	19	0.09	225484	0.48	0.1796	
-8950	-8450	-8700	22000	46878971	0	0.00	225503	0.48	0.0000	
-8900	-8400	-8650	22000	46878971	0	0.00	225503	0.48	0.0000	
-8850	-8350	-8600	22000	46878971	45	0.20	225458	0.48	0.4253	
-8800	-8300	-8550	22000	46878971	95	0.43	225408	0.48	0.8981	
-8750	-8250	-8500	22000	46878971	145	0.66	225358	0.48	1.3710	
-8700	-8200	-8450	22000	46878971	195	0.89	225308	0.48	1.8442	
-8650	-8150	-8400	22000	46878971	245	1.11	225258	0.48	2.3176	
-8600	-8100	-8350	22000	46878971	295	1.34	225208	0.48	2.7912	
-8550	-8050	-8300	22000	46878971	345	1.57	225158	0.48	3.2650	
-8500	-8000	-8250	22000	46878971	395	1.80	225108	0.48	3.7391	
-8450	-7950	-8200	22000	46878971	445	2.02	225058	0.48	4.2133	
-8400	-7900	-8150	22000	46878971	495	2.25	225008	0.48	4.6877	
-8350	-7850	-8100	22000	46878971	500	2.27	225003	0.48	4.7352	
-8300	-7800	-8050	22000	46878971	500	2.27	225003	0.48	4.7352	
-8250	-7750	-8000	22000	46878971	500	2.27	225003	0.48	4.7352	
-8200	-7700	-7950	22000	46878971	500	2.27	225003	0.48	4.7352	
-8150	-7650	-7900	22000	46878971	500	2.27	225003	0.48	4.7352	
-8100	-7600	-7850	22000	46878971	500	2.27	225003	0.48	4.7352	
-8050	-7550	-7800	22000	46878971	500	2.27	225003	0.48	4.7352	
-8000	-7500	-7750	22000	46878971	500	2.27	225003	0.48	4.7352	
-7950	-7450	-7700	22000	46878971	500	2.27	225003	0.48	4.7352	
-7900	-7400	-7650	22000	46878971	500	2.27	225003	0.48	4.7352	
-7850	-7350	-7600	22000	46878971	500	2.27	225003	0.48	4.7352	
-7800	-7300	-7550	22000	46878971	500	2.27	225003	0.48	4.7352	
-7750	-7250	-7500	22000	46878971	500	2.27	225003	0.48	4.7352	
-7700	-7200	-7450	22000	46878971	500	2.27	225003	0.48	4.7352	
-7650	-7150	-7400	22000	46878971	500	2.27	225003	0.48	4.7352	
-7600	-7100	-7350	22000	46878971	500	2.27	225003	0.48	4.7352	
-7550	-7050	-7300	22000	46878971	500	2.27	225003	0.48	4.7352	
-7500	-7000	-7250	22000	46878971	500	2.27	225003	0.48	4.7352	
-7450	-6950	-7200	22000	46878971	500	2.27	225003	0.48	4.7352	
-7400	-6900	-7150	22000	46878971	500	2.27	225003	0.48	4.7352	
-7350	-6850	-7100	22000	46878971	500	2.27	225003	0.48	4.7352	
-7300	-6800	-7050	22000	46878971	500	2.27	225003	0.48	4.7352	
-7250	-6750	-7000	22000	46878971	500	2.27	225003	0.48	4.7352	
-7200	-6700	-6950	22000	46878971	500	2.27	225003	0.48	4.7352	
-7150	-6650	-6900	22000	46878971	459	2.09	225044	0.48	4.3461	
-7100	-6600	-6850	22000	46878971	409	1.86	225094	0.48	3.8718	
-7050	-6550	-6800	22000	46878971	359	1.63	225144	0.48	3.3977	
-7000	-6500	-6750	21976	46878995	309	1.41	225194	0.48	2.9271	
-6950	-6450	-6700	21876	46879095	259	1.18	225244	0.48	2.4641	
-6900	-6400	-6650	21776	46879195	209	0.96	225294	0.48	1.9971	
-6850	-6350	-6600	21676	46879295	159	0.73	225344	0.48	1.5260	
-6800	-6300	-6550	21576	46879395	109	0.51	225394	0.48	1.0507	
-6750	-6250	-6500	21524	46879447	59	0.27	225444	0.48	0.5700	
-6700	-6200	-6450	21624	46879347	9	0.04	225494	0.48	0.0865	
-6650	-6150	-6400	21724	46879247	0	0.00	225503	0.48	0.0000	
-6600	-6100	-6350	21824	46879147	0	0.00	225503	0.48	0.0000	
-6550	-6050	-6300	21924	46879047	0	0.00	225503	0.48	0.0000	
-6500	-6000	-6250	22000	46878971	0	0.00	225503	0.48	0.0000	
-6450	-5950	-6200	22000	46878971	0	0.00	225503	0.48	0.0000	
-6400	-5900	-6150	22000	46878971	0	0.00	225503	0.48	0.0000	
-6350	-5850	-6100	22000	46878971	0	0.00	225503	0.48	0.0000	
-6300	-5800	-6050	22000	46878971	0	0.00	225503	0.48	0.0000	
-6250	-5750	-6000	22000	46878971	0	0.00	225503	0.48	0.0000	
-6200	-5700	-5950	22000	46878971	0	0.00	225503	0.48	0.0000	
-6150	-5650	-5900	22000	46878971	0	0.00	225503	0.48	0.0000	
-6100	-5600	-5850	22000	46878971	0	0.00	225503	0.48	0.0000	
-6050	-5550	-5800	22000	46878971	0	0.00	225503	0.48	0.0000	
-6000	-5500	-5750	22000	46878971	0	0.00	225503	0.48	0.0000	
-5950	-5450	-5700	22000	46878971	0	0.00	225503	0.48	0.0000	
-5900	-5400	-5650	22000	46878971	0	0.00	225503	0.48	0.0000	
-5850	-5350	-5600	22000	46878971	0	0.00	225503	0.48	0.0000	
-5800	-5300	-5550	22000	46878971	0	0.00	225503	0.48	0.0000	
-5750	-5250	-5500	22000	46878971	0	0.00	225503	0.48	0.0000	
-5700	-5200	-5450	22000	46878971	0	0.00	225503	0.48	0.0000	
-5650	-5150	-5400	22000	46878971	0	0.00	225503	0.48	0.0000	
-5600	-5100	-5350	22000	46878971	0	0.00	225503	0.48	0.0000	
-5550	-5050	-5300	22000	46878971	0	0.00	225503	0.48	0.0000	
-5500	-5000	-5250	22000	46878971	0	0.00	225503	0.48	0.0000	
-5450	-4950	-5200	22000	46878971	0	0.00	225503	0.48	0.0000	
-5400	-4900	-5150	22000	46878971	0	0.00	225503	0.48	0.0000	
-5350	-4850	-5100	22000	46878971	0	0.00	225503	0.48	0.0000	
-5300	-4800	-5050	22000	46878971	0	0.00	225503	0.48	0.0000	
-5250	-4750	-5000	22000	46878971	0	0.00	225503	0.48	0.0000	
-5200	-4700	-4950	22000	46878971	0	0.00	225503	0.48	0.0000	
-5150	-4650	-4900	22000	46878971	0	0.00	225503	0.48	0.0000	
-5100	-4600	-4850	22000	46878971	0	0.00	225503	0.48	0.0000	
-5050	-4550	-4800	22000	46878971	0	0.00	225503	0.48	0.0000	
-5000	-4500	-4750	22000	46878971	0	0.00	225503	0.48	0.0000	
-4950	-4450	-4700	22000	46878971	0	0.00	225503	0.48	0.0000	
-4900	-4400	-4650	22000	46878971	0	0.00	225503	0.48	0.0000	
-4850	-4350	-4600	22000	46878971	0	0.00	225503	0.48	0.0000	
-4800	-4300	-4550	22000	46878971	0	0.00	225503	0.48	0.0000	
-4750	-4250	-4500	22000	46878971	0	0.00	225503	0.48	0.0000	
-4700	-4200	-4450	22000	46878971	0	0.00	225503	0.48	0.0000	
-4650	-4150	-4400	22000	46878971	0	0.00	225503	0.48	0.0000	
-4600	-4100	-4350	22000	46878971	0	0.00	225503	0.48	0.0000	
-4550	-4050	-4300	22000	46878971	0	0.00	225503	0.48	0.0000	
-4500	-4000	-4250	22000	46878971	0	0.00	225503	0.48	0.0000	
-4450	-3950	-4200	22000	46878971	0	0.00	225503	0.48	0.0000	
-4400	-3900	-4150	22000	46878971	0	0.00	225503	0.48	0.0000	
-4350	-3850	-4100	22000	46878971	0	0.00	225503	0.48	0.0000	
-4300	-3800	-4050	22000	46878971	0	0.00	225503	0.48	0.0000	
-4250	-3750	-4000	22000	46878971	0	0.00	225503	0.48	0.0000	
-4200	-3700	-3950	22000	46878971	0	0.00	225503	0.48	0.0000	
-4150	-3650	-3900	22000	46878971	0	0.00	225503	0.48	0.0000	
-4100	-3600	-3850	22000	46878971	0	0.00	225503	0.48	0.0000	
-4050	-3550	-3800	22000	46878971	0	0.00	225503	0.48	0.0000	
-4000	-3500	-3750	22000	46878971	0	0.00	225503	0.48	0.0000	
-3950	-3450	-3700	22000	46878971	0	0.00	225503	0.48	0.0000	
-3900	-3400	-3650	22000	46878971	0	0.00	225503	0.48	0.0000	
-3850	-3350	-3600	22000	46878971	0	0.00	225503	0.48	0.0000	
-3800	-3300	-3550	22000	46878971	0	0.00	225503	0.48	0.0000	
-3750	-3250	-3500	22000	46878971	0	0.00	225503	0.48	0.0000	
-3700	-3200	-3450	22000	46878971	0	0.00	225503	0.48	0.0000	
-3650	-3150	-3400	22000	46878971	0	0.00	225503	0.48	0.0000	
-3600	-3100	-3350	22000	46878971	0	0.00	225503	0.48	0.0000	
-3550	-3050	-3300	22000	46878971	0	0.00	225503	0.48	0.0000	
-3500	-3000	-3250	22000	46878971	0	0.00	225503	0.48	0.0000	
-3450	-2950	-3200	22000	46878971	0	0.00	225503	0.48	0.0000	
-3400	-2900	-3150	22000	46878971	0	0.00	225503	0.48	0.0000	
-3350	-2850	-3100	22000	46878971	0	0.00	225503	0.48	0.0000	
-3300	-2800	-3050	22000	46878971	0	0.00	225503	0.48	0.0000	
-3250	-2750	-3000	22000	46878971	0	0.00	225503	0.48	0.0000	
-3200	-2700	-2950	22000	46878971	0	0.00	225503	0.48	0.0000	
-3150	-2650	-2900	22000	46878971	0	0.00	225503	0.48	0.0000	
-3100	-2600	-2850	22000	46878971	0	0.00	225503	0.48	0.0000	
-3050	-2550	-2800	22000	46878971	0	0.00	225503	0.48	0.0000	
-3000	-2500	-2750	22000	46878971	0	0.00	225503	0.48	0.0000	
-2950	-2450	-2700	22000	46878971	0	0.00	225503	0.48	0.0000	
-2900	-2400	-2650	22000	46878971	0	0.00	225503	0.48	0.0000	
-2850	-2350	-2600	22000	46878971	0	0.00	225503	0.48	0.0000	
-2800	-2300	-2550	22000	46878971	0	0.00	225503	0.48	0.0000	
-2750	-2250	-2500	22000	46878971	0	0.00	225503	0.48	0.0000	
-2700	-2200	-2450	22000	46878971	0	0.00	225503	0.48	0.0000	
-2650	-2150	-2400	22000	46878971	0	0.00	225503	0.48	0.0000	
-2600	-2100	-2350	22000	46878971	0	0.00	225503	0.48	0.0000	
-2550	-2050	-2300	22000	46878971	0	0.00	225503	0.48	0.0000	
-2500	-2000	-2250	22000	46878971	0	0.00	225503	0.48	0.0000	
-2450	-1950	-2200	22000	46878971	0	0.00	225503	0.48	0.0000	
-2400	-1900	-2150	22000	46878971	0	0.00	225503	0.48	0.0000	
-2350	-1850	-2100	22000	46878971	0	0.00	225503	0.48	0.0000	
-2300	-1800	-2050	22000	46878971	0	0.00	225503	0.48	0.0000	
-2250	-1750	-2000	22000	46878971	0	0.00	225503	0.48	0.0000	
-2200	-1700	-1950	22000	46878971	0	0.00	225503	0.48	0.0000	
-2150	-1650	-1900	22000	46878971	0	0.00	225503	0.48	0.0000	
-2100	-1600	-1850	22000	46878971	0	0.00	225503	0.48	0.0000	
-2050	-1550	-1800	21951	46879020	0	0.00	225503	0.48	0.0000	
-2000	-1500	-1750	21851	46879120	0	0.00	225503	0.48	0.0000	
-1950	-1450	-1700	21751	46879220	0	0.00	225503	0.48	0.0000	
-1900	-1400	-1650	21651	46879320	0	0.00	225503	0.48	0.0000	
-1850	-1350	-1600	21551	46879420	0	0.00	225503	0.48	0.0000	
-1800	-1300	-1550	21549	46879422	0	0.00	225503	0.48	0.0000	
-1750	-1250	-1500	21649	46879322	0	0.00	225503	0.48	0.0000	
-1700	-1200	-1450	21749	46879222	0	0.00	225503	0.48	0.0000	
-1650	-1150	-1400	21849	46879122	0	0.00	225503	0.48	0.0000	
-1600	-1100	-1350	21949	46879022	0	0.00	225503	0.48	0.0000	
-1550	-1050	-1300	22000	46878971	0	0.00	225503	0.48	0.0000	
-1500	-1000	-1250	22000	46878971	0	0.00	225503	0.48	0.0000	
-1450	-950	-1200	22000	46878971	0	0.00	225503	0.48	0.0000	
-1400	-900	-1150	22000	46878971	0	0.00	225503	0.48	0.0000	
-1350	-850	-1100	22000	46878971	0	0.00	225503	0.48	0.0000	
-1300	-800	-1050	22000	46878971	0	0.00	225503	0.48	0.0000	
-1250	-750	-1000	22000	46878971	0	0.00	225503	0.48	0.0000	
-1200	-700	-950	22000	46878971	0	0.00	225503	0.48	0.0000	
-1150	-650	-900	22000	46878971	0	0.00	225503	0.48	0.0000	
-1100	-600	-850	22000	46878971	0	0.00	225503	0.48	0.0000	
-1050	-550	-800	22000	46878971	0	0.00	225503	0.48	0.0000	
-1000	-500	-750	22000	46878971	0	0.00	225503	0.48	0.0000	
-950	-450	-700	22000	46878971	0	0.00	225503	0.48	0.0000	
-900	-400	-650	22000	46878971	0	0.00	225503	0.48	0.0000	
-850	-350	-600	22000	46878971	0	0.00	225503	0.48	0.0000	
-800	-300	-550	22000	46878971	0	0.00	225503	0.48	0.0000	
-750	-250	-500	22000	46878971	0	0.00	225503	0.48	0.0000	
-700	-200	-450	22000	46878971	0	0.00	225503	0.48	0.0000	
-650	-150	-400	22000	46878971	0	0.00	225503	0.48	0.0000	
-600	-100	-350	22000	46878971	0	0.00	225503	0.48	0.0000	
-550	-50	-300	22000	46878971	0	0.00	225503	0.48	0.0000	
-500	0	-250	22000	46878971	0	0.00	225503	0.48	0.0000	
-450	50	-200	22000	46878971	0	0.00	225503	0.48	0.0000	
-400	100	-150	22000	46878971	0	0.00	225503	0.48	0.0000	
-350	150	-100	22000	46878971	0	0.00	225503	0.48	0.0000	
-300	200	-50	22000	46878971	0	0.00	225503	0.48	0.0000	
-250	250	0	22000	46878971	0	0.00	225503	0.48	0.0000	
-200	300	50	21958	46879013	0	0.00	225503	0.48	0.0000	
-150	350	100	21766	46879205	0	0.00	225503	0.48	0.0000	
-100	400	150	21466	46879505	0	0.00	225503	0.48	0.0000	
-50	450	200	21166	46879805	0	0.00	225503	0.48	0.0000	
0	500	250	20866	46880105	0	0.00	225503	0.48	0.0000	
50	550	300	20650	46880321	0	0.00	225503	0.48	0.0000	
100	600	350	20734	46880237	0	0.00	225503	0.48	0.0000	
150	650	400	21034	46879937	0	0.00	225503	0.48	0.0000	
200	700	450	21334	46879637	0	0.00	225503	0.48	0.0000	
250	750	500	21634	46879337	0	0.00	225503	0.48	0.0000	
300	800	550	21892	46879079	0	0.00	225503	0.48	0.0000	
350	850	600	22000	46878971	0	0.00	225503	0.48	0.0000	
400	900	650	21958	46879013	0	0.00	225503	0.48	0.0000	
450	950	700	21858	46879113	0	0.00	225503	0.48	0.0000	
500	1000	750	21758	46879213	0	0.00	225503	0.48	0.0000	
550	1050	800	21658	46879313	0	0.00	225503	0.48	0.0000	
600	1100	850	21558	46879413	0	0.00	225503	0.48	0.0000	
650	1150	900	21542	46879429	0	0.00	225503	0.48	0.0000	
700	1200	950	21642	46879329	0	0.00	225503	0.48	0.0000	
750	1250	1000	21742	46879229	0	0.00	225503	0.48	0.0000	
800	1300	1050	21842	46879129	0	0.00	225503	0.48	0.0000	
850	1350	1100	21942	46879029	0	0.00	225503	0.48	0.0000	
900	1400	1150	22000	46878971	0	0.00	225503	0.48	0.0000	
950	1450	1200	22000	46878971	0	0.00	225503	0.48	0.0000	
1000	1500	1250	22000	46878971	0	0.00	225503	0.48	0.0000	
1050	1550	1300	21900	46879071	0	0.00	225503	0.48	0.0000	
1100	1600	1350	21700	46879271	0	0.00	225503	0.48	0.0000	
1150	1650	1400	21500	46879471	0	0.00	225503	0.48	0.0000	
1200	1700	1450	21300	46879671	0	0.00	225503	0.48	0.0000	
1250	1750	1500	21100	46879871	0	0.00	225503	0.48	0.0000	
1300	1800	1550	21033	46879938	0	0.00	225503	0.48	0.0000	
1350	1850	1600	21133	46879838	0	0.00	225503	0.48	0.0000	
1400	1900	1650	21233	46879738	0	0.00	225503	0.48	0.0000	
1450	1950	1700	21333	46879638	0	0.00	225503	0.48	0.0000	
1500	2000	1750	21433	46879538	0	0.00	225503	0.48	0.0000	
1550	2050	1800	21567	46879404	0	0.00	225503	0.48	0.0000	
1600	2100	1850	21667	46879304	0	0.00	225503	0.48	0.0000	
1650	2150	1900	21767	46879204	0	0.00	225503	0.48	0.0000	
1700	2200	1950	21867	46879104	0	0.00	225503	0.48	0.0000	
1750	2250	2000	21967	46879004	0	0.00	225503	0.48	0.0000	
1800	2300	2050	22000	46878971	0	0.00	225503	0.48	0.0000	
1850	2350	2100	22000	46878971	0	0.00	225503	0.48	0.0000	
1900	2400	2150	22000	46878971	0	0.00	225503	0.48	0.0000	
1950	2450	2200	22000	46878971	0	0.00	225503	0.48	0.0000	
2000	2500	2250	22000	46878971	0	0.00	225503	0.48	0.0000	
2050	2550	2300	22000	46878971	0	0.00	225503	0.48	0.0000	
2100	2600	2350	22000	46878971	0	0.00	225503	0.48	0.0000	
2150	2650	2400	22000	46878971	0	0.00	225503	0.48	0.0000	
2200	2700	2450	22000	46878971	0	0.00	225503	0.48	0.0000	
2250	2750	2500	22000	46878971	0	0.00	225503	0.48	0.0000	
2300	2800	2550	22000	46878971	0	0.00	225503	0.48	0.0000	
2350	2850	2600	22000	46878971	0	0.00	225503	0.48	0.0000	
2400	2900	2650	22000	46878971	0	0.00	225503	0.48	0.0000	
2450	2950	2700	22000	46878971	0	0.00	225503	0.48	0.0000	
2500	3000	2750	22000	46878971	0	0.00	225503	0.48	0.0000	
2550	3050	2800	22000	46878971	0	0.00	225503	0.48	0.0000	
2600	3100	2850	22000	46878971	0	0.00	225503	0.48	0.0000	
2650	3150	2900	22000	46878971	0	0.00	225503	0.48	0.0000	
2700	3200	2950	22000	46878971	0	0.00	225503	0.48	0.0000	
2750	3250	3000	22000	46878971	0	0.00	225503	0.48	0.0000	
2800	3300	3050	22000	46878971	0	0.00	225503	0.48	0.0000	
2850	3350	3100	22000	46878971	0	0.00	225503	0.48	0.0000	
2900	3400	3150	22000	46878971	0	0.00	225503	0.48	0.0000	
2950	3450	3200	22000	46878971	0	0.00	225503	0.48	0.0000	
3000	3500	3250	21904	46879067	0	0.00	225503	0.48	0.0000	
3050	3550	3300	21804	46879167	0	0.00	225503	0.48	0.0000	
3100	3600	3350	21704	46879267	0	0.00	225503	0.48	0.0000	
3150	3650	3400	21604	46879367	0	0.00	225503	0.48	0.0000	
3200	3700	3450	21504	46879467	0	0.00	225503	0.48	0.0000	
3250	3750	3500	21596	46879375	0	0.00	225503	0.48	0.0000	
3300	3800	3550	21696	46879275	0	0.00	225503	0.48	0.0000	
3350	3850	3600	21796	46879175	45	0.21	225458	0.48	0.4293	
3400	3900	3650	21896	46879075	95	0.43	225408	0.48	0.9023	
3450	3950	3700	21996	46878975	145	0.66	225358	0.48	1.3713	
3500	4000	3750	22000	46878971	195	0.89	225308	0.48	1.8442	
3550	4050	3800	22000	46878971	245	1.11	225258	0.48	2.3176	
3600	4100	3850	22000	46878971	295	1.34	225208	0.48	2.7912	
3650	4150	3900	22000	46878971	345	1.57	225158	0.48	3.2650	
3700	4200	3950	22000	46878971	395	1.80	225108	0.48	3.7391	
3750	4250	4000	22000	46878971	445	2.02	225058	0.48	4.2133	
3800	4300	4050	22000	46878971	495	2.25	225008	0.48	4.6877	
3850	4350	4100	22000	46878971	500	2.27	225003	0.48	4.7352	
3900	4400	4150	22000	46878971	500	2.27	225003	0.48	4.7352	
3950	4450	4200	22000	46878971	500	2.27	225003	0.48	4.7352	
4000	4500	4250	22000	46878971	489	2.22	225014	0.48	4.6308	
4050	4550	4300	22000	46878971	439	2.00	225064	0.48	4.1564	
4100	4600	4350	22000	46878971	389	1.77	225114	0.48	3.6822	
4150	4650	4400	22000	46878971	339	1.54	225164	0.48	3.2082	
4200	4700	4450	22000	46878971	289	1.31	225214	0.48	2.7344	
4250	4750	4500	22000	46878971	239	1.09	225264	0.48	2.2608	
4300	4800	4550	22000	46878971	189	0.86	225314	0.48	1.7874	
4350	4850	4600	22000	46878971	139	0.63	225364	0.48	1.3143	
4400	4900	4650	22000	46878971	89	0.40	225414	0.48	0.8413	
4450	4950	4700	22000	46878971	39	0.18	225464	0.48	0.3686	
4500	5000	4750	22000	46878971	0	0.00	225503	0.48	0.0000	
4550	5050	4800	22000	46878971	0	0.00	225503	0.48	0.0000	
4600	5100	4850	22000	46878971	0	0.00	225503	0.48	0.0000	
4650	5150	4900	22000	46878971	0	0.00	225503	0.48	0.0000	
4700	5200	4950	22000	46878971	0	0.00	225503	0.48	0.0000	
4750	5250	5000	22000	46878971	0	0.00	225503	0.48	0.0000	
4800	5300	5050	22000	46878971	0	0.00	225503	0.48	0.0000	
4850	5350	5100	22000	46878971	0	0.00	225503	0.48	0.0000	
4900	5400	5150	22000	46878971	0	0.00	225503	0.48	0.0000	
4950	5450	5200	22000	46878971	0	0.00	225503	0.48	0.0000	
5000	5500	5250	22000	46878971	0	0.00	225503	0.48	0.0000	
5050	5550	5300	22000	46878971	0	0.00	225503	0.48	0.0000	
5100	5600	5350	22000	46878971	0	0.00	225503	0.48	0.0000	
5150	5650	5400	22000	46878971	0	0.00	225503	0.48	0.0000	
5200	5700	5450	22000	46878971	0	0.00	225503	0.48	0.0000	
5250	5750	5500	22000	46878971	0	0.00	225503	0.48	0.0000	
5300	5800	5550	22000	46878971	0	0.00	225503	0.48	0.0000	
5350	5850	5600	22000	46878971	0	0.00	225503	0.48	0.0000	
5400	5900	5650	22000	46878971	0	0.00	225503	0.48	0.0000	
5450	5950	5700	22000	46878971	0	0.00	225503	0.48	0.0000	
5500	6000	5750	22000	46878971	0	0.00	225503	0.48	0.0000	
5550	6050	5800	22000	46878971	0	0.00	225503	0.48	0.0000	
5600	6100	5850	22000	46878971	0	0.00	225503	0.48	0.0000	
5650	6150	5900	22000	46878971	0	0.00	225503	0.48	0.0000	
5700	6200	5950	22000	46878971	0	0.00	225503	0.48	0.0000	
5750	6250	6000	22000	46878971	0	0.00	225503	0.48	0.0000	
5800	6300	6050	22000	46878971	0	0.00	225503	0.48	0.0000	
5850	6350	6100	22000	46878971	0	0.00	225503	0.48	0.0000	
5900	6400	6150	22000	46878971	0	0.00	225503	0.48	0.0000	
5950	6450	6200	22000	46878971	0	0.00	225503	0.48	0.0000	
6000	6500	6250	22000	46878971	0	0.00	225503	0.48	0.0000	
6050	6550	6300	22000	46878971	0	0.00	225503	0.48	0.0000	
6100	6600	6350	22000	46878971	0	0.00	225503	0.48	0.0000	
6150	6650	6400	22000	46878971	0	0.00	225503	0.48	0.0000	
6200	6700	6450	22000	46878971	0	0.00	225503	0.48	0.0000	
6250	6750	6500	22000	46878971	0	0.00	225503	0.48	0.0000	
6300	6800	6550	22000	46878971	0	0.00	225503	0.48	0.0000	
6350	6850	6600	22000	46878971	0	0.00	225503	0.48	0.0000	
6400	6900	6650	22000	46878971	0	0.00	225503	0.48	0.0000	
6450	6950	6700	22000	46878971	0	0.00	225503	0.48	0.0000	
6500	7000	6750	22000	46878971	0	0.00	225503	0.48	0.0000	
6550	7050	6800	22000	46878971	0	0.00	225503	0.48	0.0000	
6600	7100	6850	22000	46878971	0	0.00	225503	0.48	0.0000	
6650	7150	6900	22000	46878971	0	0.00	225503	0.48	0.0000	
6700	7200	6950	22000	46878971	0	0.00	225503	0.48	0.0000	
6750	7250	7000	22000	46878971	0	0.00	225503	0.48	0.0000	
6800	7300	7050	22000	46878971	0	0.00	225503	0.48	0.0000	
6850	7350	7100	22000	46878971	0	0.00	225503	0.48	0.0000	
6900	7400	7150	22000	46878971	0	0.00	225503	0.48	0.0000	
6950	7450	7200	22000	46878971	0	0.00	225503	0.48	0.0000	
7000	7500	7250	22000	46878971	0	0.00	225503	0.48	0.0000	
7050	7550	7300	22000	46878971	0	0.00	225503	0.48	0.0000	
7100	7600	7350	22000	46878971	0	0.00	225503	0.48	0.0000	
7150	7650	7400	22000	46878971	0	0.00	225503	0.48	0.0000	
7200	7700	7450	22000	46878971	0	0.00	225503	0.48	0.0000	
7250	7750	7500	22000	46878971	0	0.00	225503	0.48	0.0000	
7300	7800	7550	22000	46878971	0	0.00	225503	0.48	0.0000	
7350	7850	7600	22000	46878971	0	0.00	225503	0.48	0.0000	
7400	7900	7650	22000	46878971	0	0.00	225503	0.48	0.0000	
7450	7950	7700	22000	46878971	0	0.00	225503	0.48	0.0000	
7500	8000	7750	22000	46878971	0	0.00	225503	0.48	0.0000	
7550	8050	7800	22000	46878971	0	0.00	225503	0.48	0.0000	
7600	8100	7850	22000	46878971	0	0.00	225503	0.48	0.0000	
7650	8150	7900	22000	46878971	0	0.00	225503	0.48	0.0000	
7700	8200	7950	22000	46878971	0	0.00	225503	0.48	0.0000	
7750	8250	8000	22000	46878971	0	0.00	225503	0.48	0.0000	
7800	8300	8050	22000	46878971	0	0.00	225503	0.48	0.0000	
7850	8350	8100	22000	46878971	0	0.00	225503	0.48	0.0000	
7900	8400	8150	22000	46878971	0	0.00	225503	0.48	0.0000	
7950	8450	8200	22000	46878971	49	0.22	225454	0.48	0.4631	
8000	8500	8250	22000	46878971	99	0.45	225404	0.48	0.9359	
8050	8550	8300	22000	46878971	149	0.68	225354	0.48	1.4089	
8100	8600	8350	22000	46878971	199	0.90	225304	0.48	1.8821	
8150	8650	8400	22000	46878971	249	1.13	225254	0.48	2.3555	
8200	8700	8450	22000	46878971	299	1.36	225204	0.48	2.8291	
8250	8750	8500	22000	46878971	349	1.59	225154	0.48	3.3029	
8300	8800	8550	22000	46878971	399	1.81	225104	0.48	3.7770	
8350	8850	8600	22000	46878971	449	2.04	225054	0.48	4.2512	
8400	8900	8650	22000	46878971	499	2.27	225004	0.48	4.7257	
8450	8950	8700	22000	46878971	500	2.27	225003	0.48	4.7352	
8500	9000	8750	22000	46878971	500	2.27	225003	0.48	4.7352	
8550	9050	8800	22000	46878971	500	2.27	225003	0.48	4.7352	
8600	9100	8850	22000	46878971	500	2.27	225003	0.48	4.7352	
8650	9150	8900	22000	46878971	500	2.27	225003	0.48	4.7352	
8700	9200	8950	22000	46878971	500	2.27	225003	0.48	4.7352	
8750	9250	9000	22000	46878971	500	2.27	225003	0.48	4.7352	
8800	9300	9050	22000	46878971	500	2.27	225003	0.48	4.7352	
8850	9350	9100	22000	46878971	466	2.12	225037	0.48	4.4125	
8900	9400	9150	22000	46878971	416	1.89	225087	0.48	3.9382	
8950	9450	9200	22000	46878971	366	1.66	225137	0.48	3.4641	
9000	9500	9250	22000	46878971	316	1.44	225187	0.48	2.9902	
9050	9550	9300	22000	46878971	266	1.21	225237	0.48	2.5165	
9100	9600	9350	22000	46878971	216	0.98	225287	0.48	2.0430	
9150	9650	9400	21975	46878996	166	0.76	225337	0.48	1.5715	
9200	9700	9450	21875	46879096	116	0.53	225387	0.48	1.1030	
9250	9750	9500	21775	46879196	66	0.30	225437	0.48	0.6303	
9300	9800	9550	21675	46879296	16	0.07	225487	0.48	0.1535	
9350	9850	9600	21575	46879396	0	0.00	225503	0.48	0.0000	
9400	9900	9650	21525	46879446	0	0.00	225503	0.48	0.0000	
9450	9950	9700	21625	46879346	0	0.00	225503	0.48	0.0000	
9500	10000	9750	21725	46879246	41	0.19	225462	0.48	0.3924	
9550	10050	9800	21825	46879146	91	0.42	225412	0.48	0.8671	
9600	10100	9850	21925	46879046	141	0.64	225362	0.48	1.3378	
9650	10150	9900	22000	46878971	191	0.87	225312	0.48	1.8064	
9700	10200	9950	22000	46878971	241	1.10	225262	0.48	2.2797	
9750	10250	10000	22000	46878971	291	1.32	225212	0.48	2.7533	
9800	10300	10050	22000	46878971	341	1.55	225162	0.48	3.2271	
9850	10350	10100	22000	46878971	391	1.78	225112	0.48	3.7011	
9900	10400	10150	22000	46878971	441	2.00	225062	0.48	4.1753	
9950	10450	10200	22000	46878971	491	2.23	225012	0.48	4.6498	
10000	10500	10250	22000	46878971	500	2.27	225003	0.48	4.7352	
10050	10550	10300	22000	46878971	500	2.27	225003	0.48	4.7352	
10100	10600	10350	22000	46878971	500	2.27	225003	0.48	4.7352	
10150	10650	10400	22000	46878971	500	2.27	225003	0.48	4.7352	
10200	10700	10450	22000	46878971	500	2.27	225003	0.48	4.7352	
10250	10750	10500	22000	46878971	500	2.27	225003	0.48	4.7352	
10300	10800	10550	22000	46878971	500	2.27	225003	0.48	4.7352	
10350	10850	10600	22000	46878971	500	2.27	225003	0.48	4.7352	
10400	10900	10650	22000	46878971	474	2.15	225029	0.48	4.4884	
10450	10950	10700	22000	46878971	424	1.93	225079	0.48	4.0141	
10500	11000	10750	22000	46878971	374	1.70	225129	0.48	3.5399	
10550	11050	10800	22000	46878971	324	1.47	225179	0.48	3.0660	
10600	11100	10850	22000	46878971	274	1.25	225229	0.48	2.5923	
10650	11150	10900	22000	46878971	224	1.02	225279	0.48	2.1188	
10700	11200	10950	22000	46878971	174	0.79	225329	0.48	1.6455	
10750	11250	11000	22000	46878971	124	0.56	225379	0.48	1.1724	
10800	11300	11050	22000	46878971	74	0.34	225429	0.48	0.6995	
10850	11350	11100	22000	46878971	24	0.11	225479	0.48	0.2268	
10900	11400	11150	22000	46878971	0	0.00	225503	0.48	0.0000	
10950	11450	11200	22000	46878971	0	0.00	225503	0.48	0.0000	
11000	11500	11250	22000	46878971	0	0.00	225503	0.48	0.0000	
11050	11550	11300	22000	46878971	0	0.00	225503	0.48	0.0000	
11100	11600	11350	22000	46878971	0	0.00	225503	0.48	0.0000	
11150	11650	11400	22000	46878971	0	0.00	225503	0.48	0.0000	
11200	11700	11450	22000	46878971	0	0.00	225503	0.48	0.0000	
11250	11750	11500	22000	46878971	0	0.00	225503	0.48	0.0000	
11300	11800	11550	22000	46878971	0	0.00	225503	0.48	0.0000	
11350	11850	11600	22000	46878971	0	0.00	225503	0.48	0.0000	
11400	11900	11650	22000	46878971	0	0.00	225503	0.48	0.0000	
11450	11950	11700	22000	46878971	0	0.00	225503	0.48	0.0000	
11500	12000	11750	22000	46878971	0	0.00	225503	0.48	0.0000	
11550	12050	11800	22000	46878971	0	0.00	225503	0.48	0.0000	
11600	12100	11850	22000	46878971	0	0.00	225503	0.48	0.0000	
11650	12150	11900	22000	46878971	0	0.00	225503	0.48	0.0000	
11700	12200	11950	22000	46878971	0	0.00	225503	0.48	0.0000	
11750	12250	12000	22000	46878971	0	0.00	225503	0.48	0.0000	
11800	12300	12050	22000	46878971	0	0.00	225503	0.48	0.0000	
11850	12350	12100	22000	46878971	0	0.00	225503	0.48	0.0000	
11900	12400	12150	22000	46878971	0	0.00	225503	0.48	0.0000	
11950	12450	12200	22000	46878971	0	0.00	225503	0.48	0.0000	
12000	12500	12250	22000	46878971	0	0.00	225503	0.48	0.0000	
12050	12550	12300	22000	46878971	0	0.00	225503	0.48	0.0000	
12100	12600	12350	22000	46878971	27	0.12	225476	0.48	0.2552	
12150	12650	12400	22000	46878971	77	0.35	225426	0.48	0.7279	
12200	12700	12450	22000	46878971	127	0.58	225376	0.48	1.2007	
12250	12750	12500	22000	46878971	177	0.80	225326	0.48	1.6739	
12300	12800	12550	22000	46878971	227	1.03	225276	0.48	2.1472	
12350	12850	12600	22000	46878971	251	1.14	225252	0.48	2.3744	
12400	12900	12650	22000	46878971	251	1.14	225252	0.48	2.3744	
12450	12950	12700	22000	46878971	251	1.14	225252	0.48	2.3744	
12500	13000	12750	22000	46878971	251	1.14	225252	0.48	2.3744	
12550	13050	12800	22000	46878971	251	1.14	225252	0.48	2.3744	
12600	13100	12850	22000	46878971	224	1.02	225279	0.48	2.1188	
12650	13150	12900	22000	46878971	174	0.79	225329	0.48	1.6455	
12700	13200	12950	22000	46878971	124	0.56	225379	0.48	1.1724	
12750	13250	13000	22000	46878971	74	0.34	225429	0.48	0.6995	
12800	13300	13050	22000	46878971	24	0.11	225479	0.48	0.2268	
12850	13350	13100	22000	46878971	0	0.00	225503	0.48	0.0000	
12900	13400	13150	22000	46878971	0	0.00	225503	0.48	0.0000	
12950	13450	13200	22000	46878971	0	0.00	225503	0.48	0.0000	
13000	13500	13250	22000	46878971	0	0.00	225503	0.48	0.0000	
13050	13550	13300	22000	46878971	0	0.00	225503	0.48	0.0000	
13100	13600	13350	22000	46878971	0	0.00	225503	0.48	0.0000	
13150	13650	13400	22000	46878971	0	0.00	225503	0.48	0.0000	
13200	13700	13450	22000	46878971	0	0.00	225503	0.48	0.0000	
13250	13750	13500	22000	46878971	0	0.00	225503	0.48	0.0000	
13300	13800	13550	22000	46878971	0	0.00	225503	0.48	0.0000	
13350	13850	13600	22000	46878971	0	0.00	225503	0.48	0.0000	
13400	13900	13650	22000	46878971	0	0.00	225503	0.48	0.0000	
13450	13950	13700	22000	46878971	0	0.00	225503	0.48	0.0000	
13500	14000	13750	22000	46878971	0	0.00	225503	0.48	0.0000	
13550	14050	13800	22000	46878971	0	0.00	225503	0.48	0.0000	
13600	14100	13850	22000	46878971	0	0.00	225503	0.48	0.0000	
13650	14150	13900	22000	46878971	0	0.00	225503	0.48	0.0000	
13700	14200	13950	22000	46878971	0	0.00	225503	0.48	0.0000	
13750	14250	14000	22000	46878971	0	0.00	225503	0.48	0.0000	
13800	14300	14050	22000	46878971	0	0.00	225503	0.48	0.0000	
13850	14350	14100	22000	46878971	0	0.00	225503	0.48	0.0000	
13900	14400	14150	22000	46878971	0	0.00	225503	0.48	0.0000	
13950	14450	14200	22000	46878971	0	0.00	225503	0.48	0.0000	
14000	14500	14250	22000	46878971	0	0.00	225503	0.48	0.0000	
14050	14550	14300	22000	46878971	0	0.00	225503	0.48	0.0000	
14100	14600	14350	22000	46878971	0	0.00	225503	0.48	0.0000	
14150	14650	14400	22000	46878971	0	0.00	225503	0.48	0.0000	
14200	14700	14450	22000	46878971	0	0.00	225503	0.48	0.0000	
14250	14750	14500	22000	46878971	0	0.00	225503	0.48	0.0000	
14300	14800	14550	22000	46878971	14	0.06	225489	0.48	0.1323	
14350	14850	14600	22000	46878971	64	0.29	225439	0.48	0.6049	
14400	14900	14650	22000	46878971	114	0.52	225389	0.48	1.0778	
14450	14950	14700	22000	46878971	164	0.75	225339	0.48	1.5508	
14500	15000	14750	22000	46878971	214	0.97	225289	0.48	2.0241	
14550	15050	14800	22000	46878971	264	1.20	225239	0.48	2.4976	
14600	15100	14850	22000	46878971	314	1.43	225189	0.48	2.9712	
14650	15150	14900	22000	46878971	364	1.65	225139	0.48	3.4451	
14700	15200	14950	22000	46878971	414	1.88	225089	0.48	3.9192	
14750	15250	15000	22000	46878971	464	2.11	225039	0.48	4.3936	
14800	15300	15050	22000	46878971	500	2.27	225003	0.48	4.7352	
14850	15350	15100	22000	46878971	500	2.27	225003	0.48	4.7352	
14900	15400	15150	22000	46878971	535	2.43	224968	0.48	5.0674	
14950	15450	15200	22000	46878971	585	2.66	224918	0.48	5.5423	
15000	15500	15250	22000	46878971	605	2.75	224898	0.48	5.7323	
15050	15550	15300	22000	46878971	605	2.75	224898	0.48	5.7323	
15100	15600	15350	22000	46878971	605	2.75	224898	0.48	5.7323	
15150	15650	15400	22000	46878971	578	2.63	224925	0.48	5.4758	
15200	15700	15450	22000	46878971	528	2.40	224975	0.48	5.0010	
15250	15750	15500	22000	46878971	478	2.17	225025	0.48	4.5264	
15300	15800	15550	22000	46878971	428	1.95	225075	0.48	4.0520	
15350	15850	15600	22000	46878971	378	1.72	225125	0.48	3.5779	
15400	15900	15650	22000	46878971	293	1.33	225210	0.48	2.7723	
15450	15950	15700	22000	46878971	193	0.88	225310	0.48	1.8253	
15500	16000	15750	22000	46878971	123	0.56	225380	0.48	1.1629	
15550	16050	15800	22000	46878971	73	0.33	225430	0.48	0.6900	
15600	16100	15850	22000	46878971	23	0.10	225480	0.48	0.2174	
15650	16150	15900	22000	46878971	0	0.00	225503	0.48	0.0000	
15700	16200	15950	22000	46878971	0	0.00	225503	0.48	0.0000	
15750	16250	16000	22000	46878971	0	0.00	225503	0.48	0.0000	
15800	16300	16050	22000	46878971	0	0.00	225503	0.48	0.0000	
15850	16350	16100	22000	46878971	0	0.00	225503	0.48	0.0000	
15900	16400	16150	22000	46878971	0	0.00	225503	0.48	0.0000	
15950	16450	16200	22000	46878971	0	0.00	225503	0.48	0.0000	
16000	16500	16250	22000	46878971	0	0.00	225503	0.48	0.0000	
16050	16550	16300	22000	46878971	0	0.00	225503	0.48	0.0000	
16100	16600	16350	22000	46878971	0	0.00	225503	0.48	0.0000	
16150	16650	16400	22000	46878971	0	0.00	225503	0.48	0.0000	
16200	16700	16450	22000	46878971	0	0.00	225503	0.48	0.0000	
16250	16750	16500	22000	46878971	0	0.00	225503	0.48	0.0000	
16300	16800	16550	22000	46878971	0	0.00	225503	0.48	0.0000	
16350	16850	16600	22000	46878971	0	0.00	225503	0.48	0.0000	
16400	16900	16650	22000	46878971	0	0.00	225503	0.48	0.0000	
16450	16950	16700	22000	46878971	0	0.00	225503	0.48	0.0000	
16500	17000	16750	22000	46878971	0	0.00	225503	0.48	0.0000	
16550	17050	16800	22000	46878971	0	0.00	225503	0.48	0.0000	
16600	17100	16850	22000	46878971	0	0.00	225503	0.48	0.0000	
16650	17150	16900	22000	46878971	0	0.00	225503	0.48	0.0000	
16700	17200	16950	22000	46878971	0	0.00	225503	0.48	0.0000	
16750	17250	17000	22000	46878971	0	0.00	225503	0.48	0.0000	
16800	17300	17050	21940	46879031	0	0.00	225503	0.48	0.0000	
16850	17350	17100	21840	46879131	0	0.00	225503	0.48	0.0000	
16900	17400	17150	21740	46879231	0	0.00	225503	0.48	0.0000	
16950	17450	17200	21640	46879331	0	0.00	225503	0.48	0.0000	
17000	17500	17250	21540	46879431	0	0.00	225503	0.48	0.0000	
17050	17550	17300	21560	46879411	0	0.00	225503	0.48	0.0000	
17100	17600	17350	21660	46879311	0	0.00	225503	0.48	0.0000	
17150	17650	17400	21760	46879211	0	0.00	225503	0.48	0.0000	
17200	17700	17450	21860	46879111	0	0.00	225503	0.48	0.0000	
17250	17750	17500	21960	46879011	0	0.00	225503	0.48	0.0000	
17300	17800	17550	22000	46878971	0	0.00	225503	0.48	0.0000	
17350	17850	17600	22000	46878971	0	0.00	225503	0.48	0.0000	
17400	17900	17650	22000	46878971	0	0.00	225503	0.48	0.0000	
17450	17950	17700	22000	46878971	0	0.00	225503	0.48	0.0000	
17500	18000	17750	22000	46878971	0	0.00	225503	0.48	0.0000	
17550	18050	17800	22000	46878971	0	0.00	225503	0.48	0.0000	
17600	18100	17850	22000	46878971	0	0.00	225503	0.48	0.0000	
17650	18150	17900	22000	46878971	0	0.00	225503	0.48	0.0000	
17700	18200	17950	22000	46878971	0	0.00	225503	0.48	0.0000	
17750	18250	18000	22000	46878971	0	0.00	225503	0.48	0.0000	
17800	18300	18050	22000	46878971	0	0.00	225503	0.48	0.0000	
17850	18350	18100	22000	46878971	0	0.00	225503	0.48	0.0000	
17900	18400	18150	22000	46878971	0	0.00	225503	0.48	0.0000	
17950	18450	18200	22000	46878971	0	0.00	225503	0.48	0.0000	
18000	18500	18250	22000	46878971	0	0.00	225503	0.48	0.0000	
18050	18550	18300	22000	46878971	0	0.00	225503	0.48	0.0000	
18100	18600	18350	22000	46878971	0	0.00	225503	0.48	0.0000	
18150	18650	18400	22000	46878971	0	0.00	225503	0.48	0.0000	
18200	18700	18450	22000	46878971	0	0.00	225503	0.48	0.0000	
18250	18750	18500	22000	46878971	0	0.00	225503	0.48	0.0000	
18300	18800	18550	22000	46878971	0	0.00	225503	0.48	0.0000	
18350	18850	18600	22000	46878971	0	0.00	225503	0.48	0.0000	
18400	18900	18650	22000	46878971	0	0.00	225503	0.48	0.0000	
18450	18950	18700	22000	46878971	0	0.00	225503	0.48	0.0000	
18500	19000	18750	22000	46878971	0	0.00	225503	0.48	0.0000	
18550	19050	18800	22000	46878971	0	0.00	225503	0.48	0.0000	
18600	19100	18850	22000	46878971	0	0.00	225503	0.48	0.0000	
18650	19150	18900	22000	46878971	0	0.00	225503	0.48	0.0000	
18700	19200	18950	22000	46878971	0	0.00	225503	0.48	0.0000	
18750	19250	19000	22000	46878971	0	0.00	225503	0.48	0.0000	
18800	19300	19050	22000	46878971	0	0.00	225503	0.48	0.0000	
18850	19350	19100	22000	46878971	0	0.00	225503	0.48	0.0000	
18900	19400	19150	22000	46878971	0	0.00	225503	0.48	0.0000	
18950	19450	19200	22000	46878971	0	0.00	225503	0.48	0.0000	
19000	19500	19250	22000	46878971	0	0.00	225503	0.48	0.0000	
19050	19550	19300	21955	46879016	0	0.00	225503	0.48	0.0000	
19100	19600	19350	21855	46879116	0	0.00	225503	0.48	0.0000	
19150	19650	19400	21755	46879216	0	0.00	225503	0.48	0.0000	
19200	19700	19450	21655	46879316	0	0.00	225503	0.48	0.0000	
19250	19750	19500	21555	46879416	0	0.00	225503	0.48	0.0000	
19300	19800	19550	21545	46879426	0	0.00	225503	0.48	0.0000	
19350	19850	19600	21645	46879326	0	0.00	225503	0.48	0.0000	
19400	19900	19650	21745	46879226	0	0.00	225503	0.48	0.0000	
19450	19950	19700	21845	46879126	0	0.00	225503	0.48	0.0000	
19500	20000	19750	21945	46879026	0	0.00	225503	0.48	0.0000	
19550	20050	19800	22000	46878971	0	0.00	225503	0.48	0.0000	
19600	20100	19850	22000	46878971	0	0.00	225503	0.48	0.0000	
19650	20150	19900	22000	46878971	0	0.00	225503	0.48	0.0000	
19700	20200	19950	22000	46878971	0	0.00	225503	0.48	0.0000	
19750	20250	20000	22000	46878971	0	0.00	225503	0.48	0.0000	
19800	20300	20050	22000	46878971	0	0.00	225503	0.48	0.0000	
19850	20350	20100	22000	46878971	0	0.00	225503	0.48	0.0000	
19900	20400	20150	22000	46878971	0	0.00	225503	0.48	0.0000	
19950	20450	20200	22000	46878971	0	0.00	225503	0.48	0.0000	
20000	20500	20250	22000	46878971	0	0.00	225503	0.48	0.0000	
20050	20550	20300	22000	46878971	0	0.00	225503	0.48	0.0000	
20100	20600	20350	22000	46878971	0	0.00	225503	0.48	0.0000	
20150	20650	20400	22000	46878971	0	0.00	225503	0.48	0.0000	
20200	20700	20450	22000	46878971	0	0.00	225503	0.48	0.0000	
20250	20750	20500	22000	46878971	0	0.00	225503	0.48	0.0000	
20300	20800	20550	22000	46878971	0	0.00	225503	0.48	0.0000	
20350	20850	20600	22000	46878971	0	0.00	225503	0.48	0.0000	
20400	20900	20650	22000	46878971	0	0.00	225503	0.48	0.0000	
20450	20950	20700	22000	46878971	0	0.00	225503	0.48	0.0000	
20500	21000	20750	22000	46878971	0	0.00	225503	0.48	0.0000	
20550	21050	20800	22000	46878971	0	0.00	225503	0.48	0.0000	
20600	21100	20850	22000	46878971	0	0.00	225503	0.48	0.0000	
20650	21150	20900	22000	46878971	0	0.00	225503	0.48	0.0000	
20700	21200	20950	22000	46878971	0	0.00	225503	0.48	0.0000	
20750	21250	21000	22000	46878971	0	0.00	225503	0.48	0.0000	
20800	21300	21050	22000	46878971	0	0.00	225503	0.48	0.0000	
20850	21350	21100	22000	46878971	0	0.00	225503	0.48	0.0000	
20900	21400	21150	22000	46878971	0	0.00	225503	0.48	0.0000	
20950	21450	21200	22000	46878971	0	0.00	225503	0.48	0.0000	
21000	21500	21250	22000	46878971	0	0.00	225503	0.48	0.0000	
21050	21550	21300	21986	46878985	0	0.00	225503	0.48	0.0000	
21100	21600	21350	21886	46879085	0	0.00	225503	0.48	0.0000	
21150	21650	21400	21786	46879185	0	0.00	225503	0.48	0.0000	
21200	21700	21450	21686	46879285	0	0.00	225503	0.48	0.0000	
21250	21750	21500	21586	46879385	0	0.00	225503	0.48	0.0000	
21300	21800	21550	21514	46879457	0	0.00	225503	0.48	0.0000	
21350	21850	21600	21614	46879357	0	0.00	225503	0.48	0.0000	
21400	21900	21650	21714	46879257	32	0.15	225471	0.48	0.3064	
21450	21950	21700	21814	46879157	82	0.38	225421	0.48	0.7817	
21500	22000	21750	21875	46879096	132	0.60	225371	0.48	1.2552	
21550	22050	21800	21861	46879110	182	0.83	225321	0.48	1.7321	
21600	22100	21850	21761	46879210	232	1.07	225271	0.48	2.2186	
21650	22150	21900	21661	46879310	282	1.30	225221	0.48	2.7098	
21700	22200	21950	21561	46879410	332	1.54	225171	0.48	3.2058	
21750	22250	22000	21539	46879432	382	1.77	225121	0.48	3.6932	
21800	22300	22050	21639	46879332	395	1.83	225108	0.48	3.8015	
21850	22350	22100	21739	46879232	395	1.82	225108	0.48	3.7840	
21900	22400	22150	21839	46879132	363	1.66	225140	0.48	3.4610	
21950	22450	22200	21939	46879032	313	1.43	225190	0.48	2.9700	
22000	22500	22250	22000	46878971	263	1.20	225240	0.48	2.4881	
22050	22550	22300	22000	46878971	213	0.97	225290	0.48	2.0146	
22100	22600	22350	22000	46878971	163	0.74	225340	0.48	1.5414	
22150	22650	22400	21924	46879047	113	0.52	225390	0.48	1.0720	
22200	22700	22450	21824	46879147	63	0.29	225440	0.48	0.6003	
22250	22750	22500	21724	46879247	13	0.06	225490	0.48	0.1244	
22300	22800	22550	21624	46879347	0	0.00	225503	0.48	0.0000	
22350	22850	22600	21524	46879447	0	0.00	225503	0.48	0.0000	
22400	22900	22650	21576	46879395	0	0.00	225503	0.48	0.0000	
22450	22950	22700	21676	46879295	0	0.00	225503	0.48	0.0000	
22500	23000	22750	21776	46879195	0	0.00	225503	0.48	0.0000	
22550	23050	22800	21876	46879095	0	0.00	225503	0.48	0.0000	
22600	23100	22850	21976	46878995	0	0.00	225503	0.48	0.0000	
22650	23150	22900	22000	46878971	0	0.00	225503	0.48	0.0000	
22700	23200	22950	22000	46878971	0	0.00	225503	0.48	0.0000	
22750	23250	23000	22000	46878971	0	0.00	225503	0.48	0.0000	
22800	23300	23050	22000	46878971	0	0.00	225503	0.48	0.0000	
22850	23350	23100	22000	46878971	2	0.01	225501	0.48	0.0189	
22900	23400	23150	22000	46878971	52	0.24	225451	0.48	0.4915	
22950	23450	23200	22000	46878971	102	0.46	225401	0.48	0.9643	
23000	23500	23250	22000	46878971	152	0.69	225351	0.48	1.4373	
23050	23550	23300	22000	46878971	202	0.92	225301	0.48	1.9105	
23100	23600	23350	22000	46878971	252	1.15	225251	0.48	2.3839	
23150	23650	23400	22000	46878971	302	1.37	225201	0.48	2.8575	
23200	23700	23450	22000	46878971	352	1.60	225151	0.48	3.3314	
23250	23750	23500	22000	46878971	402	1.83	225101	0.48	3.8054	
23300	23800	23550	22000	46878971	452	2.05	225051	0.48	4.2797	
23350	23850	23600	22000	46878971	500	2.27	225003	0.48	4.7352	
23400	23900	23650	22000	46878971	500	2.27	225003	0.48	4.7352	
23450	23950	23700	21901	46879070	500	2.28	225003	0.48	4.7566	
23500	24000	23750	21801	46879170	500	2.29	225003	0.48	4.7784	
23550	24050	23800	21701	46879270	500	2.30	225003	0.48	4.8005	
23600	24100	23850	21601	46879370	500	2.31	225003	0.48	4.8227	
23650	24150	23900	21501	46879470	500	2.33	225003	0.48	4.8451	
23700	24200	23950	21599	46879372	500	2.31	225003	0.48	4.8231	
23750	24250	24000	21699	46879272	500	2.30	225003	0.48	4.8009	
23800	24300	24050	21799	46879172	519	2.38	224984	0.48	4.9609	
23850	24350	24100	21899	46879072	519	2.37	224984	0.48	4.9382	
23900	24400	24150	21999	46878972	519	2.36	224984	0.48	4.9158	
23950	24450	24200	22000	46878971	519	2.36	224984	0.48	4.9155	
24000	24500	24250	22000	46878971	519	2.36	224984	0.48	4.9155	
24050	24550	24300	22000	46878971	519	2.36	224984	0.48	4.9155	
24100	24600	24350	22000	46878971	501	2.28	225002	0.48	4.7447	
24150	24650	24400	22000	46878971	451	2.05	225052	0.48	4.2702	
24200	24700	24450	22000	46878971	401	1.82	225102	0.48	3.7959	
24250	24750	24500	22000	46878971	351	1.60	225152	0.48	3.3219	
24300	24800	24550	22000	46878971	282	1.28	225221	0.48	2.6681	
24350	24850	24600	22000	46878971	232	1.05	225271	0.48	2.1945	
24400	24900	24650	22000	46878971	182	0.83	225321	0.48	1.7212	
24450	24950	24700	22000	46878971	132	0.60	225371	0.48	1.2480	
24500	25000	24750	22000	46878971	82	0.37	225421	0.48	0.7751	
