Start	End	Midpoint	Breakpoint_bp	Non_breakpoint_bp	Feature_bp_inside	%Inside	Feature_bp_outside	%Outside	Ratio
-25000	-24500	-24750	21000	46879027	1000	4.76	2399450	5.12	0.9304	
-24950	-24450	-24700	21000	46879027	1000	4.76	2399450	5.12	0.9304	
-24900	-24400	-24650	21000	46879027	962	4.58	2399488	5.12	0.8950	
-24850	-24350	-24600	21000	46879027	912	4.34	2399538	5.12	0.8485	
-24800	-24300	-24550	21000	46879027	862	4.10	2399588	5.12	0.8019	
-24750	-24250	-24500	21000	46879027	812	3.87	2399638	5.12	0.7554	
-24700	-24200	-24450	21000	46879027	762	3.63	2399688	5.12	0.7089	
-24650	-24150	-24400	21000	46879027	712	3.39	2399738	5.12	0.6623	
-24600	-24100	-24350	21000	46879027	662	3.15	2399788	5.12	0.6158	
-24550	-24050	-24300	21000	46879027	612	2.91	2399838	5.12	0.5693	
-24500	-24000	-24250	21000	46879027	562	2.68	2399888	5.12	0.5228	
-24450	-23950	-24200	21000	46879027	512	2.44	2399938	5.12	0.4762	
-24400	-23900	-24150	21000	46879027	500	2.38	2399950	5.12	0.4651	
-24350	-23850	-24100	21000	46879027	500	2.38	2399950	5.12	0.4651	
-24300	-23800	-24050	21000	46879027	500	2.38	2399950	5.12	0.4651	
-24250	-23750	-24000	21000	46879027	505	2.40	2399945	5.12	0.4697	
-24200	-23700	-23950	21000	46879027	572	2.72	2399878	5.12	0.5321	
-24150	-23650	-23900	21000	46879027	672	3.20	2399778	5.12	0.6251	
-24100	-23600	-23850	21000	46879027	805	3.83	2399645	5.12	0.7489	
-24050	-23550	-23800	21000	46879027	955	4.55	2399495	5.12	0.8885	
-24000	-23500	-23750	21000	46879027	1105	5.26	2399345	5.12	1.0281	
-23950	-23450	-23700	21000	46879027	1255	5.98	2399195	5.12	1.1677	
-23900	-23400	-23650	21000	46879027	1405	6.69	2399045	5.12	1.3074	
-23850	-23350	-23600	21000	46879027	1555	7.40	2398895	5.12	1.4470	
-23800	-23300	-23550	21000	46879027	1705	8.12	2398745	5.12	1.5867	
-23750	-23250	-23500	21000	46879027	1812	8.63	2398638	5.12	1.6864	
-23700	-23200	-23450	21000	46879027	1845	8.79	2398605	5.12	1.7171	
-23650	-23150	-23400	21000	46879027	1845	8.79	2398605	5.12	1.7171	
-23600	-23100	-23350	21000	46879027	1812	8.63	2398638	5.12	1.6864	
-23550	-23050	-23300	21000	46879027	1762	8.39	2398688	5.12	1.6398	
-23500	-23000	-23250	21000	46879027	1712	8.15	2398738	5.12	1.5932	
-23450	-22950	-23200	21000	46879027	1692	8.06	2398758	5.12	1.5746	
-23400	-22900	-23150	21000	46879027	1692	8.06	2398758	5.12	1.5746	
-23350	-22850	-23100	21000	46879027	1692	8.06	2398758	5.12	1.5746	
-23300	-22800	-23050	21000	46879027	1692	8.06	2398758	5.12	1.5746	
-23250	-22750	-23000	21000	46879027	1730	8.24	2398720	5.12	1.6100	
-23200	-22700	-22950	21000	46879027	1780	8.48	2398670	5.12	1.6566	
-23150	-22650	-22900	21000	46879027	1830	8.71	2398620	5.12	1.7031	
-23100	-22600	-22850	21000	46879027	1880	8.95	2398570	5.12	1.7497	
-23050	-22550	-22800	21000	46879027	1930	9.19	2398520	5.12	1.7963	
-23000	-22500	-22750	21000	46879027	1980	9.43	2398470	5.12	1.8429	
-22950	-22450	-22700	21000	46879027	2000	9.52	2398450	5.12	1.8615	
-22900	-22400	-22650	21000	46879027	2000	9.52	2398450	5.12	1.8615	
-22850	-22350	-22600	21000	46879027	2000	9.52	2398450	5.12	1.8615	
-22800	-22300	-22550	21000	46879027	2000	9.52	2398450	5.12	1.8615	
-22750	-22250	-22500	21000	46879027	2000	9.52	2398450	5.12	1.8615	
-22700	-22200	-22450	21000	46879027	2000	9.52	2398450	5.12	1.8615	
-22650	-22150	-22400	21000	46879027	2000	9.52	2398450	5.12	1.8615	
-22600	-22100	-22350	21000	46879027	2000	9.52	2398450	5.12	1.8615	
-22550	-22050	-22300	21000	46879027	2000	9.52	2398450	5.12	1.8615	
-22500	-22000	-22250	21000	46879027	2000	9.52	2398450	5.12	1.8615	
-22450	-21950	-22200	21000	46879027	2000	9.52	2398450	5.12	1.8615	
-22400	-21900	-22150	21000	46879027	2000	9.52	2398450	5.12	1.8615	
-22350	-21850	-22100	21000	46879027	2000	9.52	2398450	5.12	1.8615	
-22300	-21800	-22050	21000	46879027	2000	9.52	2398450	5.12	1.8615	
-22250	-21750	-22000	21000	46879027	2000	9.52	2398450	5.12	1.8615	
-22200	-21700	-21950	21000	46879027	2000	9.52	2398450	5.12	1.8615	
-22150	-21650	-21900	21000	46879027	2000	9.52	2398450	5.12	1.8615	
-22100	-21600	-21850	21000	46879027	2000	9.52	2398450	5.12	1.8615	
-22050	-21550	-21800	21000	46879027	2000	9.52	2398450	5.12	1.8615	
-22000	-21500	-21750	21000	46879027	1967	9.37	2398483	5.12	1.8307	
-21950	-21450	-21700	21000	46879027	1917	9.13	2398533	5.12	1.7842	
-21900	-21400	-21650	21000	46879027	1867	8.89	2398583	5.12	1.7376	
-21850	-21350	-21600	21000	46879027	1827	8.70	2398623	5.12	1.7003	
-21800	-21300	-21550	21000	46879027	1827	8.70	2398623	5.12	1.7003	
-21750	-21250	-21500	21000	46879027	1827	8.70	2398623	5.12	1.7003	
-21700	-21200	-21450	21000	46879027	1827	8.70	2398623	5.12	1.7003	
-21650	-21150	-21400	21000	46879027	1827	8.70	2398623	5.12	1.7003	
-21600	-21100	-21350	21000	46879027	1827	8.70	2398623	5.12	1.7003	
-21550	-21050	-21300	21000	46879027	1827	8.70	2398623	5.12	1.7003	
-21500	-21000	-21250	21000	46879027	1860	8.86	2398590	5.12	1.7311	
-21450	-20950	-21200	21000	46879027	1910	9.10	2398540	5.12	1.7776	
-21400	-20900	-21150	21000	46879027	1960	9.33	2398490	5.12	1.8242	
-21350	-20850	-21100	21000	46879027	1953	9.30	2398497	5.12	1.8177	
-21300	-20800	-21050	21000	46879027	1853	8.82	2398597	5.12	1.7246	
-21250	-20750	-21000	21000	46879027	1753	8.35	2398697	5.12	1.6314	
-21200	-20700	-20950	21000	46879027	1653	7.87	2398797	5.12	1.5383	
-21150	-20650	-20900	21000	46879027	1553	7.40	2398897	5.12	1.4452	
-21100	-20600	-20850	21000	46879027	1453	6.92	2398997	5.12	1.3521	
-21050	-20550	-20800	21000	46879027	1353	6.44	2399097	5.12	1.2590	
-21000	-20500	-20750	21000	46879027	1253	5.97	2399197	5.12	1.1659	
-20950	-20450	-20700	21000	46879027	1153	5.49	2399297	5.12	1.0728	
-20900	-20400	-20650	21000	46879027	1053	5.01	2399397	5.12	0.9797	
-20850	-20350	-20600	21000	46879027	1000	4.76	2399450	5.12	0.9304	
-20800	-20300	-20550	21000	46879027	990	4.71	2399460	5.12	0.9210	
-20750	-20250	-20500	21000	46879027	940	4.48	2399510	5.12	0.8745	
-20700	-20200	-20450	21000	46879027	890	4.24	2399560	5.12	0.8280	
-20650	-20150	-20400	21000	46879027	840	4.00	2399610	5.12	0.7814	
-20600	-20100	-20350	21000	46879027	828	3.94	2399622	5.12	0.7703	
-20550	-20050	-20300	21000	46879027	828	3.94	2399622	5.12	0.7703	
-20500	-20000	-20250	21000	46879027	828	3.94	2399622	5.12	0.7703	
-20450	-19950	-20200	21000	46879027	828	3.94	2399622	5.12	0.7703	
-20400	-19900	-20150	21000	46879027	828	3.94	2399622	5.12	0.7703	
-20350	-19850	-20100	21000	46879027	828	3.94	2399622	5.12	0.7703	
-20300	-19800	-20050	21000	46879027	838	3.99	2399612	5.12	0.7796	
-20250	-19750	-20000	21000	46879027	888	4.23	2399562	5.12	0.8261	
-20200	-19700	-19950	21000	46879027	938	4.47	2399512	5.12	0.8726	
-20150	-19650	-19900	21000	46879027	1017	4.84	2399433	5.12	0.9462	
-20100	-19600	-19850	21000	46879027	1079	5.14	2399371	5.12	1.0039	
-20050	-19550	-19800	21000	46879027	1124	5.35	2399326	5.12	1.0458	
-20000	-19500	-19750	21000	46879027	1124	5.35	2399326	5.12	1.0458	
-19950	-19450	-19700	21000	46879027	1124	5.35	2399326	5.12	1.0458	
-19900	-19400	-19650	21000	46879027	1124	5.35	2399326	5.12	1.0458	
-19850	-19350	-19600	21000	46879027	1124	5.35	2399326	5.12	1.0458	
-19800	-19300	-19550	21000	46879027	1124	5.35	2399326	5.12	1.0458	
-19750	-19250	-19500	21000	46879027	1124	5.35	2399326	5.12	1.0458	
-19700	-19200	-19450	21000	46879027	1124	5.35	2399326	5.12	1.0458	
-19650	-19150	-19400	21000	46879027	1095	5.21	2399355	5.12	1.0188	
-19600	-19100	-19350	21000	46879027	1045	4.98	2399405	5.12	0.9722	
-19550	-19050	-19300	21000	46879027	1000	4.76	2399450	5.12	0.9304	
-19500	-19000	-19250	21000	46879027	1000	4.76	2399450	5.12	0.9304	
-19450	-18950	-19200	21000	46879027	1000	4.76	2399450	5.12	0.9304	
-19400	-18900	-19150	21000	46879027	1000	4.76	2399450	5.12	0.9304	
-19350	-18850	-19100	21000	46879027	1004	4.78	2399446	5.12	0.9341	
-19300	-18800	-19050	21000	46879027	1054	5.02	2399396	5.12	0.9806	
-19250	-18750	-19000	21000	46879027	1104	5.26	2399346	5.12	1.0272	
-19200	-18700	-18950	21000	46879027	1154	5.50	2399296	5.12	1.0737	
-19150	-18650	-18900	21000	46879027	1204	5.73	2399246	5.12	1.1202	
-19100	-18600	-18850	21000	46879027	1254	5.97	2399196	5.12	1.1668	
-19050	-18550	-18800	21000	46879027	1304	6.21	2399146	5.12	1.2133	
-19000	-18500	-18750	21000	46879027	1354	6.45	2399096	5.12	1.2599	
-18950	-18450	-18700	21000	46879027	1404	6.69	2399046	5.12	1.3064	
-18900	-18400	-18650	21000	46879027	1454	6.92	2398996	5.12	1.3530	
-18850	-18350	-18600	21000	46879027	1500	7.14	2398950	5.12	1.3958	
-18800	-18300	-18550	21000	46879027	1462	6.96	2398988	5.12	1.3604	
-18750	-18250	-18500	21000	46879027	1412	6.72	2399038	5.12	1.3139	
-18700	-18200	-18450	21000	46879027	1362	6.49	2399088	5.12	1.2673	
-18650	-18150	-18400	21000	46879027	1312	6.25	2399138	5.12	1.2208	
-18600	-18100	-18350	21000	46879027	1262	6.01	2399188	5.12	1.1742	
-18550	-18050	-18300	21000	46879027	1212	5.77	2399238	5.12	1.1277	
-18500	-18000	-18250	21000	46879027	1162	5.53	2399288	5.12	1.0811	
-18450	-17950	-18200	21000	46879027	1112	5.30	2399338	5.12	1.0346	
-18400	-17900	-18150	21000	46879027	1062	5.06	2399388	5.12	0.9881	
-18350	-17850	-18100	21000	46879027	1012	4.82	2399438	5.12	0.9415	
-18300	-17800	-18050	21000	46879027	1000	4.76	2399450	5.12	0.9304	
-18250	-17750	-18000	21000	46879027	1000	4.76	2399450	5.12	0.9304	
-18200	-17700	-17950	21000	46879027	1000	4.76	2399450	5.12	0.9304	
-18150	-17650	-17900	21000	46879027	1000	4.76	2399450	5.12	0.9304	
-18100	-17600	-17850	21000	46879027	1000	4.76	2399450	5.12	0.9304	
-18050	-17550	-17800	21000	46879027	1000	4.76	2399450	5.12	0.9304	
-18000	-17500	-17750	21000	46879027	1000	4.76	2399450	5.12	0.9304	
-17950	-17450	-17700	21000	46879027	1000	4.76	2399450	5.12	0.9304	
-17900	-17400	-17650	21000	46879027	1041	4.96	2399409	5.12	0.9685	
-17850	-17350	-17600	21000	46879027	1091	5.20	2399359	5.12	1.0151	
-17800	-17300	-17550	21000	46879027	1141	5.43	2399309	5.12	1.0616	
-17750	-17250	-17500	21000	46879027	1191	5.67	2399259	5.12	1.1081	
-17700	-17200	-17450	21000	46879027	1241	5.91	2399209	5.12	1.1547	
-17650	-17150	-17400	21000	46879027	1291	6.15	2399159	5.12	1.2012	
-17600	-17100	-17350	21000	46879027	1341	6.39	2399109	5.12	1.2478	
-17550	-17050	-17300	21000	46879027	1391	6.62	2399059	5.12	1.2943	
-17500	-17000	-17250	21000	46879027	1441	6.86	2399009	5.12	1.3409	
-17450	-16950	-17200	21000	46879027	1491	7.10	2398959	5.12	1.3874	
-17400	-16900	-17150	21000	46879027	1500	7.14	2398950	5.12	1.3958	
-17350	-16850	-17100	21000	46879027	1510	7.19	2398940	5.12	1.4051	
-17300	-16800	-17050	21000	46879027	1560	7.43	2398890	5.12	1.4517	
-17250	-16750	-17000	21000	46879027	1610	7.67	2398840	5.12	1.4982	
-17200	-16700	-16950	21000	46879027	1660	7.90	2398790	5.12	1.5448	
-17150	-16650	-16900	21000	46879027	1710	8.14	2398740	5.12	1.5914	
-17100	-16600	-16850	21000	46879027	1760	8.38	2398690	5.12	1.6379	
-17050	-16550	-16800	21000	46879027	1845	8.79	2398605	5.12	1.7171	
-17000	-16500	-16750	21000	46879027	1945	9.26	2398505	5.12	1.8102	
-16950	-16450	-16700	21000	46879027	2045	9.74	2398405	5.12	1.9034	
-16900	-16400	-16650	21000	46879027	2135	10.17	2398315	5.12	1.9872	
-16850	-16350	-16600	21000	46879027	2146	10.22	2398304	5.12	1.9975	
-16800	-16300	-16550	21000	46879027	2096	9.98	2398354	5.12	1.9509	
-16750	-16250	-16500	21000	46879027	2046	9.74	2398404	5.12	1.9043	
-16700	-16200	-16450	21000	46879027	2039	9.71	2398411	5.12	1.8978	
-16650	-16150	-16400	21000	46879027	2039	9.71	2398411	5.12	1.8978	
-16600	-16100	-16350	21000	46879027	2039	9.71	2398411	5.12	1.8978	
-16550	-16050	-16300	21000	46879027	2004	9.54	2398446	5.12	1.8652	
-16500	-16000	-16250	21000	46879027	1960	9.33	2398490	5.12	1.8242	
-16450	-15950	-16200	21000	46879027	1960	9.33	2398490	5.12	1.8242	
-16400	-15900	-16150	21000	46879027	1970	9.38	2398480	5.12	1.8335	
-16350	-15850	-16100	21000	46879027	2049	9.76	2398401	5.12	1.9071	
-16300	-15800	-16050	21000	46879027	2154	10.26	2398296	5.12	2.0049	
-16250	-15750	-16000	21000	46879027	2304	10.97	2398146	5.12	2.1447	
-16200	-15700	-15950	21000	46879027	2436	11.60	2398014	5.12	2.2677	
-16150	-15650	-15900	21000	46879027	2551	12.15	2397899	5.12	2.3749	
-16100	-15600	-15850	21000	46879027	2651	12.62	2397799	5.11	2.4681	
-16050	-15550	-15800	21000	46879027	2751	13.10	2397699	5.11	2.5613	
-16000	-15500	-15750	21000	46879027	2845	13.55	2397605	5.11	2.6489	
-15950	-15450	-15700	21000	46879027	2852	13.58	2397598	5.11	2.6554	
-15900	-15400	-15650	21000	46879027	2852	13.58	2397598	5.11	2.6554	
-15850	-15350	-15600	21000	46879027	2847	13.56	2397603	5.11	2.6508	
-15800	-15300	-15550	21000	46879027	2792	13.30	2397658	5.11	2.5995	
-15750	-15250	-15500	21000	46879027	2692	12.82	2397758	5.11	2.5063	
-15700	-15200	-15450	21000	46879027	2567	12.22	2397883	5.12	2.3898	
-15650	-15150	-15400	21000	46879027	2452	11.68	2397998	5.12	2.2826	
-15600	-15100	-15350	21000	46879027	2352	11.20	2398098	5.12	2.1894	
-15550	-15050	-15300	21000	46879027	2252	10.72	2398198	5.12	2.0962	
-15500	-15000	-15250	21000	46879027	2152	10.25	2398298	5.12	2.0031	
-15450	-14950	-15200	21000	46879027	2089	9.95	2398361	5.12	1.9444	
-15400	-14900	-15150	21000	46879027	1989	9.47	2398461	5.12	1.8512	
-15350	-14850	-15100	21000	46879027	1894	9.02	2398556	5.12	1.7627	
-15300	-14800	-15050	21000	46879027	1844	8.78	2398606	5.12	1.7162	
-15250	-14750	-15000	21000	46879027	1794	8.54	2398656	5.12	1.6696	
-15200	-14700	-14950	21000	46879027	1703	8.11	2398747	5.12	1.5849	
-15150	-14650	-14900	21000	46879027	1578	7.51	2398872	5.12	1.4685	
-15100	-14600	-14850	21000	46879027	1428	6.80	2399022	5.12	1.3288	
-15050	-14550	-14800	21000	46879027	1278	6.09	2399172	5.12	1.1891	
-15000	-14500	-14750	21000	46879027	1124	5.35	2399326	5.12	1.0458	
-14950	-14450	-14700	21000	46879027	930	4.43	2399520	5.12	0.8652	
-14900	-14400	-14650	21000	46879027	780	3.71	2399670	5.12	0.7256	
-14850	-14350	-14600	21000	46879027	630	3.00	2399820	5.12	0.5860	
-14800	-14300	-14550	21000	46879027	504	2.40	2399946	5.12	0.4688	
-14750	-14250	-14500	21000	46879027	404	1.92	2400046	5.12	0.3758	
-14700	-14200	-14450	21000	46879027	345	1.64	2400105	5.12	0.3209	
-14650	-14150	-14400	21000	46879027	320	1.52	2400130	5.12	0.2976	
-14600	-14100	-14350	21000	46879027	320	1.52	2400130	5.12	0.2976	
-14550	-14050	-14300	21000	46879027	320	1.52	2400130	5.12	0.2976	
-14500	-14000	-14250	21000	46879027	351	1.67	2400099	5.12	0.3265	
-14450	-13950	-14200	21000	46879027	451	2.15	2399999	5.12	0.4195	
-14400	-13900	-14150	21000	46879027	551	2.62	2399899	5.12	0.5125	
-14350	-13850	-14100	21000	46879027	651	3.10	2399799	5.12	0.6056	
-14300	-13800	-14050	21000	46879027	727	3.46	2399723	5.12	0.6763	
-14250	-13750	-14000	21000	46879027	777	3.70	2399673	5.12	0.7228	
-14200	-13700	-13950	21000	46879027	808	3.85	2399642	5.12	0.7517	
-14150	-13650	-13900	21000	46879027	858	4.09	2399592	5.12	0.7982	
-14100	-13600	-13850	21000	46879027	908	4.32	2399542	5.12	0.8447	
-14050	-13550	-13800	21000	46879027	958	4.56	2399492	5.12	0.8913	
-14000	-13500	-13750	21000	46879027	981	4.67	2399469	5.12	0.9127	
-13950	-13450	-13700	21000	46879027	981	4.67	2399469	5.12	0.9127	
-13900	-13400	-13650	21000	46879027	981	4.67	2399469	5.12	0.9127	
-13850	-13350	-13600	21000	46879027	981	4.67	2399469	5.12	0.9127	
-13800	-13300	-13550	21000	46879027	981	4.67	2399469	5.12	0.9127	
-13750	-13250	-13500	21000	46879027	981	4.67	2399469	5.12	0.9127	
-13700	-13200	-13450	21000	46879027	1000	4.76	2399450	5.12	0.9304	
-13650	-13150	-13400	21000	46879027	1000	4.76	2399450	5.12	0.9304	
-13600	-13100	-13350	21000	46879027	1000	4.76	2399450	5.12	0.9304	
-13550	-13050	-13300	21000	46879027	1000	4.76	2399450	5.12	0.9304	
-13500	-13000	-13250	21000	46879027	1000	4.76	2399450	5.12	0.9304	
-13450	-12950	-13200	21000	46879027	992	4.72	2399458	5.12	0.9229	
-13400	-12900	-13150	21000	46879027	942	4.49	2399508	5.12	0.8764	
-13350	-12850	-13100	21000	46879027	892	4.25	2399558	5.12	0.8298	
-13300	-12800	-13050	21000	46879027	842	4.01	2399608	5.12	0.7833	
-13250	-12750	-13000	21000	46879027	830	3.95	2399620	5.12	0.7721	
-13200	-12700	-12950	21000	46879027	830	3.95	2399620	5.12	0.7721	
-13150	-12650	-12900	21000	46879027	830	3.95	2399620	5.12	0.7721	
-13100	-12600	-12850	21000	46879027	830	3.95	2399620	5.12	0.7721	
-13050	-12550	-12800	21000	46879027	830	3.95	2399620	5.12	0.7721	
-13000	-12500	-12750	21000	46879027	830	3.95	2399620	5.12	0.7721	
-12950	-12450	-12700	21000	46879027	932	4.44	2399518	5.12	0.8671	
-12900	-12400	-12650	21000	46879027	1082	5.15	2399368	5.12	1.0067	
-12850	-12350	-12600	21000	46879027	1232	5.87	2399218	5.12	1.1463	
-12800	-12300	-12550	21000	46879027	1382	6.58	2399068	5.12	1.2860	
-12750	-12250	-12500	21000	46879027	1494	7.11	2398956	5.12	1.3902	
-12700	-12200	-12450	21000	46879027	1594	7.59	2398856	5.12	1.4833	
-12650	-12150	-12400	21000	46879027	1694	8.07	2398756	5.12	1.5765	
-12600	-12100	-12350	21000	46879027	1794	8.54	2398656	5.12	1.6696	
-12550	-12050	-12300	21000	46879027	1894	9.02	2398556	5.12	1.7627	
-12500	-12000	-12250	21000	46879027	1994	9.50	2398456	5.12	1.8559	
-12450	-11950	-12200	21000	46879027	2004	9.54	2398446	5.12	1.8652	
-12400	-11900	-12150	21000	46879027	2054	9.78	2398396	5.12	1.9118	
-12350	-11850	-12100	21000	46879027	2133	10.16	2398317	5.12	1.9854	
-12300	-11800	-12050	21000	46879027	2233	10.63	2398217	5.12	2.0785	
-12250	-11750	-12000	21000	46879027	2333	11.11	2398117	5.12	2.1717	
-12200	-11700	-11950	21000	46879027	2384	11.35	2398066	5.12	2.2192	
-12150	-11650	-11900	21000	46879027	2434	11.59	2398016	5.12	2.2658	
-12100	-11600	-11850	21000	46879027	2460	11.71	2397990	5.12	2.2901	
-12050	-11550	-11800	21000	46879027	2460	11.71	2397990	5.12	2.2901	
-12000	-11500	-11750	21000	46879027	2460	11.71	2397990	5.12	2.2901	
-11950	-11450	-11700	21000	46879027	2456	11.70	2397994	5.12	2.2863	
-11900	-11400	-11650	21000	46879027	2361	11.24	2398089	5.12	2.1978	
-11850	-11350	-11600	21000	46879027	2232	10.63	2398218	5.12	2.0776	
-11800	-11300	-11550	21000	46879027	2082	9.91	2398368	5.12	1.9379	
-11750	-11250	-11500	21000	46879027	1894	9.02	2398556	5.12	1.7627	
-11700	-11200	-11450	21000	46879027	1743	8.30	2398707	5.12	1.6221	
-11650	-11150	-11400	21000	46879027	1593	7.59	2398857	5.12	1.4824	
-11600	-11100	-11350	21000	46879027	1484	7.07	2398966	5.12	1.3809	
-11550	-11050	-11300	21000	46879027	1434	6.83	2399016	5.12	1.3344	
-11500	-11000	-11250	21000	46879027	1384	6.59	2399066	5.12	1.2878	
-11450	-10950	-11200	21000	46879027	1334	6.35	2399116	5.12	1.2413	
-11400	-10900	-11150	21000	46879027	1329	6.33	2399121	5.12	1.2366	
-11350	-10850	-11100	21000	46879027	1329	6.33	2399121	5.12	1.2366	
-11300	-10800	-11050	21000	46879027	1329	6.33	2399121	5.12	1.2366	
-11250	-10750	-11000	21000	46879027	1367	6.51	2399083	5.12	1.2720	
-11200	-10700	-10950	21000	46879027	1417	6.75	2399033	5.12	1.3185	
-11150	-10650	-10900	21000	46879027	1450	6.90	2399000	5.12	1.3493	
-11100	-10600	-10850	21000	46879027	1433	6.82	2399017	5.12	1.3334	
-11050	-10550	-10800	21000	46879027	1383	6.59	2399067	5.12	1.2869	
-11000	-10500	-10750	21000	46879027	1333	6.35	2399117	5.12	1.2403	
-10950	-10450	-10700	21000	46879027	1283	6.11	2399167	5.12	1.1938	
-10900	-10400	-10650	21000	46879027	1233	5.87	2399217	5.12	1.1472	
-10850	-10350	-10600	21000	46879027	1183	5.63	2399267	5.12	1.1007	
-10800	-10300	-10550	21000	46879027	1133	5.40	2399317	5.12	1.0541	
-10750	-10250	-10500	21000	46879027	1083	5.16	2399367	5.12	1.0076	
-10700	-10200	-10450	21000	46879027	1033	4.92	2399417	5.12	0.9611	
-10650	-10150	-10400	21000	46879027	1000	4.76	2399450	5.12	0.9304	
-10600	-10100	-10350	21000	46879027	1000	4.76	2399450	5.12	0.9304	
-10550	-10050	-10300	21000	46879027	1000	4.76	2399450	5.12	0.9304	
-10500	-10000	-10250	21000	46879027	1000	4.76	2399450	5.12	0.9304	
-10450	-9950	-10200	21000	46879027	1000	4.76	2399450	5.12	0.9304	
-10400	-9900	-10150	21000	46879027	1000	4.76	2399450	5.12	0.9304	
-10350	-9850	-10100	21000	46879027	1000	4.76	2399450	5.12	0.9304	
-10300	-9800	-10050	21000	46879027	1000	4.76	2399450	5.12	0.9304	
-10250	-9750	-10000	21000	46879027	1000	4.76	2399450	5.12	0.9304	
-10200	-9700	-9950	21000	46879027	1000	4.76	2399450	5.12	0.9304	
-10150	-9650	-9900	21000	46879027	1025	4.88	2399425	5.12	0.9536	
-10100	-9600	-9850	21000	46879027	1075	5.12	2399375	5.12	1.0002	
-10050	-9550	-9800	21000	46879027	1125	5.36	2399325	5.12	1.0467	
-10000	-9500	-9750	21000	46879027	1175	5.60	2399275	5.12	1.0932	
-9950	-9450	-9700	21000	46879027	1225	5.83	2399225	5.12	1.1398	
-9900	-9400	-9650	21000	46879027	1275	6.07	2399175	5.12	1.1863	
-9850	-9350	-9600	21000	46879027	1325	6.31	2399125	5.12	1.2329	
-9800	-9300	-9550	21000	46879027	1346	6.41	2399104	5.12	1.2524	
-9750	-9250	-9500	21000	46879027	1342	6.39	2399108	5.12	1.2487	
-9700	-9200	-9450	21000	46879027	1292	6.15	2399158	5.12	1.2022	
-9650	-9150	-9400	21000	46879027	1217	5.80	2399233	5.12	1.1323	
-9600	-9100	-9350	21000	46879027	1117	5.32	2399333	5.12	1.0393	
-9550	-9050	-9300	21000	46879027	1017	4.84	2399433	5.12	0.9462	
-9500	-9000	-9250	21000	46879027	928	4.42	2399522	5.12	0.8633	
-9450	-8950	-9200	21000	46879027	878	4.18	2399572	5.12	0.8168	
-9400	-8900	-9150	21000	46879027	803	3.82	2399647	5.12	0.7470	
-9350	-8850	-9100	21000	46879027	703	3.35	2399747	5.12	0.6540	
-9300	-8800	-9050	21000	46879027	632	3.01	2399818	5.12	0.5879	
-9250	-8750	-9000	21000	46879027	586	2.79	2399864	5.12	0.5451	
-9200	-8700	-8950	21000	46879027	586	2.79	2399864	5.12	0.5451	
-9150	-8650	-8900	21000	46879027	586	2.79	2399864	5.12	0.5451	
-9100	-8600	-8850	21000	46879027	586	2.79	2399864	5.12	0.5451	
-9050	-8550	-8800	21000	46879027	586	2.79	2399864	5.12	0.5451	
-9000	-8500	-8750	21000	46879027	575	2.74	2399875	5.12	0.5349	
-8950	-8450	-8700	21000	46879027	525	2.50	2399925	5.12	0.4883	
-8900	-8400	-8650	21000	46879027	500	2.38	2399950	5.12	0.4651	
-8850	-8350	-8600	21000	46879027	506	2.41	2399944	5.12	0.4707	
-8800	-8300	-8550	21000	46879027	556	2.65	2399894	5.12	0.5172	
-8750	-8250	-8500	21000	46879027	606	2.89	2399844	5.12	0.5637	
-8700	-8200	-8450	21000	46879027	701	3.34	2399749	5.12	0.6521	
-8650	-8150	-8400	21000	46879027	801	3.81	2399649	5.12	0.7452	
-8600	-8100	-8350	21000	46879027	901	4.29	2399549	5.12	0.8382	
-8550	-8050	-8300	21000	46879027	1001	4.77	2399449	5.12	0.9313	
-8500	-8000	-8250	21000	46879027	1101	5.24	2399349	5.12	1.0244	
-8450	-7950	-8200	21000	46879027	1201	5.72	2399249	5.12	1.1174	
-8400	-7900	-8150	21000	46879027	1301	6.20	2399149	5.12	1.2105	
-8350	-7850	-8100	21000	46879027	1395	6.64	2399055	5.12	1.2981	
-8300	-7800	-8050	21000	46879027	1445	6.88	2399005	5.12	1.3446	
-8250	-7750	-8000	21000	46879027	1495	7.12	2398955	5.12	1.3912	
-8200	-7700	-7950	21000	46879027	1500	7.14	2398950	5.12	1.3958	
-8150	-7650	-7900	21000	46879027	1500	7.14	2398950	5.12	1.3958	
-8100	-7600	-7850	21000	46879027	1500	7.14	2398950	5.12	1.3958	
-8050	-7550	-7800	21000	46879027	1500	7.14	2398950	5.12	1.3958	
-8000	-7500	-7750	21000	46879027	1500	7.14	2398950	5.12	1.3958	
-7950	-7450	-7700	21000	46879027	1455	6.93	2398995	5.12	1.3539	
-7900	-7400	-7650	21000	46879027	1405	6.69	2399045	5.12	1.3074	
-7850	-7350	-7600	21000	46879027	1355	6.45	2399095	5.12	1.2608	
-7800	-7300	-7550	21000	46879027	1305	6.21	2399145	5.12	1.2143	
-7750	-7250	-7500	21000	46879027	1255	5.98	2399195	5.12	1.1677	
-7700	-7200	-7450	21000	46879027	1205	5.74	2399245	5.12	1.1212	
-7650	-7150	-7400	21000	46879027	1155	5.50	2399295	5.12	1.0746	
-7600	-7100	-7350	21000	46879027	1105	5.26	2399345	5.12	1.0281	
-7550	-7050	-7300	21000	46879027	1055	5.02	2399395	5.12	0.9815	
-7500	-7000	-7250	21000	46879027	1005	4.79	2399445	5.12	0.9350	
-7450	-6950	-7200	21000	46879027	1000	4.76	2399450	5.12	0.9304	
-7400	-6900	-7150	21000	46879027	989	4.71	2399461	5.12	0.9201	
-7350	-6850	-7100	21000	46879027	939	4.47	2399511	5.12	0.8736	
-7300	-6800	-7050	21000	46879027	889	4.23	2399561	5.12	0.8270	
-7250	-6750	-7000	21000	46879027	839	4.00	2399611	5.12	0.7805	
-7200	-6700	-6950	21000	46879027	789	3.76	2399661	5.12	0.7340	
-7150	-6650	-6900	21000	46879027	739	3.52	2399711	5.12	0.6875	
-7100	-6600	-6850	21000	46879027	689	3.28	2399761	5.12	0.6409	
-7050	-6550	-6800	21000	46879027	639	3.04	2399811	5.12	0.5944	
-7000	-6500	-6750	21000	46879027	589	2.80	2399861	5.12	0.5479	
-6950	-6450	-6700	21000	46879027	539	2.57	2399911	5.12	0.5014	
-6900	-6400	-6650	21000	46879027	494	2.35	2399956	5.12	0.4595	
-6850	-6350	-6600	21000	46879027	471	2.24	2399979	5.12	0.4381	
-6800	-6300	-6550	21000	46879027	471	2.24	2399979	5.12	0.4381	
-6750	-6250	-6500	21000	46879027	471	2.24	2399979	5.12	0.4381	
-6700	-6200	-6450	21000	46879027	471	2.24	2399979	5.12	0.4381	
-6650	-6150	-6400	21000	46879027	471	2.24	2399979	5.12	0.4381	
-6600	-6100	-6350	21000	46879027	471	2.24	2399979	5.12	0.4381	
-6550	-6050	-6300	21000	46879027	471	2.24	2399979	5.12	0.4381	
-6500	-6000	-6250	21000	46879027	471	2.24	2399979	5.12	0.4381	
-6450	-5950	-6200	21000	46879027	471	2.24	2399979	5.12	0.4381	
-6400	-5900	-6150	21000	46879027	477	2.27	2399973	5.12	0.4437	
-6350	-5850	-6100	21000	46879027	513	2.44	2399937	5.12	0.4772	
-6300	-5800	-6050	21000	46879027	563	2.68	2399887	5.12	0.5237	
-6250	-5750	-6000	21000	46879027	613	2.92	2399837	5.12	0.5702	
-6200	-5700	-5950	21000	46879027	680	3.24	2399770	5.12	0.6326	
-6150	-5650	-5900	21000	46879027	780	3.71	2399670	5.12	0.7256	
-6100	-5600	-5850	21000	46879027	880	4.19	2399570	5.12	0.8187	
-6050	-5550	-5800	21000	46879027	980	4.67	2399470	5.12	0.9117	
-6000	-5500	-5750	21000	46879027	1080	5.14	2399370	5.12	1.0048	
-5950	-5450	-5700	21000	46879027	1180	5.62	2399270	5.12	1.0979	
-5900	-5400	-5650	21000	46879027	1280	6.10	2399170	5.12	1.1910	
-5850	-5350	-5600	21000	46879027	1367	6.51	2399083	5.12	1.2720	
-5800	-5300	-5550	21000	46879027	1390	6.62	2399060	5.12	1.2934	
-5750	-5250	-5500	21000	46879027	1377	6.56	2399073	5.12	1.2813	
-5700	-5200	-5450	21000	46879027	1310	6.24	2399140	5.12	1.2189	
-5650	-5150	-5400	21000	46879027	1210	5.76	2399240	5.12	1.1258	
-5600	-5100	-5350	21000	46879027	1110	5.29	2399340	5.12	1.0327	
-5550	-5050	-5300	21000	46879027	1010	4.81	2399440	5.12	0.9397	
-5500	-5000	-5250	20987	46879040	910	4.34	2399540	5.12	0.8471	
-5450	-4950	-5200	20887	46879140	810	3.88	2399640	5.12	0.7576	
-5400	-4900	-5150	20787	46879240	710	3.42	2399740	5.12	0.6672	
-5350	-4850	-5100	20687	46879340	610	2.95	2399840	5.12	0.5760	
-5300	-4800	-5050	20587	46879440	537	2.61	2399913	5.12	0.5095	
-5250	-4750	-5000	20513	46879514	500	2.44	2399950	5.12	0.4761	
-5200	-4700	-4950	20613	46879414	500	2.43	2399950	5.12	0.4738	
-5150	-4650	-4900	20713	46879314	500	2.41	2399950	5.12	0.4715	
-5100	-4600	-4850	20813	46879214	500	2.40	2399950	5.12	0.4693	
-5050	-4550	-4800	20913	46879114	500	2.39	2399950	5.12	0.4670	
-5000	-4500	-4750	21000	46879027	500	2.38	2399950	5.12	0.4651	
-4950	-4450	-4700	21000	46879027	500	2.38	2399950	5.12	0.4651	
-4900	-4400	-4650	21000	46879027	500	2.38	2399950	5.12	0.4651	
-4850	-4350	-4600	21000	46879027	500	2.38	2399950	5.12	0.4651	
-4800	-4300	-4550	21000	46879027	506	2.41	2399944	5.12	0.4707	
-4750	-4250	-4500	21000	46879027	556	2.65	2399894	5.12	0.5172	
-4700	-4200	-4450	21000	46879027	606	2.89	2399844	5.12	0.5637	
-4650	-4150	-4400	21000	46879027	656	3.12	2399794	5.12	0.6102	
-4600	-4100	-4350	21000	46879027	706	3.36	2399744	5.12	0.6567	
-4550	-4050	-4300	21000	46879027	756	3.60	2399694	5.12	0.7033	
-4500	-4000	-4250	21000	46879027	806	3.84	2399644	5.12	0.7498	
-4450	-3950	-4200	21000	46879027	856	4.08	2399594	5.12	0.7963	
-4400	-3900	-4150	21000	46879027	906	4.31	2399544	5.12	0.8429	
-4350	-3850	-4100	21000	46879027	956	4.55	2399494	5.12	0.8894	
-4300	-3800	-4050	21000	46879027	1000	4.76	2399450	5.12	0.9304	
-4250	-3750	-4000	21000	46879027	1000	4.76	2399450	5.12	0.9304	
-4200	-3700	-3950	21000	46879027	1000	4.76	2399450	5.12	0.9304	
-4150	-3650	-3900	21000	46879027	1000	4.76	2399450	5.12	0.9304	
-4100	-3600	-3850	21000	46879027	1029	4.90	2399421	5.12	0.9573	
-4050	-3550	-3800	21000	46879027	1079	5.14	2399371	5.12	1.0039	
-4000	-3500	-3750	21000	46879027	1129	5.38	2399321	5.12	1.0504	
-3950	-3450	-3700	21000	46879027	1179	5.61	2399271	5.12	1.0970	
-3900	-3400	-3650	21000	46879027	1229	5.85	2399221	5.12	1.1435	
-3850	-3350	-3600	21000	46879027	1279	6.09	2399171	5.12	1.1901	
-3800	-3300	-3550	21000	46879027	1329	6.33	2399121	5.12	1.2366	
-3750	-3250	-3500	21000	46879027	1379	6.57	2399071	5.12	1.2832	
-3700	-3200	-3450	21000	46879027	1429	6.80	2399021	5.12	1.3297	
-3650	-3150	-3400	21000	46879027	1479	7.04	2398971	5.12	1.3763	
-3600	-3100	-3350	21000	46879027	1494	7.11	2398956	5.12	1.3902	
-3550	-3050	-3300	21000	46879027	1444	6.88	2399006	5.12	1.3437	
-3500	-3000	-3250	21000	46879027	1394	6.64	2399056	5.12	1.2971	
-3450	-2950	-3200	21000	46879027	1344	6.40	2399106	5.12	1.2506	
-3400	-2900	-3150	21000	46879027	1294	6.16	2399156	5.12	1.2040	
-3350	-2850	-3100	21000	46879027	1244	5.92	2399206	5.12	1.1575	
-3300	-2800	-3050	21000	46879027	1194	5.69	2399256	5.12	1.1109	
-3250	-2750	-3000	21000	46879027	1144	5.45	2399306	5.12	1.0644	
-3200	-2700	-2950	21000	46879027	1094	5.21	2399356	5.12	1.0178	
-3150	-2650	-2900	21000	46879027	1044	4.97	2399406	5.12	0.9713	
-3100	-2600	-2850	21000	46879027	1000	4.76	2399450	5.12	0.9304	
-3050	-2550	-2800	21000	46879027	1000	4.76	2399450	5.12	0.9304	
-3000	-2500	-2750	21000	46879027	1018	4.85	2399432	5.12	0.9471	
-2950	-2450	-2700	21000	46879027	1068	5.09	2399382	5.12	0.9936	
-2900	-2400	-2650	21000	46879027	1118	5.32	2399332	5.12	1.0402	
-2850	-2350	-2600	21000	46879027	1168	5.56	2399282	5.12	1.0867	
-2800	-2300	-2550	21000	46879027	1218	5.80	2399232	5.12	1.1333	
-2750	-2250	-2500	21000	46879027	1268	6.04	2399182	5.12	1.1798	
-2700	-2200	-2450	20933	46879094	1318	6.30	2399132	5.12	1.2303	
-2650	-2150	-2400	20733	46879294	1368	6.60	2399082	5.12	1.2893	
-2600	-2100	-2350	20533	46879494	1418	6.91	2399032	5.12	1.3495	
-2550	-2050	-2300	20333	46879694	1468	7.22	2398982	5.12	1.4109	
-2500	-2000	-2250	20133	46879894	1500	7.45	2398950	5.12	1.4560	
-2450	-1950	-2200	20067	46879960	1500	7.47	2398950	5.12	1.4607	
-2400	-1900	-2150	20267	46879760	1500	7.40	2398950	5.12	1.4463	
-2350	-1850	-2100	20467	46879560	1500	7.33	2398950	5.12	1.4322	
-2300	-1800	-2050	20667	46879360	1500	7.26	2398950	5.12	1.4183	
-2250	-1750	-2000	20867	46879160	1482	7.10	2398968	5.12	1.3879	
-2200	-1700	-1950	21000	46879027	1432	6.82	2399018	5.12	1.3325	
-2150	-1650	-1900	21000	46879027	1382	6.58	2399068	5.12	1.2860	
-2100	-1600	-1850	20944	46879083	1332	6.36	2399118	5.12	1.2427	
-2050	-1550	-1800	20844	46879183	1282	6.15	2399168	5.12	1.2018	
-2000	-1500	-1750	20744	46879283	1232	5.94	2399218	5.12	1.1605	
-1950	-1450	-1700	20644	46879383	1182	5.73	2399268	5.12	1.1187	
-1900	-1400	-1650	20544	46879483	1132	5.51	2399318	5.12	1.0766	
-1850	-1350	-1600	20556	46879471	1082	5.26	2399368	5.12	1.0284	
-1800	-1300	-1550	20656	46879371	1032	5.00	2399418	5.12	0.9761	
-1750	-1250	-1500	20756	46879271	1000	4.82	2399450	5.12	0.9413	
-1700	-1200	-1450	20856	46879171	1000	4.79	2399450	5.12	0.9368	
-1650	-1150	-1400	20877	46879150	1000	4.79	2399450	5.12	0.9358	
-1600	-1100	-1350	20821	46879206	1000	4.80	2399450	5.12	0.9384	
-1550	-1050	-1300	20652	46879375	1000	4.84	2399450	5.12	0.9460	
-1500	-1000	-1250	20452	46879575	1000	4.89	2399450	5.12	0.9553	
-1450	-950	-1200	20252	46879775	1000	4.94	2399450	5.12	0.9647	
-1400	-900	-1150	20210	46879817	1000	4.95	2399450	5.12	0.9667	
-1350	-850	-1100	20210	46879817	1000	4.95	2399450	5.12	0.9667	
-1300	-800	-1050	20348	46879679	1000	4.91	2399450	5.12	0.9602	
-1250	-750	-1000	20548	46879479	1049	5.11	2399401	5.12	0.9974	
-1200	-700	-950	20748	46879279	1099	5.30	2399351	5.12	1.0349	
-1150	-650	-900	20869	46879158	1149	5.51	2399301	5.12	1.0758	
-1100	-600	-850	20969	46879058	1199	5.72	2399251	5.12	1.1172	
-1050	-550	-800	21000	46879027	1249	5.95	2399201	5.12	1.1621	
-1000	-500	-750	20982	46879045	1304	6.21	2399146	5.12	1.2144	
-950	-450	-700	20882	46879145	1355	6.49	2399095	5.12	1.2679	
-900	-400	-650	20782	46879245	1405	6.76	2399045	5.12	1.3211	
-850	-350	-600	20682	46879345	1455	7.04	2398995	5.12	1.3747	
-800	-300	-550	20582	46879445	1505	7.31	2398945	5.12	1.4289	
-750	-250	-500	20518	46879509	1506	7.34	2398944	5.12	1.4343	
-700	-200	-450	20618	46879409	1506	7.30	2398944	5.12	1.4274	
-650	-150	-400	20718	46879309	1477	7.13	2398973	5.12	1.3931	
-600	-100	-350	20818	46879209	1431	6.87	2399019	5.12	1.3432	
-550	-50	-300	20918	46879109	1431	6.84	2399019	5.12	1.3368	
-500	0	-250	22000	46878527	1426	6.48	2399024	5.12	1.2666	
-450	50	-200	21000	46879027	1431	6.81	2399019	5.12	1.3316	
-400	100	-150	21000	46879027	1481	7.05	2398969	5.12	1.3781	
-350	150	-100	21000	46879027	1531	7.29	2398919	5.12	1.4247	
-300	200	-50	21000	46879027	1581	7.53	2398869	5.12	1.4712	
-250	250	0	21000	46879027	1631	7.77	2398819	5.12	1.5178	
-200	300	50	21000	46879027	1681	8.00	2398769	5.12	1.5644	
-150	350	100	21000	46879027	1760	8.38	2398690	5.12	1.6379	
-100	400	150	21000	46879027	1856	8.84	2398594	5.12	1.7274	
-50	450	200	21000	46879027	1906	9.08	2398544	5.12	1.7739	
0	500	250	22000	46878027	2456	11.16	2397994	5.12	2.1824	
50	550	300	21000	46879027	2000	9.52	2398450	5.12	1.8615	
100	600	350	21000	46879027	2000	9.52	2398450	5.12	1.8615	
150	650	400	21000	46879027	2000	9.52	2398450	5.12	1.8615	
200	700	450	21000	46879027	1995	9.50	2398455	5.12	1.8568	
250	750	500	21000	46879027	1945	9.26	2398505	5.12	1.8102	
300	800	550	21000	46879027	1895	9.02	2398555	5.12	1.7637	
350	850	600	21000	46879027	1845	8.79	2398605	5.12	1.7171	
400	900	650	21000	46879027	1795	8.55	2398655	5.12	1.6705	
450	950	700	21000	46879027	1745	8.31	2398705	5.12	1.6240	
500	1000	750	21000	46879027	1695	8.07	2398755	5.12	1.5774	
550	1050	800	21000	46879027	1645	7.83	2398805	5.12	1.5308	
600	1100	850	21000	46879027	1595	7.60	2398855	5.12	1.4843	
650	1150	900	21000	46879027	1545	7.36	2398905	5.12	1.4377	
700	1200	950	21000	46879027	1500	7.14	2398950	5.12	1.3958	
750	1250	1000	21000	46879027	1500	7.14	2398950	5.12	1.3958	
800	1300	1050	21000	46879027	1500	7.14	2398950	5.12	1.3958	
850	1350	1100	21000	46879027	1500	7.14	2398950	5.12	1.3958	
900	1400	1150	21000	46879027	1500	7.14	2398950	5.12	1.3958	
950	1450	1200	21000	46879027	1500	7.14	2398950	5.12	1.3958	
1000	1500	1250	21000	46879027	1500	7.14	2398950	5.12	1.3958	
1050	1550	1300	21000	46879027	1500	7.14	2398950	5.12	1.3958	
1100	1600	1350	21000	46879027	1500	7.14	2398950	5.12	1.3958	
1150	1650	1400	21000	46879027	1500	7.14	2398950	5.12	1.3958	
1200	1700	1450	21000	46879027	1494	7.11	2398956	5.12	1.3902	
1250	1750	1500	21000	46879027	1444	6.88	2399006	5.12	1.3437	
1300	1800	1550	21000	46879027	1394	6.64	2399056	5.12	1.2971	
1350	1850	1600	21000	46879027	1344	6.40	2399106	5.12	1.2506	
1400	1900	1650	21000	46879027	1294	6.16	2399156	5.12	1.2040	
1450	1950	1700	21000	46879027	1244	5.92	2399206	5.12	1.1575	
1500	2000	1750	21000	46879027	1194	5.69	2399256	5.12	1.1109	
1550	2050	1800	21000	46879027	1144	5.45	2399306	5.12	1.0644	
1600	2100	1850	21000	46879027	1094	5.21	2399356	5.12	1.0178	
1650	2150	1900	21000	46879027	1044	4.97	2399406	5.12	0.9713	
1700	2200	1950	21000	46879027	1000	4.76	2399450	5.12	0.9304	
1750	2250	2000	21000	46879027	1000	4.76	2399450	5.12	0.9304	
1800	2300	2050	21000	46879027	1000	4.76	2399450	5.12	0.9304	
1850	2350	2100	21000	46879027	1000	4.76	2399450	5.12	0.9304	
1900	2400	2150	21000	46879027	1000	4.76	2399450	5.12	0.9304	
1950	2450	2200	21000	46879027	1000	4.76	2399450	5.12	0.9304	
2000	2500	2250	21000	46879027	1000	4.76	2399450	5.12	0.9304	
2050	2550	2300	21000	46879027	1000	4.76	2399450	5.12	0.9304	
2100	2600	2350	21000	46879027	1000	4.76	2399450	5.12	0.9304	
2150	2650	2400	21000	46879027	1000	4.76	2399450	5.12	0.9304	
2200	2700	2450	21000	46879027	1000	4.76	2399450	5.12	0.9304	
2250	2750	2500	21000	46879027	1000	4.76	2399450	5.12	0.9304	
2300	2800	2550	21000	46879027	1000	4.76	2399450	5.12	0.9304	
2350	2850	2600	21000	46879027	1000	4.76	2399450	5.12	0.9304	
2400	2900	2650	21000	46879027	1000	4.76	2399450	5.12	0.9304	
2450	2950	2700	21000	46879027	1000	4.76	2399450	5.12	0.9304	
2500	3000	2750	21000	46879027	1000	4.76	2399450	5.12	0.9304	
2550	3050	2800	21000	46879027	1002	4.77	2399448	5.12	0.9322	
2600	3100	2850	21000	46879027	1002	4.77	2399448	5.12	0.9322	
2650	3150	2900	21000	46879027	1002	4.77	2399448	5.12	0.9322	
2700	3200	2950	21000	46879027	1002	4.77	2399448	5.12	0.9322	
2750	3250	3000	21000	46879027	1002	4.77	2399448	5.12	0.9322	
2800	3300	3050	21000	46879027	1002	4.77	2399448	5.12	0.9322	
2850	3350	3100	21000	46879027	1002	4.77	2399448	5.12	0.9322	
2900	3400	3150	21000	46879027	1002	4.77	2399448	5.12	0.9322	
2950	3450	3200	21000	46879027	1002	4.77	2399448	5.12	0.9322	
3000	3500	3250	21000	46879027	1002	4.77	2399448	5.12	0.9322	
3050	3550	3300	21000	46879027	1000	4.76	2399450	5.12	0.9304	
3100	3600	3350	21000	46879027	1000	4.76	2399450	5.12	0.9304	
3150	3650	3400	21000	46879027	1000	4.76	2399450	5.12	0.9304	
3200	3700	3450	21000	46879027	1000	4.76	2399450	5.12	0.9304	
3250	3750	3500	21000	46879027	1000	4.76	2399450	5.12	0.9304	
3300	3800	3550	21000	46879027	1000	4.76	2399450	5.12	0.9304	
3350	3850	3600	21000	46879027	1000	4.76	2399450	5.12	0.9304	
3400	3900	3650	21000	46879027	1000	4.76	2399450	5.12	0.9304	
3450	3950	3700	21000	46879027	1004	4.78	2399446	5.12	0.9341	
3500	4000	3750	21000	46879027	1054	5.02	2399396	5.12	0.9806	
3550	4050	3800	21000	46879027	1149	5.47	2399301	5.12	1.0690	
3600	4100	3850	21000	46879027	1249	5.95	2399201	5.12	1.1621	
3650	4150	3900	21000	46879027	1349	6.42	2399101	5.12	1.2552	
3700	4200	3950	21000	46879027	1449	6.90	2399001	5.12	1.3483	
3750	4250	4000	21000	46879027	1549	7.38	2398901	5.12	1.4414	
3800	4300	4050	21000	46879027	1649	7.85	2398801	5.12	1.5346	
3850	4350	4100	21000	46879027	1749	8.33	2398701	5.12	1.6277	
3900	4400	4150	21000	46879027	1849	8.80	2398601	5.12	1.7208	
3950	4450	4200	21000	46879027	1945	9.26	2398505	5.12	1.8102	
4000	4500	4250	21000	46879027	1995	9.50	2398455	5.12	1.8568	
4050	4550	4300	21000	46879027	1994	9.50	2398456	5.12	1.8559	
4100	4600	4350	21000	46879027	1944	9.26	2398506	5.12	1.8093	
4150	4650	4400	21000	46879027	1894	9.02	2398556	5.12	1.7627	
4200	4700	4450	21000	46879027	1844	8.78	2398606	5.12	1.7162	
4250	4750	4500	21000	46879027	1802	8.58	2398648	5.12	1.6771	
4300	4800	4550	21000	46879027	1802	8.58	2398648	5.12	1.6771	
4350	4850	4600	21000	46879027	1846	8.79	2398604	5.12	1.7180	
4400	4900	4650	21000	46879027	1896	9.03	2398554	5.12	1.7646	
4450	4950	4700	21000	46879027	1946	9.27	2398504	5.12	1.8112	
4500	5000	4750	21000	46879027	1996	9.50	2398454	5.12	1.8578	
4550	5050	4800	21000	46879027	2052	9.77	2398398	5.12	1.9099	
4600	5100	4850	21000	46879027	2152	10.25	2398298	5.12	2.0031	
4650	5150	4900	21000	46879027	2252	10.72	2398198	5.12	2.0962	
4700	5200	4950	21000	46879027	2352	11.20	2398098	5.12	2.1894	
4750	5250	5000	21000	46879027	2444	11.64	2398006	5.12	2.2752	
4800	5300	5050	21000	46879027	2494	11.88	2397956	5.12	2.3217	
4850	5350	5100	21000	46879027	2500	11.90	2397950	5.12	2.3273	
4900	5400	5150	21000	46879027	2500	11.90	2397950	5.12	2.3273	
4950	5450	5200	21000	46879027	2500	11.90	2397950	5.12	2.3273	
5000	5500	5250	21000	46879027	2500	11.90	2397950	5.12	2.3273	
5050	5550	5300	21000	46879027	2500	11.90	2397950	5.12	2.3273	
5100	5600	5350	21000	46879027	2500	11.90	2397950	5.12	2.3273	
5150	5650	5400	21000	46879027	2500	11.90	2397950	5.12	2.3273	
5200	5700	5450	21000	46879027	2500	11.90	2397950	5.12	2.3273	
5250	5750	5500	21000	46879027	2500	11.90	2397950	5.12	2.3273	
5300	5800	5550	21000	46879027	2500	11.90	2397950	5.12	2.3273	
5350	5850	5600	21000	46879027	2500	11.90	2397950	5.12	2.3273	
5400	5900	5650	21000	46879027	2500	11.90	2397950	5.12	2.3273	
5450	5950	5700	21000	46879027	2500	11.90	2397950	5.12	2.3273	
5500	6000	5750	21000	46879027	2500	11.90	2397950	5.12	2.3273	
5550	6050	5800	21000	46879027	2500	11.90	2397950	5.12	2.3273	
5600	6100	5850	21000	46879027	2500	11.90	2397950	5.12	2.3273	
5650	6150	5900	21000	46879027	2500	11.90	2397950	5.12	2.3273	
5700	6200	5950	21000	46879027	2500	11.90	2397950	5.12	2.3273	
5750	6250	6000	21000	46879027	2500	11.90	2397950	5.12	2.3273	
5800	6300	6050	21000	46879027	2500	11.90	2397950	5.12	2.3273	
5850	6350	6100	21000	46879027	2506	11.93	2397944	5.12	2.3329	
5900	6400	6150	21000	46879027	2556	12.17	2397894	5.12	2.3795	
5950	6450	6200	21000	46879027	2606	12.41	2397844	5.11	2.4261	
6000	6500	6250	21000	46879027	2677	12.75	2397773	5.11	2.4923	
6050	6550	6300	21000	46879027	2727	12.99	2397723	5.11	2.5389	
6100	6600	6350	21000	46879027	2777	13.22	2397673	5.11	2.5855	
6150	6650	6400	21000	46879027	2827	13.46	2397623	5.11	2.6321	
6200	6700	6450	21000	46879027	2877	13.70	2397573	5.11	2.6787	
6250	6750	6500	21000	46879027	2927	13.94	2397523	5.11	2.7253	
6300	6800	6550	21000	46879027	2977	14.18	2397473	5.11	2.7719	
6350	6850	6600	21000	46879027	3013	14.35	2397437	5.11	2.8055	
6400	6900	6650	21000	46879027	2918	13.90	2397532	5.11	2.7169	
6450	6950	6700	21000	46879027	2818	13.42	2397632	5.11	2.6237	
6500	7000	6750	21000	46879027	2697	12.84	2397753	5.11	2.5109	
6550	7050	6800	21000	46879027	2597	12.37	2397853	5.11	2.4177	
6600	7100	6850	21000	46879027	2497	11.89	2397953	5.12	2.3245	
6650	7150	6900	21000	46879027	2397	11.41	2398053	5.12	2.2314	
6700	7200	6950	21000	46879027	2297	10.94	2398153	5.12	2.1382	
6750	7250	7000	21000	46879027	2197	10.46	2398253	5.12	2.0450	
6800	7300	7050	21000	46879027	2097	9.99	2398353	5.12	1.9518	
6850	7350	7100	21000	46879027	2005	9.55	2398445	5.12	1.8661	
6900	7400	7150	21000	46879027	1975	9.40	2398475	5.12	1.8382	
6950	7450	7200	21000	46879027	1925	9.17	2398525	5.12	1.7916	
7000	7500	7250	21000	46879027	1875	8.93	2398575	5.12	1.7450	
7050	7550	7300	21000	46879027	1825	8.69	2398625	5.12	1.6985	
7100	7600	7350	21000	46879027	1775	8.45	2398675	5.12	1.6519	
7150	7650	7400	21000	46879027	1725	8.21	2398725	5.12	1.6053	
7200	7700	7450	21000	46879027	1675	7.98	2398775	5.12	1.5588	
7250	7750	7500	21000	46879027	1625	7.74	2398825	5.12	1.5122	
7300	7800	7550	21000	46879027	1575	7.50	2398875	5.12	1.4657	
7350	7850	7600	21000	46879027	1525	7.26	2398925	5.12	1.4191	
7400	7900	7650	21000	46879027	1500	7.14	2398950	5.12	1.3958	
7450	7950	7700	21000	46879027	1543	7.35	2398907	5.12	1.4359	
7500	8000	7750	21000	46879027	1587	7.56	2398863	5.12	1.4768	
7550	8050	7800	21000	46879027	1587	7.56	2398863	5.12	1.4768	
7600	8100	7850	21000	46879027	1587	7.56	2398863	5.12	1.4768	
7650	8150	7900	21000	46879027	1543	7.35	2398907	5.12	1.4359	
7700	8200	7950	21000	46879027	1493	7.11	2398957	5.12	1.3893	
7750	8250	8000	21000	46879027	1443	6.87	2399007	5.12	1.3427	
7800	8300	8050	21000	46879027	1393	6.63	2399057	5.12	1.2962	
7850	8350	8100	21000	46879027	1343	6.40	2399107	5.12	1.2496	
7900	8400	8150	21000	46879027	1293	6.16	2399157	5.12	1.2031	
7950	8450	8200	21000	46879027	1200	5.71	2399250	5.12	1.1165	
8000	8500	8250	21000	46879027	1106	5.27	2399344	5.12	1.0290	
8050	8550	8300	21000	46879027	1056	5.03	2399394	5.12	0.9825	
8100	8600	8350	21000	46879027	1006	4.79	2399444	5.12	0.9359	
8150	8650	8400	21000	46879027	1000	4.76	2399450	5.12	0.9304	
8200	8700	8450	21000	46879027	957	4.56	2399493	5.12	0.8903	
8250	8750	8500	21000	46879027	907	4.32	2399543	5.12	0.8438	
8300	8800	8550	21000	46879027	857	4.08	2399593	5.12	0.7973	
8350	8850	8600	21000	46879027	807	3.84	2399643	5.12	0.7507	
8400	8900	8650	21000	46879027	757	3.60	2399693	5.12	0.7042	
8450	8950	8700	21000	46879027	707	3.37	2399743	5.12	0.6577	
8500	9000	8750	21000	46879027	657	3.13	2399793	5.12	0.6112	
8550	9050	8800	21000	46879027	613	2.92	2399837	5.12	0.5702	
8600	9100	8850	21000	46879027	613	2.92	2399837	5.12	0.5702	
8650	9150	8900	21000	46879027	613	2.92	2399837	5.12	0.5702	
8700	9200	8950	21000	46879027	656	3.12	2399794	5.12	0.6102	
8750	9250	9000	21000	46879027	706	3.36	2399744	5.12	0.6567	
8800	9300	9050	21000	46879027	756	3.60	2399694	5.12	0.7033	
8850	9350	9100	21000	46879027	806	3.84	2399644	5.12	0.7498	
8900	9400	9150	21000	46879027	856	4.08	2399594	5.12	0.7963	
8950	9450	9200	21000	46879027	906	4.31	2399544	5.12	0.8429	
9000	9500	9250	21000	46879027	956	4.55	2399494	5.12	0.8894	
9050	9550	9300	21000	46879027	1000	4.76	2399450	5.12	0.9304	
9100	9600	9350	21000	46879027	1000	4.76	2399450	5.12	0.9304	
9150	9650	9400	21000	46879027	1000	4.76	2399450	5.12	0.9304	
9200	9700	9450	21000	46879027	1000	4.76	2399450	5.12	0.9304	
9250	9750	9500	21000	46879027	1000	4.76	2399450	5.12	0.9304	
9300	9800	9550	21000	46879027	1000	4.76	2399450	5.12	0.9304	
9350	9850	9600	21000	46879027	1000	4.76	2399450	5.12	0.9304	
9400	9900	9650	21000	46879027	1000	4.76	2399450	5.12	0.9304	
9450	9950	9700	21000	46879027	1004	4.78	2399446	5.12	0.9341	
9500	10000	9750	21000	46879027	1087	5.18	2399363	5.12	1.0113	
9550	10050	9800	21000	46879027	1187	5.65	2399263	5.12	1.1044	
9600	10100	9850	21000	46879027	1287	6.13	2399163	5.12	1.1975	
9650	10150	9900	21000	46879027	1387	6.60	2399063	5.12	1.2906	
9700	10200	9950	21000	46879027	1487	7.08	2398963	5.12	1.3837	
9750	10250	10000	21000	46879027	1581	7.53	2398869	5.12	1.4712	
9800	10300	10050	21000	46879027	1631	7.77	2398819	5.12	1.5178	
9850	10350	10100	21000	46879027	1681	8.00	2398769	5.12	1.5644	
9900	10400	10150	21000	46879027	1731	8.24	2398719	5.12	1.6109	
9950	10450	10200	21000	46879027	1777	8.46	2398673	5.12	1.6538	
10000	10500	10250	21000	46879027	1757	8.37	2398693	5.12	1.6351	
10050	10550	10300	21000	46879027	1707	8.13	2398743	5.12	1.5886	
10100	10600	10350	21000	46879027	1657	7.89	2398793	5.12	1.5420	
10150	10650	10400	21000	46879027	1607	7.65	2398843	5.12	1.4955	
10200	10700	10450	21000	46879027	1557	7.41	2398893	5.12	1.4489	
10250	10750	10500	21000	46879027	1513	7.20	2398937	5.12	1.4079	
10300	10800	10550	21000	46879027	1524	7.26	2398926	5.12	1.4182	
10350	10850	10600	21000	46879027	1574	7.50	2398876	5.12	1.4647	
10400	10900	10650	21000	46879027	1624	7.73	2398826	5.12	1.5113	
10450	10950	10700	21000	46879027	1674	7.97	2398776	5.12	1.5578	
10500	11000	10750	21000	46879027	1711	8.15	2398739	5.12	1.5923	
10550	11050	10800	21000	46879027	1761	8.39	2398689	5.12	1.6389	
10600	11100	10850	21000	46879027	1811	8.62	2398639	5.12	1.6854	
10650	11150	10900	21000	46879027	1861	8.86	2398589	5.12	1.7320	
10700	11200	10950	21000	46879027	1911	9.10	2398539	5.12	1.7786	
10750	11250	11000	21000	46879027	1961	9.34	2398489	5.12	1.8252	
10800	11300	11050	21000	46879027	2000	9.52	2398450	5.12	1.8615	
10850	11350	11100	21000	46879027	2000	9.52	2398450	5.12	1.8615	
10900	11400	11150	21000	46879027	2000	9.52	2398450	5.12	1.8615	
10950	11450	11200	21000	46879027	2000	9.52	2398450	5.12	1.8615	
11000	11500	11250	21000	46879027	2000	9.52	2398450	5.12	1.8615	
11050	11550	11300	21000	46879027	1989	9.47	2398461	5.12	1.8512	
11100	11600	11350	21000	46879027	1939	9.23	2398511	5.12	1.8047	
11150	11650	11400	21000	46879027	1889	9.00	2398561	5.12	1.7581	
11200	11700	11450	21000	46879027	1839	8.76	2398611	5.12	1.7115	
11250	11750	11500	21000	46879027	1785	8.50	2398665	5.12	1.6612	
11300	11800	11550	21000	46879027	1685	8.02	2398765	5.12	1.5681	
11350	11850	11600	21000	46879027	1585	7.55	2398865	5.12	1.4750	
11400	11900	11650	21000	46879027	1485	7.07	2398965	5.12	1.3819	
11450	11950	11700	21000	46879027	1385	6.60	2399065	5.12	1.2887	
11500	12000	11750	21000	46879027	1285	6.12	2399165	5.12	1.1956	
11550	12050	11800	21000	46879027	1196	5.70	2399254	5.12	1.1128	
11600	12100	11850	21000	46879027	1146	5.46	2399304	5.12	1.0662	
11650	12150	11900	21000	46879027	1096	5.22	2399354	5.12	1.0197	
11700	12200	11950	21000	46879027	1046	4.98	2399404	5.12	0.9732	
11750	12250	12000	21000	46879027	1000	4.76	2399450	5.12	0.9304	
11800	12300	12050	21000	46879027	1000	4.76	2399450	5.12	0.9304	
11850	12350	12100	21000	46879027	1000	4.76	2399450	5.12	0.9304	
11900	12400	12150	21000	46879027	1038	4.94	2399412	5.12	0.9657	
11950	12450	12200	21000	46879027	1088	5.18	2399362	5.12	1.0123	
12000	12500	12250	21000	46879027	1138	5.42	2399312	5.12	1.0588	
12050	12550	12300	21000	46879027	1188	5.66	2399262	5.12	1.1053	
12100	12600	12350	21000	46879027	1238	5.90	2399212	5.12	1.1519	
12150	12650	12400	21000	46879027	1292	6.15	2399158	5.12	1.2022	
12200	12700	12450	21000	46879027	1392	6.63	2399058	5.12	1.2953	
12250	12750	12500	21000	46879027	1492	7.10	2398958	5.12	1.3884	
12300	12800	12550	21000	46879027	1592	7.58	2398858	5.12	1.4815	
12350	12850	12600	21000	46879027	1692	8.06	2398758	5.12	1.5746	
12400	12900	12650	21000	46879027	1754	8.35	2398696	5.12	1.6324	
12450	12950	12700	21000	46879027	1804	8.59	2398646	5.12	1.6789	
12500	13000	12750	21000	46879027	1854	8.83	2398596	5.12	1.7255	
12550	13050	12800	21000	46879027	1904	9.07	2398546	5.12	1.7721	
12600	13100	12850	21000	46879027	1954	9.30	2398496	5.12	1.8186	
12650	13150	12900	21000	46879027	2000	9.52	2398450	5.12	1.8615	
12700	13200	12950	21000	46879027	2000	9.52	2398450	5.12	1.8615	
12750	13250	13000	21000	46879027	2000	9.52	2398450	5.12	1.8615	
12800	13300	13050	21000	46879027	1967	9.37	2398483	5.12	1.8307	
12850	13350	13100	21000	46879027	1917	9.13	2398533	5.12	1.7842	
12900	13400	13150	21000	46879027	1867	8.89	2398583	5.12	1.7376	
12950	13450	13200	21000	46879027	1817	8.65	2398633	5.12	1.6910	
13000	13500	13250	21000	46879027	1767	8.41	2398683	5.12	1.6445	
13050	13550	13300	21000	46879027	1723	8.20	2398727	5.12	1.6035	
13100	13600	13350	21000	46879027	1747	8.32	2398703	5.12	1.6258	
13150	13650	13400	21000	46879027	1797	8.56	2398653	5.12	1.6724	
13200	13700	13450	21000	46879027	1847	8.80	2398603	5.12	1.7190	
13250	13750	13500	21000	46879027	1897	9.03	2398553	5.12	1.7655	
13300	13800	13550	21000	46879027	1980	9.43	2398470	5.12	1.8429	
13350	13850	13600	21000	46879027	2080	9.90	2398370	5.12	1.9360	
13400	13900	13650	21000	46879027	2156	10.27	2398294	5.12	2.0068	
13450	13950	13700	21000	46879027	2206	10.50	2398244	5.12	2.0534	
13500	14000	13750	21000	46879027	2256	10.74	2398194	5.12	2.1000	
13550	14050	13800	21000	46879027	2300	10.95	2398150	5.12	2.1410	
13600	14100	13850	21000	46879027	2276	10.84	2398174	5.12	2.1186	
13650	14150	13900	21000	46879027	2226	10.60	2398224	5.12	2.0720	
13700	14200	13950	21000	46879027	2176	10.36	2398274	5.12	2.0254	
13750	14250	14000	21000	46879027	2126	10.12	2398324	5.12	1.9789	
13800	14300	14050	21000	46879027	2076	9.89	2398374	5.12	1.9323	
13850	14350	14100	21000	46879027	2075	9.88	2398375	5.12	1.9313	
13900	14400	14150	21000	46879027	2099	10.00	2398351	5.12	1.9537	
13950	14450	14200	21000	46879027	2149	10.23	2398301	5.12	2.0003	
14000	14500	14250	21000	46879027	2224	10.59	2398226	5.12	2.0702	
14050	14550	14300	21000	46879027	2324	11.07	2398126	5.12	2.1633	
14100	14600	14350	21000	46879027	2424	11.54	2398026	5.12	2.2565	
14150	14650	14400	21000	46879027	2551	12.15	2397899	5.12	2.3749	
14200	14700	14450	21000	46879027	2701	12.86	2397749	5.11	2.5147	
14250	14750	14500	21000	46879027	2851	13.58	2397599	5.11	2.6545	
14300	14800	14550	21000	46879027	3001	14.29	2397449	5.11	2.7943	
14350	14850	14600	21000	46879027	3102	14.77	2397348	5.11	2.8885	
14400	14900	14650	21000	46879027	3202	15.25	2397248	5.11	2.9817	
14450	14950	14700	21000	46879027	3302	15.72	2397148	5.11	3.0750	
14500	15000	14750	21000	46879027	3377	16.08	2397073	5.11	3.1449	
14550	15050	14800	21000	46879027	3421	16.29	2397029	5.11	3.1860	
14600	15100	14850	21000	46879027	3334	15.88	2397116	5.11	3.1048	
14650	15150	14900	21000	46879027	3207	15.27	2397243	5.11	2.9864	
14700	15200	14950	21000	46879027	3057	14.56	2397393	5.11	2.8465	
14750	15250	15000	21000	46879027	2882	13.72	2397568	5.11	2.6834	
14800	15300	15050	21000	46879027	2699	12.85	2397751	5.11	2.5128	
14850	15350	15100	21000	46879027	2545	12.12	2397905	5.12	2.3693	
14900	15400	15150	21000	46879027	2345	11.17	2398105	5.12	2.1829	
14950	15450	15200	21000	46879027	2145	10.21	2398305	5.12	1.9966	
15000	15500	15250	21000	46879027	1945	9.26	2398505	5.12	1.8102	
15050	15550	15300	21000	46879027	1751	8.34	2398699	5.12	1.6296	
15100	15600	15350	21000	46879027	1688	8.04	2398762	5.12	1.5709	
15150	15650	15400	21000	46879027	1656	7.89	2398794	5.12	1.5411	
15200	15700	15450	21000	46879027	1629	7.76	2398821	5.12	1.5159	
15250	15750	15500	21000	46879027	1604	7.64	2398846	5.12	1.4927	
15300	15800	15550	21000	46879027	1587	7.56	2398863	5.12	1.4768	
15350	15850	15600	21000	46879027	1541	7.34	2398909	5.12	1.4340	
15400	15900	15650	21000	46879027	1541	7.34	2398909	5.12	1.4340	
15450	15950	15700	21000	46879027	1541	7.34	2398909	5.12	1.4340	
15500	16000	15750	21000	46879027	1541	7.34	2398909	5.12	1.4340	
15550	16050	15800	21000	46879027	1541	7.34	2398909	5.12	1.4340	
15600	16100	15850	21000	46879027	1541	7.34	2398909	5.12	1.4340	
15650	16150	15900	21000	46879027	1547	7.37	2398903	5.12	1.4396	
15700	16200	15950	21000	46879027	1574	7.50	2398876	5.12	1.4647	
15750	16250	16000	21000	46879027	1606	7.65	2398844	5.12	1.4945	
15800	16300	16050	21000	46879027	1606	7.65	2398844	5.12	1.4945	
15850	16350	16100	21000	46879027	1606	7.65	2398844	5.12	1.4945	
15900	16400	16150	21000	46879027	1606	7.65	2398844	5.12	1.4945	
15950	16450	16200	21000	46879027	1606	7.65	2398844	5.12	1.4945	
16000	16500	16250	21000	46879027	1606	7.65	2398844	5.12	1.4945	
16050	16550	16300	21000	46879027	1606	7.65	2398844	5.12	1.4945	
16100	16600	16350	21000	46879027	1606	7.65	2398844	5.12	1.4945	
16150	16650	16400	21000	46879027	1582	7.53	2398868	5.12	1.4722	
16200	16700	16450	21000	46879027	1532	7.30	2398918	5.12	1.4256	
16250	16750	16500	21000	46879027	1500	7.14	2398950	5.12	1.3958	
16300	16800	16550	21000	46879027	1500	7.14	2398950	5.12	1.3958	
16350	16850	16600	21000	46879027	1500	7.14	2398950	5.12	1.3958	
16400	16900	16650	21000	46879027	1500	7.14	2398950	5.12	1.3958	
16450	16950	16700	21000	46879027	1483	7.06	2398967	5.12	1.3800	
16500	17000	16750	21000	46879027	1433	6.82	2399017	5.12	1.3334	
16550	17050	16800	21000	46879027	1383	6.59	2399067	5.12	1.2869	
16600	17100	16850	21000	46879027	1333	6.35	2399117	5.12	1.2403	
16650	17150	16900	21000	46879027	1283	6.11	2399167	5.12	1.1938	
16700	17200	16950	21000	46879027	1233	5.87	2399217	5.12	1.1472	
16750	17250	17000	21000	46879027	1183	5.63	2399267	5.12	1.1007	
16800	17300	17050	21000	46879027	1133	5.40	2399317	5.12	1.0541	
16850	17350	17100	21000	46879027	1083	5.16	2399367	5.12	1.0076	
16900	17400	17150	21000	46879027	1033	4.92	2399417	5.12	0.9611	
16950	17450	17200	21000	46879027	1000	4.76	2399450	5.12	0.9304	
17000	17500	17250	21000	46879027	1000	4.76	2399450	5.12	0.9304	
17050	17550	17300	21000	46879027	1000	4.76	2399450	5.12	0.9304	
17100	17600	17350	21000	46879027	1000	4.76	2399450	5.12	0.9304	
17150	17650	17400	21000	46879027	1000	4.76	2399450	5.12	0.9304	
17200	17700	17450	21000	46879027	1000	4.76	2399450	5.12	0.9304	
17250	17750	17500	21000	46879027	1000	4.76	2399450	5.12	0.9304	
17300	17800	17550	21000	46879027	1000	4.76	2399450	5.12	0.9304	
17350	17850	17600	21000	46879027	1017	4.84	2399433	5.12	0.9462	
17400	17900	17650	20956	46879071	1067	5.09	2399383	5.12	0.9948	
17450	17950	17700	20856	46879171	1117	5.36	2399333	5.12	1.0464	
17500	18000	17750	20756	46879271	1167	5.62	2399283	5.12	1.0986	
17550	18050	17800	20656	46879371	1217	5.89	2399233	5.12	1.1512	
17600	18100	17850	20556	46879471	1267	6.16	2399183	5.12	1.2044	
17650	18150	17900	20544	46879483	1317	6.41	2399133	5.12	1.2526	
17700	18200	17950	20644	46879383	1367	6.62	2399083	5.12	1.2939	
17750	18250	18000	20744	46879283	1417	6.83	2399033	5.12	1.3348	
17800	18300	18050	20844	46879183	1467	7.04	2398983	5.12	1.3753	
17850	18350	18100	20944	46879083	1500	7.16	2398950	5.12	1.3996	
17900	18400	18150	21000	46879027	1500	7.14	2398950	5.12	1.3958	
17950	18450	18200	21000	46879027	1500	7.14	2398950	5.12	1.3958	
18000	18500	18250	21000	46879027	1500	7.14	2398950	5.12	1.3958	
18050	18550	18300	21000	46879027	1500	7.14	2398950	5.12	1.3958	
18100	18600	18350	21000	46879027	1500	7.14	2398950	5.12	1.3958	
18150	18650	18400	21000	46879027	1500	7.14	2398950	5.12	1.3958	
18200	18700	18450	21000	46879027	1500	7.14	2398950	5.12	1.3958	
18250	18750	18500	21000	46879027	1500	7.14	2398950	5.12	1.3958	
18300	18800	18550	21000	46879027	1500	7.14	2398950	5.12	1.3958	
18350	18850	18600	21000	46879027	1500	7.14	2398950	5.12	1.3958	
18400	18900	18650	21000	46879027	1500	7.14	2398950	5.12	1.3958	
18450	18950	18700	21000	46879027	1500	7.14	2398950	5.12	1.3958	
18500	19000	18750	21000	46879027	1500	7.14	2398950	5.12	1.3958	
18550	19050	18800	21000	46879027	1500	7.14	2398950	5.12	1.3958	
18600	19100	18850	21000	46879027	1500	7.14	2398950	5.12	1.3958	
18650	19150	18900	21000	46879027	1500	7.14	2398950	5.12	1.3958	
18700	19200	18950	21000	46879027	1500	7.14	2398950	5.12	1.3958	
18750	19250	19000	21000	46879027	1500	7.14	2398950	5.12	1.3958	
18800	19300	19050	21000	46879027	1500	7.14	2398950	5.12	1.3958	
18850	19350	19100	21000	46879027	1500	7.14	2398950	5.12	1.3958	
18900	19400	19150	21000	46879027	1500	7.14	2398950	5.12	1.3958	
18950	19450	19200	21000	46879027	1500	7.14	2398950	5.12	1.3958	
19000	19500	19250	21000	46879027	1500	7.14	2398950	5.12	1.3958	
19050	19550	19300	21000	46879027	1500	7.14	2398950	5.12	1.3958	
19100	19600	19350	21000	46879027	1500	7.14	2398950	5.12	1.3958	
19150	19650	19400	21000	46879027	1500	7.14	2398950	5.12	1.3958	
19200	19700	19450	21000	46879027	1506	7.17	2398944	5.12	1.4014	
19250	19750	19500	21000	46879027	1556	7.41	2398894	5.12	1.4480	
19300	19800	19550	21000	46879027	1606	7.65	2398844	5.12	1.4945	
19350	19850	19600	21000	46879027	1656	7.89	2398794	5.12	1.5411	
19400	19900	19650	21000	46879027	1706	8.12	2398744	5.12	1.5876	
19450	19950	19700	21000	46879027	1756	8.36	2398694	5.12	1.6342	
19500	20000	19750	21000	46879027	1806	8.60	2398644	5.12	1.6808	
19550	20050	19800	21000	46879027	1856	8.84	2398594	5.12	1.7274	
19600	20100	19850	21000	46879027	1906	9.08	2398544	5.12	1.7739	
19650	20150	19900	21000	46879027	1956	9.31	2398494	5.12	1.8205	
19700	20200	19950	21000	46879027	2000	9.52	2398450	5.12	1.8615	
19750	20250	20000	21000	46879027	2000	9.52	2398450	5.12	1.8615	
19800	20300	20050	21000	46879027	1994	9.50	2398456	5.12	1.8559	
19850	20350	20100	21000	46879027	1965	9.36	2398485	5.12	1.8289	
19900	20400	20150	21000	46879027	1965	9.36	2398485	5.12	1.8289	
19950	20450	20200	21000	46879027	1965	9.36	2398485	5.12	1.8289	
20000	20500	20250	21000	46879027	1965	9.36	2398485	5.12	1.8289	
20050	20550	20300	21000	46879027	1965	9.36	2398485	5.12	1.8289	
20100	20600	20350	21000	46879027	1965	9.36	2398485	5.12	1.8289	
20150	20650	20400	21000	46879027	1965	9.36	2398485	5.12	1.8289	
20200	20700	20450	21000	46879027	1965	9.36	2398485	5.12	1.8289	
20250	20750	20500	21000	46879027	1965	9.36	2398485	5.12	1.8289	
20300	20800	20550	21000	46879027	1974	9.40	2398476	5.12	1.8373	
20350	20850	20600	21000	46879027	2003	9.54	2398447	5.12	1.8643	
20400	20900	20650	21000	46879027	2003	9.54	2398447	5.12	1.8643	
20450	20950	20700	21000	46879027	2003	9.54	2398447	5.12	1.8643	
20500	21000	20750	21000	46879027	2003	9.54	2398447	5.12	1.8643	
20550	21050	20800	21000	46879027	2003	9.54	2398447	5.12	1.8643	
20600	21100	20850	21000	46879027	2003	9.54	2398447	5.12	1.8643	
20650	21150	20900	21000	46879027	2003	9.54	2398447	5.12	1.8643	
20700	21200	20950	21000	46879027	2003	9.54	2398447	5.12	1.8643	
20750	21250	21000	21000	46879027	1994	9.50	2398456	5.12	1.8559	
20800	21300	21050	21000	46879027	1991	9.48	2398459	5.12	1.8531	
20850	21350	21100	21000	46879027	1991	9.48	2398459	5.12	1.8531	
20900	21400	21150	21000	46879027	1991	9.48	2398459	5.12	1.8531	
20950	21450	21200	21000	46879027	1991	9.48	2398459	5.12	1.8531	
21000	21500	21250	21000	46879027	1991	9.48	2398459	5.12	1.8531	
21050	21550	21300	21000	46879027	1964	9.35	2398486	5.12	1.8279	
21100	21600	21350	21000	46879027	1914	9.11	2398536	5.12	1.7814	
21150	21650	21400	21000	46879027	1864	8.88	2398586	5.12	1.7348	
21200	21700	21450	21000	46879027	1819	8.66	2398631	5.12	1.6929	
21250	21750	21500	21000	46879027	1828	8.70	2398622	5.12	1.7013	
21300	21800	21550	21000	46879027	1828	8.70	2398622	5.12	1.7013	
21350	21850	21600	21000	46879027	1816	8.65	2398634	5.12	1.6901	
21400	21900	21650	21000	46879027	1766	8.41	2398684	5.12	1.6435	
21450	21950	21700	21000	46879027	1716	8.17	2398734	5.12	1.5970	
21500	22000	21750	21000	46879027	1666	7.93	2398784	5.12	1.5504	
21550	22050	21800	21000	46879027	1643	7.82	2398807	5.12	1.5290	
21600	22100	21850	21000	46879027	1643	7.82	2398807	5.12	1.5290	
21650	22150	21900	21000	46879027	1643	7.82	2398807	5.12	1.5290	
21700	22200	21950	21000	46879027	1621	7.72	2398829	5.12	1.5085	
21750	22250	22000	21000	46879027	1521	7.24	2398929	5.12	1.4154	
21800	22300	22050	21000	46879027	1421	6.77	2399029	5.12	1.3223	
21850	22350	22100	21000	46879027	1333	6.35	2399117	5.12	1.2403	
21900	22400	22150	21000	46879027	1283	6.11	2399167	5.12	1.1938	
21950	22450	22200	21000	46879027	1233	5.87	2399217	5.12	1.1472	
22000	22500	22250	21000	46879027	1183	5.63	2399267	5.12	1.1007	
22050	22550	22300	21000	46879027	1133	5.40	2399317	5.12	1.0541	
22100	22600	22350	21000	46879027	1083	5.16	2399367	5.12	1.0076	
22150	22650	22400	21000	46879027	1033	4.92	2399417	5.12	0.9611	
22200	22700	22450	21000	46879027	1000	4.76	2399450	5.12	0.9304	
22250	22750	22500	21000	46879027	1000	4.76	2399450	5.12	0.9304	
22300	22800	22550	21000	46879027	1000	4.76	2399450	5.12	0.9304	
22350	22850	22600	21000	46879027	1000	4.76	2399450	5.12	0.9304	
22400	22900	22650	21000	46879027	1000	4.76	2399450	5.12	0.9304	
22450	22950	22700	21000	46879027	1000	4.76	2399450	5.12	0.9304	
22500	23000	22750	21000	46879027	1000	4.76	2399450	5.12	0.9304	
22550	23050	22800	21000	46879027	1000	4.76	2399450	5.12	0.9304	
22600	23100	22850	21000	46879027	1000	4.76	2399450	5.12	0.9304	
22650	23150	22900	21000	46879027	1000	4.76	2399450	5.12	0.9304	
22700	23200	22950	21000	46879027	1000	4.76	2399450	5.12	0.9304	
22750	23250	23000	21000	46879027	1000	4.76	2399450	5.12	0.9304	
22800	23300	23050	21000	46879027	1000	4.76	2399450	5.12	0.9304	
22850	23350	23100	21000	46879027	1000	4.76	2399450	5.12	0.9304	
22900	23400	23150	21000	46879027	1000	4.76	2399450	5.12	0.9304	
22950	23450	23200	21000	46879027	1000	4.76	2399450	5.12	0.9304	
23000	23500	23250	21000	46879027	1000	4.76	2399450	5.12	0.9304	
23050	23550	23300	21000	46879027	1000	4.76	2399450	5.12	0.9304	
23100	23600	23350	21000	46879027	1000	4.76	2399450	5.12	0.9304	
23150	23650	23400	21000	46879027	1000	4.76	2399450	5.12	0.9304	
23200	23700	23450	21000	46879027	1000	4.76	2399450	5.12	0.9304	
23250	23750	23500	21000	46879027	1000	4.76	2399450	5.12	0.9304	
23300	23800	23550	21000	46879027	1000	4.76	2399450	5.12	0.9304	
23350	23850	23600	21000	46879027	1000	4.76	2399450	5.12	0.9304	
23400	23900	23650	21000	46879027	1045	4.98	2399405	5.12	0.9722	
23450	23950	23700	21000	46879027	1095	5.21	2399355	5.12	1.0188	
23500	24000	23750	21000	46879027	1156	5.50	2399294	5.12	1.0756	
23550	24050	23800	21000	46879027	1256	5.98	2399194	5.12	1.1686	
23600	24100	23850	21000	46879027	1356	6.46	2399094	5.12	1.2617	
23650	24150	23900	21000	46879027	1456	6.93	2398994	5.12	1.3549	
23700	24200	23950	21000	46879027	1556	7.41	2398894	5.12	1.4480	
23750	24250	24000	21000	46879027	1656	7.89	2398794	5.12	1.5411	
23800	24300	24050	21000	46879027	1756	8.36	2398694	5.12	1.6342	
23850	24350	24100	21000	46879027	1856	8.84	2398594	5.12	1.7274	
23900	24400	24150	21000	46879027	1911	9.10	2398539	5.12	1.7786	
23950	24450	24200	21000	46879027	1961	9.34	2398489	5.12	1.8252	
24000	24500	24250	21000	46879027	2000	9.52	2398450	5.12	1.8615	
24050	24550	24300	21000	46879027	2000	9.52	2398450	5.12	1.8615	
24100	24600	24350	21000	46879027	2000	9.52	2398450	5.12	1.8615	
24150	24650	24400	21000	46879027	2000	9.52	2398450	5.12	1.8615	
24200	24700	24450	21000	46879027	2000	9.52	2398450	5.12	1.8615	
24250	24750	24500	21000	46879027	1989	9.47	2398461	5.12	1.8512	
24300	24800	24550	21000	46879027	1939	9.23	2398511	5.12	1.8047	
24350	24850	24600	21000	46879027	1889	9.00	2398561	5.12	1.7581	
24400	24900	24650	21000	46879027	1839	8.76	2398611	5.12	1.7115	
24450	24950	24700	21000	46879027	1789	8.52	2398661	5.12	1.6649	
24500	25000	24750	21000	46879027	1772	8.44	2398678	5.12	1.6491	
