Start	End	Midpoint	Breakpoint_bp	Non_breakpoint_bp	Feature_bp_inside	%Inside	Feature_bp_outside	%Outside	Ratio
-25000	-24500	-24750	21000	46879027	1717	8.18	3454209	7.37	1.1096	
-24950	-24450	-24700	21000	46879027	1730	8.24	3454196	7.37	1.1180	
-24900	-24400	-24650	21000	46879027	1780	8.48	3454146	7.37	1.1504	
-24850	-24350	-24600	21000	46879027	1860	8.86	3454066	7.37	1.2021	
-24800	-24300	-24550	21000	46879027	1910	9.10	3454016	7.37	1.2344	
-24750	-24250	-24500	21000	46879027	1960	9.33	3453966	7.37	1.2668	
-24700	-24200	-24450	21000	46879027	2034	9.69	3453892	7.37	1.3146	
-24650	-24150	-24400	21000	46879027	2134	10.16	3453792	7.37	1.3793	
-24600	-24100	-24350	21000	46879027	2249	10.71	3453677	7.37	1.4537	
-24550	-24050	-24300	21000	46879027	2366	11.27	3453560	7.37	1.5294	
-24500	-24000	-24250	21000	46879027	2379	11.33	3453547	7.37	1.5378	
-24450	-23950	-24200	21000	46879027	2316	11.03	3453610	7.37	1.4970	
-24400	-23900	-24150	21000	46879027	2216	10.55	3453710	7.37	1.4323	
-24350	-23850	-24100	21000	46879027	2086	9.93	3453840	7.37	1.3483	
-24300	-23800	-24050	21000	46879027	1986	9.46	3453940	7.37	1.2836	
-24250	-23750	-24000	21000	46879027	1886	8.98	3454040	7.37	1.2189	
-24200	-23700	-23950	21000	46879027	1857	8.84	3454069	7.37	1.2002	
-24150	-23650	-23900	21000	46879027	1857	8.84	3454069	7.37	1.2002	
-24100	-23600	-23850	21000	46879027	1857	8.84	3454069	7.37	1.2002	
-24050	-23550	-23800	21000	46879027	1890	9.00	3454036	7.37	1.2215	
-24000	-23500	-23750	21000	46879027	2020	9.62	3453906	7.37	1.3056	
-23950	-23450	-23700	21000	46879027	2159	10.28	3453767	7.37	1.3955	
-23900	-23400	-23650	21000	46879027	2296	10.93	3453630	7.37	1.4841	
-23850	-23350	-23600	21000	46879027	2396	11.41	3453530	7.37	1.5488	
-23800	-23300	-23550	21000	46879027	2496	11.89	3453430	7.37	1.6134	
-23750	-23250	-23500	21000	46879027	2615	12.45	3453311	7.37	1.6904	
-23700	-23200	-23450	21000	46879027	2644	12.59	3453282	7.37	1.7092	
-23650	-23150	-23400	21000	46879027	2600	12.38	3453326	7.37	1.6807	
-23600	-23100	-23350	21000	46879027	2550	12.14	3453376	7.37	1.6484	
-23550	-23050	-23300	21000	46879027	2500	11.90	3453426	7.37	1.6160	
-23500	-23000	-23250	21000	46879027	2401	11.43	3453525	7.37	1.5520	
-23450	-22950	-23200	21000	46879027	2312	11.01	3453614	7.37	1.4944	
-23400	-22900	-23150	21000	46879027	2225	10.60	3453701	7.37	1.4382	
-23350	-22850	-23100	21000	46879027	2175	10.36	3453751	7.37	1.4058	
-23300	-22800	-23050	21000	46879027	2163	10.30	3453763	7.37	1.3981	
-23250	-22750	-23000	21000	46879027	2144	10.21	3453782	7.37	1.3858	
-23200	-22700	-22950	21000	46879027	2143	10.20	3453783	7.37	1.3851	
-23150	-22650	-22900	21000	46879027	2137	10.18	3453789	7.37	1.3812	
-23100	-22600	-22850	21000	46879027	2088	9.94	3453838	7.37	1.3495	
-23050	-22550	-22800	21000	46879027	2046	9.74	3453880	7.37	1.3224	
-23000	-22500	-22750	21000	46879027	2046	9.74	3453880	7.37	1.3224	
-22950	-22450	-22700	21000	46879027	2071	9.86	3453855	7.37	1.3386	
-22900	-22400	-22650	21000	46879027	2133	10.16	3453793	7.37	1.3786	
-22850	-22350	-22600	21000	46879027	2184	10.40	3453742	7.37	1.4116	
-22800	-22300	-22550	21000	46879027	2196	10.46	3453730	7.37	1.4194	
-22750	-22250	-22500	21000	46879027	2196	10.46	3453730	7.37	1.4194	
-22700	-22200	-22450	21000	46879027	2156	10.27	3453770	7.37	1.3935	
-22650	-22150	-22400	21000	46879027	2156	10.27	3453770	7.37	1.3935	
-22600	-22100	-22350	21000	46879027	2205	10.50	3453721	7.37	1.4252	
-22550	-22050	-22300	21000	46879027	2247	10.70	3453679	7.37	1.4524	
-22500	-22000	-22250	21000	46879027	2247	10.70	3453679	7.37	1.4524	
-22450	-21950	-22200	21000	46879027	2222	10.58	3453704	7.37	1.4362	
-22400	-21900	-22150	21000	46879027	2122	10.10	3453804	7.37	1.3715	
-22350	-21850	-22100	21000	46879027	2021	9.62	3453905	7.37	1.3062	
-22300	-21800	-22050	21000	46879027	1977	9.41	3453949	7.37	1.2778	
-22250	-21750	-22000	21000	46879027	1977	9.41	3453949	7.37	1.2778	
-22200	-21700	-21950	21000	46879027	1993	9.49	3453933	7.37	1.2881	
-22150	-21650	-21900	21000	46879027	1993	9.49	3453933	7.37	1.2881	
-22100	-21600	-21850	21000	46879027	2024	9.64	3453902	7.37	1.3082	
-22050	-21550	-21800	21000	46879027	2118	10.09	3453808	7.37	1.3689	
-22000	-21500	-21750	21000	46879027	2218	10.56	3453708	7.37	1.4336	
-21950	-21450	-21700	21000	46879027	2318	11.04	3453608	7.37	1.4983	
-21900	-21400	-21650	21000	46879027	2456	11.70	3453470	7.37	1.5876	
-21850	-21350	-21600	21000	46879027	2598	12.37	3453328	7.37	1.6794	
-21800	-21300	-21550	21000	46879027	2653	12.63	3453273	7.37	1.7150	
-21750	-21250	-21500	21000	46879027	2703	12.87	3453223	7.37	1.7474	
-21700	-21200	-21450	21000	46879027	2817	13.41	3453109	7.37	1.8211	
-21650	-21150	-21400	21000	46879027	3017	14.37	3452909	7.37	1.9505	
-21600	-21100	-21350	21000	46879027	3186	15.17	3452740	7.37	2.0599	
-21550	-21050	-21300	21000	46879027	3257	15.51	3452669	7.37	2.1058	
-21500	-21000	-21250	21000	46879027	3307	15.75	3452619	7.36	2.1382	
-21450	-20950	-21200	21000	46879027	3357	15.99	3452569	7.36	2.1705	
-21400	-20900	-21150	21000	46879027	3386	16.12	3452540	7.36	2.1893	
-21350	-20850	-21100	21000	46879027	3363	16.01	3452563	7.36	2.1744	
-21300	-20800	-21050	21000	46879027	3352	15.96	3452574	7.36	2.1673	
-21250	-20750	-21000	21000	46879027	3302	15.72	3452624	7.36	2.1349	
-21200	-20700	-20950	21000	46879027	3248	15.47	3452678	7.37	2.1000	
-21150	-20650	-20900	21000	46879027	3148	14.99	3452778	7.37	2.0353	
-21100	-20600	-20850	21000	46879027	3048	14.51	3452878	7.37	1.9706	
-21050	-20550	-20800	21000	46879027	2983	14.20	3452943	7.37	1.9285	
-21000	-20500	-20750	21000	46879027	2933	13.97	3452993	7.37	1.8962	
-20950	-20450	-20700	21000	46879027	2883	13.73	3453043	7.37	1.8638	
-20900	-20400	-20650	21000	46879027	2854	13.59	3453072	7.37	1.8450	
-20850	-20350	-20600	21000	46879027	2885	13.74	3453041	7.37	1.8651	
-20800	-20300	-20550	21000	46879027	2923	13.92	3453003	7.37	1.8897	
-20750	-20250	-20500	21000	46879027	2923	13.92	3453003	7.37	1.8897	
-20700	-20200	-20450	21000	46879027	2888	13.75	3453038	7.37	1.8670	
-20650	-20150	-20400	21000	46879027	2800	13.33	3453126	7.37	1.8101	
-20600	-20100	-20350	21000	46879027	2700	12.86	3453226	7.37	1.7454	
-20550	-20050	-20300	21000	46879027	2600	12.38	3453326	7.37	1.6807	
-20500	-20000	-20250	21000	46879027	2500	11.90	3453426	7.37	1.6160	
-20450	-19950	-20200	21000	46879027	2400	11.43	3453526	7.37	1.5513	
-20400	-19900	-20150	21000	46879027	2300	10.95	3453626	7.37	1.4867	
-20350	-19850	-20100	21000	46879027	2200	10.48	3453726	7.37	1.4220	
-20300	-19800	-20050	21000	46879027	2112	10.06	3453814	7.37	1.3651	
-20250	-19750	-20000	21000	46879027	2062	9.82	3453864	7.37	1.3327	
-20200	-19700	-19950	21000	46879027	2012	9.58	3453914	7.37	1.3004	
-20150	-19650	-19900	21000	46879027	1954	9.30	3453972	7.37	1.2629	
-20100	-19600	-19850	21000	46879027	1854	8.83	3454072	7.37	1.1982	
-20050	-19550	-19800	21000	46879027	1798	8.56	3454128	7.37	1.1620	
-20000	-19500	-19750	21000	46879027	1748	8.32	3454178	7.37	1.1297	
-19950	-19450	-19700	21000	46879027	1698	8.09	3454228	7.37	1.0974	
-19900	-19400	-19650	21000	46879027	1647	7.84	3454279	7.37	1.0644	
-19850	-19350	-19600	21000	46879027	1547	7.37	3454379	7.37	0.9997	
-19800	-19300	-19550	21000	46879027	1447	6.89	3454479	7.37	0.9351	
-19750	-19250	-19500	21000	46879027	1347	6.41	3454579	7.37	0.8704	
-19700	-19200	-19450	21000	46879027	1277	6.08	3454649	7.37	0.8252	
-19650	-19150	-19400	21000	46879027	1322	6.30	3454604	7.37	0.8543	
-19600	-19100	-19350	21000	46879027	1422	6.77	3454504	7.37	0.9189	
-19550	-19050	-19300	21000	46879027	1501	7.15	3454425	7.37	0.9700	
-19500	-19000	-19250	21000	46879027	1557	7.41	3454369	7.37	1.0062	
-19450	-18950	-19200	21000	46879027	1631	7.77	3454295	7.37	1.0540	
-19400	-18900	-19150	21000	46879027	1732	8.25	3454194	7.37	1.1193	
-19350	-18850	-19100	21000	46879027	1927	9.18	3453999	7.37	1.2454	
-19300	-18800	-19050	21000	46879027	2127	10.13	3453799	7.37	1.3748	
-19250	-18750	-19000	21000	46879027	2327	11.08	3453599	7.37	1.5041	
-19200	-18700	-18950	21000	46879027	2497	11.89	3453429	7.37	1.6141	
-19150	-18650	-18900	21000	46879027	2598	12.37	3453328	7.37	1.6794	
-19100	-18600	-18850	21000	46879027	2698	12.85	3453228	7.37	1.7441	
-19050	-18550	-18800	21000	46879027	2775	13.21	3453151	7.37	1.7939	
-19000	-18500	-18750	21000	46879027	2845	13.55	3453081	7.37	1.8392	
-18950	-18450	-18700	21000	46879027	2871	13.67	3453055	7.37	1.8560	
-18900	-18400	-18650	21000	46879027	2822	13.44	3453104	7.37	1.8243	
-18850	-18350	-18600	21000	46879027	2727	12.99	3453199	7.37	1.7629	
-18800	-18300	-18550	21000	46879027	2604	12.40	3453322	7.37	1.6833	
-18750	-18250	-18500	21000	46879027	2454	11.69	3453472	7.37	1.5863	
-18700	-18200	-18450	21000	46879027	2304	10.97	3453622	7.37	1.4892	
-18650	-18150	-18400	21000	46879027	2226	10.60	3453700	7.37	1.4388	
-18600	-18100	-18350	21000	46879027	2176	10.36	3453750	7.37	1.4065	
-18550	-18050	-18300	21000	46879027	2126	10.12	3453800	7.37	1.3741	
-18500	-18000	-18250	21000	46879027	2100	10.00	3453826	7.37	1.3573	
-18450	-17950	-18200	21000	46879027	2124	10.11	3453802	7.37	1.3728	
-18400	-17900	-18150	21000	46879027	2223	10.59	3453703	7.37	1.4369	
-18350	-17850	-18100	21000	46879027	2293	10.92	3453633	7.37	1.4821	
-18300	-17800	-18050	21000	46879027	2366	11.27	3453560	7.37	1.5294	
-18250	-17750	-18000	21000	46879027	2467	11.75	3453459	7.37	1.5947	
-18200	-17700	-17950	21000	46879027	2617	12.46	3453309	7.37	1.6917	
-18150	-17650	-17900	21000	46879027	2695	12.83	3453231	7.37	1.7422	
-18100	-17600	-17850	21000	46879027	2745	13.07	3453181	7.37	1.7745	
-18050	-17550	-17800	21000	46879027	2795	13.31	3453131	7.37	1.8069	
-18000	-17500	-17750	21000	46879027	2845	13.55	3453081	7.37	1.8392	
-17950	-17450	-17700	21000	46879027	2871	13.67	3453055	7.37	1.8560	
-17900	-17400	-17650	21000	46879027	2830	13.48	3453096	7.37	1.8295	
-17850	-17350	-17600	21000	46879027	2810	13.38	3453116	7.37	1.8166	
-17800	-17300	-17550	21000	46879027	2810	13.38	3453116	7.37	1.8166	
-17750	-17250	-17500	21000	46879027	2778	13.23	3453148	7.37	1.7959	
-17700	-17200	-17450	21000	46879027	2678	12.75	3453248	7.37	1.7312	
-17650	-17150	-17400	21000	46879027	2534	12.07	3453392	7.37	1.6380	
-17600	-17100	-17350	21000	46879027	2384	11.35	3453542	7.37	1.5410	
-17550	-17050	-17300	21000	46879027	2234	10.64	3453692	7.37	1.4440	
-17500	-17000	-17250	21000	46879027	2084	9.92	3453842	7.37	1.3470	
-17450	-16950	-17200	21000	46879027	1934	9.21	3453992	7.37	1.2500	
-17400	-16900	-17150	21000	46879027	1825	8.69	3454101	7.37	1.1795	
-17350	-16850	-17100	21000	46879027	1725	8.21	3454201	7.37	1.1148	
-17300	-16800	-17050	21000	46879027	1625	7.74	3454301	7.37	1.0502	
-17250	-16750	-17000	21000	46879027	1511	7.20	3454415	7.37	0.9764	
-17200	-16700	-16950	21000	46879027	1431	6.81	3454495	7.37	0.9247	
-17150	-16650	-16900	21000	46879027	1375	6.55	3454551	7.37	0.8885	
-17100	-16600	-16850	21000	46879027	1325	6.31	3454601	7.37	0.8562	
-17050	-16550	-16800	21000	46879027	1283	6.11	3454643	7.37	0.8291	
-17000	-16500	-16750	21000	46879027	1332	6.34	3454594	7.37	0.8607	
-16950	-16450	-16700	21000	46879027	1382	6.58	3454544	7.37	0.8931	
-16900	-16400	-16650	21000	46879027	1432	6.82	3454494	7.37	0.9254	
-16850	-16350	-16600	21000	46879027	1482	7.06	3454444	7.37	0.9577	
-16800	-16300	-16550	21000	46879027	1532	7.30	3454394	7.37	0.9900	
-16750	-16250	-16500	21000	46879027	1606	7.65	3454320	7.37	1.0379	
-16700	-16200	-16450	21000	46879027	1636	7.79	3454290	7.37	1.0573	
-16650	-16150	-16400	21000	46879027	1662	7.91	3454264	7.37	1.0741	
-16600	-16100	-16350	21000	46879027	1662	7.91	3454264	7.37	1.0741	
-16550	-16050	-16300	21000	46879027	1671	7.96	3454255	7.37	1.0799	
-16500	-16000	-16250	21000	46879027	1660	7.90	3454266	7.37	1.0728	
-16450	-15950	-16200	21000	46879027	1660	7.90	3454266	7.37	1.0728	
-16400	-15900	-16150	21000	46879027	1660	7.90	3454266	7.37	1.0728	
-16350	-15850	-16100	21000	46879027	1678	7.99	3454248	7.37	1.0844	
-16300	-15800	-16050	21000	46879027	1728	8.23	3454198	7.37	1.1167	
-16250	-15750	-16000	21000	46879027	1799	8.57	3454127	7.37	1.1627	
-16200	-15700	-15950	21000	46879027	1899	9.04	3454027	7.37	1.2273	
-16150	-15650	-15900	21000	46879027	2023	9.63	3453903	7.37	1.3075	
-16100	-15600	-15850	21000	46879027	2204	10.50	3453722	7.37	1.4246	
-16050	-15550	-15800	21000	46879027	2426	11.55	3453500	7.37	1.5682	
-16000	-15500	-15750	21000	46879027	2601	12.39	3453325	7.37	1.6814	
-15950	-15450	-15700	21000	46879027	2734	13.02	3453192	7.37	1.7674	
-15900	-15400	-15650	21000	46879027	2796	13.31	3453130	7.37	1.8075	
-15850	-15350	-15600	21000	46879027	2828	13.47	3453098	7.37	1.8282	
-15800	-15300	-15550	21000	46879027	2779	13.23	3453147	7.37	1.7965	
-15750	-15250	-15500	21000	46879027	2774	13.21	3453152	7.37	1.7933	
-15700	-15200	-15450	21000	46879027	2774	13.21	3453152	7.37	1.7933	
-15650	-15150	-15400	21000	46879027	2804	13.35	3453122	7.37	1.8127	
-15600	-15100	-15350	21000	46879027	2805	13.36	3453121	7.37	1.8133	
-15550	-15050	-15300	21000	46879027	2740	13.05	3453186	7.37	1.7713	
-15500	-15000	-15250	21000	46879027	2677	12.75	3453249	7.37	1.7305	
-15450	-14950	-15200	21000	46879027	2644	12.59	3453282	7.37	1.7092	
-15400	-14900	-15150	21000	46879027	2682	12.77	3453244	7.37	1.7338	
-15350	-14850	-15100	21000	46879027	2732	13.01	3453194	7.37	1.7661	
-15300	-14800	-15050	21000	46879027	2831	13.48	3453095	7.37	1.8302	
-15250	-14750	-15000	21000	46879027	2886	13.74	3453040	7.37	1.8658	
-15200	-14700	-14950	21000	46879027	2936	13.98	3452990	7.37	1.8981	
-15150	-14650	-14900	21000	46879027	2917	13.89	3453009	7.37	1.8858	
-15100	-14600	-14850	21000	46879027	2885	13.74	3453041	7.37	1.8651	
-15050	-14550	-14800	21000	46879027	2830	13.48	3453096	7.37	1.8295	
-15000	-14500	-14750	21000	46879027	2774	13.21	3453152	7.37	1.7933	
-14950	-14450	-14700	21000	46879027	2700	12.86	3453226	7.37	1.7454	
-14900	-14400	-14650	21000	46879027	2600	12.38	3453326	7.37	1.6807	
-14850	-14350	-14600	21000	46879027	2500	11.90	3453426	7.37	1.6160	
-14800	-14300	-14550	21000	46879027	2379	11.33	3453547	7.37	1.5378	
-14750	-14250	-14500	21000	46879027	2199	10.47	3453727	7.37	1.4213	
-14700	-14200	-14450	21000	46879027	2048	9.75	3453878	7.37	1.3237	
-14650	-14150	-14400	21000	46879027	1937	9.22	3453989	7.37	1.2519	
-14600	-14100	-14350	21000	46879027	1837	8.75	3454089	7.37	1.1872	
-14550	-14050	-14300	21000	46879027	1723	8.20	3454203	7.37	1.1135	
-14500	-14000	-14250	21000	46879027	1579	7.52	3454347	7.37	1.0204	
-14450	-13950	-14200	21000	46879027	1453	6.92	3454473	7.37	0.9390	
-14400	-13900	-14150	21000	46879027	1353	6.44	3454573	7.37	0.8743	
-14350	-13850	-14100	21000	46879027	1253	5.97	3454673	7.37	0.8097	
-14300	-13800	-14050	21000	46879027	1174	5.59	3454752	7.37	0.7586	
-14250	-13750	-14000	21000	46879027	1154	5.50	3454772	7.37	0.7457	
-14200	-13700	-13950	21000	46879027	1115	5.31	3454811	7.37	0.7205	
-14150	-13650	-13900	21000	46879027	1115	5.31	3454811	7.37	0.7205	
-14100	-13600	-13850	21000	46879027	1130	5.38	3454796	7.37	0.7302	
-14050	-13550	-13800	21000	46879027	1225	5.83	3454701	7.37	0.7916	
-14000	-13500	-13750	21000	46879027	1325	6.31	3454601	7.37	0.8562	
-13950	-13450	-13700	21000	46879027	1425	6.79	3454501	7.37	0.9208	
-13900	-13400	-13650	21000	46879027	1525	7.26	3454401	7.37	0.9855	
-13850	-13350	-13600	21000	46879027	1625	7.74	3454301	7.37	1.0502	
-13800	-13300	-13550	21000	46879027	1681	8.00	3454245	7.37	1.0864	
-13750	-13250	-13500	21000	46879027	1758	8.37	3454168	7.37	1.1361	
-13700	-13200	-13450	21000	46879027	1848	8.80	3454078	7.37	1.1943	
-13650	-13150	-13400	21000	46879027	1887	8.99	3454039	7.37	1.2196	
-13600	-13100	-13350	21000	46879027	1922	9.15	3454004	7.37	1.2422	
-13550	-13050	-13300	21000	46879027	1963	9.35	3453963	7.37	1.2687	
-13500	-13000	-13250	21000	46879027	2037	9.70	3453889	7.37	1.3166	
-13450	-12950	-13200	21000	46879027	2137	10.18	3453789	7.37	1.3812	
-13400	-12900	-13150	21000	46879027	2272	10.82	3453654	7.37	1.4686	
-13350	-12850	-13100	21000	46879027	2422	11.53	3453504	7.37	1.5656	
-13300	-12800	-13050	21000	46879027	2609	12.42	3453317	7.37	1.6865	
-13250	-12750	-13000	21000	46879027	2782	13.25	3453144	7.37	1.7985	
-13200	-12700	-12950	21000	46879027	2932	13.96	3452994	7.37	1.8955	
-13150	-12650	-12900	21000	46879027	3093	14.73	3452833	7.37	1.9997	
-13100	-12600	-12850	21000	46879027	3243	15.44	3452683	7.37	2.0968	
-13050	-12550	-12800	21000	46879027	3352	15.96	3452574	7.36	2.1673	
-13000	-12500	-12750	21000	46879027	3428	16.32	3452498	7.36	2.2165	
-12950	-12450	-12700	21000	46879027	3478	16.56	3452448	7.36	2.2489	
-12900	-12400	-12650	21000	46879027	3493	16.63	3452433	7.36	2.2586	
-12850	-12350	-12600	21000	46879027	3466	16.50	3452460	7.36	2.2411	
-12800	-12300	-12550	21000	46879027	3423	16.30	3452503	7.36	2.2133	
-12750	-12250	-12500	21000	46879027	3335	15.88	3452591	7.36	2.1563	
-12700	-12200	-12450	21000	46879027	3260	15.52	3452666	7.37	2.1078	
-12650	-12150	-12400	21000	46879027	3210	15.29	3452716	7.37	2.0754	
-12600	-12100	-12350	21000	46879027	3160	15.05	3452766	7.37	2.0431	
-12550	-12050	-12300	21000	46879027	3110	14.81	3452816	7.37	2.0107	
-12500	-12000	-12250	21000	46879027	3060	14.57	3452866	7.37	1.9783	
-12450	-11950	-12200	21000	46879027	3035	14.45	3452891	7.37	1.9622	
-12400	-11900	-12150	21000	46879027	2985	14.21	3452941	7.37	1.9298	
-12350	-11850	-12100	21000	46879027	2921	13.91	3453005	7.37	1.8884	
-12300	-11800	-12050	21000	46879027	2871	13.67	3453055	7.37	1.8560	
-12250	-11750	-12000	21000	46879027	2859	13.61	3453067	7.37	1.8483	
-12200	-11700	-11950	21000	46879027	2834	13.50	3453092	7.37	1.8321	
-12150	-11650	-11900	21000	46879027	2784	13.26	3453142	7.37	1.7998	
-12100	-11600	-11850	21000	46879027	2739	13.04	3453187	7.37	1.7706	
-12050	-11550	-11800	21000	46879027	2704	12.88	3453222	7.37	1.7480	
-12000	-11500	-11750	21000	46879027	2654	12.64	3453272	7.37	1.7157	
-11950	-11450	-11700	21000	46879027	2609	12.42	3453317	7.37	1.6865	
-11900	-11400	-11650	21000	46879027	2559	12.19	3453367	7.37	1.6542	
-11850	-11350	-11600	21000	46879027	2550	12.14	3453376	7.37	1.6484	
-11800	-11300	-11550	21000	46879027	2550	12.14	3453376	7.37	1.6484	
-11750	-11250	-11500	21000	46879027	2550	12.14	3453376	7.37	1.6484	
-11700	-11200	-11450	21000	46879027	2591	12.34	3453335	7.37	1.6749	
-11650	-11150	-11400	21000	46879027	2641	12.58	3453285	7.37	1.7072	
-11600	-11100	-11350	21000	46879027	2697	12.84	3453229	7.37	1.7435	
-11550	-11050	-11300	21000	46879027	2782	13.25	3453144	7.37	1.7985	
-11500	-11000	-11250	21000	46879027	2857	13.60	3453069	7.37	1.8470	
-11450	-10950	-11200	21000	46879027	2926	13.93	3453000	7.37	1.8916	
-11400	-10900	-11150	21000	46879027	2983	14.20	3452943	7.37	1.9285	
-11350	-10850	-11100	21000	46879027	3083	14.68	3452843	7.37	1.9932	
-11300	-10800	-11050	21000	46879027	3183	15.16	3452743	7.37	2.0579	
-11250	-10750	-11000	21000	46879027	3283	15.63	3452643	7.37	2.1227	
-11200	-10700	-10950	21000	46879027	3342	15.91	3452584	7.36	2.1608	
-11150	-10650	-10900	21000	46879027	3392	16.15	3452534	7.36	2.1932	
-11100	-10600	-10850	21000	46879027	3431	16.34	3452495	7.36	2.2184	
-11050	-10550	-10800	21000	46879027	3393	16.16	3452533	7.36	2.1938	
-11000	-10500	-10750	21000	46879027	3338	15.90	3452588	7.36	2.1582	
-10950	-10450	-10700	21000	46879027	3183	15.16	3452743	7.37	2.0579	
-10900	-10400	-10650	21000	46879027	3027	14.41	3452899	7.37	1.9570	
-10850	-10350	-10600	21000	46879027	2877	13.70	3453049	7.37	1.8599	
-10800	-10300	-10550	21000	46879027	2772	13.20	3453154	7.37	1.7920	
-10750	-10250	-10500	21000	46879027	2699	12.85	3453227	7.37	1.7448	
-10700	-10200	-10450	21000	46879027	2649	12.61	3453277	7.37	1.7124	
-10650	-10150	-10400	21000	46879027	2599	12.38	3453327	7.37	1.6801	
-10600	-10100	-10350	21000	46879027	2576	12.27	3453350	7.37	1.6652	
-10550	-10050	-10300	21000	46879027	2614	12.45	3453312	7.37	1.6898	
-10500	-10000	-10250	21000	46879027	2688	12.80	3453238	7.37	1.7376	
-10450	-9950	-10200	21000	46879027	2802	13.34	3453124	7.37	1.8114	
-10400	-9900	-10150	21000	46879027	2952	14.06	3452974	7.37	1.9085	
-10350	-9850	-10100	21000	46879027	3052	14.53	3452874	7.37	1.9732	
-10300	-9800	-10050	21000	46879027	3107	14.80	3452819	7.37	2.0088	
-10250	-9750	-10000	21000	46879027	3130	14.90	3452796	7.37	2.0236	
-10200	-9700	-9950	21000	46879027	3130	14.90	3452796	7.37	2.0236	
-10150	-9650	-9900	21000	46879027	3135	14.93	3452791	7.37	2.0269	
-10100	-9600	-9850	21000	46879027	3158	15.04	3452768	7.37	2.0418	
-10050	-9550	-9800	21000	46879027	3158	15.04	3452768	7.37	2.0418	
-10000	-9500	-9750	21000	46879027	3212	15.30	3452714	7.37	2.0767	
-9950	-9450	-9700	21000	46879027	3254	15.50	3452672	7.37	2.1039	
-9900	-9400	-9650	21000	46879027	3303	15.73	3452623	7.36	2.1356	
-9850	-9350	-9600	21000	46879027	3353	15.97	3452573	7.36	2.1680	
-9800	-9300	-9550	21000	46879027	3372	16.06	3452554	7.36	2.1803	
-9750	-9250	-9500	21000	46879027	3327	15.84	3452599	7.36	2.1511	
-9700	-9200	-9450	21000	46879027	3277	15.60	3452649	7.37	2.1188	
-9650	-9150	-9400	21000	46879027	3222	15.34	3452704	7.37	2.0832	
-9600	-9100	-9350	21000	46879027	3122	14.87	3452804	7.37	2.0185	
-9550	-9050	-9300	21000	46879027	2995	14.26	3452931	7.37	1.9363	
-9500	-9000	-9250	21000	46879027	2797	13.32	3453129	7.37	1.8082	
-9450	-8950	-9200	21000	46879027	2676	12.74	3453250	7.37	1.7299	
-9400	-8900	-9150	21000	46879027	2603	12.40	3453323	7.37	1.6827	
-9350	-8850	-9100	21000	46879027	2603	12.40	3453323	7.37	1.6827	
-9300	-8800	-9050	21000	46879027	2672	12.72	3453254	7.37	1.7273	
-9250	-8750	-9000	21000	46879027	2896	13.79	3453030	7.37	1.8722	
-9200	-8700	-8950	21000	46879027	3146	14.98	3452780	7.37	2.0340	
-9150	-8650	-8900	21000	46879027	3396	16.17	3452530	7.36	2.1958	
-9100	-8600	-8850	21000	46879027	3630	17.29	3452296	7.36	2.3472	
-9050	-8550	-8800	21000	46879027	3907	18.60	3452019	7.36	2.5266	
-9000	-8500	-8750	21000	46879027	4207	20.03	3451719	7.36	2.7208	
-8950	-8450	-8700	21000	46879027	4478	21.32	3451448	7.36	2.8963	
-8900	-8400	-8650	21000	46879027	4701	22.39	3451225	7.36	3.0407	
-8850	-8350	-8600	21000	46879027	4850	23.10	3451076	7.36	3.1372	
-8800	-8300	-8550	21000	46879027	4962	23.63	3450964	7.36	3.2098	
-8750	-8250	-8500	21000	46879027	4983	23.73	3450943	7.36	3.2234	
-8700	-8200	-8450	21000	46879027	5022	23.91	3450904	7.36	3.2487	
-8650	-8150	-8400	21000	46879027	5064	24.11	3450862	7.36	3.2759	
-8600	-8100	-8350	21000	46879027	5080	24.19	3450846	7.36	3.2862	
-8550	-8050	-8300	21000	46879027	5042	24.01	3450884	7.36	3.2616	
-8500	-8000	-8250	21000	46879027	4973	23.68	3450953	7.36	3.2169	
-8450	-7950	-8200	21000	46879027	4961	23.62	3450965	7.36	3.2091	
-8400	-7900	-8150	21000	46879027	4957	23.60	3450969	7.36	3.2065	
-8350	-7850	-8100	21000	46879027	4908	23.37	3451018	7.36	3.1748	
-8300	-7800	-8050	21000	46879027	4858	23.13	3451068	7.36	3.1424	
-8250	-7750	-8000	21000	46879027	4852	23.10	3451074	7.36	3.1385	
-8200	-7700	-7950	21000	46879027	4810	22.90	3451116	7.36	3.1113	
-8150	-7650	-7900	21000	46879027	4759	22.66	3451167	7.36	3.0783	
-8100	-7600	-7850	21000	46879027	4759	22.66	3451167	7.36	3.0783	
-8050	-7550	-7800	21000	46879027	4797	22.84	3451129	7.36	3.1029	
-8000	-7500	-7750	21000	46879027	4866	23.17	3451060	7.36	3.1476	
-7950	-7450	-7700	21000	46879027	4878	23.23	3451048	7.36	3.1554	
-7900	-7400	-7650	21000	46879027	4849	23.09	3451077	7.36	3.1366	
-7850	-7350	-7600	21000	46879027	4898	23.32	3451028	7.36	3.1683	
-7800	-7300	-7550	21000	46879027	4909	23.38	3451017	7.36	3.1754	
-7750	-7250	-7500	21000	46879027	4830	23.00	3451096	7.36	3.1243	
-7700	-7200	-7450	21000	46879027	4733	22.54	3451193	7.36	3.0614	
-7650	-7150	-7400	21000	46879027	4692	22.34	3451234	7.36	3.0349	
-7600	-7100	-7350	21000	46879027	4661	22.20	3451265	7.36	3.0148	
-7550	-7050	-7300	21000	46879027	4611	21.96	3451315	7.36	2.9824	
-7500	-7000	-7250	21000	46879027	4517	21.51	3451409	7.36	2.9215	
-7450	-6950	-7200	21000	46879027	4461	21.24	3451465	7.36	2.8853	
-7400	-6900	-7150	21000	46879027	4406	20.98	3451520	7.36	2.8497	
-7350	-6850	-7100	21000	46879027	4298	20.47	3451628	7.36	2.7797	
-7300	-6800	-7050	21000	46879027	4236	20.17	3451690	7.36	2.7396	
-7250	-6750	-7000	21000	46879027	4171	19.86	3451755	7.36	2.6975	
-7200	-6700	-6950	21000	46879027	4121	19.62	3451805	7.36	2.6651	
-7150	-6650	-6900	21000	46879027	4070	19.38	3451856	7.36	2.6321	
-7100	-6600	-6850	21000	46879027	4001	19.05	3451925	7.36	2.5874	
-7050	-6550	-6800	21000	46879027	3951	18.81	3451975	7.36	2.5550	
-7000	-6500	-6750	21000	46879027	3945	18.79	3451981	7.36	2.5512	
-6950	-6450	-6700	21000	46879027	3852	18.34	3452074	7.36	2.4910	
-6900	-6400	-6650	21000	46879027	3828	18.23	3452098	7.36	2.4754	
-6850	-6350	-6600	21000	46879027	3845	18.31	3452081	7.36	2.4864	
-6800	-6300	-6550	21000	46879027	3896	18.55	3452030	7.36	2.5194	
-6750	-6250	-6500	21000	46879027	3946	18.79	3451980	7.36	2.5518	
-6700	-6200	-6450	21000	46879027	3947	18.80	3451979	7.36	2.5525	
-6650	-6150	-6400	21000	46879027	3848	18.32	3452078	7.36	2.4884	
-6600	-6100	-6350	21000	46879027	3748	17.85	3452178	7.36	2.4236	
-6550	-6050	-6300	21000	46879027	3648	17.37	3452278	7.36	2.3589	
-6500	-6000	-6250	21000	46879027	3571	17.00	3452355	7.36	2.3091	
-6450	-5950	-6200	21000	46879027	3570	17.00	3452356	7.36	2.3084	
-6400	-5900	-6150	21000	46879027	3488	16.61	3452438	7.36	2.2553	
-6350	-5850	-6100	21000	46879027	3380	16.10	3452546	7.36	2.1854	
-6300	-5800	-6050	21000	46879027	3177	15.13	3452749	7.37	2.0541	
-6250	-5750	-6000	21000	46879027	2977	14.18	3452949	7.37	1.9246	
-6200	-5700	-5950	21000	46879027	2785	13.26	3453141	7.37	1.8004	
-6150	-5650	-5900	21000	46879027	2635	12.55	3453291	7.37	1.7034	
-6100	-5600	-5850	21000	46879027	2478	11.80	3453448	7.37	1.6018	
-6050	-5550	-5800	21000	46879027	2328	11.09	3453598	7.37	1.5048	
-6000	-5500	-5750	21000	46879027	2256	10.74	3453670	7.37	1.4582	
-5950	-5450	-5700	21000	46879027	2206	10.50	3453720	7.37	1.4259	
-5900	-5400	-5650	21000	46879027	2200	10.48	3453726	7.37	1.4220	
-5850	-5350	-5600	21000	46879027	2225	10.60	3453701	7.37	1.4382	
-5800	-5300	-5550	21000	46879027	2328	11.09	3453598	7.37	1.5048	
-5750	-5250	-5500	21000	46879027	2489	11.85	3453437	7.37	1.6089	
-5700	-5200	-5450	21000	46879027	2730	13.00	3453196	7.37	1.7648	
-5650	-5150	-5400	21000	46879027	2980	14.19	3452946	7.37	1.9266	
-5600	-5100	-5350	21000	46879027	3237	15.41	3452689	7.37	2.0929	
-5550	-5050	-5300	21000	46879027	3487	16.60	3452439	7.36	2.2547	
-5500	-5000	-5250	20987	46879040	3623	17.26	3452303	7.36	2.3442	
-5450	-4950	-5200	20887	46879140	3623	17.35	3452303	7.36	2.3554	
-5400	-4900	-5150	20787	46879240	3623	17.43	3452303	7.36	2.3667	
-5350	-4850	-5100	20687	46879340	3598	17.39	3452328	7.36	2.3617	
-5300	-4800	-5050	20587	46879440	3548	17.23	3452378	7.36	2.3402	
-5250	-4750	-5000	20513	46879514	3513	17.13	3452413	7.36	2.3255	
-5200	-4700	-4950	20613	46879414	3612	17.52	3452314	7.36	2.3795	
-5150	-4650	-4900	20713	46879314	3662	17.68	3452264	7.36	2.4008	
-5100	-4600	-4850	20813	46879214	3674	17.65	3452252	7.36	2.3971	
-5050	-4550	-4800	20913	46879114	3674	17.57	3452252	7.36	2.3856	
-5000	-4500	-4750	21000	46879027	3650	17.38	3452276	7.36	2.3602	
-4950	-4450	-4700	21000	46879027	3437	16.37	3452489	7.36	2.2223	
-4900	-4400	-4650	21000	46879027	3212	15.30	3452714	7.37	2.0767	
-4850	-4350	-4600	21000	46879027	3012	14.34	3452914	7.37	1.9473	
-4800	-4300	-4550	21000	46879027	2787	13.27	3453139	7.37	1.8017	
-4750	-4250	-4500	21000	46879027	2537	12.08	3453389	7.37	1.6400	
-4700	-4200	-4450	21000	46879027	2300	10.95	3453626	7.37	1.4867	
-4650	-4150	-4400	21000	46879027	2100	10.00	3453826	7.37	1.3573	
-4600	-4100	-4350	21000	46879027	1965	9.36	3453961	7.37	1.2700	
-4550	-4050	-4300	21000	46879027	1865	8.88	3454061	7.37	1.2053	
-4500	-4000	-4250	21000	46879027	1825	8.69	3454101	7.37	1.1795	
-4450	-3950	-4200	21000	46879027	1900	9.05	3454026	7.37	1.2280	
-4400	-3900	-4150	21000	46879027	2025	9.64	3453901	7.37	1.3088	
-4350	-3850	-4100	21000	46879027	2125	10.12	3453801	7.37	1.3735	
-4300	-3800	-4050	21000	46879027	2253	10.73	3453673	7.37	1.4563	
-4250	-3750	-4000	21000	46879027	2453	11.68	3453473	7.37	1.5856	
-4200	-3700	-3950	21000	46879027	2665	12.69	3453261	7.37	1.7228	
-4150	-3650	-3900	21000	46879027	2915	13.88	3453011	7.37	1.8845	
-4100	-3600	-3850	21000	46879027	3138	14.94	3452788	7.37	2.0288	
-4050	-3550	-3800	21000	46879027	3338	15.90	3452588	7.36	2.1582	
-4000	-3500	-3750	21000	46879027	3464	16.50	3452462	7.36	2.2398	
-3950	-3450	-3700	21000	46879027	3517	16.75	3452409	7.36	2.2741	
-3900	-3400	-3650	21000	46879027	3517	16.75	3452409	7.36	2.2741	
-3850	-3350	-3600	21000	46879027	3517	16.75	3452409	7.36	2.2741	
-3800	-3300	-3550	21000	46879027	3525	16.79	3452401	7.36	2.2793	
-3750	-3250	-3500	21000	46879027	3525	16.79	3452401	7.36	2.2793	
-3700	-3200	-3450	21000	46879027	3501	16.67	3452425	7.36	2.2637	
-3650	-3150	-3400	21000	46879027	3451	16.43	3452475	7.36	2.2314	
-3600	-3100	-3350	21000	46879027	3401	16.20	3452525	7.36	2.1990	
-3550	-3050	-3300	21000	46879027	3324	15.83	3452602	7.36	2.1492	
-3500	-3000	-3250	21000	46879027	3249	15.47	3452677	7.37	2.1006	
-3450	-2950	-3200	21000	46879027	3272	15.58	3452654	7.37	2.1155	
-3400	-2900	-3150	21000	46879027	3322	15.82	3452604	7.36	2.1479	
-3350	-2850	-3100	21000	46879027	3372	16.06	3452554	7.36	2.1803	
-3300	-2800	-3050	21000	46879027	3362	16.01	3452564	7.36	2.1738	
-3250	-2750	-3000	21000	46879027	3309	15.76	3452617	7.36	2.1395	
-3200	-2700	-2950	21000	46879027	3209	15.28	3452717	7.37	2.0748	
-3150	-2650	-2900	21000	46879027	3109	14.80	3452817	7.37	2.0100	
-3100	-2600	-2850	21000	46879027	3009	14.33	3452917	7.37	1.9453	
-3050	-2550	-2800	21000	46879027	2936	13.98	3452990	7.37	1.8981	
-3000	-2500	-2750	21000	46879027	2886	13.74	3453040	7.37	1.8658	
-2950	-2450	-2700	21000	46879027	2786	13.27	3453140	7.37	1.8011	
-2900	-2400	-2650	21000	46879027	2636	12.55	3453290	7.37	1.7040	
-2850	-2350	-2600	21000	46879027	2486	11.84	3453440	7.37	1.6070	
-2800	-2300	-2550	21000	46879027	2385	11.36	3453541	7.37	1.5416	
-2750	-2250	-2500	21000	46879027	2288	10.90	3453638	7.37	1.4789	
-2700	-2200	-2450	20933	46879094	2238	10.69	3453688	7.37	1.4512	
-2650	-2150	-2400	20733	46879294	2142	10.33	3453784	7.37	1.4023	
-2600	-2100	-2350	20533	46879494	2081	10.13	3453845	7.37	1.3756	
-2550	-2050	-2300	20333	46879694	1943	9.56	3453983	7.37	1.2970	
-2500	-2000	-2250	20133	46879894	1801	8.95	3454125	7.37	1.2141	
-2450	-1950	-2200	20067	46879960	1744	8.69	3454182	7.37	1.1795	
-2400	-1900	-2150	20267	46879760	1744	8.61	3454182	7.37	1.1679	
-2350	-1850	-2100	20467	46879560	1754	8.57	3454172	7.37	1.1631	
-2300	-1800	-2050	20667	46879360	1853	8.97	3454073	7.37	1.2169	
-2250	-1750	-2000	20867	46879160	1953	9.36	3453973	7.37	1.2703	
-2200	-1700	-1950	21000	46879027	2053	9.78	3453873	7.37	1.3269	
-2150	-1650	-1900	21000	46879027	2240	10.67	3453686	7.37	1.4479	
-2100	-1600	-1850	20944	46879083	2401	11.46	3453525	7.37	1.5561	
-2050	-1550	-1800	20844	46879183	2677	12.84	3453249	7.37	1.7435	
-2000	-1500	-1750	20744	46879283	2969	14.31	3452957	7.37	1.9432	
-1950	-1450	-1700	20644	46879383	3188	15.44	3452738	7.37	2.0967	
-1900	-1400	-1650	20544	46879483	3429	16.69	3452497	7.36	2.2664	
-1850	-1350	-1600	20556	46879471	3619	17.61	3452307	7.36	2.3907	
-1800	-1300	-1550	20656	46879371	3700	17.91	3452226	7.36	2.4324	
-1750	-1250	-1500	20756	46879271	3800	18.31	3452126	7.36	2.4862	
-1700	-1200	-1450	20856	46879171	3900	18.70	3452026	7.36	2.5394	
-1650	-1150	-1400	20877	46879150	3974	19.04	3451952	7.36	2.5851	
-1600	-1100	-1350	20821	46879206	4040	19.40	3451886	7.36	2.6351	
-1550	-1050	-1300	20652	46879375	4052	19.62	3451874	7.36	2.6646	
-1500	-1000	-1250	20452	46879575	4091	20.00	3451835	7.36	2.7166	
-1450	-950	-1200	20252	46879775	4141	20.45	3451785	7.36	2.7770	
-1400	-900	-1150	20210	46879817	4259	21.07	3451667	7.36	2.8622	
-1350	-850	-1100	20210	46879817	4459	22.06	3451467	7.36	2.9968	
-1300	-800	-1050	20348	46879679	4738	23.28	3451188	7.36	3.1629	
-1250	-750	-1000	20548	46879479	4947	24.08	3450979	7.36	3.2705	
-1200	-700	-950	20748	46879279	5165	24.89	3450761	7.36	3.3819	
-1150	-650	-900	20869	46879158	5204	24.94	3450722	7.36	3.3877	
-1100	-600	-850	20969	46879058	5180	24.70	3450746	7.36	3.3560	
-1050	-550	-800	21000	46879027	5119	24.38	3450807	7.36	3.3115	
-1000	-500	-750	20982	46879045	4980	23.73	3450946	7.36	3.2242	
-950	-450	-700	20882	46879145	4837	23.16	3451089	7.36	3.1465	
-900	-400	-650	20782	46879245	4732	22.77	3451194	7.36	3.0929	
-850	-350	-600	20682	46879345	4582	22.15	3451344	7.36	3.0092	
-800	-300	-550	20582	46879445	4442	21.58	3451484	7.36	2.9313	
-750	-250	-500	20518	46879509	4333	21.12	3451593	7.36	2.8683	
-700	-200	-450	20618	46879409	4192	20.33	3451734	7.36	2.7613	
-650	-150	-400	20718	46879309	4069	19.64	3451857	7.36	2.6673	
-600	-100	-350	20818	46879209	3919	18.83	3452007	7.36	2.5565	
-550	-50	-300	20918	46879109	3777	18.06	3452149	7.36	2.4520	
-500	0	-250	22000	46878527	3677	16.71	3452249	7.36	2.2696	
-450	50	-200	21000	46879027	3570	17.00	3452356	7.36	2.3084	
-400	100	-150	21000	46879027	3474	16.54	3452452	7.36	2.2463	
-350	150	-100	21000	46879027	3459	16.47	3452467	7.36	2.2366	
-300	200	-50	21000	46879027	3459	16.47	3452467	7.36	2.2366	
-250	250	0	21000	46879027	3509	16.71	3452417	7.36	2.2689	
-200	300	50	21000	46879027	3605	17.17	3452321	7.36	2.3311	
-150	350	100	21000	46879027	3678	17.51	3452248	7.36	2.3783	
-100	400	150	21000	46879027	3778	17.99	3452148	7.36	2.4430	
-50	450	200	21000	46879027	3870	18.43	3452056	7.36	2.5026	
0	500	250	22000	46878027	3920	17.82	3452006	7.36	2.4197	
50	550	300	21000	46879027	3970	18.90	3451956	7.36	2.5673	
100	600	350	21000	46879027	3982	18.96	3451944	7.36	2.5751	
150	650	400	21000	46879027	3947	18.80	3451979	7.36	2.5525	
200	700	450	21000	46879027	3853	18.35	3452073	7.36	2.4916	
250	750	500	21000	46879027	3753	17.87	3452173	7.36	2.4269	
300	800	550	21000	46879027	3591	17.10	3452335	7.36	2.3220	
350	850	600	21000	46879027	3429	16.33	3452497	7.36	2.2171	
400	900	650	21000	46879027	3279	15.61	3452647	7.37	2.1201	
450	950	700	21000	46879027	3129	14.90	3452797	7.37	2.0230	
500	1000	750	21000	46879027	2979	14.19	3452947	7.37	1.9259	
550	1050	800	21000	46879027	2829	13.47	3453097	7.37	1.8289	
600	1100	850	21000	46879027	2766	13.17	3453160	7.37	1.7881	
650	1150	900	21000	46879027	2708	12.90	3453218	7.37	1.7506	
700	1200	950	21000	46879027	2629	12.52	3453297	7.37	1.6995	
750	1250	1000	21000	46879027	2529	12.04	3453397	7.37	1.6348	
800	1300	1050	21000	46879027	2468	11.75	3453458	7.37	1.5953	
850	1350	1100	21000	46879027	2383	11.35	3453543	7.37	1.5403	
900	1400	1150	21000	46879027	2283	10.87	3453643	7.37	1.4757	
950	1450	1200	21000	46879027	2183	10.40	3453743	7.37	1.4110	
1000	1500	1250	21000	46879027	2083	9.92	3453843	7.37	1.3463	
1050	1550	1300	21000	46879027	1983	9.44	3453943	7.37	1.2816	
1100	1600	1350	21000	46879027	1833	8.73	3454093	7.37	1.1846	
1150	1650	1400	21000	46879027	1641	7.81	3454285	7.37	1.0605	
1200	1700	1450	21000	46879027	1514	7.21	3454412	7.37	0.9784	
1250	1750	1500	21000	46879027	1414	6.73	3454512	7.37	0.9137	
1300	1800	1550	21000	46879027	1314	6.26	3454612	7.37	0.8491	
1350	1850	1600	21000	46879027	1249	5.95	3454677	7.37	0.8071	
1400	1900	1650	21000	46879027	1199	5.71	3454727	7.37	0.7748	
1450	1950	1700	21000	46879027	1149	5.47	3454777	7.37	0.7424	
1500	2000	1750	21000	46879027	1099	5.23	3454827	7.37	0.7101	
1550	2050	1800	21000	46879027	1049	5.00	3454877	7.37	0.6778	
1600	2100	1850	21000	46879027	1000	4.76	3454926	7.37	0.6461	
1650	2150	1900	21000	46879027	1000	4.76	3454926	7.37	0.6461	
1700	2200	1950	21000	46879027	1000	4.76	3454926	7.37	0.6461	
1750	2250	2000	21000	46879027	1000	4.76	3454926	7.37	0.6461	
1800	2300	2050	21000	46879027	1000	4.76	3454926	7.37	0.6461	
1850	2350	2100	21000	46879027	1041	4.96	3454885	7.37	0.6726	
1900	2400	2150	21000	46879027	1164	5.54	3454762	7.37	0.7521	
1950	2450	2200	21000	46879027	1290	6.14	3454636	7.37	0.8336	
2000	2500	2250	21000	46879027	1414	6.73	3454512	7.37	0.9137	
2050	2550	2300	21000	46879027	1607	7.65	3454319	7.37	1.0385	
2100	2600	2350	21000	46879027	1848	8.80	3454078	7.37	1.1943	
2150	2650	2400	21000	46879027	2098	9.99	3453828	7.37	1.3560	
2200	2700	2450	21000	46879027	2348	11.18	3453578	7.37	1.5177	
2250	2750	2500	21000	46879027	2598	12.37	3453328	7.37	1.6794	
2300	2800	2550	21000	46879027	2892	13.77	3453034	7.37	1.8696	
2350	2850	2600	21000	46879027	3151	15.00	3452775	7.37	2.0372	
2400	2900	2650	21000	46879027	3279	15.61	3452647	7.37	2.1201	
2450	2950	2700	21000	46879027	3403	16.20	3452523	7.36	2.2003	
2500	3000	2750	21000	46879027	3529	16.80	3452397	7.36	2.2819	
2550	3050	2800	21000	46879027	3586	17.08	3452340	7.36	2.3188	
2600	3100	2850	21000	46879027	3554	16.92	3452372	7.36	2.2980	
2650	3150	2900	21000	46879027	3454	16.45	3452472	7.36	2.2333	
2700	3200	2950	21000	46879027	3354	15.97	3452572	7.36	2.1686	
2750	3250	3000	21000	46879027	3254	15.50	3452672	7.37	2.1039	
2800	3300	3050	21000	46879027	3139	14.95	3452787	7.37	2.0295	
2850	3350	3100	21000	46879027	3039	14.47	3452887	7.37	1.9648	
2900	3400	3150	21000	46879027	2963	14.11	3452963	7.37	1.9156	
2950	3450	3200	21000	46879027	2881	13.72	3453045	7.37	1.8625	
3000	3500	3250	21000	46879027	2831	13.48	3453095	7.37	1.8302	
3050	3550	3300	21000	46879027	2781	13.24	3453145	7.37	1.7978	
3100	3600	3350	21000	46879027	2772	13.20	3453154	7.37	1.7920	
3150	3650	3400	21000	46879027	2820	13.43	3453106	7.37	1.8230	
3200	3700	3450	21000	46879027	2870	13.67	3453056	7.37	1.8554	
3250	3750	3500	21000	46879027	2920	13.90	3453006	7.37	1.8878	
3300	3800	3550	21000	46879027	2966	14.12	3452960	7.37	1.9175	
3350	3850	3600	21000	46879027	3016	14.36	3452910	7.37	1.9499	
3400	3900	3650	21000	46879027	3091	14.72	3452835	7.37	1.9984	
3450	3950	3700	21000	46879027	3173	15.11	3452753	7.37	2.0515	
3500	4000	3750	21000	46879027	3223	15.35	3452703	7.37	2.0838	
3550	4050	3800	21000	46879027	3273	15.59	3452653	7.37	2.1162	
3600	4100	3850	21000	46879027	3379	16.09	3452547	7.36	2.1848	
3650	4150	3900	21000	46879027	3531	16.81	3452395	7.36	2.2832	
3700	4200	3950	21000	46879027	3670	17.48	3452256	7.36	2.3731	
3750	4250	4000	21000	46879027	3770	17.95	3452156	7.36	2.4379	
3800	4300	4050	21000	46879027	3875	18.45	3452051	7.36	2.5058	
3850	4350	4100	21000	46879027	3925	18.69	3452001	7.36	2.5382	
3900	4400	4150	21000	46879027	3975	18.93	3451951	7.36	2.5706	
3950	4450	4200	21000	46879027	4025	19.17	3451901	7.36	2.6030	
4000	4500	4250	21000	46879027	4052	19.30	3451874	7.36	2.6204	
4050	4550	4300	21000	46879027	4052	19.30	3451874	7.36	2.6204	
4100	4600	4350	21000	46879027	3996	19.03	3451930	7.36	2.5842	
4150	4650	4400	21000	46879027	3896	18.55	3452030	7.36	2.5194	
4200	4700	4450	21000	46879027	3807	18.13	3452119	7.36	2.4618	
4250	4750	4500	21000	46879027	3757	17.89	3452169	7.36	2.4295	
4300	4800	4550	21000	46879027	3686	17.55	3452240	7.36	2.3835	
4350	4850	4600	21000	46879027	3572	17.01	3452354	7.36	2.3097	
4400	4900	4650	21000	46879027	3434	16.35	3452492	7.36	2.2204	
4450	4950	4700	21000	46879027	3334	15.88	3452592	7.36	2.1557	
4500	5000	4750	21000	46879027	3257	15.51	3452669	7.37	2.1058	
4550	5050	4800	21000	46879027	3207	15.27	3452719	7.37	2.0735	
4600	5100	4850	21000	46879027	3180	15.14	3452746	7.37	2.0560	
4650	5150	4900	21000	46879027	3275	15.60	3452651	7.37	2.1175	
4700	5200	4950	21000	46879027	3375	16.07	3452551	7.36	2.1822	
4750	5250	5000	21000	46879027	3518	16.75	3452408	7.36	2.2747	
4800	5300	5050	21000	46879027	3603	17.16	3452323	7.36	2.3298	
4850	5350	5100	21000	46879027	3644	17.35	3452282	7.36	2.3563	
4900	5400	5150	21000	46879027	3682	17.53	3452244	7.36	2.3809	
4950	5450	5200	21000	46879027	3682	17.53	3452244	7.36	2.3809	
5000	5500	5250	21000	46879027	3703	17.63	3452223	7.36	2.3945	
5050	5550	5300	21000	46879027	3715	17.69	3452211	7.36	2.4023	
5100	5600	5350	21000	46879027	3692	17.58	3452234	7.36	2.3874	
5150	5650	5400	21000	46879027	3580	17.05	3452346	7.36	2.3149	
5200	5700	5450	21000	46879027	3480	16.57	3452446	7.36	2.2502	
5250	5750	5500	21000	46879027	3361	16.00	3452565	7.36	2.1731	
5300	5800	5550	21000	46879027	3317	15.80	3452609	7.36	2.1447	
5350	5850	5600	21000	46879027	3390	16.14	3452536	7.36	2.1919	
5400	5900	5650	21000	46879027	3445	16.40	3452481	7.36	2.2275	
5450	5950	5700	21000	46879027	3495	16.64	3452431	7.36	2.2599	
5500	6000	5750	21000	46879027	3512	16.72	3452414	7.36	2.2709	
5550	6050	5800	21000	46879027	3550	16.90	3452376	7.36	2.2955	
5600	6100	5850	21000	46879027	3588	17.09	3452338	7.36	2.3201	
5650	6150	5900	21000	46879027	3555	16.93	3452371	7.36	2.2987	
5700	6200	5950	21000	46879027	3505	16.69	3452421	7.36	2.2663	
5750	6250	6000	21000	46879027	3459	16.47	3452467	7.36	2.2366	
5800	6300	6050	21000	46879027	3359	16.00	3452567	7.36	2.1718	
5850	6350	6100	21000	46879027	3259	15.52	3452667	7.37	2.1071	
5900	6400	6150	21000	46879027	3204	15.26	3452722	7.37	2.0715	
5950	6450	6200	21000	46879027	3154	15.02	3452772	7.37	2.0392	
6000	6500	6250	21000	46879027	3042	14.49	3452884	7.37	1.9667	
6050	6550	6300	21000	46879027	2892	13.77	3453034	7.37	1.8696	
6100	6600	6350	21000	46879027	2754	13.11	3453172	7.37	1.7803	
6150	6650	6400	21000	46879027	2654	12.64	3453272	7.37	1.7157	
6200	6700	6450	21000	46879027	2554	12.16	3453372	7.37	1.6510	
6250	6750	6500	21000	46879027	2426	11.55	3453500	7.37	1.5682	
6300	6800	6550	21000	46879027	2344	11.16	3453582	7.37	1.5151	
6350	6850	6600	21000	46879027	2294	10.92	3453632	7.37	1.4828	
6400	6900	6650	21000	46879027	2244	10.69	3453682	7.37	1.4504	
6450	6950	6700	21000	46879027	2194	10.45	3453732	7.37	1.4181	
6500	7000	6750	21000	46879027	2218	10.56	3453708	7.37	1.4336	
6550	7050	6800	21000	46879027	2225	10.60	3453701	7.37	1.4382	
6600	7100	6850	21000	46879027	2225	10.60	3453701	7.37	1.4382	
6650	7150	6900	21000	46879027	2225	10.60	3453701	7.37	1.4382	
6700	7200	6950	21000	46879027	2225	10.60	3453701	7.37	1.4382	
6750	7250	7000	21000	46879027	2281	10.86	3453645	7.37	1.4744	
6800	7300	7050	21000	46879027	2330	11.10	3453596	7.37	1.5061	
6850	7350	7100	21000	46879027	2330	11.10	3453596	7.37	1.5061	
6900	7400	7150	21000	46879027	2330	11.10	3453596	7.37	1.5061	
6950	7450	7200	21000	46879027	2330	11.10	3453596	7.37	1.5061	
7000	7500	7250	21000	46879027	2330	11.10	3453596	7.37	1.5061	
7050	7550	7300	21000	46879027	2373	11.30	3453553	7.37	1.5339	
7100	7600	7350	21000	46879027	2423	11.54	3453503	7.37	1.5662	
7150	7650	7400	21000	46879027	2473	11.78	3453453	7.37	1.5986	
7200	7700	7450	21000	46879027	2562	12.20	3453364	7.37	1.6561	
7250	7750	7500	21000	46879027	2606	12.41	3453320	7.37	1.6846	
7300	7800	7550	21000	46879027	2628	12.51	3453298	7.37	1.6988	
7350	7850	7600	21000	46879027	2628	12.51	3453298	7.37	1.6988	
7400	7900	7650	21000	46879027	2579	12.28	3453347	7.37	1.6671	
7450	7950	7700	21000	46879027	2559	12.19	3453367	7.37	1.6542	
7500	8000	7750	21000	46879027	2544	12.11	3453382	7.37	1.6445	
7550	8050	7800	21000	46879027	2494	11.88	3453432	7.37	1.6121	
7600	8100	7850	21000	46879027	2444	11.64	3453482	7.37	1.5798	
7650	8150	7900	21000	46879027	2394	11.40	3453532	7.37	1.5475	
7700	8200	7950	21000	46879027	2305	10.98	3453621	7.37	1.4899	
7750	8250	8000	21000	46879027	2205	10.50	3453721	7.37	1.4252	
7800	8300	8050	21000	46879027	2116	10.08	3453810	7.37	1.3677	
7850	8350	8100	21000	46879027	2101	10.00	3453825	7.37	1.3580	
7900	8400	8150	21000	46879027	2200	10.48	3453726	7.37	1.4220	
7950	8450	8200	21000	46879027	2270	10.81	3453656	7.37	1.4673	
8000	8500	8250	21000	46879027	2335	11.12	3453591	7.37	1.5093	
8050	8550	8300	21000	46879027	2435	11.60	3453491	7.37	1.5740	
8100	8600	8350	21000	46879027	2496	11.89	3453430	7.37	1.6134	
8150	8650	8400	21000	46879027	2546	12.12	3453380	7.37	1.6458	
8200	8700	8450	21000	46879027	2596	12.36	3453330	7.37	1.6781	
8250	8750	8500	21000	46879027	2646	12.60	3453280	7.37	1.7105	
8300	8800	8550	21000	46879027	2696	12.84	3453230	7.37	1.7428	
8350	8850	8600	21000	46879027	2681	12.77	3453245	7.37	1.7331	
8400	8900	8650	21000	46879027	2563	12.20	3453363	7.37	1.6568	
8450	8950	8700	21000	46879027	2405	11.45	3453521	7.37	1.5546	
8500	9000	8750	21000	46879027	2205	10.50	3453721	7.37	1.4252	
8550	9050	8800	21000	46879027	2005	9.55	3453921	7.37	1.2959	
8600	9100	8850	21000	46879027	1844	8.78	3454082	7.37	1.1918	
8650	9150	8900	21000	46879027	1694	8.07	3454232	7.37	1.0948	
8700	9200	8950	21000	46879027	1544	7.35	3454382	7.37	0.9978	
8750	9250	9000	21000	46879027	1402	6.68	3454524	7.37	0.9060	
8800	9300	9050	21000	46879027	1252	5.96	3454674	7.37	0.8090	
8850	9350	9100	21000	46879027	1132	5.39	3454794	7.37	0.7314	
8900	9400	9150	21000	46879027	1050	5.00	3454876	7.37	0.6784	
8950	9450	9200	21000	46879027	1008	4.80	3454918	7.37	0.6513	
9000	9500	9250	21000	46879027	1008	4.80	3454918	7.37	0.6513	
9050	9550	9300	21000	46879027	1046	4.98	3454880	7.37	0.6759	
9100	9600	9350	21000	46879027	1131	5.39	3454795	7.37	0.7308	
9150	9650	9400	21000	46879027	1231	5.86	3454695	7.37	0.7954	
9200	9700	9450	21000	46879027	1331	6.34	3454595	7.37	0.8601	
9250	9750	9500	21000	46879027	1423	6.78	3454503	7.37	0.9196	
9300	9800	9550	21000	46879027	1523	7.25	3454403	7.37	0.9842	
9350	9850	9600	21000	46879027	1667	7.94	3454259	7.37	1.0773	
9400	9900	9650	21000	46879027	1817	8.65	3454109	7.37	1.1743	
9450	9950	9700	21000	46879027	1967	9.37	3453959	7.37	1.2713	
9500	10000	9750	21000	46879027	2117	10.08	3453809	7.37	1.3683	
9550	10050	9800	21000	46879027	2272	10.82	3453654	7.37	1.4686	
9600	10100	9850	21000	46879027	2387	11.37	3453539	7.37	1.5429	
9650	10150	9900	21000	46879027	2499	11.90	3453427	7.37	1.6154	
9700	10200	9950	21000	46879027	2649	12.61	3453277	7.37	1.7124	
9750	10250	10000	21000	46879027	2799	13.33	3453127	7.37	1.8095	
9800	10300	10050	21000	46879027	2949	14.04	3452977	7.37	1.9065	
9850	10350	10100	21000	46879027	3055	14.55	3452871	7.37	1.9751	
9900	10400	10150	21000	46879027	3114	14.83	3452812	7.37	2.0133	
9950	10450	10200	21000	46879027	3085	14.69	3452841	7.37	1.9945	
10000	10500	10250	21000	46879027	3035	14.45	3452891	7.37	1.9622	
10050	10550	10300	21000	46879027	2942	14.01	3452984	7.37	1.9020	
10100	10600	10350	21000	46879027	2842	13.53	3453084	7.37	1.8373	
10150	10650	10400	21000	46879027	2730	13.00	3453196	7.37	1.7648	
10200	10700	10450	21000	46879027	2580	12.29	3453346	7.37	1.6678	
10250	10750	10500	21000	46879027	2484	11.83	3453442	7.37	1.6057	
10300	10800	10550	21000	46879027	2434	11.59	3453492	7.37	1.5733	
10350	10850	10600	21000	46879027	2384	11.35	3453542	7.37	1.5410	
10400	10900	10650	21000	46879027	2375	11.31	3453551	7.37	1.5352	
10450	10950	10700	21000	46879027	2499	11.90	3453427	7.37	1.6154	
10500	11000	10750	21000	46879027	2687	12.80	3453239	7.37	1.7370	
10550	11050	10800	21000	46879027	2887	13.75	3453039	7.37	1.8664	
10600	11100	10850	21000	46879027	3087	14.70	3452839	7.37	1.9958	
10650	11150	10900	21000	46879027	3287	15.65	3452639	7.36	2.1252	
10700	11200	10950	21000	46879027	3475	16.55	3452451	7.36	2.2469	
10750	11250	11000	21000	46879027	3528	16.80	3452398	7.36	2.2812	
10800	11300	11050	21000	46879027	3528	16.80	3452398	7.36	2.2812	
10850	11350	11100	21000	46879027	3463	16.49	3452463	7.36	2.2391	
10900	11400	11150	21000	46879027	3363	16.01	3452563	7.36	2.1744	
10950	11450	11200	21000	46879027	3218	15.32	3452708	7.37	2.0806	
11000	11500	11250	21000	46879027	3030	14.43	3452896	7.37	1.9589	
11050	11550	11300	21000	46879027	2879	13.71	3453047	7.37	1.8612	
11100	11600	11350	21000	46879027	2729	13.00	3453197	7.37	1.7642	
11150	11650	11400	21000	46879027	2579	12.28	3453347	7.37	1.6671	
11200	11700	11450	21000	46879027	2396	11.41	3453530	7.37	1.5488	
11250	11750	11500	21000	46879027	2289	10.90	3453637	7.37	1.4795	
11300	11800	11550	21000	46879027	2189	10.42	3453737	7.37	1.4149	
11350	11850	11600	21000	46879027	2119	10.09	3453807	7.37	1.3696	
11400	11900	11650	21000	46879027	2069	9.85	3453857	7.37	1.3373	
11450	11950	11700	21000	46879027	2068	9.85	3453858	7.37	1.3366	
11500	12000	11750	21000	46879027	2068	9.85	3453858	7.37	1.3366	
11550	12050	11800	21000	46879027	2019	9.61	3453907	7.37	1.3049	
11600	12100	11850	21000	46879027	1969	9.38	3453957	7.37	1.2726	
11650	12150	11900	21000	46879027	1919	9.14	3454007	7.37	1.2403	
11700	12200	11950	21000	46879027	1914	9.11	3454012	7.37	1.2370	
11750	12250	12000	21000	46879027	1914	9.11	3454012	7.37	1.2370	
11800	12300	12050	21000	46879027	1937	9.22	3453989	7.37	1.2519	
11850	12350	12100	21000	46879027	2022	9.63	3453904	7.37	1.3069	
11900	12400	12150	21000	46879027	2122	10.10	3453804	7.37	1.3715	
11950	12450	12200	21000	46879027	2124	10.11	3453802	7.37	1.3728	
12000	12500	12250	21000	46879027	2149	10.23	3453777	7.37	1.3890	
12050	12550	12300	21000	46879027	2172	10.34	3453754	7.37	1.4039	
12100	12600	12350	21000	46879027	2210	10.52	3453716	7.37	1.4284	
12150	12650	12400	21000	46879027	2304	10.97	3453622	7.37	1.4892	
12200	12700	12450	21000	46879027	2404	11.45	3453522	7.37	1.5539	
12250	12750	12500	21000	46879027	2504	11.92	3453422	7.37	1.6186	
12300	12800	12550	21000	46879027	2581	12.29	3453345	7.37	1.6684	
12350	12850	12600	21000	46879027	2643	12.59	3453283	7.37	1.7085	
12400	12900	12650	21000	46879027	2743	13.06	3453183	7.37	1.7732	
12450	12950	12700	21000	46879027	2892	13.77	3453034	7.37	1.8696	
12500	13000	12750	21000	46879027	2968	14.13	3452958	7.37	1.9188	
12550	13050	12800	21000	46879027	3045	14.50	3452881	7.37	1.9686	
12600	13100	12850	21000	46879027	3107	14.80	3452819	7.37	2.0088	
12650	13150	12900	21000	46879027	3113	14.82	3452813	7.37	2.0126	
12700	13200	12950	21000	46879027	3113	14.82	3452813	7.37	2.0126	
12750	13250	13000	21000	46879027	3075	14.64	3452851	7.37	1.9880	
12800	13300	13050	21000	46879027	3060	14.57	3452866	7.37	1.9783	
12850	13350	13100	21000	46879027	3036	14.46	3452890	7.37	1.9628	
12900	13400	13150	21000	46879027	2986	14.22	3452940	7.37	1.9305	
12950	13450	13200	21000	46879027	2936	13.98	3452990	7.37	1.8981	
13000	13500	13250	21000	46879027	2897	13.80	3453029	7.37	1.8729	
13050	13550	13300	21000	46879027	2778	13.23	3453148	7.37	1.7959	
13100	13600	13350	21000	46879027	2628	12.51	3453298	7.37	1.6988	
13150	13650	13400	21000	46879027	2478	11.80	3453448	7.37	1.6018	
13200	13700	13450	21000	46879027	2328	11.09	3453598	7.37	1.5048	
13250	13750	13500	21000	46879027	2204	10.50	3453722	7.37	1.4246	
13300	13800	13550	21000	46879027	2019	9.61	3453907	7.37	1.3049	
13350	13850	13600	21000	46879027	1831	8.72	3454095	7.37	1.1834	
13400	13900	13650	21000	46879027	1632	7.77	3454294	7.37	1.0547	
13450	13950	13700	21000	46879027	1482	7.06	3454444	7.37	0.9577	
13500	14000	13750	21000	46879027	1370	6.52	3454556	7.37	0.8853	
13550	14050	13800	21000	46879027	1339	6.38	3454587	7.37	0.8653	
13600	14100	13850	21000	46879027	1388	6.61	3454538	7.37	0.8969	
13650	14150	13900	21000	46879027	1438	6.85	3454488	7.37	0.9293	
13700	14200	13950	21000	46879027	1488	7.09	3454438	7.37	0.9616	
13750	14250	14000	21000	46879027	1550	7.38	3454376	7.37	1.0017	
13800	14300	14050	21000	46879027	1700	8.10	3454226	7.37	1.0986	
13850	14350	14100	21000	46879027	1850	8.81	3454076	7.37	1.1956	
13900	14400	14150	21000	46879027	1988	9.47	3453938	7.37	1.2849	
13950	14450	14200	21000	46879027	2038	9.70	3453888	7.37	1.3172	
14000	14500	14250	21000	46879027	2053	9.78	3453873	7.37	1.3269	
14050	14550	14300	21000	46879027	2053	9.78	3453873	7.37	1.3269	
14100	14600	14350	21000	46879027	2004	9.54	3453922	7.37	1.2952	
14150	14650	14400	21000	46879027	1953	9.30	3453973	7.37	1.2622	
14200	14700	14450	21000	46879027	1853	8.82	3454073	7.37	1.1976	
14250	14750	14500	21000	46879027	1753	8.35	3454173	7.37	1.1329	
14300	14800	14550	21000	46879027	1603	7.63	3454323	7.37	1.0359	
14350	14850	14600	21000	46879027	1453	6.92	3454473	7.37	0.9390	
14400	14900	14650	21000	46879027	1314	6.26	3454612	7.37	0.8491	
14450	14950	14700	21000	46879027	1214	5.78	3454712	7.37	0.7845	
14500	15000	14750	21000	46879027	1172	5.58	3454754	7.37	0.7573	
14550	15050	14800	21000	46879027	1172	5.58	3454754	7.37	0.7573	
14600	15100	14850	21000	46879027	1237	5.89	3454689	7.37	0.7993	
14650	15150	14900	21000	46879027	1338	6.37	3454588	7.37	0.8646	
14700	15200	14950	21000	46879027	1488	7.09	3454438	7.37	0.9616	
14750	15250	15000	21000	46879027	1687	8.03	3454239	7.37	1.0902	
14800	15300	15050	21000	46879027	1887	8.99	3454039	7.37	1.2196	
14850	15350	15100	21000	46879027	2087	9.94	3453839	7.37	1.3489	
14900	15400	15150	21000	46879027	2287	10.89	3453639	7.37	1.4783	
14950	15450	15200	21000	46879027	2487	11.84	3453439	7.37	1.6076	
15000	15500	15250	21000	46879027	2614	12.45	3453312	7.37	1.6898	
15050	15550	15300	21000	46879027	2714	12.92	3453212	7.37	1.7545	
15100	15600	15350	21000	46879027	2749	13.09	3453177	7.37	1.7771	
15150	15650	15400	21000	46879027	2755	13.12	3453171	7.37	1.7810	
15200	15700	15450	21000	46879027	2805	13.36	3453121	7.37	1.8133	
15250	15750	15500	21000	46879027	2806	13.36	3453120	7.37	1.8140	
15300	15800	15550	21000	46879027	2810	13.38	3453116	7.37	1.8166	
15350	15850	15600	21000	46879027	2822	13.44	3453104	7.37	1.8243	
15400	15900	15650	21000	46879027	2933	13.97	3452993	7.37	1.8962	
15450	15950	15700	21000	46879027	3121	14.86	3452805	7.37	2.0178	
15500	16000	15750	21000	46879027	3406	16.22	3452520	7.36	2.2023	
15550	16050	15800	21000	46879027	3706	17.65	3452220	7.36	2.3964	
15600	16100	15850	21000	46879027	4006	19.08	3451920	7.36	2.5907	
15650	16150	15900	21000	46879027	4251	20.24	3451675	7.36	2.7493	
15700	16200	15950	21000	46879027	4464	21.26	3451462	7.36	2.8872	
15750	16250	16000	21000	46879027	4714	22.45	3451212	7.36	3.0491	
15800	16300	16050	21000	46879027	4960	23.62	3450966	7.36	3.2085	
15850	16350	16100	21000	46879027	5153	24.54	3450773	7.36	3.3335	
15900	16400	16150	21000	46879027	5238	24.94	3450688	7.36	3.3886	
15950	16450	16200	21000	46879027	5212	24.82	3450714	7.36	3.3717	
16000	16500	16250	21000	46879027	5177	24.65	3450749	7.36	3.3491	
16050	16550	16300	21000	46879027	5139	24.47	3450787	7.36	3.3244	
16100	16600	16350	21000	46879027	5089	24.23	3450837	7.36	3.2921	
16150	16650	16400	21000	46879027	5126	24.41	3450800	7.36	3.3160	
16200	16700	16450	21000	46879027	5163	24.59	3450763	7.36	3.3400	
16250	16750	16500	21000	46879027	5163	24.59	3450763	7.36	3.3400	
16300	16800	16550	21000	46879027	5091	24.24	3450835	7.36	3.2934	
16350	16850	16600	21000	46879027	5036	23.98	3450890	7.36	3.2577	
16400	16900	16650	21000	46879027	4931	23.48	3450995	7.36	3.1897	
16450	16950	16700	21000	46879027	4869	23.19	3451057	7.36	3.1495	
16500	17000	16750	21000	46879027	4769	22.71	3451157	7.36	3.0848	
16550	17050	16800	21000	46879027	4657	22.18	3451269	7.36	3.0122	
16600	17100	16850	21000	46879027	4544	21.64	3451382	7.36	2.9390	
16650	17150	16900	21000	46879027	4356	20.74	3451570	7.36	2.8173	
16700	17200	16950	21000	46879027	4144	19.73	3451782	7.36	2.6800	
16750	17250	17000	21000	46879027	3856	18.36	3452070	7.36	2.4935	
16800	17300	17050	21000	46879027	3590	17.10	3452336	7.36	2.3214	
16850	17350	17100	21000	46879027	3340	15.90	3452586	7.36	2.1595	
16900	17400	17150	21000	46879027	3149	15.00	3452777	7.37	2.0359	
16950	17450	17200	21000	46879027	2931	13.96	3452995	7.37	1.8949	
17000	17500	17250	21000	46879027	2689	12.80	3453237	7.37	1.7383	
17050	17550	17300	21000	46879027	2489	11.85	3453437	7.37	1.6089	
17100	17600	17350	21000	46879027	2302	10.96	3453624	7.37	1.4880	
17150	17650	17400	21000	46879027	2152	10.25	3453774	7.37	1.3909	
17200	17700	17450	21000	46879027	2014	9.59	3453912	7.37	1.3017	
17250	17750	17500	21000	46879027	1952	9.30	3453974	7.37	1.2616	
17300	17800	17550	21000	46879027	2005	9.55	3453921	7.37	1.2959	
17350	17850	17600	21000	46879027	2146	10.22	3453780	7.37	1.3871	
17400	17900	17650	20956	46879071	2302	10.98	3453624	7.37	1.4911	
17450	17950	17700	20856	46879171	2420	11.60	3453506	7.37	1.5751	
17500	18000	17750	20756	46879271	2496	12.03	3453430	7.37	1.6324	
17550	18050	17800	20656	46879371	2496	12.08	3453430	7.37	1.6403	
17600	18100	17850	20556	46879471	2496	12.14	3453430	7.37	1.6483	
17650	18150	17900	20544	46879483	2540	12.36	3453386	7.37	1.6784	
17700	18200	17950	20644	46879383	2640	12.79	3453286	7.37	1.7360	
17750	18250	18000	20744	46879283	2740	13.21	3453186	7.37	1.7932	
17800	18300	18050	20844	46879183	2798	13.42	3453128	7.37	1.8224	
17850	18350	18100	20944	46879083	2887	13.78	3453039	7.37	1.8714	
17900	18400	18150	21000	46879027	2893	13.78	3453033	7.37	1.8703	
17950	18450	18200	21000	46879027	2846	13.55	3453080	7.37	1.8399	
18000	18500	18250	21000	46879027	2912	13.87	3453014	7.37	1.8826	
18050	18550	18300	21000	46879027	2991	14.24	3452935	7.37	1.9337	
18100	18600	18350	21000	46879027	3041	14.48	3452885	7.37	1.9660	
18150	18650	18400	21000	46879027	3091	14.72	3452835	7.37	1.9984	
18200	18700	18450	21000	46879027	3141	14.96	3452785	7.37	2.0308	
18250	18750	18500	21000	46879027	3191	15.20	3452735	7.37	2.0631	
18300	18800	18550	21000	46879027	3129	14.90	3452797	7.37	2.0230	
18350	18850	18600	21000	46879027	2946	14.03	3452980	7.37	1.9046	
18400	18900	18650	21000	46879027	2705	12.88	3453221	7.37	1.7486	
18450	18950	18700	21000	46879027	2455	11.69	3453471	7.37	1.5869	
18500	19000	18750	21000	46879027	2205	10.50	3453721	7.37	1.4252	
18550	19050	18800	21000	46879027	1984	9.45	3453942	7.37	1.2823	
18600	19100	18850	21000	46879027	1784	8.50	3454142	7.37	1.1530	
18650	19150	18900	21000	46879027	1576	7.50	3454350	7.37	1.0185	
18700	19200	18950	21000	46879027	1337	6.37	3454589	7.37	0.8640	
18750	19250	19000	21000	46879027	1137	5.41	3454789	7.37	0.7347	
18800	19300	19050	21000	46879027	1036	4.93	3454890	7.37	0.6694	
18850	19350	19100	21000	46879027	1030	4.90	3454896	7.37	0.6655	
18900	19400	19150	21000	46879027	1071	5.10	3454855	7.37	0.6920	
18950	19450	19200	21000	46879027	1121	5.34	3454805	7.37	0.7243	
19000	19500	19250	21000	46879027	1171	5.58	3454755	7.37	0.7567	
19050	19550	19300	21000	46879027	1213	5.78	3454713	7.37	0.7838	
19100	19600	19350	21000	46879027	1275	6.07	3454651	7.37	0.8239	
19150	19650	19400	21000	46879027	1383	6.59	3454543	7.37	0.8937	
19200	19700	19450	21000	46879027	1522	7.25	3454404	7.37	0.9836	
19250	19750	19500	21000	46879027	1622	7.72	3454304	7.37	1.0482	
19300	19800	19550	21000	46879027	1712	8.15	3454214	7.37	1.1064	
19350	19850	19600	21000	46879027	1762	8.39	3454164	7.37	1.1387	
19400	19900	19650	21000	46879027	1850	8.81	3454076	7.37	1.1956	
19450	19950	19700	21000	46879027	1950	9.29	3453976	7.37	1.2603	
19500	20000	19750	21000	46879027	2050	9.76	3453876	7.37	1.3250	
19550	20050	19800	21000	46879027	2199	10.47	3453727	7.37	1.4213	
19600	20100	19850	21000	46879027	2306	10.98	3453620	7.37	1.4905	
19650	20150	19900	21000	46879027	2356	11.22	3453570	7.37	1.5229	
19700	20200	19950	21000	46879027	2394	11.40	3453532	7.37	1.5475	
19750	20250	20000	21000	46879027	2394	11.40	3453532	7.37	1.5475	
19800	20300	20050	21000	46879027	2444	11.64	3453482	7.37	1.5798	
19850	20350	20100	21000	46879027	2494	11.88	3453432	7.37	1.6121	
19900	20400	20150	21000	46879027	2495	11.88	3453431	7.37	1.6128	
19950	20450	20200	21000	46879027	2445	11.64	3453481	7.37	1.5805	
20000	20500	20250	21000	46879027	2395	11.40	3453531	7.37	1.5481	
20050	20550	20300	21000	46879027	2296	10.93	3453630	7.37	1.4841	
20100	20600	20350	21000	46879027	2227	10.60	3453699	7.37	1.4394	
20150	20650	20400	21000	46879027	2177	10.37	3453749	7.37	1.4071	
20200	20700	20450	21000	46879027	2139	10.19	3453787	7.37	1.3825	
20250	20750	20500	21000	46879027	2139	10.19	3453787	7.37	1.3825	
20300	20800	20550	21000	46879027	2079	9.90	3453847	7.37	1.3437	
20350	20850	20600	21000	46879027	1979	9.42	3453947	7.37	1.2791	
20400	20900	20650	21000	46879027	1890	9.00	3454036	7.37	1.2215	
20450	20950	20700	21000	46879027	1875	8.93	3454051	7.37	1.2118	
20500	21000	20750	21000	46879027	1875	8.93	3454051	7.37	1.2118	
20550	21050	20800	21000	46879027	1875	8.93	3454051	7.37	1.2118	
20600	21100	20850	21000	46879027	1875	8.93	3454051	7.37	1.2118	
20650	21150	20900	21000	46879027	1875	8.93	3454051	7.37	1.2118	
20700	21200	20950	21000	46879027	1875	8.93	3454051	7.37	1.2118	
20750	21250	21000	21000	46879027	1919	9.14	3454007	7.37	1.2403	
20800	21300	21050	21000	46879027	1979	9.42	3453947	7.37	1.2791	
20850	21350	21100	21000	46879027	2079	9.90	3453847	7.37	1.3437	
20900	21400	21150	21000	46879027	2141	10.20	3453785	7.37	1.3838	
20950	21450	21200	21000	46879027	2156	10.27	3453770	7.37	1.3935	
21000	21500	21250	21000	46879027	2156	10.27	3453770	7.37	1.3935	
21050	21550	21300	21000	46879027	2156	10.27	3453770	7.37	1.3935	
21100	21600	21350	21000	46879027	2156	10.27	3453770	7.37	1.3935	
21150	21650	21400	21000	46879027	2156	10.27	3453770	7.37	1.3935	
21200	21700	21450	21000	46879027	2072	9.87	3453854	7.37	1.3392	
21250	21750	21500	21000	46879027	1951	9.29	3453975	7.37	1.2609	
21300	21800	21550	21000	46879027	1851	8.81	3454075	7.37	1.1963	
21350	21850	21600	21000	46879027	1740	8.29	3454186	7.37	1.1245	
21400	21900	21650	21000	46879027	1713	8.16	3454213	7.37	1.1071	
21450	21950	21700	21000	46879027	1713	8.16	3454213	7.37	1.1071	
21500	22000	21750	21000	46879027	1713	8.16	3454213	7.37	1.1071	
21550	22050	21800	21000	46879027	1713	8.16	3454213	7.37	1.1071	
21600	22100	21850	21000	46879027	1663	7.92	3454263	7.37	1.0747	
21650	22150	21900	21000	46879027	1613	7.68	3454313	7.37	1.0424	
21700	22200	21950	21000	46879027	1647	7.84	3454279	7.37	1.0644	
21750	22250	22000	21000	46879027	1674	7.97	3454252	7.37	1.0818	
21800	22300	22050	21000	46879027	1641	7.81	3454285	7.37	1.0605	
21850	22350	22100	21000	46879027	1602	7.63	3454324	7.37	1.0353	
21900	22400	22150	21000	46879027	1517	7.22	3454409	7.37	0.9803	
21950	22450	22200	21000	46879027	1425	6.79	3454501	7.37	0.9208	
22000	22500	22250	21000	46879027	1352	6.44	3454574	7.37	0.8737	
22050	22550	22300	21000	46879027	1252	5.96	3454674	7.37	0.8090	
22100	22600	22350	21000	46879027	1202	5.72	3454724	7.37	0.7767	
22150	22650	22400	21000	46879027	1201	5.72	3454725	7.37	0.7760	
22200	22700	22450	21000	46879027	1201	5.72	3454725	7.37	0.7760	
22250	22750	22500	21000	46879027	1201	5.72	3454725	7.37	0.7760	
22300	22800	22550	21000	46879027	1234	5.88	3454692	7.37	0.7974	
22350	22850	22600	21000	46879027	1284	6.11	3454642	7.37	0.8297	
22400	22900	22650	21000	46879027	1334	6.35	3454592	7.37	0.8620	
22450	22950	22700	21000	46879027	1376	6.55	3454550	7.37	0.8892	
22500	23000	22750	21000	46879027	1448	6.90	3454478	7.37	0.9357	
22550	23050	22800	21000	46879027	1548	7.37	3454378	7.37	1.0004	
22600	23100	22850	21000	46879027	1648	7.85	3454278	7.37	1.0650	
22650	23150	22900	21000	46879027	1699	8.09	3454227	7.37	1.0980	
22700	23200	22950	21000	46879027	1794	8.54	3454132	7.37	1.1594	
22750	23250	23000	21000	46879027	1909	9.09	3454017	7.37	1.2338	
22800	23300	23050	21000	46879027	2009	9.57	3453917	7.37	1.2985	
22850	23350	23100	21000	46879027	2109	10.04	3453817	7.37	1.3631	
22900	23400	23150	21000	46879027	2209	10.52	3453717	7.37	1.4278	
22950	23450	23200	21000	46879027	2309	11.00	3453617	7.37	1.4925	
23000	23500	23250	21000	46879027	2373	11.30	3453553	7.37	1.5339	
23050	23550	23300	21000	46879027	2443	11.63	3453483	7.37	1.5792	
23100	23600	23350	21000	46879027	2543	12.11	3453383	7.37	1.6438	
23150	23650	23400	21000	46879027	2620	12.48	3453306	7.37	1.6937	
23200	23700	23450	21000	46879027	2675	12.74	3453251	7.37	1.7292	
23250	23750	23500	21000	46879027	2661	12.67	3453265	7.37	1.7202	
23300	23800	23550	21000	46879027	2661	12.67	3453265	7.37	1.7202	
23350	23850	23600	21000	46879027	2661	12.67	3453265	7.37	1.7202	
23400	23900	23650	21000	46879027	2661	12.67	3453265	7.37	1.7202	
23450	23950	23700	21000	46879027	2661	12.67	3453265	7.37	1.7202	
23500	24000	23750	21000	46879027	2648	12.61	3453278	7.37	1.7118	
23550	24050	23800	21000	46879027	2646	12.60	3453280	7.37	1.7105	
23600	24100	23850	21000	46879027	2646	12.60	3453280	7.37	1.7105	
23650	24150	23900	21000	46879027	2669	12.71	3453257	7.37	1.7254	
23700	24200	23950	21000	46879027	2669	12.71	3453257	7.37	1.7254	
23750	24250	24000	21000	46879027	2708	12.90	3453218	7.37	1.7506	
23800	24300	24050	21000	46879027	2743	13.06	3453183	7.37	1.7732	
23850	24350	24100	21000	46879027	2793	13.30	3453133	7.37	1.8056	
23900	24400	24150	21000	46879027	2860	13.62	3453066	7.37	1.8489	
23950	24450	24200	21000	46879027	2879	13.71	3453047	7.37	1.8612	
24000	24500	24250	21000	46879027	2885	13.74	3453041	7.37	1.8651	
24050	24550	24300	21000	46879027	2917	13.89	3453009	7.37	1.8858	
24100	24600	24350	21000	46879027	2946	14.03	3452980	7.37	1.9046	
24150	24650	24400	21000	46879027	3040	14.48	3452886	7.37	1.9654	
24200	24700	24450	21000	46879027	3140	14.95	3452786	7.37	2.0301	
24250	24750	24500	21000	46879027	3212	15.30	3452714	7.37	2.0767	
24300	24800	24550	21000	46879027	3277	15.60	3452649	7.37	2.1188	
24350	24850	24600	21000	46879027	3315	15.79	3452611	7.36	2.1434	
24400	24900	24650	21000	46879027	3298	15.70	3452628	7.36	2.1324	
24450	24950	24700	21000	46879027	3379	16.09	3452547	7.36	2.1848	
24500	25000	24750	21000	46879027	3473	16.54	3452453	7.36	2.2456	
