Start	End	Midpoint	Breakpoint_bp	Non_breakpoint_bp	Feature_bp_inside	%Inside	Feature_bp_outside	%Outside	Ratio
-25000	-24500	-24750	23000	46877027	14048	61.08	15901701	33.92	1.8005	
-24950	-24450	-24700	23000	46877027	14164	61.58	15901585	33.92	1.8154	
-24900	-24400	-24650	23000	46877027	14198	61.73	15901551	33.92	1.8198	
-24850	-24350	-24600	23000	46877027	14148	61.51	15901601	33.92	1.8134	
-24800	-24300	-24550	23000	46877027	14061	61.13	15901688	33.92	1.8022	
-24750	-24250	-24500	23000	46877027	14060	61.13	15901689	33.92	1.8021	
-24700	-24200	-24450	23000	46877027	14113	61.36	15901636	33.92	1.8089	
-24650	-24150	-24400	23000	46877027	14141	61.48	15901608	33.92	1.8125	
-24600	-24100	-24350	23000	46877027	14238	61.90	15901511	33.92	1.8249	
-24550	-24050	-24300	23000	46877027	14276	62.07	15901473	33.92	1.8298	
-24500	-24000	-24250	23000	46877027	14249	61.95	15901500	33.92	1.8263	
-24450	-23950	-24200	23000	46877027	14249	61.95	15901500	33.92	1.8263	
-24400	-23900	-24150	23000	46877027	14260	62.00	15901489	33.92	1.8277	
-24350	-23850	-24100	23000	46877027	14260	62.00	15901489	33.92	1.8277	
-24300	-23800	-24050	23000	46877027	14297	62.16	15901452	33.92	1.8325	
-24250	-23750	-24000	23000	46877027	14332	62.31	15901417	33.92	1.8370	
-24200	-23700	-23950	23000	46877027	14336	62.33	15901413	33.92	1.8375	
-24150	-23650	-23900	23000	46877027	14381	62.53	15901368	33.92	1.8433	
-24100	-23600	-23850	23000	46877027	14305	62.20	15901444	33.92	1.8335	
-24050	-23550	-23800	23000	46877027	14214	61.80	15901535	33.92	1.8218	
-24000	-23500	-23750	23000	46877027	14129	61.43	15901620	33.92	1.8109	
-23950	-23450	-23700	23000	46877027	14029	61.00	15901720	33.92	1.7981	
-23900	-23400	-23650	23000	46877027	13980	60.78	15901769	33.92	1.7918	
-23850	-23350	-23600	23000	46877027	13980	60.78	15901769	33.92	1.7918	
-23800	-23300	-23550	23000	46877027	13980	60.78	15901769	33.92	1.7918	
-23750	-23250	-23500	23000	46877027	13913	60.49	15901836	33.92	1.7832	
-23700	-23200	-23450	23000	46877027	13859	60.26	15901890	33.92	1.7763	
-23650	-23150	-23400	23000	46877027	13764	59.84	15901985	33.92	1.7641	
-23600	-23100	-23350	23000	46877027	13706	59.59	15902043	33.92	1.7567	
-23550	-23050	-23300	23000	46877027	13643	59.32	15902106	33.92	1.7486	
-23500	-23000	-23250	23000	46877027	13543	58.88	15902206	33.92	1.7358	
-23450	-22950	-23200	23000	46877027	13451	58.48	15902298	33.92	1.7240	
-23400	-22900	-23150	23000	46877027	13349	58.04	15902400	33.92	1.7109	
-23350	-22850	-23100	23000	46877027	13146	57.16	15902603	33.92	1.6848	
-23300	-22800	-23050	23000	46877027	13046	56.72	15902703	33.92	1.6720	
-23250	-22750	-23000	23000	46877027	12980	56.43	15902769	33.92	1.6635	
-23200	-22700	-22950	23000	46877027	12886	56.03	15902863	33.92	1.6515	
-23150	-22650	-22900	23000	46877027	12755	55.46	15902994	33.92	1.6347	
-23100	-22600	-22850	23000	46877027	12599	54.78	15903150	33.93	1.6147	
-23050	-22550	-22800	23000	46877027	12529	54.47	15903220	33.93	1.6057	
-23000	-22500	-22750	23000	46877027	12626	54.90	15903123	33.93	1.6181	
-22950	-22450	-22700	23000	46877027	12698	55.21	15903051	33.93	1.6274	
-22900	-22400	-22650	23000	46877027	12728	55.34	15903021	33.92	1.6312	
-22850	-22350	-22600	23000	46877027	12810	55.70	15902939	33.92	1.6417	
-22800	-22300	-22550	23000	46877027	12760	55.48	15902989	33.92	1.6353	
-22750	-22250	-22500	23000	46877027	12660	55.04	15903089	33.93	1.6225	
-22700	-22200	-22450	23000	46877027	12493	54.32	15903256	33.93	1.6011	
-22650	-22150	-22400	23000	46877027	12413	53.97	15903336	33.93	1.5908	
-22600	-22100	-22350	23000	46877027	12319	53.56	15903430	33.93	1.5788	
-22550	-22050	-22300	23000	46877027	12218	53.12	15903531	33.93	1.5658	
-22500	-22000	-22250	23000	46877027	12019	52.26	15903730	33.93	1.5403	
-22450	-21950	-22200	23000	46877027	11828	51.43	15903921	33.93	1.5158	
-22400	-21900	-22150	23000	46877027	11612	50.49	15904137	33.93	1.4881	
-22350	-21850	-22100	23000	46877027	11483	49.93	15904266	33.93	1.4715	
-22300	-21800	-22050	23000	46877027	11384	49.50	15904365	33.93	1.4589	
-22250	-21750	-22000	23000	46877027	11349	49.34	15904400	33.93	1.4544	
-22200	-21700	-21950	23000	46877027	11449	49.78	15904300	33.93	1.4672	
-22150	-21650	-21900	23000	46877027	11478	49.90	15904271	33.93	1.4709	
-22100	-21600	-21850	23000	46877027	11528	50.12	15904221	33.93	1.4773	
-22050	-21550	-21800	23000	46877027	11584	50.37	15904165	33.93	1.4845	
-22000	-21500	-21750	23000	46877027	11652	50.66	15904097	33.93	1.4932	
-21950	-21450	-21700	23000	46877027	11683	50.80	15904066	33.93	1.4972	
-21900	-21400	-21650	23000	46877027	11700	50.87	15904049	33.93	1.4994	
-21850	-21350	-21600	23000	46877027	11680	50.78	15904069	33.93	1.4968	
-21800	-21300	-21550	23000	46877027	11679	50.78	15904070	33.93	1.4967	
-21750	-21250	-21500	23000	46877027	11656	50.68	15904093	33.93	1.4937	
-21700	-21200	-21450	23000	46877027	11567	50.29	15904182	33.93	1.4823	
-21650	-21150	-21400	23000	46877027	11503	50.01	15904246	33.93	1.4741	
-21600	-21100	-21350	23000	46877027	11453	49.80	15904296	33.93	1.4677	
-21550	-21050	-21300	23000	46877027	11359	49.39	15904390	33.93	1.4556	
-21500	-21000	-21250	23000	46877027	11164	48.54	15904585	33.93	1.4306	
-21450	-20950	-21200	23000	46877027	11043	48.01	15904706	33.93	1.4151	
-21400	-20900	-21150	23000	46877027	11008	47.86	15904741	33.93	1.4106	
-21350	-20850	-21100	23000	46877027	11017	47.90	15904732	33.93	1.4118	
-21300	-20800	-21050	23000	46877027	10967	47.68	15904782	33.93	1.4054	
-21250	-20750	-21000	23000	46877027	10991	47.79	15904758	33.93	1.4085	
-21200	-20700	-20950	23000	46877027	11007	47.86	15904742	33.93	1.4105	
-21150	-20650	-20900	23000	46877027	11045	48.02	15904704	33.93	1.4154	
-21100	-20600	-20850	23000	46877027	11229	48.82	15904520	33.93	1.4390	
-21050	-20550	-20800	23000	46877027	11524	50.10	15904225	33.93	1.4768	
-21000	-20500	-20750	23000	46877027	11903	51.75	15903846	33.93	1.5254	
-20950	-20450	-20700	23000	46877027	12254	53.28	15903495	33.93	1.5704	
-20900	-20400	-20650	23000	46877027	12588	54.73	15903161	33.93	1.6133	
-20850	-20350	-20600	23000	46877027	12806	55.68	15902943	33.92	1.6412	
-20800	-20300	-20550	23000	46877027	13056	56.77	15902693	33.92	1.6733	
-20750	-20250	-20500	23000	46877027	13193	57.36	15902556	33.92	1.6909	
-20700	-20200	-20450	23000	46877027	13316	57.90	15902433	33.92	1.7066	
-20650	-20150	-20400	23000	46877027	13374	58.15	15902375	33.92	1.7141	
-20600	-20100	-20350	23000	46877027	13290	57.78	15902459	33.92	1.7033	
-20550	-20050	-20300	23000	46877027	13117	57.03	15902632	33.92	1.6811	
-20500	-20000	-20250	22932	46877095	12917	56.33	15902832	33.92	1.6604	
-20450	-19950	-20200	22832	46877195	12713	55.68	15903036	33.92	1.6413	
-20400	-19900	-20150	22732	46877295	12590	55.38	15903159	33.93	1.6326	
-20350	-19850	-20100	22632	46877395	12533	55.38	15903216	33.93	1.6323	
-20300	-19800	-20050	22532	46877495	12483	55.40	15903266	33.93	1.6330	
-20250	-19750	-20000	22568	46877459	12476	55.28	15903273	33.93	1.6295	
-20200	-19700	-19950	22668	46877359	12487	55.09	15903262	33.93	1.6238	
-20150	-19650	-19900	22768	46877259	12582	55.26	15903167	33.93	1.6289	
-20100	-19600	-19850	22868	46877159	12682	55.46	15903067	33.92	1.6347	
-20050	-19550	-19800	22968	46877059	12744	55.49	15903005	33.92	1.6355	
-20000	-19500	-19750	23000	46877027	12773	55.53	15902976	33.92	1.6370	
-19950	-19450	-19700	23000	46877027	12777	55.55	15902972	33.92	1.6375	
-19900	-19400	-19650	23000	46877027	12722	55.31	15903027	33.92	1.6305	
-19850	-19350	-19600	23000	46877027	12622	54.88	15903127	33.93	1.6176	
-19800	-19300	-19550	23000	46877027	12522	54.44	15903227	33.93	1.6048	
-19750	-19250	-19500	23000	46877027	12422	54.01	15903327	33.93	1.5920	
-19700	-19200	-19450	23000	46877027	12360	53.74	15903389	33.93	1.5840	
-19650	-19150	-19400	23000	46877027	12360	53.74	15903389	33.93	1.5840	
-19600	-19100	-19350	23000	46877027	12349	53.69	15903400	33.93	1.5826	
-19550	-19050	-19300	23000	46877027	12378	53.82	15903371	33.93	1.5863	
-19500	-19000	-19250	23000	46877027	12413	53.97	15903336	33.93	1.5908	
-19450	-18950	-19200	23000	46877027	12497	54.33	15903252	33.93	1.6016	
-19400	-18900	-19150	23000	46877027	12545	54.54	15903204	33.93	1.6077	
-19350	-18850	-19100	23000	46877027	12707	55.25	15903042	33.93	1.6285	
-19300	-18800	-19050	23000	46877027	12823	55.75	15902926	33.92	1.6434	
-19250	-18750	-19000	23000	46877027	12944	56.28	15902805	33.92	1.6589	
-19200	-18700	-18950	23000	46877027	13056	56.77	15902693	33.92	1.6733	
-19150	-18650	-18900	23000	46877027	13150	57.17	15902599	33.92	1.6853	
-19100	-18600	-18850	23000	46877027	13261	57.66	15902488	33.92	1.6996	
-19050	-18550	-18800	23000	46877027	13361	58.09	15902388	33.92	1.7124	
-19000	-18500	-18750	23000	46877027	13495	58.67	15902254	33.92	1.7296	
-18950	-18450	-18700	23000	46877027	13543	58.88	15902206	33.92	1.7358	
-18900	-18400	-18650	23000	46877027	13563	58.97	15902186	33.92	1.7383	
-18850	-18350	-18600	23000	46877027	13401	58.27	15902348	33.92	1.7175	
-18800	-18300	-18550	23000	46877027	13285	57.76	15902464	33.92	1.7027	
-18750	-18250	-18500	23000	46877027	13195	57.37	15902554	33.92	1.6911	
-18700	-18200	-18450	23000	46877027	13126	57.07	15902623	33.92	1.6823	
-18650	-18150	-18400	23000	46877027	13030	56.65	15902719	33.92	1.6700	
-18600	-18100	-18350	23000	46877027	13030	56.65	15902719	33.92	1.6700	
-18550	-18050	-18300	23000	46877027	13053	56.75	15902696	33.92	1.6729	
-18500	-18000	-18250	23000	46877027	13105	56.98	15902644	33.92	1.6796	
-18450	-17950	-18200	23000	46877027	13223	57.49	15902526	33.92	1.6947	
-18400	-17900	-18150	23000	46877027	13341	58.00	15902408	33.92	1.7098	
-18350	-17850	-18100	23000	46877027	13485	58.63	15902264	33.92	1.7283	
-18300	-17800	-18050	23000	46877027	13685	59.50	15902064	33.92	1.7540	
-18250	-17750	-18000	23000	46877027	13766	59.85	15901983	33.92	1.7644	
-18200	-17700	-17950	23000	46877027	13785	59.93	15901964	33.92	1.7668	
-18150	-17650	-17900	23000	46877027	13771	59.87	15901978	33.92	1.7650	
-18100	-17600	-17850	23000	46877027	13621	59.22	15902128	33.92	1.7458	
-18050	-17550	-17800	23000	46877027	13460	58.52	15902289	33.92	1.7251	
-18000	-17500	-17750	23000	46877027	13310	57.87	15902439	33.92	1.7059	
-17950	-17450	-17700	23000	46877027	13165	57.24	15902584	33.92	1.6873	
-17900	-17400	-17650	23000	46877027	13067	56.81	15902682	33.92	1.6747	
-17850	-17350	-17600	23000	46877027	13023	56.62	15902726	33.92	1.6691	
-17800	-17300	-17550	23000	46877027	12923	56.19	15902826	33.92	1.6562	
-17750	-17250	-17500	23000	46877027	12872	55.97	15902877	33.92	1.6497	
-17700	-17200	-17450	23000	46877027	12822	55.75	15902927	33.92	1.6433	
-17650	-17150	-17400	23000	46877027	12788	55.60	15902961	33.92	1.6389	
-17600	-17100	-17350	23000	46877027	12788	55.60	15902961	33.92	1.6389	
-17550	-17050	-17300	23000	46877027	12753	55.45	15902996	33.92	1.6344	
-17500	-17000	-17250	23000	46877027	12663	55.06	15903086	33.93	1.6229	
-17450	-16950	-17200	23000	46877027	12508	54.38	15903241	33.93	1.6030	
-17400	-16900	-17150	23000	46877027	12348	53.69	15903401	33.93	1.5825	
-17350	-16850	-17100	23000	46877027	12215	53.11	15903534	33.93	1.5654	
-17300	-16800	-17050	23000	46877027	12115	52.67	15903634	33.93	1.5526	
-17250	-16750	-17000	23000	46877027	12028	52.30	15903721	33.93	1.5414	
-17200	-16700	-16950	23000	46877027	11978	52.08	15903771	33.93	1.5350	
-17150	-16650	-16900	23000	46877027	11948	51.95	15903801	33.93	1.5312	
-17100	-16600	-16850	23000	46877027	11948	51.95	15903801	33.93	1.5312	
-17050	-16550	-16800	23000	46877027	11954	51.97	15903795	33.93	1.5320	
-17000	-16500	-16750	23000	46877027	11900	51.74	15903849	33.93	1.5250	
-16950	-16450	-16700	23000	46877027	11816	51.37	15903933	33.93	1.5143	
-16900	-16400	-16650	23000	46877027	11735	51.02	15904014	33.93	1.5039	
-16850	-16350	-16600	23000	46877027	11644	50.63	15904105	33.93	1.4922	
-16800	-16300	-16550	23000	46877027	11394	49.54	15904355	33.93	1.4601	
-16750	-16250	-16500	23000	46877027	11212	48.75	15904537	33.93	1.4368	
-16700	-16200	-16450	23000	46877027	11059	48.08	15904690	33.93	1.4172	
-16650	-16150	-16400	23000	46877027	10874	47.28	15904875	33.93	1.3934	
-16600	-16100	-16350	23000	46877027	10634	46.23	15905115	33.93	1.3627	
-16550	-16050	-16300	23000	46877027	10446	45.42	15905303	33.93	1.3386	
-16500	-16000	-16250	23000	46877027	10469	45.52	15905280	33.93	1.3415	
-16450	-15950	-16200	23000	46877027	10553	45.88	15905196	33.93	1.3523	
-16400	-15900	-16150	23000	46877027	10622	46.18	15905127	33.93	1.3611	
-16350	-15850	-16100	23000	46877027	10636	46.24	15905113	33.93	1.3629	
-16300	-15800	-16050	23000	46877027	10872	47.27	15904877	33.93	1.3932	
-16250	-15750	-16000	23000	46877027	11109	48.30	15904640	33.93	1.4236	
-16200	-15700	-15950	23000	46877027	11244	48.89	15904505	33.93	1.4409	
-16150	-15650	-15900	23000	46877027	11297	49.12	15904452	33.93	1.4477	
-16100	-15600	-15850	23000	46877027	11387	49.51	15904362	33.93	1.4592	
-16050	-15550	-15800	23000	46877027	11446	49.77	15904303	33.93	1.4668	
-16000	-15500	-15750	23000	46877027	11408	49.60	15904341	33.93	1.4619	
-15950	-15450	-15700	23000	46877027	11408	49.60	15904341	33.93	1.4619	
-15900	-15400	-15650	23000	46877027	11476	49.90	15904273	33.93	1.4706	
-15850	-15350	-15600	23000	46877027	11587	50.38	15904162	33.93	1.4849	
-15800	-15300	-15550	23000	46877027	11601	50.44	15904148	33.93	1.4867	
-15750	-15250	-15500	23000	46877027	11572	50.31	15904177	33.93	1.4830	
-15700	-15200	-15450	23000	46877027	11543	50.19	15904206	33.93	1.4792	
-15650	-15150	-15400	23000	46877027	11603	50.45	15904146	33.93	1.4869	
-15600	-15100	-15350	23000	46877027	11603	50.45	15904146	33.93	1.4869	
-15550	-15050	-15300	23000	46877027	11627	50.55	15904122	33.93	1.4900	
-15500	-15000	-15250	23000	46877027	11628	50.56	15904121	33.93	1.4901	
-15450	-14950	-15200	23000	46877027	11703	50.88	15904046	33.93	1.4998	
-15400	-14900	-15150	23000	46877027	11747	51.07	15904002	33.93	1.5054	
-15350	-14850	-15100	23000	46877027	11782	51.23	15903967	33.93	1.5099	
-15300	-14800	-15050	23000	46877027	11802	51.31	15903947	33.93	1.5125	
-15250	-14750	-15000	23000	46877027	11874	51.63	15903875	33.93	1.5217	
-15200	-14700	-14950	23000	46877027	11987	52.12	15903762	33.93	1.5362	
-15150	-14650	-14900	23000	46877027	12124	52.71	15903625	33.93	1.5538	
-15100	-14600	-14850	23000	46877027	12305	53.50	15903444	33.93	1.5770	
-15050	-14550	-14800	23000	46877027	12493	54.32	15903256	33.93	1.6011	
-15000	-14500	-14750	23000	46877027	12685	55.15	15903064	33.93	1.6257	
-14950	-14450	-14700	23000	46877027	12760	55.48	15902989	33.92	1.6353	
-14900	-14400	-14650	23000	46877027	12766	55.50	15902983	33.92	1.6361	
-14850	-14350	-14600	23000	46877027	12793	55.62	15902956	33.92	1.6396	
-14800	-14300	-14550	23000	46877027	12823	55.75	15902926	33.92	1.6434	
-14750	-14250	-14500	23000	46877027	12773	55.53	15902976	33.92	1.6370	
-14700	-14200	-14450	23000	46877027	12738	55.38	15903011	33.92	1.6325	
-14650	-14150	-14400	23000	46877027	12653	55.01	15903096	33.93	1.6216	
-14600	-14100	-14350	23000	46877027	12572	54.66	15903177	33.93	1.6112	
-14550	-14050	-14300	23000	46877027	12456	54.16	15903293	33.93	1.5963	
-14500	-14000	-14250	23000	46877027	12279	53.39	15903470	33.93	1.5736	
-14450	-13950	-14200	23000	46877027	12129	52.73	15903620	33.93	1.5544	
-14400	-13900	-14150	23000	46877027	12023	52.27	15903726	33.93	1.5408	
-14350	-13850	-14100	23000	46877027	11958	51.99	15903791	33.93	1.5325	
-14300	-13800	-14050	23000	46877027	11902	51.75	15903847	33.93	1.5253	
-14250	-13750	-14000	23000	46877027	11830	51.43	15903919	33.93	1.5160	
-14200	-13700	-13950	23000	46877027	11764	51.15	15903985	33.93	1.5076	
-14150	-13650	-13900	23000	46877027	11813	51.36	15903936	33.93	1.5139	
-14100	-13600	-13850	23000	46877027	11913	51.80	15903836	33.93	1.5267	
-14050	-13550	-13800	23000	46877027	11972	52.05	15903777	33.93	1.5343	
-14000	-13500	-13750	23000	46877027	12084	52.54	15903665	33.93	1.5486	
-13950	-13450	-13700	23000	46877027	12209	53.08	15903540	33.93	1.5647	
-13900	-13400	-13650	23000	46877027	12381	53.83	15903368	33.93	1.5867	
-13850	-13350	-13600	23000	46877027	12533	54.49	15903216	33.93	1.6062	
-13800	-13300	-13550	23000	46877027	12672	55.10	15903077	33.93	1.6240	
-13750	-13250	-13500	23000	46877027	12810	55.70	15902939	33.92	1.6417	
-13700	-13200	-13450	23000	46877027	12942	56.27	15902807	33.92	1.6587	
-13650	-13150	-13400	23000	46877027	12993	56.49	15902756	33.92	1.6652	
-13600	-13100	-13350	23000	46877027	12954	56.32	15902795	33.92	1.6602	
-13550	-13050	-13300	23000	46877027	12945	56.28	15902804	33.92	1.6591	
-13500	-13000	-13250	23000	46877027	12926	56.20	15902823	33.92	1.6566	
-13450	-12950	-13200	23000	46877027	12864	55.93	15902885	33.92	1.6487	
-13400	-12900	-13150	23000	46877027	12742	55.40	15903007	33.92	1.6330	
-13350	-12850	-13100	23000	46877027	12677	55.12	15903072	33.93	1.6247	
-13300	-12800	-13050	23000	46877027	12658	55.03	15903091	33.93	1.6222	
-13250	-12750	-13000	23000	46877027	12732	55.36	15903017	33.92	1.6317	
-13200	-12700	-12950	23000	46877027	12826	55.77	15902923	33.92	1.6438	
-13150	-12650	-12900	23000	46877027	12910	56.13	15902839	33.92	1.6546	
-13100	-12600	-12850	23000	46877027	13043	56.71	15902706	33.92	1.6716	
-13050	-12550	-12800	23000	46877027	13143	57.14	15902606	33.92	1.6845	
-13000	-12500	-12750	23000	46877027	13225	57.50	15902524	33.92	1.6950	
-12950	-12450	-12700	23000	46877027	13335	57.98	15902414	33.92	1.7091	
-12900	-12400	-12650	23000	46877027	13407	58.29	15902342	33.92	1.7183	
-12850	-12350	-12600	23000	46877027	13362	58.10	15902387	33.92	1.7125	
-12800	-12300	-12550	23000	46877027	13295	57.80	15902454	33.92	1.7039	
-12750	-12250	-12500	23000	46877027	13232	57.53	15902517	33.92	1.6959	
-12700	-12200	-12450	23000	46877027	13091	56.92	15902658	33.92	1.6778	
-12650	-12150	-12400	23000	46877027	12957	56.33	15902792	33.92	1.6606	
-12600	-12100	-12350	23000	46877027	12855	55.89	15902894	33.92	1.6475	
-12550	-12050	-12300	23000	46877027	12855	55.89	15902894	33.92	1.6475	
-12500	-12000	-12250	23000	46877027	12873	55.97	15902876	33.92	1.6498	
-12450	-11950	-12200	23000	46877027	12892	56.05	15902857	33.92	1.6523	
-12400	-11900	-12150	23000	46877027	12901	56.09	15902848	33.92	1.6534	
-12350	-11850	-12100	23000	46877027	12911	56.13	15902838	33.92	1.6547	
-12300	-11800	-12050	23000	46877027	12892	56.05	15902857	33.92	1.6523	
-12250	-11750	-12000	23000	46877027	12886	56.03	15902863	33.92	1.6515	
-12200	-11700	-11950	23000	46877027	12915	56.15	15902834	33.92	1.6552	
-12150	-11650	-11900	23000	46877027	13040	56.70	15902709	33.92	1.6712	
-12100	-11600	-11850	23000	46877027	13148	57.17	15902601	33.92	1.6851	
-12050	-11550	-11800	23000	46877027	13198	57.38	15902551	33.92	1.6915	
-12000	-11500	-11750	23000	46877027	13206	57.42	15902543	33.92	1.6925	
-11950	-11450	-11700	23000	46877027	13200	57.39	15902549	33.92	1.6918	
-11900	-11400	-11650	23000	46877027	13203	57.40	15902546	33.92	1.6921	
-11850	-11350	-11600	23000	46877027	13203	57.40	15902546	33.92	1.6921	
-11800	-11300	-11550	23000	46877027	13225	57.50	15902524	33.92	1.6950	
-11750	-11250	-11500	23000	46877027	13197	57.38	15902552	33.92	1.6914	
-11700	-11200	-11450	23000	46877027	13164	57.23	15902585	33.92	1.6871	
-11650	-11150	-11400	23000	46877027	12989	56.47	15902760	33.92	1.6647	
-11600	-11100	-11350	23000	46877027	12779	55.56	15902970	33.92	1.6378	
-11550	-11050	-11300	23000	46877027	12523	54.45	15903226	33.93	1.6049	
-11500	-11000	-11250	22931	46877096	12296	53.62	15903453	33.93	1.5806	
-11450	-10950	-11200	22831	46877196	12062	52.83	15903687	33.93	1.5572	
-11400	-10900	-11150	22731	46877296	11866	52.20	15903883	33.93	1.5387	
-11350	-10850	-11100	22631	46877396	11651	51.48	15904098	33.93	1.5174	
-11300	-10800	-11050	22531	46877496	11451	50.82	15904298	33.93	1.4980	
-11250	-10750	-11000	22569	46877458	11270	49.94	15904479	33.93	1.4718	
-11200	-10700	-10950	22669	46877358	11152	49.19	15904597	33.93	1.4500	
-11150	-10650	-10900	22769	46877258	11102	48.76	15904647	33.93	1.4371	
-11100	-10600	-10850	22869	46877158	11060	48.36	15904689	33.93	1.4254	
-11050	-10550	-10800	22969	46877058	11111	48.37	15904638	33.93	1.4258	
-11000	-10500	-10750	23000	46877027	11167	48.55	15904582	33.93	1.4310	
-10950	-10450	-10700	23000	46877027	11227	48.81	15904522	33.93	1.4387	
-10900	-10400	-10650	23000	46877027	11269	49.00	15904480	33.93	1.4441	
-10850	-10350	-10600	23000	46877027	11391	49.53	15904358	33.93	1.4597	
-10800	-10300	-10550	23000	46877027	11589	50.39	15904160	33.93	1.4851	
-10750	-10250	-10500	23000	46877027	11814	51.37	15903935	33.93	1.5140	
-10700	-10200	-10450	23000	46877027	11986	52.11	15903763	33.93	1.5361	
-10650	-10150	-10400	23000	46877027	12136	52.77	15903613	33.93	1.5553	
-10600	-10100	-10350	23000	46877027	12271	53.35	15903478	33.93	1.5726	
-10550	-10050	-10300	23000	46877027	12292	53.44	15903457	33.93	1.5753	
-10500	-10000	-10250	23000	46877027	12404	53.93	15903345	33.93	1.5897	
-10450	-9950	-10200	23000	46877027	12463	54.19	15903286	33.93	1.5972	
-10400	-9900	-10150	23000	46877027	12525	54.46	15903224	33.93	1.6052	
-10350	-9850	-10100	23000	46877027	12581	54.70	15903168	33.93	1.6124	
-10300	-9800	-10050	23000	46877027	12595	54.76	15903154	33.93	1.6142	
-10250	-9750	-10000	23000	46877027	12694	55.19	15903055	33.93	1.6269	
-10200	-9700	-9950	23000	46877027	12844	55.84	15902905	33.92	1.6461	
-10150	-9650	-9900	23000	46877027	13004	56.54	15902745	33.92	1.6666	
-10100	-9600	-9850	23000	46877027	13214	57.45	15902535	33.92	1.6936	
-10050	-9550	-9800	23000	46877027	13409	58.30	15902340	33.92	1.7186	
-10000	-9500	-9750	23000	46877027	13531	58.83	15902218	33.92	1.7342	
-9950	-9450	-9700	23000	46877027	13718	59.64	15902031	33.92	1.7582	
-9900	-9400	-9650	23000	46877027	13876	60.33	15901873	33.92	1.7785	
-9850	-9350	-9600	23000	46877027	14030	61.00	15901719	33.92	1.7982	
-9800	-9300	-9550	23000	46877027	14096	61.29	15901653	33.92	1.8067	
-9750	-9250	-9500	23000	46877027	14050	61.09	15901699	33.92	1.8008	
-9700	-9200	-9450	23000	46877027	14000	60.87	15901749	33.92	1.7944	
-9650	-9150	-9400	23000	46877027	13931	60.57	15901818	33.92	1.7855	
-9600	-9100	-9350	23000	46877027	13808	60.03	15901941	33.92	1.7698	
-9550	-9050	-9300	23000	46877027	13742	59.75	15902007	33.92	1.7613	
-9500	-9000	-9250	23000	46877027	13670	59.43	15902079	33.92	1.7521	
-9450	-8950	-9200	23000	46877027	13550	58.91	15902199	33.92	1.7367	
-9400	-8900	-9150	23000	46877027	13468	58.56	15902281	33.92	1.7261	
-9350	-8850	-9100	23000	46877027	13312	57.88	15902437	33.92	1.7061	
-9300	-8800	-9050	23000	46877027	13120	57.04	15902629	33.92	1.6815	
-9250	-8750	-9000	23000	46877027	12957	56.33	15902792	33.92	1.6606	
-9200	-8700	-8950	23000	46877027	12807	55.68	15902942	33.92	1.6414	
-9150	-8650	-8900	23000	46877027	12666	55.07	15903083	33.93	1.6233	
-9100	-8600	-8850	23000	46877027	12539	54.52	15903210	33.93	1.6070	
-9050	-8550	-8800	23000	46877027	12370	53.78	15903379	33.93	1.5853	
-9000	-8500	-8750	23000	46877027	12195	53.02	15903554	33.93	1.5629	
-8950	-8450	-8700	23000	46877027	12124	52.71	15903625	33.93	1.5538	
-8900	-8400	-8650	23000	46877027	12088	52.56	15903661	33.93	1.5491	
-8850	-8350	-8600	23000	46877027	12047	52.38	15903702	33.93	1.5439	
-8800	-8300	-8550	23000	46877027	12065	52.46	15903684	33.93	1.5462	
-8750	-8250	-8500	23000	46877027	12135	52.76	15903614	33.93	1.5552	
-8700	-8200	-8450	23000	46877027	12185	52.98	15903564	33.93	1.5616	
-8650	-8150	-8400	23000	46877027	12202	53.05	15903547	33.93	1.5638	
-8600	-8100	-8350	23000	46877027	12245	53.24	15903504	33.93	1.5693	
-8550	-8050	-8300	23000	46877027	12338	53.64	15903411	33.93	1.5812	
-8500	-8000	-8250	23000	46877027	12455	54.15	15903294	33.93	1.5962	
-8450	-7950	-8200	23000	46877027	12526	54.46	15903223	33.93	1.6053	
-8400	-7900	-8150	23000	46877027	12502	54.36	15903247	33.93	1.6022	
-8350	-7850	-8100	23000	46877027	12565	54.63	15903184	33.93	1.6103	
-8300	-7800	-8050	23000	46877027	12642	54.97	15903107	33.93	1.6202	
-8250	-7750	-8000	23000	46877027	12661	55.05	15903088	33.93	1.6226	
-8200	-7700	-7950	23000	46877027	12661	55.05	15903088	33.93	1.6226	
-8150	-7650	-7900	23000	46877027	12727	55.33	15903022	33.92	1.6311	
-8100	-7600	-7850	23000	46877027	12834	55.80	15902915	33.92	1.6448	
-8050	-7550	-7800	23000	46877027	12915	56.15	15902834	33.92	1.6552	
-8000	-7500	-7750	23000	46877027	12974	56.41	15902775	33.92	1.6628	
-7950	-7450	-7700	23000	46877027	13047	56.73	15902702	33.92	1.6721	
-7900	-7400	-7650	23000	46877027	13223	57.49	15902526	33.92	1.6947	
-7850	-7350	-7600	23000	46877027	13440	58.43	15902309	33.92	1.7225	
-7800	-7300	-7550	23000	46877027	13659	59.39	15902090	33.92	1.7506	
-7750	-7250	-7500	23000	46877027	13840	60.17	15901909	33.92	1.7739	
-7700	-7200	-7450	23000	46877027	14040	61.04	15901709	33.92	1.7995	
-7650	-7150	-7400	23000	46877027	14214	61.80	15901535	33.92	1.8218	
-7600	-7100	-7350	23000	46877027	14285	62.11	15901464	33.92	1.8309	
-7550	-7050	-7300	23000	46877027	14385	62.54	15901364	33.92	1.8438	
-7500	-7000	-7250	23000	46877027	14496	63.03	15901253	33.92	1.8580	
-7450	-6950	-7200	23000	46877027	14613	63.53	15901136	33.92	1.8730	
-7400	-6900	-7150	23000	46877027	14629	63.60	15901120	33.92	1.8751	
-7350	-6850	-7100	23000	46877027	14591	63.44	15901158	33.92	1.8702	
-7300	-6800	-7050	23000	46877027	14584	63.41	15901165	33.92	1.8693	
-7250	-6750	-7000	23000	46877027	14584	63.41	15901165	33.92	1.8693	
-7200	-6700	-6950	23000	46877027	14584	63.41	15901165	33.92	1.8693	
-7150	-6650	-6900	23000	46877027	14577	63.38	15901172	33.92	1.8684	
-7100	-6600	-6850	23000	46877027	14599	63.47	15901150	33.92	1.8712	
-7050	-6550	-6800	23000	46877027	14498	63.03	15901251	33.92	1.8583	
-7000	-6500	-6750	22976	46877051	14337	62.40	15901412	33.92	1.8395	
-6950	-6450	-6700	22876	46877151	14182	62.00	15901567	33.92	1.8276	
-6900	-6400	-6650	22776	46877251	14082	61.83	15901667	33.92	1.8227	
-6850	-6350	-6600	22676	46877351	14003	61.75	15901746	33.92	1.8204	
-6800	-6300	-6550	22576	46877451	13860	61.39	15901889	33.92	1.8098	
-6750	-6250	-6500	22524	46877503	13782	61.19	15901967	33.92	1.8038	
-6700	-6200	-6450	22624	46877403	13622	60.21	15902127	33.92	1.7749	
-6650	-6150	-6400	22724	46877303	13427	59.09	15902322	33.92	1.7418	
-6600	-6100	-6350	22824	46877203	13300	58.27	15902449	33.92	1.7177	
-6550	-6050	-6300	22924	46877103	13262	57.85	15902487	33.92	1.7054	
-6500	-6000	-6250	23000	46877027	13278	57.73	15902471	33.92	1.7018	
-6450	-5950	-6200	23000	46877027	13330	57.96	15902419	33.92	1.7084	
-6400	-5900	-6150	23000	46877027	13463	58.53	15902286	33.92	1.7255	
-6350	-5850	-6100	23000	46877027	13589	59.08	15902160	33.92	1.7417	
-6300	-5800	-6050	23000	46877027	13739	59.73	15902010	33.92	1.7609	
-6250	-5750	-6000	23000	46877027	13867	60.29	15901882	33.92	1.7773	
-6200	-5700	-5950	23000	46877027	14077	61.20	15901672	33.92	1.8043	
-6150	-5650	-5900	23000	46877027	14317	62.25	15901432	33.92	1.8351	
-6100	-5600	-5850	23000	46877027	14418	62.69	15901331	33.92	1.8480	
-6050	-5550	-5800	23000	46877027	14506	63.07	15901243	33.92	1.8593	
-6000	-5500	-5750	23000	46877027	14590	63.43	15901159	33.92	1.8701	
-5950	-5450	-5700	23000	46877027	14621	63.57	15901128	33.92	1.8741	
-5900	-5400	-5650	23000	46877027	14553	63.27	15901196	33.92	1.8653	
-5850	-5350	-5600	23000	46877027	14534	63.19	15901215	33.92	1.8629	
-5800	-5300	-5550	23000	46877027	14512	63.10	15901237	33.92	1.8601	
-5750	-5250	-5500	23000	46877027	14486	62.98	15901263	33.92	1.8567	
-5700	-5200	-5450	23000	46877027	14475	62.93	15901274	33.92	1.8553	
-5650	-5150	-5400	23000	46877027	14485	62.98	15901264	33.92	1.8566	
-5600	-5100	-5350	23000	46877027	14576	63.37	15901173	33.92	1.8683	
-5550	-5050	-5300	23000	46877027	14677	63.81	15901072	33.92	1.8812	
-5500	-5000	-5250	23000	46877027	14738	64.08	15901011	33.92	1.8891	
-5450	-4950	-5200	23000	46877027	14720	64.00	15901029	33.92	1.8868	
-5400	-4900	-5150	23000	46877027	14705	63.93	15901044	33.92	1.8848	
-5350	-4850	-5100	23000	46877027	14648	63.69	15901101	33.92	1.8775	
-5300	-4800	-5050	23000	46877027	14620	63.57	15901129	33.92	1.8739	
-5250	-4750	-5000	23000	46877027	14596	63.46	15901153	33.92	1.8708	
-5200	-4700	-4950	23000	46877027	14557	63.29	15901192	33.92	1.8658	
-5150	-4650	-4900	23000	46877027	14507	63.07	15901242	33.92	1.8594	
-5100	-4600	-4850	23000	46877027	14449	62.82	15901300	33.92	1.8520	
-5050	-4550	-4800	23000	46877027	14399	62.60	15901350	33.92	1.8456	
-5000	-4500	-4750	23000	46877027	14388	62.56	15901361	33.92	1.8442	
-4950	-4450	-4700	23000	46877027	14389	62.56	15901360	33.92	1.8443	
-4900	-4400	-4650	23000	46877027	14368	62.47	15901381	33.92	1.8416	
-4850	-4350	-4600	23000	46877027	14380	62.52	15901369	33.92	1.8431	
-4800	-4300	-4550	23000	46877027	14380	62.52	15901369	33.92	1.8431	
-4750	-4250	-4500	23000	46877027	14384	62.54	15901365	33.92	1.8436	
-4700	-4200	-4450	23000	46877027	14334	62.32	15901415	33.92	1.8372	
-4650	-4150	-4400	23000	46877027	14279	62.08	15901470	33.92	1.8302	
-4600	-4100	-4350	23000	46877027	14229	61.87	15901520	33.92	1.8238	
-4550	-4050	-4300	23000	46877027	14174	61.63	15901575	33.92	1.8167	
-4500	-4000	-4250	23000	46877027	14160	61.57	15901589	33.92	1.8149	
-4450	-3950	-4200	23000	46877027	14228	61.86	15901521	33.92	1.8236	
-4400	-3900	-4150	23000	46877027	14350	62.39	15901399	33.92	1.8393	
-4350	-3850	-4100	23000	46877027	14405	62.63	15901344	33.92	1.8463	
-4300	-3800	-4050	23000	46877027	14478	62.95	15901271	33.92	1.8557	
-4250	-3750	-4000	23000	46877027	14574	63.37	15901175	33.92	1.8680	
-4200	-3700	-3950	23000	46877027	14724	64.02	15901025	33.92	1.8873	
-4150	-3650	-3900	23000	46877027	14874	64.67	15900875	33.92	1.9065	
-4100	-3600	-3850	23000	46877027	14985	65.15	15900764	33.92	1.9208	
-4050	-3550	-3800	23000	46877027	15070	65.52	15900679	33.92	1.9317	
-4000	-3500	-3750	23000	46877027	15222	66.18	15900527	33.92	1.9512	
-3950	-3450	-3700	23000	46877027	15353	66.75	15900396	33.92	1.9680	
-3900	-3400	-3650	23000	46877027	15452	67.18	15900297	33.92	1.9807	
-3850	-3350	-3600	23000	46877027	15531	67.53	15900218	33.92	1.9908	
-3800	-3300	-3550	23000	46877027	15558	67.64	15900191	33.92	1.9943	
-3750	-3250	-3500	23000	46877027	15577	67.73	15900172	33.92	1.9967	
-3700	-3200	-3450	23000	46877027	15560	67.65	15900189	33.92	1.9945	
-3650	-3150	-3400	23000	46877027	15541	67.57	15900208	33.92	1.9921	
-3600	-3100	-3350	23000	46877027	15471	67.27	15900278	33.92	1.9831	
-3550	-3050	-3300	23000	46877027	15391	66.92	15900358	33.92	1.9728	
-3500	-3000	-3250	22986	46877041	15189	66.08	15900560	33.92	1.9481	
-3450	-2950	-3200	22886	46877141	14889	65.06	15900860	33.92	1.9179	
-3400	-2900	-3150	22786	46877241	14670	64.38	15901079	33.92	1.8980	
-3350	-2850	-3100	22686	46877341	14587	64.30	15901162	33.92	1.8956	
-3300	-2800	-3050	22586	46877441	14464	64.04	15901285	33.92	1.8879	
-3250	-2750	-3000	22514	46877513	14323	63.62	15901426	33.92	1.8755	
-3200	-2700	-2950	22614	46877413	14369	63.54	15901380	33.92	1.8732	
-3150	-2650	-2900	22714	46877313	14388	63.34	15901361	33.92	1.8674	
-3100	-2600	-2850	22814	46877213	14470	63.43	15901279	33.92	1.8698	
-3050	-2550	-2800	22914	46877113	14633	63.86	15901116	33.92	1.8826	
-3000	-2500	-2750	23000	46877027	14751	64.13	15900998	33.92	1.8907	
-2950	-2450	-2700	23000	46877027	14731	64.05	15901018	33.92	1.8882	
-2900	-2400	-2650	23000	46877027	14650	63.70	15901099	33.92	1.8778	
-2850	-2350	-2600	23000	46877027	14454	62.84	15901295	33.92	1.8526	
-2800	-2300	-2550	23000	46877027	14317	62.25	15901432	33.92	1.8351	
-2750	-2250	-2500	23000	46877027	14147	61.51	15901602	33.92	1.8132	
-2700	-2200	-2450	23000	46877027	14018	60.95	15901731	33.92	1.7967	
-2650	-2150	-2400	23000	46877027	13906	60.46	15901843	33.92	1.7823	
-2600	-2100	-2350	23000	46877027	13783	59.93	15901966	33.92	1.7665	
-2550	-2050	-2300	23000	46877027	13620	59.22	15902129	33.92	1.7456	
-2500	-2000	-2250	23000	46877027	13488	58.64	15902261	33.92	1.7287	
-2450	-1950	-2200	23000	46877027	13408	58.30	15902341	33.92	1.7184	
-2400	-1900	-2150	23000	46877027	13310	57.87	15902439	33.92	1.7059	
-2350	-1850	-2100	23000	46877027	13260	57.65	15902489	33.92	1.6995	
-2300	-1800	-2050	23000	46877027	13220	57.48	15902529	33.92	1.6943	
-2250	-1750	-2000	23000	46877027	13216	57.46	15902533	33.92	1.6938	
-2200	-1700	-1950	23000	46877027	13116	57.03	15902633	33.92	1.6810	
-2150	-1650	-1900	23000	46877027	13012	56.57	15902737	33.92	1.6676	
-2100	-1600	-1850	23000	46877027	12988	56.47	15902761	33.92	1.6646	
-2050	-1550	-1800	22951	46877076	12968	56.50	15902781	33.92	1.6656	
-2000	-1500	-1750	22851	46877176	12995	56.87	15902754	33.92	1.6763	
-1950	-1450	-1700	22751	46877276	13017	57.22	15902732	33.92	1.6866	
-1900	-1400	-1650	22651	46877376	12983	57.32	15902766	33.92	1.6896	
-1850	-1350	-1600	22551	46877476	12883	57.13	15902866	33.92	1.6840	
-1800	-1300	-1550	22549	46877478	12835	56.92	15902914	33.92	1.6779	
-1750	-1250	-1500	22649	46877378	12856	56.76	15902893	33.92	1.6732	
-1700	-1200	-1450	22749	46877278	12892	56.67	15902857	33.92	1.6705	
-1650	-1150	-1400	22849	46877178	12954	56.69	15902795	33.92	1.6712	
-1600	-1100	-1350	22949	46877078	12976	56.54	15902773	33.92	1.6667	
-1550	-1050	-1300	23000	46877027	12946	56.29	15902803	33.92	1.6592	
-1500	-1000	-1250	23000	46877027	12865	55.93	15902884	33.92	1.6488	
-1450	-950	-1200	23000	46877027	12790	55.61	15902959	33.92	1.6392	
-1400	-900	-1150	23000	46877027	12916	56.16	15902833	33.92	1.6553	
-1350	-850	-1100	23000	46877027	13066	56.81	15902683	33.92	1.6746	
-1300	-800	-1050	23000	46877027	13242	57.57	15902507	33.92	1.6971	
-1250	-750	-1000	23000	46877027	13460	58.52	15902289	33.92	1.7251	
-1200	-700	-950	23000	46877027	13772	59.88	15901977	33.92	1.7651	
-1150	-650	-900	23000	46877027	14076	61.20	15901673	33.92	1.8041	
-1100	-600	-850	23000	46877027	14376	62.50	15901373	33.92	1.8426	
-1050	-550	-800	23000	46877027	14644	63.67	15901105	33.92	1.8770	
-1000	-500	-750	23000	46877027	14770	64.22	15900979	33.92	1.8932	
-950	-450	-700	23000	46877027	14873	64.67	15900876	33.92	1.9064	
-900	-400	-650	23000	46877027	14829	64.47	15900920	33.92	1.9007	
-850	-350	-600	23000	46877027	14759	64.17	15900990	33.92	1.8918	
-800	-300	-550	23000	46877027	14668	63.77	15901081	33.92	1.8801	
-750	-250	-500	23000	46877027	14503	63.06	15901246	33.92	1.8589	
-700	-200	-450	23000	46877027	14300	62.17	15901449	33.92	1.8329	
-650	-150	-400	23000	46877027	14100	61.30	15901649	33.92	1.8072	
-600	-100	-350	23000	46877027	13892	60.40	15901857	33.92	1.7805	
-550	-50	-300	23000	46877027	13654	59.37	15902095	33.92	1.7500	
-500	0	-250	23000	46877027	13485	58.63	15902264	33.92	1.7283	
-450	50	-200	23000	46877027	13281	57.74	15902468	33.92	1.7022	
-400	100	-150	23000	46877027	13031	56.66	15902718	33.92	1.6701	
-350	150	-100	23000	46877027	12774	55.54	15902975	33.92	1.6371	
-300	200	-50	23000	46877027	12537	54.51	15903212	33.93	1.6067	
-250	250	0	23000	46877027	12386	53.85	15903363	33.93	1.5874	
-200	300	50	22958	46877069	12208	53.18	15903541	33.93	1.5674	
-150	350	100	22766	46877261	11898	52.26	15903851	33.93	1.5404	
-100	400	150	22466	46877561	11580	51.54	15904169	33.93	1.5193	
-50	450	200	22166	46877861	11319	51.06	15904430	33.93	1.5051	
0	500	250	21866	46878161	11008	50.34	15904741	33.93	1.4838	
50	550	300	21650	46878377	10900	50.35	15904849	33.93	1.4839	
100	600	350	21734	46878293	11001	50.62	15904748	33.93	1.4919	
150	650	400	22034	46877993	11377	51.63	15904372	33.93	1.5219	
200	700	450	22334	46877693	11740	52.57	15904009	33.93	1.5494	
250	750	500	22634	46877393	12090	53.42	15903659	33.93	1.5745	
300	800	550	22892	46877135	12473	54.49	15903276	33.93	1.6061	
350	850	600	23000	46877027	12799	55.65	15902950	33.92	1.6403	
400	900	650	22958	46877069	12904	56.21	15902845	33.92	1.6568	
450	950	700	22858	46877169	13065	57.16	15902684	33.92	1.6849	
500	1000	750	22758	46877269	13341	58.62	15902408	33.92	1.7280	
550	1050	800	22658	46877369	13518	59.66	15902231	33.92	1.7587	
600	1100	850	22558	46877469	13668	60.59	15902081	33.92	1.7861	
650	1150	900	22542	46877485	13771	61.09	15901978	33.92	1.8009	
700	1200	950	22642	46877385	13844	61.14	15901905	33.92	1.8024	
750	1250	1000	22742	46877285	13894	61.09	15901855	33.92	1.8010	
800	1300	1050	22842	46877185	13944	61.05	15901805	33.92	1.7996	
850	1350	1100	22942	46877085	13994	61.00	15901755	33.92	1.7982	
900	1400	1150	23000	46877027	14043	61.06	15901706	33.92	1.7999	
950	1450	1200	23000	46877027	14047	61.07	15901702	33.92	1.8004	
1000	1500	1250	23000	46877027	14032	61.01	15901717	33.92	1.7985	
1050	1550	1300	22900	46877127	13881	60.62	15901868	33.92	1.7869	
1100	1600	1350	22700	46877327	13702	60.36	15902047	33.92	1.7794	
1150	1650	1400	22500	46877527	13547	60.21	15902202	33.92	1.7749	
1200	1700	1450	22300	46877727	13363	59.92	15902386	33.92	1.7665	
1250	1750	1500	22100	46877927	13123	59.38	15902626	33.92	1.7504	
1300	1800	1550	22033	46877994	13080	59.37	15902669	33.92	1.7500	
1350	1850	1600	22133	46877894	13063	59.02	15902686	33.92	1.7398	
1400	1900	1650	22233	46877794	13009	58.51	15902740	33.92	1.7248	
1450	1950	1700	22333	46877694	12959	58.03	15902790	33.92	1.7105	
1500	2000	1750	22433	46877594	12918	57.58	15902831	33.92	1.6975	
1550	2050	1800	22567	46877460	12910	57.21	15902839	33.92	1.6863	
1600	2100	1850	22667	46877360	12969	57.22	15902780	33.92	1.6866	
1650	2150	1900	22767	46877260	12945	56.86	15902804	33.92	1.6760	
1700	2200	1950	22867	46877160	12967	56.71	15902782	33.92	1.6715	
1750	2250	2000	22967	46877060	12999	56.60	15902750	33.92	1.6684	
1800	2300	2050	23000	46877027	12928	56.21	15902821	33.92	1.6569	
1850	2350	2100	23000	46877027	12805	55.67	15902944	33.92	1.6411	
1900	2400	2150	23000	46877027	12731	55.35	15903018	33.92	1.6316	
1950	2450	2200	23000	46877027	12664	55.06	15903085	33.93	1.6230	
2000	2500	2250	23000	46877027	12575	54.67	15903174	33.93	1.6116	
2050	2550	2300	23000	46877027	12378	53.82	15903371	33.93	1.5863	
2100	2600	2350	23000	46877027	12198	53.03	15903551	33.93	1.5632	
2150	2650	2400	23000	46877027	12124	52.71	15903625	33.93	1.5538	
2200	2700	2450	23000	46877027	12029	52.30	15903720	33.93	1.5416	
2250	2750	2500	23000	46877027	12013	52.23	15903736	33.93	1.5395	
2300	2800	2550	23000	46877027	11992	52.14	15903757	33.93	1.5368	
2350	2850	2600	23000	46877027	11982	52.10	15903767	33.93	1.5355	
2400	2900	2650	23000	46877027	11973	52.06	15903776	33.93	1.5344	
2450	2950	2700	23000	46877027	12038	52.34	15903711	33.93	1.5427	
2500	3000	2750	23000	46877027	12118	52.69	15903631	33.93	1.5530	
2550	3050	2800	23000	46877027	12291	53.44	15903458	33.93	1.5752	
2600	3100	2850	23000	46877027	12452	54.14	15903297	33.93	1.5958	
2650	3150	2900	23000	46877027	12537	54.51	15903212	33.93	1.6067	
2700	3200	2950	23000	46877027	12525	54.46	15903224	33.93	1.6052	
2750	3250	3000	23000	46877027	12517	54.42	15903232	33.93	1.6042	
2800	3300	3050	23000	46877027	12558	54.60	15903191	33.93	1.6094	
2850	3350	3100	23000	46877027	12558	54.60	15903191	33.93	1.6094	
2900	3400	3150	23000	46877027	12536	54.50	15903213	33.93	1.6066	
2950	3450	3200	23000	46877027	12432	54.05	15903317	33.93	1.5933	
3000	3500	3250	22904	46877123	12325	53.81	15903424	33.93	1.5862	
3050	3550	3300	22804	46877223	12294	53.91	15903455	33.93	1.5891	
3100	3600	3350	22704	46877323	12260	54.00	15903489	33.93	1.5917	
3150	3650	3400	22604	46877423	12226	54.09	15903523	33.93	1.5943	
3200	3700	3450	22504	46877523	12332	54.80	15903417	33.93	1.6153	
3250	3750	3500	22596	46877431	12403	54.89	15903346	33.93	1.6180	
3300	3800	3550	22696	46877331	12480	54.99	15903269	33.93	1.6208	
3350	3850	3600	22796	46877231	12556	55.08	15903193	33.93	1.6236	
3400	3900	3650	22896	46877131	12648	55.24	15903101	33.93	1.6283	
3450	3950	3700	22996	46877031	12754	55.46	15902995	33.92	1.6348	
3500	4000	3750	23000	46877027	12811	55.70	15902938	33.92	1.6419	
3550	4050	3800	23000	46877027	12796	55.63	15902953	33.92	1.6399	
3600	4100	3850	23000	46877027	12819	55.73	15902930	33.92	1.6429	
3650	4150	3900	23000	46877027	12839	55.82	15902910	33.92	1.6455	
3700	4200	3950	23000	46877027	12827	55.77	15902922	33.92	1.6439	
3750	4250	4000	23000	46877027	12838	55.82	15902911	33.92	1.6453	
3800	4300	4050	23000	46877027	12878	55.99	15902871	33.92	1.6505	
3850	4350	4100	23000	46877027	12988	56.47	15902761	33.92	1.6646	
3900	4400	4150	23000	46877027	13105	56.98	15902644	33.92	1.6796	
3950	4450	4200	23000	46877027	13176	57.29	15902573	33.92	1.6887	
4000	4500	4250	23000	46877027	13185	57.33	15902564	33.92	1.6898	
4050	4550	4300	23000	46877027	13058	56.77	15902691	33.92	1.6735	
4100	4600	4350	23000	46877027	12893	56.06	15902856	33.92	1.6524	
4150	4650	4400	23000	46877027	12726	55.33	15903023	33.92	1.6310	
4200	4700	4450	23000	46877027	12554	54.58	15903195	33.93	1.6089	
4250	4750	4500	23000	46877027	12354	53.71	15903395	33.93	1.5833	
4300	4800	4550	23000	46877027	12099	52.60	15903650	33.93	1.5505	
4350	4850	4600	23000	46877027	11801	51.31	15903948	33.93	1.5123	
4400	4900	4650	23000	46877027	11538	50.17	15904211	33.93	1.4786	
4450	4950	4700	23000	46877027	11361	49.40	15904388	33.93	1.4559	
4500	5000	4750	23000	46877027	11252	48.92	15904497	33.93	1.4419	
4550	5050	4800	23000	46877027	11219	48.78	15904530	33.93	1.4377	
4600	5100	4850	23000	46877027	11263	48.97	15904486	33.93	1.4433	
4650	5150	4900	23000	46877027	11312	49.18	15904437	33.93	1.4496	
4700	5200	4950	23000	46877027	11352	49.36	15904397	33.93	1.4547	
4750	5250	5000	23000	46877027	11360	49.39	15904389	33.93	1.4558	
4800	5300	5050	23000	46877027	11446	49.77	15904303	33.93	1.4668	
4850	5350	5100	23000	46877027	11647	50.64	15904102	33.93	1.4926	
4900	5400	5150	23000	46877027	11810	51.35	15903939	33.93	1.5135	
4950	5450	5200	23000	46877027	11944	51.93	15903805	33.93	1.5307	
5000	5500	5250	23000	46877027	12144	52.80	15903605	33.93	1.5563	
5050	5550	5300	23000	46877027	12377	53.81	15903372	33.93	1.5862	
5100	5600	5350	23000	46877027	12551	54.57	15903198	33.93	1.6085	
5150	5650	5400	23000	46877027	12764	55.50	15902985	33.92	1.6358	
5200	5700	5450	23000	46877027	13045	56.72	15902704	33.92	1.6719	
5250	5750	5500	23000	46877027	13349	58.04	15902400	33.92	1.7109	
5300	5800	5550	23000	46877027	13628	59.25	15902121	33.92	1.7467	
5350	5850	5600	23000	46877027	13837	60.16	15901912	33.92	1.7735	
5400	5900	5650	23000	46877027	14017	60.94	15901732	33.92	1.7966	
5450	5950	5700	23000	46877027	14253	61.97	15901496	33.92	1.8268	
5500	6000	5750	23000	46877027	14455	62.85	15901294	33.92	1.8528	
5550	6050	5800	23000	46877027	14663	63.75	15901086	33.92	1.8794	
5600	6100	5850	23000	46877027	14910	64.83	15900839	33.92	1.9111	
5650	6150	5900	23000	46877027	15168	65.95	15900581	33.92	1.9442	
5700	6200	5950	23000	46877027	15387	66.90	15900362	33.92	1.9723	
5750	6250	6000	23000	46877027	15615	67.89	15900134	33.92	2.0016	
5800	6300	6050	23000	46877027	15791	68.66	15899958	33.92	2.0242	
5850	6350	6100	23000	46877027	15922	69.23	15899827	33.92	2.0410	
5900	6400	6150	23000	46877027	16070	69.87	15899679	33.92	2.0600	
5950	6450	6200	23000	46877027	16106	70.03	15899643	33.92	2.0646	
6000	6500	6250	23000	46877027	16111	70.05	15899638	33.92	2.0652	
6050	6550	6300	23000	46877027	16103	70.01	15899646	33.92	2.0642	
6100	6600	6350	23000	46877027	16049	69.78	15899700	33.92	2.0573	
6150	6650	6400	23000	46877027	15936	69.29	15899813	33.92	2.0428	
6200	6700	6450	23000	46877027	15717	68.33	15900032	33.92	2.0147	
6250	6750	6500	23000	46877027	15500	67.39	15900249	33.92	1.9868	
6300	6800	6550	23000	46877027	15344	66.71	15900405	33.92	1.9668	
6350	6850	6600	23000	46877027	15215	66.15	15900534	33.92	1.9503	
6400	6900	6650	23000	46877027	15110	65.70	15900639	33.92	1.9368	
6450	6950	6700	23000	46877027	15023	65.32	15900726	33.92	1.9256	
6500	7000	6750	23000	46877027	14966	65.07	15900783	33.92	1.9183	
6550	7050	6800	23000	46877027	14926	64.90	15900823	33.92	1.9132	
6600	7100	6850	23000	46877027	14930	64.91	15900819	33.92	1.9137	
6650	7150	6900	23000	46877027	14984	65.15	15900765	33.92	1.9206	
6700	7200	6950	23000	46877027	15153	65.88	15900596	33.92	1.9423	
6750	7250	7000	23000	46877027	15330	66.65	15900419	33.92	1.9650	
6800	7300	7050	23000	46877027	15460	67.22	15900289	33.92	1.9817	
6850	7350	7100	23000	46877027	15560	67.65	15900189	33.92	1.9945	
6900	7400	7150	23000	46877027	15637	67.99	15900112	33.92	2.0044	
6950	7450	7200	23000	46877027	15724	68.37	15900025	33.92	2.0156	
7000	7500	7250	23000	46877027	15801	68.70	15899948	33.92	2.0254	
7050	7550	7300	23000	46877027	15841	68.87	15899908	33.92	2.0306	
7100	7600	7350	23000	46877027	15864	68.97	15899885	33.92	2.0335	
7150	7650	7400	23000	46877027	15907	69.16	15899842	33.92	2.0390	
7200	7700	7450	23000	46877027	15957	69.38	15899792	33.92	2.0455	
7250	7750	7500	23000	46877027	16007	69.60	15899742	33.92	2.0519	
7300	7800	7550	23000	46877027	16052	69.79	15899697	33.92	2.0577	
7350	7850	7600	23000	46877027	16052	69.79	15899697	33.92	2.0577	
7400	7900	7650	23000	46877027	16028	69.69	15899721	33.92	2.0546	
7450	7950	7700	23000	46877027	15878	69.03	15899871	33.92	2.0353	
7500	8000	7750	23000	46877027	15751	68.48	15899998	33.92	2.0190	
7550	8050	7800	23000	46877027	15651	68.05	15900098	33.92	2.0062	
7600	8100	7850	23000	46877027	15522	67.49	15900227	33.92	1.9896	
7650	8150	7900	23000	46877027	15315	66.59	15900434	33.92	1.9631	
7700	8200	7950	23000	46877027	15099	65.65	15900650	33.92	1.9354	
7750	8250	8000	23000	46877027	14847	64.55	15900902	33.92	1.9030	
7800	8300	8050	23000	46877027	14528	63.17	15901221	33.92	1.8621	
7850	8350	8100	23000	46877027	14200	61.74	15901549	33.92	1.8200	
7900	8400	8150	23000	46877027	13886	60.37	15901863	33.92	1.7798	
7950	8450	8200	23000	46877027	13736	59.72	15902013	33.92	1.7605	
8000	8500	8250	23000	46877027	13586	59.07	15902163	33.92	1.7413	
8050	8550	8300	23000	46877027	13424	58.37	15902325	33.92	1.7205	
8100	8600	8350	23000	46877027	13222	57.49	15902527	33.92	1.6946	
8150	8650	8400	23000	46877027	13022	56.62	15902727	33.92	1.6689	
8200	8700	8450	23000	46877027	12821	55.74	15902928	33.92	1.6431	
8250	8750	8500	23000	46877027	12740	55.39	15903009	33.92	1.6328	
8300	8800	8550	23000	46877027	12813	55.71	15902936	33.92	1.6421	
8350	8850	8600	23000	46877027	13047	56.73	15902702	33.92	1.6721	
8400	8900	8650	23000	46877027	13285	57.76	15902464	33.92	1.7027	
8450	8950	8700	23000	46877027	13532	58.83	15902217	33.92	1.7343	
8500	9000	8750	23000	46877027	13832	60.14	15901917	33.92	1.7728	
8550	9050	8800	23000	46877027	14143	61.49	15901606	33.92	1.8127	
8600	9100	8850	23000	46877027	14451	62.83	15901298	33.92	1.8522	
8650	9150	8900	23000	46877027	14801	64.35	15900948	33.92	1.8971	
8700	9200	8950	23000	46877027	15118	65.73	15900631	33.92	1.9378	
8750	9250	9000	23000	46877027	15350	66.74	15900399	33.92	1.9676	
8800	9300	9050	23000	46877027	15411	67.00	15900338	33.92	1.9754	
8850	9350	9100	23000	46877027	15368	66.82	15900381	33.92	1.9699	
8900	9400	9150	23000	46877027	15318	66.60	15900431	33.92	1.9635	
8950	9450	9200	23000	46877027	15260	66.35	15900489	33.92	1.9560	
9000	9500	9250	23000	46877027	15194	66.06	15900555	33.92	1.9476	
9050	9550	9300	23000	46877027	15145	65.85	15900604	33.92	1.9413	
9100	9600	9350	23000	46877027	15145	65.85	15900604	33.92	1.9413	
9150	9650	9400	22975	46877052	15145	65.92	15900604	33.92	1.9434	
9200	9700	9450	22875	46877152	15161	66.28	15900588	33.92	1.9540	
9250	9750	9500	22775	46877252	15162	66.57	15900587	33.92	1.9627	
9300	9800	9550	22675	46877352	15252	67.26	15900497	33.92	1.9830	
9350	9850	9600	22575	46877452	15301	67.78	15900448	33.92	1.9982	
9400	9900	9650	22525	46877502	15351	68.15	15900398	33.92	2.0092	
9450	9950	9700	22625	46877402	15362	67.90	15900387	33.92	2.0018	
9500	10000	9750	22725	46877302	15292	67.29	15900457	33.92	1.9839	
9550	10050	9800	22825	46877202	15285	66.97	15900464	33.92	1.9743	
9600	10100	9850	22925	46877102	15285	66.67	15900464	33.92	1.9657	
9650	10150	9900	23000	46877027	15266	66.37	15900483	33.92	1.9568	
9700	10200	9950	23000	46877027	15196	66.07	15900553	33.92	1.9478	
9750	10250	10000	23000	46877027	15096	65.63	15900653	33.92	1.9350	
9800	10300	10050	23000	46877027	14996	65.20	15900753	33.92	1.9222	
9850	10350	10100	23000	46877027	14841	64.53	15900908	33.92	1.9023	
9900	10400	10150	23000	46877027	14674	63.80	15901075	33.92	1.8809	
9950	10450	10200	23000	46877027	14487	62.99	15901262	33.92	1.8569	
10000	10500	10250	23000	46877027	14337	62.33	15901412	33.92	1.8376	
10050	10550	10300	23000	46877027	14091	61.27	15901658	33.92	1.8061	
10100	10600	10350	23000	46877027	13797	59.99	15901952	33.92	1.7683	
10150	10650	10400	23000	46877027	13566	58.98	15902183	33.92	1.7387	
10200	10700	10450	23000	46877027	13370	58.13	15902379	33.92	1.7136	
10250	10750	10500	23000	46877027	13293	57.80	15902456	33.92	1.7037	
10300	10800	10550	23000	46877027	13243	57.58	15902506	33.92	1.6973	
10350	10850	10600	23000	46877027	13264	57.67	15902485	33.92	1.7000	
10400	10900	10650	23000	46877027	13331	57.96	15902418	33.92	1.7086	
10450	10950	10700	23000	46877027	13418	58.34	15902331	33.92	1.7197	
10500	11000	10750	23000	46877027	13484	58.63	15902265	33.92	1.7282	
10550	11050	10800	23000	46877027	13612	59.18	15902137	33.92	1.7446	
10600	11100	10850	23000	46877027	13823	60.10	15901926	33.92	1.7717	
10650	11150	10900	23000	46877027	13970	60.74	15901779	33.92	1.7905	
10700	11200	10950	23000	46877027	14053	61.10	15901696	33.92	1.8012	
10750	11250	11000	23000	46877027	14058	61.12	15901691	33.92	1.8018	
10800	11300	11050	23000	46877027	14058	61.12	15901691	33.92	1.8018	
10850	11350	11100	23000	46877027	14080	61.22	15901669	33.92	1.8046	
10900	11400	11150	23000	46877027	14080	61.22	15901669	33.92	1.8046	
10950	11450	11200	23000	46877027	14080	61.22	15901669	33.92	1.8046	
11000	11500	11250	23000	46877027	14124	61.41	15901625	33.92	1.8103	
11050	11550	11300	23000	46877027	14077	61.20	15901672	33.92	1.8043	
11100	11600	11350	23000	46877027	13960	60.70	15901789	33.92	1.7893	
11150	11650	11400	23000	46877027	13858	60.25	15901891	33.92	1.7762	
11200	11700	11450	23000	46877027	13692	59.53	15902057	33.92	1.7549	
11250	11750	11500	23000	46877027	13559	58.95	15902190	33.92	1.7378	
11300	11800	11550	23000	46877027	13409	58.30	15902340	33.92	1.7186	
11350	11850	11600	23000	46877027	13216	57.46	15902533	33.92	1.6938	
11400	11900	11650	23000	46877027	12956	56.33	15902793	33.92	1.6605	
11450	11950	11700	23000	46877027	12695	55.20	15903054	33.93	1.6270	
11500	12000	11750	23000	46877027	12521	54.44	15903228	33.93	1.6047	
11550	12050	11800	23000	46877027	12433	54.06	15903316	33.93	1.5934	
11600	12100	11850	23000	46877027	12366	53.77	15903383	33.93	1.5848	
11650	12150	11900	23000	46877027	12221	53.13	15903528	33.93	1.5662	
11700	12200	11950	23000	46877027	12235	53.20	15903514	33.93	1.5680	
11750	12250	12000	23000	46877027	12240	53.22	15903509	33.93	1.5686	
11800	12300	12050	23000	46877027	12200	53.04	15903549	33.93	1.5635	
11850	12350	12100	23000	46877027	12213	53.10	15903536	33.93	1.5652	
11900	12400	12150	23000	46877027	12382	53.83	15903367	33.93	1.5868	
11950	12450	12200	23000	46877027	12593	54.75	15903156	33.93	1.6139	
12000	12500	12250	23000	46877027	12659	55.04	15903090	33.93	1.6224	
12050	12550	12300	23000	46877027	12619	54.87	15903130	33.93	1.6172	
12100	12600	12350	23000	46877027	12532	54.49	15903217	33.93	1.6061	
12150	12650	12400	23000	46877027	12572	54.66	15903177	33.93	1.6112	
12200	12700	12450	23000	46877027	12591	54.74	15903158	33.93	1.6136	
12250	12750	12500	23000	46877027	12613	54.84	15903136	33.93	1.6165	
12300	12800	12550	23000	46877027	12703	55.23	15903046	33.93	1.6280	
12350	12850	12600	23000	46877027	12727	55.33	15903022	33.92	1.6311	
12400	12900	12650	23000	46877027	12618	54.86	15903131	33.93	1.6171	
12450	12950	12700	23000	46877027	12426	54.03	15903323	33.93	1.5925	
12500	13000	12750	23000	46877027	12260	53.30	15903489	33.93	1.5712	
12550	13050	12800	23000	46877027	12239	53.21	15903510	33.93	1.5685	
12600	13100	12850	23000	46877027	12293	53.45	15903456	33.93	1.5754	
12650	13150	12900	23000	46877027	12303	53.49	15903446	33.93	1.5767	
12700	13200	12950	22925	46877102	12184	53.15	15903565	33.93	1.5666	
12750	13250	13000	22825	46877202	12012	52.63	15903737	33.93	1.5512	
12800	13300	13050	22725	46877302	11834	52.07	15903915	33.93	1.5349	
12850	13350	13100	22625	46877402	11740	51.89	15904009	33.93	1.5295	
12900	13400	13150	22525	46877502	11696	51.92	15904053	33.93	1.5305	
12950	13450	13200	22575	46877452	11881	52.63	15903868	33.93	1.5513	
13000	13500	13250	22675	46877352	12114	53.42	15903635	33.93	1.5747	
13050	13550	13300	22775	46877252	12311	54.05	15903438	33.93	1.5933	
13100	13600	13350	22875	46877152	12461	54.47	15903288	33.93	1.6057	
13150	13650	13400	22975	46877052	12611	54.89	15903138	33.93	1.6180	
13200	13700	13450	23000	46877027	12766	55.50	15902983	33.92	1.6361	
13250	13750	13500	23000	46877027	12916	56.16	15902833	33.92	1.6553	
13300	13800	13550	23000	46877027	13044	56.71	15902705	33.92	1.6718	
13350	13850	13600	23000	46877027	13144	57.15	15902605	33.92	1.6846	
13400	13900	13650	23000	46877027	13238	57.56	15902511	33.92	1.6966	
13450	13950	13700	23000	46877027	13307	57.86	15902442	33.92	1.7055	
13500	14000	13750	23000	46877027	13374	58.15	15902375	33.92	1.7141	
13550	14050	13800	23000	46877027	13353	58.06	15902396	33.92	1.7114	
13600	14100	13850	23000	46877027	13353	58.06	15902396	33.92	1.7114	
13650	14150	13900	23000	46877027	13352	58.05	15902397	33.92	1.7113	
13700	14200	13950	23000	46877027	13279	57.73	15902470	33.92	1.7019	
13750	14250	14000	23000	46877027	13311	57.87	15902438	33.92	1.7060	
13800	14300	14050	23000	46877027	13334	57.97	15902415	33.92	1.7090	
13850	14350	14100	23000	46877027	13334	57.97	15902415	33.92	1.7090	
13900	14400	14150	23000	46877027	13325	57.93	15902424	33.92	1.7078	
13950	14450	14200	23000	46877027	13254	57.63	15902495	33.92	1.6987	
14000	14500	14250	23000	46877027	13154	57.19	15902595	33.92	1.6859	
14050	14550	14300	23000	46877027	13116	57.03	15902633	33.92	1.6810	
14100	14600	14350	23000	46877027	12982	56.44	15902767	33.92	1.6638	
14150	14650	14400	23000	46877027	12803	55.67	15902946	33.92	1.6408	
14200	14700	14450	23000	46877027	12640	54.96	15903109	33.93	1.6199	
14250	14750	14500	23000	46877027	12371	53.79	15903378	33.93	1.5854	
14300	14800	14550	23000	46877027	12217	53.12	15903532	33.93	1.5657	
14350	14850	14600	23000	46877027	12145	52.80	15903604	33.93	1.5564	
14400	14900	14650	23000	46877027	12083	52.53	15903666	33.93	1.5485	
14450	14950	14700	23000	46877027	12042	52.36	15903707	33.93	1.5432	
14500	15000	14750	23000	46877027	12071	52.48	15903678	33.93	1.5470	
14550	15050	14800	23000	46877027	12164	52.89	15903585	33.93	1.5589	
14600	15100	14850	23000	46877027	12390	53.87	15903359	33.93	1.5879	
14650	15150	14900	23000	46877027	12731	55.35	15903018	33.92	1.6316	
14700	15200	14950	23000	46877027	13081	56.87	15902668	33.92	1.6765	
14750	15250	15000	23000	46877027	13431	58.40	15902318	33.92	1.7214	
14800	15300	15050	23000	46877027	13762	59.83	15901987	33.92	1.7639	
14850	15350	15100	23000	46877027	14082	61.23	15901667	33.92	1.8049	
14900	15400	15150	23000	46877027	14345	62.37	15901404	33.92	1.8386	
14950	15450	15200	23000	46877027	14595	63.46	15901154	33.92	1.8707	
15000	15500	15250	23000	46877027	14816	64.42	15900933	33.92	1.8991	
15050	15550	15300	23000	46877027	14956	65.03	15900793	33.92	1.9170	
15100	15600	15350	23000	46877027	15013	65.27	15900736	33.92	1.9243	
15150	15650	15400	23000	46877027	14939	64.95	15900810	33.92	1.9148	
15200	15700	15450	23000	46877027	14839	64.52	15900910	33.92	1.9020	
15250	15750	15500	23000	46877027	14726	64.03	15901023	33.92	1.8875	
15300	15800	15550	23000	46877027	14526	63.16	15901223	33.92	1.8619	
15350	15850	15600	23000	46877027	14227	61.86	15901522	33.92	1.8235	
15400	15900	15650	23000	46877027	13977	60.77	15901772	33.92	1.7914	
15450	15950	15700	23000	46877027	13823	60.10	15901926	33.92	1.7717	
15500	16000	15750	23000	46877027	13673	59.45	15902076	33.92	1.7524	
15550	16050	15800	23000	46877027	13484	58.63	15902265	33.92	1.7282	
15600	16100	15850	23000	46877027	13285	57.76	15902464	33.92	1.7027	
15650	16150	15900	23000	46877027	13138	57.12	15902611	33.92	1.6838	
15700	16200	15950	23000	46877027	13116	57.03	15902633	33.92	1.6810	
15750	16250	16000	23000	46877027	13066	56.81	15902683	33.92	1.6746	
15800	16300	16050	23000	46877027	13016	56.59	15902733	33.92	1.6682	
15850	16350	16100	23000	46877027	13017	56.60	15902732	33.92	1.6683	
15900	16400	16150	23000	46877027	12999	56.52	15902750	33.92	1.6660	
15950	16450	16200	23000	46877027	12906	56.11	15902843	33.92	1.6541	
16000	16500	16250	23000	46877027	12743	55.40	15903006	33.92	1.6331	
16050	16550	16300	23000	46877027	12596	54.77	15903153	33.93	1.6143	
16100	16600	16350	23000	46877027	12546	54.55	15903203	33.93	1.6079	
16150	16650	16400	23000	46877027	12506	54.37	15903243	33.93	1.6027	
16200	16700	16450	23000	46877027	12411	53.96	15903338	33.93	1.5906	
16250	16750	16500	23000	46877027	12393	53.88	15903356	33.93	1.5883	
16300	16800	16550	23000	46877027	12343	53.67	15903406	33.93	1.5818	
16350	16850	16600	23000	46877027	12254	53.28	15903495	33.93	1.5704	
16400	16900	16650	23000	46877027	12230	53.17	15903519	33.93	1.5673	
16450	16950	16700	23000	46877027	12254	53.28	15903495	33.93	1.5704	
16500	17000	16750	23000	46877027	12241	53.22	15903508	33.93	1.5688	
16550	17050	16800	23000	46877027	12244	53.23	15903505	33.93	1.5691	
16600	17100	16850	23000	46877027	12244	53.23	15903505	33.93	1.5691	
16650	17150	16900	23000	46877027	12244	53.23	15903505	33.93	1.5691	
16700	17200	16950	23000	46877027	12254	53.28	15903495	33.93	1.5704	
16750	17250	17000	23000	46877027	12195	53.02	15903554	33.93	1.5629	
16800	17300	17050	22940	46877087	12235	53.33	15903514	33.93	1.5721	
16850	17350	17100	22840	46877187	12374	54.18	15903375	33.93	1.5969	
16900	17400	17150	22740	46877287	12425	54.64	15903324	33.93	1.6106	
16950	17450	17200	22640	46877387	12423	54.87	15903326	33.93	1.6174	
17000	17500	17250	22540	46877487	12499	55.45	15903250	33.93	1.6346	
17050	17550	17300	22560	46877467	12624	55.96	15903125	33.92	1.6495	
17100	17600	17350	22660	46877367	12788	56.43	15902961	33.92	1.6635	
17150	17650	17400	22760	46877267	13023	57.22	15902726	33.92	1.6867	
17200	17700	17450	22860	46877167	13267	58.04	15902482	33.92	1.7108	
17250	17750	17500	22960	46877067	13557	59.05	15902192	33.92	1.7406	
17300	17800	17550	23000	46877027	13725	59.67	15902024	33.92	1.7591	
17350	17850	17600	23000	46877027	13768	59.86	15901981	33.92	1.7646	
17400	17900	17650	23000	46877027	13867	60.29	15901882	33.92	1.7773	
17450	17950	17700	23000	46877027	13899	60.43	15901850	33.92	1.7814	
17500	18000	17750	23000	46877027	13918	60.51	15901831	33.92	1.7839	
17550	18050	17800	23000	46877027	14054	61.10	15901695	33.92	1.8013	
17600	18100	17850	23000	46877027	14250	61.96	15901499	33.92	1.8265	
17650	18150	17900	23000	46877027	14427	62.73	15901322	33.92	1.8492	
17700	18200	17950	23000	46877027	14515	63.11	15901234	33.92	1.8605	
17750	18250	18000	23000	46877027	14531	63.18	15901218	33.92	1.8625	
17800	18300	18050	23000	46877027	14592	63.44	15901157	33.92	1.8703	
17850	18350	18100	23000	46877027	14664	63.76	15901085	33.92	1.8796	
17900	18400	18150	23000	46877027	14714	63.97	15901035	33.92	1.8860	
17950	18450	18200	23000	46877027	14919	64.87	15900830	33.92	1.9123	
18000	18500	18250	23000	46877027	15250	66.30	15900499	33.92	1.9548	
18050	18550	18300	23000	46877027	15482	67.31	15900267	33.92	1.9845	
18100	18600	18350	23000	46877027	15622	67.92	15900127	33.92	2.0025	
18150	18650	18400	23000	46877027	15696	68.24	15900053	33.92	2.0120	
18200	18700	18450	23000	46877027	15731	68.40	15900018	33.92	2.0165	
18250	18750	18500	23000	46877027	15671	68.13	15900078	33.92	2.0088	
18300	18800	18550	23000	46877027	15552	67.62	15900197	33.92	1.9935	
18350	18850	18600	23000	46877027	15460	67.22	15900289	33.92	1.9817	
18400	18900	18650	23000	46877027	15377	66.86	15900372	33.92	1.9710	
18450	18950	18700	23000	46877027	15132	65.79	15900617	33.92	1.9396	
18500	19000	18750	23000	46877027	14782	64.27	15900967	33.92	1.8947	
18550	19050	18800	23000	46877027	14432	62.75	15901317	33.92	1.8498	
18600	19100	18850	23000	46877027	14057	61.12	15901692	33.92	1.8017	
18650	19150	18900	23000	46877027	13621	59.22	15902128	33.92	1.7458	
18700	19200	18950	23000	46877027	13261	57.66	15902488	33.92	1.6996	
18750	19250	19000	23000	46877027	12972	56.40	15902777	33.92	1.6625	
18800	19300	19050	23000	46877027	12724	55.32	15903025	33.92	1.6307	
18850	19350	19100	23000	46877027	12449	54.13	15903300	33.93	1.5954	
18900	19400	19150	23000	46877027	12099	52.60	15903650	33.93	1.5505	
18950	19450	19200	23000	46877027	11844	51.50	15903905	33.93	1.5178	
19000	19500	19250	23000	46877027	11622	50.53	15904127	33.93	1.4894	
19050	19550	19300	22955	46877072	11467	49.95	15904282	33.93	1.4724	
19100	19600	19350	22855	46877172	11310	49.49	15904439	33.93	1.4586	
19150	19650	19400	22755	46877272	11189	49.17	15904560	33.93	1.4493	
19200	19700	19450	22655	46877372	11170	49.30	15904579	33.93	1.4532	
19250	19750	19500	22555	46877472	11207	49.69	15904542	33.93	1.4645	
19300	19800	19550	22545	46877482	11255	49.92	15904494	33.93	1.4714	
19350	19850	19600	22645	46877382	11340	50.08	15904409	33.93	1.4760	
19400	19900	19650	22745	46877282	11523	50.66	15904226	33.93	1.4932	
19450	19950	19700	22845	46877182	11744	51.41	15904005	33.93	1.5152	
19500	20000	19750	22945	46877082	11954	52.10	15903795	33.93	1.5356	
19550	20050	19800	23000	46877027	12151	52.83	15903598	33.93	1.5572	
19600	20100	19850	23000	46877027	12345	53.67	15903404	33.93	1.5821	
19650	20150	19900	23000	46877027	12612	54.83	15903137	33.93	1.6163	
19700	20200	19950	23000	46877027	12689	55.17	15903060	33.93	1.6262	
19750	20250	20000	23000	46877027	12708	55.25	15903041	33.93	1.6287	
19800	20300	20050	23000	46877027	12721	55.31	15903028	33.92	1.6303	
19850	20350	20100	23000	46877027	12711	55.27	15903038	33.93	1.6290	
19900	20400	20150	23000	46877027	12683	55.14	15903066	33.93	1.6254	
19950	20450	20200	23000	46877027	12603	54.80	15903146	33.93	1.6152	
20000	20500	20250	23000	46877027	12515	54.41	15903234	33.93	1.6039	
20050	20550	20300	23000	46877027	12373	53.80	15903376	33.93	1.5857	
20100	20600	20350	23000	46877027	12251	53.27	15903498	33.93	1.5700	
20150	20650	20400	23000	46877027	12165	52.89	15903584	33.93	1.5590	
20200	20700	20450	23000	46877027	12225	53.15	15903524	33.93	1.5667	
20250	20750	20500	23000	46877027	12317	53.55	15903432	33.93	1.5785	
20300	20800	20550	23000	46877027	12430	54.04	15903319	33.93	1.5930	
20350	20850	20600	23000	46877027	12585	54.72	15903164	33.93	1.6129	
20400	20900	20650	23000	46877027	12702	55.23	15903047	33.93	1.6279	
20450	20950	20700	23000	46877027	12761	55.48	15902988	33.92	1.6355	
20500	21000	20750	23000	46877027	12852	55.88	15902897	33.92	1.6471	
20550	21050	20800	23000	46877027	12948	56.30	15902801	33.92	1.6594	
20600	21100	20850	23000	46877027	13024	56.63	15902725	33.92	1.6692	
20650	21150	20900	23000	46877027	13064	56.80	15902685	33.92	1.6743	
20700	21200	20950	23000	46877027	13053	56.75	15902696	33.92	1.6729	
20750	21250	21000	23000	46877027	13092	56.92	15902657	33.92	1.6779	
20800	21300	21050	23000	46877027	13120	57.04	15902629	33.92	1.6815	
20850	21350	21100	23000	46877027	13115	57.02	15902634	33.92	1.6809	
20900	21400	21150	23000	46877027	13101	56.96	15902648	33.92	1.6791	
20950	21450	21200	23000	46877027	13090	56.91	15902659	33.92	1.6777	
21000	21500	21250	23000	46877027	12999	56.52	15902750	33.92	1.6660	
21050	21550	21300	22986	46877041	12925	56.23	15902824	33.92	1.6575	
21100	21600	21350	22886	46877141	12857	56.18	15902892	33.92	1.6560	
21150	21650	21400	22786	46877241	12804	56.19	15902945	33.92	1.6564	
21200	21700	21450	22686	46877341	12747	56.19	15903002	33.92	1.6563	
21250	21750	21500	22586	46877441	12656	56.03	15903093	33.92	1.6517	
21300	21800	21550	22514	46877513	12584	55.89	15903165	33.92	1.6476	
21350	21850	21600	22614	46877413	12634	55.87	15903115	33.92	1.6468	
21400	21900	21650	22714	46877313	12709	55.95	15903040	33.92	1.6493	
21450	21950	21700	22814	46877213	12860	56.37	15902889	33.92	1.6616	
21500	22000	21750	22875	46877152	13110	57.31	15902639	33.92	1.6894	
21550	22050	21800	22861	46877166	13360	58.44	15902389	33.92	1.7227	
21600	22100	21850	22761	46877266	13434	59.02	15902315	33.92	1.7399	
21650	22150	21900	22661	46877366	13374	59.02	15902375	33.92	1.7397	
21700	22200	21950	22561	46877466	13324	59.06	15902425	33.92	1.7409	
21750	22250	22000	22539	46877488	13340	59.19	15902409	33.92	1.7447	
21800	22300	22050	22639	46877388	13496	59.61	15902253	33.92	1.7573	
21850	22350	22100	22739	46877288	13683	60.17	15902066	33.92	1.7739	
21900	22400	22150	22839	46877188	13913	60.92	15901836	33.92	1.7958	
21950	22450	22200	22939	46877088	14161	61.73	15901588	33.92	1.8199	
22000	22500	22250	23000	46877027	14360	62.43	15901389	33.92	1.8406	
22050	22550	22300	23000	46877027	14475	62.93	15901274	33.92	1.8553	
22100	22600	22350	23000	46877027	14603	63.49	15901146	33.92	1.8717	
22150	22650	22400	22924	46877103	14816	64.63	15900933	33.92	1.9054	
22200	22700	22450	22824	46877203	14955	65.52	15900794	33.92	1.9317	
22250	22750	22500	22724	46877303	14964	65.85	15900785	33.92	1.9414	
22300	22800	22550	22624	46877403	14820	65.51	15900929	33.92	1.9312	
22350	22850	22600	22524	46877503	14685	65.20	15901064	33.92	1.9221	
22400	22900	22650	22576	46877451	14631	64.81	15901118	33.92	1.9106	
22450	22950	22700	22676	46877351	14581	64.30	15901168	33.92	1.8956	
22500	23000	22750	22776	46877251	14532	63.80	15901217	33.92	1.8810	
22550	23050	22800	22876	46877151	14521	63.48	15901228	33.92	1.8713	
22600	23100	22850	22976	46877051	14432	62.81	15901317	33.92	1.8517	
22650	23150	22900	23000	46877027	14302	62.18	15901447	33.92	1.8331	
22700	23200	22950	23000	46877027	14169	61.60	15901580	33.92	1.8161	
22750	23250	23000	23000	46877027	14019	60.95	15901730	33.92	1.7968	
22800	23300	23050	23000	46877027	13893	60.40	15901856	33.92	1.7807	
22850	23350	23100	23000	46877027	13655	59.37	15902094	33.92	1.7501	
22900	23400	23150	23000	46877027	13405	58.28	15902344	33.92	1.7181	
22950	23450	23200	23000	46877027	13155	57.20	15902594	33.92	1.6860	
23000	23500	23250	23000	46877027	12931	56.22	15902818	33.92	1.6573	
23050	23550	23300	23000	46877027	12601	54.79	15903148	33.93	1.6149	
23100	23600	23350	23000	46877027	12305	53.50	15903444	33.93	1.5770	
23150	23650	23400	23000	46877027	12085	52.54	15903664	33.93	1.5488	
23200	23700	23450	23000	46877027	11970	52.04	15903779	33.93	1.5340	
23250	23750	23500	23000	46877027	11886	51.68	15903863	33.93	1.5232	
23300	23800	23550	23000	46877027	11901	51.74	15903848	33.93	1.5252	
23350	23850	23600	23000	46877027	12072	52.49	15903677	33.93	1.5471	
23400	23900	23650	23000	46877027	12263	53.32	15903486	33.93	1.5716	
23450	23950	23700	22901	46877126	12335	53.86	15903414	33.93	1.5877	
23500	24000	23750	22801	46877226	12359	54.20	15903390	33.93	1.5977	
23550	24050	23800	22701	46877326	12407	54.65	15903342	33.93	1.6110	
23600	24100	23850	22601	46877426	12492	55.27	15903257	33.93	1.6292	
23650	24150	23900	22501	46877526	12542	55.74	15903207	33.93	1.6430	
23700	24200	23950	22599	46877428	12645	55.95	15903104	33.92	1.6493	
23750	24250	24000	22699	46877328	12743	56.14	15903006	33.92	1.6548	
23800	24300	24050	22799	46877228	12799	56.14	15902950	33.92	1.6548	
23850	24350	24100	22899	46877128	12849	56.11	15902900	33.92	1.6540	
23900	24400	24150	22999	46877028	12809	55.69	15902940	33.92	1.6417	
23950	24450	24200	23000	46877027	12689	55.17	15903060	33.93	1.6262	
24000	24500	24250	23000	46877027	12574	54.67	15903175	33.93	1.6115	
24050	24550	24300	23000	46877027	12456	54.16	15903293	33.93	1.5963	
24100	24600	24350	23000	46877027	12296	53.46	15903453	33.93	1.5758	
24150	24650	24400	23000	46877027	12110	52.65	15903639	33.93	1.5520	
24200	24700	24450	23000	46877027	11993	52.14	15903756	33.93	1.5370	
24250	24750	24500	23000	46877027	11863	51.58	15903886	33.93	1.5203	
24300	24800	24550	23000	46877027	11668	50.73	15904081	33.93	1.4953	
24350	24850	24600	23000	46877027	11471	49.87	15904278	33.93	1.4700	
24400	24900	24650	23000	46877027	11347	49.33	15904402	33.93	1.4541	
24450	24950	24700	23000	46877027	11247	48.90	15904502	33.93	1.4413	
24500	25000	24750	23000	46877027	11210	48.74	15904539	33.93	1.4365	
