Start	End	Midpoint	Breakpoint_bp	Non_breakpoint_bp	Feature_bp_inside	%Inside	Feature_bp_outside	%Outside	Ratio
-25000	-24500	-24750	21000	46879027	2649	12.61	3098001	6.61	1.9088	
-24950	-24450	-24700	21000	46879027	2486	11.84	3098164	6.61	1.7912	
-24900	-24400	-24650	21000	46879027	2331	11.10	3098319	6.61	1.6795	
-24850	-24350	-24600	21000	46879027	2184	10.40	3098466	6.61	1.5735	
-24800	-24300	-24550	21000	46879027	2084	9.92	3098566	6.61	1.5014	
-24750	-24250	-24500	21000	46879027	1984	9.45	3098666	6.61	1.4293	
-24700	-24200	-24450	21000	46879027	1934	9.21	3098716	6.61	1.3933	
-24650	-24150	-24400	21000	46879027	1942	9.25	3098708	6.61	1.3990	
-24600	-24100	-24350	21000	46879027	2023	9.63	3098627	6.61	1.4574	
-24550	-24050	-24300	21000	46879027	2156	10.27	3098494	6.61	1.5533	
-24500	-24000	-24250	21000	46879027	2314	11.02	3098336	6.61	1.6672	
-24450	-23950	-24200	21000	46879027	2427	11.56	3098223	6.61	1.7487	
-24400	-23900	-24150	21000	46879027	2577	12.27	3098073	6.61	1.8569	
-24350	-23850	-24100	21000	46879027	2724	12.97	3097926	6.61	1.9629	
-24300	-23800	-24050	21000	46879027	2824	13.45	3097826	6.61	2.0350	
-24250	-23750	-24000	21000	46879027	2924	13.92	3097726	6.61	2.1071	
-24200	-23700	-23950	21000	46879027	2983	14.20	3097667	6.61	2.1497	
-24150	-23650	-23900	21000	46879027	2975	14.17	3097675	6.61	2.1439	
-24100	-23600	-23850	21000	46879027	2889	13.76	3097761	6.61	2.0819	
-24050	-23550	-23800	21000	46879027	2677	12.75	3097973	6.61	1.9290	
-24000	-23500	-23750	21000	46879027	2444	11.64	3098206	6.61	1.7610	
-23950	-23450	-23700	21000	46879027	2244	10.69	3098406	6.61	1.6168	
-23900	-23400	-23650	21000	46879027	2044	9.73	3098606	6.61	1.4726	
-23850	-23350	-23600	21000	46879027	1844	8.78	3098806	6.61	1.3284	
-23800	-23300	-23550	21000	46879027	1644	7.83	3099006	6.61	1.1842	
-23750	-23250	-23500	21000	46879027	1431	6.81	3099219	6.61	1.0307	
-23700	-23200	-23450	21000	46879027	1272	6.06	3099378	6.61	0.9162	
-23650	-23150	-23400	21000	46879027	1166	5.55	3099484	6.61	0.8398	
-23600	-23100	-23350	21000	46879027	1102	5.25	3099548	6.61	0.7937	
-23550	-23050	-23300	21000	46879027	1131	5.39	3099519	6.61	0.8146	
-23500	-23000	-23250	21000	46879027	1181	5.62	3099469	6.61	0.8506	
-23450	-22950	-23200	21000	46879027	1239	5.90	3099411	6.61	0.8924	
-23400	-22900	-23150	21000	46879027	1289	6.14	3099361	6.61	0.9284	
-23350	-22850	-23100	21000	46879027	1285	6.12	3099365	6.61	0.9255	
-23300	-22800	-23050	21000	46879027	1197	5.70	3099453	6.61	0.8621	
-23250	-22750	-23000	21000	46879027	1135	5.40	3099515	6.61	0.8175	
-23200	-22700	-22950	21000	46879027	1085	5.17	3099565	6.61	0.7814	
-23150	-22650	-22900	21000	46879027	991	4.72	3099659	6.61	0.7137	
-23100	-22600	-22850	21000	46879027	891	4.24	3099759	6.61	0.6417	
-23050	-22550	-22800	21000	46879027	791	3.77	3099859	6.61	0.5696	
-23000	-22500	-22750	21000	46879027	691	3.29	3099959	6.61	0.4976	
-22950	-22450	-22700	21000	46879027	596	2.84	3100054	6.61	0.4292	
-22900	-22400	-22650	21000	46879027	496	2.36	3100154	6.61	0.3572	
-22850	-22350	-22600	21000	46879027	512	2.44	3100138	6.61	0.3687	
-22800	-22300	-22550	21000	46879027	650	3.10	3100000	6.61	0.4681	
-22750	-22250	-22500	21000	46879027	775	3.69	3099875	6.61	0.5581	
-22700	-22200	-22450	21000	46879027	875	4.17	3099775	6.61	0.6301	
-22650	-22150	-22400	21000	46879027	975	4.64	3099675	6.61	0.7022	
-22600	-22100	-22350	21000	46879027	1075	5.12	3099575	6.61	0.7742	
-22550	-22050	-22300	21000	46879027	1126	5.36	3099524	6.61	0.8110	
-22500	-22000	-22250	21000	46879027	1176	5.60	3099474	6.61	0.8470	
-22450	-21950	-22200	21000	46879027	1213	5.78	3099437	6.61	0.8736	
-22400	-21900	-22150	21000	46879027	1263	6.01	3099387	6.61	0.9097	
-22350	-21850	-22100	21000	46879027	1251	5.96	3099399	6.61	0.9010	
-22300	-21800	-22050	21000	46879027	1201	5.72	3099449	6.61	0.8650	
-22250	-21750	-22000	21000	46879027	1162	5.53	3099488	6.61	0.8369	
-22200	-21700	-21950	21000	46879027	1162	5.53	3099488	6.61	0.8369	
-22150	-21650	-21900	21000	46879027	1162	5.53	3099488	6.61	0.8369	
-22100	-21600	-21850	21000	46879027	1207	5.75	3099443	6.61	0.8693	
-22050	-21550	-21800	21000	46879027	1306	6.22	3099344	6.61	0.9407	
-22000	-21500	-21750	21000	46879027	1406	6.70	3099244	6.61	1.0127	
-21950	-21450	-21700	21000	46879027	1506	7.17	3099144	6.61	1.0848	
-21900	-21400	-21650	21000	46879027	1606	7.65	3099044	6.61	1.1569	
-21850	-21350	-21600	21000	46879027	1706	8.12	3098944	6.61	1.2289	
-21800	-21300	-21550	21000	46879027	1868	8.90	3098782	6.61	1.3457	
-21750	-21250	-21500	21000	46879027	1969	9.38	3098681	6.61	1.4185	
-21700	-21200	-21450	21000	46879027	2019	9.61	3098631	6.61	1.4545	
-21650	-21150	-21400	21000	46879027	2069	9.85	3098581	6.61	1.4906	
-21600	-21100	-21350	21000	46879027	2074	9.88	3098576	6.61	1.4942	
-21550	-21050	-21300	21000	46879027	2109	10.04	3098541	6.61	1.5194	
-21500	-21000	-21250	21000	46879027	2121	10.10	3098529	6.61	1.5281	
-21450	-20950	-21200	21000	46879027	2121	10.10	3098529	6.61	1.5281	
-21400	-20900	-21150	21000	46879027	2107	10.03	3098543	6.61	1.5180	
-21350	-20850	-21100	21000	46879027	2125	10.12	3098525	6.61	1.5310	
-21300	-20800	-21050	21000	46879027	2063	9.82	3098587	6.61	1.4863	
-21250	-20750	-21000	21000	46879027	2051	9.77	3098599	6.61	1.4776	
-21200	-20700	-20950	21000	46879027	1971	9.39	3098679	6.61	1.4199	
-21150	-20650	-20900	21000	46879027	1871	8.91	3098779	6.61	1.3479	
-21100	-20600	-20850	21000	46879027	1771	8.43	3098879	6.61	1.2758	
-21050	-20550	-20800	21000	46879027	1636	7.79	3099014	6.61	1.1785	
-21000	-20500	-20750	21000	46879027	1524	7.26	3099126	6.61	1.0978	
-20950	-20450	-20700	21000	46879027	1403	6.68	3099247	6.61	1.0106	
-20900	-20400	-20650	21000	46879027	1267	6.03	3099383	6.61	0.9126	
-20850	-20350	-20600	21000	46879027	1099	5.23	3099551	6.61	0.7915	
-20800	-20300	-20550	21000	46879027	949	4.52	3099701	6.61	0.6834	
-20750	-20250	-20500	21000	46879027	768	3.66	3099882	6.61	0.5531	
-20700	-20200	-20450	21000	46879027	648	3.09	3100002	6.61	0.4666	
-20650	-20150	-20400	21000	46879027	586	2.79	3100064	6.61	0.4220	
-20600	-20100	-20350	21000	46879027	536	2.55	3100114	6.61	0.3860	
-20550	-20050	-20300	21000	46879027	486	2.31	3100164	6.61	0.3500	
-20500	-20000	-20250	21000	46879027	398	1.90	3100252	6.61	0.2866	
-20450	-19950	-20200	21000	46879027	319	1.52	3100331	6.61	0.2297	
-20400	-19900	-20150	21000	46879027	269	1.28	3100381	6.61	0.1937	
-20350	-19850	-20100	21000	46879027	295	1.40	3100355	6.61	0.2124	
-20300	-19800	-20050	21000	46879027	375	1.79	3100275	6.61	0.2700	
-20250	-19750	-20000	21000	46879027	506	2.41	3100144	6.61	0.3644	
-20200	-19700	-19950	21000	46879027	656	3.12	3099994	6.61	0.4724	
-20150	-19650	-19900	21000	46879027	768	3.66	3099882	6.61	0.5531	
-20100	-19600	-19850	21000	46879027	868	4.13	3099782	6.61	0.6251	
-20050	-19550	-19800	21000	46879027	968	4.61	3099682	6.61	0.6971	
-20000	-19500	-19750	21000	46879027	1106	5.27	3099544	6.61	0.7966	
-19950	-19450	-19700	21000	46879027	1256	5.98	3099394	6.61	0.9046	
-19900	-19400	-19650	21000	46879027	1445	6.88	3099205	6.61	1.0408	
-19850	-19350	-19600	21000	46879027	1619	7.71	3099031	6.61	1.1662	
-19800	-19300	-19550	21000	46879027	1739	8.28	3098911	6.61	1.2527	
-19750	-19250	-19500	21000	46879027	1841	8.77	3098809	6.61	1.3262	
-19700	-19200	-19450	21000	46879027	1911	9.10	3098739	6.61	1.3767	
-19650	-19150	-19400	21000	46879027	1965	9.36	3098685	6.61	1.4156	
-19600	-19100	-19350	21000	46879027	2089	9.95	3098561	6.61	1.5050	
-19550	-19050	-19300	21000	46879027	2239	10.66	3098411	6.61	1.6131	
-19500	-19000	-19250	21000	46879027	2389	11.38	3098261	6.61	1.7213	
-19450	-18950	-19200	21000	46879027	2477	11.80	3098173	6.61	1.7848	
-19400	-18900	-19150	21000	46879027	2488	11.85	3098162	6.61	1.7927	
-19350	-18850	-19100	21000	46879027	2434	11.59	3098216	6.61	1.7538	
-19300	-18800	-19050	21000	46879027	2334	11.11	3098316	6.61	1.6816	
-19250	-18750	-19000	21000	46879027	2232	10.63	3098418	6.61	1.6081	
-19200	-18700	-18950	21000	46879027	2162	10.30	3098488	6.61	1.5576	
-19150	-18650	-18900	21000	46879027	2114	10.07	3098536	6.61	1.5230	
-19100	-18600	-18850	21000	46879027	1990	9.48	3098660	6.61	1.4336	
-19050	-18550	-18800	21000	46879027	1840	8.76	3098810	6.61	1.3255	
-19000	-18500	-18750	21000	46879027	1690	8.05	3098960	6.61	1.2174	
-18950	-18450	-18700	21000	46879027	1602	7.63	3099048	6.61	1.1540	
-18900	-18400	-18650	21000	46879027	1601	7.62	3099049	6.61	1.1532	
-18850	-18350	-18600	21000	46879027	1605	7.64	3099045	6.61	1.1561	
-18800	-18300	-18550	21000	46879027	1678	7.99	3098972	6.61	1.2087	
-18750	-18250	-18500	21000	46879027	1778	8.47	3098872	6.61	1.2808	
-18700	-18200	-18450	21000	46879027	1878	8.94	3098772	6.61	1.3529	
-18650	-18150	-18400	21000	46879027	1949	9.28	3098701	6.61	1.4041	
-18600	-18100	-18350	21000	46879027	1999	9.52	3098651	6.61	1.4401	
-18550	-18050	-18300	21000	46879027	2001	9.53	3098649	6.61	1.4416	
-18500	-18000	-18250	21000	46879027	2068	9.85	3098582	6.61	1.4899	
-18450	-17950	-18200	21000	46879027	2193	10.44	3098457	6.61	1.5800	
-18400	-17900	-18150	21000	46879027	2294	10.92	3098356	6.61	1.6528	
-18350	-17850	-18100	21000	46879027	2394	11.40	3098256	6.61	1.7249	
-18300	-17800	-18050	21000	46879027	2471	11.77	3098179	6.61	1.7804	
-18250	-17750	-18000	21000	46879027	2529	12.04	3098121	6.61	1.8223	
-18200	-17700	-17950	21000	46879027	2529	12.04	3098121	6.61	1.8223	
-18150	-17650	-17900	21000	46879027	2552	12.15	3098098	6.61	1.8388	
-18100	-17600	-17850	21000	46879027	2602	12.39	3098048	6.61	1.8749	
-18050	-17550	-17800	21000	46879027	2700	12.86	3097950	6.61	1.9456	
-18000	-17500	-17750	21000	46879027	2748	13.09	3097902	6.61	1.9802	
-17950	-17450	-17700	21000	46879027	2773	13.20	3097877	6.61	1.9982	
-17900	-17400	-17650	21000	46879027	2773	13.20	3097877	6.61	1.9982	
-17850	-17350	-17600	21000	46879027	2773	13.20	3097877	6.61	1.9982	
-17800	-17300	-17550	21000	46879027	2740	13.05	3097910	6.61	1.9744	
-17750	-17250	-17500	21000	46879027	2682	12.77	3097968	6.61	1.9326	
-17700	-17200	-17450	21000	46879027	2633	12.54	3098017	6.61	1.8973	
-17650	-17150	-17400	21000	46879027	2583	12.30	3098067	6.61	1.8612	
-17600	-17100	-17350	21000	46879027	2533	12.06	3098117	6.61	1.8251	
-17550	-17050	-17300	21000	46879027	2483	11.82	3098167	6.61	1.7891	
-17500	-17000	-17250	21000	46879027	2418	11.51	3098232	6.61	1.7422	
-17450	-16950	-17200	21000	46879027	2367	11.27	3098283	6.61	1.7054	
-17400	-16900	-17150	21000	46879027	2317	11.03	3098333	6.61	1.6694	
-17350	-16850	-17100	21000	46879027	2255	10.74	3098395	6.61	1.6247	
-17300	-16800	-17050	21000	46879027	2188	10.42	3098462	6.61	1.5764	
-17250	-16750	-17000	21000	46879027	2138	10.18	3098512	6.61	1.5403	
-17200	-16700	-16950	21000	46879027	2137	10.18	3098513	6.61	1.5396	
-17150	-16650	-16900	21000	46879027	2137	10.18	3098513	6.61	1.5396	
-17100	-16600	-16850	21000	46879027	2137	10.18	3098513	6.61	1.5396	
-17050	-16550	-16800	21000	46879027	2137	10.18	3098513	6.61	1.5396	
-17000	-16500	-16750	21000	46879027	2088	9.94	3098562	6.61	1.5043	
-16950	-16450	-16700	21000	46879027	1974	9.40	3098676	6.61	1.4221	
-16900	-16400	-16650	21000	46879027	1824	8.69	3098826	6.61	1.3140	
-16850	-16350	-16600	21000	46879027	1731	8.24	3098919	6.61	1.2469	
-16800	-16300	-16550	21000	46879027	1699	8.09	3098951	6.61	1.2239	
-16750	-16250	-16500	21000	46879027	1720	8.19	3098930	6.61	1.2390	
-16700	-16200	-16450	21000	46879027	1805	8.60	3098845	6.61	1.3003	
-16650	-16150	-16400	21000	46879027	1905	9.07	3098745	6.61	1.3724	
-16600	-16100	-16350	21000	46879027	1984	9.45	3098666	6.61	1.4293	
-16550	-16050	-16300	21000	46879027	2017	9.60	3098633	6.61	1.4531	
-16500	-16000	-16250	21000	46879027	2041	9.72	3098609	6.61	1.4704	
-16450	-15950	-16200	21000	46879027	2056	9.79	3098594	6.61	1.4812	
-16400	-15900	-16150	21000	46879027	2106	10.03	3098544	6.61	1.5173	
-16350	-15850	-16100	21000	46879027	2093	9.97	3098557	6.61	1.5079	
-16300	-15800	-16050	21000	46879027	2025	9.64	3098625	6.61	1.4589	
-16250	-15750	-16000	21000	46879027	1904	9.07	3098746	6.61	1.3716	
-16200	-15700	-15950	21000	46879027	1719	8.19	3098931	6.61	1.2383	
-16150	-15650	-15900	21000	46879027	1575	7.50	3099075	6.61	1.1345	
-16100	-15600	-15850	21000	46879027	1526	7.27	3099124	6.61	1.0992	
-16050	-15550	-15800	21000	46879027	1543	7.35	3099107	6.61	1.1114	
-16000	-15500	-15750	21000	46879027	1605	7.64	3099045	6.61	1.1561	
-15950	-15450	-15700	21000	46879027	1705	8.12	3098945	6.61	1.2282	
-15900	-15400	-15650	21000	46879027	1820	8.67	3098830	6.61	1.3111	
-15850	-15350	-15600	21000	46879027	1988	9.47	3098662	6.61	1.4322	
-15800	-15300	-15550	21000	46879027	2202	10.49	3098448	6.61	1.5865	
-15750	-15250	-15500	21000	46879027	2402	11.44	3098248	6.61	1.7307	
-15700	-15200	-15450	21000	46879027	2594	12.35	3098056	6.61	1.8691	
-15650	-15150	-15400	21000	46879027	2658	12.66	3097992	6.61	1.9153	
-15600	-15100	-15350	21000	46879027	2628	12.51	3098022	6.61	1.8937	
-15550	-15050	-15300	21000	46879027	2578	12.28	3098072	6.61	1.8576	
-15500	-15000	-15250	21000	46879027	2541	12.10	3098109	6.61	1.8309	
-15450	-14950	-15200	21000	46879027	2497	11.89	3098153	6.61	1.7992	
-15400	-14900	-15150	21000	46879027	2482	11.82	3098168	6.61	1.7884	
-15350	-14850	-15100	21000	46879027	2432	11.58	3098218	6.61	1.7523	
-15300	-14800	-15050	21000	46879027	2368	11.28	3098282	6.61	1.7062	
-15250	-14750	-15000	21000	46879027	2318	11.04	3098332	6.61	1.6701	
-15200	-14700	-14950	21000	46879027	2182	10.39	3098468	6.61	1.5721	
-15150	-14650	-14900	21000	46879027	2151	10.24	3098499	6.61	1.5497	
-15100	-14600	-14850	21000	46879027	2151	10.24	3098499	6.61	1.5497	
-15050	-14550	-14800	21000	46879027	2182	10.39	3098468	6.61	1.5721	
-15000	-14500	-14750	21000	46879027	2193	10.44	3098457	6.61	1.5800	
-14950	-14450	-14700	21000	46879027	2211	10.53	3098439	6.61	1.5930	
-14900	-14400	-14650	21000	46879027	2180	10.38	3098470	6.61	1.5706	
-14850	-14350	-14600	21000	46879027	2130	10.14	3098520	6.61	1.5346	
-14800	-14300	-14550	21000	46879027	2056	9.79	3098594	6.61	1.4812	
-14750	-14250	-14500	21000	46879027	1997	9.51	3098653	6.61	1.4387	
-14700	-14200	-14450	21000	46879027	2041	9.72	3098609	6.61	1.4704	
-14650	-14150	-14400	21000	46879027	2052	9.77	3098598	6.61	1.4783	
-14600	-14100	-14350	21000	46879027	2052	9.77	3098598	6.61	1.4783	
-14550	-14050	-14300	21000	46879027	2066	9.84	3098584	6.61	1.4884	
-14500	-14000	-14250	21000	46879027	2080	9.90	3098570	6.61	1.4985	
-14450	-13950	-14200	21000	46879027	2106	10.03	3098544	6.61	1.5173	
-14400	-13900	-14150	21000	46879027	2137	10.18	3098513	6.61	1.5396	
-14350	-13850	-14100	21000	46879027	2187	10.41	3098463	6.61	1.5757	
-14300	-13800	-14050	21000	46879027	2261	10.77	3098389	6.61	1.6290	
-14250	-13750	-14000	21000	46879027	2320	11.05	3098330	6.61	1.6716	
-14200	-13700	-13950	21000	46879027	2387	11.37	3098263	6.61	1.7199	
-14150	-13650	-13900	21000	46879027	2468	11.75	3098182	6.61	1.7783	
-14100	-13600	-13850	21000	46879027	2553	12.16	3098097	6.61	1.8396	
-14050	-13550	-13800	21000	46879027	2558	12.18	3098092	6.61	1.8432	
-14000	-13500	-13750	21000	46879027	2583	12.30	3098067	6.61	1.8612	
-13950	-13450	-13700	21000	46879027	2577	12.27	3098073	6.61	1.8569	
-13900	-13400	-13650	21000	46879027	2527	12.03	3098123	6.61	1.8208	
-13850	-13350	-13600	21000	46879027	2477	11.80	3098173	6.61	1.7848	
-13800	-13300	-13550	21000	46879027	2471	11.77	3098179	6.61	1.7804	
-13750	-13250	-13500	21000	46879027	2444	11.64	3098206	6.61	1.7610	
-13700	-13200	-13450	21000	46879027	2377	11.32	3098273	6.61	1.7127	
-13650	-13150	-13400	21000	46879027	2369	11.28	3098281	6.61	1.7069	
-13600	-13100	-13350	21000	46879027	2384	11.35	3098266	6.61	1.7177	
-13550	-13050	-13300	21000	46879027	2393	11.40	3098257	6.61	1.7242	
-13500	-13000	-13250	21000	46879027	2369	11.28	3098281	6.61	1.7069	
-13450	-12950	-13200	21000	46879027	2377	11.32	3098273	6.61	1.7127	
-13400	-12900	-13150	21000	46879027	2477	11.80	3098173	6.61	1.7848	
-13350	-12850	-13100	21000	46879027	2577	12.27	3098073	6.61	1.8569	
-13300	-12800	-13050	21000	46879027	2633	12.54	3098017	6.61	1.8973	
-13250	-12750	-13000	21000	46879027	2710	12.90	3097940	6.61	1.9528	
-13200	-12700	-12950	21000	46879027	2716	12.93	3097934	6.61	1.9571	
-13150	-12650	-12900	21000	46879027	2643	12.59	3098007	6.61	1.9045	
-13100	-12600	-12850	21000	46879027	2586	12.31	3098064	6.61	1.8634	
-13050	-12550	-12800	21000	46879027	2577	12.27	3098073	6.61	1.8569	
-13000	-12500	-12750	21000	46879027	2601	12.39	3098049	6.61	1.8742	
-12950	-12450	-12700	21000	46879027	2616	12.46	3098034	6.61	1.8850	
-12900	-12400	-12650	21000	46879027	2616	12.46	3098034	6.61	1.8850	
-12850	-12350	-12600	21000	46879027	2657	12.65	3097993	6.61	1.9146	
-12800	-12300	-12550	21000	46879027	2657	12.65	3097993	6.61	1.9146	
-12750	-12250	-12500	21000	46879027	2700	12.86	3097950	6.61	1.9456	
-12700	-12200	-12450	21000	46879027	2844	13.54	3097806	6.61	2.0494	
-12650	-12150	-12400	21000	46879027	2994	14.26	3097656	6.61	2.1576	
-12600	-12100	-12350	21000	46879027	3142	14.96	3097508	6.61	2.2644	
-12550	-12050	-12300	21000	46879027	3292	15.68	3097358	6.61	2.3726	
-12500	-12000	-12250	21000	46879027	3442	16.39	3097208	6.61	2.4808	
-12450	-11950	-12200	21000	46879027	3526	16.79	3097124	6.61	2.5415	
-12400	-11900	-12150	21000	46879027	3581	17.05	3097069	6.61	2.5811	
-12350	-11850	-12100	21000	46879027	3681	17.53	3096969	6.61	2.6533	
-12300	-11800	-12050	21000	46879027	3831	18.24	3096819	6.61	2.7616	
-12250	-11750	-12000	21000	46879027	3938	18.75	3096712	6.61	2.8388	
-12200	-11700	-11950	21000	46879027	4038	19.23	3096612	6.61	2.9110	
-12150	-11650	-11900	21000	46879027	4138	19.70	3096512	6.61	2.9832	
-12100	-11600	-11850	21000	46879027	4192	19.96	3096458	6.61	3.0221	
-12050	-11550	-11800	21000	46879027	4227	20.13	3096423	6.61	3.0474	
-12000	-11500	-11750	21000	46879027	4245	20.21	3096405	6.61	3.0604	
-11950	-11450	-11700	21000	46879027	4336	20.65	3096314	6.60	3.1261	
-11900	-11400	-11650	21000	46879027	4489	21.38	3096161	6.60	3.2366	
-11850	-11350	-11600	21000	46879027	4548	21.66	3096102	6.60	3.2792	
-11800	-11300	-11550	21000	46879027	4595	21.88	3096055	6.60	3.3131	
-11750	-11250	-11500	21000	46879027	4521	21.53	3096129	6.60	3.2597	
-11700	-11200	-11450	21000	46879027	4380	20.86	3096270	6.60	3.1579	
-11650	-11150	-11400	21000	46879027	4186	19.93	3096464	6.61	3.0178	
-11600	-11100	-11350	21000	46879027	3939	18.76	3096711	6.61	2.8395	
-11550	-11050	-11300	21000	46879027	3654	17.40	3096996	6.61	2.6338	
-11500	-11000	-11250	21000	46879027	3411	16.24	3097239	6.61	2.4585	
-11450	-10950	-11200	21000	46879027	3120	14.86	3097530	6.61	2.2485	
-11400	-10900	-11150	21000	46879027	2756	13.12	3097894	6.61	1.9860	
-11350	-10850	-11100	21000	46879027	2356	11.22	3098294	6.61	1.6975	
-11300	-10800	-11050	21000	46879027	1959	9.33	3098691	6.61	1.4113	
-11250	-10750	-11000	21000	46879027	1683	8.01	3098967	6.61	1.2123	
-11200	-10700	-10950	21000	46879027	1449	6.90	3099201	6.61	1.0437	
-11150	-10650	-10900	21000	46879027	1243	5.92	3099407	6.61	0.8953	
-11100	-10600	-10850	21000	46879027	1095	5.21	3099555	6.61	0.7886	
-11050	-10550	-10800	21000	46879027	1033	4.92	3099617	6.61	0.7440	
-11000	-10500	-10750	21000	46879027	1019	4.85	3099631	6.61	0.7339	
-10950	-10450	-10700	21000	46879027	1083	5.16	3099567	6.61	0.7800	
-10900	-10400	-10650	21000	46879027	1189	5.66	3099461	6.61	0.8564	
-10850	-10350	-10600	21000	46879027	1339	6.38	3099311	6.61	0.9644	
-10800	-10300	-10550	21000	46879027	1489	7.09	3099161	6.61	1.0725	
-10750	-10250	-10500	21000	46879027	1639	7.80	3099011	6.61	1.1806	
-10700	-10200	-10450	21000	46879027	1841	8.77	3098809	6.61	1.3262	
-10650	-10150	-10400	21000	46879027	2026	9.65	3098624	6.61	1.4596	
-10600	-10100	-10350	21000	46879027	2143	10.20	3098507	6.61	1.5439	
-10550	-10050	-10300	21000	46879027	2205	10.50	3098445	6.61	1.5886	
-10500	-10000	-10250	21000	46879027	2200	10.48	3098450	6.61	1.5850	
-10450	-9950	-10200	21000	46879027	2185	10.40	3098465	6.61	1.5742	
-10400	-9900	-10150	21000	46879027	2135	10.17	3098515	6.61	1.5382	
-10350	-9850	-10100	21000	46879027	2085	9.93	3098565	6.61	1.5021	
-10300	-9800	-10050	21000	46879027	2035	9.69	3098615	6.61	1.4661	
-10250	-9750	-10000	21000	46879027	1985	9.45	3098665	6.61	1.4300	
-10200	-9700	-9950	21000	46879027	1902	9.06	3098748	6.61	1.3702	
-10150	-9650	-9900	21000	46879027	1845	8.79	3098805	6.61	1.3291	
-10100	-9600	-9850	21000	46879027	1828	8.70	3098822	6.61	1.3169	
-10050	-9550	-9800	21000	46879027	1828	8.70	3098822	6.61	1.3169	
-10000	-9500	-9750	21000	46879027	1825	8.69	3098825	6.61	1.3147	
-9950	-9450	-9700	21000	46879027	1825	8.69	3098825	6.61	1.3147	
-9900	-9400	-9650	21000	46879027	1850	8.81	3098800	6.61	1.3327	
-9850	-9350	-9600	21000	46879027	1900	9.05	3098750	6.61	1.3688	
-9800	-9300	-9550	21000	46879027	1981	9.43	3098669	6.61	1.4271	
-9750	-9250	-9500	21000	46879027	2130	10.14	3098520	6.61	1.5346	
-9700	-9200	-9450	21000	46879027	2345	11.17	3098305	6.61	1.6896	
-9650	-9150	-9400	21000	46879027	2617	12.46	3098033	6.61	1.8857	
-9600	-9100	-9350	21000	46879027	2872	13.68	3097778	6.61	2.0696	
-9550	-9050	-9300	21000	46879027	3193	15.20	3097457	6.61	2.3012	
-9500	-9000	-9250	21000	46879027	3509	16.71	3097141	6.61	2.5292	
-9450	-8950	-9200	21000	46879027	3745	17.83	3096905	6.61	2.6995	
-9400	-8900	-9150	21000	46879027	3917	18.65	3096733	6.61	2.8236	
-9350	-8850	-9100	21000	46879027	4017	19.13	3096633	6.61	2.8958	
-9300	-8800	-9050	21000	46879027	4110	19.57	3096540	6.61	2.9630	
-9250	-8750	-9000	21000	46879027	4055	19.31	3096595	6.61	2.9232	
-9200	-8700	-8950	21000	46879027	3896	18.55	3096754	6.61	2.8085	
-9150	-8650	-8900	21000	46879027	3696	17.60	3096954	6.61	2.6641	
-9100	-8600	-8850	21000	46879027	3557	16.94	3097093	6.61	2.5638	
-9050	-8550	-8800	21000	46879027	3336	15.89	3097314	6.61	2.4044	
-9000	-8500	-8750	21000	46879027	3117	14.84	3097533	6.61	2.2464	
-8950	-8450	-8700	21000	46879027	2931	13.96	3097719	6.61	2.1122	
-8900	-8400	-8650	21000	46879027	2784	13.26	3097866	6.61	2.0062	
-8850	-8350	-8600	21000	46879027	2660	12.67	3097990	6.61	1.9167	
-8800	-8300	-8550	21000	46879027	2486	11.84	3098164	6.61	1.7912	
-8750	-8250	-8500	21000	46879027	2392	11.39	3098258	6.61	1.7235	
-8700	-8200	-8450	21000	46879027	2342	11.15	3098308	6.61	1.6874	
-8650	-8150	-8400	21000	46879027	2300	10.95	3098350	6.61	1.6571	
-8600	-8100	-8350	21000	46879027	2284	10.88	3098366	6.61	1.6456	
-8550	-8050	-8300	21000	46879027	2284	10.88	3098366	6.61	1.6456	
-8500	-8000	-8250	21000	46879027	2284	10.88	3098366	6.61	1.6456	
-8450	-7950	-8200	21000	46879027	2246	10.70	3098404	6.61	1.6182	
-8400	-7900	-8150	21000	46879027	2200	10.48	3098450	6.61	1.5850	
-8350	-7850	-8100	21000	46879027	2216	10.55	3098434	6.61	1.5966	
-8300	-7800	-8050	21000	46879027	2216	10.55	3098434	6.61	1.5966	
-8250	-7750	-8000	21000	46879027	2216	10.55	3098434	6.61	1.5966	
-8200	-7700	-7950	21000	46879027	2226	10.60	3098424	6.61	1.6038	
-8150	-7650	-7900	21000	46879027	2268	10.80	3098382	6.61	1.6341	
-8100	-7600	-7850	21000	46879027	2268	10.80	3098382	6.61	1.6341	
-8050	-7550	-7800	21000	46879027	2268	10.80	3098382	6.61	1.6341	
-8000	-7500	-7750	21000	46879027	2360	11.24	3098290	6.61	1.7004	
-7950	-7450	-7700	21000	46879027	2539	12.09	3098111	6.61	1.8295	
-7900	-7400	-7650	21000	46879027	2792	13.30	3097858	6.61	2.0119	
-7850	-7350	-7600	21000	46879027	3001	14.29	3097649	6.61	2.1627	
-7800	-7300	-7550	21000	46879027	3340	15.90	3097310	6.61	2.4072	
-7750	-7250	-7500	21000	46879027	3692	17.58	3096958	6.61	2.6612	
-7700	-7200	-7450	21000	46879027	4032	19.20	3096618	6.61	2.9066	
-7650	-7150	-7400	21000	46879027	4282	20.39	3096368	6.61	3.0871	
-7600	-7100	-7350	21000	46879027	4508	21.47	3096142	6.60	3.2503	
-7550	-7050	-7300	21000	46879027	4708	22.42	3095942	6.60	3.3947	
-7500	-7000	-7250	21000	46879027	4860	23.14	3095790	6.60	3.5045	
-7450	-6950	-7200	21000	46879027	4934	23.50	3095716	6.60	3.5579	
-7400	-6900	-7150	21000	46879027	4927	23.46	3095723	6.60	3.5529	
-7350	-6850	-7100	21000	46879027	4911	23.39	3095739	6.60	3.5413	
-7300	-6800	-7050	21000	46879027	4772	22.72	3095878	6.60	3.4409	
-7250	-6750	-7000	21000	46879027	4620	22.00	3096030	6.60	3.3312	
-7200	-6700	-6950	21000	46879027	4390	20.90	3096260	6.60	3.1651	
-7150	-6650	-6900	21000	46879027	4149	19.76	3096501	6.61	2.9911	
-7100	-6600	-6850	21000	46879027	3973	18.92	3096677	6.61	2.8641	
-7050	-6550	-6800	21000	46879027	3828	18.23	3096822	6.61	2.7594	
-7000	-6500	-6750	21000	46879027	3634	17.30	3097016	6.61	2.6194	
-6950	-6450	-6700	21000	46879027	3469	16.52	3097181	6.61	2.5003	
-6900	-6400	-6650	21000	46879027	3270	15.57	3097380	6.61	2.3567	
-6850	-6350	-6600	21000	46879027	3077	14.65	3097573	6.61	2.2175	
-6800	-6300	-6550	21000	46879027	2877	13.70	3097773	6.61	2.0732	
-6750	-6250	-6500	21000	46879027	2677	12.75	3097973	6.61	1.9290	
-6700	-6200	-6450	21000	46879027	2545	12.12	3098105	6.61	1.8338	
-6650	-6150	-6400	21000	46879027	2436	11.60	3098214	6.61	1.7552	
-6600	-6100	-6350	21000	46879027	2286	10.89	3098364	6.61	1.6470	
-6550	-6050	-6300	21000	46879027	2131	10.15	3098519	6.61	1.5353	
-6500	-6000	-6250	21000	46879027	1992	9.49	3098658	6.61	1.4351	
-6450	-5950	-6200	21000	46879027	1892	9.01	3098758	6.61	1.3630	
-6400	-5900	-6150	21000	46879027	1885	8.98	3098765	6.61	1.3579	
-6350	-5850	-6100	21000	46879027	1882	8.96	3098768	6.61	1.3558	
-6300	-5800	-6050	21000	46879027	1916	9.12	3098734	6.61	1.3803	
-6250	-5750	-6000	21000	46879027	1872	8.91	3098778	6.61	1.3486	
-6200	-5700	-5950	21000	46879027	1875	8.93	3098775	6.61	1.3507	
-6150	-5650	-5900	21000	46879027	1970	9.38	3098680	6.61	1.4192	
-6100	-5600	-5850	21000	46879027	2108	10.04	3098542	6.61	1.5187	
-6050	-5550	-5800	21000	46879027	2258	10.75	3098392	6.61	1.6268	
-6000	-5500	-5750	21000	46879027	2339	11.14	3098311	6.61	1.6853	
-5950	-5450	-5700	21000	46879027	2389	11.38	3098261	6.61	1.7213	
-5900	-5400	-5650	21000	46879027	2352	11.20	3098298	6.61	1.6946	
-5850	-5350	-5600	21000	46879027	2288	10.90	3098362	6.61	1.6485	
-5800	-5300	-5550	21000	46879027	2204	10.50	3098446	6.61	1.5879	
-5750	-5250	-5500	21000	46879027	2157	10.27	3098493	6.61	1.5540	
-5700	-5200	-5450	21000	46879027	2066	9.84	3098584	6.61	1.4884	
-5650	-5150	-5400	21000	46879027	1948	9.28	3098702	6.61	1.4034	
-5600	-5100	-5350	21000	46879027	1810	8.62	3098840	6.61	1.3039	
-5550	-5050	-5300	21000	46879027	1660	7.90	3098990	6.61	1.1958	
-5500	-5000	-5250	20987	46879040	1593	7.59	3099057	6.61	1.1482	
-5450	-4950	-5200	20887	46879140	1574	7.54	3099076	6.61	1.1399	
-5400	-4900	-5150	20787	46879240	1617	7.78	3099033	6.61	1.1767	
-5350	-4850	-5100	20687	46879340	1692	8.18	3098958	6.61	1.2373	
-5300	-4800	-5050	20587	46879440	1833	8.90	3098817	6.61	1.3470	
-5250	-4750	-5000	20513	46879514	2065	10.07	3098585	6.61	1.5230	
-5200	-4700	-4950	20613	46879414	2315	11.23	3098335	6.61	1.6993	
-5150	-4650	-4900	20713	46879314	2538	12.25	3098112	6.61	1.8541	
-5100	-4600	-4850	20813	46879214	2738	13.16	3097912	6.61	1.9907	
-5050	-4550	-4800	20913	46879114	2900	13.87	3097750	6.61	2.0985	
-5000	-4500	-4750	21000	46879027	3036	14.46	3097614	6.61	2.1879	
-4950	-4450	-4700	21000	46879027	3222	15.34	3097428	6.61	2.3221	
-4900	-4400	-4650	21000	46879027	3397	16.18	3097253	6.61	2.4484	
-4850	-4350	-4600	21000	46879027	3547	16.89	3097103	6.61	2.5566	
-4800	-4300	-4550	21000	46879027	3638	17.32	3097012	6.61	2.6223	
-4750	-4250	-4500	21000	46879027	3674	17.50	3096976	6.61	2.6483	
-4700	-4200	-4450	21000	46879027	3747	17.84	3096903	6.61	2.7009	
-4650	-4150	-4400	21000	46879027	3847	18.32	3096803	6.61	2.7731	
-4600	-4100	-4350	21000	46879027	3920	18.67	3096730	6.61	2.8258	
-4550	-4050	-4300	21000	46879027	3933	18.73	3096717	6.61	2.8352	
-4500	-4000	-4250	21000	46879027	3847	18.32	3096803	6.61	2.7731	
-4450	-3950	-4200	21000	46879027	3653	17.40	3096997	6.61	2.6331	
-4400	-3900	-4150	21000	46879027	3428	16.32	3097222	6.61	2.4707	
-4350	-3850	-4100	21000	46879027	3228	15.37	3097422	6.61	2.3264	
-4300	-3800	-4050	21000	46879027	3046	14.50	3097604	6.61	2.1951	
-4250	-3750	-4000	21000	46879027	2869	13.66	3097781	6.61	2.0675	
-4200	-3700	-3950	21000	46879027	2622	12.49	3098028	6.61	1.8893	
-4150	-3650	-3900	21000	46879027	2322	11.06	3098328	6.61	1.6730	
-4100	-3600	-3850	21000	46879027	2049	9.76	3098601	6.61	1.4762	
-4050	-3550	-3800	21000	46879027	1889	9.00	3098761	6.61	1.3608	
-4000	-3500	-3750	21000	46879027	1864	8.88	3098786	6.61	1.3428	
-3950	-3450	-3700	21000	46879027	1876	8.93	3098774	6.61	1.3515	
-3900	-3400	-3650	21000	46879027	1926	9.17	3098724	6.61	1.3875	
-3850	-3350	-3600	21000	46879027	1976	9.41	3098674	6.61	1.4235	
-3800	-3300	-3550	21000	46879027	2026	9.65	3098624	6.61	1.4596	
-3750	-3250	-3500	21000	46879027	2076	9.89	3098574	6.61	1.4956	
-3700	-3200	-3450	21000	46879027	2150	10.24	3098500	6.61	1.5490	
-3650	-3150	-3400	21000	46879027	2250	10.71	3098400	6.61	1.6211	
-3600	-3100	-3350	21000	46879027	2350	11.19	3098300	6.61	1.6932	
-3550	-3050	-3300	21000	46879027	2440	11.62	3098210	6.61	1.7581	
-3500	-3000	-3250	21000	46879027	2505	11.93	3098145	6.61	1.8050	
-3450	-2950	-3200	21000	46879027	2520	12.00	3098130	6.61	1.8158	
-3400	-2900	-3150	21000	46879027	2520	12.00	3098130	6.61	1.8158	
-3350	-2850	-3100	21000	46879027	2561	12.20	3098089	6.61	1.8453	
-3300	-2800	-3050	21000	46879027	2611	12.43	3098039	6.61	1.8814	
-3250	-2750	-3000	21000	46879027	2661	12.67	3097989	6.61	1.9175	
-3200	-2700	-2950	21000	46879027	2711	12.91	3097939	6.61	1.9535	
-3150	-2650	-2900	21000	46879027	2805	13.36	3097845	6.61	2.0213	
-3100	-2600	-2850	21000	46879027	2905	13.83	3097745	6.61	2.0934	
-3050	-2550	-2800	21000	46879027	3000	14.29	3097650	6.61	2.1620	
-3000	-2500	-2750	21000	46879027	3085	14.69	3097565	6.61	2.2233	
-2950	-2450	-2700	21000	46879027	3192	15.20	3097458	6.61	2.3005	
-2900	-2400	-2650	21000	46879027	3292	15.68	3097358	6.61	2.3726	
-2850	-2350	-2600	21000	46879027	3351	15.96	3097299	6.61	2.4152	
-2800	-2300	-2550	21000	46879027	3401	16.20	3097249	6.61	2.4513	
-2750	-2250	-2500	21000	46879027	3500	16.67	3097150	6.61	2.5227	
-2700	-2200	-2450	20933	46879094	3557	16.99	3097093	6.61	2.5720	
-2650	-2150	-2400	20733	46879294	3513	16.94	3097137	6.61	2.5647	
-2600	-2100	-2350	20533	46879494	3463	16.87	3097187	6.61	2.5528	
-2550	-2050	-2300	20333	46879694	3413	16.79	3097237	6.61	2.5407	
-2500	-2000	-2250	20133	46879894	3363	16.70	3097287	6.61	2.5283	
-2450	-1950	-2200	20067	46879960	3361	16.75	3097289	6.61	2.5351	
-2400	-1900	-2150	20267	46879760	3461	17.08	3097189	6.61	2.5848	
-2350	-1850	-2100	20467	46879560	3551	17.35	3097099	6.61	2.6262	
-2300	-1800	-2050	20667	46879360	3552	17.19	3097098	6.61	2.6015	
-2250	-1750	-2000	20867	46879160	3503	16.79	3097147	6.61	2.5410	
-2200	-1700	-1950	21000	46879027	3410	16.24	3097240	6.61	2.4578	
-2150	-1650	-1900	21000	46879027	3219	15.33	3097431	6.61	2.3200	
-2100	-1600	-1850	20944	46879083	2963	14.15	3097687	6.61	2.1410	
-2050	-1550	-1800	20844	46879183	2663	12.78	3097987	6.61	1.9333	
-2000	-1500	-1750	20744	46879283	2363	11.39	3098287	6.61	1.7236	
-1950	-1450	-1700	20644	46879383	2094	10.14	3098556	6.61	1.5346	
-1900	-1400	-1650	20544	46879483	1844	8.98	3098806	6.61	1.3579	
-1850	-1350	-1600	20556	46879471	1716	8.35	3098934	6.61	1.2628	
-1800	-1300	-1550	20656	46879371	1765	8.54	3098885	6.61	1.2926	
-1750	-1250	-1500	20756	46879271	1839	8.86	3098811	6.61	1.3404	
-1700	-1200	-1450	20856	46879171	1939	9.30	3098711	6.61	1.4065	
-1650	-1150	-1400	20877	46879150	2036	9.75	3098614	6.61	1.4754	
-1600	-1100	-1350	20821	46879206	2056	9.87	3098594	6.61	1.4940	
-1550	-1050	-1300	20652	46879375	2051	9.93	3098599	6.61	1.5025	
-1500	-1000	-1250	20452	46879575	2051	10.03	3098599	6.61	1.5172	
-1450	-950	-1200	20252	46879775	2051	10.13	3098599	6.61	1.5322	
-1400	-900	-1150	20210	46879817	2100	10.39	3098550	6.61	1.5721	
-1350	-850	-1100	20210	46879817	2168	10.73	3098482	6.61	1.6230	
-1300	-800	-1050	20348	46879679	2268	11.15	3098382	6.61	1.6864	
-1250	-750	-1000	20548	46879479	2295	11.17	3098355	6.61	1.6899	
-1200	-700	-950	20748	46879279	2277	10.97	3098373	6.61	1.6605	
-1150	-650	-900	20869	46879158	2309	11.06	3098341	6.61	1.6741	
-1100	-600	-850	20969	46879058	2383	11.36	3098267	6.61	1.7195	
-1050	-550	-800	21000	46879027	2438	11.61	3098212	6.61	1.7566	
-1000	-500	-750	20982	46879045	2488	11.86	3098162	6.61	1.7942	
-950	-450	-700	20882	46879145	2587	12.39	3098063	6.61	1.8746	
-900	-400	-650	20782	46879245	2642	12.71	3098008	6.61	1.9237	
-850	-350	-600	20682	46879345	2725	13.18	3097925	6.61	1.9938	
-800	-300	-550	20582	46879445	2825	13.73	3097825	6.61	2.0771	
-750	-250	-500	20518	46879509	3024	14.74	3097626	6.61	2.2305	
-700	-200	-450	20618	46879409	3241	15.72	3097409	6.61	2.3791	
-650	-150	-400	20718	46879309	3403	16.43	3097247	6.61	2.4861	
-600	-100	-350	20818	46879209	3499	16.81	3097151	6.61	2.5440	
-550	-50	-300	20918	46879109	3549	16.97	3097101	6.61	2.5681	
-500	0	-250	22000	46878527	3634	16.52	3097016	6.61	2.5003	
-450	50	-200	21000	46879027	3685	17.55	3096965	6.61	2.6562	
-400	100	-150	21000	46879027	3734	17.78	3096916	6.61	2.6916	
-350	150	-100	21000	46879027	3699	17.61	3096951	6.61	2.6663	
-300	200	-50	21000	46879027	3599	17.14	3097051	6.61	2.5941	
-250	250	0	21000	46879027	3449	16.42	3097201	6.61	2.4859	
-200	300	50	21000	46879027	3300	15.71	3097350	6.61	2.3784	
-150	350	100	21000	46879027	3241	15.43	3097409	6.61	2.3358	
-100	400	150	21000	46879027	3245	15.45	3097405	6.61	2.3387	
-50	450	200	21000	46879027	3295	15.69	3097355	6.61	2.3748	
0	500	250	22000	46878027	3766	17.12	3096884	6.61	2.5912	
50	550	300	21000	46879027	3166	15.08	3097484	6.61	2.2817	
100	600	350	21000	46879027	3051	14.53	3097599	6.61	2.1988	
150	650	400	21000	46879027	2985	14.21	3097665	6.61	2.1511	
200	700	450	21000	46879027	2962	14.10	3097688	6.61	2.1346	
250	750	500	21000	46879027	2962	14.10	3097688	6.61	2.1346	
300	800	550	21000	46879027	2924	13.92	3097726	6.61	2.1071	
350	850	600	21000	46879027	2833	13.49	3097817	6.61	2.0415	
400	900	650	21000	46879027	2733	13.01	3097917	6.61	1.9694	
450	950	700	21000	46879027	2633	12.54	3098017	6.61	1.8973	
500	1000	750	21000	46879027	2577	12.27	3098073	6.61	1.8569	
550	1050	800	21000	46879027	2539	12.09	3098111	6.61	1.8295	
600	1100	850	21000	46879027	2501	11.91	3098149	6.61	1.8021	
650	1150	900	21000	46879027	2451	11.67	3098199	6.61	1.7660	
700	1200	950	21000	46879027	2374	11.30	3098276	6.61	1.7105	
750	1250	1000	21000	46879027	2274	10.83	3098376	6.61	1.6384	
800	1300	1050	21000	46879027	2212	10.53	3098438	6.61	1.5937	
850	1350	1100	21000	46879027	2162	10.30	3098488	6.61	1.5576	
900	1400	1150	21000	46879027	2112	10.06	3098538	6.61	1.5216	
950	1450	1200	21000	46879027	2062	9.82	3098588	6.61	1.4855	
1000	1500	1250	21000	46879027	2012	9.58	3098638	6.61	1.4495	
1050	1550	1300	21000	46879027	1985	9.45	3098665	6.61	1.4300	
1100	1600	1350	21000	46879027	1935	9.21	3098715	6.61	1.3940	
1150	1650	1400	21000	46879027	1885	8.98	3098765	6.61	1.3579	
1200	1700	1450	21000	46879027	1835	8.74	3098815	6.61	1.3219	
1250	1750	1500	21000	46879027	1820	8.67	3098830	6.61	1.3111	
1300	1800	1550	21000	46879027	1801	8.58	3098849	6.61	1.2974	
1350	1850	1600	21000	46879027	1801	8.58	3098849	6.61	1.2974	
1400	1900	1650	21000	46879027	1809	8.61	3098841	6.61	1.3032	
1450	1950	1700	21000	46879027	1889	9.00	3098761	6.61	1.3608	
1500	2000	1750	21000	46879027	1989	9.47	3098661	6.61	1.4329	
1550	2050	1800	21000	46879027	2137	10.18	3098513	6.61	1.5396	
1600	2100	1850	21000	46879027	2337	11.13	3098313	6.61	1.6838	
1650	2150	1900	21000	46879027	2537	12.08	3098113	6.61	1.8280	
1700	2200	1950	21000	46879027	2737	13.03	3097913	6.61	1.9723	
1750	2250	2000	21000	46879027	2898	13.80	3097752	6.61	2.0884	
1800	2300	2050	21000	46879027	3067	14.60	3097583	6.61	2.2103	
1850	2350	2100	21000	46879027	3149	15.00	3097501	6.61	2.2694	
1900	2400	2150	21000	46879027	3141	14.96	3097509	6.61	2.2637	
1950	2450	2200	21000	46879027	3100	14.76	3097550	6.61	2.2341	
2000	2500	2250	21000	46879027	3012	14.34	3097638	6.61	2.1706	
2050	2550	2300	21000	46879027	2879	13.71	3097771	6.61	2.0747	
2100	2600	2350	21000	46879027	2729	13.00	3097921	6.61	1.9665	
2150	2650	2400	21000	46879027	2579	12.28	3098071	6.61	1.8583	
2200	2700	2450	21000	46879027	2429	11.57	3098221	6.61	1.7501	
2250	2750	2500	21000	46879027	2301	10.96	3098349	6.61	1.6579	
2300	2800	2550	21000	46879027	2201	10.48	3098449	6.61	1.5858	
2350	2850	2600	21000	46879027	2169	10.33	3098481	6.61	1.5627	
2400	2900	2650	21000	46879027	2219	10.57	3098431	6.61	1.5987	
2450	2950	2700	21000	46879027	2268	10.80	3098382	6.61	1.6341	
2500	3000	2750	21000	46879027	2326	11.08	3098324	6.61	1.6759	
2550	3050	2800	21000	46879027	2376	11.31	3098274	6.61	1.7119	
2600	3100	2850	21000	46879027	2426	11.55	3098224	6.61	1.7480	
2650	3150	2900	21000	46879027	2505	11.93	3098145	6.61	1.8050	
2700	3200	2950	21000	46879027	2643	12.59	3098007	6.61	1.9045	
2750	3250	3000	21000	46879027	2775	13.21	3097875	6.61	1.9997	
2800	3300	3050	21000	46879027	2805	13.36	3097845	6.61	2.0213	
2850	3350	3100	21000	46879027	2767	13.18	3097883	6.61	1.9939	
2900	3400	3150	21000	46879027	2703	12.87	3097947	6.61	1.9477	
2950	3450	3200	21000	46879027	2658	12.66	3097992	6.61	1.9153	
3000	3500	3250	21000	46879027	2653	12.63	3097997	6.61	1.9117	
3050	3550	3300	21000	46879027	2679	12.76	3097971	6.61	1.9304	
3100	3600	3350	21000	46879027	2679	12.76	3097971	6.61	1.9304	
3150	3650	3400	21000	46879027	2652	12.63	3097998	6.61	1.9110	
3200	3700	3450	21000	46879027	2572	12.25	3098078	6.61	1.8533	
3250	3750	3500	21000	46879027	2522	12.01	3098128	6.61	1.8172	
3300	3800	3550	21000	46879027	2542	12.10	3098108	6.61	1.8316	
3350	3850	3600	21000	46879027	2622	12.49	3098028	6.61	1.8893	
3400	3900	3650	21000	46879027	2686	12.79	3097964	6.61	1.9355	
3450	3950	3700	21000	46879027	2693	12.82	3097957	6.61	1.9405	
3500	4000	3750	21000	46879027	2678	12.75	3097972	6.61	1.9297	
3550	4050	3800	21000	46879027	2609	12.42	3098041	6.61	1.8799	
3600	4100	3850	21000	46879027	2541	12.10	3098109	6.61	1.8309	
3650	4150	3900	21000	46879027	2439	11.61	3098211	6.61	1.7574	
3700	4200	3950	21000	46879027	2342	11.15	3098308	6.61	1.6874	
3750	4250	4000	21000	46879027	2227	10.60	3098423	6.61	1.6045	
3800	4300	4050	21000	46879027	2082	9.91	3098568	6.61	1.5000	
3850	4350	4100	21000	46879027	1990	9.48	3098660	6.61	1.4336	
3900	4400	4150	21000	46879027	1940	9.24	3098710	6.61	1.3976	
3950	4450	4200	21000	46879027	1915	9.12	3098735	6.61	1.3796	
4000	4500	4250	21000	46879027	1904	9.07	3098746	6.61	1.3716	
4050	4550	4300	21000	46879027	1897	9.03	3098753	6.61	1.3666	
4100	4600	4350	21000	46879027	1922	9.15	3098728	6.61	1.3846	
4150	4650	4400	21000	46879027	1972	9.39	3098678	6.61	1.4207	
4200	4700	4450	21000	46879027	2011	9.58	3098639	6.61	1.4488	
4250	4750	4500	21000	46879027	2026	9.65	3098624	6.61	1.4596	
4300	4800	4550	21000	46879027	2040	9.71	3098610	6.61	1.4697	
4350	4850	4600	21000	46879027	2015	9.60	3098635	6.61	1.4517	
4400	4900	4650	21000	46879027	2003	9.54	3098647	6.61	1.4430	
4450	4950	4700	21000	46879027	1928	9.18	3098722	6.61	1.3889	
4500	5000	4750	21000	46879027	1864	8.88	3098786	6.61	1.3428	
4550	5050	4800	21000	46879027	1814	8.64	3098836	6.61	1.3068	
4600	5100	4850	21000	46879027	1757	8.37	3098893	6.61	1.2657	
4650	5150	4900	21000	46879027	1657	7.89	3098993	6.61	1.1936	
4700	5200	4950	21000	46879027	1557	7.41	3099093	6.61	1.1215	
4750	5250	5000	21000	46879027	1457	6.94	3099193	6.61	1.0495	
4800	5300	5050	21000	46879027	1426	6.79	3099224	6.61	1.0271	
4850	5350	5100	21000	46879027	1463	6.97	3099187	6.61	1.0538	
4900	5400	5150	21000	46879027	1525	7.26	3099125	6.61	1.0985	
4950	5450	5200	21000	46879027	1625	7.74	3099025	6.61	1.1705	
5000	5500	5250	21000	46879027	1700	8.10	3098950	6.61	1.2246	
5050	5550	5300	21000	46879027	1838	8.75	3098812	6.61	1.3241	
5100	5600	5350	21000	46879027	1988	9.47	3098662	6.61	1.4322	
5150	5650	5400	21000	46879027	2153	10.25	3098497	6.61	1.5511	
5200	5700	5450	21000	46879027	2314	11.02	3098336	6.61	1.6672	
5250	5750	5500	21000	46879027	2473	11.78	3098177	6.61	1.7819	
5300	5800	5550	21000	46879027	2558	12.18	3098092	6.61	1.8432	
5350	5850	5600	21000	46879027	2546	12.12	3098104	6.61	1.8345	
5400	5900	5650	21000	46879027	2541	12.10	3098109	6.61	1.8309	
5450	5950	5700	21000	46879027	2541	12.10	3098109	6.61	1.8309	
5500	6000	5750	21000	46879027	2530	12.05	3098120	6.61	1.8230	
5550	6050	5800	21000	46879027	2442	11.63	3098208	6.61	1.7595	
5600	6100	5850	21000	46879027	2342	11.15	3098308	6.61	1.6874	
5650	6150	5900	21000	46879027	2277	10.84	3098373	6.61	1.6405	
5700	6200	5950	21000	46879027	2178	10.37	3098472	6.61	1.5692	
5750	6250	6000	21000	46879027	2090	9.95	3098560	6.61	1.5057	
5800	6300	6050	21000	46879027	2067	9.84	3098583	6.61	1.4891	
5850	6350	6100	21000	46879027	2022	9.63	3098628	6.61	1.4567	
5900	6400	6150	21000	46879027	1927	9.18	3098723	6.61	1.3882	
5950	6450	6200	21000	46879027	1857	8.84	3098793	6.61	1.3378	
6000	6500	6250	21000	46879027	1842	8.77	3098808	6.61	1.3269	
6050	6550	6300	21000	46879027	1846	8.79	3098804	6.61	1.3298	
6100	6600	6350	21000	46879027	1766	8.41	3098884	6.61	1.2722	
6150	6650	6400	21000	46879027	1666	7.93	3098984	6.61	1.2001	
6200	6700	6450	21000	46879027	1604	7.64	3099046	6.61	1.1554	
6250	6750	6500	21000	46879027	1568	7.47	3099082	6.61	1.1295	
6300	6800	6550	21000	46879027	1494	7.11	3099156	6.61	1.0761	
6350	6850	6600	21000	46879027	1451	6.91	3099199	6.61	1.0451	
6400	6900	6650	21000	46879027	1492	7.10	3099158	6.61	1.0747	
6450	6950	6700	21000	46879027	1553	7.40	3099097	6.61	1.1187	
6500	7000	6750	21000	46879027	1579	7.52	3099071	6.61	1.1374	
6550	7050	6800	21000	46879027	1625	7.74	3099025	6.61	1.1705	
6600	7100	6850	21000	46879027	1755	8.36	3098895	6.61	1.2642	
6650	7150	6900	21000	46879027	1929	9.19	3098721	6.61	1.3897	
6700	7200	6950	21000	46879027	2129	10.14	3098521	6.61	1.5338	
6750	7250	7000	21000	46879027	2253	10.73	3098397	6.61	1.6232	
6800	7300	7050	21000	46879027	2377	11.32	3098273	6.61	1.7127	
6850	7350	7100	21000	46879027	2515	11.98	3098135	6.61	1.8122	
6900	7400	7150	21000	46879027	2574	12.26	3098076	6.61	1.8547	
6950	7450	7200	21000	46879027	2583	12.30	3098067	6.61	1.8612	
7000	7500	7250	21000	46879027	2578	12.28	3098072	6.61	1.8576	
7050	7550	7300	21000	46879027	2616	12.46	3098034	6.61	1.8850	
7100	7600	7350	21000	46879027	2666	12.70	3097984	6.61	1.9211	
7150	7650	7400	21000	46879027	2692	12.82	3097958	6.61	1.9398	
7200	7700	7450	21000	46879027	2692	12.82	3097958	6.61	1.9398	
7250	7750	7500	21000	46879027	2733	13.01	3097917	6.61	1.9694	
7300	7800	7550	21000	46879027	2783	13.25	3097867	6.61	2.0054	
7350	7850	7600	21000	46879027	2833	13.49	3097817	6.61	2.0415	
7400	7900	7650	21000	46879027	2883	13.73	3097767	6.61	2.0776	
7450	7950	7700	21000	46879027	2903	13.82	3097747	6.61	2.0920	
7500	8000	7750	21000	46879027	2929	13.95	3097721	6.61	2.1107	
7550	8050	7800	21000	46879027	2999	14.28	3097651	6.61	2.1612	
7600	8100	7850	21000	46879027	3061	14.58	3097589	6.61	2.2060	
7650	8150	7900	21000	46879027	3155	15.02	3097495	6.61	2.2738	
7700	8200	7950	21000	46879027	3282	15.63	3097368	6.61	2.3654	
7750	8250	8000	21000	46879027	3467	16.51	3097183	6.61	2.4989	
7800	8300	8050	21000	46879027	3667	17.46	3096983	6.61	2.6432	
7850	8350	8100	21000	46879027	3808	18.13	3096842	6.61	2.7450	
7900	8400	8150	21000	46879027	3887	18.51	3096763	6.61	2.8020	
7950	8450	8200	21000	46879027	4017	19.13	3096633	6.61	2.8958	
8000	8500	8250	21000	46879027	4181	19.91	3096469	6.61	3.0142	
8050	8550	8300	21000	46879027	4273	20.35	3096377	6.61	3.0806	
8100	8600	8350	21000	46879027	4361	20.77	3096289	6.60	3.1442	
8150	8650	8400	21000	46879027	4417	21.03	3096233	6.60	3.1846	
8200	8700	8450	21000	46879027	4440	21.14	3096210	6.60	3.2012	
8250	8750	8500	21000	46879027	4405	20.98	3096245	6.60	3.1759	
8300	8800	8550	21000	46879027	4355	20.74	3096295	6.60	3.1398	
8350	8850	8600	21000	46879027	4364	20.78	3096286	6.60	3.1463	
8400	8900	8650	21000	46879027	4420	21.05	3096230	6.60	3.1868	
8450	8950	8700	21000	46879027	4420	21.05	3096230	6.60	3.1868	
8500	9000	8750	21000	46879027	4385	20.88	3096265	6.60	3.1615	
8550	9050	8800	21000	46879027	4329	20.61	3096321	6.60	3.1211	
8600	9100	8850	21000	46879027	4267	20.32	3096383	6.61	3.0763	
8650	9150	8900	21000	46879027	4176	19.89	3096474	6.61	3.0106	
8700	9200	8950	21000	46879027	4076	19.41	3096574	6.61	2.9384	
8750	9250	9000	21000	46879027	3929	18.71	3096721	6.61	2.8323	
8800	9300	9050	21000	46879027	3729	17.76	3096921	6.61	2.6880	
8850	9350	9100	21000	46879027	3529	16.80	3097121	6.61	2.5436	
8900	9400	9150	21000	46879027	3344	15.92	3097306	6.61	2.4101	
8950	9450	9200	21000	46879027	3194	15.21	3097456	6.61	2.3019	
9000	9500	9250	21000	46879027	3044	14.50	3097606	6.61	2.1937	
9050	9550	9300	21000	46879027	2862	13.63	3097788	6.61	2.0624	
9100	9600	9350	21000	46879027	2639	12.57	3098011	6.61	1.9016	
9150	9650	9400	21000	46879027	2348	11.18	3098302	6.61	1.6917	
9200	9700	9450	21000	46879027	2048	9.75	3098602	6.61	1.4754	
9250	9750	9500	21000	46879027	1838	8.75	3098812	6.61	1.3241	
9300	9800	9550	21000	46879027	1688	8.04	3098962	6.61	1.2159	
9350	9850	9600	21000	46879027	1538	7.32	3099112	6.61	1.1078	
9400	9900	9650	21000	46879027	1388	6.61	3099262	6.61	0.9997	
9450	9950	9700	21000	46879027	1238	5.90	3099412	6.61	0.8917	
9500	10000	9750	21000	46879027	1100	5.24	3099550	6.61	0.7922	
9550	10050	9800	21000	46879027	966	4.60	3099684	6.61	0.6957	
9600	10100	9850	21000	46879027	851	4.05	3099799	6.61	0.6129	
9650	10150	9900	21000	46879027	847	4.03	3099803	6.61	0.6100	
9700	10200	9950	21000	46879027	908	4.32	3099742	6.61	0.6539	
9750	10250	10000	21000	46879027	965	4.60	3099685	6.61	0.6950	
9800	10300	10050	21000	46879027	1040	4.95	3099610	6.61	0.7490	
9850	10350	10100	21000	46879027	1140	5.43	3099510	6.61	0.8211	
9900	10400	10150	21000	46879027	1281	6.10	3099369	6.61	0.9226	
9950	10450	10200	21000	46879027	1510	7.19	3099140	6.61	1.0877	
10000	10500	10250	21000	46879027	1748	8.32	3098902	6.61	1.2592	
10050	10550	10300	21000	46879027	2044	9.73	3098606	6.61	1.4726	
10100	10600	10350	21000	46879027	2394	11.40	3098256	6.61	1.7249	
10150	10650	10400	21000	46879027	2730	13.00	3097920	6.61	1.9672	
10200	10700	10450	21000	46879027	3057	14.56	3097593	6.61	2.2031	
10250	10750	10500	21000	46879027	3295	15.69	3097355	6.61	2.3748	
10300	10800	10550	21000	46879027	3459	16.47	3097191	6.61	2.4931	
10350	10850	10600	21000	46879027	3559	16.95	3097091	6.61	2.5653	
10400	10900	10650	21000	46879027	3618	17.23	3097032	6.61	2.6078	
10450	10950	10700	21000	46879027	3589	17.09	3097061	6.61	2.5869	
10500	11000	10750	21000	46879027	3501	16.67	3097149	6.61	2.5234	
10550	11050	10800	21000	46879027	3377	16.08	3097273	6.61	2.4339	
10600	11100	10850	21000	46879027	3227	15.37	3097423	6.61	2.3257	
10650	11150	10900	21000	46879027	3077	14.65	3097573	6.61	2.2175	
10700	11200	10950	21000	46879027	2938	13.99	3097712	6.61	2.1172	
10750	11250	11000	21000	46879027	2850	13.57	3097800	6.61	2.0538	
10800	11300	11050	21000	46879027	2811	13.39	3097839	6.61	2.0256	
10850	11350	11100	21000	46879027	2811	13.39	3097839	6.61	2.0256	
10900	11400	11150	21000	46879027	2811	13.39	3097839	6.61	2.0256	
10950	11450	11200	21000	46879027	2811	13.39	3097839	6.61	2.0256	
11000	11500	11250	21000	46879027	2849	13.57	3097801	6.61	2.0530	
11050	11550	11300	21000	46879027	2899	13.80	3097751	6.61	2.0891	
11100	11600	11350	21000	46879027	2949	14.04	3097701	6.61	2.1252	
11150	11650	11400	21000	46879027	2974	14.16	3097676	6.61	2.1432	
11200	11700	11450	21000	46879027	2970	14.14	3097680	6.61	2.1403	
11250	11750	11500	21000	46879027	2946	14.03	3097704	6.61	2.1230	
11300	11800	11550	21000	46879027	2896	13.79	3097754	6.61	2.0869	
11350	11850	11600	21000	46879027	2846	13.55	3097804	6.61	2.0509	
11400	11900	11650	21000	46879027	2796	13.31	3097854	6.61	2.0148	
11450	11950	11700	21000	46879027	2659	12.66	3097991	6.61	1.9160	
11500	12000	11750	21000	46879027	2509	11.95	3098141	6.61	1.8078	
11550	12050	11800	21000	46879027	2359	11.23	3098291	6.61	1.6997	
11600	12100	11850	21000	46879027	2209	10.52	3098441	6.61	1.5915	
11650	12150	11900	21000	46879027	2084	9.92	3098566	6.61	1.5014	
11700	12200	11950	21000	46879027	1898	9.04	3098752	6.61	1.3673	
11750	12250	12000	21000	46879027	1722	8.20	3098928	6.61	1.2405	
11800	12300	12050	21000	46879027	1572	7.49	3099078	6.61	1.1323	
11850	12350	12100	21000	46879027	1447	6.89	3099203	6.61	1.0423	
11900	12400	12150	21000	46879027	1347	6.41	3099303	6.61	0.9702	
11950	12450	12200	21000	46879027	1365	6.50	3099285	6.61	0.9832	
12000	12500	12250	21000	46879027	1390	6.62	3099260	6.61	1.0012	
12050	12550	12300	21000	46879027	1417	6.75	3099233	6.61	1.0206	
12100	12600	12350	21000	46879027	1467	6.99	3099183	6.61	1.0567	
12150	12650	12400	21000	46879027	1517	7.22	3099133	6.61	1.0927	
12200	12700	12450	21000	46879027	1608	7.66	3099042	6.61	1.1583	
12250	12750	12500	21000	46879027	1708	8.13	3098942	6.61	1.2304	
12300	12800	12550	21000	46879027	1808	8.61	3098842	6.61	1.3024	
12350	12850	12600	21000	46879027	1883	8.97	3098767	6.61	1.3565	
12400	12900	12650	21000	46879027	1933	9.20	3098717	6.61	1.3925	
12450	12950	12700	21000	46879027	1952	9.30	3098698	6.61	1.4062	
12500	13000	12750	21000	46879027	1999	9.52	3098651	6.61	1.4401	
12550	13050	12800	21000	46879027	2033	9.68	3098617	6.61	1.4646	
12600	13100	12850	21000	46879027	2083	9.92	3098567	6.61	1.5007	
12650	13150	12900	21000	46879027	2128	10.13	3098522	6.61	1.5331	
12700	13200	12950	21000	46879027	2128	10.13	3098522	6.61	1.5331	
12750	13250	13000	21000	46879027	2207	10.51	3098443	6.61	1.5901	
12800	13300	13050	21000	46879027	2307	10.99	3098343	6.61	1.6622	
12850	13350	13100	21000	46879027	2388	11.37	3098262	6.61	1.7206	
12900	13400	13150	21000	46879027	2438	11.61	3098212	6.61	1.7566	
12950	13450	13200	21000	46879027	2439	11.61	3098211	6.61	1.7574	
13000	13500	13250	21000	46879027	2410	11.48	3098240	6.61	1.7364	
13050	13550	13300	21000	46879027	2443	11.63	3098207	6.61	1.7602	
13100	13600	13350	21000	46879027	2443	11.63	3098207	6.61	1.7602	
13150	13650	13400	21000	46879027	2425	11.55	3098225	6.61	1.7473	
13200	13700	13450	21000	46879027	2425	11.55	3098225	6.61	1.7473	
13250	13750	13500	21000	46879027	2347	11.18	3098303	6.61	1.6910	
13300	13800	13550	21000	46879027	2259	10.76	3098391	6.61	1.6276	
13350	13850	13600	21000	46879027	2178	10.37	3098472	6.61	1.5692	
13400	13900	13650	21000	46879027	2127	10.13	3098523	6.61	1.5324	
13450	13950	13700	21000	46879027	2076	9.89	3098574	6.61	1.4956	
13500	14000	13750	21000	46879027	2033	9.68	3098617	6.61	1.4646	
13550	14050	13800	21000	46879027	1939	9.23	3098711	6.61	1.3969	
13600	14100	13850	21000	46879027	1839	8.76	3098811	6.61	1.3248	
13650	14150	13900	21000	46879027	1762	8.39	3098888	6.61	1.2693	
13700	14200	13950	21000	46879027	1712	8.15	3098938	6.61	1.2332	
13750	14250	14000	21000	46879027	1661	7.91	3098989	6.61	1.1965	
13800	14300	14050	21000	46879027	1514	7.21	3099136	6.61	1.0905	
13850	14350	14100	21000	46879027	1364	6.50	3099286	6.61	0.9825	
13900	14400	14150	21000	46879027	1215	5.79	3099435	6.61	0.8751	
13950	14450	14200	21000	46879027	1077	5.13	3099573	6.61	0.7757	
14000	14500	14250	21000	46879027	962	4.58	3099688	6.61	0.6928	
14050	14550	14300	21000	46879027	862	4.10	3099788	6.61	0.6208	
14100	14600	14350	21000	46879027	762	3.63	3099888	6.61	0.5487	
14150	14650	14400	21000	46879027	627	2.99	3100023	6.61	0.4515	
14200	14700	14450	21000	46879027	477	2.27	3100173	6.61	0.3435	
14250	14750	14500	21000	46879027	327	1.56	3100323	6.61	0.2355	
14300	14800	14550	21000	46879027	262	1.25	3100388	6.61	0.1886	
14350	14850	14600	21000	46879027	235	1.12	3100415	6.61	0.1692	
14400	14900	14650	21000	46879027	235	1.12	3100415	6.61	0.1692	
14450	14950	14700	21000	46879027	273	1.30	3100377	6.61	0.1966	
14500	15000	14750	21000	46879027	265	1.26	3100385	6.61	0.1908	
14550	15050	14800	21000	46879027	221	1.05	3100429	6.61	0.1591	
14600	15100	14850	21000	46879027	270	1.29	3100380	6.61	0.1944	
14650	15150	14900	21000	46879027	400	1.90	3100250	6.61	0.2880	
14700	15200	14950	21000	46879027	550	2.62	3100100	6.61	0.3960	
14750	15250	15000	21000	46879027	686	3.27	3099964	6.61	0.4940	
14800	15300	15050	21000	46879027	836	3.98	3099814	6.61	0.6020	
14850	15350	15100	21000	46879027	963	4.59	3099687	6.61	0.6935	
14900	15400	15150	21000	46879027	1063	5.06	3099587	6.61	0.7656	
14950	15450	15200	21000	46879027	1163	5.54	3099487	6.61	0.8376	
15000	15500	15250	21000	46879027	1336	6.36	3099314	6.61	0.9623	
15050	15550	15300	21000	46879027	1530	7.29	3099120	6.61	1.1021	
15100	15600	15350	21000	46879027	1666	7.93	3098984	6.61	1.2001	
15150	15650	15400	21000	46879027	1807	8.60	3098843	6.61	1.3017	
15200	15700	15450	21000	46879027	1957	9.32	3098693	6.61	1.4098	
15250	15750	15500	21000	46879027	2121	10.10	3098529	6.61	1.5281	
15300	15800	15550	21000	46879027	2267	10.80	3098383	6.61	1.6333	
15350	15850	15600	21000	46879027	2379	11.33	3098271	6.61	1.7141	
15400	15900	15650	21000	46879027	2462	11.72	3098188	6.61	1.7739	
15450	15950	15700	21000	46879027	2474	11.78	3098176	6.61	1.7826	
15500	16000	15750	21000	46879027	2389	11.38	3098261	6.61	1.7213	
15550	16050	15800	21000	46879027	2289	10.90	3098361	6.61	1.6492	
15600	16100	15850	21000	46879027	2154	10.26	3098496	6.61	1.5519	
15650	16150	15900	21000	46879027	1968	9.37	3098682	6.61	1.4178	
15700	16200	15950	21000	46879027	1755	8.36	3098895	6.61	1.2642	
15750	16250	16000	21000	46879027	1523	7.25	3099127	6.61	1.0970	
15800	16300	16050	21000	46879027	1327	6.32	3099323	6.61	0.9558	
15850	16350	16100	21000	46879027	1165	5.55	3099485	6.61	0.8391	
15900	16400	16150	21000	46879027	1032	4.91	3099618	6.61	0.7432	
15950	16450	16200	21000	46879027	958	4.56	3099692	6.61	0.6899	
16000	16500	16250	21000	46879027	893	4.25	3099757	6.61	0.6431	
16050	16550	16300	21000	46879027	825	3.93	3099825	6.61	0.5941	
16100	16600	16350	21000	46879027	725	3.45	3099925	6.61	0.5221	
16150	16650	16400	21000	46879027	666	3.17	3099984	6.61	0.4796	
16200	16700	16450	21000	46879027	629	3.00	3100021	6.61	0.4529	
16250	16750	16500	21000	46879027	611	2.91	3100039	6.61	0.4400	
16300	16800	16550	21000	46879027	610	2.90	3100040	6.61	0.4393	
16350	16850	16600	21000	46879027	610	2.90	3100040	6.61	0.4393	
16400	16900	16650	21000	46879027	637	3.03	3100013	6.61	0.4587	
16450	16950	16700	21000	46879027	650	3.10	3100000	6.61	0.4681	
16500	17000	16750	21000	46879027	700	3.33	3099950	6.61	0.5041	
16550	17050	16800	21000	46879027	768	3.66	3099882	6.61	0.5531	
16600	17100	16850	21000	46879027	827	3.94	3099823	6.61	0.5956	
16650	17150	16900	21000	46879027	836	3.98	3099814	6.61	0.6020	
16700	17200	16950	21000	46879027	836	3.98	3099814	6.61	0.6020	
16750	17250	17000	21000	46879027	874	4.16	3099776	6.61	0.6294	
16800	17300	17050	21000	46879027	913	4.35	3099737	6.61	0.6575	
16850	17350	17100	21000	46879027	1006	4.79	3099644	6.61	0.7245	
16900	17400	17150	21000	46879027	1129	5.38	3099521	6.61	0.8131	
16950	17450	17200	21000	46879027	1323	6.30	3099327	6.61	0.9529	
17000	17500	17250	21000	46879027	1523	7.25	3099127	6.61	1.0970	
17050	17550	17300	21000	46879027	1723	8.20	3098927	6.61	1.2412	
17100	17600	17350	21000	46879027	1964	9.35	3098686	6.61	1.4149	
17150	17650	17400	21000	46879027	2214	10.54	3098436	6.61	1.5951	
17200	17700	17450	21000	46879027	2505	11.93	3098145	6.61	1.8050	
17250	17750	17500	21000	46879027	2767	13.18	3097883	6.61	1.9939	
17300	17800	17550	21000	46879027	2957	14.08	3097693	6.61	2.1309	
17350	17850	17600	21000	46879027	3035	14.45	3097615	6.61	2.1872	
17400	17900	17650	20956	46879071	3035	14.48	3097615	6.61	2.1918	
17450	17950	17700	20856	46879171	2990	14.34	3097660	6.61	2.1696	
17500	18000	17750	20756	46879271	2975	14.33	3097675	6.61	2.1691	
17550	18050	17800	20656	46879371	3024	14.64	3097626	6.61	2.2156	
17600	18100	17850	20556	46879471	3074	14.95	3097576	6.61	2.2632	
17650	18150	17900	20544	46879483	3124	15.21	3097526	6.61	2.3014	
17700	18200	17950	20644	46879383	3174	15.37	3097476	6.61	2.3269	
17750	18250	18000	20744	46879283	3224	15.54	3097426	6.61	2.3522	
17800	18300	18050	20844	46879183	3296	15.81	3097354	6.61	2.3933	
17850	18350	18100	20944	46879083	3384	16.16	3097266	6.61	2.4455	
17900	18400	18150	21000	46879027	3533	16.82	3097117	6.61	2.5465	
17950	18450	18200	21000	46879027	3645	17.36	3097005	6.61	2.6273	
18000	18500	18250	21000	46879027	3660	17.43	3096990	6.61	2.6382	
18050	18550	18300	21000	46879027	3632	17.30	3097018	6.61	2.6180	
18100	18600	18350	21000	46879027	3635	17.31	3097015	6.61	2.6201	
18150	18650	18400	21000	46879027	3685	17.55	3096965	6.61	2.6562	
18200	18700	18450	21000	46879027	3738	17.80	3096912	6.61	2.6944	
18250	18750	18500	21000	46879027	3838	18.28	3096812	6.61	2.7666	
18300	18800	18550	21000	46879027	3982	18.96	3096668	6.61	2.8706	
18350	18850	18600	21000	46879027	4176	19.89	3096474	6.61	3.0106	
18400	18900	18650	21000	46879027	4327	20.60	3096323	6.60	3.1196	
18450	18950	18700	21000	46879027	4463	21.25	3096187	6.60	3.2178	
18500	19000	18750	21000	46879027	4564	21.73	3096086	6.60	3.2907	
18550	19050	18800	21000	46879027	4643	22.11	3096007	6.60	3.3478	
18600	19100	18850	21000	46879027	4693	22.35	3095957	6.60	3.3839	
18650	19150	18900	21000	46879027	4671	22.24	3095979	6.60	3.3680	
18700	19200	18950	21000	46879027	4618	21.99	3096032	6.60	3.3297	
18750	19250	19000	21000	46879027	4479	21.33	3096171	6.60	3.2294	
18800	19300	19050	21000	46879027	4254	20.26	3096396	6.61	3.0669	
18850	19350	19100	21000	46879027	3910	18.62	3096740	6.61	2.8186	
18900	19400	19150	21000	46879027	3560	16.95	3097090	6.61	2.5660	
18950	19450	19200	21000	46879027	3254	15.50	3097396	6.61	2.3452	
19000	19500	19250	21000	46879027	2953	14.06	3097697	6.61	2.1281	
19050	19550	19300	21000	46879027	2653	12.63	3097997	6.61	1.9117	
19100	19600	19350	21000	46879027	2345	11.17	3098305	6.61	1.6896	
19150	19650	19400	21000	46879027	2067	9.84	3098583	6.61	1.4891	
19200	19700	19450	21000	46879027	1817	8.65	3098833	6.61	1.3089	
19250	19750	19500	21000	46879027	1606	7.65	3099044	6.61	1.1569	
19300	19800	19550	21000	46879027	1437	6.84	3099213	6.61	1.0351	
19350	19850	19600	21000	46879027	1337	6.37	3099313	6.61	0.9630	
19400	19900	19650	21000	46879027	1237	5.89	3099413	6.61	0.8909	
19450	19950	19700	21000	46879027	1187	5.65	3099463	6.61	0.8549	
19500	20000	19750	21000	46879027	1187	5.65	3099463	6.61	0.8549	
19550	20050	19800	21000	46879027	1187	5.65	3099463	6.61	0.8549	
19600	20100	19850	21000	46879027	1195	5.69	3099455	6.61	0.8607	
19650	20150	19900	21000	46879027	1245	5.93	3099405	6.61	0.8967	
19700	20200	19950	21000	46879027	1307	6.22	3099343	6.61	0.9414	
19750	20250	20000	21000	46879027	1407	6.70	3099243	6.61	1.0134	
19800	20300	20050	21000	46879027	1457	6.94	3099193	6.61	1.0495	
19850	20350	20100	21000	46879027	1507	7.18	3099143	6.61	1.0855	
19900	20400	20150	21000	46879027	1557	7.41	3099093	6.61	1.1215	
19950	20450	20200	21000	46879027	1524	7.26	3099126	6.61	1.0978	
20000	20500	20250	21000	46879027	1474	7.02	3099176	6.61	1.0617	
20050	20550	20300	21000	46879027	1424	6.78	3099226	6.61	1.0257	
20100	20600	20350	21000	46879027	1374	6.54	3099276	6.61	0.9897	
20150	20650	20400	21000	46879027	1324	6.30	3099326	6.61	0.9536	
20200	20700	20450	21000	46879027	1262	6.01	3099388	6.61	0.9090	
20250	20750	20500	21000	46879027	1162	5.53	3099488	6.61	0.8369	
20300	20800	20550	21000	46879027	1166	5.55	3099484	6.61	0.8398	
20350	20850	20600	21000	46879027	1216	5.79	3099434	6.61	0.8758	
20400	20900	20650	21000	46879027	1266	6.03	3099384	6.61	0.9118	
20450	20950	20700	21000	46879027	1354	6.45	3099296	6.61	0.9752	
20500	21000	20750	21000	46879027	1454	6.92	3099196	6.61	1.0473	
20550	21050	20800	21000	46879027	1554	7.40	3099096	6.61	1.1194	
20600	21100	20850	21000	46879027	1654	7.88	3098996	6.61	1.1914	
20650	21150	20900	21000	46879027	1754	8.35	3098896	6.61	1.2635	
20700	21200	20950	21000	46879027	1854	8.83	3098796	6.61	1.3356	
20750	21250	21000	21000	46879027	1898	9.04	3098752	6.61	1.3673	
20800	21300	21050	21000	46879027	1799	8.57	3098851	6.61	1.2960	
20850	21350	21100	21000	46879027	1649	7.85	3099001	6.61	1.1878	
20900	21400	21150	21000	46879027	1537	7.32	3099113	6.61	1.1071	
20950	21450	21200	21000	46879027	1437	6.84	3099213	6.61	1.0351	
21000	21500	21250	21000	46879027	1337	6.37	3099313	6.61	0.9630	
21050	21550	21300	21000	46879027	1264	6.02	3099386	6.61	0.9104	
21100	21600	21350	21000	46879027	1214	5.78	3099436	6.61	0.8744	
21150	21650	21400	21000	46879027	1164	5.54	3099486	6.61	0.8383	
21200	21700	21450	21000	46879027	1198	5.70	3099452	6.61	0.8628	
21250	21750	21500	21000	46879027	1304	6.21	3099346	6.61	0.9392	
21300	21800	21550	21000	46879027	1499	7.14	3099151	6.61	1.0797	
21350	21850	21600	21000	46879027	1661	7.91	3098989	6.61	1.1965	
21400	21900	21650	21000	46879027	1773	8.44	3098877	6.61	1.2772	
21450	21950	21700	21000	46879027	1873	8.92	3098777	6.61	1.3493	
21500	22000	21750	21000	46879027	1973	9.40	3098677	6.61	1.4214	
21550	22050	21800	21000	46879027	2046	9.74	3098604	6.61	1.4740	
21600	22100	21850	21000	46879027	2146	10.22	3098504	6.61	1.5461	
21650	22150	21900	21000	46879027	2201	10.48	3098449	6.61	1.5858	
21700	22200	21950	21000	46879027	2217	10.56	3098433	6.61	1.5973	
21750	22250	22000	21000	46879027	2217	10.56	3098433	6.61	1.5973	
21800	22300	22050	21000	46879027	2248	10.70	3098402	6.61	1.6196	
21850	22350	22100	21000	46879027	2336	11.12	3098314	6.61	1.6831	
21900	22400	22150	21000	46879027	2460	11.71	3098190	6.61	1.7725	
21950	22450	22200	21000	46879027	2600	12.38	3098050	6.61	1.8735	
22000	22500	22250	21000	46879027	2723	12.97	3097927	6.61	1.9622	
22050	22550	22300	21000	46879027	2873	13.68	3097777	6.61	2.0704	
22100	22600	22350	21000	46879027	2994	14.26	3097656	6.61	2.1576	
22150	22650	22400	21000	46879027	3189	15.19	3097461	6.61	2.2983	
22200	22700	22450	21000	46879027	3339	15.90	3097311	6.61	2.4065	
22250	22750	22500	21000	46879027	3435	16.36	3097215	6.61	2.4758	
22300	22800	22550	21000	46879027	3454	16.45	3097196	6.61	2.4895	
22350	22850	22600	21000	46879027	3453	16.44	3097197	6.61	2.4888	
22400	22900	22650	21000	46879027	3462	16.49	3097188	6.61	2.4953	
22450	22950	22700	21000	46879027	3472	16.53	3097178	6.61	2.5025	
22500	23000	22750	21000	46879027	3450	16.43	3097200	6.61	2.4866	
22550	23050	22800	21000	46879027	3400	16.19	3097250	6.61	2.4505	
22600	23100	22850	21000	46879027	3329	15.85	3097321	6.61	2.3993	
22650	23150	22900	21000	46879027	3229	15.38	3097421	6.61	2.3272	
22700	23200	22950	21000	46879027	3084	14.69	3097566	6.61	2.2226	
22750	23250	23000	21000	46879027	3004	14.30	3097646	6.61	2.1648	
22800	23300	23050	21000	46879027	3004	14.30	3097646	6.61	2.1648	
22850	23350	23100	21000	46879027	3005	14.31	3097645	6.61	2.1656	
22900	23400	23150	21000	46879027	2972	14.15	3097678	6.61	2.1418	
22950	23450	23200	21000	46879027	2922	13.91	3097728	6.61	2.1057	
23000	23500	23250	21000	46879027	2929	13.95	3097721	6.61	2.1107	
23050	23550	23300	21000	46879027	2997	14.27	3097653	6.61	2.1598	
23100	23600	23350	21000	46879027	3047	14.51	3097603	6.61	2.1959	
23150	23650	23400	21000	46879027	3103	14.78	3097547	6.61	2.2363	
23200	23700	23450	21000	46879027	3198	15.23	3097452	6.61	2.3048	
23250	23750	23500	21000	46879027	3300	15.71	3097350	6.61	2.3784	
23300	23800	23550	21000	46879027	3359	16.00	3097291	6.61	2.4210	
23350	23850	23600	21000	46879027	3310	15.76	3097340	6.61	2.3856	
23400	23900	23650	21000	46879027	3260	15.52	3097390	6.61	2.3495	
23450	23950	23700	21000	46879027	3210	15.29	3097440	6.61	2.3135	
23500	24000	23750	21000	46879027	3152	15.01	3097498	6.61	2.2716	
23550	24050	23800	21000	46879027	2992	14.25	3097658	6.61	2.1562	
23600	24100	23850	21000	46879027	2792	13.30	3097858	6.61	2.0119	
23650	24150	23900	21000	46879027	2586	12.31	3098064	6.61	1.8634	
23700	24200	23950	21000	46879027	2386	11.36	3098264	6.61	1.7191	
23750	24250	24000	21000	46879027	2178	10.37	3098472	6.61	1.5692	
23800	24300	24050	21000	46879027	1984	9.45	3098666	6.61	1.4293	
23850	24350	24100	21000	46879027	1908	9.09	3098742	6.61	1.3745	
23900	24400	24150	21000	46879027	1869	8.90	3098781	6.61	1.3464	
23950	24450	24200	21000	46879027	1819	8.66	3098831	6.61	1.3104	
24000	24500	24250	21000	46879027	1819	8.66	3098831	6.61	1.3104	
24050	24550	24300	21000	46879027	1840	8.76	3098810	6.61	1.3255	
24100	24600	24350	21000	46879027	1890	9.00	3098760	6.61	1.3615	
24150	24650	24400	21000	46879027	1940	9.24	3098710	6.61	1.3976	
24200	24700	24450	21000	46879027	1990	9.48	3098660	6.61	1.4336	
24250	24750	24500	21000	46879027	2068	9.85	3098582	6.61	1.4899	
24300	24800	24550	21000	46879027	2153	10.25	3098497	6.61	1.5511	
24350	24850	24600	21000	46879027	2240	10.67	3098410	6.61	1.6139	
24400	24900	24650	21000	46879027	2329	11.09	3098321	6.61	1.6780	
24450	24950	24700	21000	46879027	2418	11.51	3098232	6.61	1.7422	
24500	25000	24750	21000	46879027	2468	11.75	3098182	6.61	1.7783	
