Start	End	Midpoint	Breakpoint_bp	Non_breakpoint_bp	Feature_bp_inside	%Inside	Feature_bp_outside	%Outside	Ratio
-25000	-24500	-24750	22000	46878971	2192	9.96	2398258	5.12	1.9476	
-24950	-24450	-24700	22000	46878971	2047	9.30	2398403	5.12	1.8187	
-24900	-24400	-24650	22000	46878971	1897	8.62	2398553	5.12	1.6853	
-24850	-24350	-24600	22000	46878971	1747	7.94	2398703	5.12	1.5519	
-24800	-24300	-24550	22000	46878971	1597	7.26	2398853	5.12	1.4186	
-24750	-24250	-24500	22000	46878971	1447	6.58	2399003	5.12	1.2853	
-24700	-24200	-24450	22000	46878971	1297	5.90	2399153	5.12	1.1520	
-24650	-24150	-24400	22000	46878971	1162	5.28	2399288	5.12	1.0320	
-24600	-24100	-24350	22000	46878971	1078	4.90	2399372	5.12	0.9574	
-24550	-24050	-24300	22000	46878971	978	4.45	2399472	5.12	0.8685	
-24500	-24000	-24250	22000	46878971	878	3.99	2399572	5.12	0.7797	
-24450	-23950	-24200	22000	46878971	823	3.74	2399627	5.12	0.7308	
-24400	-23900	-24150	22000	46878971	773	3.51	2399677	5.12	0.6864	
-24350	-23850	-24100	22000	46878971	723	3.29	2399727	5.12	0.6420	
-24300	-23800	-24050	22000	46878971	673	3.06	2399777	5.12	0.5976	
-24250	-23750	-24000	22000	46878971	623	2.83	2399827	5.12	0.5532	
-24200	-23700	-23950	22000	46878971	573	2.60	2399877	5.12	0.5088	
-24150	-23650	-23900	22000	46878971	496	2.25	2399954	5.12	0.4404	
-24100	-23600	-23850	22000	46878971	423	1.92	2400027	5.12	0.3756	
-24050	-23550	-23800	22000	46878971	373	1.70	2400077	5.12	0.3312	
-24000	-23500	-23750	22000	46878971	323	1.47	2400127	5.12	0.2868	
-23950	-23450	-23700	22000	46878971	273	1.24	2400177	5.12	0.2424	
-23900	-23400	-23650	22000	46878971	223	1.01	2400227	5.12	0.1980	
-23850	-23350	-23600	22000	46878971	173	0.79	2400277	5.12	0.1536	
-23800	-23300	-23550	22000	46878971	123	0.56	2400327	5.12	0.1092	
-23750	-23250	-23500	22000	46878971	73	0.33	2400377	5.12	0.0648	
-23700	-23200	-23450	22000	46878971	23	0.10	2400427	5.12	0.0204	
-23650	-23150	-23400	22000	46878971	0	0.00	2400450	5.12	0.0000	
-23600	-23100	-23350	22000	46878971	0	0.00	2400450	5.12	0.0000	
-23550	-23050	-23300	22000	46878971	0	0.00	2400450	5.12	0.0000	
-23500	-23000	-23250	22000	46878971	0	0.00	2400450	5.12	0.0000	
-23450	-22950	-23200	22000	46878971	0	0.00	2400450	5.12	0.0000	
-23400	-22900	-23150	22000	46878971	0	0.00	2400450	5.12	0.0000	
-23350	-22850	-23100	22000	46878971	0	0.00	2400450	5.12	0.0000	
-23300	-22800	-23050	22000	46878971	0	0.00	2400450	5.12	0.0000	
-23250	-22750	-23000	22000	46878971	0	0.00	2400450	5.12	0.0000	
-23200	-22700	-22950	22000	46878971	0	0.00	2400450	5.12	0.0000	
-23150	-22650	-22900	22000	46878971	0	0.00	2400450	5.12	0.0000	
-23100	-22600	-22850	22000	46878971	12	0.05	2400438	5.12	0.0107	
-23050	-22550	-22800	22000	46878971	62	0.28	2400388	5.12	0.0550	
-23000	-22500	-22750	22000	46878971	112	0.51	2400338	5.12	0.0994	
-22950	-22450	-22700	22000	46878971	177	0.80	2400273	5.12	0.1571	
-22900	-22400	-22650	22000	46878971	277	1.26	2400173	5.12	0.2459	
-22850	-22350	-22600	22000	46878971	377	1.71	2400073	5.12	0.3347	
-22800	-22300	-22550	22000	46878971	477	2.17	2399973	5.12	0.4235	
-22750	-22250	-22500	22000	46878971	577	2.62	2399873	5.12	0.5123	
-22700	-22200	-22450	22000	46878971	677	3.08	2399773	5.12	0.6011	
-22650	-22150	-22400	22000	46878971	777	3.53	2399673	5.12	0.6900	
-22600	-22100	-22350	22000	46878971	865	3.93	2399585	5.12	0.7681	
-22550	-22050	-22300	22000	46878971	915	4.16	2399535	5.12	0.8125	
-22500	-22000	-22250	22000	46878971	965	4.39	2399485	5.12	0.8570	
-22450	-21950	-22200	22000	46878971	1000	4.55	2399450	5.12	0.8881	
-22400	-21900	-22150	22000	46878971	1000	4.55	2399450	5.12	0.8881	
-22350	-21850	-22100	22000	46878971	1000	4.55	2399450	5.12	0.8881	
-22300	-21800	-22050	22000	46878971	1000	4.55	2399450	5.12	0.8881	
-22250	-21750	-22000	22000	46878971	1000	4.55	2399450	5.12	0.8881	
-22200	-21700	-21950	22000	46878971	988	4.49	2399462	5.12	0.8774	
-22150	-21650	-21900	22000	46878971	938	4.26	2399512	5.12	0.8330	
-22100	-21600	-21850	22000	46878971	937	4.26	2399513	5.12	0.8321	
-22050	-21550	-21800	22000	46878971	937	4.26	2399513	5.12	0.8321	
-22000	-21500	-21750	22000	46878971	937	4.26	2399513	5.12	0.8321	
-21950	-21450	-21700	22000	46878971	937	4.26	2399513	5.12	0.8321	
-21900	-21400	-21650	22000	46878971	937	4.26	2399513	5.12	0.8321	
-21850	-21350	-21600	22000	46878971	937	4.26	2399513	5.12	0.8321	
-21800	-21300	-21550	22000	46878971	937	4.26	2399513	5.12	0.8321	
-21750	-21250	-21500	22000	46878971	937	4.26	2399513	5.12	0.8321	
-21700	-21200	-21450	22000	46878971	949	4.31	2399501	5.12	0.8428	
-21650	-21150	-21400	22000	46878971	999	4.54	2399451	5.12	0.8872	
-21600	-21100	-21350	22000	46878971	1000	4.55	2399450	5.12	0.8881	
-21550	-21050	-21300	22000	46878971	1000	4.55	2399450	5.12	0.8881	
-21500	-21000	-21250	22000	46878971	1000	4.55	2399450	5.12	0.8881	
-21450	-20950	-21200	22000	46878971	1000	4.55	2399450	5.12	0.8881	
-21400	-20900	-21150	22000	46878971	1000	4.55	2399450	5.12	0.8881	
-21350	-20850	-21100	22000	46878971	951	4.32	2399499	5.12	0.8445	
-21300	-20800	-21050	22000	46878971	901	4.10	2399549	5.12	0.8001	
-21250	-20750	-21000	22000	46878971	851	3.87	2399599	5.12	0.7557	
-21200	-20700	-20950	22000	46878971	801	3.64	2399649	5.12	0.7113	
-21150	-20650	-20900	22000	46878971	736	3.35	2399714	5.12	0.6535	
-21100	-20600	-20850	22000	46878971	636	2.89	2399814	5.12	0.5647	
-21050	-20550	-20800	22000	46878971	536	2.44	2399914	5.12	0.4759	
-21000	-20500	-20750	22000	46878971	436	1.98	2400014	5.12	0.3871	
-20950	-20450	-20700	22000	46878971	356	1.62	2400094	5.12	0.3161	
-20900	-20400	-20650	22000	46878971	356	1.62	2400094	5.12	0.3161	
-20850	-20350	-20600	22000	46878971	405	1.84	2400045	5.12	0.3596	
-20800	-20300	-20550	22000	46878971	455	2.07	2399995	5.12	0.4040	
-20750	-20250	-20500	22000	46878971	505	2.30	2399945	5.12	0.4484	
-20700	-20200	-20450	22000	46878971	555	2.52	2399895	5.12	0.4928	
-20650	-20150	-20400	22000	46878971	620	2.82	2399830	5.12	0.5505	
-20600	-20100	-20350	22000	46878971	720	3.27	2399730	5.12	0.6393	
-20550	-20050	-20300	22000	46878971	820	3.73	2399630	5.12	0.7282	
-20500	-20000	-20250	21932	46879039	920	4.19	2399530	5.12	0.8195	
-20450	-19950	-20200	21832	46879139	1000	4.58	2399450	5.12	0.8949	
-20400	-19900	-20150	21732	46879239	1000	4.60	2399450	5.12	0.8990	
-20350	-19850	-20100	21632	46879339	1000	4.62	2399450	5.12	0.9032	
-20300	-19800	-20050	21532	46879439	1000	4.64	2399450	5.12	0.9074	
-20250	-19750	-20000	21568	46879403	1000	4.64	2399450	5.12	0.9059	
-20200	-19700	-19950	21668	46879303	995	4.59	2399455	5.12	0.8972	
-20150	-19650	-19900	21768	46879203	945	4.34	2399505	5.12	0.8481	
-20100	-19600	-19850	21868	46879103	895	4.09	2399555	5.12	0.7996	
-20050	-19550	-19800	21968	46879003	845	3.85	2399605	5.12	0.7515	
-20000	-19500	-19750	22000	46878971	795	3.61	2399655	5.12	0.7059	
-19950	-19450	-19700	22000	46878971	745	3.39	2399705	5.12	0.6615	
-19900	-19400	-19650	22000	46878971	680	3.09	2399770	5.12	0.6038	
-19850	-19350	-19600	22000	46878971	580	2.64	2399870	5.12	0.5150	
-19800	-19300	-19550	22000	46878971	480	2.18	2399970	5.12	0.4262	
-19750	-19250	-19500	22000	46878971	380	1.73	2400070	5.12	0.3374	
-19700	-19200	-19450	22000	46878971	285	1.30	2400165	5.12	0.2530	
-19650	-19150	-19400	22000	46878971	235	1.07	2400215	5.12	0.2086	
-19600	-19100	-19350	22000	46878971	185	0.84	2400265	5.12	0.1642	
-19550	-19050	-19300	22000	46878971	135	0.61	2400315	5.12	0.1198	
-19500	-19000	-19250	22000	46878971	85	0.39	2400365	5.12	0.0755	
-19450	-18950	-19200	22000	46878971	35	0.16	2400415	5.12	0.0311	
-19400	-18900	-19150	22000	46878971	0	0.00	2400450	5.12	0.0000	
-19350	-18850	-19100	22000	46878971	27	0.12	2400423	5.12	0.0240	
-19300	-18800	-19050	22000	46878971	77	0.35	2400373	5.12	0.0684	
-19250	-18750	-19000	22000	46878971	127	0.58	2400323	5.12	0.1127	
-19200	-18700	-18950	22000	46878971	177	0.80	2400273	5.12	0.1571	
-19150	-18650	-18900	22000	46878971	227	1.03	2400223	5.12	0.2015	
-19100	-18600	-18850	22000	46878971	277	1.26	2400173	5.12	0.2459	
-19050	-18550	-18800	22000	46878971	327	1.49	2400123	5.12	0.2903	
-19000	-18500	-18750	22000	46878971	377	1.71	2400073	5.12	0.3347	
-18950	-18450	-18700	22000	46878971	427	1.94	2400023	5.12	0.3791	
-18900	-18400	-18650	22000	46878971	477	2.17	2399973	5.12	0.4235	
-18850	-18350	-18600	22000	46878971	500	2.27	2399950	5.12	0.4439	
-18800	-18300	-18550	22000	46878971	500	2.27	2399950	5.12	0.4439	
-18750	-18250	-18500	22000	46878971	500	2.27	2399950	5.12	0.4439	
-18700	-18200	-18450	22000	46878971	500	2.27	2399950	5.12	0.4439	
-18650	-18150	-18400	22000	46878971	500	2.27	2399950	5.12	0.4439	
-18600	-18100	-18350	22000	46878971	500	2.27	2399950	5.12	0.4439	
-18550	-18050	-18300	22000	46878971	500	2.27	2399950	5.12	0.4439	
-18500	-18000	-18250	22000	46878971	500	2.27	2399950	5.12	0.4439	
-18450	-17950	-18200	22000	46878971	500	2.27	2399950	5.12	0.4439	
-18400	-17900	-18150	22000	46878971	500	2.27	2399950	5.12	0.4439	
-18350	-17850	-18100	22000	46878971	500	2.27	2399950	5.12	0.4439	
-18300	-17800	-18050	22000	46878971	500	2.27	2399950	5.12	0.4439	
-18250	-17750	-18000	22000	46878971	500	2.27	2399950	5.12	0.4439	
-18200	-17700	-17950	22000	46878971	500	2.27	2399950	5.12	0.4439	
-18150	-17650	-17900	22000	46878971	500	2.27	2399950	5.12	0.4439	
-18100	-17600	-17850	22000	46878971	500	2.27	2399950	5.12	0.4439	
-18050	-17550	-17800	22000	46878971	500	2.27	2399950	5.12	0.4439	
-18000	-17500	-17750	22000	46878971	500	2.27	2399950	5.12	0.4439	
-17950	-17450	-17700	22000	46878971	549	2.50	2399901	5.12	0.4875	
-17900	-17400	-17650	22000	46878971	599	2.72	2399851	5.12	0.5319	
-17850	-17350	-17600	22000	46878971	649	2.95	2399801	5.12	0.5763	
-17800	-17300	-17550	22000	46878971	699	3.18	2399751	5.12	0.6207	
-17750	-17250	-17500	22000	46878971	749	3.40	2399701	5.12	0.6651	
-17700	-17200	-17450	22000	46878971	799	3.63	2399651	5.12	0.7095	
-17650	-17150	-17400	22000	46878971	849	3.86	2399601	5.12	0.7539	
-17600	-17100	-17350	22000	46878971	899	4.09	2399551	5.12	0.7983	
-17550	-17050	-17300	22000	46878971	949	4.31	2399501	5.12	0.8428	
-17500	-17000	-17250	22000	46878971	950	4.32	2399500	5.12	0.8436	
-17450	-16950	-17200	22000	46878971	901	4.10	2399549	5.12	0.8001	
-17400	-16900	-17150	22000	46878971	851	3.87	2399599	5.12	0.7557	
-17350	-16850	-17100	22000	46878971	844	3.84	2399606	5.12	0.7495	
-17300	-16800	-17050	22000	46878971	844	3.84	2399606	5.12	0.7495	
-17250	-16750	-17000	22000	46878971	817	3.71	2399633	5.12	0.7255	
-17200	-16700	-16950	22000	46878971	767	3.49	2399683	5.12	0.6811	
-17150	-16650	-16900	22000	46878971	717	3.26	2399733	5.12	0.6367	
-17100	-16600	-16850	22000	46878971	667	3.03	2399783	5.12	0.5923	
-17050	-16550	-16800	22000	46878971	617	2.80	2399833	5.12	0.5478	
-17000	-16500	-16750	22000	46878971	616	2.80	2399834	5.12	0.5470	
-16950	-16450	-16700	22000	46878971	616	2.80	2399834	5.12	0.5470	
-16900	-16400	-16650	22000	46878971	616	2.80	2399834	5.12	0.5470	
-16850	-16350	-16600	22000	46878971	573	2.60	2399877	5.12	0.5088	
-16800	-16300	-16550	22000	46878971	523	2.38	2399927	5.12	0.4644	
-16750	-16250	-16500	22000	46878971	500	2.27	2399950	5.12	0.4439	
-16700	-16200	-16450	22000	46878971	500	2.27	2399950	5.12	0.4439	
-16650	-16150	-16400	22000	46878971	500	2.27	2399950	5.12	0.4439	
-16600	-16100	-16350	22000	46878971	501	2.28	2399949	5.12	0.4448	
-16550	-16050	-16300	22000	46878971	551	2.50	2399899	5.12	0.4892	
-16500	-16000	-16250	22000	46878971	601	2.73	2399849	5.12	0.5336	
-16450	-15950	-16200	22000	46878971	651	2.96	2399799	5.12	0.5780	
-16400	-15900	-16150	22000	46878971	701	3.19	2399749	5.12	0.6225	
-16350	-15850	-16100	22000	46878971	751	3.41	2399699	5.12	0.6669	
-16300	-15800	-16050	22000	46878971	801	3.64	2399649	5.12	0.7113	
-16250	-15750	-16000	22000	46878971	851	3.87	2399599	5.12	0.7557	
-16200	-15700	-15950	22000	46878971	901	4.10	2399549	5.12	0.8001	
-16150	-15650	-15900	22000	46878971	951	4.32	2399499	5.12	0.8445	
-16100	-15600	-15850	22000	46878971	1000	4.55	2399450	5.12	0.8881	
-16050	-15550	-15800	22000	46878971	1000	4.55	2399450	5.12	0.8881	
-16000	-15500	-15750	22000	46878971	1000	4.55	2399450	5.12	0.8881	
-15950	-15450	-15700	22000	46878971	1000	4.55	2399450	5.12	0.8881	
-15900	-15400	-15650	22000	46878971	1025	4.66	2399425	5.12	0.9103	
-15850	-15350	-15600	22000	46878971	1075	4.89	2399375	5.12	0.9547	
-15800	-15300	-15550	22000	46878971	1174	5.34	2399276	5.12	1.0427	
-15750	-15250	-15500	22000	46878971	1274	5.79	2399176	5.12	1.1315	
-15700	-15200	-15450	22000	46878971	1374	6.25	2399076	5.12	1.2204	
-15650	-15150	-15400	22000	46878971	1518	6.90	2398932	5.12	1.3484	
-15600	-15100	-15350	22000	46878971	1668	7.58	2398782	5.12	1.4817	
-15550	-15050	-15300	22000	46878971	1775	8.07	2398675	5.12	1.5768	
-15500	-15000	-15250	22000	46878971	1900	8.64	2398550	5.12	1.6880	
-15450	-14950	-15200	22000	46878971	2077	9.44	2398373	5.12	1.8453	
-15400	-14900	-15150	22000	46878971	2252	10.24	2398198	5.12	2.0010	
-15350	-14850	-15100	22000	46878971	2402	10.92	2398048	5.12	2.1344	
-15300	-14800	-15050	22000	46878971	2503	11.38	2397947	5.12	2.2242	
-15250	-14750	-15000	22000	46878971	2603	11.83	2397847	5.11	2.3132	
-15200	-14700	-14950	22000	46878971	2703	12.29	2397747	5.11	2.4021	
-15150	-14650	-14900	22000	46878971	2759	12.54	2397691	5.11	2.4520	
-15100	-14600	-14850	22000	46878971	2809	12.77	2397641	5.11	2.4965	
-15050	-14550	-14800	22000	46878971	2902	13.19	2397548	5.11	2.5792	
-15000	-14500	-14750	22000	46878971	2977	13.53	2397473	5.11	2.6459	
-14950	-14450	-14700	22000	46878971	3000	13.64	2397450	5.11	2.6664	
-14900	-14400	-14650	22000	46878971	2975	13.52	2397475	5.11	2.6442	
-14850	-14350	-14600	22000	46878971	2925	13.30	2397525	5.11	2.5997	
-14800	-14300	-14550	22000	46878971	2875	13.07	2397575	5.11	2.5552	
-14750	-14250	-14500	22000	46878971	2776	12.62	2397674	5.11	2.4671	
-14700	-14200	-14450	22000	46878971	2676	12.16	2397774	5.11	2.3781	
-14650	-14150	-14400	22000	46878971	2576	11.71	2397874	5.12	2.2892	
-14600	-14100	-14350	22000	46878971	2432	11.05	2398018	5.12	2.1611	
-14550	-14050	-14300	22000	46878971	2313	10.51	2398137	5.12	2.0552	
-14500	-14000	-14250	22000	46878971	2213	10.06	2398237	5.12	1.9663	
-14450	-13950	-14200	22000	46878971	2113	9.60	2398337	5.12	1.8773	
-14400	-13900	-14150	22000	46878971	2038	9.26	2398412	5.12	1.8107	
-14350	-13850	-14100	22000	46878971	1988	9.04	2398462	5.12	1.7662	
-14300	-13800	-14050	22000	46878971	1938	8.81	2398512	5.12	1.7217	
-14250	-13750	-14000	22000	46878971	1910	8.68	2398540	5.12	1.6968	
-14200	-13700	-13950	22000	46878971	1860	8.45	2398590	5.12	1.6524	
-14150	-13650	-13900	22000	46878971	1810	8.23	2398640	5.12	1.6079	
-14100	-13600	-13850	22000	46878971	1804	8.20	2398646	5.12	1.6026	
-14050	-13550	-13800	22000	46878971	1773	8.06	2398677	5.12	1.5750	
-14000	-13500	-13750	22000	46878971	1723	7.83	2398727	5.12	1.5306	
-13950	-13450	-13700	22000	46878971	1673	7.60	2398777	5.12	1.4861	
-13900	-13400	-13650	22000	46878971	1623	7.38	2398827	5.12	1.4417	
-13850	-13350	-13600	22000	46878971	1573	7.15	2398877	5.12	1.3973	
-13800	-13300	-13550	22000	46878971	1498	6.81	2398952	5.12	1.3306	
-13750	-13250	-13500	22000	46878971	1425	6.48	2399025	5.12	1.2657	
-13700	-13200	-13450	22000	46878971	1375	6.25	2399075	5.12	1.2213	
-13650	-13150	-13400	22000	46878971	1325	6.02	2399125	5.12	1.1768	
-13600	-13100	-13350	22000	46878971	1324	6.02	2399126	5.12	1.1760	
-13550	-13050	-13300	22000	46878971	1324	6.02	2399126	5.12	1.1760	
-13500	-13000	-13250	22000	46878971	1324	6.02	2399126	5.12	1.1760	
-13450	-12950	-13200	22000	46878971	1324	6.02	2399126	5.12	1.1760	
-13400	-12900	-13150	22000	46878971	1324	6.02	2399126	5.12	1.1760	
-13350	-12850	-13100	22000	46878971	1324	6.02	2399126	5.12	1.1760	
-13300	-12800	-13050	22000	46878971	1300	5.91	2399150	5.12	1.1546	
-13250	-12750	-13000	22000	46878971	1300	5.91	2399150	5.12	1.1546	
-13200	-12700	-12950	22000	46878971	1269	5.77	2399181	5.12	1.1271	
-13150	-12650	-12900	22000	46878971	1219	5.54	2399231	5.12	1.0826	
-13100	-12600	-12850	22000	46878971	1120	5.09	2399330	5.12	0.9947	
-13050	-12550	-12800	22000	46878971	1020	4.64	2399430	5.12	0.9058	
-13000	-12500	-12750	22000	46878971	920	4.18	2399530	5.12	0.8170	
-12950	-12450	-12700	22000	46878971	820	3.73	2399630	5.12	0.7282	
-12900	-12400	-12650	22000	46878971	720	3.27	2399730	5.12	0.6393	
-12850	-12350	-12600	22000	46878971	620	2.82	2399830	5.12	0.5505	
-12800	-12300	-12550	22000	46878971	569	2.59	2399881	5.12	0.5052	
-12750	-12250	-12500	22000	46878971	519	2.36	2399931	5.12	0.4608	
-12700	-12200	-12450	22000	46878971	515	2.34	2399935	5.12	0.4573	
-12650	-12150	-12400	22000	46878971	565	2.57	2399885	5.12	0.5017	
-12600	-12100	-12350	22000	46878971	615	2.80	2399835	5.12	0.5461	
-12550	-12050	-12300	22000	46878971	665	3.02	2399785	5.12	0.5905	
-12500	-12000	-12250	22000	46878971	715	3.25	2399735	5.12	0.6349	
-12450	-11950	-12200	22000	46878971	765	3.48	2399685	5.12	0.6793	
-12400	-11900	-12150	22000	46878971	815	3.70	2399635	5.12	0.7237	
-12350	-11850	-12100	22000	46878971	865	3.93	2399585	5.12	0.7681	
-12300	-11800	-12050	22000	46878971	915	4.16	2399535	5.12	0.8125	
-12250	-11750	-12000	22000	46878971	965	4.39	2399485	5.12	0.8570	
-12200	-11700	-11950	22000	46878971	1000	4.55	2399450	5.12	0.8881	
-12150	-11650	-11900	22000	46878971	1000	4.55	2399450	5.12	0.8881	
-12100	-11600	-11850	22000	46878971	1000	4.55	2399450	5.12	0.8881	
-12050	-11550	-11800	22000	46878971	1012	4.60	2399438	5.12	0.8987	
-12000	-11500	-11750	22000	46878971	1062	4.83	2399388	5.12	0.9431	
-11950	-11450	-11700	22000	46878971	1111	5.05	2399339	5.12	0.9867	
-11900	-11400	-11650	22000	46878971	1111	5.05	2399339	5.12	0.9867	
-11850	-11350	-11600	22000	46878971	1111	5.05	2399339	5.12	0.9867	
-11800	-11300	-11550	22000	46878971	1111	5.05	2399339	5.12	0.9867	
-11750	-11250	-11500	22000	46878971	1111	5.05	2399339	5.12	0.9867	
-11700	-11200	-11450	22000	46878971	1111	5.05	2399339	5.12	0.9867	
-11650	-11150	-11400	22000	46878971	1111	5.05	2399339	5.12	0.9867	
-11600	-11100	-11350	22000	46878971	1111	5.05	2399339	5.12	0.9867	
-11550	-11050	-11300	22000	46878971	1099	5.00	2399351	5.12	0.9760	
-11500	-11000	-11250	21931	46879040	1049	4.78	2399401	5.12	0.9345	
-11450	-10950	-11200	21831	46879140	1000	4.58	2399450	5.12	0.8949	
-11400	-10900	-11150	21731	46879240	1000	4.60	2399450	5.12	0.8991	
-11350	-10850	-11100	21631	46879340	1000	4.62	2399450	5.12	0.9032	
-11300	-10800	-11050	21531	46879440	1000	4.64	2399450	5.12	0.9074	
-11250	-10750	-11000	21569	46879402	1000	4.64	2399450	5.12	0.9058	
-11200	-10700	-10950	21669	46879302	985	4.55	2399465	5.12	0.8881	
-11150	-10650	-10900	21769	46879202	935	4.30	2399515	5.12	0.8391	
-11100	-10600	-10850	21869	46879102	885	4.05	2399565	5.12	0.7906	
-11050	-10550	-10800	21969	46879002	835	3.80	2399615	5.12	0.7425	
-11000	-10500	-10750	22000	46878971	785	3.57	2399665	5.12	0.6971	
-10950	-10450	-10700	22000	46878971	735	3.34	2399715	5.12	0.6527	
-10900	-10400	-10650	22000	46878971	685	3.11	2399765	5.12	0.6082	
-10850	-10350	-10600	22000	46878971	623	2.83	2399827	5.12	0.5532	
-10800	-10300	-10550	22000	46878971	523	2.38	2399927	5.12	0.4644	
-10750	-10250	-10500	22000	46878971	423	1.92	2400027	5.12	0.3756	
-10700	-10200	-10450	22000	46878971	338	1.54	2400112	5.12	0.3001	
-10650	-10150	-10400	22000	46878971	288	1.31	2400162	5.12	0.2557	
-10600	-10100	-10350	22000	46878971	238	1.08	2400212	5.12	0.2113	
-10550	-10050	-10300	22000	46878971	188	0.85	2400262	5.12	0.1669	
-10500	-10000	-10250	22000	46878971	138	0.63	2400312	5.12	0.1225	
-10450	-9950	-10200	22000	46878971	88	0.40	2400362	5.12	0.0781	
-10400	-9900	-10150	22000	46878971	38	0.17	2400412	5.12	0.0337	
-10350	-9850	-10100	22000	46878971	0	0.00	2400450	5.12	0.0000	
-10300	-9800	-10050	22000	46878971	0	0.00	2400450	5.12	0.0000	
-10250	-9750	-10000	22000	46878971	0	0.00	2400450	5.12	0.0000	
-10200	-9700	-9950	22000	46878971	0	0.00	2400450	5.12	0.0000	
-10150	-9650	-9900	22000	46878971	0	0.00	2400450	5.12	0.0000	
-10100	-9600	-9850	22000	46878971	0	0.00	2400450	5.12	0.0000	
-10050	-9550	-9800	22000	46878971	0	0.00	2400450	5.12	0.0000	
-10000	-9500	-9750	22000	46878971	0	0.00	2400450	5.12	0.0000	
-9950	-9450	-9700	22000	46878971	0	0.00	2400450	5.12	0.0000	
-9900	-9400	-9650	22000	46878971	0	0.00	2400450	5.12	0.0000	
-9850	-9350	-9600	22000	46878971	0	0.00	2400450	5.12	0.0000	
-9800	-9300	-9550	22000	46878971	0	0.00	2400450	5.12	0.0000	
-9750	-9250	-9500	22000	46878971	0	0.00	2400450	5.12	0.0000	
-9700	-9200	-9450	22000	46878971	0	0.00	2400450	5.12	0.0000	
-9650	-9150	-9400	22000	46878971	0	0.00	2400450	5.12	0.0000	
-9600	-9100	-9350	22000	46878971	0	0.00	2400450	5.12	0.0000	
-9550	-9050	-9300	22000	46878971	0	0.00	2400450	5.12	0.0000	
-9500	-9000	-9250	22000	46878971	0	0.00	2400450	5.12	0.0000	
-9450	-8950	-9200	22000	46878971	0	0.00	2400450	5.12	0.0000	
-9400	-8900	-9150	22000	46878971	0	0.00	2400450	5.12	0.0000	
-9350	-8850	-9100	22000	46878971	0	0.00	2400450	5.12	0.0000	
-9300	-8800	-9050	22000	46878971	0	0.00	2400450	5.12	0.0000	
-9250	-8750	-9000	22000	46878971	0	0.00	2400450	5.12	0.0000	
-9200	-8700	-8950	22000	46878971	0	0.00	2400450	5.12	0.0000	
-9150	-8650	-8900	22000	46878971	0	0.00	2400450	5.12	0.0000	
-9100	-8600	-8850	22000	46878971	0	0.00	2400450	5.12	0.0000	
-9050	-8550	-8800	22000	46878971	0	0.00	2400450	5.12	0.0000	
-9000	-8500	-8750	22000	46878971	0	0.00	2400450	5.12	0.0000	
-8950	-8450	-8700	22000	46878971	0	0.00	2400450	5.12	0.0000	
-8900	-8400	-8650	22000	46878971	0	0.00	2400450	5.12	0.0000	
-8850	-8350	-8600	22000	46878971	0	0.00	2400450	5.12	0.0000	
-8800	-8300	-8550	22000	46878971	0	0.00	2400450	5.12	0.0000	
-8750	-8250	-8500	22000	46878971	41	0.19	2400409	5.12	0.0364	
-8700	-8200	-8450	22000	46878971	91	0.41	2400359	5.12	0.0808	
-8650	-8150	-8400	22000	46878971	141	0.64	2400309	5.12	0.1252	
-8600	-8100	-8350	22000	46878971	191	0.87	2400259	5.12	0.1696	
-8550	-8050	-8300	22000	46878971	241	1.10	2400209	5.12	0.2140	
-8500	-8000	-8250	22000	46878971	291	1.32	2400159	5.12	0.2583	
-8450	-7950	-8200	22000	46878971	341	1.55	2400109	5.12	0.3027	
-8400	-7900	-8150	22000	46878971	391	1.78	2400059	5.12	0.3471	
-8350	-7850	-8100	22000	46878971	441	2.00	2400009	5.12	0.3915	
-8300	-7800	-8050	22000	46878971	491	2.23	2399959	5.12	0.4359	
-8250	-7750	-8000	22000	46878971	500	2.27	2399950	5.12	0.4439	
-8200	-7700	-7950	22000	46878971	520	2.36	2399930	5.12	0.4617	
-8150	-7650	-7900	22000	46878971	570	2.59	2399880	5.12	0.5061	
-8100	-7600	-7850	22000	46878971	620	2.82	2399830	5.12	0.5505	
-8050	-7550	-7800	22000	46878971	670	3.05	2399780	5.12	0.5949	
-8000	-7500	-7750	22000	46878971	720	3.27	2399730	5.12	0.6393	
-7950	-7450	-7700	22000	46878971	770	3.50	2399680	5.12	0.6837	
-7900	-7400	-7650	22000	46878971	820	3.73	2399630	5.12	0.7282	
-7850	-7350	-7600	22000	46878971	870	3.95	2399580	5.12	0.7726	
-7800	-7300	-7550	22000	46878971	920	4.18	2399530	5.12	0.8170	
-7750	-7250	-7500	22000	46878971	970	4.41	2399480	5.12	0.8614	
-7700	-7200	-7450	22000	46878971	1000	4.55	2399450	5.12	0.8881	
-7650	-7150	-7400	22000	46878971	1000	4.55	2399450	5.12	0.8881	
-7600	-7100	-7350	22000	46878971	1000	4.55	2399450	5.12	0.8881	
-7550	-7050	-7300	22000	46878971	1049	4.77	2399401	5.12	0.9316	
-7500	-7000	-7250	22000	46878971	1099	5.00	2399351	5.12	0.9760	
-7450	-6950	-7200	22000	46878971	1149	5.22	2399301	5.12	1.0204	
-7400	-6900	-7150	22000	46878971	1199	5.45	2399251	5.12	1.0649	
-7350	-6850	-7100	22000	46878971	1249	5.68	2399201	5.12	1.1093	
-7300	-6800	-7050	22000	46878971	1299	5.90	2399151	5.12	1.1537	
-7250	-6750	-7000	22000	46878971	1349	6.13	2399101	5.12	1.1982	
-7200	-6700	-6950	22000	46878971	1399	6.36	2399051	5.12	1.2426	
-7150	-6650	-6900	22000	46878971	1449	6.59	2399001	5.12	1.2870	
-7100	-6600	-6850	22000	46878971	1499	6.81	2398951	5.12	1.3315	
-7050	-6550	-6800	22000	46878971	1500	6.82	2398950	5.12	1.3324	
-7000	-6500	-6750	21976	46878995	1480	6.73	2398970	5.12	1.3160	
-6950	-6450	-6700	21876	46879095	1430	6.54	2399020	5.12	1.2774	
-6900	-6400	-6650	21776	46879195	1380	6.34	2399070	5.12	1.2383	
-6850	-6350	-6600	21676	46879295	1330	6.14	2399120	5.12	1.1990	
-6800	-6300	-6550	21576	46879395	1280	5.93	2399170	5.12	1.1592	
-6750	-6250	-6500	21524	46879447	1230	5.71	2399220	5.12	1.1166	
-6700	-6200	-6450	21624	46879347	1228	5.68	2399222	5.12	1.1096	
-6650	-6150	-6400	21724	46879247	1188	5.47	2399262	5.12	1.0685	
-6600	-6100	-6350	21824	46879147	1188	5.44	2399262	5.12	1.0636	
-6550	-6050	-6300	21924	46879047	1188	5.42	2399262	5.12	1.0588	
-6500	-6000	-6250	22000	46878971	1208	5.49	2399242	5.12	1.0729	
-6450	-5950	-6200	22000	46878971	1258	5.72	2399192	5.12	1.1173	
-6400	-5900	-6150	22000	46878971	1308	5.95	2399142	5.12	1.1617	
-6350	-5850	-6100	22000	46878971	1358	6.17	2399092	5.12	1.2062	
-6300	-5800	-6050	22000	46878971	1408	6.40	2399042	5.12	1.2506	
-6250	-5750	-6000	22000	46878971	1458	6.63	2398992	5.12	1.2950	
-6200	-5700	-5950	22000	46878971	1460	6.64	2398990	5.12	1.2968	
-6150	-5650	-5900	22000	46878971	1500	6.82	2398950	5.12	1.3324	
-6100	-5600	-5850	22000	46878971	1500	6.82	2398950	5.12	1.3324	
-6050	-5550	-5800	22000	46878971	1499	6.81	2398951	5.12	1.3315	
-6000	-5500	-5750	22000	46878971	1449	6.59	2399001	5.12	1.2870	
-5950	-5450	-5700	22000	46878971	1399	6.36	2399051	5.12	1.2426	
-5900	-5400	-5650	22000	46878971	1349	6.13	2399101	5.12	1.1982	
-5850	-5350	-5600	22000	46878971	1299	5.90	2399151	5.12	1.1537	
-5800	-5300	-5550	22000	46878971	1249	5.68	2399201	5.12	1.1093	
-5750	-5250	-5500	22000	46878971	1199	5.45	2399251	5.12	1.0649	
-5700	-5200	-5450	22000	46878971	1149	5.22	2399301	5.12	1.0204	
-5650	-5150	-5400	22000	46878971	1051	4.78	2399399	5.12	0.9334	
-5600	-5100	-5350	22000	46878971	951	4.32	2399499	5.12	0.8445	
-5550	-5050	-5300	22000	46878971	852	3.87	2399598	5.12	0.7566	
-5500	-5000	-5250	22000	46878971	802	3.65	2399648	5.12	0.7122	
-5450	-4950	-5200	22000	46878971	752	3.42	2399698	5.12	0.6678	
-5400	-4900	-5150	22000	46878971	702	3.19	2399748	5.12	0.6233	
-5350	-4850	-5100	22000	46878971	652	2.96	2399798	5.12	0.5789	
-5300	-4800	-5050	22000	46878971	602	2.74	2399848	5.12	0.5345	
-5250	-4750	-5000	22000	46878971	552	2.51	2399898	5.12	0.4901	
-5200	-4700	-4950	22000	46878971	502	2.28	2399948	5.12	0.4457	
-5150	-4650	-4900	22000	46878971	500	2.27	2399950	5.12	0.4439	
-5100	-4600	-4850	22000	46878971	500	2.27	2399950	5.12	0.4439	
-5050	-4550	-4800	22000	46878971	500	2.27	2399950	5.12	0.4439	
-5000	-4500	-4750	22000	46878971	500	2.27	2399950	5.12	0.4439	
-4950	-4450	-4700	22000	46878971	500	2.27	2399950	5.12	0.4439	
-4900	-4400	-4650	22000	46878971	500	2.27	2399950	5.12	0.4439	
-4850	-4350	-4600	22000	46878971	500	2.27	2399950	5.12	0.4439	
-4800	-4300	-4550	22000	46878971	500	2.27	2399950	5.12	0.4439	
-4750	-4250	-4500	22000	46878971	500	2.27	2399950	5.12	0.4439	
-4700	-4200	-4450	22000	46878971	500	2.27	2399950	5.12	0.4439	
-4650	-4150	-4400	22000	46878971	500	2.27	2399950	5.12	0.4439	
-4600	-4100	-4350	22000	46878971	500	2.27	2399950	5.12	0.4439	
-4550	-4050	-4300	22000	46878971	500	2.27	2399950	5.12	0.4439	
-4500	-4000	-4250	22000	46878971	500	2.27	2399950	5.12	0.4439	
-4450	-3950	-4200	22000	46878971	500	2.27	2399950	5.12	0.4439	
-4400	-3900	-4150	22000	46878971	500	2.27	2399950	5.12	0.4439	
-4350	-3850	-4100	22000	46878971	500	2.27	2399950	5.12	0.4439	
-4300	-3800	-4050	22000	46878971	500	2.27	2399950	5.12	0.4439	
-4250	-3750	-4000	22000	46878971	500	2.27	2399950	5.12	0.4439	
-4200	-3700	-3950	22000	46878971	500	2.27	2399950	5.12	0.4439	
-4150	-3650	-3900	22000	46878971	500	2.27	2399950	5.12	0.4439	
-4100	-3600	-3850	22000	46878971	500	2.27	2399950	5.12	0.4439	
-4050	-3550	-3800	22000	46878971	500	2.27	2399950	5.12	0.4439	
-4000	-3500	-3750	22000	46878971	500	2.27	2399950	5.12	0.4439	
-3950	-3450	-3700	22000	46878971	500	2.27	2399950	5.12	0.4439	
-3900	-3400	-3650	22000	46878971	500	2.27	2399950	5.12	0.4439	
-3850	-3350	-3600	22000	46878971	500	2.27	2399950	5.12	0.4439	
-3800	-3300	-3550	22000	46878971	500	2.27	2399950	5.12	0.4439	
-3750	-3250	-3500	22000	46878971	500	2.27	2399950	5.12	0.4439	
-3700	-3200	-3450	22000	46878971	500	2.27	2399950	5.12	0.4439	
-3650	-3150	-3400	22000	46878971	500	2.27	2399950	5.12	0.4439	
-3600	-3100	-3350	22000	46878971	500	2.27	2399950	5.12	0.4439	
-3550	-3050	-3300	22000	46878971	500	2.27	2399950	5.12	0.4439	
-3500	-3000	-3250	22000	46878971	500	2.27	2399950	5.12	0.4439	
-3450	-2950	-3200	22000	46878971	500	2.27	2399950	5.12	0.4439	
-3400	-2900	-3150	22000	46878971	500	2.27	2399950	5.12	0.4439	
-3350	-2850	-3100	22000	46878971	500	2.27	2399950	5.12	0.4439	
-3300	-2800	-3050	22000	46878971	500	2.27	2399950	5.12	0.4439	
-3250	-2750	-3000	22000	46878971	549	2.50	2399901	5.12	0.4875	
-3200	-2700	-2950	22000	46878971	599	2.72	2399851	5.12	0.5319	
-3150	-2650	-2900	22000	46878971	649	2.95	2399801	5.12	0.5763	
-3100	-2600	-2850	22000	46878971	699	3.18	2399751	5.12	0.6207	
-3050	-2550	-2800	22000	46878971	749	3.40	2399701	5.12	0.6651	
-3000	-2500	-2750	22000	46878971	799	3.63	2399651	5.12	0.7095	
-2950	-2450	-2700	22000	46878971	849	3.86	2399601	5.12	0.7539	
-2900	-2400	-2650	22000	46878971	907	4.12	2399543	5.12	0.8054	
-2850	-2350	-2600	22000	46878971	1007	4.58	2399443	5.12	0.8943	
-2800	-2300	-2550	22000	46878971	1107	5.03	2399343	5.12	0.9831	
-2750	-2250	-2500	22000	46878971	1158	5.26	2399292	5.12	1.0284	
-2700	-2200	-2450	22000	46878971	1208	5.49	2399242	5.12	1.0729	
-2650	-2150	-2400	22000	46878971	1258	5.72	2399192	5.12	1.1173	
-2600	-2100	-2350	22000	46878971	1308	5.95	2399142	5.12	1.1617	
-2550	-2050	-2300	22000	46878971	1407	6.40	2399043	5.12	1.2497	
-2500	-2000	-2250	22000	46878971	1507	6.85	2398943	5.12	1.3386	
-2450	-1950	-2200	22000	46878971	1607	7.30	2398843	5.12	1.4275	
-2400	-1900	-2150	22000	46878971	1699	7.72	2398751	5.12	1.5093	
-2350	-1850	-2100	22000	46878971	1700	7.73	2398750	5.12	1.5101	
-2300	-1800	-2050	22000	46878971	1700	7.73	2398750	5.12	1.5101	
-2250	-1750	-2000	22000	46878971	1700	7.73	2398750	5.12	1.5101	
-2200	-1700	-1950	22000	46878971	1700	7.73	2398750	5.12	1.5101	
-2150	-1650	-1900	22000	46878971	1700	7.73	2398750	5.12	1.5101	
-2100	-1600	-1850	22000	46878971	1700	7.73	2398750	5.12	1.5101	
-2050	-1550	-1800	21951	46879020	1651	7.52	2398799	5.12	1.4699	
-2000	-1500	-1750	21851	46879120	1601	7.33	2398849	5.12	1.4318	
-1950	-1450	-1700	21751	46879220	1551	7.13	2398899	5.12	1.3935	
-1900	-1400	-1650	21651	46879320	1501	6.93	2398949	5.12	1.3548	
-1850	-1350	-1600	21551	46879420	1492	6.92	2398958	5.12	1.3529	
-1800	-1300	-1550	21549	46879422	1442	6.69	2399008	5.12	1.3076	
-1750	-1250	-1500	21649	46879322	1392	6.43	2399058	5.12	1.2564	
-1700	-1200	-1450	21749	46879222	1342	6.17	2399108	5.12	1.2057	
-1650	-1150	-1400	21849	46879122	1292	5.91	2399158	5.12	1.1555	
-1600	-1100	-1350	21949	46879022	1242	5.66	2399208	5.12	1.1056	
-1550	-1050	-1300	22000	46878971	1192	5.42	2399258	5.12	1.0587	
-1500	-1000	-1250	22000	46878971	1142	5.19	2399308	5.12	1.0142	
-1450	-950	-1200	22000	46878971	1092	4.96	2399358	5.12	0.9698	
-1400	-900	-1150	22000	46878971	1042	4.74	2399408	5.12	0.9254	
-1350	-850	-1100	22000	46878971	1000	4.55	2399450	5.12	0.8881	
-1300	-800	-1050	22000	46878971	1000	4.55	2399450	5.12	0.8881	
-1250	-750	-1000	22000	46878971	1000	4.55	2399450	5.12	0.8881	
-1200	-700	-950	22000	46878971	1000	4.55	2399450	5.12	0.8881	
-1150	-650	-900	22000	46878971	1000	4.55	2399450	5.12	0.8881	
-1100	-600	-850	22000	46878971	1000	4.55	2399450	5.12	0.8881	
-1050	-550	-800	22000	46878971	1000	4.55	2399450	5.12	0.8881	
-1000	-500	-750	22000	46878971	1000	4.55	2399450	5.12	0.8881	
-950	-450	-700	22000	46878971	1000	4.55	2399450	5.12	0.8881	
-900	-400	-650	22000	46878971	1000	4.55	2399450	5.12	0.8881	
-850	-350	-600	22000	46878971	1000	4.55	2399450	5.12	0.8881	
-800	-300	-550	22000	46878971	1000	4.55	2399450	5.12	0.8881	
-750	-250	-500	22000	46878971	1000	4.55	2399450	5.12	0.8881	
-700	-200	-450	22000	46878971	1043	4.74	2399407	5.12	0.9263	
-650	-150	-400	22000	46878971	1118	5.08	2399332	5.12	0.9929	
-600	-100	-350	22000	46878971	1218	5.54	2399232	5.12	1.0818	
-550	-50	-300	22000	46878971	1318	5.99	2399132	5.12	1.1706	
-500	0	-250	22000	46878971	1418	6.45	2399032	5.12	1.2595	
-450	50	-200	22000	46878971	1518	6.90	2398932	5.12	1.3484	
-400	100	-150	22000	46878971	1618	7.35	2398832	5.12	1.4373	
-350	150	-100	22000	46878971	1693	7.70	2398757	5.12	1.5039	
-300	200	-50	22000	46878971	1743	7.92	2398707	5.12	1.5484	
-250	250	0	22000	46878971	1793	8.15	2398657	5.12	1.5928	
-200	300	50	21958	46879013	1800	8.20	2398650	5.12	1.6021	
-150	350	100	21766	46879205	1775	8.15	2398675	5.12	1.5938	
-100	400	150	21466	46879505	1682	7.84	2398768	5.12	1.5313	
-50	450	200	21166	46879805	1582	7.47	2398868	5.12	1.4607	
0	500	250	20866	46880105	1482	7.10	2398968	5.12	1.3879	
50	550	300	20650	46880321	1382	6.69	2399068	5.12	1.3078	
100	600	350	20734	46880237	1282	6.18	2399168	5.12	1.2082	
150	650	400	21034	46879937	1207	5.74	2399243	5.12	1.1212	
200	700	450	21334	46879637	1172	5.49	2399278	5.12	1.0734	
250	750	500	21634	46879337	1172	5.42	2399278	5.12	1.0585	
300	800	550	21892	46879079	1172	5.35	2399278	5.12	1.0460	
350	850	600	22000	46878971	1172	5.33	2399278	5.12	1.0409	
400	900	650	21958	46879013	1259	5.73	2399191	5.12	1.1203	
450	950	700	21858	46879113	1359	6.22	2399091	5.12	1.2149	
500	1000	750	21758	46879213	1459	6.71	2398991	5.12	1.3104	
550	1050	800	21658	46879313	1559	7.20	2398891	5.12	1.4067	
600	1100	850	21558	46879413	1659	7.70	2398791	5.12	1.5039	
650	1150	900	21542	46879429	1759	8.17	2398691	5.12	1.5958	
700	1200	950	21642	46879329	1800	8.32	2398650	5.12	1.6255	
750	1250	1000	21742	46879229	1800	8.28	2398650	5.12	1.6180	
800	1300	1050	21842	46879129	1800	8.24	2398650	5.12	1.6106	
850	1350	1100	21942	46879029	1800	8.20	2398650	5.12	1.6033	
900	1400	1150	22000	46878971	1707	7.76	2398743	5.12	1.5164	
950	1450	1200	22000	46878971	1656	7.53	2398794	5.12	1.4710	
1000	1500	1250	22000	46878971	1606	7.30	2398844	5.12	1.4266	
1050	1550	1300	21900	46879071	1556	7.11	2398894	5.12	1.3885	
1100	1600	1350	21700	46879271	1506	6.94	2398944	5.12	1.3562	
1150	1650	1400	21500	46879471	1456	6.77	2398994	5.12	1.3234	
1200	1700	1450	21300	46879671	1450	6.81	2399000	5.12	1.3303	
1250	1750	1500	21100	46879871	1450	6.87	2399000	5.12	1.3429	
1300	1800	1550	21033	46879938	1450	6.89	2399000	5.12	1.3472	
1350	1850	1600	21133	46879838	1450	6.86	2399000	5.12	1.3408	
1400	1900	1650	21233	46879738	1499	7.06	2398951	5.12	1.3796	
1450	1950	1700	21333	46879638	1500	7.03	2398950	5.12	1.3740	
1500	2000	1750	21433	46879538	1500	7.00	2398950	5.12	1.3676	
1550	2050	1800	21567	46879404	1452	6.73	2398998	5.12	1.3156	
1600	2100	1850	21667	46879304	1452	6.70	2398998	5.12	1.3095	
1650	2150	1900	21767	46879204	1452	6.67	2398998	5.12	1.3035	
1700	2200	1950	21867	46879104	1452	6.64	2398998	5.12	1.2976	
1750	2250	2000	21967	46879004	1452	6.61	2398998	5.12	1.2916	
1800	2300	2050	22000	46878971	1452	6.60	2398998	5.12	1.2897	
1850	2350	2100	22000	46878971	1452	6.60	2398998	5.12	1.2897	
1900	2400	2150	22000	46878971	1452	6.60	2398998	5.12	1.2897	
1950	2450	2200	22000	46878971	1452	6.60	2398998	5.12	1.2897	
2000	2500	2250	22000	46878971	1452	6.60	2398998	5.12	1.2897	
2050	2550	2300	22000	46878971	1500	6.82	2398950	5.12	1.3324	
2100	2600	2350	22000	46878971	1500	6.82	2398950	5.12	1.3324	
2150	2650	2400	22000	46878971	1500	6.82	2398950	5.12	1.3324	
2200	2700	2450	22000	46878971	1500	6.82	2398950	5.12	1.3324	
2250	2750	2500	22000	46878971	1500	6.82	2398950	5.12	1.3324	
2300	2800	2550	22000	46878971	1500	6.82	2398950	5.12	1.3324	
2350	2850	2600	22000	46878971	1500	6.82	2398950	5.12	1.3324	
2400	2900	2650	22000	46878971	1500	6.82	2398950	5.12	1.3324	
2450	2950	2700	22000	46878971	1485	6.75	2398965	5.12	1.3190	
2500	3000	2750	22000	46878971	1435	6.52	2399015	5.12	1.2746	
2550	3050	2800	22000	46878971	1385	6.30	2399065	5.12	1.2302	
2600	3100	2850	22000	46878971	1334	6.06	2399116	5.12	1.1848	
2650	3150	2900	22000	46878971	1234	5.61	2399216	5.12	1.0960	
2700	3200	2950	22000	46878971	1134	5.15	2399316	5.12	1.0071	
2750	3250	3000	22000	46878971	1034	4.70	2399416	5.12	0.9183	
2800	3300	3050	22000	46878971	934	4.25	2399516	5.12	0.8294	
2850	3350	3100	22000	46878971	834	3.79	2399616	5.12	0.7406	
2900	3400	3150	22000	46878971	734	3.34	2399716	5.12	0.6518	
2950	3450	3200	22000	46878971	649	2.95	2399801	5.12	0.5763	
3000	3500	3250	21904	46879067	599	2.73	2399851	5.12	0.5342	
3050	3550	3300	21804	46879167	549	2.52	2399901	5.12	0.4918	
3100	3600	3350	21704	46879267	500	2.30	2399950	5.12	0.4500	
3150	3650	3400	21604	46879367	500	2.31	2399950	5.12	0.4521	
3200	3700	3450	21504	46879467	500	2.33	2399950	5.12	0.4542	
3250	3750	3500	21596	46879375	500	2.32	2399950	5.12	0.4522	
3300	3800	3550	21696	46879275	500	2.30	2399950	5.12	0.4502	
3350	3850	3600	21796	46879175	500	2.29	2399950	5.12	0.4481	
3400	3900	3650	21896	46879075	500	2.28	2399950	5.12	0.4460	
3450	3950	3700	21996	46878975	500	2.27	2399950	5.12	0.4440	
3500	4000	3750	22000	46878971	500	2.27	2399950	5.12	0.4439	
3550	4050	3800	22000	46878971	500	2.27	2399950	5.12	0.4439	
3600	4100	3850	22000	46878971	500	2.27	2399950	5.12	0.4439	
3650	4150	3900	22000	46878971	500	2.27	2399950	5.12	0.4439	
3700	4200	3950	22000	46878971	500	2.27	2399950	5.12	0.4439	
3750	4250	4000	22000	46878971	500	2.27	2399950	5.12	0.4439	
3800	4300	4050	22000	46878971	500	2.27	2399950	5.12	0.4439	
3850	4350	4100	22000	46878971	500	2.27	2399950	5.12	0.4439	
3900	4400	4150	22000	46878971	500	2.27	2399950	5.12	0.4439	
3950	4450	4200	22000	46878971	500	2.27	2399950	5.12	0.4439	
4000	4500	4250	22000	46878971	500	2.27	2399950	5.12	0.4439	
4050	4550	4300	22000	46878971	500	2.27	2399950	5.12	0.4439	
4100	4600	4350	22000	46878971	500	2.27	2399950	5.12	0.4439	
4150	4650	4400	22000	46878971	500	2.27	2399950	5.12	0.4439	
4200	4700	4450	22000	46878971	500	2.27	2399950	5.12	0.4439	
4250	4750	4500	22000	46878971	500	2.27	2399950	5.12	0.4439	
4300	4800	4550	22000	46878971	500	2.27	2399950	5.12	0.4439	
4350	4850	4600	22000	46878971	500	2.27	2399950	5.12	0.4439	
4400	4900	4650	22000	46878971	500	2.27	2399950	5.12	0.4439	
4450	4950	4700	22000	46878971	500	2.27	2399950	5.12	0.4439	
4500	5000	4750	22000	46878971	500	2.27	2399950	5.12	0.4439	
4550	5050	4800	22000	46878971	500	2.27	2399950	5.12	0.4439	
4600	5100	4850	22000	46878971	500	2.27	2399950	5.12	0.4439	
4650	5150	4900	22000	46878971	500	2.27	2399950	5.12	0.4439	
4700	5200	4950	22000	46878971	500	2.27	2399950	5.12	0.4439	
4750	5250	5000	22000	46878971	500	2.27	2399950	5.12	0.4439	
4800	5300	5050	22000	46878971	500	2.27	2399950	5.12	0.4439	
4850	5350	5100	22000	46878971	500	2.27	2399950	5.12	0.4439	
4900	5400	5150	22000	46878971	500	2.27	2399950	5.12	0.4439	
4950	5450	5200	22000	46878971	500	2.27	2399950	5.12	0.4439	
5000	5500	5250	22000	46878971	500	2.27	2399950	5.12	0.4439	
5050	5550	5300	22000	46878971	500	2.27	2399950	5.12	0.4439	
5100	5600	5350	22000	46878971	500	2.27	2399950	5.12	0.4439	
5150	5650	5400	22000	46878971	500	2.27	2399950	5.12	0.4439	
5200	5700	5450	22000	46878971	500	2.27	2399950	5.12	0.4439	
5250	5750	5500	22000	46878971	500	2.27	2399950	5.12	0.4439	
5300	5800	5550	22000	46878971	500	2.27	2399950	5.12	0.4439	
5350	5850	5600	22000	46878971	500	2.27	2399950	5.12	0.4439	
5400	5900	5650	22000	46878971	500	2.27	2399950	5.12	0.4439	
5450	5950	5700	22000	46878971	500	2.27	2399950	5.12	0.4439	
5500	6000	5750	22000	46878971	500	2.27	2399950	5.12	0.4439	
5550	6050	5800	22000	46878971	500	2.27	2399950	5.12	0.4439	
5600	6100	5850	22000	46878971	500	2.27	2399950	5.12	0.4439	
5650	6150	5900	22000	46878971	500	2.27	2399950	5.12	0.4439	
5700	6200	5950	22000	46878971	500	2.27	2399950	5.12	0.4439	
5750	6250	6000	22000	46878971	500	2.27	2399950	5.12	0.4439	
5800	6300	6050	22000	46878971	500	2.27	2399950	5.12	0.4439	
5850	6350	6100	22000	46878971	500	2.27	2399950	5.12	0.4439	
5900	6400	6150	22000	46878971	500	2.27	2399950	5.12	0.4439	
5950	6450	6200	22000	46878971	500	2.27	2399950	5.12	0.4439	
6000	6500	6250	22000	46878971	500	2.27	2399950	5.12	0.4439	
6050	6550	6300	22000	46878971	500	2.27	2399950	5.12	0.4439	
6100	6600	6350	22000	46878971	500	2.27	2399950	5.12	0.4439	
6150	6650	6400	22000	46878971	500	2.27	2399950	5.12	0.4439	
6200	6700	6450	22000	46878971	500	2.27	2399950	5.12	0.4439	
6250	6750	6500	22000	46878971	500	2.27	2399950	5.12	0.4439	
6300	6800	6550	22000	46878971	500	2.27	2399950	5.12	0.4439	
6350	6850	6600	22000	46878971	500	2.27	2399950	5.12	0.4439	
6400	6900	6650	22000	46878971	500	2.27	2399950	5.12	0.4439	
6450	6950	6700	22000	46878971	500	2.27	2399950	5.12	0.4439	
6500	7000	6750	22000	46878971	500	2.27	2399950	5.12	0.4439	
6550	7050	6800	22000	46878971	500	2.27	2399950	5.12	0.4439	
6600	7100	6850	22000	46878971	500	2.27	2399950	5.12	0.4439	
6650	7150	6900	22000	46878971	500	2.27	2399950	5.12	0.4439	
6700	7200	6950	22000	46878971	500	2.27	2399950	5.12	0.4439	
6750	7250	7000	22000	46878971	500	2.27	2399950	5.12	0.4439	
6800	7300	7050	22000	46878971	500	2.27	2399950	5.12	0.4439	
6850	7350	7100	22000	46878971	500	2.27	2399950	5.12	0.4439	
6900	7400	7150	22000	46878971	500	2.27	2399950	5.12	0.4439	
6950	7450	7200	22000	46878971	500	2.27	2399950	5.12	0.4439	
7000	7500	7250	22000	46878971	451	2.05	2399999	5.12	0.4004	
7050	7550	7300	22000	46878971	413	1.88	2400037	5.12	0.3667	
7100	7600	7350	22000	46878971	413	1.88	2400037	5.12	0.3667	
7150	7650	7400	22000	46878971	413	1.88	2400037	5.12	0.3667	
7200	7700	7450	22000	46878971	413	1.88	2400037	5.12	0.3667	
7250	7750	7500	22000	46878971	413	1.88	2400037	5.12	0.3667	
7300	7800	7550	22000	46878971	413	1.88	2400037	5.12	0.3667	
7350	7850	7600	22000	46878971	413	1.88	2400037	5.12	0.3667	
7400	7900	7650	22000	46878971	413	1.88	2400037	5.12	0.3667	
7450	7950	7700	22000	46878971	413	1.88	2400037	5.12	0.3667	
7500	8000	7750	22000	46878971	462	2.10	2399988	5.12	0.4102	
7550	8050	7800	22000	46878971	500	2.27	2399950	5.12	0.4439	
7600	8100	7850	22000	46878971	500	2.27	2399950	5.12	0.4439	
7650	8150	7900	22000	46878971	500	2.27	2399950	5.12	0.4439	
7700	8200	7950	22000	46878971	500	2.27	2399950	5.12	0.4439	
7750	8250	8000	22000	46878971	500	2.27	2399950	5.12	0.4439	
7800	8300	8050	22000	46878971	500	2.27	2399950	5.12	0.4439	
7850	8350	8100	22000	46878971	548	2.49	2399902	5.12	0.4866	
7900	8400	8150	22000	46878971	598	2.72	2399852	5.12	0.5310	
7950	8450	8200	22000	46878971	648	2.95	2399802	5.12	0.5754	
8000	8500	8250	22000	46878971	698	3.17	2399752	5.12	0.6198	
8050	8550	8300	22000	46878971	748	3.40	2399702	5.12	0.6642	
8100	8600	8350	22000	46878971	786	3.57	2399664	5.12	0.6980	
8150	8650	8400	22000	46878971	786	3.57	2399664	5.12	0.6980	
8200	8700	8450	22000	46878971	835	3.80	2399615	5.12	0.7415	
8250	8750	8500	22000	46878971	885	4.02	2399565	5.12	0.7859	
8300	8800	8550	22000	46878971	935	4.25	2399515	5.12	0.8303	
8350	8850	8600	22000	46878971	986	4.48	2399464	5.12	0.8756	
8400	8900	8650	22000	46878971	1036	4.71	2399414	5.12	0.9200	
8450	8950	8700	22000	46878971	1086	4.94	2399364	5.12	0.9645	
8500	9000	8750	22000	46878971	1136	5.16	2399314	5.12	1.0089	
8550	9050	8800	22000	46878971	1186	5.39	2399264	5.12	1.0533	
8600	9100	8850	22000	46878971	1248	5.67	2399202	5.12	1.1084	
8650	9150	8900	22000	46878971	1348	6.13	2399102	5.12	1.1973	
8700	9200	8950	22000	46878971	1399	6.36	2399051	5.12	1.2426	
8750	9250	9000	22000	46878971	1449	6.59	2399001	5.12	1.2870	
8800	9300	9050	22000	46878971	1450	6.59	2399000	5.12	1.2879	
8850	9350	9100	22000	46878971	1401	6.37	2399049	5.12	1.2444	
8900	9400	9150	22000	46878971	1351	6.14	2399099	5.12	1.1999	
8950	9450	9200	22000	46878971	1301	5.91	2399149	5.12	1.1555	
9000	9500	9250	22000	46878971	1251	5.69	2399199	5.12	1.1111	
9050	9550	9300	22000	46878971	1201	5.46	2399249	5.12	1.0667	
9100	9600	9350	22000	46878971	1151	5.23	2399299	5.12	1.0222	
9150	9650	9400	21975	46878996	1101	5.01	2399349	5.12	0.9789	
9200	9700	9450	21875	46879096	1051	4.80	2399399	5.12	0.9387	
9250	9750	9500	21775	46879196	1001	4.60	2399449	5.12	0.8981	
9300	9800	9550	21675	46879296	1000	4.61	2399450	5.12	0.9014	
9350	9850	9600	21575	46879396	1000	4.63	2399450	5.12	0.9056	
9400	9900	9650	21525	46879446	1000	4.65	2399450	5.12	0.9077	
9450	9950	9700	21625	46879346	1000	4.62	2399450	5.12	0.9035	
9500	10000	9750	21725	46879246	1000	4.60	2399450	5.12	0.8993	
9550	10050	9800	21825	46879146	1000	4.58	2399450	5.12	0.8952	
9600	10100	9850	21925	46879046	1000	4.56	2399450	5.12	0.8911	
9650	10150	9900	22000	46878971	1000	4.55	2399450	5.12	0.8881	
9700	10200	9950	22000	46878971	1000	4.55	2399450	5.12	0.8881	
9750	10250	10000	22000	46878971	1035	4.70	2399415	5.12	0.9192	
9800	10300	10050	22000	46878971	1085	4.93	2399365	5.12	0.9636	
9850	10350	10100	22000	46878971	1086	4.94	2399364	5.12	0.9645	
9900	10400	10150	22000	46878971	1086	4.94	2399364	5.12	0.9645	
9950	10450	10200	22000	46878971	1086	4.94	2399364	5.12	0.9645	
10000	10500	10250	22000	46878971	1086	4.94	2399364	5.12	0.9645	
10050	10550	10300	22000	46878971	1086	4.94	2399364	5.12	0.9645	
10100	10600	10350	22000	46878971	1086	4.94	2399364	5.12	0.9645	
10150	10650	10400	22000	46878971	1086	4.94	2399364	5.12	0.9645	
10200	10700	10450	22000	46878971	1086	4.94	2399364	5.12	0.9645	
10250	10750	10500	22000	46878971	1051	4.78	2399399	5.12	0.9334	
10300	10800	10550	22000	46878971	1001	4.55	2399449	5.12	0.8890	
10350	10850	10600	22000	46878971	965	4.39	2399485	5.12	0.8570	
10400	10900	10650	22000	46878971	915	4.16	2399535	5.12	0.8125	
10450	10950	10700	22000	46878971	865	3.93	2399585	5.12	0.7681	
10500	11000	10750	22000	46878971	815	3.70	2399635	5.12	0.7237	
10550	11050	10800	22000	46878971	765	3.48	2399685	5.12	0.6793	
10600	11100	10850	22000	46878971	715	3.25	2399735	5.12	0.6349	
10650	11150	10900	22000	46878971	665	3.02	2399785	5.12	0.5905	
10700	11200	10950	22000	46878971	615	2.80	2399835	5.12	0.5461	
10750	11250	11000	22000	46878971	565	2.57	2399885	5.12	0.5017	
10800	11300	11050	22000	46878971	515	2.34	2399935	5.12	0.4573	
10850	11350	11100	22000	46878971	500	2.27	2399950	5.12	0.4439	
10900	11400	11150	22000	46878971	500	2.27	2399950	5.12	0.4439	
10950	11450	11200	22000	46878971	500	2.27	2399950	5.12	0.4439	
11000	11500	11250	22000	46878971	500	2.27	2399950	5.12	0.4439	
11050	11550	11300	22000	46878971	500	2.27	2399950	5.12	0.4439	
11100	11600	11350	22000	46878971	500	2.27	2399950	5.12	0.4439	
11150	11650	11400	22000	46878971	500	2.27	2399950	5.12	0.4439	
11200	11700	11450	22000	46878971	500	2.27	2399950	5.12	0.4439	
11250	11750	11500	22000	46878971	500	2.27	2399950	5.12	0.4439	
11300	11800	11550	22000	46878971	500	2.27	2399950	5.12	0.4439	
11350	11850	11600	22000	46878971	500	2.27	2399950	5.12	0.4439	
11400	11900	11650	22000	46878971	500	2.27	2399950	5.12	0.4439	
11450	11950	11700	22000	46878971	500	2.27	2399950	5.12	0.4439	
11500	12000	11750	22000	46878971	500	2.27	2399950	5.12	0.4439	
11550	12050	11800	22000	46878971	500	2.27	2399950	5.12	0.4439	
11600	12100	11850	22000	46878971	500	2.27	2399950	5.12	0.4439	
11650	12150	11900	22000	46878971	508	2.31	2399942	5.12	0.4510	
11700	12200	11950	22000	46878971	558	2.54	2399892	5.12	0.4954	
11750	12250	12000	22000	46878971	608	2.76	2399842	5.12	0.5399	
11800	12300	12050	22000	46878971	658	2.99	2399792	5.12	0.5843	
11850	12350	12100	22000	46878971	708	3.22	2399742	5.12	0.6287	
11900	12400	12150	22000	46878971	758	3.45	2399692	5.12	0.6731	
11950	12450	12200	22000	46878971	808	3.67	2399642	5.12	0.7175	
12000	12500	12250	22000	46878971	858	3.90	2399592	5.12	0.7619	
12050	12550	12300	22000	46878971	908	4.13	2399542	5.12	0.8063	
12100	12600	12350	22000	46878971	958	4.35	2399492	5.12	0.8507	
12150	12650	12400	22000	46878971	1000	4.55	2399450	5.12	0.8881	
12200	12700	12450	22000	46878971	1000	4.55	2399450	5.12	0.8881	
12250	12750	12500	22000	46878971	1000	4.55	2399450	5.12	0.8881	
12300	12800	12550	22000	46878971	1000	4.55	2399450	5.12	0.8881	
12350	12850	12600	22000	46878971	1000	4.55	2399450	5.12	0.8881	
12400	12900	12650	22000	46878971	1000	4.55	2399450	5.12	0.8881	
12450	12950	12700	22000	46878971	1000	4.55	2399450	5.12	0.8881	
12500	13000	12750	22000	46878971	952	4.33	2399498	5.12	0.8454	
12550	13050	12800	22000	46878971	902	4.10	2399548	5.12	0.8010	
12600	13100	12850	22000	46878971	879	4.00	2399571	5.12	0.7806	
12650	13150	12900	22000	46878971	879	4.00	2399571	5.12	0.7806	
12700	13200	12950	22000	46878971	879	4.00	2399571	5.12	0.7806	
12750	13250	13000	22000	46878971	879	4.00	2399571	5.12	0.7806	
12800	13300	13050	22000	46878971	879	4.00	2399571	5.12	0.7806	
12850	13350	13100	22000	46878971	879	4.00	2399571	5.12	0.7806	
12900	13400	13150	22000	46878971	879	4.00	2399571	5.12	0.7806	
12950	13450	13200	22000	46878971	879	4.00	2399571	5.12	0.7806	
13000	13500	13250	22000	46878971	927	4.21	2399523	5.12	0.8232	
13050	13550	13300	22000	46878971	977	4.44	2399473	5.12	0.8676	
13100	13600	13350	22000	46878971	1015	4.61	2399435	5.12	0.9014	
13150	13650	13400	22000	46878971	1065	4.84	2399385	5.12	0.9458	
13200	13700	13450	22000	46878971	1115	5.07	2399335	5.12	0.9902	
13250	13750	13500	22000	46878971	1165	5.30	2399285	5.12	1.0347	
13300	13800	13550	22000	46878971	1215	5.52	2399235	5.12	1.0791	
13350	13850	13600	22000	46878971	1265	5.75	2399185	5.12	1.1235	
13400	13900	13650	22000	46878971	1315	5.98	2399135	5.12	1.1680	
13450	13950	13700	22000	46878971	1365	6.20	2399085	5.12	1.2124	
13500	14000	13750	22000	46878971	1415	6.43	2399035	5.12	1.2568	
13550	14050	13800	22000	46878971	1465	6.66	2398985	5.12	1.3013	
13600	14100	13850	22000	46878971	1500	6.82	2398950	5.12	1.3324	
13650	14150	13900	22000	46878971	1500	6.82	2398950	5.12	1.3324	
13700	14200	13950	22000	46878971	1500	6.82	2398950	5.12	1.3324	
13750	14250	14000	22000	46878971	1500	6.82	2398950	5.12	1.3324	
13800	14300	14050	22000	46878971	1500	6.82	2398950	5.12	1.3324	
13850	14350	14100	22000	46878971	1500	6.82	2398950	5.12	1.3324	
13900	14400	14150	22000	46878971	1500	6.82	2398950	5.12	1.3324	
13950	14450	14200	22000	46878971	1500	6.82	2398950	5.12	1.3324	
14000	14500	14250	22000	46878971	1500	6.82	2398950	5.12	1.3324	
14050	14550	14300	22000	46878971	1500	6.82	2398950	5.12	1.3324	
14100	14600	14350	22000	46878971	1500	6.82	2398950	5.12	1.3324	
14150	14650	14400	22000	46878971	1543	7.01	2398907	5.12	1.3706	
14200	14700	14450	22000	46878971	1642	7.46	2398808	5.12	1.4586	
14250	14750	14500	22000	46878971	1742	7.92	2398708	5.12	1.5475	
14300	14800	14550	22000	46878971	1842	8.37	2398608	5.12	1.6364	
14350	14850	14600	22000	46878971	1942	8.83	2398508	5.12	1.7253	
14400	14900	14650	22000	46878971	2042	9.28	2398408	5.12	1.8142	
14450	14950	14700	22000	46878971	2084	9.47	2398366	5.12	1.8516	
14500	15000	14750	22000	46878971	2084	9.47	2398366	5.12	1.8516	
14550	15050	14800	22000	46878971	2084	9.47	2398366	5.12	1.8516	
14600	15100	14850	22000	46878971	2084	9.47	2398366	5.12	1.8516	
14650	15150	14900	22000	46878971	2041	9.28	2398409	5.12	1.8133	
14700	15200	14950	22000	46878971	1942	8.83	2398508	5.12	1.7253	
14750	15250	15000	22000	46878971	1842	8.37	2398608	5.12	1.6364	
14800	15300	15050	22000	46878971	1742	7.92	2398708	5.12	1.5475	
14850	15350	15100	22000	46878971	1642	7.46	2398808	5.12	1.4586	
14900	15400	15150	22000	46878971	1542	7.01	2398908	5.12	1.3697	
14950	15450	15200	22000	46878971	1500	6.82	2398950	5.12	1.3324	
15000	15500	15250	22000	46878971	1500	6.82	2398950	5.12	1.3324	
15050	15550	15300	22000	46878971	1500	6.82	2398950	5.12	1.3324	
15100	15600	15350	22000	46878971	1500	6.82	2398950	5.12	1.3324	
15150	15650	15400	22000	46878971	1500	6.82	2398950	5.12	1.3324	
15200	15700	15450	22000	46878971	1500	6.82	2398950	5.12	1.3324	
15250	15750	15500	22000	46878971	1500	6.82	2398950	5.12	1.3324	
15300	15800	15550	22000	46878971	1500	6.82	2398950	5.12	1.3324	
15350	15850	15600	22000	46878971	1500	6.82	2398950	5.12	1.3324	
15400	15900	15650	22000	46878971	1500	6.82	2398950	5.12	1.3324	
15450	15950	15700	22000	46878971	1500	6.82	2398950	5.12	1.3324	
15500	16000	15750	22000	46878971	1500	6.82	2398950	5.12	1.3324	
15550	16050	15800	22000	46878971	1500	6.82	2398950	5.12	1.3324	
15600	16100	15850	22000	46878971	1500	6.82	2398950	5.12	1.3324	
15650	16150	15900	22000	46878971	1500	6.82	2398950	5.12	1.3324	
15700	16200	15950	22000	46878971	1500	6.82	2398950	5.12	1.3324	
15750	16250	16000	22000	46878971	1500	6.82	2398950	5.12	1.3324	
15800	16300	16050	22000	46878971	1500	6.82	2398950	5.12	1.3324	
15850	16350	16100	22000	46878971	1500	6.82	2398950	5.12	1.3324	
15900	16400	16150	22000	46878971	1500	6.82	2398950	5.12	1.3324	
15950	16450	16200	22000	46878971	1500	6.82	2398950	5.12	1.3324	
16000	16500	16250	22000	46878971	1500	6.82	2398950	5.12	1.3324	
16050	16550	16300	22000	46878971	1500	6.82	2398950	5.12	1.3324	
16100	16600	16350	22000	46878971	1500	6.82	2398950	5.12	1.3324	
16150	16650	16400	22000	46878971	1500	6.82	2398950	5.12	1.3324	
16200	16700	16450	22000	46878971	1473	6.70	2398977	5.12	1.3084	
16250	16750	16500	22000	46878971	1423	6.47	2399027	5.12	1.2639	
16300	16800	16550	22000	46878971	1365	6.20	2399085	5.12	1.2124	
16350	16850	16600	22000	46878971	1265	5.75	2399185	5.12	1.1235	
16400	16900	16650	22000	46878971	1214	5.52	2399236	5.12	1.0782	
16450	16950	16700	22000	46878971	1164	5.29	2399286	5.12	1.0338	
16500	17000	16750	22000	46878971	1114	5.06	2399336	5.12	0.9893	
16550	17050	16800	22000	46878971	1064	4.84	2399386	5.12	0.9449	
16600	17100	16850	22000	46878971	1014	4.61	2399436	5.12	0.9005	
16650	17150	16900	22000	46878971	964	4.38	2399486	5.12	0.8561	
16700	17200	16950	22000	46878971	941	4.28	2399509	5.12	0.8356	
16750	17250	17000	22000	46878971	941	4.28	2399509	5.12	0.8356	
16800	17300	17050	21940	46879031	949	4.33	2399501	5.12	0.8451	
16850	17350	17100	21840	46879131	999	4.57	2399451	5.12	0.8937	
16900	17400	17150	21740	46879231	1000	4.60	2399450	5.12	0.8987	
16950	17450	17200	21640	46879331	1000	4.62	2399450	5.12	0.9028	
17000	17500	17250	21540	46879431	1000	4.64	2399450	5.12	0.9070	
17050	17550	17300	21560	46879411	1000	4.64	2399450	5.12	0.9062	
17100	17600	17350	21660	46879311	1000	4.62	2399450	5.12	0.9020	
17150	17650	17400	21760	46879211	1000	4.60	2399450	5.12	0.8979	
17200	17700	17450	21860	46879111	1000	4.57	2399450	5.12	0.8938	
17250	17750	17500	21960	46879011	1000	4.55	2399450	5.12	0.8897	
17300	17800	17550	22000	46878971	1000	4.55	2399450	5.12	0.8881	
17350	17850	17600	22000	46878971	1000	4.55	2399450	5.12	0.8881	
17400	17900	17650	22000	46878971	1000	4.55	2399450	5.12	0.8881	
17450	17950	17700	22000	46878971	1000	4.55	2399450	5.12	0.8881	
17500	18000	17750	22000	46878971	1000	4.55	2399450	5.12	0.8881	
17550	18050	17800	22000	46878971	1000	4.55	2399450	5.12	0.8881	
17600	18100	17850	22000	46878971	1000	4.55	2399450	5.12	0.8881	
17650	18150	17900	22000	46878971	1000	4.55	2399450	5.12	0.8881	
17700	18200	17950	22000	46878971	1000	4.55	2399450	5.12	0.8881	
17750	18250	18000	22000	46878971	1000	4.55	2399450	5.12	0.8881	
17800	18300	18050	22000	46878971	1000	4.55	2399450	5.12	0.8881	
17850	18350	18100	22000	46878971	1000	4.55	2399450	5.12	0.8881	
17900	18400	18150	22000	46878971	1000	4.55	2399450	5.12	0.8881	
17950	18450	18200	22000	46878971	951	4.32	2399499	5.12	0.8445	
18000	18500	18250	22000	46878971	901	4.10	2399549	5.12	0.8001	
18050	18550	18300	22000	46878971	851	3.87	2399599	5.12	0.7557	
18100	18600	18350	22000	46878971	801	3.64	2399649	5.12	0.7113	
18150	18650	18400	22000	46878971	751	3.41	2399699	5.12	0.6669	
18200	18700	18450	22000	46878971	652	2.96	2399798	5.12	0.5789	
18250	18750	18500	22000	46878971	552	2.51	2399898	5.12	0.4901	
18300	18800	18550	22000	46878971	452	2.05	2399998	5.12	0.4013	
18350	18850	18600	22000	46878971	352	1.60	2400098	5.12	0.3125	
18400	18900	18650	22000	46878971	252	1.15	2400198	5.12	0.2237	
18450	18950	18700	22000	46878971	201	0.91	2400249	5.12	0.1784	
18500	19000	18750	22000	46878971	151	0.69	2400299	5.12	0.1341	
18550	19050	18800	22000	46878971	101	0.46	2400349	5.12	0.0897	
18600	19100	18850	22000	46878971	51	0.23	2400399	5.12	0.0453	
18650	19150	18900	22000	46878971	1	0.00	2400449	5.12	0.0009	
18700	19200	18950	22000	46878971	0	0.00	2400450	5.12	0.0000	
18750	19250	19000	22000	46878971	0	0.00	2400450	5.12	0.0000	
18800	19300	19050	22000	46878971	0	0.00	2400450	5.12	0.0000	
18850	19350	19100	22000	46878971	0	0.00	2400450	5.12	0.0000	
18900	19400	19150	22000	46878971	0	0.00	2400450	5.12	0.0000	
18950	19450	19200	22000	46878971	0	0.00	2400450	5.12	0.0000	
19000	19500	19250	22000	46878971	0	0.00	2400450	5.12	0.0000	
19050	19550	19300	21955	46879016	15	0.07	2400435	5.12	0.0133	
19100	19600	19350	21855	46879116	65	0.30	2400385	5.12	0.0581	
19150	19650	19400	21755	46879216	115	0.53	2400335	5.12	0.1032	
19200	19700	19450	21655	46879316	165	0.76	2400285	5.12	0.1488	
19250	19750	19500	21555	46879416	215	1.00	2400235	5.12	0.1948	
19300	19800	19550	21545	46879426	265	1.23	2400185	5.12	0.2402	
19350	19850	19600	21645	46879326	315	1.46	2400135	5.12	0.2842	
19400	19900	19650	21745	46879226	365	1.68	2400085	5.12	0.3279	
19450	19950	19700	21845	46879126	415	1.90	2400035	5.12	0.3711	
19500	20000	19750	21945	46879026	465	2.12	2399985	5.12	0.4139	
19550	20050	19800	22000	46878971	500	2.27	2399950	5.12	0.4439	
19600	20100	19850	22000	46878971	500	2.27	2399950	5.12	0.4439	
19650	20150	19900	22000	46878971	500	2.27	2399950	5.12	0.4439	
19700	20200	19950	22000	46878971	500	2.27	2399950	5.12	0.4439	
19750	20250	20000	22000	46878971	500	2.27	2399950	5.12	0.4439	
19800	20300	20050	22000	46878971	500	2.27	2399950	5.12	0.4439	
19850	20350	20100	22000	46878971	568	2.58	2399882	5.12	0.5043	
19900	20400	20150	22000	46878971	668	3.04	2399782	5.12	0.5931	
19950	20450	20200	22000	46878971	768	3.49	2399682	5.12	0.6820	
20000	20500	20250	22000	46878971	868	3.95	2399582	5.12	0.7708	
20050	20550	20300	22000	46878971	968	4.40	2399482	5.12	0.8596	
20100	20600	20350	22000	46878971	1053	4.79	2399397	5.12	0.9352	
20150	20650	20400	22000	46878971	1103	5.01	2399347	5.12	0.9796	
20200	20700	20450	22000	46878971	1153	5.24	2399297	5.12	1.0240	
20250	20750	20500	22000	46878971	1203	5.47	2399247	5.12	1.0684	
20300	20800	20550	22000	46878971	1253	5.70	2399197	5.12	1.1129	
20350	20850	20600	22000	46878971	1235	5.61	2399215	5.12	1.0969	
20400	20900	20650	22000	46878971	1222	5.55	2399228	5.12	1.0853	
20450	20950	20700	22000	46878971	1222	5.55	2399228	5.12	1.0853	
20500	21000	20750	22000	46878971	1222	5.55	2399228	5.12	1.0853	
20550	21050	20800	22000	46878971	1222	5.55	2399228	5.12	1.0853	
20600	21100	20850	22000	46878971	1209	5.50	2399241	5.12	1.0738	
20650	21150	20900	22000	46878971	1209	5.50	2399241	5.12	1.0738	
20700	21200	20950	22000	46878971	1209	5.50	2399241	5.12	1.0738	
20750	21250	21000	22000	46878971	1209	5.50	2399241	5.12	1.0738	
20800	21300	21050	22000	46878971	1209	5.50	2399241	5.12	1.0738	
20850	21350	21100	22000	46878971	1209	5.50	2399241	5.12	1.0738	
20900	21400	21150	22000	46878971	1172	5.33	2399278	5.12	1.0409	
20950	21450	21200	22000	46878971	1122	5.10	2399328	5.12	0.9965	
21000	21500	21250	22000	46878971	1072	4.87	2399378	5.12	0.9520	
21050	21550	21300	21986	46878985	1022	4.65	2399428	5.12	0.9082	
21100	21600	21350	21886	46879085	1000	4.57	2399450	5.12	0.8927	
21150	21650	21400	21786	46879185	1000	4.59	2399450	5.12	0.8968	
21200	21700	21450	21686	46879285	1000	4.61	2399450	5.12	0.9009	
21250	21750	21500	21586	46879385	1000	4.63	2399450	5.12	0.9051	
21300	21800	21550	21514	46879457	1000	4.65	2399450	5.12	0.9081	
21350	21850	21600	21614	46879357	1000	4.63	2399450	5.12	0.9039	
21400	21900	21650	21714	46879257	1000	4.61	2399450	5.12	0.8998	
21450	21950	21700	21814	46879157	1000	4.58	2399450	5.12	0.8956	
21500	22000	21750	21875	46879096	1000	4.57	2399450	5.12	0.8931	
21550	22050	21800	21861	46879110	1000	4.57	2399450	5.12	0.8937	
21600	22100	21850	21761	46879210	963	4.43	2399487	5.12	0.8646	
21650	22150	21900	21661	46879310	913	4.21	2399537	5.12	0.8235	
21700	22200	21950	21561	46879410	863	4.00	2399587	5.12	0.7820	
21750	22250	22000	21539	46879432	813	3.77	2399637	5.12	0.7374	
21800	22300	22050	21639	46879332	763	3.53	2399687	5.12	0.6888	
21850	22350	22100	21739	46879232	713	3.28	2399737	5.12	0.6407	
21900	22400	22150	21839	46879132	663	3.04	2399787	5.12	0.5930	
21950	22450	22200	21939	46879032	573	2.61	2399877	5.12	0.5102	
22000	22500	22250	22000	46878971	473	2.15	2399977	5.12	0.4200	
22050	22550	22300	22000	46878971	373	1.70	2400077	5.12	0.3312	
22100	22600	22350	22000	46878971	310	1.41	2400140	5.12	0.2752	
22150	22650	22400	21924	46879047	260	1.19	2400190	5.12	0.2316	
22200	22700	22450	21824	46879147	210	0.96	2400240	5.12	0.1879	
22250	22750	22500	21724	46879247	167	0.77	2400283	5.12	0.1501	
22300	22800	22550	21624	46879347	167	0.77	2400283	5.12	0.1508	
22350	22850	22600	21524	46879447	167	0.78	2400283	5.12	0.1515	
22400	22900	22650	21576	46879395	167	0.77	2400283	5.12	0.1512	
22450	22950	22700	21676	46879295	207	0.95	2400243	5.12	0.1865	
22500	23000	22750	21776	46879195	257	1.18	2400193	5.12	0.2305	
22550	23050	22800	21876	46879095	307	1.40	2400143	5.12	0.2741	
22600	23100	22850	21976	46878995	357	1.62	2400093	5.12	0.3173	
22650	23150	22900	22000	46878971	407	1.85	2400043	5.12	0.3614	
22700	23200	22950	22000	46878971	457	2.08	2399993	5.12	0.4058	
22750	23250	23000	22000	46878971	500	2.27	2399950	5.12	0.4439	
22800	23300	23050	22000	46878971	500	2.27	2399950	5.12	0.4439	
22850	23350	23100	22000	46878971	500	2.27	2399950	5.12	0.4439	
22900	23400	23150	22000	46878971	500	2.27	2399950	5.12	0.4439	
22950	23450	23200	22000	46878971	500	2.27	2399950	5.12	0.4439	
23000	23500	23250	22000	46878971	493	2.24	2399957	5.12	0.4377	
23050	23550	23300	22000	46878971	443	2.01	2400007	5.12	0.3933	
23100	23600	23350	22000	46878971	393	1.79	2400057	5.12	0.3489	
23150	23650	23400	22000	46878971	343	1.56	2400107	5.12	0.3045	
23200	23700	23450	22000	46878971	312	1.42	2400138	5.12	0.2770	
23250	23750	23500	22000	46878971	312	1.42	2400138	5.12	0.2770	
23300	23800	23550	22000	46878971	312	1.42	2400138	5.12	0.2770	
23350	23850	23600	22000	46878971	312	1.42	2400138	5.12	0.2770	
23400	23900	23650	22000	46878971	312	1.42	2400138	5.12	0.2770	
23450	23950	23700	21901	46879070	312	1.42	2400138	5.12	0.2782	
23500	24000	23750	21801	46879170	319	1.46	2400131	5.12	0.2858	
23550	24050	23800	21701	46879270	369	1.70	2400081	5.12	0.3321	
23600	24100	23850	21601	46879370	419	1.94	2400031	5.12	0.3789	
23650	24150	23900	21501	46879470	469	2.18	2399981	5.12	0.4261	
23700	24200	23950	21599	46879372	531	2.46	2399919	5.12	0.4802	
23750	24250	24000	21699	46879272	581	2.68	2399869	5.12	0.5230	
23800	24300	24050	21799	46879172	631	2.89	2399819	5.12	0.5655	
23850	24350	24100	21899	46879072	681	3.11	2399769	5.12	0.6075	
23900	24400	24150	21999	46878972	731	3.32	2399719	5.12	0.6491	
23950	24450	24200	22000	46878971	781	3.55	2399669	5.12	0.6935	
24000	24500	24250	22000	46878971	831	3.78	2399619	5.12	0.7379	
24050	24550	24300	22000	46878971	881	4.00	2399569	5.12	0.7823	
24100	24600	24350	22000	46878971	931	4.23	2399519	5.12	0.8268	
24150	24650	24400	22000	46878971	981	4.46	2399469	5.12	0.8712	
24200	24700	24450	22000	46878971	1015	4.61	2399435	5.12	0.9014	
24250	24750	24500	22000	46878971	1065	4.84	2399385	5.12	0.9458	
24300	24800	24550	22000	46878971	1115	5.07	2399335	5.12	0.9902	
24350	24850	24600	22000	46878971	1165	5.30	2399285	5.12	1.0347	
24400	24900	24650	22000	46878971	1215	5.52	2399235	5.12	1.0791	
24450	24950	24700	22000	46878971	1234	5.61	2399216	5.12	1.0960	
24500	25000	24750	22000	46878971	1234	5.61	2399216	5.12	1.0960	
