Start	End	Midpoint	Breakpoint_bp	Non_breakpoint_bp	Feature_bp_inside	%Inside	Feature_bp_outside	%Outside	Ratio
-25000	-24500	-24750	21884	46879087	1000	4.57	2399450	5.12	0.8928	
-24950	-24450	-24700	21884	46879087	1000	4.57	2399450	5.12	0.8928	
-24900	-24400	-24650	21884	46879087	962	4.40	2399488	5.12	0.8588	
-24850	-24350	-24600	21884	46879087	912	4.17	2399538	5.12	0.8142	
-24800	-24300	-24550	21884	46879087	862	3.94	2399588	5.12	0.7695	
-24750	-24250	-24500	21884	46879087	812	3.71	2399638	5.12	0.7249	
-24700	-24200	-24450	21884	46879087	762	3.48	2399688	5.12	0.6802	
-24650	-24150	-24400	21884	46879087	712	3.25	2399738	5.12	0.6356	
-24600	-24100	-24350	21884	46879087	662	3.03	2399788	5.12	0.5909	
-24550	-24050	-24300	21884	46879087	612	2.80	2399838	5.12	0.5463	
-24500	-24000	-24250	21884	46879087	562	2.57	2399888	5.12	0.5016	
-24450	-23950	-24200	21884	46879087	512	2.34	2399938	5.12	0.4570	
-24400	-23900	-24150	21884	46879087	500	2.28	2399950	5.12	0.4463	
-24350	-23850	-24100	21884	46879087	500	2.28	2399950	5.12	0.4463	
-24300	-23800	-24050	21884	46879087	500	2.28	2399950	5.12	0.4463	
-24250	-23750	-24000	21884	46879087	505	2.31	2399945	5.12	0.4508	
-24200	-23700	-23950	21884	46879087	572	2.61	2399878	5.12	0.5106	
-24150	-23650	-23900	21884	46879087	672	3.07	2399778	5.12	0.5999	
-24100	-23600	-23850	21884	46879087	805	3.68	2399645	5.12	0.7186	
-24050	-23550	-23800	21884	46879087	955	4.36	2399495	5.12	0.8526	
-24000	-23500	-23750	21884	46879087	1105	5.05	2399345	5.12	0.9866	
-23950	-23450	-23700	21884	46879087	1255	5.73	2399195	5.12	1.1205	
-23900	-23400	-23650	21884	46879087	1405	6.42	2399045	5.12	1.2546	
-23850	-23350	-23600	21884	46879087	1555	7.11	2398895	5.12	1.3886	
-23800	-23300	-23550	21884	46879087	1705	7.79	2398745	5.12	1.5226	
-23750	-23250	-23500	21884	46879087	1812	8.28	2398638	5.12	1.6183	
-23700	-23200	-23450	21884	46879087	1845	8.43	2398605	5.12	1.6477	
-23650	-23150	-23400	21884	46879087	1845	8.43	2398605	5.12	1.6477	
-23600	-23100	-23350	21884	46879087	1812	8.28	2398638	5.12	1.6183	
-23550	-23050	-23300	21884	46879087	1762	8.05	2398688	5.12	1.5736	
-23500	-23000	-23250	21884	46879087	1712	7.82	2398738	5.12	1.5289	
-23450	-22950	-23200	21884	46879087	1692	7.73	2398758	5.12	1.5110	
-23400	-22900	-23150	21884	46879087	1692	7.73	2398758	5.12	1.5110	
-23350	-22850	-23100	21884	46879087	1692	7.73	2398758	5.12	1.5110	
-23300	-22800	-23050	21884	46879087	1692	7.73	2398758	5.12	1.5110	
-23250	-22750	-23000	21884	46879087	1730	7.91	2398720	5.12	1.5450	
-23200	-22700	-22950	21884	46879087	1780	8.13	2398670	5.12	1.5897	
-23150	-22650	-22900	21884	46879087	1830	8.36	2398620	5.12	1.6343	
-23100	-22600	-22850	21884	46879087	1880	8.59	2398570	5.12	1.6790	
-23050	-22550	-22800	21884	46879087	1930	8.82	2398520	5.12	1.7237	
-23000	-22500	-22750	21884	46879087	1980	9.05	2398470	5.12	1.7684	
-22950	-22450	-22700	21884	46879087	2000	9.14	2398450	5.12	1.7863	
-22900	-22400	-22650	21884	46879087	2000	9.14	2398450	5.12	1.7863	
-22850	-22350	-22600	21884	46879087	2000	9.14	2398450	5.12	1.7863	
-22800	-22300	-22550	21884	46879087	2000	9.14	2398450	5.12	1.7863	
-22750	-22250	-22500	21884	46879087	2000	9.14	2398450	5.12	1.7863	
-22700	-22200	-22450	21884	46879087	2000	9.14	2398450	5.12	1.7863	
-22650	-22150	-22400	21884	46879087	2000	9.14	2398450	5.12	1.7863	
-22600	-22100	-22350	21884	46879087	2000	9.14	2398450	5.12	1.7863	
-22550	-22050	-22300	21884	46879087	2000	9.14	2398450	5.12	1.7863	
-22500	-22000	-22250	21884	46879087	2000	9.14	2398450	5.12	1.7863	
-22450	-21950	-22200	21884	46879087	2000	9.14	2398450	5.12	1.7863	
-22400	-21900	-22150	21884	46879087	2000	9.14	2398450	5.12	1.7863	
-22350	-21850	-22100	21884	46879087	2000	9.14	2398450	5.12	1.7863	
-22300	-21800	-22050	21884	46879087	2000	9.14	2398450	5.12	1.7863	
-22250	-21750	-22000	21884	46879087	2000	9.14	2398450	5.12	1.7863	
-22200	-21700	-21950	21884	46879087	2000	9.14	2398450	5.12	1.7863	
-22150	-21650	-21900	21884	46879087	2000	9.14	2398450	5.12	1.7863	
-22100	-21600	-21850	21884	46879087	2000	9.14	2398450	5.12	1.7863	
-22050	-21550	-21800	21884	46879087	2000	9.14	2398450	5.12	1.7863	
-22000	-21500	-21750	21884	46879087	1967	8.99	2398483	5.12	1.7568	
-21950	-21450	-21700	21884	46879087	1917	8.76	2398533	5.12	1.7121	
-21900	-21400	-21650	21884	46879087	1867	8.53	2398583	5.12	1.6674	
-21850	-21350	-21600	21884	46879087	1827	8.35	2398623	5.12	1.6317	
-21800	-21300	-21550	21884	46879087	1827	8.35	2398623	5.12	1.6317	
-21750	-21250	-21500	21884	46879087	1827	8.35	2398623	5.12	1.6317	
-21700	-21200	-21450	21884	46879087	1827	8.35	2398623	5.12	1.6317	
-21650	-21150	-21400	21884	46879087	1827	8.35	2398623	5.12	1.6317	
-21600	-21100	-21350	21884	46879087	1827	8.35	2398623	5.12	1.6317	
-21550	-21050	-21300	21884	46879087	1827	8.35	2398623	5.12	1.6317	
-21500	-21000	-21250	21884	46879087	1860	8.50	2398590	5.12	1.6612	
-21450	-20950	-21200	21884	46879087	1910	8.73	2398540	5.12	1.7058	
-21400	-20900	-21150	21884	46879087	1960	8.96	2398490	5.12	1.7505	
-21350	-20850	-21100	21884	46879087	1953	8.92	2398497	5.12	1.7443	
-21300	-20800	-21050	21884	46879087	1853	8.47	2398597	5.12	1.6549	
-21250	-20750	-21000	21884	46879087	1753	8.01	2398697	5.12	1.5655	
-21200	-20700	-20950	21884	46879087	1653	7.55	2398797	5.12	1.4762	
-21150	-20650	-20900	21884	46879087	1553	7.10	2398897	5.12	1.3868	
-21100	-20600	-20850	21884	46879087	1453	6.64	2398997	5.12	1.2974	
-21050	-20550	-20800	21884	46879087	1353	6.18	2399097	5.12	1.2081	
-21000	-20500	-20750	21884	46879087	1253	5.73	2399197	5.12	1.1188	
-20950	-20450	-20700	21884	46879087	1153	5.27	2399297	5.12	1.0294	
-20900	-20400	-20650	21884	46879087	1053	4.81	2399397	5.12	0.9401	
-20850	-20350	-20600	21884	46879087	1000	4.57	2399450	5.12	0.8928	
-20800	-20300	-20550	21884	46879087	990	4.52	2399460	5.12	0.8838	
-20750	-20250	-20500	21884	46879087	940	4.30	2399510	5.12	0.8392	
-20700	-20200	-20450	21884	46879087	890	4.07	2399560	5.12	0.7945	
-20650	-20150	-20400	21884	46879087	840	3.84	2399610	5.12	0.7499	
-20600	-20100	-20350	21884	46879087	828	3.78	2399622	5.12	0.7392	
-20550	-20050	-20300	21884	46879087	828	3.78	2399622	5.12	0.7392	
-20500	-20000	-20250	21884	46879087	828	3.78	2399622	5.12	0.7392	
-20450	-19950	-20200	21884	46879087	828	3.78	2399622	5.12	0.7392	
-20400	-19900	-20150	21884	46879087	828	3.78	2399622	5.12	0.7392	
-20350	-19850	-20100	21884	46879087	828	3.78	2399622	5.12	0.7392	
-20300	-19800	-20050	21884	46879087	838	3.83	2399612	5.12	0.7481	
-20250	-19750	-20000	21884	46879087	888	4.06	2399562	5.12	0.7927	
-20200	-19700	-19950	21884	46879087	938	4.29	2399512	5.12	0.8374	
-20150	-19650	-19900	21884	46879087	1017	4.65	2399433	5.12	0.9080	
-20100	-19600	-19850	21884	46879087	1079	4.93	2399371	5.12	0.9633	
-20050	-19550	-19800	21884	46879087	1124	5.14	2399326	5.12	1.0035	
-20000	-19500	-19750	21884	46879087	1124	5.14	2399326	5.12	1.0035	
-19950	-19450	-19700	21884	46879087	1124	5.14	2399326	5.12	1.0035	
-19900	-19400	-19650	21884	46879087	1124	5.14	2399326	5.12	1.0035	
-19850	-19350	-19600	21884	46879087	1124	5.14	2399326	5.12	1.0035	
-19800	-19300	-19550	21884	46879087	1124	5.14	2399326	5.12	1.0035	
-19750	-19250	-19500	21884	46879087	1124	5.14	2399326	5.12	1.0035	
-19700	-19200	-19450	21884	46879087	1124	5.14	2399326	5.12	1.0035	
-19650	-19150	-19400	21884	46879087	1095	5.00	2399355	5.12	0.9776	
-19600	-19100	-19350	21884	46879087	1045	4.78	2399405	5.12	0.9330	
-19550	-19050	-19300	21884	46879087	1000	4.57	2399450	5.12	0.8928	
-19500	-19000	-19250	21884	46879087	1000	4.57	2399450	5.12	0.8928	
-19450	-18950	-19200	21884	46879087	1000	4.57	2399450	5.12	0.8928	
-19400	-18900	-19150	21884	46879087	1000	4.57	2399450	5.12	0.8928	
-19350	-18850	-19100	21884	46879087	1004	4.59	2399446	5.12	0.8963	
-19300	-18800	-19050	21884	46879087	1054	4.82	2399396	5.12	0.9410	
-19250	-18750	-19000	21884	46879087	1104	5.04	2399346	5.12	0.9857	
-19200	-18700	-18950	21884	46879087	1154	5.27	2399296	5.12	1.0303	
-19150	-18650	-18900	21884	46879087	1204	5.50	2399246	5.12	1.0750	
-19100	-18600	-18850	21884	46879087	1254	5.73	2399196	5.12	1.1197	
-19050	-18550	-18800	21884	46879087	1304	5.96	2399146	5.12	1.1643	
-19000	-18500	-18750	21884	46879087	1354	6.19	2399096	5.12	1.2090	
-18950	-18450	-18700	21884	46879087	1404	6.42	2399046	5.12	1.2537	
-18900	-18400	-18650	21884	46879087	1454	6.64	2398996	5.12	1.2983	
-18850	-18350	-18600	21884	46879087	1500	6.85	2398950	5.12	1.3394	
-18800	-18300	-18550	21884	46879087	1462	6.68	2398988	5.12	1.3055	
-18750	-18250	-18500	21884	46879087	1412	6.45	2399038	5.12	1.2608	
-18700	-18200	-18450	21884	46879087	1362	6.22	2399088	5.12	1.2161	
-18650	-18150	-18400	21884	46879087	1312	6.00	2399138	5.12	1.1715	
-18600	-18100	-18350	21884	46879087	1262	5.77	2399188	5.12	1.1268	
-18550	-18050	-18300	21884	46879087	1212	5.54	2399238	5.12	1.0821	
-18500	-18000	-18250	21884	46879087	1162	5.31	2399288	5.12	1.0375	
-18450	-17950	-18200	21884	46879087	1112	5.08	2399338	5.12	0.9928	
-18400	-17900	-18150	21884	46879087	1062	4.85	2399388	5.12	0.9481	
-18350	-17850	-18100	21884	46879087	1012	4.62	2399438	5.12	0.9035	
-18300	-17800	-18050	21884	46879087	1000	4.57	2399450	5.12	0.8928	
-18250	-17750	-18000	21884	46879087	1000	4.57	2399450	5.12	0.8928	
-18200	-17700	-17950	21884	46879087	1000	4.57	2399450	5.12	0.8928	
-18150	-17650	-17900	21884	46879087	1000	4.57	2399450	5.12	0.8928	
-18100	-17600	-17850	21884	46879087	1000	4.57	2399450	5.12	0.8928	
-18050	-17550	-17800	21884	46879087	1000	4.57	2399450	5.12	0.8928	
-18000	-17500	-17750	21884	46879087	1000	4.57	2399450	5.12	0.8928	
-17950	-17450	-17700	21884	46879087	1000	4.57	2399450	5.12	0.8928	
-17900	-17400	-17650	21884	46879087	1041	4.76	2399409	5.12	0.9294	
-17850	-17350	-17600	21884	46879087	1091	4.99	2399359	5.12	0.9741	
-17800	-17300	-17550	21884	46879087	1141	5.21	2399309	5.12	1.0187	
-17750	-17250	-17500	21884	46879087	1191	5.44	2399259	5.12	1.0634	
-17700	-17200	-17450	21884	46879087	1241	5.67	2399209	5.12	1.1080	
-17650	-17150	-17400	21884	46879087	1291	5.90	2399159	5.12	1.1527	
-17600	-17100	-17350	21884	46879087	1341	6.13	2399109	5.12	1.1974	
-17550	-17050	-17300	21884	46879087	1391	6.36	2399059	5.12	1.2420	
-17500	-17000	-17250	21884	46879087	1441	6.58	2399009	5.12	1.2867	
-17450	-16950	-17200	21884	46879087	1491	6.81	2398959	5.12	1.3314	
-17400	-16900	-17150	21884	46879087	1500	6.85	2398950	5.12	1.3394	
-17350	-16850	-17100	21884	46879087	1510	6.90	2398940	5.12	1.3484	
-17300	-16800	-17050	21884	46879087	1560	7.13	2398890	5.12	1.3930	
-17250	-16750	-17000	21884	46879087	1610	7.36	2398840	5.12	1.4377	
-17200	-16700	-16950	21884	46879087	1660	7.59	2398790	5.12	1.4824	
-17150	-16650	-16900	21884	46879087	1710	7.81	2398740	5.12	1.5271	
-17100	-16600	-16850	21884	46879087	1760	8.04	2398690	5.12	1.5718	
-17050	-16550	-16800	21884	46879087	1845	8.43	2398605	5.12	1.6477	
-17000	-16500	-16750	21884	46879087	1945	8.89	2398505	5.12	1.7371	
-16950	-16450	-16700	21884	46879087	2045	9.34	2398405	5.12	1.8265	
-16900	-16400	-16650	21884	46879087	2135	9.76	2398315	5.12	1.9070	
-16850	-16350	-16600	21884	46879087	2146	9.81	2398304	5.12	1.9168	
-16800	-16300	-16550	21884	46879087	2096	9.58	2398354	5.12	1.8721	
-16750	-16250	-16500	21884	46879087	2046	9.35	2398404	5.12	1.8274	
-16700	-16200	-16450	21884	46879087	2039	9.32	2398411	5.12	1.8212	
-16650	-16150	-16400	21884	46879087	2039	9.32	2398411	5.12	1.8212	
-16600	-16100	-16350	21884	46879087	2039	9.32	2398411	5.12	1.8212	
-16550	-16050	-16300	21884	46879087	2004	9.16	2398446	5.12	1.7899	
-16500	-16000	-16250	21884	46879087	1960	8.96	2398490	5.12	1.7505	
-16450	-15950	-16200	21884	46879087	1960	8.96	2398490	5.12	1.7505	
-16400	-15900	-16150	21884	46879087	1970	9.00	2398480	5.12	1.7595	
-16350	-15850	-16100	21884	46879087	2049	9.36	2398401	5.12	1.8301	
-16300	-15800	-16050	21884	46879087	2154	9.84	2398296	5.12	1.9240	
-16250	-15750	-16000	21884	46879087	2304	10.53	2398146	5.12	2.0581	
-16200	-15700	-15950	21884	46879087	2436	11.13	2398014	5.12	2.1761	
-16150	-15650	-15900	21884	46879087	2551	11.66	2397899	5.12	2.2789	
-16100	-15600	-15850	21884	46879087	2651	12.11	2397799	5.11	2.3684	
-16050	-15550	-15800	21884	46879087	2751	12.57	2397699	5.11	2.4578	
-16000	-15500	-15750	21884	46879087	2845	13.00	2397605	5.11	2.5419	
-15950	-15450	-15700	21884	46879087	2852	13.03	2397598	5.11	2.5482	
-15900	-15400	-15650	21884	46879087	2852	13.03	2397598	5.11	2.5482	
-15850	-15350	-15600	21884	46879087	2847	13.01	2397603	5.11	2.5437	
-15800	-15300	-15550	21884	46879087	2792	12.76	2397658	5.11	2.4945	
-15750	-15250	-15500	21884	46879087	2692	12.30	2397758	5.11	2.4050	
-15700	-15200	-15450	21884	46879087	2567	11.73	2397883	5.12	2.2932	
-15650	-15150	-15400	21884	46879087	2452	11.20	2397998	5.12	2.1904	
-15600	-15100	-15350	21884	46879087	2352	10.75	2398098	5.12	2.1010	
-15550	-15050	-15300	21884	46879087	2252	10.29	2398198	5.12	2.0116	
-15500	-15000	-15250	21884	46879087	2152	9.83	2398298	5.12	1.9222	
-15450	-14950	-15200	21884	46879087	2089	9.55	2398361	5.12	1.8658	
-15400	-14900	-15150	21884	46879087	1989	9.09	2398461	5.12	1.7765	
-15350	-14850	-15100	21884	46879087	1894	8.65	2398556	5.12	1.6915	
-15300	-14800	-15050	21884	46879087	1844	8.43	2398606	5.12	1.6469	
-15250	-14750	-15000	21884	46879087	1794	8.20	2398656	5.12	1.6022	
-15200	-14700	-14950	21884	46879087	1703	7.78	2398747	5.12	1.5208	
-15150	-14650	-14900	21884	46879087	1578	7.21	2398872	5.12	1.4091	
-15100	-14600	-14850	21884	46879087	1428	6.53	2399022	5.12	1.2751	
-15050	-14550	-14800	21884	46879087	1278	5.84	2399172	5.12	1.1411	
-15000	-14500	-14750	21884	46879087	1124	5.14	2399326	5.12	1.0035	
-14950	-14450	-14700	21884	46879087	930	4.25	2399520	5.12	0.8303	
-14900	-14400	-14650	21884	46879087	780	3.56	2399670	5.12	0.6963	
-14850	-14350	-14600	21884	46879087	630	2.88	2399820	5.12	0.5624	
-14800	-14300	-14550	21884	46879087	504	2.30	2399946	5.12	0.4499	
-14750	-14250	-14500	21884	46879087	404	1.85	2400046	5.12	0.3606	
-14700	-14200	-14450	21884	46879087	345	1.58	2400105	5.12	0.3079	
-14650	-14150	-14400	21884	46879087	320	1.46	2400130	5.12	0.2856	
-14600	-14100	-14350	21884	46879087	320	1.46	2400130	5.12	0.2856	
-14550	-14050	-14300	21884	46879087	320	1.46	2400130	5.12	0.2856	
-14500	-14000	-14250	21884	46879087	351	1.60	2400099	5.12	0.3133	
-14450	-13950	-14200	21884	46879087	451	2.06	2399999	5.12	0.4025	
-14400	-13900	-14150	21884	46879087	551	2.52	2399899	5.12	0.4918	
-14350	-13850	-14100	21884	46879087	651	2.97	2399799	5.12	0.5811	
-14300	-13800	-14050	21884	46879087	727	3.32	2399723	5.12	0.6490	
-14250	-13750	-14000	21884	46879087	777	3.55	2399673	5.12	0.6936	
-14200	-13700	-13950	21884	46879087	808	3.69	2399642	5.12	0.7213	
-14150	-13650	-13900	21884	46879087	858	3.92	2399592	5.12	0.7660	
-14100	-13600	-13850	21884	46879087	908	4.15	2399542	5.12	0.8106	
-14050	-13550	-13800	21884	46879087	958	4.38	2399492	5.12	0.8553	
-14000	-13500	-13750	21884	46879087	981	4.48	2399469	5.12	0.8758	
-13950	-13450	-13700	21884	46879087	981	4.48	2399469	5.12	0.8758	
-13900	-13400	-13650	21884	46879087	981	4.48	2399469	5.12	0.8758	
-13850	-13350	-13600	21884	46879087	981	4.48	2399469	5.12	0.8758	
-13800	-13300	-13550	21884	46879087	981	4.48	2399469	5.12	0.8758	
-13750	-13250	-13500	21884	46879087	981	4.48	2399469	5.12	0.8758	
-13700	-13200	-13450	21884	46879087	1000	4.57	2399450	5.12	0.8928	
-13650	-13150	-13400	21884	46879087	1000	4.57	2399450	5.12	0.8928	
-13600	-13100	-13350	21884	46879087	1000	4.57	2399450	5.12	0.8928	
-13550	-13050	-13300	21884	46879087	1000	4.57	2399450	5.12	0.8928	
-13500	-13000	-13250	21884	46879087	1000	4.57	2399450	5.12	0.8928	
-13450	-12950	-13200	21884	46879087	992	4.53	2399458	5.12	0.8856	
-13400	-12900	-13150	21884	46879087	942	4.30	2399508	5.12	0.8410	
-13350	-12850	-13100	21884	46879087	892	4.08	2399558	5.12	0.7963	
-13300	-12800	-13050	21884	46879087	842	3.85	2399608	5.12	0.7517	
-13250	-12750	-13000	21884	46879087	830	3.79	2399620	5.12	0.7409	
-13200	-12700	-12950	21884	46879087	830	3.79	2399620	5.12	0.7409	
-13150	-12650	-12900	21884	46879087	830	3.79	2399620	5.12	0.7409	
-13100	-12600	-12850	21884	46879087	830	3.79	2399620	5.12	0.7409	
-13050	-12550	-12800	21884	46879087	830	3.79	2399620	5.12	0.7409	
-13000	-12500	-12750	21884	46879087	830	3.79	2399620	5.12	0.7409	
-12950	-12450	-12700	21884	46879087	932	4.26	2399518	5.12	0.8320	
-12900	-12400	-12650	21884	46879087	1082	4.94	2399368	5.12	0.9660	
-12850	-12350	-12600	21884	46879087	1232	5.63	2399218	5.12	1.1000	
-12800	-12300	-12550	21884	46879087	1382	6.32	2399068	5.12	1.2340	
-12750	-12250	-12500	21884	46879087	1494	6.83	2398956	5.12	1.3341	
-12700	-12200	-12450	21884	46879087	1594	7.28	2398856	5.12	1.4234	
-12650	-12150	-12400	21884	46879087	1694	7.74	2398756	5.12	1.5128	
-12600	-12100	-12350	21884	46879087	1794	8.20	2398656	5.12	1.6022	
-12550	-12050	-12300	21884	46879087	1894	8.65	2398556	5.12	1.6915	
-12500	-12000	-12250	21884	46879087	1994	9.11	2398456	5.12	1.7809	
-12450	-11950	-12200	21884	46879087	2004	9.16	2398446	5.12	1.7899	
-12400	-11900	-12150	21884	46879087	2054	9.39	2398396	5.12	1.8346	
-12350	-11850	-12100	21884	46879087	2133	9.75	2398317	5.12	1.9052	
-12300	-11800	-12050	21884	46879087	2233	10.20	2398217	5.12	1.9946	
-12250	-11750	-12000	21884	46879087	2333	10.66	2398117	5.12	2.0840	
-12200	-11700	-11950	21884	46879087	2384	10.89	2398066	5.12	2.1296	
-12150	-11650	-11900	21884	46879087	2434	11.12	2398016	5.12	2.1743	
-12100	-11600	-11850	21884	46879087	2460	11.24	2397990	5.12	2.1976	
-12050	-11550	-11800	21884	46879087	2460	11.24	2397990	5.12	2.1976	
-12000	-11500	-11750	21884	46879087	2460	11.24	2397990	5.12	2.1976	
-11950	-11450	-11700	21884	46879087	2456	11.22	2397994	5.12	2.1940	
-11900	-11400	-11650	21884	46879087	2361	10.79	2398089	5.12	2.1090	
-11850	-11350	-11600	21884	46879087	2232	10.20	2398218	5.12	1.9937	
-11800	-11300	-11550	21884	46879087	2082	9.51	2398368	5.12	1.8596	
-11750	-11250	-11500	21884	46879087	1894	8.65	2398556	5.12	1.6915	
-11700	-11200	-11450	21884	46879087	1743	7.96	2398707	5.12	1.5566	
-11650	-11150	-11400	21884	46879087	1593	7.28	2398857	5.12	1.4225	
-11600	-11100	-11350	21884	46879087	1484	6.78	2398966	5.12	1.3251	
-11550	-11050	-11300	21884	46879087	1434	6.55	2399016	5.12	1.2805	
-11500	-11000	-11250	21884	46879087	1384	6.32	2399066	5.12	1.2358	
-11450	-10950	-11200	21884	46879087	1334	6.10	2399116	5.12	1.1911	
-11400	-10900	-11150	21884	46879087	1329	6.07	2399121	5.12	1.1867	
-11350	-10850	-11100	21884	46879087	1329	6.07	2399121	5.12	1.1867	
-11300	-10800	-11050	21884	46879087	1329	6.07	2399121	5.12	1.1867	
-11250	-10750	-11000	21884	46879087	1367	6.25	2399083	5.12	1.2206	
-11200	-10700	-10950	21884	46879087	1417	6.48	2399033	5.12	1.2653	
-11150	-10650	-10900	21884	46879087	1450	6.63	2399000	5.12	1.2948	
-11100	-10600	-10850	21884	46879087	1433	6.55	2399017	5.12	1.2796	
-11050	-10550	-10800	21884	46879087	1383	6.32	2399067	5.12	1.2349	
-11000	-10500	-10750	21884	46879087	1333	6.09	2399117	5.12	1.1902	
-10950	-10450	-10700	21884	46879087	1283	5.86	2399167	5.12	1.1456	
-10900	-10400	-10650	21884	46879087	1233	5.63	2399217	5.12	1.1009	
-10850	-10350	-10600	21884	46879087	1183	5.41	2399267	5.12	1.0562	
-10800	-10300	-10550	21884	46879087	1133	5.18	2399317	5.12	1.0116	
-10750	-10250	-10500	21884	46879087	1083	4.95	2399367	5.12	0.9669	
-10700	-10200	-10450	21884	46879087	1033	4.72	2399417	5.12	0.9222	
-10650	-10150	-10400	21884	46879087	1000	4.57	2399450	5.12	0.8928	
-10600	-10100	-10350	21884	46879087	1000	4.57	2399450	5.12	0.8928	
-10550	-10050	-10300	21884	46879087	1000	4.57	2399450	5.12	0.8928	
-10500	-10000	-10250	21884	46879087	1000	4.57	2399450	5.12	0.8928	
-10450	-9950	-10200	21884	46879087	1000	4.57	2399450	5.12	0.8928	
-10400	-9900	-10150	21884	46879087	1000	4.57	2399450	5.12	0.8928	
-10350	-9850	-10100	21884	46879087	1000	4.57	2399450	5.12	0.8928	
-10300	-9800	-10050	21884	46879087	1000	4.57	2399450	5.12	0.8928	
-10250	-9750	-10000	21884	46879087	1000	4.57	2399450	5.12	0.8928	
-10200	-9700	-9950	21884	46879087	1000	4.57	2399450	5.12	0.8928	
-10150	-9650	-9900	21884	46879087	1025	4.68	2399425	5.12	0.9151	
-10100	-9600	-9850	21884	46879087	1075	4.91	2399375	5.12	0.9598	
-10050	-9550	-9800	21884	46879087	1125	5.14	2399325	5.12	1.0044	
-10000	-9500	-9750	21884	46879087	1175	5.37	2399275	5.12	1.0491	
-9950	-9450	-9700	21884	46879087	1225	5.60	2399225	5.12	1.0937	
-9900	-9400	-9650	21884	46879087	1275	5.83	2399175	5.12	1.1384	
-9850	-9350	-9600	21884	46879087	1325	6.05	2399125	5.12	1.1831	
-9800	-9300	-9550	21884	46879087	1346	6.15	2399104	5.12	1.2018	
-9750	-9250	-9500	21884	46879087	1342	6.13	2399108	5.12	1.1983	
-9700	-9200	-9450	21884	46879087	1292	5.90	2399158	5.12	1.1536	
-9650	-9150	-9400	21884	46879087	1217	5.56	2399233	5.12	1.0866	
-9600	-9100	-9350	21884	46879087	1117	5.10	2399333	5.12	0.9973	
-9550	-9050	-9300	21884	46879087	1017	4.65	2399433	5.12	0.9080	
-9500	-9000	-9250	21884	46879087	928	4.24	2399522	5.12	0.8285	
-9450	-8950	-9200	21884	46879087	878	4.01	2399572	5.12	0.7838	
-9400	-8900	-9150	21884	46879087	803	3.67	2399647	5.12	0.7168	
-9350	-8850	-9100	21884	46879087	703	3.21	2399747	5.12	0.6275	
-9300	-8800	-9050	21884	46879087	632	2.89	2399818	5.12	0.5641	
-9250	-8750	-9000	21884	46879087	586	2.68	2399864	5.12	0.5231	
-9200	-8700	-8950	21884	46879087	586	2.68	2399864	5.12	0.5231	
-9150	-8650	-8900	21884	46879087	586	2.68	2399864	5.12	0.5231	
-9100	-8600	-8850	21884	46879087	586	2.68	2399864	5.12	0.5231	
-9050	-8550	-8800	21884	46879087	586	2.68	2399864	5.12	0.5231	
-9000	-8500	-8750	21884	46879087	575	2.63	2399875	5.12	0.5133	
-8950	-8450	-8700	21884	46879087	525	2.40	2399925	5.12	0.4686	
-8900	-8400	-8650	21884	46879087	500	2.28	2399950	5.12	0.4463	
-8850	-8350	-8600	21884	46879087	506	2.31	2399944	5.12	0.4516	
-8800	-8300	-8550	21884	46879087	556	2.54	2399894	5.12	0.4963	
-8750	-8250	-8500	21884	46879087	606	2.77	2399844	5.12	0.5409	
-8700	-8200	-8450	21884	46879087	701	3.20	2399749	5.12	0.6258	
-8650	-8150	-8400	21884	46879087	801	3.66	2399649	5.12	0.7151	
-8600	-8100	-8350	21884	46879087	901	4.12	2399549	5.12	0.8044	
-8550	-8050	-8300	21884	46879087	1001	4.57	2399449	5.12	0.8937	
-8500	-8000	-8250	21884	46879087	1101	5.03	2399349	5.12	0.9830	
-8450	-7950	-8200	21884	46879087	1201	5.49	2399249	5.12	1.0723	
-8400	-7900	-8150	21884	46879087	1301	5.94	2399149	5.12	1.1616	
-8350	-7850	-8100	21884	46879087	1395	6.37	2399055	5.12	1.2456	
-8300	-7800	-8050	21884	46879087	1445	6.60	2399005	5.12	1.2903	
-8250	-7750	-8000	21884	46879087	1495	6.83	2398955	5.12	1.3350	
-8200	-7700	-7950	21884	46879087	1500	6.85	2398950	5.12	1.3394	
-8150	-7650	-7900	21884	46879087	1500	6.85	2398950	5.12	1.3394	
-8100	-7600	-7850	21884	46879087	1500	6.85	2398950	5.12	1.3394	
-8050	-7550	-7800	21884	46879087	1500	6.85	2398950	5.12	1.3394	
-8000	-7500	-7750	21884	46879087	1500	6.85	2398950	5.12	1.3394	
-7950	-7450	-7700	21884	46879087	1455	6.65	2398995	5.12	1.2992	
-7900	-7400	-7650	21884	46879087	1405	6.42	2399045	5.12	1.2546	
-7850	-7350	-7600	21884	46879087	1355	6.19	2399095	5.12	1.2099	
-7800	-7300	-7550	21884	46879087	1305	5.96	2399145	5.12	1.1652	
-7750	-7250	-7500	21884	46879087	1255	5.73	2399195	5.12	1.1205	
-7700	-7200	-7450	21884	46879087	1205	5.51	2399245	5.12	1.0759	
-7650	-7150	-7400	21884	46879087	1155	5.28	2399295	5.12	1.0312	
-7600	-7100	-7350	21884	46879087	1105	5.05	2399345	5.12	0.9866	
-7550	-7050	-7300	21884	46879087	1055	4.82	2399395	5.12	0.9419	
-7500	-7000	-7250	21884	46879087	1005	4.59	2399445	5.12	0.8972	
-7450	-6950	-7200	21884	46879087	1000	4.57	2399450	5.12	0.8928	
-7400	-6900	-7150	21884	46879087	989	4.52	2399461	5.12	0.8829	
-7350	-6850	-7100	21884	46879087	939	4.29	2399511	5.12	0.8383	
-7300	-6800	-7050	21884	46879087	889	4.06	2399561	5.12	0.7936	
-7250	-6750	-7000	21884	46879087	839	3.83	2399611	5.12	0.7490	
-7200	-6700	-6950	21884	46879087	789	3.61	2399661	5.12	0.7043	
-7150	-6650	-6900	21884	46879087	739	3.38	2399711	5.12	0.6597	
-7100	-6600	-6850	21884	46879087	689	3.15	2399761	5.12	0.6150	
-7050	-6550	-6800	21884	46879087	639	2.92	2399811	5.12	0.5704	
-7000	-6500	-6750	21884	46879087	589	2.69	2399861	5.12	0.5258	
-6950	-6450	-6700	21884	46879087	539	2.46	2399911	5.12	0.4811	
-6900	-6400	-6650	21884	46879087	494	2.26	2399956	5.12	0.4409	
-6850	-6350	-6600	21884	46879087	471	2.15	2399979	5.12	0.4204	
-6800	-6300	-6550	21884	46879087	471	2.15	2399979	5.12	0.4204	
-6750	-6250	-6500	21884	46879087	471	2.15	2399979	5.12	0.4204	
-6700	-6200	-6450	21884	46879087	471	2.15	2399979	5.12	0.4204	
-6650	-6150	-6400	21884	46879087	471	2.15	2399979	5.12	0.4204	
-6600	-6100	-6350	21884	46879087	471	2.15	2399979	5.12	0.4204	
-6550	-6050	-6300	21884	46879087	471	2.15	2399979	5.12	0.4204	
-6500	-6000	-6250	21884	46879087	471	2.15	2399979	5.12	0.4204	
-6450	-5950	-6200	21884	46879087	471	2.15	2399979	5.12	0.4204	
-6400	-5900	-6150	21884	46879087	477	2.18	2399973	5.12	0.4258	
-6350	-5850	-6100	21884	46879087	513	2.34	2399937	5.12	0.4579	
-6300	-5800	-6050	21884	46879087	563	2.57	2399887	5.12	0.5025	
-6250	-5750	-6000	21884	46879087	613	2.80	2399837	5.12	0.5472	
-6200	-5700	-5950	21884	46879087	680	3.11	2399770	5.12	0.6070	
-6150	-5650	-5900	21884	46879087	780	3.56	2399670	5.12	0.6963	
-6100	-5600	-5850	21884	46879087	880	4.02	2399570	5.12	0.7856	
-6050	-5550	-5800	21884	46879087	980	4.48	2399470	5.12	0.8749	
-6000	-5500	-5750	21884	46879087	1080	4.94	2399370	5.12	0.9642	
-5950	-5450	-5700	21884	46879087	1180	5.39	2399270	5.12	1.0536	
-5900	-5400	-5650	21884	46879087	1280	5.85	2399170	5.12	1.1429	
-5850	-5350	-5600	21884	46879087	1367	6.25	2399083	5.12	1.2206	
-5800	-5300	-5550	21884	46879087	1390	6.35	2399060	5.12	1.2412	
-5750	-5250	-5500	21884	46879087	1377	6.29	2399073	5.12	1.2295	
-5700	-5200	-5450	21884	46879087	1310	5.99	2399140	5.12	1.1697	
-5650	-5150	-5400	21884	46879087	1210	5.53	2399240	5.12	1.0803	
-5600	-5100	-5350	21884	46879087	1110	5.07	2399340	5.12	0.9910	
-5550	-5050	-5300	21884	46879087	1010	4.62	2399440	5.12	0.9017	
-5500	-5000	-5250	21871	46879100	910	4.16	2399540	5.12	0.8129	
-5450	-4950	-5200	21771	46879200	810	3.72	2399640	5.12	0.7268	
-5400	-4900	-5150	21671	46879300	710	3.28	2399740	5.12	0.6400	
-5350	-4850	-5100	21571	46879400	610	2.83	2399840	5.12	0.5524	
-5300	-4800	-5050	21471	46879500	537	2.50	2399913	5.12	0.4886	
-5250	-4750	-5000	21397	46879574	500	2.34	2399950	5.12	0.4565	
-5200	-4700	-4950	21497	46879474	500	2.33	2399950	5.12	0.4543	
-5150	-4650	-4900	21597	46879374	500	2.32	2399950	5.12	0.4522	
-5100	-4600	-4850	21697	46879274	500	2.30	2399950	5.12	0.4501	
-5050	-4550	-4800	21797	46879174	500	2.29	2399950	5.12	0.4481	
-5000	-4500	-4750	21884	46879087	500	2.28	2399950	5.12	0.4463	
-4950	-4450	-4700	21884	46879087	500	2.28	2399950	5.12	0.4463	
-4900	-4400	-4650	21884	46879087	500	2.28	2399950	5.12	0.4463	
-4850	-4350	-4600	21884	46879087	500	2.28	2399950	5.12	0.4463	
-4800	-4300	-4550	21884	46879087	506	2.31	2399944	5.12	0.4516	
-4750	-4250	-4500	21884	46879087	556	2.54	2399894	5.12	0.4963	
-4700	-4200	-4450	21884	46879087	606	2.77	2399844	5.12	0.5409	
-4650	-4150	-4400	21884	46879087	656	3.00	2399794	5.12	0.5856	
-4600	-4100	-4350	21884	46879087	706	3.23	2399744	5.12	0.6302	
-4550	-4050	-4300	21884	46879087	756	3.45	2399694	5.12	0.6749	
-4500	-4000	-4250	21884	46879087	806	3.68	2399644	5.12	0.7195	
-4450	-3950	-4200	21884	46879087	856	3.91	2399594	5.12	0.7642	
-4400	-3900	-4150	21884	46879087	906	4.14	2399544	5.12	0.8088	
-4350	-3850	-4100	21884	46879087	956	4.37	2399494	5.12	0.8535	
-4300	-3800	-4050	21884	46879087	1000	4.57	2399450	5.12	0.8928	
-4250	-3750	-4000	21884	46879087	1000	4.57	2399450	5.12	0.8928	
-4200	-3700	-3950	21884	46879087	1000	4.57	2399450	5.12	0.8928	
-4150	-3650	-3900	21884	46879087	1000	4.57	2399450	5.12	0.8928	
-4100	-3600	-3850	21884	46879087	1029	4.70	2399421	5.12	0.9187	
-4050	-3550	-3800	21884	46879087	1079	4.93	2399371	5.12	0.9633	
-4000	-3500	-3750	21884	46879087	1129	5.16	2399321	5.12	1.0080	
-3950	-3450	-3700	21884	46879087	1179	5.39	2399271	5.12	1.0527	
-3900	-3400	-3650	21884	46879087	1229	5.62	2399221	5.12	1.0973	
-3850	-3350	-3600	21884	46879087	1279	5.84	2399171	5.12	1.1420	
-3800	-3300	-3550	21884	46879087	1329	6.07	2399121	5.12	1.1867	
-3750	-3250	-3500	21884	46879087	1379	6.30	2399071	5.12	1.2313	
-3700	-3200	-3450	21884	46879087	1429	6.53	2399021	5.12	1.2760	
-3650	-3150	-3400	21884	46879087	1479	6.76	2398971	5.12	1.3207	
-3600	-3100	-3350	21884	46879087	1494	6.83	2398956	5.12	1.3341	
-3550	-3050	-3300	21884	46879087	1444	6.60	2399006	5.12	1.2894	
-3500	-3000	-3250	21884	46879087	1394	6.37	2399056	5.12	1.2447	
-3450	-2950	-3200	21884	46879087	1344	6.14	2399106	5.12	1.2001	
-3400	-2900	-3150	21884	46879087	1294	5.91	2399156	5.12	1.1554	
-3350	-2850	-3100	21884	46879087	1244	5.68	2399206	5.12	1.1107	
-3300	-2800	-3050	21884	46879087	1194	5.46	2399256	5.12	1.0661	
-3250	-2750	-3000	21884	46879087	1144	5.23	2399306	5.12	1.0214	
-3200	-2700	-2950	21884	46879087	1094	5.00	2399356	5.12	0.9767	
-3150	-2650	-2900	21884	46879087	1044	4.77	2399406	5.12	0.9321	
-3100	-2600	-2850	21884	46879087	1000	4.57	2399450	5.12	0.8928	
-3050	-2550	-2800	21884	46879087	1000	4.57	2399450	5.12	0.8928	
-3000	-2500	-2750	21884	46879087	1018	4.65	2399432	5.12	0.9088	
-2950	-2450	-2700	21884	46879087	1068	4.88	2399382	5.12	0.9535	
-2900	-2400	-2650	21884	46879087	1118	5.11	2399332	5.12	0.9982	
-2850	-2350	-2600	21884	46879087	1168	5.34	2399282	5.12	1.0428	
-2800	-2300	-2550	21884	46879087	1218	5.57	2399232	5.12	1.0875	
-2750	-2250	-2500	21884	46879087	1268	5.79	2399182	5.12	1.1322	
-2700	-2200	-2450	21817	46879154	1318	6.04	2399132	5.12	1.1804	
-2650	-2150	-2400	21617	46879354	1368	6.33	2399082	5.12	1.2366	
-2600	-2100	-2350	21417	46879554	1418	6.62	2399032	5.12	1.2938	
-2550	-2050	-2300	21217	46879754	1468	6.92	2398982	5.12	1.3521	
-2500	-2000	-2250	21017	46879954	1500	7.14	2398950	5.12	1.3947	
-2450	-1950	-2200	20951	46880020	1500	7.16	2398950	5.12	1.3991	
-2400	-1900	-2150	21151	46879820	1500	7.09	2398950	5.12	1.3859	
-2350	-1850	-2100	21351	46879620	1500	7.03	2398950	5.12	1.3729	
-2300	-1800	-2050	21511	46879460	1500	6.97	2398950	5.12	1.3627	
-2250	-1750	-2000	21611	46879360	1482	6.86	2398968	5.12	1.3401	
-2200	-1700	-1950	21644	46879327	1432	6.62	2399018	5.12	1.2929	
-2150	-1650	-1900	21544	46879427	1382	6.41	2399068	5.12	1.2535	
-2100	-1600	-1850	21444	46879527	1332	6.21	2399118	5.12	1.2138	
-2050	-1550	-1800	21384	46879587	1282	6.00	2399168	5.12	1.1714	
-2000	-1500	-1750	21384	46879587	1232	5.76	2399218	5.12	1.1257	
-1950	-1450	-1700	21384	46879587	1182	5.53	2399268	5.12	1.0800	
-1900	-1400	-1650	21384	46879587	1132	5.29	2399318	5.12	1.0343	
-1850	-1350	-1600	21440	46879531	1082	5.05	2399368	5.12	0.9860	
-1800	-1300	-1550	21540	46879431	1032	4.79	2399418	5.12	0.9361	
-1750	-1250	-1500	21640	46879331	1000	4.62	2399450	5.12	0.9028	
-1700	-1200	-1450	21740	46879231	1000	4.60	2399450	5.12	0.8987	
-1650	-1150	-1400	21761	46879210	1000	4.60	2399450	5.12	0.8978	
-1600	-1100	-1350	21705	46879266	1000	4.61	2399450	5.12	0.9001	
-1550	-1050	-1300	21536	46879435	1000	4.64	2399450	5.12	0.9072	
-1500	-1000	-1250	21336	46879635	1000	4.69	2399450	5.12	0.9157	
-1450	-950	-1200	21136	46879835	1000	4.73	2399450	5.12	0.9244	
-1400	-900	-1150	21094	46879877	1000	4.74	2399450	5.12	0.9262	
-1350	-850	-1100	21094	46879877	1000	4.74	2399450	5.12	0.9262	
-1300	-800	-1050	21232	46879739	1000	4.71	2399450	5.12	0.9202	
-1250	-750	-1000	21432	46879539	1049	4.89	2399401	5.12	0.9563	
-1200	-700	-950	21632	46879339	1099	5.08	2399351	5.12	0.9926	
-1150	-650	-900	21753	46879218	1149	5.28	2399301	5.12	1.0320	
-1100	-600	-850	21853	46879118	1199	5.49	2399251	5.12	1.0720	
-1050	-550	-800	21884	46879087	1249	5.71	2399201	5.12	1.1152	
-1000	-500	-750	21866	46879105	1304	5.96	2399146	5.12	1.1653	
-950	-450	-700	21766	46879205	1355	6.23	2399095	5.12	1.2164	
-900	-400	-650	21666	46879305	1405	6.48	2399045	5.12	1.2672	
-850	-350	-600	21566	46879405	1455	6.75	2398995	5.12	1.3184	
-800	-300	-550	21466	46879505	1505	7.01	2398945	5.12	1.3701	
-750	-250	-500	21402	46879569	1506	7.04	2398944	5.12	1.3751	
-700	-200	-450	21502	46879469	1506	7.00	2398944	5.12	1.3687	
-650	-150	-400	21602	46879369	1477	6.84	2398973	5.12	1.3361	
-600	-100	-350	21702	46879269	1431	6.59	2399019	5.12	1.2885	
-550	-50	-300	21802	46879169	1431	6.56	2399019	5.12	1.2826	
-500	0	-250	22884	46878587	1426	6.23	2399024	5.12	1.2177	
-450	50	-200	21884	46879087	1431	6.54	2399019	5.12	1.2778	
-400	100	-150	21884	46879087	1481	6.77	2398969	5.12	1.3225	
-350	150	-100	21884	46879087	1531	7.00	2398919	5.12	1.3671	
-300	200	-50	21884	46879087	1581	7.22	2398869	5.12	1.4118	
-250	250	0	21884	46879087	1631	7.45	2398819	5.12	1.4565	
-200	300	50	21884	46879087	1681	7.68	2398769	5.12	1.5012	
-150	350	100	21884	46879087	1760	8.04	2398690	5.12	1.5718	
-100	400	150	21884	46879087	1856	8.48	2398594	5.12	1.6576	
-50	450	200	21884	46879087	1906	8.71	2398544	5.12	1.7023	
0	500	250	22884	46878087	2456	10.73	2397994	5.12	2.0981	
50	550	300	21884	46879087	2000	9.14	2398450	5.12	1.7863	
100	600	350	21884	46879087	2000	9.14	2398450	5.12	1.7863	
150	650	400	21884	46879087	2000	9.14	2398450	5.12	1.7863	
200	700	450	21884	46879087	1995	9.12	2398455	5.12	1.7818	
250	750	500	21884	46879087	1945	8.89	2398505	5.12	1.7371	
300	800	550	21884	46879087	1895	8.66	2398555	5.12	1.6924	
350	850	600	21884	46879087	1845	8.43	2398605	5.12	1.6477	
400	900	650	21884	46879087	1795	8.20	2398655	5.12	1.6031	
450	950	700	21884	46879087	1745	7.97	2398705	5.12	1.5584	
500	1000	750	21884	46879087	1695	7.75	2398755	5.12	1.5137	
550	1050	800	21884	46879087	1645	7.52	2398805	5.12	1.4690	
600	1100	850	21884	46879087	1595	7.29	2398855	5.12	1.4243	
650	1150	900	21884	46879087	1545	7.06	2398905	5.12	1.3796	
700	1200	950	21884	46879087	1500	6.85	2398950	5.12	1.3394	
750	1250	1000	21884	46879087	1500	6.85	2398950	5.12	1.3394	
800	1300	1050	21884	46879087	1500	6.85	2398950	5.12	1.3394	
850	1350	1100	21884	46879087	1500	6.85	2398950	5.12	1.3394	
900	1400	1150	21884	46879087	1500	6.85	2398950	5.12	1.3394	
950	1450	1200	21884	46879087	1500	6.85	2398950	5.12	1.3394	
1000	1500	1250	21884	46879087	1500	6.85	2398950	5.12	1.3394	
1050	1550	1300	21884	46879087	1500	6.85	2398950	5.12	1.3394	
1100	1600	1350	21884	46879087	1500	6.85	2398950	5.12	1.3394	
1150	1650	1400	21884	46879087	1500	6.85	2398950	5.12	1.3394	
1200	1700	1450	21884	46879087	1494	6.83	2398956	5.12	1.3341	
1250	1750	1500	21884	46879087	1444	6.60	2399006	5.12	1.2894	
1300	1800	1550	21884	46879087	1394	6.37	2399056	5.12	1.2447	
1350	1850	1600	21884	46879087	1344	6.14	2399106	5.12	1.2001	
1400	1900	1650	21884	46879087	1294	5.91	2399156	5.12	1.1554	
1450	1950	1700	21884	46879087	1244	5.68	2399206	5.12	1.1107	
1500	2000	1750	21884	46879087	1194	5.46	2399256	5.12	1.0661	
1550	2050	1800	21884	46879087	1144	5.23	2399306	5.12	1.0214	
1600	2100	1850	21884	46879087	1094	5.00	2399356	5.12	0.9767	
1650	2150	1900	21884	46879087	1044	4.77	2399406	5.12	0.9321	
1700	2200	1950	21884	46879087	1000	4.57	2399450	5.12	0.8928	
1750	2250	2000	21884	46879087	1000	4.57	2399450	5.12	0.8928	
1800	2300	2050	21884	46879087	1000	4.57	2399450	5.12	0.8928	
1850	2350	2100	21884	46879087	1000	4.57	2399450	5.12	0.8928	
1900	2400	2150	21884	46879087	1000	4.57	2399450	5.12	0.8928	
1950	2450	2200	21884	46879087	1000	4.57	2399450	5.12	0.8928	
2000	2500	2250	21884	46879087	1000	4.57	2399450	5.12	0.8928	
2050	2550	2300	21884	46879087	1000	4.57	2399450	5.12	0.8928	
2100	2600	2350	21884	46879087	1000	4.57	2399450	5.12	0.8928	
2150	2650	2400	21884	46879087	1000	4.57	2399450	5.12	0.8928	
2200	2700	2450	21884	46879087	1000	4.57	2399450	5.12	0.8928	
2250	2750	2500	21884	46879087	1000	4.57	2399450	5.12	0.8928	
2300	2800	2550	21884	46879087	1000	4.57	2399450	5.12	0.8928	
2350	2850	2600	21884	46879087	1000	4.57	2399450	5.12	0.8928	
2400	2900	2650	21884	46879087	1000	4.57	2399450	5.12	0.8928	
2450	2950	2700	21884	46879087	1000	4.57	2399450	5.12	0.8928	
2500	3000	2750	21884	46879087	1000	4.57	2399450	5.12	0.8928	
2550	3050	2800	21884	46879087	1002	4.58	2399448	5.12	0.8946	
2600	3100	2850	21884	46879087	1002	4.58	2399448	5.12	0.8946	
2650	3150	2900	21884	46879087	1002	4.58	2399448	5.12	0.8946	
2700	3200	2950	21884	46879087	1002	4.58	2399448	5.12	0.8946	
2750	3250	3000	21884	46879087	1002	4.58	2399448	5.12	0.8946	
2800	3300	3050	21884	46879087	1002	4.58	2399448	5.12	0.8946	
2850	3350	3100	21884	46879087	1002	4.58	2399448	5.12	0.8946	
2900	3400	3150	21884	46879087	1002	4.58	2399448	5.12	0.8946	
2950	3450	3200	21884	46879087	1002	4.58	2399448	5.12	0.8946	
3000	3500	3250	21884	46879087	1002	4.58	2399448	5.12	0.8946	
3050	3550	3300	21884	46879087	1000	4.57	2399450	5.12	0.8928	
3100	3600	3350	21884	46879087	1000	4.57	2399450	5.12	0.8928	
3150	3650	3400	21884	46879087	1000	4.57	2399450	5.12	0.8928	
3200	3700	3450	21884	46879087	1000	4.57	2399450	5.12	0.8928	
3250	3750	3500	21884	46879087	1000	4.57	2399450	5.12	0.8928	
3300	3800	3550	21884	46879087	1000	4.57	2399450	5.12	0.8928	
3350	3850	3600	21884	46879087	1000	4.57	2399450	5.12	0.8928	
3400	3900	3650	21884	46879087	1000	4.57	2399450	5.12	0.8928	
3450	3950	3700	21884	46879087	1004	4.59	2399446	5.12	0.8963	
3500	4000	3750	21884	46879087	1054	4.82	2399396	5.12	0.9410	
3550	4050	3800	21884	46879087	1149	5.25	2399301	5.12	1.0259	
3600	4100	3850	21884	46879087	1249	5.71	2399201	5.12	1.1152	
3650	4150	3900	21884	46879087	1349	6.16	2399101	5.12	1.2045	
3700	4200	3950	21884	46879087	1449	6.62	2399001	5.12	1.2939	
3750	4250	4000	21884	46879087	1549	7.08	2398901	5.12	1.3832	
3800	4300	4050	21884	46879087	1649	7.54	2398801	5.12	1.4726	
3850	4350	4100	21884	46879087	1749	7.99	2398701	5.12	1.5619	
3900	4400	4150	21884	46879087	1849	8.45	2398601	5.12	1.6513	
3950	4450	4200	21884	46879087	1945	8.89	2398505	5.12	1.7371	
4000	4500	4250	21884	46879087	1995	9.12	2398455	5.12	1.7818	
4050	4550	4300	21884	46879087	1994	9.11	2398456	5.12	1.7809	
4100	4600	4350	21884	46879087	1944	8.88	2398506	5.12	1.7362	
4150	4650	4400	21884	46879087	1894	8.65	2398556	5.12	1.6915	
4200	4700	4450	21884	46879087	1844	8.43	2398606	5.12	1.6469	
4250	4750	4500	21884	46879087	1802	8.23	2398648	5.12	1.6093	
4300	4800	4550	21884	46879087	1802	8.23	2398648	5.12	1.6093	
4350	4850	4600	21884	46879087	1846	8.44	2398604	5.12	1.6486	
4400	4900	4650	21884	46879087	1896	8.66	2398554	5.12	1.6933	
4450	4950	4700	21884	46879087	1946	8.89	2398504	5.12	1.7380	
4500	5000	4750	21884	46879087	1996	9.12	2398454	5.12	1.7827	
4550	5050	4800	21884	46879087	2052	9.38	2398398	5.12	1.8328	
4600	5100	4850	21884	46879087	2152	9.83	2398298	5.12	1.9222	
4650	5150	4900	21884	46879087	2252	10.29	2398198	5.12	2.0116	
4700	5200	4950	21884	46879087	2352	10.75	2398098	5.12	2.1010	
4750	5250	5000	21884	46879087	2444	11.17	2398006	5.12	2.1832	
4800	5300	5050	21884	46879087	2494	11.40	2397956	5.12	2.2280	
4850	5350	5100	21884	46879087	2500	11.42	2397950	5.12	2.2333	
4900	5400	5150	21884	46879087	2500	11.42	2397950	5.12	2.2333	
4950	5450	5200	21884	46879087	2500	11.42	2397950	5.12	2.2333	
5000	5500	5250	21884	46879087	2500	11.42	2397950	5.12	2.2333	
5050	5550	5300	21884	46879087	2500	11.42	2397950	5.12	2.2333	
5100	5600	5350	21884	46879087	2500	11.42	2397950	5.12	2.2333	
5150	5650	5400	21884	46879087	2500	11.42	2397950	5.12	2.2333	
5200	5700	5450	21884	46879087	2500	11.42	2397950	5.12	2.2333	
5250	5750	5500	21884	46879087	2500	11.42	2397950	5.12	2.2333	
5300	5800	5550	21884	46879087	2500	11.42	2397950	5.12	2.2333	
5350	5850	5600	21884	46879087	2500	11.42	2397950	5.12	2.2333	
5400	5900	5650	21884	46879087	2500	11.42	2397950	5.12	2.2333	
5450	5950	5700	21884	46879087	2500	11.42	2397950	5.12	2.2333	
5500	6000	5750	21884	46879087	2500	11.42	2397950	5.12	2.2333	
5550	6050	5800	21884	46879087	2500	11.42	2397950	5.12	2.2333	
5600	6100	5850	21884	46879087	2500	11.42	2397950	5.12	2.2333	
5650	6150	5900	21884	46879087	2500	11.42	2397950	5.12	2.2333	
5700	6200	5950	21884	46879087	2500	11.42	2397950	5.12	2.2333	
5750	6250	6000	21884	46879087	2500	11.42	2397950	5.12	2.2333	
5800	6300	6050	21884	46879087	2500	11.42	2397950	5.12	2.2333	
5850	6350	6100	21884	46879087	2506	11.45	2397944	5.12	2.2387	
5900	6400	6150	21884	46879087	2556	11.68	2397894	5.12	2.2834	
5950	6450	6200	21884	46879087	2606	11.91	2397844	5.11	2.3281	
6000	6500	6250	21884	46879087	2677	12.23	2397773	5.11	2.3916	
6050	6550	6300	21884	46879087	2727	12.46	2397723	5.11	2.4363	
6100	6600	6350	21884	46879087	2777	12.69	2397673	5.11	2.4811	
6150	6650	6400	21884	46879087	2827	12.92	2397623	5.11	2.5258	
6200	6700	6450	21884	46879087	2877	13.15	2397573	5.11	2.5705	
6250	6750	6500	21884	46879087	2927	13.38	2397523	5.11	2.6152	
6300	6800	6550	21884	46879087	2977	13.60	2397473	5.11	2.6600	
6350	6850	6600	21884	46879087	3013	13.77	2397437	5.11	2.6922	
6400	6900	6650	21884	46879087	2918	13.33	2397532	5.11	2.6072	
6450	6950	6700	21884	46879087	2818	12.88	2397632	5.11	2.5177	
6500	7000	6750	21884	46879087	2697	12.32	2397753	5.11	2.4095	
6550	7050	6800	21884	46879087	2597	11.87	2397853	5.11	2.3201	
6600	7100	6850	21884	46879087	2497	11.41	2397953	5.12	2.2306	
6650	7150	6900	21884	46879087	2397	10.95	2398053	5.12	2.1412	
6700	7200	6950	21884	46879087	2297	10.50	2398153	5.12	2.0518	
6750	7250	7000	21884	46879087	2197	10.04	2398253	5.12	1.9624	
6800	7300	7050	21884	46879087	2097	9.58	2398353	5.12	1.8730	
6850	7350	7100	21884	46879087	2005	9.16	2398445	5.12	1.7908	
6900	7400	7150	21884	46879087	1975	9.02	2398475	5.12	1.7639	
6950	7450	7200	21884	46879087	1925	8.80	2398525	5.12	1.7192	
7000	7500	7250	21884	46879087	1875	8.57	2398575	5.12	1.6746	
7050	7550	7300	21884	46879087	1825	8.34	2398625	5.12	1.6299	
7100	7600	7350	21884	46879087	1775	8.11	2398675	5.12	1.5852	
7150	7650	7400	21884	46879087	1725	7.88	2398725	5.12	1.5405	
7200	7700	7450	21884	46879087	1675	7.65	2398775	5.12	1.4958	
7250	7750	7500	21884	46879087	1625	7.43	2398825	5.12	1.4511	
7300	7800	7550	21884	46879087	1575	7.20	2398875	5.12	1.4065	
7350	7850	7600	21884	46879087	1525	6.97	2398925	5.12	1.3618	
7400	7900	7650	21884	46879087	1500	6.85	2398950	5.12	1.3394	
7450	7950	7700	21884	46879087	1543	7.05	2398907	5.12	1.3779	
7500	8000	7750	21884	46879087	1587	7.25	2398863	5.12	1.4172	
7550	8050	7800	21884	46879087	1587	7.25	2398863	5.12	1.4172	
7600	8100	7850	21884	46879087	1587	7.25	2398863	5.12	1.4172	
7650	8150	7900	21884	46879087	1543	7.05	2398907	5.12	1.3779	
7700	8200	7950	21884	46879087	1493	6.82	2398957	5.12	1.3332	
7750	8250	8000	21884	46879087	1443	6.59	2399007	5.12	1.2885	
7800	8300	8050	21884	46879087	1393	6.37	2399057	5.12	1.2438	
7850	8350	8100	21884	46879087	1343	6.14	2399107	5.12	1.1992	
7900	8400	8150	21884	46879087	1293	5.91	2399157	5.12	1.1545	
7950	8450	8200	21884	46879087	1200	5.48	2399250	5.12	1.0714	
8000	8500	8250	21884	46879087	1106	5.05	2399344	5.12	0.9874	
8050	8550	8300	21884	46879087	1056	4.83	2399394	5.12	0.9428	
8100	8600	8350	21884	46879087	1006	4.60	2399444	5.12	0.8981	
8150	8650	8400	21884	46879087	1000	4.57	2399450	5.12	0.8928	
8200	8700	8450	21884	46879087	957	4.37	2399493	5.12	0.8544	
8250	8750	8500	21884	46879087	907	4.14	2399543	5.12	0.8097	
8300	8800	8550	21884	46879087	857	3.92	2399593	5.12	0.7651	
8350	8850	8600	21884	46879087	807	3.69	2399643	5.12	0.7204	
8400	8900	8650	21884	46879087	757	3.46	2399693	5.12	0.6758	
8450	8950	8700	21884	46879087	707	3.23	2399743	5.12	0.6311	
8500	9000	8750	21884	46879087	657	3.00	2399793	5.12	0.5865	
8550	9050	8800	21884	46879087	613	2.80	2399837	5.12	0.5472	
8600	9100	8850	21884	46879087	613	2.80	2399837	5.12	0.5472	
8650	9150	8900	21884	46879087	613	2.80	2399837	5.12	0.5472	
8700	9200	8950	21884	46879087	656	3.00	2399794	5.12	0.5856	
8750	9250	9000	21884	46879087	706	3.23	2399744	5.12	0.6302	
8800	9300	9050	21884	46879087	756	3.45	2399694	5.12	0.6749	
8850	9350	9100	21884	46879087	806	3.68	2399644	5.12	0.7195	
8900	9400	9150	21884	46879087	856	3.91	2399594	5.12	0.7642	
8950	9450	9200	21884	46879087	906	4.14	2399544	5.12	0.8088	
9000	9500	9250	21884	46879087	956	4.37	2399494	5.12	0.8535	
9050	9550	9300	21884	46879087	1000	4.57	2399450	5.12	0.8928	
9100	9600	9350	21884	46879087	1000	4.57	2399450	5.12	0.8928	
9150	9650	9400	21884	46879087	1000	4.57	2399450	5.12	0.8928	
9200	9700	9450	21884	46879087	1000	4.57	2399450	5.12	0.8928	
9250	9750	9500	21884	46879087	1000	4.57	2399450	5.12	0.8928	
9300	9800	9550	21884	46879087	1000	4.57	2399450	5.12	0.8928	
9350	9850	9600	21884	46879087	1000	4.57	2399450	5.12	0.8928	
9400	9900	9650	21884	46879087	1000	4.57	2399450	5.12	0.8928	
9450	9950	9700	21884	46879087	1004	4.59	2399446	5.12	0.8963	
9500	10000	9750	21884	46879087	1087	4.97	2399363	5.12	0.9705	
9550	10050	9800	21884	46879087	1187	5.42	2399263	5.12	1.0598	
9600	10100	9850	21884	46879087	1287	5.88	2399163	5.12	1.1491	
9650	10150	9900	21884	46879087	1387	6.34	2399063	5.12	1.2385	
9700	10200	9950	21884	46879087	1487	6.79	2398963	5.12	1.3278	
9750	10250	10000	21884	46879087	1581	7.22	2398869	5.12	1.4118	
9800	10300	10050	21884	46879087	1631	7.45	2398819	5.12	1.4565	
9850	10350	10100	21884	46879087	1681	7.68	2398769	5.12	1.5012	
9900	10400	10150	21884	46879087	1731	7.91	2398719	5.12	1.5459	
9950	10450	10200	21884	46879087	1777	8.12	2398673	5.12	1.5870	
10000	10500	10250	21884	46879087	1757	8.03	2398693	5.12	1.5691	
10050	10550	10300	21884	46879087	1707	7.80	2398743	5.12	1.5244	
10100	10600	10350	21884	46879087	1657	7.57	2398793	5.12	1.4797	
10150	10650	10400	21884	46879087	1607	7.34	2398843	5.12	1.4350	
10200	10700	10450	21884	46879087	1557	7.11	2398893	5.12	1.3904	
10250	10750	10500	21884	46879087	1513	6.91	2398937	5.12	1.3511	
10300	10800	10550	21884	46879087	1524	6.96	2398926	5.12	1.3609	
10350	10850	10600	21884	46879087	1574	7.19	2398876	5.12	1.4056	
10400	10900	10650	21884	46879087	1624	7.42	2398826	5.12	1.4502	
10450	10950	10700	21884	46879087	1674	7.65	2398776	5.12	1.4949	
10500	11000	10750	21884	46879087	1711	7.82	2398739	5.12	1.5280	
10550	11050	10800	21884	46879087	1761	8.05	2398689	5.12	1.5727	
10600	11100	10850	21884	46879087	1811	8.28	2398639	5.12	1.6174	
10650	11150	10900	21884	46879087	1861	8.50	2398589	5.12	1.6620	
10700	11200	10950	21884	46879087	1911	8.73	2398539	5.12	1.7067	
10750	11250	11000	21884	46879087	1961	8.96	2398489	5.12	1.7514	
10800	11300	11050	21884	46879087	2000	9.14	2398450	5.12	1.7863	
10850	11350	11100	21884	46879087	2000	9.14	2398450	5.12	1.7863	
10900	11400	11150	21884	46879087	2000	9.14	2398450	5.12	1.7863	
10950	11450	11200	21884	46879087	2000	9.14	2398450	5.12	1.7863	
11000	11500	11250	21884	46879087	2000	9.14	2398450	5.12	1.7863	
11050	11550	11300	21884	46879087	1989	9.09	2398461	5.12	1.7765	
11100	11600	11350	21884	46879087	1939	8.86	2398511	5.12	1.7318	
11150	11650	11400	21884	46879087	1889	8.63	2398561	5.12	1.6871	
11200	11700	11450	21884	46879087	1839	8.40	2398611	5.12	1.6424	
11250	11750	11500	21884	46879087	1785	8.16	2398665	5.12	1.5941	
11300	11800	11550	21884	46879087	1685	7.70	2398765	5.12	1.5048	
11350	11850	11600	21884	46879087	1585	7.24	2398865	5.12	1.4154	
11400	11900	11650	21884	46879087	1485	6.79	2398965	5.12	1.3260	
11450	11950	11700	21884	46879087	1385	6.33	2399065	5.12	1.2367	
11500	12000	11750	21884	46879087	1285	5.87	2399165	5.12	1.1473	
11550	12050	11800	21884	46879087	1196	5.47	2399254	5.12	1.0678	
11600	12100	11850	21884	46879087	1146	5.24	2399304	5.12	1.0232	
11650	12150	11900	21884	46879087	1096	5.01	2399354	5.12	0.9785	
11700	12200	11950	21884	46879087	1046	4.78	2399404	5.12	0.9339	
11750	12250	12000	21884	46879087	1000	4.57	2399450	5.12	0.8928	
11800	12300	12050	21884	46879087	1000	4.57	2399450	5.12	0.8928	
11850	12350	12100	21884	46879087	1000	4.57	2399450	5.12	0.8928	
11900	12400	12150	21884	46879087	1038	4.74	2399412	5.12	0.9267	
11950	12450	12200	21884	46879087	1088	4.97	2399362	5.12	0.9714	
12000	12500	12250	21884	46879087	1138	5.20	2399312	5.12	1.0160	
12050	12550	12300	21884	46879087	1188	5.43	2399262	5.12	1.0607	
12100	12600	12350	21884	46879087	1238	5.66	2399212	5.12	1.1054	
12150	12650	12400	21884	46879087	1292	5.90	2399158	5.12	1.1536	
12200	12700	12450	21884	46879087	1392	6.36	2399058	5.12	1.2429	
12250	12750	12500	21884	46879087	1492	6.82	2398958	5.12	1.3323	
12300	12800	12550	21884	46879087	1592	7.27	2398858	5.12	1.4216	
12350	12850	12600	21884	46879087	1692	7.73	2398758	5.12	1.5110	
12400	12900	12650	21884	46879087	1754	8.01	2398696	5.12	1.5664	
12450	12950	12700	21884	46879087	1804	8.24	2398646	5.12	1.6111	
12500	13000	12750	21884	46879087	1854	8.47	2398596	5.12	1.6558	
12550	13050	12800	21884	46879087	1904	8.70	2398546	5.12	1.7005	
12600	13100	12850	21884	46879087	1954	8.93	2398496	5.12	1.7452	
12650	13150	12900	21884	46879087	2000	9.14	2398450	5.12	1.7863	
12700	13200	12950	21809	46879162	2000	9.17	2398450	5.12	1.7924	
12750	13250	13000	21709	46879262	2000	9.21	2398450	5.12	1.8007	
12800	13300	13050	21609	46879362	1967	9.10	2398483	5.12	1.7792	
12850	13350	13100	21509	46879462	1917	8.91	2398533	5.12	1.7420	
12900	13400	13150	21409	46879562	1867	8.72	2398583	5.12	1.7044	
12950	13450	13200	21384	46879587	1817	8.50	2398633	5.12	1.6607	
13000	13500	13250	21384	46879587	1767	8.26	2398683	5.12	1.6149	
13050	13550	13300	21384	46879587	1723	8.06	2398727	5.12	1.5747	
13100	13600	13350	21384	46879587	1747	8.17	2398703	5.12	1.5967	
13150	13650	13400	21475	46879496	1797	8.37	2398653	5.12	1.6354	
13200	13700	13450	21575	46879396	1847	8.56	2398603	5.12	1.6732	
13250	13750	13500	21675	46879296	1897	8.75	2398553	5.12	1.7106	
13300	13800	13550	21775	46879196	1980	9.09	2398470	5.12	1.7773	
13350	13850	13600	21875	46879096	2080	9.51	2398370	5.12	1.8586	
13400	13900	13650	21884	46879087	2156	9.85	2398294	5.12	1.9257	
13450	13950	13700	21884	46879087	2206	10.08	2398244	5.12	1.9704	
13500	14000	13750	21884	46879087	2256	10.31	2398194	5.12	2.0151	
13550	14050	13800	21884	46879087	2300	10.51	2398150	5.12	2.0545	
13600	14100	13850	21884	46879087	2276	10.40	2398174	5.12	2.0330	
13650	14150	13900	21884	46879087	2226	10.17	2398224	5.12	1.9883	
13700	14200	13950	21884	46879087	2176	9.94	2398274	5.12	1.9436	
13750	14250	14000	21884	46879087	2126	9.71	2398324	5.12	1.8989	
13800	14300	14050	21884	46879087	2076	9.49	2398374	5.12	1.8542	
13850	14350	14100	21884	46879087	2075	9.48	2398375	5.12	1.8533	
13900	14400	14150	21884	46879087	2099	9.59	2398351	5.12	1.8748	
13950	14450	14200	21884	46879087	2149	9.82	2398301	5.12	1.9195	
14000	14500	14250	21884	46879087	2224	10.16	2398226	5.12	1.9865	
14050	14550	14300	21884	46879087	2324	10.62	2398126	5.12	2.0759	
14100	14600	14350	21884	46879087	2424	11.08	2398026	5.12	2.1654	
14150	14650	14400	21884	46879087	2551	11.66	2397899	5.12	2.2789	
14200	14700	14450	21884	46879087	2701	12.34	2397749	5.11	2.4131	
14250	14750	14500	21884	46879087	2851	13.03	2397599	5.11	2.5473	
14300	14800	14550	21884	46879087	3001	13.71	2397449	5.11	2.6814	
14350	14850	14600	21884	46879087	3102	14.17	2397348	5.11	2.7718	
14400	14900	14650	21884	46879087	3202	14.63	2397248	5.11	2.8613	
14450	14950	14700	21884	46879087	3302	15.09	2397148	5.11	2.9508	
14500	15000	14750	21884	46879087	3377	15.43	2397073	5.11	3.0179	
14550	15050	14800	21884	46879087	3421	15.63	2397029	5.11	3.0573	
14600	15100	14850	21884	46879087	3334	15.23	2397116	5.11	2.9794	
14650	15150	14900	21884	46879087	3207	14.65	2397243	5.11	2.8658	
14700	15200	14950	21884	46879087	3057	13.97	2397393	5.11	2.7315	
14750	15250	15000	21884	46879087	2882	13.17	2397568	5.11	2.5750	
14800	15300	15050	21884	46879087	2699	12.33	2397751	5.11	2.4113	
14850	15350	15100	21884	46879087	2545	11.63	2397905	5.12	2.2736	
14900	15400	15150	21884	46879087	2345	10.72	2398105	5.12	2.0947	
14950	15450	15200	21884	46879087	2145	9.80	2398305	5.12	1.9159	
15000	15500	15250	21884	46879087	1945	8.89	2398505	5.12	1.7371	
15050	15550	15300	21884	46879087	1751	8.00	2398699	5.12	1.5637	
15100	15600	15350	21884	46879087	1688	7.71	2398762	5.12	1.5074	
15150	15650	15400	21884	46879087	1656	7.57	2398794	5.12	1.4788	
15200	15700	15450	21884	46879087	1629	7.44	2398821	5.12	1.4547	
15250	15750	15500	21884	46879087	1604	7.33	2398846	5.12	1.4324	
15300	15800	15550	21884	46879087	1587	7.25	2398863	5.12	1.4172	
15350	15850	15600	21884	46879087	1541	7.04	2398909	5.12	1.3761	
15400	15900	15650	21884	46879087	1541	7.04	2398909	5.12	1.3761	
15450	15950	15700	21884	46879087	1541	7.04	2398909	5.12	1.3761	
15500	16000	15750	21884	46879087	1541	7.04	2398909	5.12	1.3761	
15550	16050	15800	21884	46879087	1541	7.04	2398909	5.12	1.3761	
15600	16100	15850	21884	46879087	1541	7.04	2398909	5.12	1.3761	
15650	16150	15900	21884	46879087	1547	7.07	2398903	5.12	1.3814	
15700	16200	15950	21884	46879087	1574	7.19	2398876	5.12	1.4056	
15750	16250	16000	21884	46879087	1606	7.34	2398844	5.12	1.4342	
15800	16300	16050	21884	46879087	1606	7.34	2398844	5.12	1.4342	
15850	16350	16100	21884	46879087	1606	7.34	2398844	5.12	1.4342	
15900	16400	16150	21884	46879087	1606	7.34	2398844	5.12	1.4342	
15950	16450	16200	21884	46879087	1606	7.34	2398844	5.12	1.4342	
16000	16500	16250	21884	46879087	1606	7.34	2398844	5.12	1.4342	
16050	16550	16300	21884	46879087	1606	7.34	2398844	5.12	1.4342	
16100	16600	16350	21884	46879087	1606	7.34	2398844	5.12	1.4342	
16150	16650	16400	21884	46879087	1582	7.23	2398868	5.12	1.4127	
16200	16700	16450	21884	46879087	1532	7.00	2398918	5.12	1.3680	
16250	16750	16500	21884	46879087	1500	6.85	2398950	5.12	1.3394	
16300	16800	16550	21884	46879087	1500	6.85	2398950	5.12	1.3394	
16350	16850	16600	21884	46879087	1500	6.85	2398950	5.12	1.3394	
16400	16900	16650	21884	46879087	1500	6.85	2398950	5.12	1.3394	
16450	16950	16700	21884	46879087	1483	6.78	2398967	5.12	1.3242	
16500	17000	16750	21884	46879087	1433	6.55	2399017	5.12	1.2796	
16550	17050	16800	21884	46879087	1383	6.32	2399067	5.12	1.2349	
16600	17100	16850	21884	46879087	1333	6.09	2399117	5.12	1.1902	
16650	17150	16900	21884	46879087	1283	5.86	2399167	5.12	1.1456	
16700	17200	16950	21884	46879087	1233	5.63	2399217	5.12	1.1009	
16750	17250	17000	21884	46879087	1183	5.41	2399267	5.12	1.0562	
16800	17300	17050	21884	46879087	1133	5.18	2399317	5.12	1.0116	
16850	17350	17100	21884	46879087	1083	4.95	2399367	5.12	0.9669	
16900	17400	17150	21884	46879087	1033	4.72	2399417	5.12	0.9222	
16950	17450	17200	21884	46879087	1000	4.57	2399450	5.12	0.8928	
17000	17500	17250	21884	46879087	1000	4.57	2399450	5.12	0.8928	
17050	17550	17300	21884	46879087	1000	4.57	2399450	5.12	0.8928	
17100	17600	17350	21884	46879087	1000	4.57	2399450	5.12	0.8928	
17150	17650	17400	21884	46879087	1000	4.57	2399450	5.12	0.8928	
17200	17700	17450	21884	46879087	1000	4.57	2399450	5.12	0.8928	
17250	17750	17500	21884	46879087	1000	4.57	2399450	5.12	0.8928	
17300	17800	17550	21884	46879087	1000	4.57	2399450	5.12	0.8928	
17350	17850	17600	21884	46879087	1017	4.65	2399433	5.12	0.9080	
17400	17900	17650	21840	46879131	1067	4.89	2399383	5.12	0.9545	
17450	17950	17700	21740	46879231	1117	5.14	2399333	5.12	1.0039	
17500	18000	17750	21640	46879331	1167	5.39	2399283	5.12	1.0537	
17550	18050	17800	21540	46879431	1217	5.65	2399233	5.12	1.1040	
17600	18100	17850	21440	46879531	1267	5.91	2399183	5.12	1.1547	
17650	18150	17900	21428	46879543	1317	6.15	2399133	5.12	1.2010	
17700	18200	17950	21528	46879443	1367	6.35	2399083	5.12	1.2408	
17750	18250	18000	21628	46879343	1417	6.55	2399033	5.12	1.2803	
17800	18300	18050	21728	46879243	1467	6.75	2398983	5.12	1.3194	
17850	18350	18100	21828	46879143	1500	6.87	2398950	5.12	1.3429	
17900	18400	18150	21884	46879087	1500	6.85	2398950	5.12	1.3394	
17950	18450	18200	21884	46879087	1500	6.85	2398950	5.12	1.3394	
18000	18500	18250	21884	46879087	1500	6.85	2398950	5.12	1.3394	
18050	18550	18300	21884	46879087	1500	6.85	2398950	5.12	1.3394	
18100	18600	18350	21884	46879087	1500	6.85	2398950	5.12	1.3394	
18150	18650	18400	21884	46879087	1500	6.85	2398950	5.12	1.3394	
18200	18700	18450	21884	46879087	1500	6.85	2398950	5.12	1.3394	
18250	18750	18500	21884	46879087	1500	6.85	2398950	5.12	1.3394	
18300	18800	18550	21884	46879087	1500	6.85	2398950	5.12	1.3394	
18350	18850	18600	21884	46879087	1500	6.85	2398950	5.12	1.3394	
18400	18900	18650	21884	46879087	1500	6.85	2398950	5.12	1.3394	
18450	18950	18700	21884	46879087	1500	6.85	2398950	5.12	1.3394	
18500	19000	18750	21884	46879087	1500	6.85	2398950	5.12	1.3394	
18550	19050	18800	21884	46879087	1500	6.85	2398950	5.12	1.3394	
18600	19100	18850	21884	46879087	1500	6.85	2398950	5.12	1.3394	
18650	19150	18900	21884	46879087	1500	6.85	2398950	5.12	1.3394	
18700	19200	18950	21884	46879087	1500	6.85	2398950	5.12	1.3394	
18750	19250	19000	21884	46879087	1500	6.85	2398950	5.12	1.3394	
18800	19300	19050	21884	46879087	1500	6.85	2398950	5.12	1.3394	
18850	19350	19100	21884	46879087	1500	6.85	2398950	5.12	1.3394	
18900	19400	19150	21884	46879087	1500	6.85	2398950	5.12	1.3394	
18950	19450	19200	21884	46879087	1500	6.85	2398950	5.12	1.3394	
19000	19500	19250	21884	46879087	1500	6.85	2398950	5.12	1.3394	
19050	19550	19300	21884	46879087	1500	6.85	2398950	5.12	1.3394	
19100	19600	19350	21884	46879087	1500	6.85	2398950	5.12	1.3394	
19150	19650	19400	21884	46879087	1500	6.85	2398950	5.12	1.3394	
19200	19700	19450	21884	46879087	1506	6.88	2398944	5.12	1.3448	
19250	19750	19500	21884	46879087	1556	7.11	2398894	5.12	1.3895	
19300	19800	19550	21884	46879087	1606	7.34	2398844	5.12	1.4342	
19350	19850	19600	21884	46879087	1656	7.57	2398794	5.12	1.4788	
19400	19900	19650	21884	46879087	1706	7.80	2398744	5.12	1.5235	
19450	19950	19700	21884	46879087	1756	8.02	2398694	5.12	1.5682	
19500	20000	19750	21884	46879087	1806	8.25	2398644	5.12	1.6129	
19550	20050	19800	21884	46879087	1856	8.48	2398594	5.12	1.6576	
19600	20100	19850	21884	46879087	1906	8.71	2398544	5.12	1.7023	
19650	20150	19900	21884	46879087	1956	8.94	2398494	5.12	1.7470	
19700	20200	19950	21884	46879087	2000	9.14	2398450	5.12	1.7863	
19750	20250	20000	21884	46879087	2000	9.14	2398450	5.12	1.7863	
19800	20300	20050	21884	46879087	1994	9.11	2398456	5.12	1.7809	
19850	20350	20100	21884	46879087	1965	8.98	2398485	5.12	1.7550	
19900	20400	20150	21884	46879087	1965	8.98	2398485	5.12	1.7550	
19950	20450	20200	21884	46879087	1965	8.98	2398485	5.12	1.7550	
20000	20500	20250	21884	46879087	1965	8.98	2398485	5.12	1.7550	
20050	20550	20300	21884	46879087	1965	8.98	2398485	5.12	1.7550	
20100	20600	20350	21884	46879087	1965	8.98	2398485	5.12	1.7550	
20150	20650	20400	21884	46879087	1965	8.98	2398485	5.12	1.7550	
20200	20700	20450	21884	46879087	1965	8.98	2398485	5.12	1.7550	
20250	20750	20500	21884	46879087	1965	8.98	2398485	5.12	1.7550	
20300	20800	20550	21884	46879087	1974	9.02	2398476	5.12	1.7630	
20350	20850	20600	21884	46879087	2003	9.15	2398447	5.12	1.7890	
20400	20900	20650	21884	46879087	2003	9.15	2398447	5.12	1.7890	
20450	20950	20700	21884	46879087	2003	9.15	2398447	5.12	1.7890	
20500	21000	20750	21884	46879087	2003	9.15	2398447	5.12	1.7890	
20550	21050	20800	21884	46879087	2003	9.15	2398447	5.12	1.7890	
20600	21100	20850	21884	46879087	2003	9.15	2398447	5.12	1.7890	
20650	21150	20900	21884	46879087	2003	9.15	2398447	5.12	1.7890	
20700	21200	20950	21884	46879087	2003	9.15	2398447	5.12	1.7890	
20750	21250	21000	21884	46879087	1994	9.11	2398456	5.12	1.7809	
20800	21300	21050	21884	46879087	1991	9.10	2398459	5.12	1.7782	
20850	21350	21100	21884	46879087	1991	9.10	2398459	5.12	1.7782	
20900	21400	21150	21884	46879087	1991	9.10	2398459	5.12	1.7782	
20950	21450	21200	21884	46879087	1991	9.10	2398459	5.12	1.7782	
21000	21500	21250	21884	46879087	1991	9.10	2398459	5.12	1.7782	
21050	21550	21300	21884	46879087	1964	8.97	2398486	5.12	1.7541	
21100	21600	21350	21884	46879087	1914	8.75	2398536	5.12	1.7094	
21150	21650	21400	21884	46879087	1864	8.52	2398586	5.12	1.6647	
21200	21700	21450	21884	46879087	1819	8.31	2398631	5.12	1.6245	
21250	21750	21500	21884	46879087	1828	8.35	2398622	5.12	1.6326	
21300	21800	21550	21884	46879087	1828	8.35	2398622	5.12	1.6326	
21350	21850	21600	21884	46879087	1816	8.30	2398634	5.12	1.6218	
21400	21900	21650	21884	46879087	1766	8.07	2398684	5.12	1.5771	
21450	21950	21700	21884	46879087	1716	7.84	2398734	5.12	1.5325	
21500	22000	21750	21884	46879087	1666	7.61	2398784	5.12	1.4878	
21550	22050	21800	21884	46879087	1643	7.51	2398807	5.12	1.4672	
21600	22100	21850	21884	46879087	1643	7.51	2398807	5.12	1.4672	
21650	22150	21900	21884	46879087	1643	7.51	2398807	5.12	1.4672	
21700	22200	21950	21884	46879087	1621	7.41	2398829	5.12	1.4476	
21750	22250	22000	21884	46879087	1521	6.95	2398929	5.12	1.3582	
21800	22300	22050	21884	46879087	1421	6.49	2399029	5.12	1.2689	
21850	22350	22100	21884	46879087	1333	6.09	2399117	5.12	1.1902	
21900	22400	22150	21884	46879087	1283	5.86	2399167	5.12	1.1456	
21950	22450	22200	21884	46879087	1233	5.63	2399217	5.12	1.1009	
22000	22500	22250	21884	46879087	1183	5.41	2399267	5.12	1.0562	
22050	22550	22300	21884	46879087	1133	5.18	2399317	5.12	1.0116	
22100	22600	22350	21884	46879087	1083	4.95	2399367	5.12	0.9669	
22150	22650	22400	21884	46879087	1033	4.72	2399417	5.12	0.9222	
22200	22700	22450	21884	46879087	1000	4.57	2399450	5.12	0.8928	
22250	22750	22500	21884	46879087	1000	4.57	2399450	5.12	0.8928	
22300	22800	22550	21884	46879087	1000	4.57	2399450	5.12	0.8928	
22350	22850	22600	21884	46879087	1000	4.57	2399450	5.12	0.8928	
22400	22900	22650	21884	46879087	1000	4.57	2399450	5.12	0.8928	
22450	22950	22700	21884	46879087	1000	4.57	2399450	5.12	0.8928	
22500	23000	22750	21884	46879087	1000	4.57	2399450	5.12	0.8928	
22550	23050	22800	21884	46879087	1000	4.57	2399450	5.12	0.8928	
22600	23100	22850	21884	46879087	1000	4.57	2399450	5.12	0.8928	
22650	23150	22900	21884	46879087	1000	4.57	2399450	5.12	0.8928	
22700	23200	22950	21884	46879087	1000	4.57	2399450	5.12	0.8928	
22750	23250	23000	21884	46879087	1000	4.57	2399450	5.12	0.8928	
22800	23300	23050	21884	46879087	1000	4.57	2399450	5.12	0.8928	
22850	23350	23100	21884	46879087	1000	4.57	2399450	5.12	0.8928	
22900	23400	23150	21884	46879087	1000	4.57	2399450	5.12	0.8928	
22950	23450	23200	21884	46879087	1000	4.57	2399450	5.12	0.8928	
23000	23500	23250	21884	46879087	1000	4.57	2399450	5.12	0.8928	
23050	23550	23300	21884	46879087	1000	4.57	2399450	5.12	0.8928	
23100	23600	23350	21884	46879087	1000	4.57	2399450	5.12	0.8928	
23150	23650	23400	21884	46879087	1000	4.57	2399450	5.12	0.8928	
23200	23700	23450	21884	46879087	1000	4.57	2399450	5.12	0.8928	
23250	23750	23500	21884	46879087	1000	4.57	2399450	5.12	0.8928	
23300	23800	23550	21884	46879087	1000	4.57	2399450	5.12	0.8928	
23350	23850	23600	21884	46879087	1000	4.57	2399450	5.12	0.8928	
23400	23900	23650	21884	46879087	1045	4.78	2399405	5.12	0.9330	
23450	23950	23700	21884	46879087	1095	5.00	2399355	5.12	0.9776	
23500	24000	23750	21884	46879087	1156	5.28	2399294	5.12	1.0321	
23550	24050	23800	21884	46879087	1256	5.74	2399194	5.12	1.1214	
23600	24100	23850	21884	46879087	1356	6.20	2399094	5.12	1.2108	
23650	24150	23900	21884	46879087	1456	6.65	2398994	5.12	1.3001	
23700	24200	23950	21884	46879087	1556	7.11	2398894	5.12	1.3895	
23750	24250	24000	21884	46879087	1656	7.57	2398794	5.12	1.4788	
23800	24300	24050	21884	46879087	1756	8.02	2398694	5.12	1.5682	
23850	24350	24100	21884	46879087	1856	8.48	2398594	5.12	1.6576	
23900	24400	24150	21884	46879087	1911	8.73	2398539	5.12	1.7067	
23950	24450	24200	21884	46879087	1961	8.96	2398489	5.12	1.7514	
24000	24500	24250	21884	46879087	2000	9.14	2398450	5.12	1.7863	
24050	24550	24300	21884	46879087	2000	9.14	2398450	5.12	1.7863	
24100	24600	24350	21884	46879087	2000	9.14	2398450	5.12	1.7863	
24150	24650	24400	21884	46879087	2000	9.14	2398450	5.12	1.7863	
24200	24700	24450	21884	46879087	2000	9.14	2398450	5.12	1.7863	
24250	24750	24500	21884	46879087	1989	9.09	2398461	5.12	1.7765	
24300	24800	24550	21884	46879087	1939	8.86	2398511	5.12	1.7318	
24350	24850	24600	21884	46879087	1889	8.63	2398561	5.12	1.6871	
24400	24900	24650	21884	46879087	1839	8.40	2398611	5.12	1.6424	
24450	24950	24700	21884	46879087	1789	8.17	2398661	5.12	1.5977	
24500	25000	24750	21884	46879087	1772	8.10	2398678	5.12	1.5825	
